layer
1.051193 0.311201 -0.084879 0.381055 -0.167744 0.645603 0.908377 -0.279947 -0.925824 0.291961 -0.250680 -0.798827 -0.388983 -0.426898 0.603509 -0.513031 -0.897893 -0.242574 0.858698 -0.952111 -0.974059 -0.750026 -0.413675 0.433297 -0.122950 -0.732989 -0.942983 0.019069 -0.498432 0.659258 -0.365399 0.925730 -0.949923 -0.476966 0.261683 -0.117489 -0.072130 0.009958 0.610559 -0.720136 -0.330929 0.414405 -0.317948 0.860681 0.875718 0.348474 0.582856 -0.203793 0.340419 -0.940849 0.523994 -0.461665 -0.134514 0.081936 -0.220874 0.090323 0.429310 0.436728 0.919425 0.899191 -0.916240 -0.255578 -0.470902 -0.440855 -0.741040 0.180863 -0.702305 0.113175 0.102516 -0.356186 0.716642 0.657346 -0.367786 -0.795315 -0.412274 -0.373026 -0.938335 -0.548679 -0.914661 -0.856980 0.819037 -0.042092 -0.758318 -0.580805 0.545779 0.101771 0.078836 -0.953811 -0.726200 -0.362655 -0.334018 -0.533605 0.888604 0.561050 -0.285209 -0.062576 -0.276113 1.026223 -0.122822 -0.162193 -0.115211 -0.400988 0.524175 -0.744383 0.490260 -0.318341 0.890950 0.682010 -0.545792 0.068042 0.748515 -0.483707 0.392511 -0.176364 -0.566764 -0.103055 0.101150 -0.063923 -0.740810 -0.474224 0.130673 0.278562 -0.346879 -0.179402 0.291079 -0.896314 0.228750 0.139483 -0.856870 -0.417712 0.299130 0.744708 0.218549 -0.545343 0.768856 1.216372 0.974629 0.425605 0.069203 0.848561 0.107753 -0.507824 -0.594217 0.930634 0.162591 -0.323137 -0.215348 -0.063825 -0.447814 0.401345 -0.526612 0.202373 -0.006001 0.470656 0.258306 0.488071 0.458578 -0.908639 0.456132 -0.400290 -0.161489 0.624461 0.201919 0.818761 0.539389 -0.021661 0.014096 -0.214798 -0.693167 -0.923293 -0.190804 -0.529654 -0.794382 -0.036518 -0.486345 -0.679543 -0.264590 -0.153134 -0.418978 -0.243654 0.868096 1.219992 1.273292 0.676019 0.791628 0.802098 0.537733 -0.262471 1.400032 -0.217187 -0.327225 -1.152790 -0.117899 0.119775 -0.667323 -0.044460 0.244317 -0.904142 -0.979170 -0.999810 -0.680022 0.940748 -0.270174 -0.160882 0.024691 0.117508 0.536837 0.174890 0.649656 0.514231 0.377942 0.855218 1.127713 0.192739 0.300502 0.047535 1.373049 0.191129 0.053970 0.042275 -0.206745 -0.941596 -0.528136 -0.615819 -0.075422 0.705176 0.436703 0.515179 0.155133 0.417273 -0.770068 -0.228615 0.094160 -0.797136 -0.038466 -0.653574 0.075514 0.656626 1.003115 1.294264 -0.138508 0.309086 0.558639 0.543756 0.751047 0.427457 0.010952 0.065912 0.349058 0.201433 0.067349 -0.010926 -0.808097 0.834331 -0.706636 -0.568440 -0.541553 -0.377154 -0.958213 -0.721081 0.191441 -0.508387 0.325268 -0.169043 0.734919 -0.209716 -0.616231 1.170272 0.475735 -0.596529 0.251247 -0.015158 -0.487489 -0.271541 0.104736 0.472676 -0.526721 -1.037893 -0.968287 -0.086459 -0.264543 0.986556 0.256780 0.538504 -0.255796 0.523859 -0.432331 0.654445 0.490176 -0.256111 -0.538546 -0.061823 0.399682 0.361862 0.578285 -0.554313 -1.275025 -0.392035 -0.627851 -1.045778 -0.212456 -0.742234 -0.671960 -0.939403 -0.360142 -0.371729 -0.873819 -0.916764 0.141836 -0.349829 -0.432137 -0.028984 0.160441 1.121664 -0.019345 0.730599 -0.237281 0.646092 0.296699 0.104753 -0.399317 0.073773 1.386892 1.233812 -0.034437 0.119961 0.078819 1.211146 0.149029 0.306308 0.273425 -0.124944 0.615035 -0.651413 0.166965 0.716688 -0.540088 -0.443095 -0.032671 -0.568855 0.229107 0.066707 0.124588 0.145047 0.059090 0.058420 -0.230107 0.173254 -0.433151 -1.176824 -0.491274 0.745272 0.039917 -0.250786 0.344520 0.594378 1.901025 0.726272 0.228719 -0.252597 -0.721055 0.442660 -0.243283 -0.428948 0.430079 -0.503913 -0.721222 0.909306 1.071880 1.451847 0.302940 -0.554423 -0.051702 -0.700748 -0.079813 -0.851057 -0.837955 -0.086167 0.299122 0.451450 0.356808 1.064021 0.870851 -0.240115 0.897220 -0.628892 0.756850 -0.685319 -0.322055 -0.623927 -0.348807 0.000136 -0.787980 0.545433 -0.755537 0.314226 -0.182717 -0.270665 -0.415066 -1.177139 -0.976898 -0.204596 -0.591174 -1.084076 -1.153451 -0.034430 -1.210579 1.030980 -0.231880 -0.279438 0.562307 -0.353660 0.404672 0.624372 -0.059222 0.154989 -0.089360 -0.544960 -0.430812 0.784149 0.501689 0.659821 0.994973 -0.039325 -0.527874 0.059571 -0.702560 -0.856056 0.197043 -0.280290 -0.484909 -0.387008 0.555098 -0.867070 -0.667632 -0.728029 0.083941 0.452768 0.300680 0.558871 0.810289 0.980951 0.375658 -0.212558 0.119132 -0.142208 0.824722 0.256519 0.453715 0.314590 0.301812 -0.513357 -0.896981 0.186099 -1.072020 -0.786376 -0.712685 -0.987391 -0.334498 -0.299175 -0.084831 0.317425 -1.025349 -0.254657 -0.653916 -1.130480 0.086321 -0.416299 -0.904640 0.045507 0.350491 0.333994 0.084253 -0.487491 -0.488812 0.496964 0.719367 -0.092139 0.709174 -0.107847 0.175494 0.035254 0.050818 -0.630292 0.477428 -0.687796 -0.139276 -0.182770 0.417679 0.447175 -0.311781 -0.355676 -0.882372 -0.155625 0.295893 -0.558347 0.507733 0.778318 -0.677190 -0.149297 0.042633 -0.705524 -0.680387 -0.651085 -0.651246 0.157062 0.874398 0.565471 -0.187147 -1.037972 -0.147242 0.451931 -0.982282 -0.210825 -1.056378 0.061463 -0.149093 -0.394618 -0.483848 -0.788872 -0.063697 -0.372050 -0.126517 -0.253983 0.322709 -0.713406 0.342766 0.612503 -0.078428 0.011272 -0.239403 -0.261701 0.946053 -0.588504 0.987398 0.661528 -0.393448 0.727303 -0.528172 -0.169385 0.481274 -0.858233 -0.283342 -0.013576 0.221597 0.492206 -0.813193 -1.155651 -0.057705 -0.500846 0.377960 0.395006 -0.690546 -0.452247 -0.310342 0.418387 -1.017771 0.566301 0.261336 0.771115 0.613208 -0.134997 0.144156 -0.562905 0.404251 0.463510 -0.131240 0.927614 -0.350157 0.290293 -0.116264 -0.433505 -0.703184 0.475889 0.163377 0.009841 -0.165856 -0.636414 -0.999965 -0.657158 0.697065 0.383930 -1.554790 -0.971529 -0.279843 0.639131 -0.582590 0.365739 -0.457974 0.725603 0.189575 0.030906 0.367053 0.141849 0.377594 -0.214620 0.501332 -0.456303 -1.048425 -0.366778 -0.837369 -0.197747 -0.517618 0.157787 -0.781743 -1.101016 -0.779827 -0.034793 -0.441090 -0.689189 -0.140681 -0.340947 0.222694 -0.560022 -0.057075 -0.780736 0.247014 -0.766062 -0.500614 0.743392 0.416529 0.066228 0.765756 -1.121301 -0.945627 -0.736470 0.230821 0.294208 0.494904 -0.313438 -1.176263 -0.448549 -0.354938 0.172357 0.292603 0.008068 -0.217399 0.264613 0.118386 0.461270 -0.308636 0.503571 -0.301685 -0.147998 -0.371380 -0.863633 0.232639 0.966922 -0.236344 -0.098361 1.085013 0.372314 -0.763181 0.663191 -1.541419 -0.956396 0.650271 -0.794622 0.826887 -0.021924 0.934512 0.855753 0.416900 -0.418878 0.427802 0.176996 0.798713 0.964270 -0.388574 0.959927 -0.194424 0.177279 -0.049680 -0.094190 -0.107716 0.752449 -0.767086 -0.618937 0.747074 -0.402532 1.223203 0.951327 0.907926 0.298041 -0.766136 0.934232 1.688468 0.102009 0.859919 0.941876 0.816553 0.826009 0.362137 -0.117361 0.279839 1.074310 -0.097695 0.879820 0.231736 0.346941 -0.789173 -0.766430 0.856795 0.471165 -0.225352 0.766688 0.790719 0.565902 1.011511 0.754010 0.637457 1.960600 1.835932 1.243481 1.980860 1.042804 1.452977 0.678375 0.991226 1.576918 1.432404 1.359101 0.912672 -0.792366 0.671866 -0.559545 -0.734530 -0.865801 0.426752 0.804018 0.373879 0.310781 0.792340 0.590599 -0.419216 -0.235527 0.744330 0.492295 1.035074 1.488837 0.403042 1.326063 0.605840 0.330901 0.531187 0.893338 0.873468 1.246797 0.281830 0.626373 -0.073179 -0.282097 -0.663287 -0.229557 0.421732 0.794862 -0.749926 0.506849 0.945607 0.354964 0.645253 0.394042 -0.929954 0.214591 -0.401165 0.647718 0.556211 -0.408345 0.588357 -0.259010 1.000071 0.816939 0.184383 0.366377 0.833887 0.856027 0.974652 0.673658 0.544736 -0.844622 0.849955 0.493482 0.874395 -0.279721 0.669931
-1.922506 -0.036454 0.865051 0.599129 0.501108 0.176411 -0.254793 -0.917136 -0.654266 -0.703022 -0.841640 -0.880469 -0.732536 0.679947 0.178396 -0.450964 0.778626 0.822093 0.783580 -0.771572 -0.461044 0.092621 -0.486466 -0.215825 -0.652418 0.164888 0.786280 0.713763 -0.937379 -0.434449 0.116846 -0.530702 0.591597 0.284339 -0.412273 -0.739578 0.219083 -0.508205 -0.143525 -0.955250 -0.169942 0.210041 -0.172325 0.166831 0.942612 0.587830 0.887456 0.810351 -0.522563 -0.862596 0.974603 0.459628 -0.202358 0.644231 0.369903 -0.479505 0.583487 -0.658428 0.940239 -0.359564 0.751965 0.899196 -0.470135 0.692702 0.138603 0.586870 0.139311 -0.755220 -0.691348 0.152077 -0.508484 -0.387068 -0.068997 -0.954991 -0.511959 -0.884852 -0.926948 0.253728 0.183570 0.130387 -0.845630 -0.000197 -0.437189 0.815822 0.222028 0.237957 0.020636 0.405692 -0.965375 -0.994807 0.853329 -0.798470 -0.333420 0.410230 0.550524 0.428828 -0.554652 -0.420052 0.616370 -0.397270 0.958023 -0.164488 -0.847546 -0.629426 -0.733172 -0.454170 -0.210699 0.359474 -0.556691 -0.333820 -0.546652 -0.579292 0.341963 0.759956 -0.893984 0.033905 -0.216982 0.045780 -0.735104 -0.373628 -0.175825 -0.429256 -0.317631 -0.691748 -0.233518 0.321402 -1.079625 0.026998 -0.148802 0.260213 0.766492 0.120162 0.219497 0.593624 -0.291121 -0.656752 0.479913 0.152255 -0.613800 -0.900474 0.482818 0.516017 -0.701355 -0.370642 -0.410663 0.545126 0.346060 0.648499 -0.133366 -1.316166 -0.476972 0.071277 -0.370243 -0.822423 -0.661654 0.636471 -0.641661 -0.511061 -0.274958 0.815280 0.908933 -1.021393 0.330031 0.080594 -0.436281 -0.092165 0.255980 -0.627856 0.858842 0.348146 0.512690 -0.872554 -0.873835 0.006791 -0.237572 0.740945 -0.849239 0.444671 0.224452 -0.823715 -1.218779 0.720396 0.799029 0.325291 0.032610 -1.271081 0.088965 -0.650483 0.488478 0.334834 -0.128619 -0.270351 0.579574 0.426655 -0.392410 0.057345 -0.014529 -0.953740 0.396163 -0.882824 0.412877 -0.567148 0.833041 0.884628 0.965677 0.956643 0.091141 -0.517463 0.895624 -0.394454 0.047559 -0.938860 -0.523868 -1.188769 -0.372806 -0.643460 0.965418 0.075924 0.337876 0.911603 -0.324734 0.181367 -0.828337 0.379065 0.622245 -0.456298 -0.783622 -0.159939 -0.808550 -0.553061 -0.619880 0.616295 0.725081 0.944443 1.219774 -0.928806 0.608719 0.801330 0.377305 0.951076 -0.928873 -0.166271 -0.272670 -0.086980 0.160237 0.536568 -0.480672 0.594285 0.423965 0.762490 -0.256786 0.120583 0.530788 0.050651 0.026687 0.282489 -0.824565 -0.573302 1.119013 1.033325 -0.578969 0.566641 0.684123 0.440899 0.599421 -0.258766 0.521094 -0.242153 -0.230913 -0.568917 -0.465050 0.119454 0.651199 -0.030340 1.227758 0.185496 0.747163 -0.611252 -1.106818 0.517477 0.275109 -0.977924 0.283816 0.003191 0.695001 0.846974 -0.195053 -0.419571 1.071679 0.441531 0.834834 -0.338641 0.152942 -1.007625 0.257262 -0.121009 0.302038 0.434451 -0.544498 0.960436 0.320938 -0.828358 -0.785870 0.523833 -0.011370 0.547720 -0.656898 -0.761946 0.549387 -0.487456 0.348579 -0.908072 0.019259 -0.446538 -0.215368 0.640756 0.595442 -0.604018 -0.596196 -0.274988 -0.819378 -0.267787 0.284760 0.046414 -0.133861 -0.111817 0.185880 0.011946 0.844915 0.047992 -0.010490 1.026105 0.036157 -0.616441 0.121753 -0.668134 -0.343134 0.900618 0.682002 -0.254890 -0.053094 0.435220 -0.035239 -0.985068 -1.219167 -0.395856 -0.841315 -0.579381 -0.628083 -0.776594 -0.286010 0.704209 0.290435 -0.813158 0.298273 0.257469 1.008339 0.211746 0.536042 0.683511 0.646721 0.380197 0.231679 0.704200 -0.328119 -0.814961 0.459130 -0.887253 -0.972640 0.266583 0.688092 -0.092670 -1.650208 -1.822783 0.036359 -1.553037 -1.029600 -0.062312 0.507847 0.593872 0.041880 0.345311 0.698314 -0.317565 -0.673418 0.826871 -0.194729 0.118252 0.706288 0.290825 -0.340103 0.353905 -0.357753 0.745582 0.244022 0.797536 -0.897700 -0.294357 -1.206378 -0.496509 -1.283014 -0.915873 -1.344811 -0.267370 0.404119 -0.740252 0.032133 1.260809 -0.562366 -0.466497 -0.017746 -0.135679 0.169144 0.266860 0.322926 0.937273 0.206813 -0.168137 -0.609798 0.032129 0.488774 -0.217247 -0.093179 -0.780839 -0.545525 0.217769 0.302281 -0.486959 -0.509163 -0.433799 -0.061215 -0.527857 0.105614 -0.258531 1.400773 1.407259 -0.578507 0.216379 -0.409986 0.870803 0.898772 -0.318899 -0.332247 -0.478581 -0.789195 -0.100845 0.322373 -0.050637 0.492323 -0.190995 -0.738743 -0.077842 0.436852 -0.946102 -0.317270 -1.268771 0.678390 -0.162292 -0.241311 0.112255 0.575504 0.193368 0.284509 0.365245 0.360337 -0.735423 0.414297 -0.393754 0.734996 -0.878294 0.927098 -0.270376 -1.049392 0.236550 -0.095246 -0.991934 -0.716535 0.962923 -0.751741 -0.318947 -0.098529 0.272183 0.547674 -0.186809 0.134036 0.401174 0.215793 -0.863027 0.945375 0.400789 0.711405 0.697593 -1.081027 -0.093436 -1.029759 -0.875777 -0.406188 -1.163432 0.586741 -1.091819 -0.805387 -0.231437 0.447651 -0.735418 0.320800 0.269981 -0.406495 0.041198 0.109333 -0.377819 0.678498 -0.680699 -1.116449 -0.546473 -0.142095 0.655941 0.009541 0.891863 0.284213 -0.838023 0.047514 -0.361502 -0.345725 -0.483556 -0.251726 -1.224527 -0.299562 -1.544848 0.149605 0.537225 -0.821124 0.415471 0.934983 0.905368 0.674577 -0.840768 0.213102 0.871682 -0.670353 0.714717 -0.673237 -0.464220 0.873703 -0.141261 0.201896 -0.012194 -0.315652 -0.755305 0.605506 0.162147 -0.138131 -0.549479 -0.846119 -0.888299 -0.992779 -0.920531 -1.099532 0.828115 0.141765 0.328738 0.075531 0.464720 0.085844 -0.474180 0.972576 -0.033996 -0.301162 0.772880 1.366226 0.702901 -0.329565 0.206555 -0.200073 -0.008419 0.421166 -0.176746 0.271247 -0.954403 0.149698 0.051879 -0.149624 -0.361354 -1.191712 0.271703 -0.734048 0.015049 0.857560 -0.075085 -0.741291 -0.004018 -0.928247 0.160066 -0.311955 -0.234347 0.331739 -0.496274 0.114809 -0.051133 -0.453779 0.119976 0.354918 -0.702299 0.166490 0.472125 -0.534494 -0.562170 0.226229 -0.083232 -0.969080 -0.041422 -0.889797 -0.644650 -0.285214 0.154300 0.107761 0.967416 0.124359 -0.469022 -0.180147 0.857559 0.512556 -0.622429 -0.242674 0.330115 1.078679 -0.646322 0.359384 -0.684170 -0.480430 0.351109 0.475182 0.917663 -0.787997 0.285833 0.872604 0.895267 0.541131 -0.285834 0.316062 -0.539784 -0.481811 -0.790321 0.482659 -0.441158 -0.478572 -0.984634 -0.713560 0.155920 0.155707 -0.730356 0.837004 0.540893 -0.817070 0.339478 0.185899 -0.350476 0.722683 0.021954 0.881081 0.133094 0.396895 -0.077687 -0.016820 0.601048 -0.509814 0.601422 -0.337165 0.068614 0.045926 -0.708997 -0.937620 -0.793151 0.455882 0.558329 0.686257 -0.353299 -0.315624 -0.376144 -1.160862 -1.015197 -0.416910 0.010233 0.395107 0.381628 0.334049 -0.017159 0.152440 0.761656 1.027491 0.590691 0.505079 0.071969 0.624455 0.367636 0.044818 0.215628 0.572691 -0.739598 -0.610955 -0.074740 -0.267212 -0.063599 0.921269 -0.796480 0.362370 -0.696417 -0.925673 0.602220 0.741316 -0.939357 -0.018603 -0.250105 -0.484087 0.507417 0.171529 0.399005 1.016635 -0.142090 -0.866114 -0.603565 -0.194203 0.061261 -0.636919 0.601882 -0.589931 -0.104246 -0.786813 -0.300954 -0.346720 0.979836 0.069036 -0.745259 -0.958213 0.106714 -0.603636 0.313630 -0.835590 -0.940566 -0.511473 -0.675210 0.411345 -1.069696 0.388080 -0.737201 0.236750 0.384698 -0.051734 0.213997 0.634307 0.402317 -0.098709 0.783842 0.770959 0.218121 0.607203 -0.430412 0.044693 0.589238 0.503740 -0.241958 -0.191308 -0.771451 -0.281711 -0.976025 -0.273197 -0.974569 -0.666851 0.926664 0.596604 0.412820 -0.402099 -0.350031 -0.613535 -0.206142 -0.277722 -0.352821 0.712762 -0.464318 -0.473873 -0.545884 -0.892312 -0.973777 0.574452 0.236322 -0.220372
-0.146369 -0.587087 0.284033 -0.385258 0.252169 -0.005488 0.565973 -0.449694 0.673919 -0.075924 0.874658 -0.686484 0.191289 -0.872389 -0.359094 0.634190 0.531083 -0.308132 -0.811913 -0.211061 0.461110 0.744427 -0.173886 -0.555368 -0.986373 -0.548511 0.831078 0.870913 -0.713010 -0.824139 0.312442 0.518883 -0.218450 -0.052313 0.560828 0.703858 -0.327891 0.641698 -0.851084 -0.386551 -0.228789 -0.716494 0.463290 -0.845922 -0.251336 -0.073699 -0.720622 -0.803882 0.820356 -0.757698 0.451874 -0.886935 0.085076 -0.084751 0.135077 -0.709576 -0.137249 -0.701131 -0.672087 -0.709085 0.875867 0.453109 0.558123 -0.358571 0.894573 0.863449 0.223013 0.509874 0.903766 0.049642 0.320573 -0.649288 0.485855 -0.364585 0.941608 0.381704 -0.629575 0.400813 -0.592946 -0.712738 0.713572 -0.067948 0.100635 0.534812 -0.558512 -0.897665 -0.122178 0.143855 0.165450 -0.870578 0.591590 0.489272 0.537759 0.955999 -0.018444 -0.438830 -0.209206 -0.120459 -0.424567 0.069158 0.505801 0.595388 0.785242 0.522717 -0.576165 -0.720285 0.396522 -0.279262 0.957445 -0.124172 0.816113 -0.805749 0.148124 0.377375 -0.262538 -0.345891 0.049020 0.535590 -0.839052 0.601098 -0.800239 0.887862 -0.019666 0.160051 1.343178 0.138942 -0.553584 0.825737 -0.666257 0.161576 0.188477 1.080345 0.475339 0.637783 0.395934 0.584368 -0.728264 -0.327244 0.213866 0.362811 0.488014 0.753014 0.753797 -0.661500 -0.826058 -0.890563 0.390101 -0.122069 0.246714 0.409214 -0.276274 0.085791 0.607119 0.330249 -0.525835 -0.518590 -0.274511 1.564642 0.583453 0.171388 -0.828021 0.099927 -1.166389 -0.331838 0.768995 -0.235391 0.393308 -0.584346 0.713498 0.914914 0.896606 0.413859 -0.429275 0.401276 0.951231 -0.062537 0.022074 1.091298 -0.093503 -0.220621 -0.543891 -0.335176 0.272342 0.209230 0.799108 0.280940 0.370805 -0.337571 -0.834769 0.651499 0.209964 0.193654 -0.264066 -0.793459 -0.755927 -0.632011 -0.189525 -0.124339 -0.784465 0.383842 -0.918113 0.845413 0.720980 0.642594 0.360428 0.670494 -0.446948 0.580868 0.762209 -0.301654 -0.542291 0.071844 -0.396804 0.805048 -0.703852 0.426569 0.245641 1.078988 0.593069 0.546570 0.543130 0.807145 0.095216 -0.456259 0.654615 -0.311567 -0.347944 0.937684 -1.096880 -1.018947 0.450061 -0.686711 -0.206264 -0.286805 0.563814 -0.801516 0.898260 0.091096 1.016316 0.191965 -0.157846 0.627566 -0.038280 -0.327863 -0.048172 -0.665704 -0.977880 -0.453372 0.087416 -0.197669 0.619687 -0.406584 0.627309 0.057006 -0.068272 -0.830530 -1.002695 0.666871 0.311424 0.317257 0.911509 0.423092 -0.358767 0.842887 -0.478419 -0.088909 -0.835584 -0.001760 -0.728806 -0.601322 -0.607280 0.069612 -0.588797 -0.445773 -0.945765 -1.042513 0.167316 0.418457 0.473766 -0.974361 -0.615587 -0.905371 0.023181 0.640423 0.678767 -0.662317 -0.159559 -0.632396 -0.533347 -0.492969 -0.718667 -0.400900 0.456634 0.863947 0.938696 -0.263450 -0.522233 -0.328035 -0.965315 -1.596268 -0.726130 -1.385650 -0.324152 -1.394353 -0.469549 -0.363233 -0.873003 -0.125536 -0.886963 -0.902982 -0.720951 0.274562 -0.457302 -1.118350 0.235839 -0.968407 -1.271025 -0.834537 -0.862641 -0.388623 -0.455725 0.270811 0.623023 0.733367 0.758785 1.384643 0.200010 0.168339 -0.114312 -0.510308 -0.054860 -0.237393 -1.023195 -1.222511 -0.493668 -0.200226 0.913065 0.648711 0.814359 -0.722306 -0.039776 -1.134399 -0.466917 -1.391676 -0.290651 0.536234 -1.262317 -0.143123 -0.070538 -0.691801 -0.457317 0.685018 0.004516 1.185073 -0.596937 0.356004 -0.143178 0.332205 -0.791692 -0.842291 -0.538265 -1.057383 -0.750996 0.180516 -0.080575 0.227920 -0.699950 0.355815 -0.141696 -0.484980 0.230727 -0.008064 0.506715 -0.208593 -0.690254 0.331642 0.376081 -0.030219 0.304369 0.875052 1.009614 0.512439 -0.381911 0.346659 1.107750 0.079011 0.791276 -0.882003 0.626218 -0.915204 0.475733 -0.542092 -0.342453 0.466360 0.339741 0.868477 -0.821693 -1.038702 -0.518690 -0.791335 -0.948383 0.204913 -0.368112 -0.765134 -0.245529 -0.568246 0.979492 0.016163 0.608368 0.385614 0.100945 -0.657755 -0.276567 0.605564 0.669745 -0.499237 0.546871 0.228656 0.693327 -0.316434 0.185376 0.299127 -0.946494 0.376959 -0.399220 0.107193 -0.162391 0.297421 -1.419217 -0.662585 0.110127 0.677183 -1.006400 -0.882291 0.930899 1.195231 -0.127238 0.573816 0.469368 0.735664 0.114023 -0.229545 0.838492 1.030402 0.410287 0.996118 -0.611150 0.261720 -0.264753 -0.787529 -0.032227 0.666407 -0.847677 -0.271535 -0.475665 -0.115993 0.329367 -0.765831 -0.296924 -1.527606 -0.790956 -0.606834 0.415800 -0.128997 1.274251 0.905017 -0.317212 0.389826 -0.088756 -0.206917 0.122380 -0.061720 1.161374 0.670358 -0.689276 -0.115813 0.458165 0.343586 -0.307558 0.133064 1.044745 -0.369570 -0.662687 0.043664 -0.525245 -0.391792 -1.897295 -0.533895 -0.556137 -0.486656 0.503978 -0.466278 0.807061 0.462200 -0.539388 -0.019737 0.985746 1.217295 0.767071 -0.127455 0.424435 1.134522 0.319662 0.684206 -0.699214 -0.971396 0.276425 0.939152 0.582578 0.142562 0.165416 -0.280525 0.488972 0.379485 -0.331862 -0.739056 -0.244147 -0.903668 0.486752 -0.592584 0.544061 -0.541138 0.868557 -0.611495 -0.335026 0.888065 0.444347 0.089756 0.786258 0.607680 0.225969 0.067781 0.537925 -0.592997 -1.007024 -0.962719 -0.593590 -0.065768 0.477125 0.002099 -0.033172 -1.172394 0.392542 0.010223 0.091112 0.049709 0.500270 -0.508765 0.142617 0.616082 0.795614 0.815181 1.300609 0.245182 0.650535 0.856922 0.577991 -0.182094 -0.375537 0.399216 -0.990748 -0.381050 -0.205496 -0.917668 -0.454088 1.250862 -0.230134 -0.323696 0.564783 -0.709588 -0.327192 0.349264 0.345467 -0.473124 -0.056454 -0.643490 -0.534231 0.552356 -0.087713 -0.068439 0.086741 -0.267383 -0.369289 -0.357771 0.770056 0.766121 0.109548 0.265484 0.612694 -0.214047 -0.616441 0.805462 -0.113998 0.476109 0.708044 0.715676 0.087654 0.800963 -0.291673 -0.247992 -0.785660 1.178854 -0.579145 -0.648082 0.088807 -0.013119 0.077372 -0.149796 0.136365 -0.699360 0.841767 -0.174000 -0.301163 -0.706860 0.321579 -0.010481 -0.986773 -0.959323 0.910834 -0.942931 -0.394849 -0.528968 -0.587689 -0.142309 -0.176494 -0.092195 0.414581 0.375818 0.000685 0.266370 0.140424 0.005088 -0.491200 -0.452107 -0.729039 1.055266 -0.805479 -0.509814 0.081845 0.523984 -0.169981 -0.907091 -0.221691 0.586090 -0.116744 -0.135529 -0.115122 0.915380 0.496928 -0.276573 0.850587 0.056606 -0.080352 0.321819 0.413339 0.686211 -0.492028 -0.681648 0.065927 -0.460140 0.918273 -0.732246 -0.155211 -0.109774 0.229251 -0.527063 0.155633 -0.778227 0.819772 0.793056 -0.652133 -0.719154 0.935278 -0.221277 -0.109947 0.293627 -0.048731 0.026833 0.385512 0.432274 0.900707 -0.600222 0.222277 0.082126 -0.692774 -0.410486 0.090359 0.064902 0.168320 -0.849219 -1.180026 -1.307880 0.444326 -1.026497 -0.696299 -0.893783 1.017785 -0.282992 0.241855 -0.010340 0.618575 0.197352 0.817547 -0.124408 0.123850 -0.556060 0.508640 0.850129 -0.134287 1.079574 -0.007634 -0.158488 0.503953 -0.610582 1.274346 0.481804 0.370364 0.810122 -0.447055 -0.553913 0.572404 -0.332525 0.429508 0.521422 0.755688 -0.785080 0.603607 0.409808 0.052162 -0.270799 0.093967 -0.823795 -0.146158 -0.412864 -0.880243 0.516135 -0.021703 0.221865 -0.578101 0.647214 0.048651 0.984893 -0.674835 -0.592851 0.825511 -0.163121 -0.357106 -0.573636 0.772370 -0.069449 -0.221067 0.969672 -0.697877 0.314718 -0.885154 0.834801 0.008946 -0.480808 0.416642 0.292986 0.068461 0.520111 -0.552726 0.112380 -0.431938 -0.792628 0.354829 -0.021900 0.058159 -0.046040 -0.242309 0.272576 0.560089 -0.555052 -0.411707 -0.930893 -0.356853 -0.538768 -0.670210 0.537493 0.274526 -0.239156 -0.968517 0.883493 -0.714969
-0.332602 0.459929 0.714600 -0.900514 -0.099829 0.979410 0.552102 0.584952 0.194520 -0.505193 -0.898439 -0.816890 -0.014462 -0.124589 -0.563027 0.474287 0.350680 -0.921795 -0.976670 -0.476217 0.941869 -0.366475 0.654418 0.947327 -0.454472 0.787418 0.052903 0.759821 0.261786 -0.418069 0.920970 0.545728 0.304198 0.475309 0.260030 -0.558338 -0.923600 0.958420 0.097496 0.140258 0.442787 0.322577 -0.570233 0.344507 0.516758 -0.520052 0.478328 0.853584 0.685945 -0.887039 0.744331 -0.441704 0.114822 0.166059 0.661428 -0.286426 -0.228867 -0.554843 -0.076125 -0.911946 0.666609 -0.614296 0.918837 0.804605 -0.904548 -1.020452 -0.187346 -0.695622 -0.843144 0.277454 0.455286 0.223628 -0.486026 -0.730842 -0.520125 -0.201111 -0.389608 -0.469999 -0.074124 -0.345982 -0.838572 0.637394 0.311794 -0.062003 -0.330734 -0.613652 0.156036 -0.578489 0.114097 0.661737 1.003578 0.761075 -0.810269 -0.725322 0.550575 0.308305 -0.083704 -1.024816 0.082866 -0.544676 0.442213 -0.168521 -0.751743 -0.134866 0.346013 -0.013122 0.221648 0.227638 0.958608 -0.705915 -0.737229 -0.904186 -0.046744 0.396657 -0.597416 0.596063 -0.500997 0.995647 -0.906389 0.464204 0.504256 0.491493 -1.064646 -0.923842 -0.843737 0.662767 0.791748 0.455022 0.811852 0.384255 0.494584 0.686301 -0.493033 1.018994 0.604558 -0.117731 -0.711321 -0.734884 1.009110 -0.918035 0.860739 0.200505 0.552246 -0.241553 0.072572 0.940993 0.665542 -0.526113 -0.502507 -0.711375 0.602545 -0.000755 0.061509 -0.818916 0.046503 -0.135734 0.083992 -0.394716 -0.335572 -0.423698 -0.598919 0.782689 0.474179 -0.263378 0.537343 0.979391 0.449595 0.750968 -0.272289 0.705810 -0.209691 0.877789 0.288785 1.016391 -0.104001 -0.187665 0.250690 1.372373 0.508635 -0.709768 0.616653 0.115780 0.531469 -0.670702 -0.983638 -0.710707 0.193026 0.668079 -0.502864 0.322793 0.381082 0.807236 0.983337 0.547179 -0.658936 0.574062 -0.280107 0.170432 0.957359 -0.609201 -0.651130 -0.444250 0.462040 -0.557137 0.843210 -0.715201 0.932692 0.083264 -0.371876 -0.085593 -0.035837 0.159573 1.247912 -0.180360 0.489999 0.652342 1.065080 -0.077304 0.506047 -0.671851 -0.129738 -0.098043 0.753525 -0.287999 0.211439 -0.613092 -0.667258 -0.914065 -0.460407 0.186996 0.274428 0.621645 0.522854 0.434954 0.039099 0.480482 0.415739 0.467902 -0.405708 -0.799589 -0.197785 0.169201 0.377413 0.888354 -0.674889 1.060824 -0.639263 -0.194915 0.327257 0.876631 -0.783994 -0.942317 0.304007 0.503362 -0.539163 -0.860343 0.607407 0.840446 0.210515 0.492654 -0.223905 -0.121936 0.943186 0.312279 0.047485 -0.834344 -0.432152 0.115837 0.610611 0.170095 -0.261963 0.033872 -0.081535 -0.255781 0.071965 1.033878 -0.268404 0.175425 0.557013 -0.041402 0.617388 0.561484 -0.892735 0.498224 0.681177 0.740414 -0.710121 0.577930 -0.408671 -0.685308 0.458635 0.834856 0.030554 -0.680631 -0.453790 -1.381306 0.419753 0.979241 0.156101 0.480830 0.035557 -0.413992 -0.790256 0.833959 -0.557349 -0.462797 0.407410 0.240486 0.964840 0.145067 -0.845499 -0.024288 -0.433724 -0.533837 0.277548 0.768718 -1.127622 0.624221 0.029270 -0.016246 1.249484 0.737772 -0.843940 -0.462113 -0.410883 0.594579 0.872633 -0.139607 -0.412150 1.196081 -1.129149 0.135843 0.509519 0.724378 -0.112851 -0.516837 0.291803 0.772608 0.436744 -0.908239 -0.377976 -0.702952 0.715877 0.847296 -0.004185 0.259154 -0.314109 -0.136791 0.941310 -0.778146 0.913585 1.351105 -0.016838 -0.838796 1.014123 -0.075476 0.456051 -0.330519 -1.125955 -0.425423 -0.086997 -0.141707 -0.931003 -0.329844 0.293047 -0.440032 -0.027580 1.000779 0.026549 -0.382448 0.566332 0.383723 -1.206670 0.312525 -0.827634 -0.746982 -0.231001 -0.337240 -0.591551 1.094472 -0.506272 0.482459 0.898554 0.470288 0.647531 0.472581 -0.447833 0.271251 -0.639532 -1.075023 -0.316302 0.319114 0.743675 0.885366 -0.509741 0.765250 0.109665 0.979276 -0.303410 0.549656 0.164094 0.326084 -0.058743 -0.119611 -0.084001 -0.790274 -0.248066 0.886844 0.330588 -0.157408 0.041818 0.530312 -0.073344 0.591973 -0.299129 0.398510 -0.214977 -0.547850 -0.224056 0.206143 -0.174109 -0.862147 -0.752263 -0.376155 0.893060 -0.826540 -0.104557 -0.123474 -0.662823 0.659562 0.007514 -0.377315 -0.932753 0.492867 0.052393 0.035213 0.941989 -0.648239 0.391621 0.504121 -0.462386 -0.026908 -0.623138 0.578937 -0.482859 0.306121 0.423596 0.466549 -0.993611 -0.458764 0.347092 0.445786 0.392205 0.096382 -0.903534 0.269913 -0.498689 -0.973806 0.036136 -1.816627 -0.427321 0.760060 0.099849 0.503212 -1.039032 0.166018 -0.206599 0.208582 -0.071620 -0.621129 -0.110901 0.569605 0.494365 0.148209 0.758850 -0.078095 0.340998 -0.962088 -0.389667 -0.628945 -0.704929 0.682100 -0.027870 0.686747 -0.594047 -0.209153 -0.662335 -1.263317 -0.577558 1.005648 0.213104 0.463031 0.031509 0.729908 -0.407381 -0.348504 0.320745 -0.253341 0.533556 -1.343737 -0.112868 0.495664 -0.466164 0.421951 0.353573 0.961011 0.962259 0.300012 -0.558239 0.459765 -0.739465 0.055912 -1.066828 0.555569 -1.025514 -1.696150 0.451952 1.374827 1.519609 -0.684321 -0.809458 0.242659 0.613672 0.036463 0.475662 -1.038442 0.417000 -0.497741 -1.045908 0.226240 -0.665443 0.225064 -0.260639 -0.662077 -0.315538 0.751633 0.191757 0.450061 -0.808715 -0.947341 -0.673739 -0.604081 -1.915252 -0.990971 0.999665 1.125966 2.128964 0.701700 -0.644253 0.181212 0.011208 -0.465231 0.078436 -0.898529 -0.143090 0.267146 0.738161 -0.089407 -0.101681 0.803415 -0.475758 0.193135 0.711859 0.620884 0.647828 0.856781 -0.464149 0.107617 -0.094348 -0.919250 0.009579 0.784090 0.384361 -0.402311 0.305691 1.063673 -0.596295 0.941846 0.799450 -0.046460 -0.021554 0.661184 -0.657610 -0.063527 -0.623152 0.002362 0.392865 0.894408 -0.029563 0.022856 -0.533453 -0.310492 0.180416 -0.459324 0.305055 -0.482548 -1.184953 -1.094940 -0.280907 0.345236 -1.049196 0.573079 1.322987 -0.288729 0.190851 0.448097 0.704101 1.061266 0.969059 -0.492610 0.464493 0.044644 -0.376552 1.005884 -0.516380 -0.025163 -0.018050 0.585999 0.839557 0.431734 0.020751 -1.179674 0.178124 -0.266077 -0.964097 0.475231 -0.467790 0.540160 -0.291698 -0.812788 1.002837 1.161615 0.350203 -0.303488 -0.383191 -0.423678 0.798301 -0.506265 1.093860 1.176719 0.572367 0.497765 -0.805322 0.367240 0.247197 -0.758236 0.957042 -0.355004 0.492029 0.748949 -0.219536 0.127294 -0.491690 -0.040043 -0.931017 -0.614257 -0.583081 -0.487033 0.841520 1.208654 0.579347 0.215709 -0.701995 1.080727 -0.172561 0.295637 -0.702704 -0.503967 0.496280 0.496319 -0.655938 -0.586911 -0.783726 0.093660 -0.865472 0.914117 -0.196177 0.119949 -0.121175 0.636040 -0.500125 0.412915 -0.485749 0.405125 -0.146687 0.509985 -0.670728 -0.117961 0.579009 -0.547881 0.936701 0.169329 -0.639451 -0.749615 -0.255079 0.085466 -0.748387 0.153003 0.483519 0.773073 -0.915974 0.037826 0.270217 0.273269 -0.113812 -0.147642 -0.299557 -0.091666 -0.137435 -0.570038 0.177018 0.840111 0.981339 -0.031528 1.002815 0.841603 1.103450 0.837964 1.145281 0.793755 0.603778 0.500647 0.346222 -0.799528 -0.814518 0.492209 0.757662 -0.844927 -0.713448 -0.880795 -0.701235 -0.241615 -0.771457 -0.647360 -0.034793 0.181625 -0.706647 -0.710725 0.195370 0.008996 -0.434109 -0.593746 -0.204464 0.977107 -0.579829 0.853892 -0.675618 0.325093 -0.783503 -0.725642 -0.812056 -0.108330 -0.340371 -0.462061 -0.630341 -0.484699 0.650708 -0.581717 0.054711 0.517666 -0.280041 0.162068 0.344303 0.110190 0.289275 -0.121497 0.207977 -0.172082 -0.849902 0.511023 -0.083187 0.993837 0.984231 -0.529609 0.789464 0.520155 -0.555126 -0.346444 0.891516 0.773891 -0.373191 0.988125 -0.908132 -0.144669 -0.772101
-0.598063 -0.970858 0.833098 -0.161649 -0.847649 0.674469 0.225237 -0.747121 -0.947289 -0.473998 0.538265 -0.508995 0.553828 -0.798856 -0.178168 -0.996420 -0.214079 -0.222272 0.333495 0.022604 0.755151 0.825417 0.509336 0.174551 -0.848300 0.920195 -0.714173 -0.807170 -0.838731 -0.380748 0.778074 -0.705590 -0.815511 -0.438428 -0.610138 -0.976158 0.588909 0.012391 0.242698 -0.248282 -0.356371 -0.754033 0.620064 -0.769906 -0.905069 -0.931467 -0.526890 -0.924814 -0.642794 0.086034 -0.473455 -0.364564 0.381992 -0.836317 -0.875649 0.132609 0.937943 -0.849253 0.997317 0.249198 0.878560 -0.754094 0.598654 -0.962959 -0.007161 0.315756 -0.773253 0.570762 0.555469 0.323138 -0.523198 1.014605 0.914887 -0.760715 -0.893423 0.684806 0.563354 1.006361 -0.258279 -0.154222 -0.029849 -0.046821 -0.800644 0.695690 -0.823782 0.150815 -0.987682 -0.582233 -0.155610 -0.861702 -0.268711 -0.405338 -0.075425 0.033361 -0.078529 0.341868 -0.148084 1.298423 1.053290 0.989490 0.180188 -0.380665 -0.290987 0.255781 0.338818 0.940654 0.496007 -0.746680 0.014846 -0.839484 0.634194 0.022529 -0.746124 -0.008891 0.004377 -0.524718 0.248658 -0.355042 -0.029602 0.024493 0.835604 0.713995 0.009429 0.865601 -0.674107 0.564536 0.920645 0.909400 0.859368 -0.466713 -0.710146 0.760169 0.508302 0.307370 0.933840 0.356153 -0.819175 -0.906435 -0.954964 0.109212 0.879175 -0.544111 0.736927 -0.059457 0.489357 0.323906 -0.140099 -0.472505 0.367408 0.229389 0.384506 -0.414418 -0.879773 -0.612193 -0.253519 0.039579 0.130922 -0.574337 0.448359 -0.386529 0.209053 -0.510781 -0.806196 1.045977 0.858696 -0.053316 0.568566 0.869997 -0.500890 -0.429716 0.115045 0.880989 0.636600 0.404056 -0.425049 -0.684997 0.511929 0.797683 0.159180 0.728847 0.326076 -0.120055 0.096413 -0.493440 0.441670 0.207535 -0.341723 0.582156 -0.322685 -0.891868 0.987774 -0.847604 0.398967 0.459555 -0.520515 -0.200273 0.623670 0.986584 -0.509228 0.155698 -0.961016 0.361196 -0.171273 0.873589 -0.111009 0.615718 -0.956181 0.637228 0.064948 -0.370581 -0.784987 0.497797 -0.835308 -1.091645 0.310289 -0.405717 0.873111 0.632950 0.703533 -0.043802 0.265721 0.384909 0.715389 -0.910437 0.161406 0.625225 -0.417880 0.328341 0.434865 -0.591332 0.228536 0.551729 0.364181 0.377274 0.219937 0.251762 -0.095975 -0.433473 0.672546 -0.580218 -0.748512 -0.290459 -0.375722 -0.325546 -0.844965 0.537295 -0.745847 -0.254328 0.557434 -1.072316 -0.415090 0.863365 -0.091413 -0.692739 0.736569 0.266240 0.550131 -0.545718 0.087456 -0.838189 0.603304 -0.704724 0.869668 -0.747817 0.372043 -0.256202 0.105542 0.207403 -0.114099 0.063659 -0.385842 -1.368642 -0.101361 -0.838003 0.139216 0.281643 -0.959621 -0.842020 -1.072675 0.288830 -0.636292 -0.264849 -0.269945 0.903151 -0.794208 -0.896734 0.756365 0.086231 -0.073828 -0.830416 0.060789 -0.088114 -0.965960 -0.080404 0.176786 0.901140 -0.451014 -0.239273 0.404684 -0.989519 0.726459 0.752381 -0.516320 0.584809 -0.844972 -1.246769 -1.107507 0.599090 0.704760 0.684085 -0.273868 -0.570539 -0.733964 -0.304424 0.474676 -0.280684 -0.735132 -0.000328 0.211331 -1.498254 -0.462054 -0.341969 -0.611971 0.224062 -0.632430 0.738613 -1.110948 -0.021535 0.805843 0.840354 0.112994 -0.131222 0.095337 -0.894066 -0.657232 -0.414189 -0.536996 0.273209 0.797504 -0.098928 -0.840384 0.356978 -1.404391 0.379471 -0.388259 -0.416854 0.055079 -1.079911 0.970891 -0.403294 0.404864 -0.542202 0.368161 -0.351605 0.748730 0.162427 -1.023191 -0.734151 -1.058796 -0.925552 -1.448335 -0.898047 0.590860 -0.996449 0.630855 -0.449226 -0.952881 0.523388 0.702164 -0.385550 -0.048482 0.232032 -0.279819 -1.261150 -0.500376 -0.222565 -0.272505 0.866659 0.382217 -0.212286 0.655470 -0.213922 0.283202 -0.325407 -1.149559 -1.364766 0.230713 0.407944 0.945079 0.986383 -0.191819 0.239982 -0.617550 0.357950 0.267701 0.821960 0.195576 0.486314 -0.182872 -1.305114 0.235438 0.514340 0.081946 -0.865903 -0.350235 0.521760 0.877752 1.039307 0.197891 0.201914 0.383344 0.513632 -1.072938 -1.094089 -0.065253 -0.122281 -0.315706 0.404631 -0.533116 -0.900056 0.912611 0.953071 -0.065796 0.967135 -0.070976 0.358991 -1.114324 -0.218048 0.410555 -0.972473 -0.710548 0.248767 -0.522940 0.696388 0.482203 0.907475 0.093970 0.922762 -0.926389 0.017962 0.881487 -0.445993 0.543560 -0.669171 0.509013 -0.250543 0.649794 -0.179177 -0.114598 -0.235614 -0.203536 0.748029 0.772711 -0.308300 0.376931 0.339966 -1.078548 -1.026238 -0.373244 -0.306256 0.696381 0.022763 -0.056151 1.833694 0.103594 0.548824 0.313185 0.964419 0.073829 0.601838 -0.103439 -0.837887 -0.916861 -0.097789 -0.311340 -0.762067 -0.940836 -0.969100 0.355948 0.019311 -0.455346 -0.581273 -0.786274 -0.293318 -0.311432 0.158910 -1.005890 -0.091121 0.821177 1.119984 -0.114369 0.717814 0.059239 -0.267591 -0.405700 -0.311655 0.091527 0.755117 -0.045772 -0.022908 -0.491519 -0.529943 0.241935 0.574598 0.763672 0.114266 0.593882 0.844460 0.326051 0.630327 0.182178 -0.466869 -0.717395 0.344668 -0.137973 0.788708 0.474255 -0.174095 1.522978 0.882600 1.128635 0.105515 0.033749 -0.050673 1.158805 -0.449075 -0.647930 0.262137 -0.862701 0.631130 0.180406 0.165768 -0.075234 -0.239390 0.420506 0.311745 -0.243231 0.452978 0.834747 0.253652 -0.226253 -0.055877 0.902110 0.660063 0.663899 1.005416 -0.385798 0.116175 0.055496 -0.379138 0.919649 -0.831055 0.208621 0.592366 -0.556955 0.275575 -0.730431 -0.580914 0.981518 -0.808690 0.388311 0.726046 0.930323 -0.147444 -0.212935 0.463289 0.243983 0.345671 -0.383167 1.409397 -0.437488 0.402800 1.519400 0.159743 0.412939 0.332893 -0.733745 -1.018761 0.808180 -0.294362 0.381477 0.209322 -0.571392 -0.896231 -0.393558 1.082444 0.910654 -0.272136 0.030254 -0.206397 -0.269469 -0.805699 0.388637 -0.542617 -0.523831 -0.846332 0.284880 -1.092945 0.298975 1.065363 0.139211 0.337861 -0.118601 0.983104 0.742193 0.124419 -0.654909 -1.040930 0.706288 -0.161202 -0.731850 1.014069 -0.123116 -0.319502 0.109906 0.439560 0.347547 0.391930 0.334634 -0.678674 0.509769 0.856177 0.827621 -0.691114 0.651007 0.267500 0.840902 -0.367540 0.929593 0.482498 0.183997 0.290281 -0.002786 0.014581 0.073305 -0.483072 0.070922 0.636864 -0.260304 0.414571 -0.871754 -0.420486 0.722548 0.216856 0.630351 -0.143682 -0.820708 -0.749289 0.891756 0.215709 0.883405 -0.765145 0.320909 -0.516040 -0.478211 -0.402242 -0.610218 0.321732 0.221892 0.091666 0.263695 0.284070 -0.765208 -0.475520 -0.310767 -0.836001 0.728062 -0.957529 -0.414017 0.234552 0.308313 -0.130585 -0.761485 -0.491879 0.974874 0.367311 0.494321 -0.345031 0.737466 0.287180 1.144615 0.137630 0.438610 -0.070958 -0.285895 0.532770 -0.219008 -0.251136 -1.382119 -0.098729 -0.646977 -0.488885 -0.514765 -1.077527 0.020756 -0.084436 -0.478748 -0.407182 0.715696 0.822429 -0.714310 -0.051506 0.214860 -0.910123 -0.946695 1.010150 -0.784478 -0.439754 1.207327 0.839455 -0.180144 0.835488 -0.373607 1.177601 -0.209729 -0.338517 -0.044245 -0.232568 -0.135183 0.289782 -0.972752 -0.031773 0.544194 -0.872665 0.379122 0.917243 0.626061 -0.762139 0.578934 0.989939 0.355770 -0.072542 0.105918 0.774342 -0.668114 -0.548078 0.268917 0.110484 -0.987499 0.666251 0.547249 -0.253450 0.133449 0.370444 -0.348183 0.059773 -0.384038 0.330827 -0.895802 -0.369001 -0.426703 0.373474 -0.352866 -0.906650 -0.315552 -0.132417 -0.736057 0.182183 0.723588 -0.481939 -0.803527 0.468317 0.486264 0.835909 -0.364031 0.863418 0.521095 -0.825224 0.586140 0.055065 0.833427 0.361106 0.940534 -0.740238 -0.301289 0.099721 -0.519678 -0.028487 -0.947143 -0.333098 0.779767 0.401853 -0.792156 -0.599640 -0.892819
-0.946826 0.780268 -0.152644 -0.368357 0.938493 0.833914 -0.900124 0.694119 -0.347053 -0.655417 0.601495 -0.484482 -0.727127 0.520913 0.997320 -0.241379 -0.219152 0.609417 0.179987 0.029454 0.963103 -0.379901 0.784155 0.711320 0.906925 0.308024 0.559926 0.419076 0.844410 0.646637 0.412558 -0.743180 0.275242 0.444366 -0.167870 -0.605545 0.809470 -0.601669 0.753757 -0.496808 -0.215935 0.796829 -0.440868 -0.917794 0.847229 0.132764 -0.659678 -0.388422 -0.030873 -0.095918 -0.890606 -0.332007 0.250742 -0.381400 0.114248 0.168360 -0.686852 0.769300 0.052593 0.573947 0.100835 0.783105 -0.944045 -0.647341 0.488977 0.999511 0.847698 0.654823 -0.601708 0.687863 -0.762925 -0.655763 0.307321 -0.761777 -0.389702 0.305071 0.469072 0.222639 0.390001 0.133097 0.032866 0.986667 -0.798249 -0.102441 -0.576435 0.822719 0.075833 0.097714 -0.607752 0.075046 0.415364 -0.622241 1.043464 -0.381068 1.021682 -0.151339 -0.295978 -0.576293 -0.152601 -0.335984 0.666349 -0.877897 0.153344 0.121150 -0.846132 -1.103738 -0.099565 -0.743595 -0.019606 -0.178595 1.015342 -0.044763 -0.091148 -0.639546 0.645186 -0.258030 0.045483 0.825618 0.057929 0.381225 -0.406352 -0.136351 1.111305 1.064221 1.574009 0.264663 0.283089 0.156726 0.525321 -0.236945 0.470455 0.774536 -0.168397 -0.356028 -0.171079 0.283457 0.733517 -0.683052 0.885364 0.733070 -0.954269 0.604479 0.663269 0.762524 0.880910 -0.887538 0.391348 1.019105 0.744017 0.881302 -0.614547 -0.654755 1.041447 -0.287300 0.552272 -0.027535 -0.251347 -0.056148 -0.376155 0.821413 -0.493412 0.763284 -0.262134 -0.816139 -0.880398 0.468808 0.321228 0.514100 0.241169 -0.670111 -0.620963 -0.447147 0.770512 0.105274 0.989863 0.725949 0.303787 -0.115194 -0.008083 0.702340 0.487755 -0.111007 -0.209768 -0.173104 -0.425637 0.197573 -0.729303 0.114316 -0.680069 -0.216307 -0.917821 -0.234150 -1.153856 -0.038333 -0.890345 -0.488437 0.978039 0.722390 0.943247 0.482948 1.074094 -0.317300 -0.431660 0.749632 0.112419 -0.495445 0.515793 -0.060855 -0.342194 -0.313467 1.150090 -0.716130 -0.649428 0.351447 -0.749912 0.396664 -0.280101 0.831154 0.039159 0.977109 -0.072842 -0.757385 0.760925 0.783558 -0.424773 -0.778781 -0.474534 -0.642601 -0.080796 -0.773037 -1.196615 0.550311 -0.725527 -0.744056 -0.871819 -1.465430 -0.410779 -0.417606 -0.477416 0.145523 -0.078633 -0.017405 -0.371440 -0.233939 0.571966 0.305792 0.769510 0.090626 -0.226582 -0.258600 -0.820913 -0.089199 -0.383768 0.931333 -0.946269 0.635006 -0.100361 -0.538399 -0.768560 0.228726 0.006350 0.320100 -1.341059 -0.265713 -1.255072 -0.123329 0.172321 0.963574 0.068659 1.635983 -0.075647 1.367466 0.721559 0.794269 0.252286 1.076010 -0.150124 0.582425 1.185931 -0.050433 0.178713 -0.481312 0.668107 0.318312 -0.434307 -0.322005 0.255579 -0.406784 -1.106884 -1.821161 -0.424426 -0.978889 -0.289243 -0.457847 -0.804521 -0.114143 0.283951 0.500361 0.036533 -0.457334 0.459986 0.973597 0.124184 -0.344951 0.360466 0.627500 0.891399 0.875984 0.289055 0.899594 0.129198 -0.324982 0.894141 0.459854 -0.937049 -1.093229 -0.137877 -0.347411 -0.429050 -0.038567 0.346947 0.486276 -0.332738 0.072612 0.630262 0.329709 -0.634066 -0.241349 0.455339 -0.332882 1.274252 -0.253887 0.912342 0.762149 -0.406718 -0.835210 0.262277 0.803925 -0.316829 -0.155777 -0.748957 -0.825610 0.543924 -0.453798 -0.504461 0.920172 1.652279 -0.247281 -0.177991 0.928762 1.154344 1.096769 0.592518 -0.552863 -0.355710 -1.204189 0.597700 1.409382 -0.663443 -0.073341 -0.313093 -0.643463 0.437524 0.678390 0.870633 -0.082843 -0.927731 0.407743 -0.776430 -0.378403 -0.136639 0.799486 1.414946 -0.069893 0.675478 1.340001 1.016009 0.275870 0.408036 -0.534639 -0.872085 -0.637574 -0.925078 -1.504416 -0.140842 -0.609562 -0.652999 -0.658377 0.879647 -0.712163 -0.653146 -0.965108 -0.411337 0.281525 -0.738971 -0.140387 0.674364 0.479149 0.132527 -0.471944 0.548885 0.526148 0.699079 -0.439787 -0.530510 0.490876 -0.363228 -0.465676 -1.687589 -0.529956 -0.593299 -0.099978 0.429276 -0.994474 0.529284 -0.056376 0.811345 1.449696 -0.420130 0.290047 -0.452537 0.249878 -0.782986 -0.888064 -0.353547 -0.425030 1.062756 -0.739769 0.540053 0.279587 -0.554265 -0.557788 -0.529549 -0.739199 -0.428894 -0.067500 -0.000389 -0.845150 -0.453703 -0.787297 0.435543 -0.544036 -0.416332 0.263612 0.633077 1.175920 0.106373 0.519626 -0.393049 0.489592 -0.281227 -0.378351 0.495071 0.033920 -0.188898 -0.287840 0.160911 -0.877539 -0.042713 -0.256493 -0.207930 -0.179887 0.593635 -0.993945 0.326149 -0.595110 0.307060 -0.217238 -0.553425 -0.667234 0.128614 -0.473454 0.999857 0.598716 -0.618575 -0.198832 -0.366219 -0.421469 0.000732 0.067315 -0.473986 1.174452 0.669876 1.156496 -0.006089 -0.436438 -0.614116 -0.380854 -1.072536 -0.008806 -1.166714 0.391386 -0.381904 0.095882 -0.321187 0.655527 -0.093023 0.551430 1.128338 0.192950 0.420411 -0.121561 1.257021 -0.706102 0.928450 -0.521752 -0.458058 -0.278071 1.055212 -0.498311 0.216989 0.183392 -0.410851 0.737485 0.282765 0.293477 1.014215 0.095253 -0.719469 0.127224 -0.440306 -0.854048 0.775491 -0.115907 0.512819 0.154419 0.952409 0.062030 0.332331 0.964981 0.356066 -0.468774 -0.312704 0.568607 0.948601 0.812641 -0.058018 0.004234 1.144168 0.442596 -0.591233 -0.324006 0.577866 0.043223 0.997097 -0.201468 0.535204 -0.233060 -0.384351 0.796356 -0.402279 0.764008 -0.812958 0.023182 -0.417338 0.917103 1.127355 -0.074885 -0.155827 -0.844747 0.124465 -0.726399 -0.601084 -0.219320 0.681239 0.299318 0.153041 -0.575245 0.005106 0.885305 0.405130 -0.892094 -0.048002 -0.154209 1.013062 0.656418 0.385611 -0.504430 0.123180 0.063463 0.833492 -0.899149 0.477835 -0.749318 0.123691 0.828015 -0.526611 -0.879606 -0.813240 0.274638 0.473934 -0.141513 1.045444 0.778726 0.764248 0.862525 -0.144312 -0.366143 0.019714 0.152055 0.092081 0.018488 -0.767293 -0.684727 0.555263 0.306716 0.832033 0.079834 -0.395861 -0.800935 -0.282241 -0.545200 -0.720162 -0.172856 0.295874 0.538838 -0.569217 0.852859 0.151260 -0.370510 -0.363573 0.386582 -0.877187 -0.453145 -0.274204 0.461517 0.086848 0.554346 -0.175129 -0.340474 -0.695745 0.110631 -0.276421 -0.161963 -0.209813 -0.230542 0.030705 -0.156635 -0.819661 -0.638851 -0.357667 -0.242351 -0.504998 -0.559397 -0.796873 -0.158527 0.920168 0.952854 -0.852745 0.315796 0.427427 -0.343236 0.248214 0.461275 0.693092 0.275228 0.696816 -0.763256 0.508575 -0.676030 0.493819 0.524503 0.656781 -0.114004 0.420550 0.125948 -0.977296 0.456018 -0.010467 -0.027360 0.142916 -0.148519 -0.694070 0.752397 -0.338702 -0.823692 -0.442112 -0.007138 -0.690049 -0.590351 -0.676805 -0.393366 -0.240356 -0.523495 -0.044334 -0.698761 -0.158728 -0.230183 0.839162 -0.164694 -0.336193 -0.226678 0.601862 -0.426059 -0.090076 -0.871688 0.602432 0.553466 -0.624886 0.890670 0.732709 0.800345 -0.185911 -0.939121 -0.847656 0.694554 -0.130087 0.366540 0.227209 -1.049489 0.539522 -1.189855 0.790890 -0.409646 0.797657 -0.329589 -0.072826 0.558502 -0.664305 -0.909286 0.832751 -0.970786 0.628809 0.518411 0.269910 -0.211814 0.809427 0.357081 -0.023195 -0.706761 -0.542589 0.739592 0.701482 0.350440 0.076785 -0.469671 -0.778298 -0.594382 0.457174 0.409975 -0.314663 -0.059138 0.690376 -0.723909 0.996280 -0.065434 0.966540 0.188949 -0.824618 -0.486127 0.995144 -0.622765 -0.219502 -0.260744 0.262913 -0.950808 0.625000 0.251515 -0.611708 0.059433 -0.112361 0.338405 0.287026 -0.184397 0.524391 -0.956445 0.598817 1.037553 -0.372445 -0.587699 -0.753794 -0.516266 0.395611 0.240734 0.666630 -0.973079 0.344175 -0.227030 -0.349753 -0.912695 -0.395953 0.661175 -0.524457 0.527033 -0.511649
1.038210 0.724003 -0.024736 -0.234775 -0.069584 -0.505914 0.839612 0.144833 0.581323 0.287507 0.461577 0.744604 -0.689421 0.675025 -0.114752 -0.382446 -0.651270 -0.135980 0.772159 -0.483766 -0.302706 0.448177 0.253275 -0.153514 0.508834 -0.652917 0.050524 -0.632534 0.467182 0.435062 -0.490753 -0.470426 0.352690 0.260710 -0.700362 0.166017 -0.170346 -0.068242 -0.834404 -0.459270 0.972590 -0.183487 -0.110399 0.654067 -0.603121 -0.017638 -0.458272 -0.234744 0.710294 -0.465484 0.558850 0.822057 -0.823314 -0.583443 0.894990 0.598992 0.147824 0.941435 0.000910 0.134354 -0.445756 0.331690 0.802846 -0.079314 0.218760 -0.109986 -0.644039 0.956104 -0.312632 0.746465 -0.156529 -0.148165 0.018661 -0.258621 -0.511903 -0.640108 -0.409980 -0.673174 0.545294 -0.616571 0.028092 0.461684 0.358907 -0.068718 -0.749224 -0.058611 -0.377450 -0.516449 0.781775 0.219215 -0.886015 -0.670696 0.706361 -0.075047 1.092005 -0.875087 -0.772055 0.143621 0.621016 0.012065 -0.230013 0.798082 -0.843054 -0.701955 -0.961778 -0.083675 0.662297 -0.722041 0.143098 -0.050350 -0.794732 -0.548867 -0.704849 0.334352 -0.816876 -0.278169 0.975989 0.310738 -0.787224 -0.752211 -0.284239 -0.260232 -0.465776 -0.066540 0.621066 0.305319 -0.212168 0.057108 -0.238069 0.288769 -0.141321 0.569543 0.477889 -0.065541 -0.763296 -0.208081 0.710434 0.018925 -0.276534 0.195092 -0.321151 -0.398324 0.021153 -0.533418 -0.852610 -0.370486 0.026393 0.429334 -0.149732 -0.055244 0.075602 -0.076217 -0.495778 -0.574596 -0.660642 -0.573431 0.664226 0.073231 -0.579989 1.039485 -0.454530 0.165844 0.296254 -0.239941 -0.599063 0.698544 0.517057 -0.364550 -0.504521 -0.003022 0.816201 -0.476310 0.419593 0.084614 0.304909 0.575925 -0.365216 0.089383 -0.261976 0.708793 -0.432309 0.798748 0.171109 0.767374 0.506496 0.076837 0.667177 0.030872 0.183082 1.041933 -0.875225 0.426391 0.112509 -0.786303 -0.100852 -0.205873 -0.803489 -0.200511 0.537355 -0.798055 0.212953 0.256608 1.081207 0.378024 -0.532078 0.291511 0.073734 0.562535 0.385564 1.348570 0.902887 0.362183 1.481864 1.608125 -0.112879 -0.279289 -0.463367 1.082053 -0.079342 0.728089 0.026269 -0.778302 0.250468 -0.171637 0.750221 -0.791218 -0.719418 -0.432723 -0.449897 0.419069 -0.181150 0.281411 -0.459698 0.606365 1.257466 0.926437 0.584927 1.053181 0.766835 1.257723 -0.112056 0.171936 0.600570 0.922708 0.634724 0.180297 0.586517 -0.752304 0.487442 0.498433 0.934317 -0.818660 -0.691486 0.836382 0.095441 0.501044 -1.008179 0.248399 0.982581 -0.445459 0.395419 0.330499 0.080478 0.472941 -0.621219 0.773693 -1.015191 -1.084643 -0.232075 -0.666106 -0.764311 0.094850 -0.282163 0.745614 -0.838211 0.646976 0.620829 -0.111618 0.631495 0.154722 -0.289164 0.903828 0.341377 -0.970651 -0.620941 -0.403805 0.447032 -0.836134 0.357678 -0.749234 0.660683 0.335581 -0.888397 -1.064166 -0.701710 -0.449304 -0.912085 -0.772028 -0.415034 0.254022 -0.295155 -0.087077 0.678633 0.368054 -0.954237 -1.035783 0.212958 0.128560 -0.203460 0.715931 0.183225 0.147815 0.095928 1.007933 0.633654 0.331973 0.298917 -0.712773 -0.103231 -0.900739 -0.467369 -0.638111 -0.581013 -0.897519 -0.472236 -0.372131 0.171452 0.022806 -0.533520 0.589275 -1.029373 0.711544 -0.074691 0.267271 0.320590 -0.238132 -0.342202 0.392071 0.683341 0.969026 0.887565 0.986603 -0.671272 0.606370 -0.302597 0.462408 0.721180 0.083742 0.290666 -0.063528 0.483107 -1.093548 0.536938 -0.541092 0.032638 -0.100298 -0.428792 0.208306 -0.639864 -0.042295 -0.350812 -0.557800 -0.526070 -0.120113 -0.653467 -0.486595 -0.820422 -0.509872 0.322734 -0.386799 -1.365726 -0.469392 0.235870 0.756506 0.184288 -0.582341 0.292651 1.010905 0.746935 -0.654760 -0.405277 0.073810 0.262537 -0.281029 0.234930 -0.558636 -0.506465 0.209470 -0.214256 0.155324 -0.638317 -0.003847 0.509647 -0.948926 -0.651258 -0.301426 -0.542304 0.938822 0.164660 -0.644230 1.197030 -0.183104 -0.101298 0.259228 0.764854 0.036621 -0.182664 0.433167 -0.062821 0.732190 -0.150324 -0.697425 -0.885138 -0.806299 0.709205 0.390243 -0.641545 -0.944903 -0.894630 0.395152 0.291546 0.415600 -0.385340 0.773897 0.389517 -0.687370 -0.305564 -0.054085 0.607614 0.509022 -0.819035 0.479393 0.105588 0.157802 0.331699 0.849413 0.606213 0.512988 0.626787 0.254652 -0.907118 -1.330108 -1.200735 -0.667159 -0.188188 -0.405999 -0.841099 -0.310923 -0.233713 0.755194 -0.887745 0.418642 -0.019886 0.042211 -0.977691 -0.257784 -0.211582 -0.560336 0.884733 -0.568128 0.577242 0.945656 0.160008 -0.569910 -1.003249 -0.388491 -0.466159 0.533071 0.287511 -0.060658 0.576161 0.043560 -0.220559 0.299313 0.623208 0.076413 0.711945 0.002058 -0.912710 0.754704 -0.908549 -0.485135 0.313475 -0.406359 0.336667 -0.352160 -0.753337 -0.642294 0.939171 0.831852 0.407647 0.352384 0.821572 -0.158993 0.215118 0.745175 0.658417 0.773629 0.127923 0.571699 0.560985 0.122018 0.890805 -0.026206 -0.272732 0.213039 0.917500 -0.842008 -0.016831 -0.662326 -0.393342 0.060351 0.700894 -0.766050 -0.581047 -0.445424 0.645820 0.236887 -0.627934 0.722387 -0.857490 0.336911 -0.875677 0.308735 0.921609 0.774631 0.626870 0.057964 0.274762 -0.032189 0.260438 0.738630 -0.099816 -0.233718 -0.859350 -0.246549 0.515247 -0.918618 -0.396655 -0.514392 -0.830710 -0.886603 -0.990824 -0.446765 0.149810 0.108220 0.309514 -0.481925 -0.910571 0.032574 0.054505 0.517190 0.494927 1.031331 -0.261286 0.260409 -0.101616 -0.597294 -0.047172 -0.377677 -0.710899 -0.139276 0.539244 -0.497722 0.452053 0.098262 -0.480521 -1.348244 0.492127 0.167804 -0.185228 -0.816199 0.372595 -0.186253 -1.100143 0.584479 -0.451260 0.746441 0.430516 0.557529 0.612125 -0.743403 0.630726 0.843434 -0.450777 -0.801727 0.864836 -0.100662 -0.092593 0.277167 -0.163307 0.133752 0.864995 -0.413993 -0.713292 0.563289 0.208568 -0.158729 -0.074640 -0.765684 0.678771 0.172626 0.387099 0.726605 0.692993 0.510336 0.535615 0.578886 0.991781 -0.264682 -0.311949 -0.800566 0.661590 -0.612771 -0.198240 -0.837582 -0.600423 0.377018 -0.930279 -0.136322 -0.249735 -0.638228 0.174796 1.191493 0.429526 0.391572 -0.398374 0.435014 0.563521 0.523523 0.218896 -0.423897 0.262496 0.215221 0.337325 -1.116218 0.185684 -0.749662 -0.257532 0.864956 0.311517 -0.873272 0.233863 -0.682214 -0.734787 -0.454229 0.010676 -0.461820 0.025602 0.814996 0.440352 0.106237 -0.240179 1.068066 0.243865 -0.462773 0.824184 -0.058266 0.112912 0.358284 0.970683 -0.121310 0.467189 -0.185310 0.888604 -0.206499 -0.712427 0.950498 -0.262223 0.220316 0.099693 0.164001 0.112531 0.174624 -0.090508 -0.502984 -0.853000 0.963010 -0.105468 0.543901 -0.607968 0.590078 0.340656 -0.373559 -0.622209 0.767798 -0.141240 0.996214 0.068974 1.124579 -0.005790 -0.803343 0.393574 0.013626 0.383118 -0.660865 -0.225797 -0.077321 0.719469 -0.475927 0.002334 0.438885 0.155656 0.301109 0.753334 -0.018875 -0.480533 0.826130 0.093917 -0.497518 -0.775889 0.045952 -1.053918 0.256435 0.356713 -0.534551 -0.480578 0.836976 0.323535 0.957284 0.187459 0.948252 -0.803210 0.820757 0.279439 -0.929295 -0.723038 -0.609091 -0.392271 0.561370 -0.912203 -0.282444 -0.702031 0.586573 -0.778821 -0.766187 -0.521234 0.180628 -0.540897 -0.133893 0.797373 -0.902345 -0.732084 -0.094109 -0.487537 0.579869 0.126248 0.277622 0.930521 -0.929895 0.742799 -0.960563 -0.827699 0.097747 0.585216 -0.522928 -0.162826 0.751599 -0.199111 -0.078082 0.663413 -0.555680 -0.828191 0.792465 -0.064695 -0.365892 -0.290845 0.598615 0.574074 -0.170179 0.023239 -0.287754 -0.358319 -0.897600 -0.768457 0.192158 0.646823 -0.733760 0.788826 0.942866 0.883538 0.486834 -0.799767 0.056360 -0.075182
1.672032 -0.863319 0.732795 0.988453 -0.431835 0.683022 -0.180845 -0.703466 -0.086845 0.060357 0.107364 -0.634221 0.525440 -0.682453 0.632631 0.606330 -0.934750 0.400759 0.860086 -0.409312 -0.244420 0.609758 -0.159662 -0.879311 -0.327148 -0.452855 -0.351790 0.404691 -0.197742 0.284039 0.963592 -0.823259 0.718114 0.521753 0.889906 -0.335605 0.157146 -0.562282 -0.009087 0.703643 -0.831207 -0.433220 0.566432 0.429051 -0.423308 -0.147340 -0.234475 0.224565 0.508393 -0.666732 0.455085 -0.494798 -0.676152 -0.752815 0.879667 -0.188797 0.467628 0.127962 -0.334595 -0.369882 0.031782 -0.574894 -0.336238 0.833416 0.867277 0.062409 0.141563 -0.008506 0.232807 -0.235540 0.540615 -0.247570 0.542106 -0.778884 -0.195372 -0.947646 0.875045 -0.548968 -0.958957 -0.399126 -0.710176 -0.923821 0.601664 0.387232 -0.750165 -0.904165 0.031357 -0.231896 0.460710 0.911539 0.990161 0.852523 -0.655258 -0.290194 -0.704054 0.258124 -0.272492 0.348761 0.911573 0.526151 -0.306193 0.548951 -0.968343 -1.197846 -0.784359 -0.101324 -0.754978 -0.413165 -0.695540 0.588531 -0.167943 -0.071823 -0.272004 -0.402977 -0.778268 0.924890 -0.491641 0.251249 -0.592699 0.561531 -0.345486 -0.541058 1.043722 0.633369 0.198537 -0.351028 0.232018 -0.701455 -1.278918 -0.247122 -0.675194 0.414667 -0.007785 -0.013350 -0.510746 0.729894 -0.494022 0.478065 0.650037 -0.679299 0.558471 -0.564915 -0.785369 0.573539 0.206930 -0.366034 0.378650 -0.913244 0.509068 -0.252603 -0.077428 0.829131 -0.411239 -0.137961 0.430582 -0.569791 -0.569433 -0.807834 -0.446781 -1.150970 -1.614426 0.046715 0.429890 -0.775997 0.516257 -0.368191 -0.635479 -0.421129 -0.585122 0.179281 0.590780 -0.328836 -0.881555 0.786506 0.327857 -0.000333 0.081984 0.423411 -0.216745 -0.061102 -0.488271 -0.255608 0.222372 0.427563 0.327879 -0.409486 0.517421 0.122452 -0.683614 -1.268281 0.349034 -0.518381 0.276250 -0.982937 0.569727 -0.651303 -0.314281 0.308881 -0.211095 -0.775911 -0.999045 -0.651774 0.017765 0.400297 1.173471 -0.492363 -0.080942 -0.157410 0.797944 -0.637668 -0.368762 -0.265482 -0.288401 -0.018979 -0.774808 0.035317 -1.027794 -0.201897 -0.459898 0.431621 -0.544487 -1.078039 -0.774826 0.644282 0.099169 -0.329260 0.430867 -0.222544 -0.911334 -0.595035 0.196177 -0.022549 -0.124687 0.435830 0.729627 -0.314637 0.028636 -0.320283 0.324624 -0.544978 -0.410452 0.037317 -0.402111 -0.868555 -0.565521 -0.686461 -0.908276 -1.320739 -0.086831 -1.058941 -0.700774 -0.370333 0.387710 -0.235525 -0.918097 -0.647945 -0.203532 1.233377 1.353431 0.343765 -1.308985 -0.029779 -0.516372 -0.790819 0.400315 0.572283 -1.256711 0.159646 0.547214 -0.109178 -0.385348 0.354126 -0.020122 -0.507192 0.381103 0.267272 -0.275860 -0.434315 -1.385277 -0.158007 -0.732212 0.538842 0.492042 -0.867187 0.251078 -0.834389 -0.131406 0.591808 0.852595 0.724427 0.391589 -0.221341 -0.674568 -0.267770 -0.226984 -0.950732 1.193505 0.039664 0.181304 1.274212 0.607709 0.149766 0.483188 -0.328357 -0.544259 0.331268 -0.483899 0.326179 0.588504 0.352962 -0.682667 0.493142 0.143925 0.086535 -0.903947 -0.245782 0.135360 -0.250867 0.475635 -0.097067 1.073103 0.556255 -0.413725 -0.275868 0.836352 0.948416 0.279940 0.209222 -0.181751 0.601330 0.619750 -0.778404 0.516090 -0.789787 0.042948 0.814598 -0.511481 -0.285410 -0.706384 0.827530 -0.955846 0.422662 -0.287062 -0.474833 -0.194041 1.140126 0.168270 -0.315709 -0.247297 -0.479265 -1.348285 -0.137634 0.777702 0.876418 0.738068 0.291648 1.260136 -0.570427 0.958057 0.263211 -0.773859 0.369945 0.004306 0.306974 -0.412365 0.492045 0.529124 -0.189310 -0.921150 0.474560 -0.357992 -0.310832 -0.292930 0.675594 0.087487 -0.013725 0.329883 0.283872 -0.006093 -0.126544 -0.069698 0.131636 0.661361 0.196778 0.410112 0.520782 -0.113319 1.151666 0.127692 0.612860 0.411102 -0.228207 0.498565 -0.452831 -0.494577 -0.620702 0.814595 0.660741 -0.451586 -0.008675 0.705759 0.072604 0.153414 0.595778 0.514916 -1.213092 -0.429017 -0.320956 0.318720 -0.029714 1.639576 0.135271 1.354787 0.489734 0.602988 -0.025004 -0.431128 0.324290 0.582490 0.908385 0.295653 0.500328 0.407046 0.708318 0.843398 -0.762077 0.723062 0.574902 0.466514 -0.010480 -0.123034 0.697597 0.349944 -1.291553 -0.261928 -1.161776 1.093186 0.484781 1.577986 -0.121256 0.193309 0.210335 0.715922 -0.369890 0.967929 0.859101 0.779730 0.751686 0.653187 0.041788 0.135818 -0.800630 -0.095448 0.107910 0.093404 1.339493 -0.472154 -1.052123 0.018274 0.001555 -0.148386 -0.354279 -0.631850 -0.485615 1.427340 0.167149 1.314066 0.514386 0.666460 -0.413526 1.288982 -0.092687 0.137616 -0.896484 0.532256 -0.525038 -0.991850 0.878583 0.291133 0.892768 0.736010 -0.560742 0.780836 0.911673 0.736657 0.876363 -0.459997 0.962518 0.212015 -0.209632 0.876305 0.038593 1.056081 -0.165238 1.194875 0.441658 -0.845690 0.097963 -0.154139 0.200079 -0.430028 -0.173689 0.140821 0.251489 -0.089205 -0.294378 0.188756 0.227373 -0.194120 0.273226 0.652076 -0.504418 0.481149 -0.420829 -0.110417 0.799053 -0.850434 0.561229 0.424387 0.905436 0.454430 -0.502079 -0.405132 0.232312 0.656824 -0.203288 -1.155565 -0.639766 0.077904 0.858835 0.498094 -0.227529 -0.293704 -0.849280 0.471877 -0.450247 -0.316760 -0.454883 0.361615 0.095285 -0.645639 -0.747360 -0.269465 0.345576 -0.665477 0.703616 0.028972 0.384041 -0.295287 0.187217 -0.833739 -0.429464 0.477658 -0.055631 -0.795105 -1.368022 -0.624230 0.427266 0.011074 0.076721 0.072097 0.346822 0.509986 -0.531166 0.088205 -1.093031 -0.422234 -0.139315 -0.263992 -1.053540 -0.767589 -1.461150 -1.066056 0.554175 0.006182 -1.275848 -0.226077 -0.098716 -0.123531 -0.409019 -1.853910 -0.615000 -1.142358 -0.384387 -0.647247 -0.238762 0.125155 0.630225 0.355539 -0.894976 0.030726 0.578474 -1.096361 -0.501419 -0.388619 -1.235817 -1.043898 -0.686098 -1.010599 -0.415064 -0.211855 0.374334 -0.378141 -1.427435 -0.624323 -0.737403 -1.039205 -0.801723 -0.104078 -0.521729 -1.394094 -0.228564 -1.097084 0.252556 0.917037 -0.598029 0.780495 -0.138828 -0.931757 -0.752592 0.548807 -0.306126 0.454824 -1.500675 -0.817379 -0.492212 -0.006089 0.588961 0.309862 -0.360883 -0.205597 -0.354381 -0.991775 0.362597 -0.648222 -0.934136 0.439900 0.250555 -0.933199 0.378403 -0.722582 -0.918743 -0.147746 -0.364195 -0.999385 0.434517 0.459918 -0.034371 0.089080 0.290092 -0.420518 0.214456 0.372814 -0.169170 -0.728854 -0.865778 -0.741261 0.126385 0.806150 0.365449 -0.707760 0.224716 -0.688912 -0.712888 0.503777 0.444369 0.138454 -0.672830 -0.782142 0.279317 0.890040 -0.303159 -0.053072 0.435728 -0.720245 -0.669973 0.476701 -0.270433 -0.313982 0.610906 -0.414692 -0.485423 -1.016673 0.322435 -0.682498 -0.357210 -0.987125 -0.270255 -0.089681 -0.386440 -0.020839 -0.064391 0.140056 0.626168 0.181817 0.910200 -0.656860 0.332136 0.787950 0.864034 0.711948 -0.424854 0.477326 0.603040 -0.420549 0.113514 -0.523587 0.681523 0.857335 -0.421872 -0.346131 -0.109264 -0.330318 -0.045304 -0.765294 0.069982 -0.100064 0.703412 -0.730269 0.818310 -1.063986 -0.023952 1.090885 -0.982173 0.921054 -0.766868 -0.388346 -0.594264 -0.437331 0.127071 -0.080527 -0.352488 0.945670 1.008464 -0.424086 1.030333 0.232876 -0.363504 0.445709 0.811885 -0.141064 0.719822 0.882225 1.106743 -0.298251 -0.361491 -0.570090 0.008157 -0.860855 -0.419584 -0.419089 0.140937 0.012992 -0.239270 -0.660786 0.664015 -0.436775 0.259677 0.232291 -0.382047 0.133317 0.664375 -0.486811 0.195190 0.922777 -0.178868 -0.995934 -0.734128 -0.763462 0.887589 0.277706 -0.003530 -0.140451 -0.341923 0.471624 0.275745 0.684117 1.002016 -0.055796 0.923226 0.418811 -0.449840 0.459436 -0.725538 -0.139474
-0.197621 -0.400078 0.312909 -0.421567 0.952227 0.263927 0.297130 0.013230 0.394727 0.085228 -0.643003 0.192792 0.221669 0.796254 0.955804 -0.873293 -0.531692 -0.642354 0.641371 0.449730 0.147543 0.618886 -0.738396 -0.072915 0.255615 -0.617926 -0.991024 -0.688826 0.783896 0.347699 -0.055893 -0.664404 0.195343 -0.532039 0.010135 0.457180 0.517903 0.899598 -0.571491 -0.592721 -0.358592 0.508995 0.562310 0.339527 0.276771 -0.208052 0.819874 0.552299 -0.927442 0.578279 -0.610379 0.010830 0.310114 0.520045 -0.010487 -0.583553 -0.647170 -0.323398 -0.934502 0.383152 -0.277380 -0.080287 0.579920 -0.980608 0.212098 0.855797 0.229538 -0.723218 -0.118629 -0.998390 0.466253 -0.330652 -1.261488 0.644751 -0.607579 0.591382 -0.410529 -0.249694 -0.469823 -1.104756 0.237807 0.091779 -0.165921 -0.359018 -0.975382 -0.123598 0.309032 -0.673088 0.579755 0.041888 0.556883 0.180541 -0.410860 -0.405377 -0.895130 -0.358222 -0.559948 0.486862 0.245678 0.647512 -0.698565 -1.186663 -0.134530 0.504981 0.320612 -0.260590 0.397379 -0.049727 0.587247 -0.748370 -0.718777 0.072537 0.054161 -0.345834 0.483682 0.436932 0.322731 0.908086 -0.126855 0.187798 0.727075 -0.492698 -0.234625 0.239081 1.130619 -0.202058 -0.156154 -0.110795 -1.043145 0.746787 -0.848090 0.256598 -0.589471 -0.081803 0.805807 0.070375 0.990258 0.158903 0.002437 0.404742 0.101040 0.932394 -0.182612 -0.219000 -0.758215 0.571744 0.613303 -0.343071 0.477391 -0.178854 -0.041747 0.234891 0.402850 1.306136 -0.496137 0.118465 -0.853730 0.348475 0.166079 0.713837 -0.469976 -0.295979 0.283186 0.780296 0.180638 -0.447928 0.310291 -0.126752 -0.880558 -0.605847 0.270835 -0.759865 0.862957 -0.156236 0.388066 -0.158933 0.514295 0.495179 0.401244 0.053903 -0.568751 -0.426051 0.491538 -0.896244 0.157510 0.448238 -0.120543 0.478420 1.740051 0.784070 -0.479560 -0.411985 0.366243 0.872408 0.660359 -0.867275 0.215873 -0.086045 -0.911356 0.067924 0.606740 0.266654 -0.248979 -0.351547 0.764002 0.511511 0.846969 -0.861409 0.091738 0.546775 0.155773 -0.642176 -0.092539 -0.196416 0.261988 1.570725 0.426098 1.526216 1.101925 0.538763 1.114803 0.654353 -0.614081 0.672401 -0.453991 0.444085 -0.684358 0.232330 0.209393 -0.894536 -0.516708 0.675437 0.805824 -0.510428 0.716191 0.790598 -0.424260 0.298186 0.426827 -0.430631 -0.941423 0.087762 1.156626 -0.166513 0.894151 1.038125 0.623255 1.149684 0.408357 0.261646 0.031797 0.128475 -0.464764 0.030622 -0.859971 -0.748713 0.776044 0.570493 -0.516397 -0.259299 -0.343515 0.624897 -0.172466 0.431577 0.345252 -0.019078 -0.482107 0.614402 -1.151371 0.612203 0.443515 0.506328 -0.275318 -0.298771 -0.073612 1.189833 0.247249 0.045332 0.026665 0.628586 0.002825 0.728494 -0.507662 0.907666 -0.439978 0.476709 0.648810 -0.423272 1.039743 0.478130 -0.461238 -0.242811 -1.049412 -0.301268 -0.985820 -0.968344 -0.568150 -0.472768 0.200038 0.205869 0.784533 0.338486 -0.028487 -0.218301 0.228846 -0.115083 0.019013 -0.631574 0.300232 -0.537886 0.124780 -0.557202 0.750574 0.830314 0.552244 -0.413840 -0.455858 -0.239700 0.484188 -0.320239 -0.850574 -0.993220 0.077151 0.332322 -0.259070 0.733148 0.986909 -0.450431 0.385769 0.878720 0.244540 -0.661111 -0.176386 0.457491 0.099943 0.435520 0.810367 0.631097 -0.264883 -0.035371 -0.592539 0.164811 -1.156842 -1.294570 -0.863090 -0.786430 -1.468137 -1.310270 0.427053 -0.670258 -0.269747 -0.513670 0.229943 -0.291216 0.086881 0.182749 -0.107008 0.604041 -0.589366 -0.072474 -0.617531 0.601661 0.271390 0.211627 0.436766 -0.301325 0.970870 0.837911 0.425034 -0.042204 -1.071617 0.219409 -0.840511 -0.252162 -0.227079 0.116220 -0.276919 0.882972 0.977225 0.841781 -0.647546 -0.123117 -0.623954 0.752849 0.075277 0.552836 0.030245 0.271829 -1.584351 -0.058274 0.198255 0.106392 0.604605 -0.529769 -0.866387 -0.454849 0.460766 -1.032433 -1.238351 0.030127 -0.350897 0.569495 -0.521121 -0.019646 0.533970 0.245854 0.852864 0.610131 -0.463807 0.446396 -0.007036 -1.390586 0.232349 -0.697340 -0.208016 -0.422571 0.332664 -0.248353 0.703887 -0.841007 0.454795 -0.272417 0.286201 0.592216 -0.091957 -0.168445 0.097091 0.129497 -1.184045 -1.271770 0.079106 0.035262 0.574149 0.210194 1.139829 0.091155 0.295158 0.104359 -0.125979 -0.222518 -1.303503 0.148962 0.123022 -0.775629 -1.078177 0.451771 0.804990 0.232867 0.158147 -0.573428 -0.668938 0.939193 -0.715284 0.009604 -0.056970 -0.898721 -1.485820 -0.693167 0.167970 -0.287646 -0.615884 0.047418 0.220652 -0.761050 0.513751 -0.594698 0.097737 -0.337570 -0.858125 0.250274 0.407335 -0.012054 -0.556190 -0.282551 -0.488469 0.192433 1.039399 -0.628119 -0.104221 -0.809176 -0.703057 -0.161341 -0.221136 -0.747726 0.696918 -1.142648 0.182358 -1.216625 -0.130022 0.951592 1.034743 0.403787 -0.160781 0.488186 0.957642 0.350189 -0.280722 -0.233840 0.788531 0.527377 1.067044 0.408411 -0.596234 1.089958 -0.795627 0.620303 -0.966006 -0.331601 -0.671776 -0.590436 1.094333 0.702576 0.782175 0.072528 0.208260 -0.974183 -1.046886 0.788690 0.280613 -0.332889 -0.853917 0.026381 -1.317990 0.634240 -0.483905 0.331558 -0.790525 -0.695959 0.323695 -0.151779 0.602104 -0.564287 0.906958 -0.385810 0.497599 0.396920 0.352103 -0.615077 0.370724 0.129877 0.710521 -0.506188 0.834894 0.579036 0.890627 1.089940 -0.277309 -1.102795 -0.339061 -0.318242 -0.582857 -0.382570 -0.325520 -0.961537 1.106048 0.396026 1.094013 -0.171973 0.847203 -0.202430 0.629664 -0.716350 -0.410910 0.872779 1.108932 -0.212672 0.628052 -0.034530 0.296716 0.588909 -0.353914 1.502649 0.937139 0.969921 0.297136 -0.947524 -0.818403 -0.705828 0.617751 0.125026 -1.019687 0.056212 -0.295274 1.251854 0.884318 -0.891654 0.535416 0.915413 -0.750459 0.645610 -0.820075 0.229184 0.845563 1.325146 0.069404 -0.300845 0.399353 -0.509702 0.204380 0.718998 0.578243 0.834177 0.462275 -0.271567 -1.904159 -0.922003 -0.618694 -0.241360 0.329726 0.244733 0.234673 1.279922 0.566229 0.792678 0.983610 -0.336300 0.898825 0.145716 -0.353166 0.582239 0.333787 -0.242681 0.439843 1.172192 -0.000239 0.319982 1.027602 0.451724 0.852351 0.197294 0.736310 0.659661 -0.533979 0.334467 -0.421490 0.137240 -0.340115 0.642379 1.241582 1.201426 -0.408005 0.713574 -0.666058 -0.918531 -0.877263 0.292931 0.410302 0.351248 -0.188601 0.769103 0.102074 -0.165364 1.223193 1.210198 0.999982 -0.872712 0.360271 -0.218193 0.117870 0.859034 -0.637696 0.582730 0.623138 0.317917 -0.174771 0.015779 0.793858 0.661862 0.403228 -0.459564 -0.757725 -0.053650 -0.270311 -0.432507 -0.687935 -0.222324 0.421344 -0.705781 -0.326345 -0.460277 0.830424 0.086228 -0.220230 0.986163 -0.313854 0.001971 -0.645407 -0.241320 0.786956 1.069675 -0.674911 -0.099648 0.452072 -0.025385 -0.379899 0.305075 -0.368377 0.932572 -0.351810 0.929181 0.540581 0.101110 -0.599222 0.296335 -0.507596 0.164470 0.881138 0.143314 -0.562705 -0.524890 -0.151044 -0.033322 0.388781 -1.033313 0.773264 -0.861685 0.034273 0.129885 -0.233663 -0.238795 0.435544 0.126683 -1.117173 0.608439 -0.307385 0.561074 0.486192 0.869383 -0.103491 0.331159 -0.591056 0.215875 -0.450964 0.763591 0.286898 -0.465304 0.642743 0.275276 -0.192833 -0.737658 -0.958746 -0.259530 0.504678 -0.632156 0.592037 -0.811467 -0.848999 0.847922 0.318012 -0.547980 -0.900663 0.315913 -0.951089 0.605447 0.816750 0.112992 -0.287038 0.788890 0.511312 0.884443 -0.861211 -0.027990 0.753747 0.607993 -0.195362 0.689964 -0.917187 -0.390261 -0.788985 -0.211318 -0.038193 0.076120 0.005717 0.233807 -0.290474 -0.481179 -0.988953 0.367210 -0.014901 -0.847480 0.680256 0.892762 0.638336 -0.793498 0.558211
-0.548100 0.047040 -0.541024 -0.998072 -0.517840 -0.999628 -0.838458 -0.716388 0.907362 -0.064547 0.417850 0.660341 -0.513972 0.539266 -0.323795 -0.491935 -0.017351 -0.856955 0.722678 0.280828 -0.958691 0.281090 -0.976635 -0.810350 -0.519926 -0.264678 0.062665 0.425150 0.351464 -0.139274 0.391008 0.685477 0.947113 -0.219866 0.007276 0.519064 -0.907318 0.683085 -0.087439 -0.457079 -0.173266 0.235552 0.440355 -0.221675 -0.812592 0.436360 -0.341012 -0.243874 0.380149 0.711853 0.379843 0.452033 0.177682 0.661606 0.324780 -0.516876 0.975438 0.489639 0.094300 -0.837646 -0.471213 0.318150 0.672976 0.897991 0.022495 0.479590 0.728259 0.546768 0.797026 0.022330 0.474993 1.029784 -0.027275 -0.056494 0.212473 -0.607414 0.042000 -0.521637 0.059567 0.961225 0.834746 0.016860 0.395371 0.382190 0.195659 -0.689862 0.103296 -0.706643 -0.320104 -0.607057 -0.170352 0.878550 -0.173360 -0.185119 0.299949 0.407804 0.670982 0.910025 -0.055035 0.014066 -0.710076 0.178665 -1.235950 0.034139 0.603068 0.199706 -0.674432 0.370295 0.006067 -0.264241 -0.392708 -0.820926 0.205547 0.378476 -0.213235 -0.804171 -0.170464 0.821018 -0.688971 -0.688714 0.855774 -0.665427 -0.358331 -0.187724 0.988008 1.249701 0.622528 0.900496 -0.299541 0.793799 0.180997 -0.327655 0.042769 0.360525 0.736160 -0.259784 -0.660920 -0.163430 -0.431473 0.016268 0.094679 -0.372038 0.234928 -0.755486 0.238261 0.940637 0.402781 -0.798395 -0.152782 0.467459 0.006689 0.973914 -0.492846 -0.135201 -0.176322 0.064359 -0.983663 -0.243976 -0.662169 -0.296179 0.528966 0.077582 0.767422 -0.963213 0.159071 0.479293 0.807894 -0.166753 0.600787 0.663794 -0.039002 0.704748 0.201010 0.397319 0.361288 0.884101 -0.794818 0.600376 0.298863 0.841056 -0.175324 -0.596273 -0.423110 -0.911407 -0.804249 -1.392570 0.032355 0.026483 0.779821 0.503629 -0.829579 -0.844044 -0.229739 -0.476499 0.070595 -0.034327 -0.418389 0.519636 -0.921618 -0.205281 0.539021 0.271033 -0.612389 -0.280681 -0.599388 -0.776537 -0.778089 0.801275 1.348338 -0.667744 -0.547868 -1.339080 -0.771828 -0.145142 -0.057055 0.594140 0.017935 -1.147731 -0.796697 0.107428 -1.148060 0.236493 0.382040 -0.227758 -0.141002 -0.085244 0.489678 -0.576417 0.337777 0.701601 -0.835605 -0.367519 0.583058 -0.305902 -0.010098 -0.718756 1.038147 -0.428192 -0.137792 -0.834756 -0.899160 -0.379620 -0.382339 -0.487669 0.849378 -0.802149 -0.649725 0.223292 0.176244 0.308014 1.215684 0.135893 0.327175 0.616158 -0.557648 -0.330567 -0.578055 -0.484540 -0.354602 -0.338199 -1.410422 0.656568 -0.720440 -0.025372 0.073031 0.279969 -1.694198 -1.791324 0.109179 -0.942166 -0.145159 -0.741466 -0.710132 0.489280 0.055842 0.872499 0.465271 -0.726908 0.912360 0.820084 0.501363 -0.661541 0.439949 -0.331463 0.460195 0.474052 0.024513 -0.254579 0.121509 0.470071 -0.260579 0.008913 1.170047 -1.157761 -0.714368 0.152747 -0.671306 -0.898720 0.481819 0.143253 -0.366441 -0.776982 -0.516214 0.685488 0.360723 0.297683 0.941868 -0.501931 -0.307299 -0.777544 -0.707951 -0.590773 -0.907648 -0.434009 -1.014707 0.262312 -1.430890 -0.116605 0.001365 -0.285187 0.829292 0.042148 -0.022832 -0.032207 0.005380 0.777752 -0.294173 0.136789 0.171858 -0.357440 -0.572832 -0.374073 0.398580 -0.335903 -0.317012 -0.270129 0.423909 0.320876 -0.096947 -0.136036 0.697934 0.044937 -0.104900 -0.040248 -0.364628 0.539851 -0.809209 0.621868 -0.367008 0.680826 -0.657795 0.198306 0.174051 -1.174831 0.138819 1.042134 -0.280192 -0.419828 -0.742442 -0.025387 -0.799380 -0.217227 -0.550051 -0.692918 0.011461 -0.468973 0.664527 -0.231482 -0.526483 -0.009634 -0.822440 -1.195392 -0.454599 -0.187870 -0.210174 -0.264037 -0.778241 0.022127 0.106652 0.417374 -0.322766 -0.210610 -0.197637 0.079767 -0.393335 -0.771794 0.389990 -0.329035 -0.798504 -0.520811 0.513863 -0.767196 0.642338 0.411727 -0.456916 -0.884189 -0.813794 -0.174960 0.564644 -0.064177 -0.562054 0.479225 0.809787 1.125551 1.172740 0.039495 0.724133 0.693190 -0.203574 0.526721 -0.203607 -0.513828 0.894094 0.645134 0.069395 -0.595544 0.413347 0.896675 0.849647 0.448672 -0.714797 -0.008737 0.293890 0.608913 -0.579975 0.988969 -0.409658 0.796468 1.464118 0.313850 -0.307049 -0.149729 0.514311 -0.071686 1.320874 1.195095 0.529822 -0.546613 0.492379 0.162334 -0.336203 0.228857 -0.084416 -0.638878 -0.767931 -0.116704 -0.781329 1.116845 -0.401284 0.546395 0.198214 -0.384762 -0.709571 -0.751571 0.656931 0.834828 -0.153489 -0.197041 0.367555 -0.485893 0.637246 -0.038682 0.544594 -0.376500 0.134848 0.568113 0.285939 -0.136359 0.345107 -0.483695 -0.139448 0.670455 -0.778689 0.648989 0.819838 0.983996 0.521812 -0.738489 0.581749 0.778939 0.727325 0.218557 0.288062 0.129234 0.776262 -0.281970 -0.338364 0.740379 1.188828 -0.448669 0.395651 0.655800 -0.250174 0.363293 -0.541887 0.490523 -0.735595 0.545940 0.175754 -0.623206 -0.686911 0.719282 -0.736624 0.168869 -0.059056 0.745443 -0.815109 -0.761457 0.010562 1.068503 -0.113203 0.003960 0.471416 0.661627 0.639270 -0.050798 0.423105 -0.285137 0.218980 0.002958 -0.095274 0.967799 0.020718 1.194601 0.357641 0.687962 0.812105 0.496200 0.808159 0.728795 0.915171 -0.317838 0.032907 -0.820211 -0.355115 -0.942499 -0.584613 -0.329520 0.268488 0.787389 -0.103975 -0.386737 0.520381 -0.028444 0.887986 0.032437 0.401429 1.058977 0.192532 0.934798 -0.562489 -0.310393 -0.203806 -0.430864 -0.547194 1.032098 -0.112511 -0.419529 -0.816536 0.918785 0.304592 0.330211 0.451494 0.973456 0.989870 0.989776 -0.369986 0.224765 0.820918 0.510047 0.219225 0.568614 0.524246 -0.721066 0.411588 0.056548 -0.628149 0.700114 0.046501 0.477763 0.935953 -0.327345 0.610231 -0.353702 -0.285642 0.089741 0.647220 -0.885653 -0.583673 -0.612743 0.081206 0.265573 0.809788 0.565021 0.496131 -0.558323 -0.233693 -0.038835 -0.450064 -0.000573 -1.710395 -0.318052 0.587956 -0.618594 -0.797824 -1.040197 0.006740 0.592223 -0.674403 -0.002137 -0.172844 0.300233 -0.236118 1.236091 0.229011 -0.717622 -0.442609 0.363947 0.722229 0.648893 0.818516 0.843477 1.073459 -0.863816 -0.595234 -0.459033 -0.061864 -1.256657 -0.636290 -1.443086 -1.383998 0.016648 -0.276296 -0.405077 -0.568717 -0.100509 -0.429711 -0.579065 0.076957 -0.392218 1.014739 1.009650 0.369978 -0.442979 0.319658 -0.175940 -0.997456 -0.122240 -0.078599 0.654183 -0.559870 -0.076657 -0.495083 -0.485694 -0.456313 -0.469585 -0.881897 -0.741108 -0.247463 -1.011766 -1.234141 -1.041656 -0.827538 -1.015436 0.046967 -0.559220 -0.125361 0.075152 -0.230662 0.267870 0.731050 0.692880 -0.995537 0.379677 -0.142809 -0.789693 -0.373464 -0.658888 0.183461 0.204059 -1.129863 -0.532611 -0.973703 0.182808 0.189780 -0.091071 -0.243350 0.808463 0.626444 -0.341570 -0.857901 -0.621070 -0.791645 0.017338 -0.777344 -0.235632 -0.142147 0.281406 -0.116262 0.986402 -0.985131 -0.418601 0.584621 -0.911866 0.691813 0.751812 -0.210375 -0.568882 -0.447365 -1.193531 0.298100 -0.344569 -0.859025 0.202586 0.339064 -0.021393 0.519221 -0.285668 0.670342 -1.352693 -0.609866 -0.976373 0.144001 -0.805634 -0.919456 0.111392 0.228424 -0.087262 0.774398 0.477598 -0.383743 0.422097 0.099942 0.131284 -0.709095 0.193100 -0.338674 -0.392306 0.031290 -0.702276 -0.928582 -0.182406 -0.690626 -0.382013 0.238341 -0.460339 0.006973 -0.361587 -0.419533 0.235670 -0.908230 0.966009 0.650641 -0.573609 0.766756 -0.994508 0.597251 0.812385 0.960565 -0.303966 -0.140495 -0.361213 -0.810084 -0.071133 0.115486 -0.806155 -0.782680 -0.535558 -0.903956 0.617033 0.437776 0.639165 0.801057 0.248273 -0.921593 0.681781 -0.883072 0.393154 -0.231991 -1.003637 -0.160907 -0.613025 0.733678 0.143850 -0.496242
-0.024936 -0.662373 -0.334035 -0.146156 -0.017517 0.819438 -0.494285 0.755469 0.462434 -0.227388 0.677250 0.837022 0.353906 -0.161168 0.597918 0.736406 0.939554 -0.870040 0.797896 0.639841 0.714911 0.738407 0.818941 -0.407076 0.608641 -0.402973 -0.947798 0.189054 0.409267 -0.558510 -0.439983 0.264634 0.094103 0.375574 -0.799854 0.578915 -0.493688 -0.868526 -0.604815 0.865738 0.619186 0.153513 0.543324 0.859814 0.736522 0.899277 0.673890 -0.951715 0.381444 -0.522060 -0.719729 0.613584 -0.332664 0.841572 -0.667396 0.910583 0.804315 -0.924259 0.630554 0.340319 -0.520496 0.892494 0.946916 0.787903 0.029409 -0.482617 0.622047 -0.756735 -0.682021 0.895954 0.630451 -0.100452 0.410005 0.722243 -0.794886 -0.103212 0.303617 0.014234 0.727600 0.283993 0.510317 0.801516 -0.066622 -0.308123 -0.950502 0.811876 0.507625 -0.394541 0.430725 0.300137 0.092275 0.924096 -0.970832 0.132326 0.244926 -0.032842 0.952036 0.776062 1.094278 0.801396 -0.252718 0.291084 0.071223 -0.733628 0.208146 -0.123196 0.514193 0.511711 -0.974737 -0.284150 -0.805842 -0.986495 0.595015 -0.285606 -0.826376 -0.090009 0.212759 0.809409 -0.090993 0.239661 0.905136 -0.273453 -0.013174 0.806099 0.504673 0.063847 0.611094 1.413496 1.109341 1.450011 -0.211659 -0.199040 -0.577622 0.463196 0.122489 -0.585761 -0.126895 -0.523458 0.026648 0.697716 -0.238239 -0.985086 -0.540731 0.982837 0.771328 0.040742 0.236778 -0.192426 0.821126 0.192233 -0.584837 1.176731 0.786659 0.836803 1.543283 0.048053 0.690825 0.722488 -0.009157 -0.064895 0.976323 0.315506 0.008201 -0.071721 -1.251540 -0.203399 -0.007232 -0.864318 0.207559 -0.678543 -0.790672 -0.519843 -0.418548 -0.062671 0.229495 -0.333204 0.102556 -0.227006 0.371558 1.297549 1.079437 0.915954 0.700568 0.470394 0.641835 0.597473 -0.226614 0.874340 -0.128939 -0.112301 -0.370137 0.957165 0.378342 -0.263980 -0.193056 -0.586181 0.912323 -0.761503 0.562654 0.748893 -0.114444 -0.590062 0.293828 0.616557 0.496998 0.020450 0.431979 0.823640 0.150247 0.613546 -0.552718 0.579110 -0.433466 -0.796646 0.581751 0.183065 -0.249880 0.667767 0.531911 0.054500 0.218582 -0.945900 -0.811158 -0.199471 -0.249330 -0.666932 -0.112843 -0.793285 0.658318 -0.236765 -0.164399 0.620969 -0.097520 1.050794 0.102480 0.837070 0.295160 0.772599 -0.355933 -0.700034 -0.179310 0.479063 -1.030273 -0.379559 -1.149070 0.500053 0.587058 -0.377345 -0.844780 0.011018 0.256423 0.651075 0.342995 -0.713651 0.519506 -0.591094 0.756856 -0.427724 0.416511 0.374664 1.214033 1.324462 0.711705 0.986953 0.014000 0.266402 -1.074098 -0.941157 -0.033614 -0.402881 -0.242519 -0.196036 0.296876 -0.068556 -0.261625 -0.362456 0.952128 -0.168391 -0.385899 0.493779 0.351557 0.568275 -0.283548 -0.975244 1.001821 0.628741 -0.029878 0.491101 -0.651350 -0.629661 0.152298 0.865746 -0.869902 0.317864 -0.290405 -0.207353 -0.482207 0.286959 -0.164532 0.242729 -0.842402 0.056382 -0.085943 1.039821 0.602202 -0.630828 -0.368838 0.623694 -0.941888 0.964241 -0.294675 0.903233 -0.122525 0.151343 0.661207 -0.142750 -0.049114 0.513657 0.077449 0.779110 -0.802776 -0.923740 -0.863005 -0.755637 -0.755798 -0.552342 -0.761964 0.958227 1.132015 0.470897 -0.565104 0.861172 0.749297 -0.496540 -0.592113 -0.653482 -0.209776 -0.926356 -0.219516 0.551353 -0.109685 -0.120311 -0.192323 0.898068 -0.138266 0.401767 -0.130884 0.048338 -0.190223 -0.452998 -0.608818 -0.468018 0.389865 -0.666128 1.061268 -0.191548 1.507710 0.221891 0.019001 1.444456 -0.235301 0.947641 0.505596 -0.842534 0.539981 0.237898 -0.287233 -0.481755 0.681720 0.762523 -0.877604 0.012360 0.449342 1.198465 -0.518513 -0.677887 -0.210115 -1.115359 0.423245 -1.002249 0.495982 1.023989 -0.510024 0.995034 1.593055 0.313799 0.019626 0.687445 0.760647 0.723306 0.464718 -0.439078 -0.304761 0.841693 0.429063 0.817439 -0.764461 -0.561689 0.312248 -0.334386 -0.645033 1.222726 -0.450049 -0.925106 0.291125 0.010484 -0.174271 0.686409 0.188776 -0.188585 0.650089 0.532273 1.174170 0.146528 -0.150753 0.665165 0.275922 -0.253981 0.941499 0.814608 -0.200531 0.950870 -0.011344 0.774136 0.084768 -0.588217 -0.711152 1.168194 0.690667 -0.595648 0.740928 0.363289 -0.397542 -0.397888 -0.554360 0.584894 0.631197 0.035803 -0.297535 0.761278 -0.186645 0.702552 0.325501 0.799708 -0.142133 -0.132638 0.995211 -0.946273 -0.850984 -0.072121 -0.038280 -0.887061 -0.124883 0.640042 -0.118959 0.083805 -0.587371 0.070603 -0.881347 0.604879 -0.009478 0.270381 -0.297972 0.210199 -0.396588 -0.040431 0.151732 -0.718123 0.712984 0.889783 1.076923 0.278217 0.233933 0.942911 0.608399 -0.119686 0.852893 0.250813 0.447696 -0.742491 0.078519 0.226814 -1.059182 0.659361 0.220439 0.689155 0.730774 0.795203 -0.265018 1.127012 -0.609769 0.107415 -0.021540 0.276751 0.362819 -0.330653 0.200230 0.594934 0.300163 0.914348 -0.703021 -0.009874 -0.709828 -0.225029 -0.903249 -0.147636 -0.812100 -0.480318 -0.080555 0.078314 -0.025757 0.561271 0.498029 0.565413 -0.752862 0.394304 0.115821 -0.686929 0.056536 -0.772317 1.070130 0.356440 0.224903 0.569884 0.452359 0.496471 -0.060411 -0.062689 -0.370882 -0.283172 0.798046 -0.318061 0.493873 -0.683441 0.283946 -0.843518 -0.139478 -0.364343 -0.614664 -0.045558 -0.649189 -0.229052 -0.103019 -0.208108 -0.590532 0.123770 -1.114818 -0.089580 0.234282 0.608823 0.151114 0.140870 -0.126343 0.578686 -0.364422 0.656665 0.056663 1.007451 0.505812 0.823779 -0.327518 0.622089 0.519702 -0.763235 -0.658725 -0.358809 0.145093 -0.288797 -0.413939 -0.116715 0.781998 -0.061757 -0.609691 -0.388572 -0.362270 -0.244187 0.092551 -0.192187 0.436961 0.646955 -0.003832 -0.365950 0.323987 0.292284 0.808886 0.230141 0.548885 -0.741977 -0.117108 0.644563 -0.796904 0.789462 1.037322 -0.188578 0.169671 0.182882 0.500884 0.733685 -0.072572 -0.191845 0.180667 -0.074690 1.095669 -0.739925 0.392381 0.299662 -0.558145 -0.343632 1.235629 1.146145 1.098248 0.732065 0.833147 -0.735657 0.200824 -0.710653 0.983504 0.612461 -0.487431 -0.582903 0.560548 -0.457596 0.299114 0.377949 0.329669 0.847663 -1.292663 -0.507925 0.351796 0.782463 -0.501119 -0.197618 -0.119763 0.416285 0.708086 -0.167415 0.523105 0.024182 -0.054036 -0.406886 0.180704 -0.956731 0.323554 -0.270769 0.176430 -0.863017 0.764260 -0.840333 0.621957 -0.377917 -0.568021 1.061680 0.693588 -0.437719 0.491727 0.422508 0.534671 -0.243229 0.821167 0.164962 -0.152749 0.831395 1.030458 -0.284569 0.874286 0.516007 0.147101 -0.942486 -0.783271 0.829641 -0.880897 0.492165 -0.563951 -0.332760 0.660762 0.062885 0.325230 -0.157406 0.109206 -0.732984 0.790505 0.340832 -0.066056 -0.413209 0.676789 0.457645 0.049053 0.994667 -0.747111 0.412311 -0.481273 -0.340050 -0.756333 -0.485283 -0.567658 0.418018 -1.000516 -0.410671 -0.650333 0.715291 -0.640640 -0.987628 0.425191 0.901694 -0.466284 -0.391797 -1.065353 -0.095973 -0.012462 0.653066 -0.764254 0.490540 0.685970 0.472308 -0.185778 0.546673 0.638707 0.567692 -0.472826 -0.686172 -0.836862 0.430695 0.602982 0.540849 -0.055199 -0.778345 -0.189112 0.817140 0.717466 -0.922463 -0.077055 -0.892252 0.221225 -0.832263 -0.602113 0.271778 0.620808 -0.106808 -0.718782 -0.459825 0.663820 -0.921887 -0.594403 0.791002 0.625823 0.780969 0.890292 0.998486 -0.837108 0.714309 0.134799 0.506974 0.413277 -0.841019 0.816963 0.302100 -0.783576 -0.121219 -0.031315 0.093617 -0.836238 -0.469650 0.603966 -0.285815 -0.381924 0.820391 -0.426280 -0.549181 -1.036514 -0.273826 0.566121 0.903646 0.957378 -0.067499 -0.834648 -0.174638 0.380669 0.678020 -0.132422 0.530875 -0.477958 -0.837227 -0.273507 0.312741 -0.988328
-0.715674 -0.247112 -0.720056 0.768200 0.096513 -0.971373 0.740685 -0.149543 -0.821094 -0.582870 -0.319785 0.994898 0.145598 0.427190 -0.087096 -0.718133 -0.105798 -0.231073 -0.032974 0.682859 0.699959 -0.175969 -0.839902 -0.638178 -0.324821 0.837494 0.198711 -0.544054 -0.829603 -0.713125 -0.062233 -0.616645 -0.412177 -0.893451 0.594622 -0.369271 -0.028407 -0.363737 -0.034912 -0.488661 0.305624 -0.257033 0.342626 -0.059777 0.407964 0.767855 -0.896532 0.841891 -0.402971 0.506599 -0.816772 0.261241 0.756869 -0.564483 -0.318922 -0.759329 -0.555639 0.189547 0.371208 -0.581224 0.090215 -0.861032 -0.360259 0.810199 -0.146143 0.543665 -0.674859 0.795840 0.721197 -0.293111 0.229364 -0.819858 0.303453 -0.112395 -0.405089 0.403529 -0.291060 0.571962 -0.599366 0.141841 -0.003463 0.704150 -0.667058 0.631686 -0.584282 -0.143388 -0.733748 -0.717293 -0.774092 0.336056 -0.757937 0.056749 0.646467 0.572286 -0.081919 0.306261 -0.549901 0.372292 0.407422 -0.025482 -0.073274 0.532489 0.266642 0.538814 -0.370187 0.705964 0.929748 -0.339318 0.231341 -0.208955 0.271465 -0.419783 -0.049481 0.745064 -0.998575 0.971275 -0.758088 0.232236 0.908488 -0.128060 -0.326626 -0.019887 -0.410619 -0.434523 -0.840441 0.122452 -1.098040 -1.185483 -0.526779 -1.048980 0.585953 -0.376745 -0.821432 0.589277 -0.206323 -0.317741 0.778347 -0.980404 -0.378393 -0.178599 0.519005 0.318595 -0.386615 -0.208023 0.809347 0.500219 -0.296958 -0.725231 0.580174 -0.170858 0.621391 0.213855 0.436117 0.248581 -0.197987 -0.895565 0.270787 0.529509 -1.064092 -0.669129 0.118678 -0.537964 0.646796 -0.579376 -0.185228 -0.800316 0.641215 0.529104 -0.530106 0.100013 -0.117353 -0.428919 -0.503106 -0.655174 -0.440317 0.300437 -0.050589 0.216620 0.638574 -0.817363 -0.135645 0.891738 -0.327816 -0.492685 -1.243363 0.255607 0.430478 -0.168106 -0.315210 1.197854 -0.340142 -0.582610 0.085788 -0.053488 -0.703829 0.534424 0.841305 -0.310094 -0.788211 -0.558628 -0.386602 0.795993 0.468203 -0.878142 -0.110284 -0.050167 -0.176734 -0.180943 0.601819 0.947230 -0.461621 -0.366711 0.525330 -0.980083 -0.429853 -0.337356 -0.500725 1.160922 0.893806 -0.423757 -0.699851 -1.123787 0.268189 0.816534 -0.824001 -0.252822 0.665850 0.110284 -0.105019 0.946902 -0.705949 -0.698560 -0.363570 -0.281825 -0.811670 -0.970428 0.693585 -0.578984 -0.633528 -0.489357 -0.304516 -0.902381 0.054549 0.171082 0.688292 0.875729 -0.029554 -0.388077 -1.098942 0.022864 -0.681347 -0.610323 -0.977284 0.991861 -0.454277 0.847460 0.658705 -1.037021 -0.712405 -1.044238 -0.912486 0.318143 0.780704 -0.545890 0.097269 0.599692 -0.513728 0.171630 -0.230996 -0.823544 0.867832 -0.090776 0.404085 0.020336 0.649694 0.142529 0.183596 -0.385001 -0.018796 -0.904308 0.859617 0.394845 -0.514158 0.342548 -0.174010 0.365053 -0.132212 0.077492 0.584489 0.063581 -0.711197 0.386039 -0.763911 -0.571979 -0.930825 -0.321799 -0.897904 0.378217 -0.396212 -0.440533 1.101613 0.413068 0.133838 -0.785866 0.778375 -1.032212 -0.840821 -0.072019 -0.040113 -0.796959 0.199269 0.583330 0.328447 -0.661982 0.867875 -0.071707 -0.541888 -0.858514 -0.669643 0.599727 -0.100851 -0.530739 -0.987495 -0.063063 -0.090505 0.497319 -0.651752 0.793002 0.568737 0.902022 0.825225 0.057304 -0.277264 -0.916661 -0.364554 0.288539 -0.116897 0.726865 0.011496 0.578044 -0.170643 -0.408969 0.727837 0.132602 -0.601169 -0.609340 -0.215624 -0.861091 -0.498615 0.684274 -0.591130 -0.088433 -0.276405 -0.438732 -0.398768 -0.701554 -0.311053 1.406212 -0.102084 1.127739 -0.447843 0.833194 0.298819 0.197277 -0.612788 0.003768 -0.832046 0.248475 -0.872906 0.464549 -0.731154 -0.447088 0.138606 1.110514 0.161082 0.164570 0.703362 -0.316494 -0.436765 0.424687 0.213722 -0.101562 -1.218412 -1.203204 1.019843 -0.107199 0.225045 -0.366965 -0.117304 0.469276 0.838153 0.200967 -0.939085 -0.138472 -0.672312 0.759208 0.740404 -0.738751 0.891785 -0.335131 -0.259262 -0.303543 0.590445 0.436037 -1.032056 -0.066781 0.450654 -0.831985 -0.061601 -0.968652 -1.047625 -0.546850 -0.216085 0.782999 0.733338 0.885206 0.959898 -0.802936 0.630666 0.902947 -0.910325 0.439968 0.359608 0.164018 -0.938492 -1.172125 0.254779 0.521658 0.179010 0.124910 -0.323364 -1.171353 0.020964 -0.387602 -0.388375 0.293742 -0.805230 -0.619410 0.382185 0.061042 -0.246072 -0.089312 -0.005935 0.366963 0.325669 0.437471 0.490006 0.036440 0.906291 -0.609498 -0.184389 0.267540 0.182924 0.770817 -0.553188 -0.342915 0.150925 0.190876 0.943131 0.019942 0.340111 -1.192397 0.514911 0.137451 0.427691 -0.232852 0.258188 -0.831176 -0.716602 0.574788 0.278654 -0.035232 -0.284844 -0.405503 0.730353 0.541768 -0.064884 0.341228 0.091819 -0.605063 -0.756862 -0.098987 0.083455 0.228336 0.649983 0.447599 -0.940960 0.897364 -0.574723 0.531673 -0.898984 0.092394 -0.823578 -0.054639 -0.030782 0.641918 0.829208 1.068144 0.765133 0.623231 1.013027 0.216545 -0.113217 -0.700494 -0.743021 0.936113 0.731424 -0.649045 -0.103574 -0.405917 0.366352 -0.392415 -0.199209 -0.326205 0.769720 -1.136756 -0.895130 -0.036796 -0.462184 0.642850 -0.378031 0.726862 -0.535049 0.303516 0.704350 1.134212 -0.067172 0.738234 0.831764 0.228259 -0.043936 0.144558 0.562560 -0.592125 -0.505510 0.454567 -0.255494 -0.666030 0.202019 0.330597 -0.579430 0.290888 -1.001226 0.141793 0.643467 0.729849 -0.476532 -0.171939 -0.061126 -0.646764 0.005648 0.845231 0.433564 0.089031 0.337065 0.263837 -0.493012 0.510346 0.607402 0.263048 0.987927 0.510627 -0.146241 0.237992 0.853651 1.000513 0.323501 -0.631056 -0.460263 0.211815 -0.246595 0.267139 -0.033725 -0.088813 0.293456 -0.372559 0.487501 0.996720 0.481846 0.737061 0.418859 -0.781389 -0.702144 -0.063367 -0.715442 0.550581 0.195767 -0.610137 0.104904 -0.859103 0.054543 -0.850684 0.665097 -0.210717 -0.212971 -0.002291 -0.755312 0.961922 0.419810 -0.097539 0.490615 0.651497 1.485679 0.644841 -0.466965 -0.571969 -0.829281 -0.272906 -1.040339 0.452021 -0.105980 -0.899122 -0.061413 -0.277299 -0.214812 0.237010 -0.321695 -0.491117 0.900755 -0.915400 -0.837066 -0.765273 -0.462322 0.005072 -0.178249 0.901315 -0.159799 1.106851 -0.647473 -0.014061 -0.601634 0.319317 0.427728 -0.708235 0.735344 0.201115 -0.479132 -0.473713 -1.129645 -1.044035 0.511301 -0.066610 0.523193 0.089979 -0.937180 0.025919 -0.297873 0.747454 -0.081959 0.103266 -0.655169 -0.679265 0.956497 0.616577 0.282681 -0.316395 -0.324065 0.192104 0.393933 -0.206384 0.094105 -0.065953 0.956102 -0.466864 -0.840648 -1.141226 -1.062243 0.225866 -0.082027 -0.591611 -0.891863 -0.944167 -0.075853 -0.113342 0.315351 0.313681 0.079174 0.864208 0.106312 -0.962928 0.785944 -0.184424 -0.453963 0.722672 0.478214 1.015007 -0.994555 -0.413322 0.041203 -0.881783 0.602444 0.481754 0.460666 0.887965 0.352594 -0.911014 -0.979488 0.552886 0.074550 -0.711179 -0.414875 0.833682 -0.249992 -0.054651 0.945796 0.402456 -0.683019 0.927223 0.744602 0.863063 -0.339687 -0.621147 0.626571 0.280939 -0.096464 -0.436712 -0.890977 0.120378 -0.757204 -0.438962 0.288092 0.328453 -0.216426 -0.639896 -0.980812 -0.377142 0.380838 -0.639140 -0.222498 -0.399172 -0.563883 -0.613247 -0.342132 -0.356908 -0.073192 0.269611 0.364978 0.839662 -0.365828 0.749110 -0.456025 0.386797 0.033492 -0.793429 0.456958 -0.779800 0.396678 0.271176 0.162152 0.435145 0.800148 0.397767 0.634328 0.168159 -0.544226 -0.810242 -0.065136 -0.866865 0.108938 0.215640 0.447410 0.271320 -0.315570 -0.311622 0.097345 0.495946 0.492024 -0.886059 -0.616006 -0.152636 -0.288841 -0.637962 -0.614183 0.604477 -0.886123 -0.568992 0.706319 -0.185981 0.400328 0.249158 -0.543606 -0.731574 0.717538 -0.258510 -0.720186
0.146223 0.281641 0.732461 0.423539 0.477928 0.548683 -0.218143 -0.910863 -0.500633 -0.864022 -0.501744 0.980586 -0.181296 -0.714797 0.788733 0.395411 0.982645 -0.470943 -0.450909 -0.531487 0.746814 -0.022920 -0.608700 0.052992 -0.544705 0.199580 -0.730853 0.019158 -0.928751 -0.084417 0.729846 -0.495640 -0.866785 0.996585 -0.725882 -0.568147 -0.744384 -0.369343 0.982603 0.096043 -0.325026 -0.218495 0.616308 0.260990 0.058799 -0.662026 -0.830782 0.074712 0.932428 -0.138434 -0.539166 0.078390 -0.069381 -0.288572 -0.001534 -0.368472 0.470660 -0.586154 0.349695 -0.525387 -0.326265 -0.773253 0.236707 -0.689596 -0.736002 0.390480 0.297991 -0.155110 -0.007896 0.539080 0.728608 -0.651017 0.874118 0.017497 -0.070864 0.839893 -0.298704 -0.155645 -0.745241 -0.011552 -0.878359 0.462185 -0.058747 -0.634918 -0.186548 0.628732 0.678257 -0.219370 0.453493 0.261486 0.097239 -0.072369 0.043907 0.026592 -0.206186 -0.078086 -0.270938 0.436925 -0.639029 0.251995 0.416973 0.400149 0.279913 0.032998 0.780047 -0.848195 -0.373748 0.356535 0.706200 -0.049906 -0.889659 -0.163577 -0.216002 0.302355 -0.804621 -0.170032 0.814459 -0.760577 -0.244767 -0.734799 -0.134846 -0.663496 -0.750251 0.166951 -0.390527 0.225014 0.139272 0.494198 0.044110 -0.679225 -0.582101 -0.338744 -0.174425 -0.586736 0.497474 0.926727 -0.514289 -0.819061 0.921419 0.673054 0.924415 0.469959 -0.694046 0.085375 0.504215 0.821429 0.742393 0.604446 -0.306851 -0.633648 -0.488982 0.529375 -0.928735 0.908635 -0.381687 -0.706733 -0.806175 0.160428 -0.651832 0.342384 -1.140047 0.456904 -0.161246 -0.543571 0.920541 -0.904220 -0.615572 -0.145854 0.432742 0.119358 -0.705362 -0.901020 -0.646515 0.317906 -0.608310 -0.302957 -0.468185 -0.433144 0.476225 0.639043 -0.478450 -0.543694 0.571860 -0.757577 0.491070 -0.569798 1.063082 -0.221193 0.727759 -0.822291 -0.857233 -0.193694 -0.592330 0.568572 -0.184362 -0.460141 0.448467 0.355057 0.403791 0.825817 0.894015 0.454861 0.129699 0.787958 -0.266245 1.261325 0.689249 0.865533 0.173765 0.190108 -0.391229 0.103835 -0.701674 0.195016 0.094047 0.103710 -0.087159 0.120029 0.397765 0.057386 0.816434 0.594497 0.665012 0.836185 -0.642978 -0.057356 0.765271 -0.686520 0.416290 -0.159275 -0.212760 -0.949452 -0.176091 -0.402762 0.416427 -0.340496 0.180383 0.605540 -0.176824 -0.196473 -0.551918 -0.069273 0.738971 0.715056 0.153967 0.350524 -0.211940 0.005176 -0.031718 -1.056882 0.641961 0.379251 -0.767461 0.803275 0.097377 -0.128359 0.440284 -0.781147 0.123035 -1.168577 0.015381 -0.109412 0.659203 0.574183 -0.337909 -0.176312 0.557644 -0.388293 -0.362196 0.461238 -0.249022 -0.385253 -0.223700 0.853474 0.374770 -0.056261 -0.018084 0.181967 -0.754283 -0.205541 0.350689 0.272706 0.081721 -0.190357 1.011986 0.603605 -0.759787 0.368673 -0.493488 -0.619478 0.685135 -0.745320 -0.317059 -0.010972 -0.651676 0.494311 1.195540 0.522340 0.060230 0.597364 -0.842059 -0.916477 -0.978437 -0.917733 -0.119015 -0.770758 -1.036362 0.098885 -0.672141 0.794188 -0.145929 0.877032 0.536646 -0.853723 -0.144064 -0.317073 -0.340992 0.530154 -0.572915 0.341749 0.202950 0.425304 0.479728 -0.479531 0.729948 1.133231 0.576035 -0.168798 0.323868 -0.563822 0.024237 0.075151 -1.149997 -0.319462 -0.266975 0.276591 -0.959584 -0.590244 0.813260 -0.716931 0.768559 0.507284 0.404750 -0.674883 -0.121968 0.091411 -0.718183 0.919578 0.931953 -0.291708 0.628049 -0.828110 0.506138 0.312691 0.420442 0.419655 0.048567 0.251028 -0.753491 0.532461 -1.214200 -0.573021 -0.280345 -0.282562 0.459956 -0.558901 -0.749410 -0.105850 -0.585344 -0.768429 0.818243 0.117029 -0.310566 -0.119535 -0.531929 0.475688 -0.191834 -0.443960 -0.342534 0.421444 1.205307 0.856900 0.971034 0.348872 0.048374 0.748479 -0.306076 0.592811 -0.903371 0.199323 0.449080 -1.080757 0.436279 0.471285 0.124691 -0.035644 0.830965 0.554550 0.839071 -0.617269 -0.772321 0.962279 0.780949 0.560869 0.053948 -0.374641 0.081324 -0.888812 0.488227 -0.398545 1.284283 0.645905 -0.197879 1.453610 -0.366445 -0.005006 -1.435875 -1.240802 -0.726820 -0.136163 -0.291805 0.820297 -0.323645 0.676442 0.019567 0.632158 0.258683 -0.657456 -1.296190 0.681351 0.765872 0.747911 0.959142 -0.119884 0.054221 -0.166503 -0.327425 0.830337 -0.260316 -0.113343 1.057761 0.361384 0.594709 0.414852 -0.067741 -0.884739 -0.222211 0.920017 -0.997434 0.106822 -0.283044 -0.530810 0.769817 0.776008 -0.390907 -0.774000 -0.270970 0.326498 -0.778227 -0.630258 -0.469796 -0.934467 -1.153822 0.125740 -0.583051 0.437396 0.614802 1.104454 0.349533 0.736171 -0.619098 -0.552542 0.146915 -0.704595 -0.128813 -0.351777 0.259851 -0.141174 -0.850420 -0.449467 -0.918006 0.468684 0.578328 -1.051853 -0.181657 -0.933162 0.758470 -0.377074 -0.456047 -0.328118 -0.813341 -0.421806 0.128220 0.907064 0.435113 -0.436709 -1.195498 0.164469 -0.737534 -0.923236 -1.237698 -0.298373 -0.683349 0.781042 -0.512121 -0.034296 0.113039 0.260770 -1.018657 -0.975252 0.525103 -0.403574 -0.323961 -0.474136 -0.312168 0.983077 0.923807 -0.290797 0.709091 0.414002 0.245216 0.774694 -0.055979 0.253779 -0.173263 -0.456548 -0.266444 -0.010921 -0.411230 -0.695821 -0.391270 0.719227 -0.580012 -0.269851 -0.247083 -0.600003 0.471518 0.289883 0.310366 -0.532247 -0.782557 -0.655310 -0.105619 0.274508 0.469953 0.519785 0.500057 0.731201 0.207899 -0.165973 -1.598228 -1.090615 -1.218372 -0.601804 -1.337592 -1.553877 -0.767173 -0.747894 -0.251130 0.011538 0.406184 0.839442 -0.887211 -0.062938 -0.512660 -0.055304 -0.347713 -0.060281 -0.385778 -0.761814 -1.391685 -0.470531 -0.963824 -0.376064 -0.500710 0.195323 -0.862637 -0.062587 -0.329269 -0.501219 -1.145882 -0.365169 -0.525704 -0.783789 -0.461802 0.452586 0.752709 0.324159 0.507966 -0.096474 0.251893 0.382909 -0.224444 -0.389619 0.138806 0.166313 -0.663241 0.072060 -0.156096 -0.768699 0.282068 -0.159969 -0.231937 -0.283060 -0.702031 -0.388654 -0.673108 -0.886739 0.196668 -0.557002 -0.870875 -0.539400 -0.940203 -0.966479 -0.170867 0.155989 -0.325983 -0.450269 -0.381271 0.328891 -0.052148 0.538865 1.104730 0.245886 -0.129741 -0.459554 -0.486306 -0.319019 -0.476373 -0.679335 -0.692395 0.339497 -1.037573 -0.917393 -0.674735 -0.057488 -0.703395 -0.924319 0.973298 0.643484 -0.988801 0.523193 -1.020676 0.718358 0.221813 -0.392287 0.103324 -0.787072 -0.652722 -0.662197 0.593756 0.430122 0.784264 -0.797574 0.018085 0.977260 -0.160165 -0.023094 -0.389591 -0.766020 -0.299302 -0.262170 -1.118440 0.344458 -1.082289 -0.283837 -0.128299 0.501418 -0.632746 0.699605 0.835768 -0.441382 -0.032069 0.294758 -0.408927 -0.399895 -0.194904 -0.224097 0.811182 -0.377378 0.109446 -0.020714 -0.303716 -0.175611 -0.678654 -0.590034 -1.685619 0.015990 -1.613827 0.090176 0.546159 -0.315778 -0.425574 -1.125197 -0.450886 0.690704 0.530078 -0.596192 -0.391590 0.734232 0.282206 0.385525 -0.917878 0.911083 0.390824 0.127555 1.106559 0.718466 -0.010654 0.603141 0.586228 0.277378 -0.622516 -0.507780 0.162007 0.016156 -0.401233 -0.215402 -0.608656 0.688372 -0.552636 0.496441 -0.638788 -0.968302 0.221271 0.275945 -0.538180 -0.408414 0.256920 -0.152503 0.210433 0.733994 0.929718 -0.340063 0.662022 0.382273 -0.185630 0.630226 0.233573 -0.274268 0.606177 -0.202779 -1.062841 0.633302 0.448617 0.856676 0.489206 0.358353 0.533929 0.019783 0.489927 -0.885836 0.483769 0.829620 -0.853128 -0.774495 0.125180 -0.791120 -0.600747 0.755412 -0.172363 -0.310808 0.893081 0.126469 -0.184760 -0.675695 0.472023 0.700442 -0.387402 -0.899184 0.024999 0.659532 0.038907 -0.741737 0.390547 -0.172821 0.626122 0.940008 -0.807576 -0.737475 -0.493397 -0.770385 0.324516 0.972813 -0.339574
