layer
0.148239 0.063653 -0.781328 -0.707935 0.017577 -0.568699 0.832887 -0.075695 -0.735465 0.528483 -0.574533 -0.851483 -0.809162 -0.675592 -0.287061 -0.809358 -0.713472 0.862026 0.153168 0.679290 0.246584 -0.350965 0.456023 0.045473 0.473623 -0.669188 0.374117 -0.146378 0.457115 0.512671 -0.204777 0.850400 -0.592979 -0.983995 0.852700 -0.415120 -0.672634 -0.956713 -0.112793 0.605622 -0.280306 0.199172 -0.942023 -0.288242 -0.844285 0.386479 -0.976506 -0.080883 0.921903 -0.333106 -0.056305 -0.789259 0.006136 0.771380 0.068755 -0.437046 -0.290831 0.792560 -0.517022 -0.952235 0.930929 -0.140537 -0.307545 0.151799 -0.755755 0.881610 -0.396511 0.842703 -0.602782 -0.538796 0.703739 -0.527393 0.665948 0.176766 -0.484427 0.293845 -0.804947 -0.884469 -0.857111 -0.190482 0.154701 0.735319 0.571990 -0.490595 -0.835490 -0.684488 -0.581014 -0.165561 -0.303184 0.402006 0.394001 -0.853141 -0.952551 0.535696 0.773761 -1.061036 -0.514380 -0.136556 -0.396438 -0.497401 -0.830499 0.317603 -0.448487 0.407265 -0.354339 0.103051 0.589751 -0.332789 -0.934859 -0.541891 -0.932918 0.870214 0.564184 0.035188 -0.967075 -0.403574 0.081242 0.718030 -0.634996 -0.847304 -0.934249 -0.094315 -0.969405 -1.032774 0.217449 -0.340591 -0.035787 -0.015846 -0.607489 -0.608451 -0.098804 1.059466 -0.499219 0.669998 -0.202359 0.249805 0.910051 -0.051635 0.700183 0.673906 -0.723086 0.080609 -0.065829 -0.562646 -0.120045 -0.042093 -0.338227 -0.975513 0.030953 0.377816 -0.851997 -0.862151 -0.405215 -1.210226 -0.123471 0.014840 -0.573058 -0.472779 0.427679 -0.552266 0.303891 1.251122 -0.363122 -0.738591 0.939545 0.545365 -0.299826 -0.202356 -0.840037 -0.295757 -0.997973 0.250755 -0.620221 0.233791 -0.367859 -0.914975 0.402748 0.464009 -0.266804 0.008531 -0.384927 0.575768 -0.657887 -0.408667 -0.439183 0.106423 0.196791 -0.038815 0.229682 -0.648947 0.097981 1.112249 -0.116587 0.251734 -0.051537 0.978845 -0.590709 0.985625 0.317836 0.621527 -0.111715 0.674940 -0.113581 -0.111965 0.518019 -0.757667 0.163790 0.309273 -0.210633 -0.049408 0.704152 0.189667 -0.180213 0.158941 -0.081982 -0.101630 0.200542 0.684214 -0.562739 0.891549 -0.103602 0.384754 -0.355527 0.019171 -0.593650 -0.822324 -0.679123 -0.003505 0.537405 0.533829 -0.937790 0.082398 -0.982526 -0.461874 -0.847630 -0.175294 -0.427576 -0.132132 0.043113 -0.213579 -0.177893 0.621566 -0.706939 -0.045595 -0.212660 0.184195 0.802801 -0.580258 0.312282 0.081229 -1.012548 0.471186 0.189826 0.359339 0.141732 0.117439 -0.403252 0.515423 0.421551 -0.693429 -0.001707 0.346629 -0.061575 0.639915 -0.505803 0.740168 0.164125 0.534978 0.020949 -1.137190 -0.082212 -0.158540 -0.126740 -0.797226 -0.584415 0.143663 0.096800 -0.320096 0.317822 -0.849778 0.249227 0.674587 0.365272 0.042937 0.506683 0.062414 -1.034896 0.540842 -0.360571 -0.105103 -0.130534 0.729809 0.524209 0.054964 -0.508293 -0.641996 -1.048387 0.184676 -0.336993 -0.864077 0.063678 -0.900207 0.442002 -1.452857 -1.325960 0.256675 -0.454760 -0.023890 0.304161 -0.712488 -0.409867 0.655141 0.583868 -0.275410 -0.808549 0.511686 -0.182180 0.109328 0.786888 -0.579119 0.205772 -0.106876 -0.818084 -1.334829 0.416027 -1.290716 0.112660 -0.756825 -0.733383 -0.075790 -1.149306 -0.875458 -1.041178 -1.295270 0.525590 -0.811620 0.906540 -0.666600 -0.132401 -0.766031 0.623599 -0.252557 -0.412824 -0.322207 -0.475411 -0.280928 0.342623 -0.247961 0.443581 0.747259 -0.794433 -0.015616 -0.434920 -0.445758 0.009795 -0.298129 0.227723 -0.622978 -1.026005 -0.048178 -1.155202 -0.229024 0.756852 -0.201649 -0.616178 -0.667947 0.234028 -0.935281 -0.423798 0.886969 0.505887 -0.123274 1.067536 0.420573 0.288203 0.370781 0.220870 0.420093 1.483191 -0.010710 0.332048 0.146747 -0.630152 -0.147319 1.189577 -0.182225 -0.955705 -0.195284 0.058514 -0.631217 -0.208300 0.724936 0.868116 -0.098592 0.946314 0.369735 0.474427 0.318203 -0.567071 1.177668 0.154513 0.437723 0.553977 0.710894 0.630740 1.549352 0.103355 0.140856 0.634166 0.479384 0.582531 -0.128055 -0.014876 -0.216686 0.284917 -0.797231 -0.397125 -0.429359 -0.855110 0.702860 -0.099952 0.952916 -0.885085 -0.673072 -0.601954 0.273456 -0.201276 0.345907 0.937745 0.092955 1.221147 0.529283 0.577679 -0.125317 0.628104 0.271589 0.288570 0.536017 -0.026487 0.238601 0.051631 0.444119 -0.514436 -0.951807 -1.103291 -0.394652 0.625651 -0.172744 0.870272 0.065295 -0.107219 -0.341926 -0.248513 -0.770693 0.033951 0.896274 0.650659 0.467883 0.633481 -0.206764 1.428367 -0.125953 0.326375 -0.576982 1.064533 0.023932 0.777237 0.320468 -0.260452 -0.551670 -0.114434 -0.714447 0.560484 0.307775 -0.077585 0.166024 -0.596092 0.441036 0.694640 0.142898 0.249425 0.856558 0.746428 0.325189 0.432542 0.410698 0.657688 0.329038 1.011319 -0.476380 0.350891 0.284948 0.316282 -0.274640 -0.022323 0.125384 0.713102 0.943717 -0.151703 0.846360 0.706914 -0.457179 0.406655 0.302351 -0.581916 0.487885 0.955419 -0.171697 -0.804964 -0.498890 -0.569153 0.637342 0.052781 -1.079063 0.125184 -0.137986 -0.442905 0.531198 0.133715 -0.292324 -0.133482 0.599030 0.028409 0.744794 0.312144 -0.598142 -0.274665 0.597952 -0.700502 -0.529421 -0.552726 -0.751405 0.260408 0.899910 -0.922378 -0.090398 -0.857439 0.055002 -0.048762 -0.579149 -0.533080 -0.546346 0.505659 -0.200126 0.393154 -0.130184 -0.101459 0.181953 0.022752 0.951188 -0.547994 -0.375084 -0.655093 0.533201 0.824763 0.753095 -0.213857 0.132852 0.412346 0.631013 0.836404 -0.824681 -0.743416 0.463126 0.918531 0.054295 0.502498 0.189442 0.057148 -0.698188 0.188546 0.097555 -0.867343 -0.343805 0.572953 -0.821497 -0.274103 -0.277085 0.220954 0.825405 0.030870 -0.257851 0.449499 0.498235 -0.256465 -0.408570 0.339854 0.219713 -0.863589 -0.226803 0.072585 0.779265 0.861856 -0.620964 -0.148979 -1.228107 -0.060102 -0.878482 -1.029034 -0.964775 -0.675065 0.451867 -1.136377 -0.614740 -1.077602 -0.173092 -0.772042 -0.429766 0.503989 0.525273 0.444473 0.053372 -0.763940 -0.682468 -0.160149 0.051070 -0.435926 -0.475563 -0.086052 -0.207793 0.441607 -0.994113 0.007024 -1.285671 -1.165140 -0.667052 -0.192586 -1.035730 0.396181 -1.202038 -0.750108 -0.016356 0.049277 -1.194702 -0.116075 -0.268084 -0.495260 -0.370583 0.681183 -0.271865 -0.890571 -0.473858 -0.124507 -0.411979 0.083143 0.521270 0.813584 0.544569 0.119398 -0.672227 -0.239764 0.420668 -0.980375 -0.207728 -0.368044 -0.212399 -0.849977 -0.023505 -1.001580 -0.789487 -0.563547 -0.448165 -0.991714 -0.283995 0.401628 -0.809188 0.551118 0.951541 0.902119 -0.315470 0.392251 0.319648 0.655955 0.692993 0.110091 0.347301 -0.011178 -0.948807 0.502910 0.167520 -0.416902 0.682685 0.435751 0.427931 -0.549968 -0.974094 0.658899 0.079928 -0.953295 0.188407 0.229229 0.298461 0.842216 0.386606 -0.863161 -0.407768 -0.012043 -0.173767 -0.359747 -0.023449 -0.874569 -0.773407 0.897674 0.503851 -0.798422 0.193349 0.914850 0.440144 0.439629 -0.515470 -0.799011 -0.508885 -0.508168 1.007190 -1.012337 0.309307 0.093048 0.177917 -0.734732 -0.736514 -0.815691 -0.874132 0.983430 -0.737511 0.213873 -0.173420 0.476114 0.273081 0.841894 0.348344 -0.543165 -0.127617 0.023369 0.962231 -0.944695 -0.820896 0.616918 0.696720 0.393962 0.399055 0.777916 -0.808469 -0.401371 -0.348756 -0.853048 0.294158 0.690396 -0.153423 -0.549449 -0.005674 -0.528875 -0.269142 0.476782 -0.078494 -0.857397 -0.329703 0.220130 0.404846 0.739614 -0.988978 -0.402586 0.498218 0.726376 0.792241 -0.205973 -0.142526 -0.241753 -0.540438 -0.730656 -1.029593 0.494958 0.919679 0.638546 -0.649782 0.502866 -0.630732 -0.314013 0.227096 0.384040 -0.225890 -0.461774 0.888518 -0.391106 0.169059 -0.150890
-2.016497 -0.165902 0.521678 0.725099 0.031503 -0.417304 -0.569821 0.916280 0.995603 0.099581 0.494764 0.472113 -0.400188 0.716796 -0.317017 0.586709 -0.052094 -0.486213 -0.808737 -0.788532 -0.474149 -0.207093 0.480956 -0.364138 -0.008892 0.710904 0.982960 -0.904964 -0.799923 -0.548548 -0.283321 -0.716081 0.569621 -0.255090 -0.876386 0.449254 -0.299322 -0.026729 0.408747 0.082466 -0.520962 0.471014 -0.174840 0.821230 0.798620 -0.964269 -0.083869 -0.860235 -0.164568 -0.702805 0.104797 0.327249 0.898791 -0.326055 0.016820 0.750220 -0.497600 0.296280 -0.670554 -0.294712 0.582535 -0.914850 0.266004 0.516556 0.621848 -0.100547 0.417166 -0.767301 0.038935 0.362206 0.345455 -0.505076 -0.759374 0.609704 -0.498877 -0.896689 -0.225903 -0.096129 -1.001285 -0.145236 -0.461985 0.009279 -0.186107 0.929163 0.053565 -0.652004 -0.267331 -0.288172 -0.194784 0.917009 0.940430 0.870139 0.455272 -0.745669 0.097094 1.111183 0.734202 0.275844 -0.354461 -0.209516 0.142698 0.084484 0.080905 -1.008883 -0.341337 -0.712191 0.186692 -0.093977 0.411041 0.070438 0.397195 0.665004 0.058909 0.902929 -0.374959 0.507593 0.038321 -0.845673 -0.407275 0.308899 0.499739 -0.512599 0.318324 -0.278956 0.381963 -0.108652 0.730603 -0.056402 -0.433906 0.224737 0.190986 -0.049725 0.010613 -0.546307 -0.338387 0.259974 0.355960 -0.746801 0.203891 -0.180199 0.180163 0.096747 -0.404294 0.587468 0.024891 -0.466803 0.296785 0.338013 0.014382 -0.019970 -0.431676 0.274541 0.800665 -0.446815 0.664288 -0.216272 1.008926 -0.115815 -0.280911 0.037266 0.034725 0.502240 -0.775818 0.256151 -0.155955 0.025539 0.600721 0.845360 -0.128382 -0.894574 0.094995 -0.588703 0.706109 0.411016 0.875036 -0.035939 0.665039 0.743694 -0.494949 1.244149 -0.525968 -0.219744 0.423992 0.041468 -0.112928 0.356239 0.101932 0.296045 -0.001471 -0.501527 -0.549433 -1.029677 -0.454752 -0.185181 -0.758435 0.945868 -0.715132 0.437545 0.295070 0.631483 0.233565 0.474896 0.118428 0.275485 -0.517172 0.049671 -0.435874 0.325507 0.964893 0.237196 0.462574 -0.466211 0.489153 0.491503 -0.373506 -0.572879 -0.196897 0.304293 -0.376449 -0.137145 0.166659 -0.003558 -0.227596 -0.688041 0.397614 0.566582 -0.118426 0.675465 -0.216311 0.992226 -0.762893 -0.170213 0.524462 0.826745 0.856731 0.032548 0.476846 -0.030779 0.835329 0.726158 0.022749 -0.368319 0.416997 -0.541972 1.016943 -0.858252 0.367859 -0.426944 0.221455 -0.107322 0.399966 -0.728663 0.715113 0.598272 0.223212 0.696299 0.656753 -0.583808 0.038149 0.595612 0.845172 0.372150 0.050023 0.700483 1.000665 -0.093306 -0.175748 0.127271 0.412876 -0.434581 0.374233 0.035530 -0.433766 -0.002616 -0.082415 0.117062 -0.547491 0.470590 -0.753237 0.023886 -0.455971 0.656588 -0.512432 -0.909048 -0.686507 -0.759472 -0.291071 -0.450835 0.228916 -0.240563 0.669802 -0.505874 -0.522666 0.910671 -0.346111 -0.468709 -0.415327 0.481296 0.251587 -0.356590 -0.708241 -0.218269 -0.252238 -0.306262 -0.174975 -0.945649 -0.674191 0.342714 0.378032 -0.514961 -0.315786 0.603291 0.593321 -0.015874 -0.891813 0.224682 -0.535823 0.107926 -0.135767 -0.305628 -1.130286 -1.500687 -1.097728 -0.364575 -0.983611 -0.156499 -0.651933 0.331317 0.965579 0.611293 0.960332 -0.368628 0.183704 -0.839387 -0.251040 0.439436 -0.847807 -0.140341 -0.241749 -0.178910 0.154213 0.007856 -1.152234 -0.531957 -1.400965 -1.886217 -2.417871 -2.269730 -1.323731 -1.427598 -1.545152 0.659900 0.678513 -0.422694 0.743652 0.116477 -0.641047 -0.274155 0.483313 -0.666611 -0.054087 0.040136 -0.253343 -0.083804 0.014134 0.105435 -0.208447 0.415575 0.635748 0.043541 -0.162750 -2.394994 -1.301237 -0.840371 -1.143673 -0.561303 0.157021 -0.508738 0.770823 0.390159 -0.107071 -0.513065 -0.214067 0.163925 0.132842 -0.036747 -0.194076 -0.861555 -1.085773 -0.012717 0.515496 0.598928 0.434420 0.147273 0.246808 -0.582704 -0.797919 -1.208956 -1.504116 0.119616 -0.614298 -1.031623 0.125143 -0.011726 0.725205 0.098934 1.021331 -0.267810 0.394044 0.225137 -0.786840 0.585592 -0.559359 -0.197101 -0.271883 0.148056 0.476450 -0.486619 1.153577 0.074063 -0.762966 -0.560223 -0.570454 -0.250263 0.778037 -0.630547 -0.666658 -0.056877 -0.783182 0.071874 0.609142 -0.329225 -0.293144 0.409725 0.761357 0.476341 0.013605 -0.387773 0.522699 -0.701820 -0.693727 0.128300 -0.123498 -0.582789 -0.489007 0.705313 0.120970 -0.173152 0.179973 -0.532809 0.476673 0.051985 0.399963 0.113613 1.072296 -0.240865 0.636806 0.622757 -0.348409 0.891965 -0.153240 0.547493 0.025076 0.619751 0.216916 -0.267139 0.473899 -0.257887 0.185923 -0.914034 0.640527 0.123864 -0.762970 0.189023 0.115593 0.997169 -0.135014 -0.122923 0.602165 -0.995511 0.531737 0.953918 0.123198 1.017226 -0.687485 0.125674 0.294332 0.617519 0.306718 0.338940 0.364822 0.470763 0.505971 0.221382 0.180325 -0.059284 -0.369150 0.653666 -0.608387 0.275986 0.622225 0.053182 0.861808 0.058619 -0.028866 -0.596632 0.285704 -0.772267 0.520820 -0.223777 -0.062522 -0.364832 0.698523 0.546847 -0.733780 -0.150519 -0.138014 0.238578 0.149482 0.590815 0.405528 -0.573641 -0.340456 0.199194 -0.451324 -0.309346 -0.384913 -0.464686 -0.297170 0.667946 0.984171 0.731603 -0.272807 0.010300 -0.193949 0.685854 0.837995 0.601450 0.506821 0.041182 -0.403199 -0.370294 0.206556 0.764133 0.162777 -0.364280 -0.056528 -0.222814 0.763477 0.310810 0.574266 -0.346756 -0.082278 -0.969172 0.676215 0.862352 1.031306 0.415525 -0.463208 -0.254994 -0.702835 0.241548 0.900773 0.310488 0.039161 0.017360 0.389326 0.622138 -0.037824 0.484634 0.233873 -0.369146 0.513798 -0.795447 0.423734 -0.551772 -0.290221 -0.608442 -0.267636 -0.214358 0.137495 0.771154 -1.371885 0.118857 -0.252799 -0.105155 0.462494 0.813038 -0.717909 0.787761 0.454939 -0.124997 0.875583 0.850959 0.087455 -0.492385 -0.053340 0.338875 -0.430327 0.223529 -0.296905 0.189274 0.384438 -0.558269 0.109745 0.009731 -0.497954 0.348185 -0.411435 -0.545364 -0.231058 0.887147 0.057514 0.085620 0.745166 -0.837495 -0.371889 -0.932675 -0.035809 -0.183668 0.405647 -0.398610 0.259133 0.731420 0.668923 0.161232 -0.229361 0.566288 -0.163403 -0.137856 -0.010421 -0.630153 0.615733 -0.534886 0.690565 -0.614315 0.598413 -0.065044 0.378748 -0.376470 -0.800067 0.617605 0.864944 0.944718 0.195114 0.380581 0.748996 0.484180 -0.660720 0.594277 -0.088495 0.343422 0.531135 -0.176824 0.202495 -0.749935 0.274784 -0.059803 0.372873 -0.207945 -0.730684 -0.011440 -0.581867 0.371720 0.449126 0.065909 -0.778389 0.308059 0.299588 0.491741 -0.237723 0.240245 -0.249079 0.639185 -0.300374 -0.106484 0.100437 -0.361201 0.471029 -0.002200 -0.701163 0.761781 -0.933524 0.173708 -0.215580 -0.600561 0.355871 0.386634 -0.321882 0.101543 -0.708871 -1.033783 -0.138257 0.514994 0.262229 -0.729548 -0.433439 0.555608 1.003352 0.987022 0.864922 0.895126 -0.107236 -0.212842 -0.023512 -0.928593 -0.632430 0.571376 0.105093 0.292790 0.179483 0.138391 -0.531415 0.012326 -0.954699 -0.208409 -0.196256 0.329659 -0.986654 -0.457471 -0.641398 -0.671617 0.769071 -0.273564 -0.404348 -0.282720 0.258157 0.116313 -0.655563 0.380801 0.687398 -0.669490 0.243684 0.896472 -0.719008 0.312076 -0.266679 0.781303 -0.538520 0.613424 0.827911 -0.345929 -0.062212 -0.914390 -0.965530 0.741486 -0.189338 0.788690 -0.046039 -0.004903 -0.015571 -0.275987 0.067791 0.708733 0.762505 0.926898 0.210653 0.494275 0.566322 -0.499578 0.706968 0.891635 0.082577 0.857727 0.039746 -0.517881 -0.225741 -0.377809 -0.023479 0.742685 -0.413618 0.484090 0.996424 0.031151 0.907292 -0.611593 -0.171710 -0.262322 0.920639 0.804575 0.206291 -0.137962 0.260533 -0.040304 -0.178594
-0.080411 0.446115 0.192575 0.217378 -0.230969 -0.530064 -0.224864 0.941861 -0.032816 -0.176131 0.124683 0.687734 -0.565739 -0.008746 -0.405213 0.458195 0.612562 -0.037817 -0.320348 0.033795 -0.852633 -0.287106 0.424085 -0.622496 0.031794 -0.782112 -0.671400 -0.498586 -0.048409 -0.053785 -0.662073 -0.977622 -0.330914 0.321799 -0.687613 0.359174 -0.787719 0.820341 0.503793 0.853304 0.950944 0.287989 -0.349128 -0.601394 0.944702 -0.051062 0.138771 0.405775 0.447256 -0.920472 -0.545297 -0.938572 -0.785950 0.651057 -0.963986 0.146148 0.913041 0.589467 -0.846549 0.934032 0.425577 0.304986 -0.336001 0.906789 -0.673931 0.247145 0.635288 -0.330931 -0.310429 0.749679 -0.459642 0.460534 0.412777 0.169434 -0.531633 0.686567 -0.568706 -0.033018 -0.768356 -0.624690 -0.271530 0.071960 -0.239874 -0.576460 0.746239 0.804622 0.634639 0.294997 -0.187909 -0.510925 0.368503 0.398372 -0.877212 -0.062394 0.082246 0.496442 0.756758 -0.825124 0.387422 -0.497418 -0.544315 -0.531766 -0.100824 -0.954289 -0.537801 -1.222058 -0.148662 0.218999 -0.793908 -0.971932 0.059485 -0.245749 -0.433071 -0.216199 -0.212708 0.068631 -0.769032 -0.680372 -0.694781 -0.260371 -0.184776 -0.849359 -0.430191 -0.438188 -1.051556 -0.417531 -0.530428 0.383485 -0.677079 -0.780100 -0.857699 0.159569 -0.466505 0.090447 0.076017 -1.096508 -0.314349 -0.433736 -0.002096 -0.374671 0.789615 0.053634 0.962277 0.612347 0.701627 0.564838 0.795974 0.074459 0.240127 0.096684 0.602917 -0.199648 0.075932 -0.166094 1.167252 0.052865 0.367764 -0.294872 -0.181178 0.015347 0.037841 -0.107383 0.508312 0.435630 -0.157803 0.432314 -0.400721 0.116467 0.274263 0.079476 0.145684 0.642244 0.882380 0.136733 -0.245376 0.177584 -1.034202 -0.443307 -0.044144 0.985095 0.064664 1.379647 0.660235 0.983623 1.118886 1.150841 0.711453 1.150814 0.657414 0.507455 0.006900 -0.231336 -0.237868 0.527445 0.571775 -0.236401 -0.270580 -0.144942 -0.966076 -0.562731 0.076172 0.575243 -0.829385 -0.280166 0.039768 -0.345526 0.101136 0.909430 0.900962 0.465767 1.080620 1.553620 1.194497 1.153027 0.581712 0.653691 0.252166 0.693210 1.050385 0.090249 -0.073094 -0.986164 0.256983 -0.129162 -0.904447 0.381429 0.050803 -0.323621 0.298755 0.681173 0.676306 -0.034179 0.402453 0.729663 -0.255933 -0.143660 0.625696 0.592735 1.105571 0.643647 1.327822 1.141971 0.936854 0.649113 0.726192 0.338973 -0.099345 0.049225 0.322777 -0.745046 -0.251342 -0.853317 0.651662 0.040276 0.863062 -0.797978 0.422011 -0.429993 -0.137838 0.618417 -0.239082 0.508358 0.617220 0.140048 0.325908 0.124702 -0.094206 1.712563 0.869221 0.788122 0.062115 0.795037 -0.002915 0.399219 -0.526571 0.644591 0.730529 -0.216371 -0.697147 -0.218769 -0.457271 0.815057 -0.005365 0.922982 1.083667 -0.291399 -0.849951 -0.489495 0.094443 0.014942 -0.283820 0.064905 -0.139629 0.055429 0.482578 1.232712 -0.320150 -0.409783 -0.556882 -0.841690 -0.374352 0.212430 -0.504695 0.720555 0.099535 0.190338 0.394617 0.596085 0.865200 0.267281 0.588329 -0.345504 -0.659219 0.950372 1.103281 0.784967 1.006073 0.112286 0.605259 -0.051578 0.552180 0.182654 0.208236 0.380007 -0.346756 0.137446 0.565818 0.924202 -0.084003 0.749124 0.449243 0.098274 0.503812 -0.081979 -0.012177 0.127087 -0.820665 -0.887248 0.006153 0.080107 -0.449609 -0.023296 0.788056 -0.485755 0.230624 -0.148793 -0.371810 -0.486677 -0.599517 -1.536390 -0.156341 0.296373 -0.699705 -0.655009 0.529296 0.026632 0.924256 -0.319208 0.723871 0.002689 1.283923 0.298344 0.395920 1.026867 0.940509 -0.840657 -0.440245 -0.956903 0.597213 1.008613 0.214072 0.318905 -0.837602 -0.373107 -0.461822 -1.040242 -1.034040 -0.679379 -0.981160 0.731557 0.500743 -0.175554 0.009666 0.566449 -0.212720 0.646694 -0.030100 -0.538634 -0.557257 -0.777933 0.755639 -0.526228 -0.540240 0.922902 -0.429005 -0.533561 0.675755 -0.388081 -1.074021 -0.432420 -0.915767 -0.399577 -0.467307 -0.309906 -1.513419 -0.250028 -0.467479 0.149898 -0.423318 -0.018451 -0.905053 -0.625512 -0.052638 -0.702525 0.410712 -0.214105 -0.039755 0.376697 0.782988 -0.976993 0.157406 0.939568 0.100825 -0.110362 -0.559371 0.049972 0.251827 -0.833271 0.481027 -0.844774 -0.858504 0.235408 -0.915469 -0.235541 -0.590640 -0.272418 0.711084 -1.148907 -0.130550 -0.004199 -0.129697 -0.040279 -0.332572 -0.778391 0.393685 0.453441 -1.131056 0.313503 0.154789 -0.266383 0.081074 0.948080 0.228669 -0.375593 -0.290057 -0.264197 -1.400094 0.009934 0.078010 -0.137576 -0.561713 0.159277 -0.012816 -1.606328 -1.112376 0.260725 -0.735117 -0.946104 -0.074212 -0.568006 -0.423497 -0.382763 0.218416 -0.796146 -0.336955 0.899355 0.007665 0.491328 -0.892057 -0.753025 0.745718 0.586371 -0.405575 -0.129227 0.006561 -0.121057 -0.587544 0.709149 -0.484885 -0.109839 -0.394014 -0.386568 -0.452771 -0.539696 -0.367438 -0.446953 -0.275054 0.361774 -0.950039 -1.030005 -0.251989 -0.721273 -0.671739 0.307878 0.444131 -0.994383 -0.184574 -0.434873 0.123649 -0.759987 0.122201 0.028380 -0.538039 -0.930691 -0.345518 0.128423 0.246563 -1.112054 0.154272 -1.044133 -0.729242 -0.569325 0.230681 0.103522 -0.019489 0.126425 0.275050 0.266683 -0.527339 -0.360788 0.236077 -0.177358 0.046348 -0.087233 0.717619 0.704875 -0.106712 0.017811 -0.618716 -0.603642 -0.433628 0.891060 -0.451627 0.496566 -0.221389 -0.215004 -0.582268 -0.414902 -0.206854 -0.498057 -0.221304 -0.211854 0.898344 -0.675136 -0.111529 0.113992 0.559858 -0.014762 -1.055876 0.944953 0.770006 -0.265495 -0.148716 -0.597162 -0.506157 0.216880 0.460827 0.750031 0.450356 0.403923 -0.154950 0.738085 -0.541199 0.740199 -0.250550 -0.352682 0.217403 -0.464484 0.343105 -0.312208 -0.150230 0.523397 0.496198 -0.699321 -0.677418 0.336790 0.240732 0.008787 0.214253 0.551700 0.913101 0.827531 -0.630186 0.956468 0.955490 0.914837 0.819668 1.019691 -0.642899 -0.760770 -0.169186 0.278489 0.357596 0.030079 0.377371 -0.719108 0.088349 -0.507225 -0.083521 -0.146167 0.401910 0.614746 -0.943714 0.402249 -0.345727 0.194486 0.721718 -0.540919 0.629323 0.433255 -0.247578 0.815640 0.603068 -0.025515 -0.585293 0.357913 0.808127 0.531427 -0.177175 -0.237407 0.266430 0.297883 0.331488 0.881954 0.359434 0.391312 -0.025503 0.310415 -0.298099 0.653135 0.906111 0.601269 -0.611494 -0.630283 0.257092 -0.972738 -0.813492 0.241470 -0.133472 -0.608914 0.395642 -0.231862 0.959254 0.684026 0.099710 0.395595 0.534612 0.760519 0.359042 0.380972 0.602384 -0.421722 0.308298 0.266120 -0.083994 -0.314526 0.674747 0.197697 0.915978 0.450160 -0.894097 -0.688387 0.847123 0.270531 0.162575 -0.581058 -0.939905 0.901110 -0.023386 0.960945 -0.619546 0.590775 0.451767 -0.332941 -0.293417 0.600621 -0.115529 0.699740 -0.026336 0.515984 0.211504 -0.492952 -0.009632 0.752984 0.387742 -0.526746 -0.688940 0.817096 -0.447545 0.917130 0.620338 -0.927800 -0.199028 -0.993703 -0.640371 -0.047103 -0.605161 -0.740844 -0.467452 1.305513 0.810292 1.085462 0.941130 0.551708 0.737090 0.204022 0.360466 -0.150707 0.232130 1.435949 0.164252 -0.281929 0.491868 -0.390653 0.498179 -0.492733 -0.148371 -0.082577 0.685242 0.813180 0.273990 -0.720328 0.097609 0.604842 -0.768712 -0.790250 -0.495630 0.270524 0.200813 -0.356540 -0.189582 1.009487 -0.164072 0.814410 -0.379699 1.193205 0.626107 0.289128 1.137893 0.305427 1.039971 0.312877 -0.717805 -0.216506 0.892220 0.997613 -0.699119 -0.419085 -0.809585 0.293189 0.093050 0.777895 0.398212 0.560440 -0.060403 -0.289240 -0.382800 0.170074 0.484920 0.011529 -0.962653 0.335688 0.654227 0.509508 -0.592539 -0.223987 0.066091 0.111214 0.198673 -0.144682 0.754042 -0.260401 0.743080 -0.487815 0.996366
0.731559 0.073275 0.128614 -0.571282 -0.602640 0.139570 -0.418757 0.902778 0.853047 -0.595475 -0.083758 0.194062 0.266002 -0.281338 0.666138 -0.051671 -0.117432 -0.763257 0.191562 0.097429 -0.775549 -0.298515 0.795355 0.153109 0.584167 -0.203065 0.984232 -0.880466 -0.737274 -0.982137 0.928136 0.904563 0.374377 0.170809 0.350960 -0.054323 0.368146 0.488786 -0.488025 0.961924 -0.157744 0.329535 -0.390716 -0.442952 0.047654 0.388253 -0.122017 -0.561494 -0.017500 0.977601 0.807574 0.747971 0.758626 -0.003562 -0.912432 -0.729476 0.057741 0.808461 -0.403694 -0.317480 -0.217657 0.205067 -0.513330 0.381916 -0.777508 -0.615665 0.903388 -0.266066 0.572502 -0.539745 0.922335 -0.747943 -0.754339 0.652438 -0.034115 -0.963045 -0.400846 -0.477323 0.647691 0.415714 -0.162052 0.713629 -0.112633 -0.889018 0.719403 -0.961715 -0.206273 0.434180 -0.172628 0.796745 0.505743 0.168263 0.690661 -0.501623 -0.679488 0.893451 0.323804 0.931083 -0.118489 -0.657795 0.409536 -0.940274 -0.389584 -0.240846 -0.027116 0.410829 -0.015831 0.508443 0.441571 0.199699 0.886631 -0.826866 -0.500444 -0.389597 0.884882 0.237760 0.190071 -0.629497 -0.924619 -0.478630 0.516305 0.177383 0.267350 0.478850 1.080690 -0.197337 -0.389190 0.072406 0.907715 0.661198 -0.903933 0.480592 -0.289844 -0.221874 0.151223 -0.558407 0.038611 0.729459 0.013787 0.127112 0.569442 0.285789 0.350480 -0.861488 0.781576 -0.278889 0.525849 -0.059388 -0.580028 0.845370 -0.615707 1.055991 0.725381 1.017263 0.614824 0.150025 0.396286 0.604747 -0.114411 -0.325920 0.033326 -0.918539 -0.197183 -0.979831 -0.345551 -0.563255 -0.637743 0.764047 -0.373286 -0.547559 0.877058 -0.776344 0.702097 0.828643 0.135345 -0.499925 -0.438830 0.035575 1.158570 0.138646 0.240538 0.091348 -0.142023 0.646589 0.368695 0.622520 -0.249432 0.276214 -0.344688 -0.882525 -0.610436 0.287748 -0.849441 -0.700091 -0.313401 -0.577609 0.598814 -0.230118 0.534991 0.233773 -0.030333 -0.875906 0.954653 -0.469928 1.178115 -0.722727 -0.476990 0.991567 0.442122 -0.237299 0.051305 0.894954 -0.095338 0.647207 -0.231423 1.025820 -0.931351 -0.304449 0.508329 -0.827269 0.207291 0.374972 0.872180 -0.215251 -0.453298 -0.496339 -0.340650 0.588835 0.215712 -0.296780 -0.653111 0.290912 -0.791037 0.161242 -0.420026 0.024238 0.364428 1.032874 1.022294 0.544732 0.567258 0.925074 0.589423 -0.159504 0.034193 -0.613052 -0.832393 0.088927 -0.369298 -0.722051 0.524425 0.398052 -0.102559 -0.885920 0.832441 0.300248 -0.670509 -0.164685 -1.152409 0.635286 0.373377 -0.847881 0.108192 0.763957 -0.589883 -0.814402 0.754760 0.389502 0.796740 0.711450 0.576479 0.448386 -0.134210 -0.349370 -0.260591 -0.449029 -0.268068 0.928772 0.080648 0.066416 -0.016839 -0.054816 0.861097 -0.413487 0.789419 -1.014760 0.582967 -0.831507 -1.024886 -0.027689 0.267739 -0.621199 -0.687785 -0.327687 1.004793 0.410335 -0.325035 0.698760 0.660276 -0.668810 -0.850122 -0.056674 0.254226 -0.488724 -0.313378 0.679685 -0.651459 -0.534444 -0.067009 -0.016355 0.552336 -0.155639 -0.766556 -0.254738 -0.858725 -0.664290 -0.192784 -0.742456 -0.197006 -0.636139 -0.177103 -0.171419 -0.459167 0.129809 0.331984 -0.243532 0.186415 0.314303 -0.296723 -0.088162 0.236196 0.893468 -0.674029 0.278649 -0.885594 -0.584912 0.480401 0.879488 -0.874801 -0.280770 0.427442 0.785707 -0.232575 0.596797 -0.319127 -0.675960 -0.961771 -0.310518 -0.267756 -0.136525 0.982648 0.865939 -0.082780 -0.502286 0.179219 -1.001469 -0.174725 -0.508023 -0.992269 0.416570 -0.324790 -0.461587 -0.329288 0.692485 -0.090676 -0.183340 -0.749857 -0.546407 -0.368122 0.576192 0.836093 -0.781142 -0.709641 0.657537 -0.311906 0.624879 0.907864 0.557975 0.247740 0.641484 -0.984679 0.587892 0.151423 -0.527194 -0.506508 0.667629 -0.804052 1.042454 -0.110438 0.988267 0.276370 0.825602 -0.671987 0.334821 0.152194 -0.660346 -0.965898 -0.143148 0.476548 -0.758967 -0.570601 0.934785 0.154363 -0.823110 1.070717 -0.835591 0.440693 0.890721 -0.412860 0.807504 -0.316650 0.638121 -0.495492 0.028438 -0.181624 0.875869 -0.692023 -0.544983 0.435225 -0.451188 0.452426 -0.777559 0.791043 0.436135 -0.956424 -0.890670 -0.912909 0.064172 0.691377 -0.435918 -0.105809 0.838310 0.580553 -0.162840 0.472109 0.558543 -0.401232 -0.692689 -0.482938 -0.550833 -0.528718 -0.713922 -0.831508 0.627462 0.627466 0.473323 -0.752640 -0.472807 0.526864 0.647454 -0.511470 -0.920779 0.673208 -0.623401 -0.329971 0.196687 -0.712522 0.431229 0.800596 -0.533715 0.399343 0.689227 -0.835214 -0.093295 -0.515411 -0.124396 -0.040821 -0.008619 0.586276 0.352373 0.636973 0.772864 0.581372 0.492711 -0.223895 -0.396525 -0.660968 0.713585 0.550953 -0.856984 -0.073268 0.672073 0.300279 -0.580777 -0.079759 0.735240 -0.500465 -0.301358 -0.141498 0.566494 0.554846 0.854006 -0.680933 0.305034 -0.574696 0.213959 0.156776 -0.526849 0.089568 0.816950 0.694243 -0.044221 0.837384 -0.467759 -0.137652 -0.345394 0.332459 0.994334 0.768726 -0.665775 0.778539 0.951529 0.234644 0.648190 1.075909 -0.271482 -0.159082 0.650501 0.563490 -0.691155 0.080617 0.883100 0.586074 0.553915 0.525845 0.816389 0.852936 -0.407645 0.272211 -0.050441 0.291642 -0.106876 -0.293612 -0.059832 0.643688 0.119568 0.789398 -0.757723 0.480655 -0.497270 -0.238065 -0.636480 0.788004 0.780828 -0.577350 -0.054546 0.914917 -0.468361 0.115396 -0.016543 -0.205890 0.637224 0.563175 -0.582570 0.242335 0.566994 1.026934 0.859211 -0.186580 -0.414419 0.115739 -0.332019 0.511651 0.298162 -0.627433 -0.453528 -0.039736 0.484536 -0.968235 -0.937696 -0.905879 -0.281083 -0.441123 -0.306157 0.239962 0.706713 -0.018155 -0.785333 -0.723751 -0.273349 -0.125094 0.196257 0.534079 -0.664695 -0.643730 -0.123511 0.512150 -0.016786 0.704724 -0.951930 -0.819261 -0.721086 0.936085 0.079606 -0.388520 0.445468 -0.110993 0.323166 -0.094771 0.388271 0.121000 0.163312 0.054243 -0.525713 1.030509 -0.474248 -0.366921 0.908835 0.129887 0.644322 -0.825139 -0.964281 -0.469711 0.569765 -0.425562 0.037171 0.817103 0.538141 0.785283 -0.660046 0.213960 -0.350317 -0.438021 -1.078408 -0.959475 -0.343940 0.358224 -0.691380 0.829380 0.799158 0.143449 0.603013 -0.358073 0.310051 0.734858 -0.676971 -0.563699 -0.089889 0.457183 -0.353540 -0.477644 -0.067678 0.990756 0.153513 0.190805 -0.163440 -0.412568 -0.664132 -0.116947 -0.643815 0.706058 0.794330 -0.353445 -0.693175 0.049548 0.490188 -0.347332 0.194795 -1.002856 -0.467313 -0.325272 0.101068 -0.944254 -0.461825 0.492214 0.548756 -0.735588 0.878021 0.469646 0.123391 0.636052 -0.916749 -0.329643 0.507241 0.843172 0.043404 -0.972883 0.449850 0.828230 0.628853 -0.459198 -1.012281 -0.233101 0.320344 -0.068225 0.567999 0.797113 0.528980 -0.443874 -0.008627 -0.201959 -0.131798 0.497274 0.039662 -0.413612 0.792461 -0.169435 0.629818 0.161801 0.991024 -0.116017 0.008425 -0.650327 0.046415 0.211554 0.365761 -0.132196 -0.420880 -0.731696 0.843717 -0.368827 -0.828763 -0.682966 -0.818679 -0.633399 -0.259467 0.871962 0.066183 -0.746760 -0.394946 -0.117015 0.554213 -0.450577 -0.198363 -0.689219 -0.455994 0.439358 -0.738183 -0.016103 0.698328 0.499131 0.640998 -0.134924 0.974897 -0.241667 0.713666 -0.204297 0.773901 0.752746 -0.397428 0.599936 0.902451 0.669714 -0.427537 0.700861 -0.415093 0.015539 -0.772745 -0.739501 0.676337 0.452342 -0.159676 0.631841 -0.106721 0.033958 -0.941182 0.474529 0.591634 0.653755 -0.482676 0.766416 -0.009659 0.338953 0.456971 -0.665491 -0.954116 0.282124 -0.490099 0.404410 0.815111 0.519807 -0.222349 -0.530001 -0.020509 -0.588325 -0.953358 -0.459167 0.967287 -0.564144 0.576505 0.794823 -0.759353 0.028450 -0.358202 -0.877354
-0.170226 0.666093 0.253029 -0.895406 -0.935895 -0.247876 -0.502952 0.126689 0.624279 -0.321977 -0.150507 -0.092698 -0.371846 -0.608091 0.158284 0.897366 -0.891767 -0.973322 0.469480 -0.424928 -0.224798 0.837370 -0.020895 -0.210424 -0.213785 -0.667824 -0.219913 -0.766260 0.015125 0.078968 0.081720 0.687872 0.241879 0.731115 -0.656642 -0.432612 -0.717887 0.109724 0.617853 -0.858322 0.170018 -0.042767 0.877714 -1.007079 0.765663 -0.216285 0.881615 -0.512621 0.956677 -0.757836 0.593777 -0.709239 0.627410 -0.058479 0.717610 0.315365 -0.025537 0.347420 -0.688796 0.525335 -0.871696 -0.661625 0.605747 -0.782047 0.018814 0.476053 0.798567 -0.709292 -0.524354 -0.628238 -0.283295 -0.838801 0.396835 0.458693 -0.438109 -0.193186 -0.763919 -0.073593 0.434163 -0.899165 0.150566 -0.925799 -0.378360 -0.955445 -0.550058 0.665888 0.581035 -0.474626 -0.319818 0.277740 0.240838 -0.681246 -1.172597 -0.428959 -0.617637 -1.206345 -0.410428 -0.270050 -0.765404 -1.503664 -1.641850 -1.320780 -0.926905 -0.503274 0.212824 -0.411092 0.734678 0.031501 0.059774 0.393471 0.238460 0.353051 0.089478 0.663694 -0.888058 0.981463 0.327674 -0.220044 -0.567172 0.715457 0.196994 0.180170 -0.186812 -0.497643 -0.600435 -0.288230 -1.248901 -0.101177 -1.616929 0.136674 -0.995077 0.043784 -0.030153 -0.611622 -0.524696 0.380714 -0.623805 0.286689 0.232960 -0.787205 0.573735 0.753410 0.599697 -0.093210 0.277751 -0.207125 0.840709 -0.423315 -0.559473 -0.957801 -0.118409 0.425828 -0.757506 -0.551388 -0.595148 0.194792 -0.013189 -0.728424 -0.461071 -0.895010 -0.857742 0.501460 -0.274731 1.000029 -0.197947 -0.372982 -0.736056 -0.744083 -0.829235 0.202264 0.920054 0.849055 -0.394978 0.940953 0.341233 -0.339829 0.251688 -0.108428 0.762168 -0.151918 0.282332 -0.532980 -0.018095 -0.356182 0.035557 0.364376 0.109548 -0.150573 0.355009 -0.856725 0.287246 -0.081328 -0.216121 0.724211 -0.953874 0.775543 0.356178 -0.071588 0.767740 0.324531 0.536030 -0.100135 -0.362977 -0.379903 0.829994 0.224133 -0.538445 0.193390 0.418588 0.166691 0.698708 0.268952 -0.083033 -0.089967 0.511692 -0.179947 0.028425 0.515962 -0.319098 -0.157972 0.469041 0.190375 0.551248 -0.091176 -0.731179 0.942558 0.807250 0.183583 -0.313685 -0.169598 -0.558333 -0.612556 -0.748035 0.250004 0.447193 0.944401 -0.173440 -0.105819 -0.184400 0.287158 -0.365531 0.423469 -0.479506 0.696981 0.410722 -0.195811 0.573998 0.057884 -0.767572 -1.289582 0.282691 -0.079065 0.030064 0.074615 0.461947 0.054297 -0.871920 0.094280 -0.507175 0.850405 -0.124649 -0.848312 -0.083622 -0.420973 0.643759 0.118357 -0.082128 -0.028481 0.137407 -0.131712 0.724839 0.138990 -0.424185 0.528456 -0.176128 -0.093905 -0.067694 -0.549998 0.160152 -0.198968 0.069508 -0.935896 0.142907 0.805185 -0.958301 -0.761091 -0.215547 0.064697 -0.198576 0.555839 0.035715 0.570934 0.017908 -0.318390 -0.103717 -0.232206 0.215052 0.068308 -0.214065 0.454800 0.059815 -0.472750 0.904567 0.590499 -0.326885 -1.782003 0.396216 -0.338051 -0.211591 -0.912966 -0.417334 0.098790 -0.365050 -0.365598 0.801568 -0.693201 -0.744297 0.276094 0.269682 -0.640668 0.432208 1.072109 -0.376788 -0.554610 1.002418 0.467416 0.831908 -0.152407 0.894182 0.349360 -0.413133 0.456874 -0.385653 -0.595317 0.541745 0.116550 -0.167866 0.331682 0.558179 -0.393585 -0.675671 1.205303 0.827493 0.654968 0.983278 0.380042 0.126375 0.316796 0.284968 -0.460774 -0.278357 -0.256600 0.173714 0.186774 0.508291 0.452092 0.059156 0.470664 -0.277476 0.512149 -1.414935 -1.272408 -0.584632 -0.939443 -0.544476 -0.421210 -0.166195 -0.881506 -0.160965 0.938512 0.250291 0.537623 0.393699 -0.416290 0.265547 -0.033294 -0.067328 0.164464 -0.887791 0.579880 0.586113 0.363315 0.550021 0.327024 0.314599 -0.259158 0.366167 -0.233223 0.099310 -0.373937 0.112162 -0.958837 -0.642599 -0.492619 -0.418745 0.542446 -0.805050 0.093135 0.297101 0.217492 0.275803 0.160360 0.312915 0.159841 0.004461 -0.997159 0.031148 -0.276776 0.285153 -0.099019 1.025895 -0.275892 0.453518 0.890216 0.899869 -0.361776 0.525955 0.678109 -0.939564 -0.890069 0.260233 -0.519937 -0.284533 0.476292 -0.740977 -0.160610 1.105485 0.821106 -0.324502 -0.178713 -0.474227 0.281831 0.427812 -0.427645 0.054002 -0.201664 0.738652 0.611511 0.705366 0.922293 0.582569 -0.049576 0.072163 0.272694 -0.787192 -0.289820 -0.695756 0.442965 0.588306 0.222948 0.324722 0.435257 -0.719792 -0.492927 -0.372999 -0.569063 0.351875 0.589890 0.316788 -0.315738 -0.752266 -0.518793 0.366723 0.157217 0.078431 -0.017611 1.048559 -0.312319 0.559490 0.265703 0.848727 -0.403143 0.678638 -0.576094 -0.617107 -0.538442 -0.082427 -0.497234 -0.144631 0.238025 -0.967128 -0.591242 -0.815482 0.343017 0.903241 0.502119 0.034688 0.298526 -0.654775 0.480820 0.632271 0.430346 0.363044 0.737652 0.118030 -0.084907 0.239649 -0.586811 0.250585 0.529092 0.225984 0.254702 -0.233409 -0.968171 0.035112 -0.910933 -0.307663 -0.833696 -0.823680 0.160475 -0.113883 -0.419393 -0.243357 0.272526 -0.019111 -0.199384 0.315417 -0.071742 0.582481 0.401487 0.002879 -0.100140 -0.900906 0.084762 -0.556639 -0.217626 -0.080462 -1.068283 -0.515463 -1.128679 0.513142 -0.194600 -0.749776 0.214797 -0.042912 0.506125 0.519059 0.250339 -0.468315 -0.213605 0.120874 -0.824111 -1.038370 -1.251521 -1.031311 -1.164540 -1.205911 0.120917 -0.560288 -1.007667 -0.235741 -0.992787 -0.682017 -0.714486 -1.097129 -1.507290 -0.637101 -0.808046 -0.863464 -0.063887 0.028539 -0.178867 0.955963 0.061207 0.497802 0.299156 -0.168058 -1.549753 -1.257188 -1.189793 -0.777243 -1.327073 -0.484186 -1.085028 -0.805614 -1.005399 -0.176533 -0.474177 -0.390419 -1.239199 -0.425439 -0.021190 -1.000342 -0.176063 -0.600071 -0.117976 0.074155 0.611287 -0.481309 0.619330 0.077607 -0.820214 0.458353 -0.190898 -1.543915 -0.849041 -0.734122 0.241789 -0.022548 -0.650264 -0.374668 0.070514 -0.455570 -0.691431 -0.038231 -0.452232 -0.317018 -0.258415 -1.078203 -0.078236 0.277442 0.569430 -0.098571 -0.028594 0.443182 -0.003656 -0.098819 -0.619316 0.027541 -0.852566 -0.364809 -0.338528 -0.618811 -0.132456 -0.469436 -0.420350 0.251634 -0.188355 -0.791765 -0.085314 0.272339 -1.095047 -0.188937 -0.015555 -0.213537 0.370674 -0.057822 -0.045048 -0.319473 -0.081836 -0.820218 0.538427 0.415764 0.608421 -0.715690 -0.495346 0.508897 -0.350310 0.772468 -0.927704 0.434916 0.645650 0.278230 0.215946 -1.078412 0.061959 0.439701 -0.811060 0.095961 0.220789 -0.872281 -0.241104 -0.958746 -0.489918 -0.102045 -0.212091 0.737149 -0.640653 -0.332128 -0.164453 0.465403 0.226205 0.636056 0.835274 -0.646229 -0.560177 0.778979 -0.549864 0.659840 -0.119277 -0.517628 -0.289704 0.347632 -0.721315 -0.253750 -0.138907 -0.620291 0.215417 -0.544622 -0.673507 -0.113022 -0.488483 -0.211827 0.231959 0.759270 0.232843 0.061770 0.778973 0.444731 0.451031 0.475440 0.158122 0.010610 0.345758 -0.260158 0.199198 0.368311 -0.445171 -0.133014 0.345364 0.218085 -0.123212 -0.779227 -0.335251 -0.537724 -0.288980 -0.098678 0.095497 0.333492 -0.387694 0.840690 0.257238 0.581128 -0.600330 -0.573136 0.474709 -0.892546 -0.459952 0.373413 0.907618 0.899003 0.809894 -0.896160 0.537212 -0.802015 1.002448 0.242225 -0.384763 0.375805 -0.614080 0.672280 -0.728848 0.855737 1.117134 0.873710 0.885288 0.352959 0.938677 -0.403909 -0.108292 -0.145858 -0.908137 -0.977226 -0.845439 -0.415506 0.616744 -0.427324 0.867801 -0.922545 0.526857 -0.642674 0.608089 -0.576230 -0.854047 -0.778151 -0.500723 0.141255 -0.049910 -0.090436 0.166190 0.704554 0.811042 0.041212 0.313283 0.820790 0.816697 0.585745 0.825366 -0.398625 -0.065800 0.295650 -0.614051 -0.261688 -0.342937 -0.240321
-0.717932 -0.655346 0.663507 0.726260 -0.788470 -0.440845 -0.903156 -0.431832 0.917605 -0.358447 0.595150 0.160801 0.183106 -0.231545 0.950751 -0.370061 0.103096 0.927982 0.246137 0.574524 -0.162861 0.497257 -0.697689 0.682742 0.432291 0.977586 -0.399870 -0.447700 -0.211079 0.081433 -0.169506 -0.792703 -0.975154 0.801308 -0.509591 0.526673 0.101151 0.049202 0.970142 0.106293 0.020050 -0.627206 0.547314 0.451183 -0.059522 -0.399548 -0.506434 -0.931190 -0.226902 0.329668 0.221250 -0.934982 -0.938812 0.281477 -0.116355 0.373277 -0.275187 -0.448952 -0.671314 -0.764310 -0.268165 -0.603194 0.011561 0.306828 0.633460 0.509928 0.097504 0.586491 -0.069030 -0.232761 0.756007 0.516180 -0.068998 0.888415 -0.935111 0.032765 0.856012 0.078035 -0.492076 -0.003406 -0.125437 0.025740 -0.823570 -0.511013 0.196804 0.138791 0.016164 -0.974111 0.458875 -0.246063 -0.359001 -0.878365 -0.718924 -0.363924 0.832386 0.407471 0.780525 -0.040517 0.076860 0.123729 0.958682 -0.318419 1.277193 0.302117 -0.601608 0.740826 1.123567 0.699919 0.066068 0.966025 -0.384533 -0.838396 0.481455 0.512276 0.883864 0.325131 0.227954 -0.010218 0.881993 -0.388977 0.060949 -0.088868 -0.133178 -0.428898 -0.475604 0.151146 -0.453948 -0.754001 -0.329237 -0.707321 -0.546336 -0.631654 0.873267 -0.385892 0.608235 -0.706332 -0.249086 0.160902 -0.309114 -0.303469 -0.306356 0.833528 0.038208 0.358965 -0.451285 0.642242 -0.064537 0.581624 -0.831247 -0.892843 -0.196474 -0.636606 -0.788663 0.153061 0.171971 -0.513257 -0.432492 -0.451720 -0.081452 0.710829 -0.746626 -0.264223 -0.400136 -0.081022 -0.751674 0.465307 0.758748 0.112782 0.415594 -0.883381 0.781828 -0.316000 -0.300453 -0.237184 -0.766991 0.706939 0.364872 -0.695469 0.018491 -0.134660 -0.628597 -0.326690 -0.371376 0.614722 -0.368928 -0.520152 -0.057910 -0.065736 -0.206378 -1.171735 -0.500831 -1.122887 -0.275276 -0.492705 0.308364 0.075805 0.082116 0.374241 0.002461 0.452681 0.381651 0.024416 -0.705134 -0.093945 0.268320 -0.019711 0.152098 -0.655060 0.366123 -0.013993 -0.343131 -0.200982 0.348518 0.382906 -0.029566 -0.639511 -1.121109 -0.037528 -0.314190 -0.403343 -1.234255 -1.427966 -0.827250 -0.946073 -0.865722 -0.404054 -0.339888 -0.251330 0.419165 -0.236389 0.522496 0.174488 -0.138126 -0.228799 0.327777 -0.162932 -0.616203 -0.049157 -0.041611 0.201143 -0.432986 0.057895 -0.211201 -0.114695 0.068860 0.143507 -0.227282 -1.165432 -0.605678 -0.207081 -1.335659 -0.142762 0.424256 -0.386914 -0.382239 0.204661 0.765539 -0.776488 0.101454 -0.571324 0.199791 -0.137561 -0.582689 0.461509 -0.371604 -0.371026 0.574976 0.697039 0.160182 -0.256729 -0.547440 -0.780163 -0.421766 -0.256969 -0.076309 -0.098810 -0.738226 -1.706302 -0.898626 -0.855037 -0.411317 0.762131 0.747255 0.534059 0.324477 -0.473108 0.486663 0.065285 -0.810154 1.014432 -0.707004 -0.551911 0.038417 0.474707 0.197153 -0.180319 0.185793 -0.084827 -0.141322 0.719330 -0.688568 0.156391 -0.466094 -0.385004 -0.751034 -0.747167 -0.458021 0.206118 -0.059079 -0.793050 -0.027846 0.918939 0.535798 -0.346868 -0.041295 -0.648078 0.783663 -0.218121 0.559605 0.531640 0.030665 0.050997 0.913232 0.073323 -0.905668 0.619222 0.273267 0.365849 -0.125939 0.570755 0.388344 0.478536 0.349044 -1.249064 0.113589 -1.038295 0.646290 -0.546495 -0.002944 -0.236054 -0.874641 1.042517 0.730024 0.340297 0.541441 0.615971 0.409031 0.359862 0.103130 -0.322044 0.041308 -1.017850 0.666130 0.183545 -0.798664 0.571079 0.566312 0.786055 1.276506 0.105682 0.238420 0.384462 0.600453 0.316478 0.795460 -0.873613 -0.168328 -0.727643 -0.153126 -0.237330 -0.435397 0.513501 -0.032179 -0.439101 -0.183009 0.040583 0.186580 -0.427193 0.271549 0.117917 0.054436 0.567437 0.709761 0.478812 0.415422 -0.320010 -0.454181 1.376099 0.821230 -0.482720 0.618952 -0.304253 0.480948 -0.758925 -0.402496 -0.198273 0.187120 0.466889 -0.372585 0.677530 0.285470 0.572609 -0.594643 -0.003347 0.128171 -0.332926 -0.760288 -0.929848 0.200430 -0.209085 -0.440253 0.688047 -0.860820 0.844788 1.248904 0.285952 0.312259 0.451441 0.519633 0.110921 0.648587 -0.386232 -0.041553 0.341532 0.826079 -0.458682 0.071844 0.881831 0.682862 0.466169 -0.152930 0.203555 -0.307996 -0.488330 0.275651 -0.071708 0.426733 1.029341 0.146189 0.834103 0.118713 0.478872 -0.515236 -0.128309 -0.125709 0.609181 -0.525519 -0.705868 -0.530555 0.818568 0.994642 0.507326 0.643275 -0.555359 0.906864 -0.042272 -0.583054 0.701706 -0.527706 0.570567 -0.003735 0.131398 -1.209542 -0.558681 0.839957 -0.121693 0.231874 -0.378258 0.611348 0.306959 0.511187 -0.288439 -0.508642 0.435263 -0.703152 -1.099689 -0.628871 -0.947732 -0.348276 -0.034982 -0.992218 -0.988987 0.171084 -0.109165 0.100083 -0.190267 -0.131768 0.267078 0.382806 -0.289467 0.011483 0.646520 0.252570 0.119920 -0.219182 -0.040017 0.023050 -0.698126 1.077831 -0.845096 0.022185 -1.040431 0.431357 -0.216312 0.808860 -0.777949 -0.809791 -0.576569 -0.598217 -0.754825 0.183616 -0.991541 -0.655807 0.405543 0.505851 0.412011 -0.367992 -0.684341 -0.607945 0.697709 0.558285 0.258933 0.557653 0.061806 0.660341 -0.238245 -0.666073 0.312071 -0.204400 -1.256614 0.781109 -0.834534 -0.693583 -0.149651 -0.032141 -0.774672 -0.282891 -0.492419 -1.152812 0.129772 -0.399256 -0.536328 -1.263258 0.398981 -0.130481 0.870921 -0.471213 0.602883 0.535225 0.401588 0.245161 -0.153574 0.946610 0.247201 -0.485118 0.178555 -0.739378 -0.898653 -1.066071 0.604762 0.719646 -0.534482 0.432289 0.153097 -0.577483 0.474499 -0.561643 0.110794 -0.483748 -1.117807 -0.286101 -1.108596 -0.302167 0.875601 -0.564974 1.109497 -0.701577 0.142922 0.920439 -0.343197 -0.506464 -0.371468 -0.889636 -0.171863 0.580572 0.828179 -0.162970 0.670346 -0.272261 -0.472762 -0.756183 0.908939 -1.108595 0.436180 0.548162 -1.302291 -0.669610 -0.551841 -0.461432 -0.785990 0.645885 -0.047261 0.823577 0.960887 -0.013195 0.671980 -0.391154 0.313324 -0.129951 0.449747 -1.284770 -1.115910 -0.877110 0.491663 0.038282 0.892666 0.673825 -0.747612 -0.428261 -0.156715 -0.521027 -0.533446 -0.984178 -1.199072 -0.307452 -0.949300 0.084709 0.357173 -0.528981 0.275576 -0.628622 -0.741954 0.761129 -0.081453 0.028874 0.104219 0.158407 -0.005137 -0.636263 0.485309 -0.020420 -0.868118 0.712864 0.068603 -0.129855 -0.700712 -0.990074 0.928938 0.128495 -0.103348 0.576092 -0.047697 -0.073140 -0.390341 0.498328 0.135369 -0.700859 -0.914215 0.548702 -0.368361 0.362862 -0.533566 -0.066293 -0.412985 -0.594262 -0.851024 -0.239567 -0.000469 0.170506 0.736469 -0.488299 -0.767866 0.708715 -0.813187 -0.137317 -0.799640 -0.365455 -0.286398 -0.438723 -0.268502 0.281606 0.787866 0.591944 -0.521700 0.418738 -0.365219 -0.933202 -0.951423 -0.558097 0.145856 0.544249 -0.048958 -0.306311 -0.460462 0.954141 -0.261954 0.461540 0.446530 -0.872694 -0.075656 0.434199 -0.586589 0.390758 0.325403 0.258602 0.805726 0.153803 -0.406107 -0.519399 0.209422 0.155448 0.209191 0.104446 0.857292 0.460763 0.325096 0.863805 -0.827157 0.418273 -0.273421 -0.068734 0.886226 -0.329060 0.749455 -0.663773 -0.350857 -0.588249 0.666276 0.647876 -0.812090 -0.297604 0.244205 -0.499960 0.350442 0.531373 -0.355864 0.498980 -0.386464 0.932403 0.852776 0.895869 -0.550456 -0.279542 0.480776 0.937395 0.421416 -0.376648 0.362747 0.845699 -0.856418 -0.403311 0.255063 0.794592 0.766279 0.988444 0.236801 -0.386668 -0.183643 0.758722 0.578392 -0.422693 0.809520 0.453379 -0.757624 0.271223 -0.810891 -0.974458 0.693193 -0.315320 -0.560514 -0.731401 0.480172 0.116445 0.698395 -0.012380 0.329925 0.472509 0.279575 -0.048719 0.107254 0.128059 -0.704010 0.095915 0.060385 -0.138594
-0.871215 0.497105 0.112386 0.242151 0.961012 -0.039843 0.825073 -0.872272 -0.505061 -0.045807 -0.119315 0.130028 0.911750 -0.743770 0.154732 0.766187 -0.637275 -0.361608 -0.481718 -0.439879 0.369479 0.703785 -0.934669 0.475745 -0.497770 -0.842037 0.632200 0.641803 0.094282 0.655729 -0.337004 0.531334 -0.234054 0.429588 -0.748595 0.874001 -0.259496 0.490435 0.614993 0.518690 0.814896 -0.732354 -0.356273 -0.915336 -0.603071 -0.325378 -0.273790 -0.698228 -0.865368 0.355207 0.653092 0.219338 -0.096188 0.943559 -0.810325 0.054340 0.394778 -0.343251 0.547754 -0.107975 0.712321 -0.684267 0.155689 0.286664 -0.271226 0.402286 -0.499091 0.879453 0.094733 -0.998570 -0.670004 -0.821457 -0.565011 0.255782 -0.128221 -0.858787 0.603512 0.712265 0.425522 0.092388 0.567566 0.322659 0.992676 -0.269547 -0.784625 0.918106 0.140037 -0.595832 -0.990318 0.585371 0.011646 -0.960039 -0.765368 0.628802 0.663218 -0.426541 0.328991 0.572269 -0.492747 0.971495 -0.494364 0.373557 -0.036545 0.757862 0.025789 0.325094 -0.572835 -0.773849 0.905882 0.124019 -0.815722 -0.915140 0.218914 0.499255 -0.191818 -0.860957 0.646403 0.003684 -0.561790 -0.387142 -0.163562 0.003509 0.702764 -0.276339 0.368647 0.399299 0.483281 0.006425 0.449753 0.383367 -0.178316 0.089063 0.150430 0.015559 0.225466 0.224988 -0.421012 0.922261 -0.345784 0.726380 -0.385149 0.553286 -0.694074 0.105945 -0.403692 0.174775 -0.638745 0.849631 -0.555931 0.334207 0.686016 -0.233886 0.359790 -0.671019 0.401478 -0.154877 -0.001412 0.389150 -0.389801 0.518299 0.099616 0.876306 0.644763 -0.365844 -0.182071 0.277670 0.171543 -0.957221 -0.937258 -0.961497 0.887771 0.348273 0.981015 1.123434 0.767835 -0.022568 0.997175 0.556599 -0.792099 0.491724 0.679084 -0.236833 -0.545058 0.939944 -0.352827 0.412695 0.218836 0.371116 0.569811 0.538773 -0.541641 -0.133716 0.596926 -0.301512 0.841224 0.375401 0.908452 -0.627633 0.957632 -0.933175 -0.023362 0.324533 0.464755 -0.587380 0.866899 -0.250269 0.361029 -0.164180 0.795959 0.466873 0.153202 0.281334 -0.125573 0.752061 -0.192336 0.535329 -0.330539 -0.316151 -0.044538 0.244469 -0.629165 0.294127 0.922557 0.925928 -0.473792 -0.100264 0.220927 0.173613 -0.572349 0.737353 0.934067 0.887807 -0.412212 0.327927 0.164069 -0.089597 0.184497 0.468477 -0.281445 0.760326 -0.021235 -0.459372 0.332796 -0.325396 -0.236408 -0.240700 -0.074659 -0.538292 -0.900154 0.577521 -0.566651 0.761905 -0.918434 0.522495 0.596984 0.480365 -0.763397 -0.008315 -0.514021 -0.094063 -0.359524 0.434138 0.278228 0.215877 -0.117222 -0.116812 0.062888 -0.441019 0.307450 -0.369807 -0.187041 -0.747621 -0.782490 -0.218931 0.522773 -0.032818 -1.154789 0.329301 0.403549 -0.314527 -0.253834 0.709040 -0.575829 0.020703 -0.449514 -0.226252 0.092759 -0.252330 0.091196 -0.981448 -0.312826 -0.177053 -0.731987 -0.129848 -0.818357 0.199455 -0.586091 -0.245874 -1.030561 -0.236081 -0.542931 -0.915006 -0.270263 0.331206 -0.268585 0.586697 0.053647 -0.487917 -0.610914 0.545805 0.440513 -1.010177 0.592547 -0.708221 -0.365160 -0.137835 -0.057376 -0.496432 -0.514954 -0.706285 -0.629569 -0.636225 0.344701 -0.609404 0.430934 0.140415 0.821789 -0.169381 -0.105197 -0.758213 -0.555652 -1.028300 -1.068211 -0.334663 0.825655 -0.945382 0.167063 -0.607242 0.012100 0.713093 0.007892 -0.820847 -0.888539 -0.571503 0.366720 -0.671334 0.128727 0.138293 0.358340 0.291974 0.166313 0.205499 0.262652 0.080025 0.277173 0.779007 0.154213 0.000732 -0.772259 -0.210218 -1.108616 -0.606540 0.799031 -0.847656 0.011032 -0.504874 -0.458218 0.445837 -0.526466 -0.659704 0.263139 0.203866 -1.060852 -0.071773 0.026698 -0.202504 -0.497581 -0.549721 -0.084436 -0.210221 -0.017378 -0.442413 0.267715 -0.148717 0.223050 -0.607910 -0.580078 -0.443075 0.129425 -0.467516 0.503530 0.376147 0.574536 -0.514923 -0.221765 0.260252 -0.141466 -0.368523 0.600174 -1.152985 0.013361 0.395677 -0.566700 0.474461 -0.689376 0.031661 -0.080428 0.364613 0.350063 -0.624127 0.119465 0.206144 -0.792437 0.636417 1.295378 0.169456 -0.553663 0.505886 -1.016229 -0.131251 0.037562 0.001867 -0.281939 -0.488351 -0.073431 0.586921 -1.026310 -0.346419 -0.757641 -1.056875 -0.249669 -0.316716 0.995949 -0.644778 0.137136 -0.751890 0.016024 -0.227952 0.253744 -0.199597 0.673661 0.728889 -0.442432 -0.101275 0.568619 -0.240219 0.466304 0.570468 -0.892101 0.368972 -0.296665 -0.477362 -0.798686 0.174312 -0.523835 -0.532379 -0.240683 -0.816450 -0.566343 0.164483 -0.069119 0.136899 0.638486 -0.016316 -0.587375 0.393524 -0.529648 0.215837 0.465215 -0.222584 -0.057075 -0.422154 0.223275 0.228666 -0.986358 0.236573 0.644552 0.949693 -0.662322 0.458065 -0.656345 0.669770 -1.292231 -0.466188 -0.092070 -1.702993 -1.638993 -1.845314 -1.083254 -0.492533 -1.531076 0.235278 -0.648501 0.104772 -0.219932 0.760331 -0.595114 0.604095 0.108727 0.516559 -0.464875 -0.426630 0.883752 -0.146092 -0.342416 -0.569942 -0.718136 -0.873580 0.481428 -0.175592 0.235373 -0.843442 -1.433175 -0.365617 -1.550336 -1.691556 -1.594262 -2.512432 -1.209909 -0.733917 -0.185295 0.988993 0.246758 0.456874 0.978365 -0.330095 -0.093286 0.177413 0.175000 0.250165 0.720247 0.823880 -0.066275 0.266800 0.906764 0.168418 0.631377 0.038576 0.382001 0.593371 -0.316453 -0.368240 -0.297985 -0.147650 -0.621465 -0.177937 -0.990830 0.383134 0.654571 0.331572 -0.011410 0.124861 -0.487199 0.062226 1.205994 0.286071 -0.116036 0.721202 0.613398 -0.590289 0.531185 -0.921164 -0.098682 0.973882 0.865946 0.286626 0.411455 -0.258061 0.313092 0.182598 0.207050 -0.452235 0.237189 -0.389634 -0.357144 -0.192609 0.478282 -0.143374 0.579114 0.313767 0.838823 0.031657 0.110269 0.643039 0.357544 -0.277764 -0.704871 -0.457363 -0.978737 -0.235962 0.294652 -0.319748 -0.585501 1.084735 -0.216377 -0.314324 0.148071 0.035760 -0.439329 0.710122 -0.169091 0.839494 1.067353 -0.464429 0.661066 0.493866 0.194569 0.126902 0.203267 -0.024156 -0.634169 0.379676 0.799522 -0.818229 0.798634 -0.274744 0.015606 -0.354407 0.719937 -0.420478 0.202929 1.179519 -0.470418 0.306620 -0.938374 0.276038 0.605400 0.222030 0.306882 0.034787 -0.080217 -0.077916 0.351676 0.139075 -0.302101 0.857910 0.826138 0.025618 -0.660846 -0.151681 0.599226 0.948640 0.761443 -0.284838 0.881867 0.027525 -0.052387 -0.716881 -0.006236 -0.399087 -0.273152 0.828043 0.140947 0.463518 0.126364 0.267120 0.213550 0.103218 0.183150 -0.097966 -0.578514 0.050289 -0.303106 -0.386720 0.552758 0.395474 0.055304 -0.415555 0.813132 -0.081388 -0.015946 -0.293408 -0.553971 0.438328 0.862076 -0.394533 0.829868 1.165540 0.522131 -0.234239 1.209449 0.420257 1.052955 -0.091393 0.333210 0.629608 -0.042448 0.624286 -0.231720 0.748829 -0.464390 0.039639 -0.361247 -0.895271 0.826757 0.306219 0.805441 0.887023 -0.731329 0.850003 -0.208988 0.938332 0.617503 0.471587 -0.502449 -0.266080 0.198245 -0.588231 0.507193 0.210981 0.634417 0.156944 0.393658 0.599503 0.130107 0.129233 0.086601 0.714517 0.459147 -0.362174 -0.759095 -0.104518 -0.550546 -0.283787 0.575609 -0.452241 0.168600 0.242397 -0.601950 -0.506978 0.275101 0.301323 -0.002892 0.468794 0.714968 -0.073791 -0.865374 0.581050 0.379072 -0.374903 0.139309 0.036899 0.465889 -0.572804 -0.274148 0.681531 -0.589127 -0.745945 -0.633338 0.539215 0.507706 -0.611747 0.529550 0.645142 0.478332 -0.581389 -0.067663 0.357404 0.085381 -0.524854 0.501646 0.704625 -0.372969 0.680881 -0.688147 -0.956701 -0.189409 0.315267 0.319308 -0.336309 -0.590152 0.565402 -0.931290 -0.698121 0.364693 -0.917172 -0.889608 0.002932 -0.304242 0.769913 0.206658 0.153635 -0.560535 -0.296943 -0.255234
-0.137611 -0.671285 -0.310713 0.620115 -0.345459 0.668441 -0.958083 0.843367 0.013451 0.265736 0.910740 -0.564966 0.897828 0.467971 0.579234 -0.881977 0.628606 0.793073 -0.083536 -0.191049 -0.277435 -0.554231 -0.495144 0.952834 0.697177 -0.898598 0.568409 -0.789549 0.935066 -0.615206 0.263526 -0.444142 -0.792934 0.982174 0.931627 -0.585370 -0.088311 -0.622047 -0.482725 0.286368 0.238717 0.072747 0.134614 0.342166 -0.606189 -0.703182 0.971121 0.198992 0.240642 0.638003 0.103422 -0.541813 0.284958 -0.030769 0.569784 0.921778 0.727832 -0.307106 -0.275311 -0.622307 0.813396 -0.108766 0.049220 0.885443 -0.311728 0.760314 -0.254305 0.168621 0.478319 0.632942 0.036621 0.030491 -0.484442 -0.348844 -0.497652 -0.229172 -0.169117 0.194811 -0.366698 -0.727847 -0.939816 -0.387561 0.813555 0.457843 -0.869760 0.812532 -0.758068 0.703974 -0.266257 0.260984 -0.650858 0.780389 -0.934889 0.504288 0.694669 -0.460864 -0.426501 0.601208 -0.258683 0.428096 -0.702825 0.398846 0.246089 0.429492 -0.445611 -0.044927 0.449277 -0.782555 0.613631 0.031737 -0.376348 -0.339127 0.175359 -0.772922 0.762272 0.260363 -0.013107 1.004952 -0.806105 0.752260 0.316888 -0.030787 0.171184 0.351811 -0.256768 -0.228268 0.837947 -0.182389 0.266247 -0.823241 0.426332 -0.741613 0.316575 0.191686 0.365333 0.307997 -0.096746 -0.704935 0.366056 -0.995812 -0.289745 -0.170097 0.754220 0.119212 -0.721979 -0.021969 0.431598 -0.434266 -0.025745 -0.589698 0.555783 0.363168 -0.615496 -0.055532 -0.445367 -0.268610 0.732487 -0.636369 -0.460177 0.409463 -0.545209 -0.570351 0.035296 0.186403 0.417674 -0.203284 0.676111 -0.859200 -0.049698 -0.994333 -0.180426 -0.041254 -0.670741 -0.292573 -0.394984 1.142695 -0.737955 0.008229 0.099718 0.031414 0.842586 0.305953 0.560590 -0.923560 0.011613 0.147881 -0.762446 0.212839 -0.449936 -0.579352 0.389160 -0.807902 -0.454206 0.748091 0.372221 -0.603995 0.497934 -0.237418 -0.378287 -0.225670 -0.268344 0.215605 0.539081 0.747018 -0.636838 -0.195040 0.316345 -1.340309 -0.900036 -0.194673 0.716516 0.543069 -0.522780 -0.049061 0.521993 -0.742664 0.691249 -0.179273 -0.509541 -0.493750 -0.498104 -1.042675 0.805763 0.877810 0.888228 -0.504141 0.362950 0.161048 -0.831929 0.514942 0.151318 0.864586 -0.559962 0.088513 -1.137617 0.540669 -0.029260 -0.058264 -0.187039 -0.003410 0.662149 0.237916 -0.041700 1.033291 -0.215740 -0.555135 0.775568 -0.316171 -0.015987 -0.367624 -0.798180 0.381245 -0.723664 0.257505 0.129907 0.039597 -0.061372 0.632022 -0.174099 0.157806 -0.526187 0.405744 0.060906 -0.703345 -0.829782 -0.997052 0.071619 0.165908 1.343748 0.151133 -0.102444 0.748535 0.736926 -0.644102 -0.065516 -0.341095 -0.486204 0.355381 -0.625520 -0.123286 0.486766 0.925885 -0.187191 -0.123170 0.721860 -0.738123 -0.056376 -0.811914 0.365831 -1.263114 -1.313689 -1.003739 -0.034693 0.021122 0.048141 0.534874 0.417805 1.253749 0.225758 0.552683 0.173336 0.310149 0.107791 -1.010760 -0.161116 0.366673 -0.324910 0.470704 0.790598 0.747642 0.614727 -0.698289 0.359881 0.574580 0.556811 -0.078175 -1.394330 -0.591907 -0.237322 -1.141390 0.198111 0.457044 0.588196 0.912083 0.150063 0.822815 -0.248575 0.139184 0.299381 0.148070 0.022388 -0.537532 -1.037828 -0.789373 -0.035464 -0.770194 0.600258 -0.445527 -0.761319 -0.450620 -0.659211 -0.618385 -0.587108 -0.492385 -1.019856 -0.808692 -0.285033 0.242725 0.268123 0.095078 -0.140356 1.004749 0.870228 0.092594 -0.007304 0.350919 -0.287356 0.113852 -0.398491 -0.711434 -0.885552 0.063633 0.431524 0.603037 0.877819 -0.585308 0.724680 0.943950 0.293621 0.415236 -0.562195 0.329437 -0.436331 0.221208 0.286036 0.758027 0.754526 0.649133 0.985893 0.198161 0.288911 0.408619 -0.167611 0.326952 -0.499373 -0.811359 -1.233920 -0.914016 -0.704417 -0.155654 -0.280835 -0.149298 0.283421 0.466852 0.968222 -0.365280 0.291583 0.137902 0.387524 -0.165529 0.189993 -0.433910 0.327311 -0.478225 0.157156 0.294171 -0.650582 0.969633 0.048124 -0.273183 -0.116736 -0.242019 0.280348 0.392202 -0.640300 -0.011086 -0.520668 -0.025846 0.871572 0.300173 -0.796807 0.438264 -0.657214 0.344965 0.792156 0.292233 -0.379971 0.136527 -0.268995 -0.270992 -0.368506 -0.006161 -0.142244 0.268927 1.065827 -0.015434 0.518630 0.666011 -0.541082 0.044098 -0.457489 -0.100750 -0.202206 0.717584 0.538315 0.797364 0.407300 0.851428 -0.433392 -0.185772 0.576679 0.274693 0.212855 0.367477 -0.368076 -0.055960 -0.849845 -1.411582 -1.061032 -1.055956 -0.460700 0.305051 0.626397 0.105175 -0.904510 -0.496767 -0.356010 -0.241153 0.165068 0.105539 -0.066575 0.452021 -0.052957 0.118584 0.113112 0.535676 0.859734 -0.675357 0.692899 0.480627 1.125761 -0.472731 0.234505 -0.110694 -0.877292 -1.024374 -1.438157 -1.146055 -1.945441 -1.321385 0.340973 0.138805 -0.321563 -1.018936 0.131913 0.295797 0.012098 0.517076 0.261890 1.159485 -0.484323 0.768161 0.040382 -0.600667 0.918752 0.200903 -0.242658 -0.708959 0.017476 1.045566 0.261692 0.282150 -0.499380 -0.236758 0.310255 -1.226017 -1.163113 -1.286644 -0.584001 -0.647936 -0.236200 -0.546558 0.110660 0.759676 -0.176616 0.251496 1.078745 -0.005365 0.683595 -1.172902 -0.671728 -0.249743 0.226002 0.401996 0.779988 -0.274985 -0.132901 1.403814 1.049578 0.455883 0.381637 -0.061625 0.037440 0.367959 -0.065480 -0.166649 0.218848 -0.035932 -0.072865 -0.325873 -0.165236 -0.303761 0.749885 -0.448482 0.529841 0.184334 -0.511275 -0.821893 -0.910666 -0.311257 -0.498893 0.183180 0.564695 -0.200556 0.761353 0.009645 -0.409170 0.486087 0.278839 0.456340 -0.247114 -0.213827 0.358210 0.454808 -0.293399 0.306446 -0.096007 0.242676 -0.009546 -0.186534 -0.382082 0.375989 -0.052795 -0.275205 -0.503696 0.088420 -0.242946 -0.733247 -0.621549 0.164377 0.780833 -0.036293 0.380140 -0.383739 -0.629012 0.144971 -0.063199 -0.504771 0.139894 1.031579 0.152611 -0.717226 -0.568740 0.592220 -0.109920 -0.397657 0.539977 -0.306592 0.247536 -0.167869 -0.258279 -0.795343 -0.933143 -0.073743 -0.687853 -0.618687 0.467638 0.081901 0.973460 0.405612 -0.600388 0.573513 0.440725 0.876720 0.342791 -0.101061 -0.141918 -0.895079 -0.610309 -0.680769 -0.214570 -0.957425 -0.215574 0.429606 0.027696 -0.116072 0.412889 0.017356 -0.198184 0.497366 -1.049312 0.762616 0.320908 0.587918 -0.160867 -0.111691 -0.827532 0.922977 -0.417793 0.885248 1.080440 -0.126789 0.146513 -0.336135 -0.025829 0.461495 -0.249896 0.369710 -0.188397 -0.247084 -0.597772 -0.154962 0.096339 -0.334083 -0.841276 0.044285 -0.555224 -0.421618 -0.899845 0.491728 -0.823030 -0.247650 -0.742287 -0.746938 0.110469 -0.315614 0.907081 -0.343545 0.211043 0.776972 -0.053690 -0.509168 0.153415 0.047742 -0.369687 -0.204256 -0.705678 0.045934 -0.147537 -0.627659 0.214412 -0.535884 -0.645578 -0.212836 -0.270543 -0.444888 0.243215 0.245447 -0.946873 -0.782337 -0.165908 -0.089956 0.278928 -0.471838 -0.695816 -0.078919 -0.165298 -0.674983 -0.092436 1.013063 0.208301 0.554465 0.064078 0.105747 0.311093 0.972693 -0.901917 -0.593084 -0.827526 -0.034722 -0.543255 0.743911 0.452954 -0.221539 0.428540 0.493853 -0.570709 0.317857 0.915716 0.057828 0.125155 -0.866472 0.763854 -0.142047 -0.236830 -0.238144 -0.307656 -0.431970 0.359452 0.767699 0.818918 0.749035 -0.474620 -0.891372 -0.365020 0.496283 0.170925 1.044095 -0.515662 0.867176 -0.314753 -0.326685 -0.709258 -0.910299 -0.515838 0.789456 -0.659836 -0.302971 0.450739 0.315434 0.227749 0.550596 0.538665 0.384555 0.289328 -0.640919 0.926424 0.024113 0.310884 0.134666 -0.699977 -1.002322 0.210692 0.847077 0.947616 0.638081 0.818770 0.230906 -0.870113 0.367832 -0.643465 -0.564881 -0.580612 0.764076 0.788992
-0.593215 -0.273923 0.756166 0.686673 0.608470 0.442132 0.859188 -0.858943 -0.864903 0.031776 0.636401 0.923702 0.031098 -0.446914 0.525126 -0.908256 -0.946780 -0.968417 0.332716 -0.310962 -0.915830 -0.250187 0.012099 0.514945 -0.793838 0.723143 -0.146432 0.688555 -0.835400 0.913444 0.315632 -0.548543 0.568788 0.826016 0.341455 0.932072 -0.111369 0.165641 -0.504228 -0.527408 -0.600132 0.824381 -0.176666 -0.010964 0.911305 -0.681463 -0.164439 0.854398 0.139632 -0.232675 0.053424 0.979388 -0.420349 -0.414160 0.199127 0.893416 0.873505 0.324245 -0.124874 -0.266485 0.853867 -0.141027 0.733852 0.727008 -0.379239 0.785221 0.498913 -0.156239 0.052165 0.730172 0.162517 0.312576 -0.085787 -0.306596 0.133851 -0.085996 -0.489536 0.994094 -0.772362 -0.220745 0.843381 0.955540 -0.948306 0.520940 -0.384015 0.357554 0.114903 -0.781470 -0.922605 0.737773 0.791837 0.989063 0.145050 -0.118531 0.332660 0.532974 -1.031186 -0.684661 -0.780403 0.150321 -0.421310 0.071723 -0.393750 0.293129 0.112461 0.810568 -0.825940 0.558879 0.902175 0.127773 0.232258 0.251225 -0.009370 -0.275091 0.770125 -0.275539 0.004642 0.447168 -0.849660 -0.221557 -1.001344 -0.841582 -0.555006 -0.294856 0.498238 0.026002 -0.614355 0.434312 0.272516 -0.367687 -0.079302 -0.419885 0.462999 0.867550 0.316902 -0.739912 -0.086946 -0.183048 -1.009910 0.222766 0.967719 -0.950088 0.572615 -0.259471 0.135969 0.684765 0.629948 -0.038466 0.628122 -0.464803 -1.107287 -0.991024 0.238791 0.214478 0.188038 -0.183905 0.112469 -0.440499 0.126062 0.178127 -0.224439 0.115297 0.385450 0.772179 1.011804 -0.676842 -0.585998 0.158190 -0.962818 0.044080 0.385594 0.896703 -0.133153 0.094510 -0.643050 -0.463753 -1.256932 0.164369 0.119095 0.520750 -0.438702 -0.767175 -0.631091 0.478375 0.282235 -0.154202 -0.384506 0.562048 -0.092501 0.795485 0.420423 0.874172 0.181364 -0.634897 -0.967526 0.932802 0.082355 -0.596894 0.531398 -0.008538 -0.535692 -0.858040 -0.762637 -0.982457 0.310638 -1.250038 -1.085875 -0.628111 -0.444875 0.581044 -0.482441 -0.688291 0.002992 -0.900646 -0.264810 -0.639598 0.031400 0.158099 -0.129805 -0.468757 0.685175 -0.368214 0.632017 0.083017 0.803329 -0.910864 0.639317 0.169279 0.155019 -0.667065 -0.357266 -0.048513 0.435259 -0.941858 -1.045881 -1.016435 -0.373312 -0.089018 -0.712825 0.150087 -0.707645 -0.728208 0.721441 -0.784462 0.205102 0.362468 -0.003900 -0.786881 -0.247791 -0.327572 0.126972 -0.858855 0.824304 0.364471 -0.318319 -0.352801 0.181013 -0.885456 -0.677400 0.415268 -0.373008 -0.530406 -1.017797 0.470320 -0.169398 0.210980 0.280411 0.307445 1.289012 -0.310925 0.158011 -0.774281 -1.129785 -0.381452 -0.030270 -1.254047 -0.498947 -1.400232 -1.017464 0.677280 0.414502 0.755767 0.358778 0.213518 -0.089411 -0.439172 -0.069846 0.091184 -0.936694 -1.164092 -0.468910 -1.067723 0.344113 -0.778519 0.964163 -0.306201 0.114773 0.100440 -1.157912 -0.897717 -0.841670 -1.206178 -0.118338 0.010232 -0.023359 -0.024296 0.746624 -0.711033 0.173355 0.633979 0.456188 0.151221 0.036486 0.065289 0.869512 -0.659120 -0.969736 0.196803 -0.474598 0.721520 -0.122668 0.512306 -0.557903 0.577594 0.458833 -0.498627 -0.849485 -0.618659 -0.854703 -0.702496 -0.300373 -0.765156 -0.220961 0.113341 0.298811 0.238274 -0.725183 0.009590 -0.397741 -0.794508 -0.429925 -0.421725 0.473901 -0.738985 -0.819387 0.433157 -0.620217 -0.012362 -0.460203 -0.417728 -0.735857 0.360584 0.791316 0.370397 0.455402 -0.260335 -0.112933 -1.014118 -1.066224 -0.395099 -0.274403 0.731117 0.987346 -0.946529 0.411103 -0.728791 0.507141 0.995027 0.785769 0.881257 0.553249 0.547803 0.582218 -0.401898 -0.090115 -0.909769 -0.287408 0.307747 -0.263021 0.620425 0.251431 0.529270 -0.079444 0.525099 -0.561094 0.195654 -0.519520 0.229683 -0.266745 -0.261187 0.232066 -0.670452 -0.361878 0.140645 -0.604271 0.101640 -0.192969 -0.839196 0.557464 -0.946886 0.778011 -1.058927 0.702365 0.472202 -0.793077 0.293580 -0.389759 0.700100 0.680628 0.299523 0.207524 -1.022991 -0.843591 -0.963087 -0.464954 0.673238 -0.990519 0.333538 -0.975981 0.610994 0.923032 -0.850611 0.605631 -0.024864 -0.349185 0.831346 0.850751 0.812545 0.385142 -0.922529 0.244541 -0.125108 -0.136739 0.281194 1.047391 0.033475 0.303555 0.649558 -0.679625 -0.947480 -0.840569 -1.181239 0.234573 0.600855 -0.176885 -0.816541 0.585588 -0.286269 0.858402 0.895452 0.715624 0.196357 0.720102 -0.155713 0.164716 -0.251594 0.785916 -0.397542 0.400586 0.405150 0.805898 -0.312876 -0.032040 0.083091 -0.023944 0.310377 -0.323943 -1.058467 0.025443 0.086895 0.285171 0.272477 -0.716436 -0.500143 -0.334899 -0.915942 -0.076243 -0.577103 0.947774 -0.262733 -0.957877 0.045558 0.645941 -0.580130 -0.440239 0.978650 1.027003 0.016039 -0.024250 0.779802 0.253497 0.873145 -0.052039 -0.125402 -0.815604 -0.749882 -0.002085 -0.325855 -0.082135 0.816415 0.785815 -0.436552 -0.688360 0.518605 0.999261 -0.450723 0.486326 0.830631 -0.764439 0.824083 0.383941 -0.126165 -0.794390 -0.555434 -0.090930 0.426249 0.439129 -0.238570 0.813226 0.166408 0.332495 -0.620136 -1.012524 -0.692020 -0.353265 0.442118 0.565734 1.025083 -0.361526 -0.205450 0.311505 0.506046 -0.180650 -0.855089 -0.656106 -0.730627 -0.884292 -1.040093 -0.935048 -0.366987 -0.408504 0.274061 0.332862 1.086633 -0.246809 0.682858 0.185836 -0.004641 -0.527618 -0.634166 0.653588 1.035305 -0.215482 0.837377 -0.929704 0.514570 0.661589 -0.771895 0.823548 -0.761353 -0.442514 -0.656926 0.269223 -0.958268 0.787132 0.540353 0.804361 0.063331 -0.418729 0.463073 -0.760327 0.056396 0.380699 0.298500 -0.434050 0.636419 -0.320881 0.915224 -0.505643 0.961695 0.621935 0.491633 -0.922533 -0.869010 0.480501 0.531536 0.100508 0.586314 -0.044321 -0.493831 0.532717 0.666238 -0.211898 0.181511 -0.418792 -0.088767 -0.526645 -0.623594 -0.148690 0.047225 0.232886 -0.404614 0.146632 0.631233 0.319478 0.662573 0.019418 0.020115 0.384976 -0.771201 0.540480 -0.248325 0.431441 0.069372 0.643235 -0.009659 -0.973968 0.118451 -0.523188 0.031943 0.683974 0.570652 -0.095414 0.139854 0.079377 0.247683 -0.131873 0.077316 -0.941126 -0.383545 0.157338 -0.111216 -0.899911 0.857405 1.047950 0.237137 -0.332271 0.306849 -0.284303 -0.276845 -0.693717 0.870757 0.567698 0.930597 -0.897176 -0.971969 -0.468195 0.982956 0.046017 -0.175891 0.995205 -0.352609 0.635115 0.078207 -1.197541 0.289312 -0.436566 -0.153796 -0.415013 -1.137188 0.265192 0.226614 -0.083446 0.364436 0.275908 -0.169465 -0.076598 0.425765 -0.260844 -0.795073 -0.576493 -0.408353 0.097896 -0.642894 0.444993 -0.608155 -0.935545 -0.832340 0.603075 -0.464682 -0.964084 0.315457 0.145538 -0.568992 -0.546355 -0.365760 -0.880249 -0.149573 -0.681322 -0.344918 -0.430285 0.772603 -0.599100 0.453981 0.828666 0.461434 0.639656 -0.037973 0.087131 0.253315 0.908154 0.933220 -0.829326 0.622260 -0.789476 0.346860 0.822975 0.345290 -1.058399 -0.240041 0.477864 -0.419083 0.061869 -0.823030 -0.583491 -0.644835 -0.067548 -0.492839 -1.066857 -0.029749 0.878880 0.639510 -0.298780 -0.988150 -0.592113 0.423286 0.136473 -0.805964 -0.930040 -0.009686 -0.648219 0.784885 -0.145383 -1.003623 0.694483 0.720727 -0.424841 0.821549 0.276059 0.858067 0.468380 0.152001 0.388291 0.135253 -0.703253 -0.851023 -0.864674 0.128721 -0.514365 -0.176820 0.776025 -0.440738 0.209779 0.090716 -0.061385 -0.526578 0.774576 0.907074 0.174498 0.815896 0.099735 -0.698097 0.738867 -0.594026 0.680509 -0.222868 0.286945 0.619058 0.229586 0.661103 -0.142988 -0.103234 -0.317903 0.015899 -0.373533 0.312769 0.405330 0.251341 -0.302058 0.986466 0.895333 -0.276494 -0.091214 -0.325041 0.417240
-0.410336 -0.079249 0.241947 0.135557 -0.054097 0.800551 -0.149805 -0.228183 0.780633 0.489022 -0.191480 0.722669 -0.656937 0.653125 -0.727054 -0.554501 -0.500817 -0.368132 -0.882974 0.607645 -0.576811 0.275540 -0.098363 0.522516 0.620673 -0.523218 0.904965 -0.100654 -0.462936 0.313106 -0.515767 0.922469 0.053454 0.316362 -0.697018 0.738741 -0.417698 -0.473727 -0.617134 0.231666 -0.474065 0.496456 -0.504540 -0.224218 -0.910153 -0.518456 -0.824790 0.697883 0.596676 0.978949 -0.588095 0.624714 -0.965967 -0.922040 -0.186657 -0.563174 0.572689 -0.948110 0.800257 0.905900 -0.166591 0.895536 0.258108 0.528866 -0.771128 0.271617 0.025161 0.735317 -0.536901 -0.403582 0.131491 0.782192 -0.967681 -0.066393 -0.305839 0.356580 -0.114962 0.477158 0.411608 0.083950 0.667243 0.208051 -0.041305 0.102988 0.201557 -0.076312 0.613027 0.092867 -0.997441 0.729024 0.621109 -0.064828 0.028658 -0.814256 -0.455709 1.073501 -0.541892 -0.120882 0.273309 -0.205721 0.565274 -0.264689 0.771358 0.907345 0.040555 0.248076 0.928006 -0.057791 -0.091841 -0.697150 -0.960279 -0.127164 0.907095 0.063522 0.262965 -0.243072 -0.539483 -0.799098 0.533434 0.397746 -0.203191 1.010565 1.143153 0.976273 -0.108991 -0.019544 -0.216555 -0.160162 0.049836 -0.666014 0.604232 0.038675 -0.422246 0.471763 -0.550598 -0.052397 -0.371030 -0.403466 -0.185324 0.160213 0.167624 -0.187639 -0.599111 -0.527468 -0.413489 0.461501 -0.121057 -0.372363 0.403619 -0.029926 1.060415 0.382744 0.545664 0.899112 0.410276 0.723725 0.174204 0.964277 1.114367 0.171561 0.415140 1.130962 0.196881 1.261805 -0.412649 1.136789 1.040343 -0.962723 -0.421197 0.281513 0.090655 0.117319 0.891832 0.514064 0.837313 0.836759 0.919360 -0.032580 0.183392 0.233621 0.639405 0.348225 0.431482 0.135402 0.293449 0.808472 0.458856 0.905023 0.323920 0.600217 -0.146732 0.532759 0.354415 1.072748 0.077597 -0.643715 0.174157 -0.856279 -0.262464 -0.293036 -0.568459 0.790078 -0.155372 -0.050963 0.069324 0.104579 -0.051742 0.917636 -0.604015 -0.702670 -0.930936 0.208488 0.306838 -0.448252 -0.355724 -0.219222 -0.142007 -0.495510 0.477464 -0.285237 0.548038 0.172284 0.717141 -0.259965 0.598756 0.677713 0.173277 -0.574619 -0.631267 -1.048356 -0.435030 0.401668 -0.707609 0.511077 -0.629714 0.406138 -0.323263 -0.627144 -0.027303 -1.168131 -0.199285 0.610361 -0.656521 0.346038 0.610696 0.190479 0.039842 0.564054 0.746412 -0.075140 -0.734671 -0.203579 0.303830 -0.369235 0.869846 0.104843 -0.337706 0.523061 -0.046213 -0.097473 0.603281 -0.367558 0.248382 -0.822945 0.054609 0.173853 -0.869223 -1.149026 -0.517355 -0.816863 -0.738885 -0.537800 -0.824208 -0.019558 0.247784 -0.342406 -0.400697 0.676026 -0.494282 -0.973314 0.888026 -0.805635 -0.163644 0.448977 0.084329 0.024321 0.511538 -0.630096 -0.329291 0.697076 -0.539089 -0.541325 -0.794931 -0.467157 -0.573130 -0.668680 -0.988615 -0.903187 -0.508779 -0.490828 -0.294594 -0.707497 -0.626865 -0.261736 -0.315312 -0.076236 0.630328 0.822306 0.103167 -0.459553 -0.380917 -0.697248 0.508483 0.214526 -0.164765 -0.042219 0.073911 -0.342143 0.177927 0.796008 0.937934 -0.132409 -0.682878 -1.612173 -1.517081 -0.331144 -0.839525 -0.416407 0.171217 0.076160 -0.777937 0.309469 0.345530 -0.677495 0.214543 -0.655351 0.275742 -0.165054 -0.856202 -0.797283 0.094811 -0.225675 0.357911 -1.151634 0.420706 0.763055 0.024022 0.181499 0.414138 0.690402 0.539024 -0.925974 -0.232629 0.717285 0.112119 0.027381 -0.777358 -0.510504 0.396864 0.658543 1.052604 0.518123 0.615927 0.922895 -0.788452 -0.853798 0.046910 -0.799857 0.888134 -1.245471 0.104501 0.892206 -0.784168 -0.060421 0.399670 0.715327 1.551902 -0.146010 -0.384560 0.349379 0.594691 -0.761544 0.140463 0.596333 -0.251749 0.759991 -0.062783 -0.416293 0.204041 -0.200557 -0.542484 -0.516819 0.210306 0.347927 -0.959786 0.773549 0.411297 -0.735007 -0.715211 -0.790829 0.794366 0.648289 -0.131237 -0.312423 0.352683 0.352621 -0.339874 -0.661132 0.499506 0.564682 -0.109702 0.731867 -0.341911 -0.447283 0.409211 0.369594 0.189662 -0.096962 -0.100153 -0.311108 -0.080948 0.612828 0.036459 0.597516 0.614450 -0.714859 1.249002 1.065706 0.351512 0.425267 -0.099929 0.686911 -0.409377 0.663057 0.684409 0.126048 0.648969 -0.714028 0.605726 -0.407519 0.315853 -0.020585 0.662787 -0.012382 0.422511 0.201307 0.914668 -0.509666 0.352646 0.893443 0.426272 -0.588014 0.779840 0.171086 -0.550856 -0.305399 -0.915777 -0.408135 0.568761 0.124756 -0.333076 0.624947 -0.278737 0.129501 0.282237 0.483526 -0.732939 -0.163340 0.610620 -0.071214 -0.275012 -0.194274 -0.184288 0.408823 -0.034096 0.827278 0.873693 -0.176524 0.349264 -0.703543 0.148951 -0.239551 0.815978 -0.206746 0.841157 0.630294 -0.585293 0.448874 0.234533 0.206925 -0.171078 -0.026144 -0.043975 0.316094 0.465801 0.299425 0.264406 -0.326595 -0.599871 0.131625 0.830519 0.351386 -0.111058 -0.359187 0.953308 -0.428336 0.300309 0.634927 -0.104816 0.812565 0.065926 -0.144804 -0.428512 0.503581 -0.014863 -0.359835 0.127182 -0.934947 0.170203 -0.536001 0.579563 0.095945 -0.768524 0.439527 -0.310157 0.225382 0.213035 1.151836 -0.302843 0.175545 0.457732 0.426682 0.976104 -0.126454 -0.134509 -0.827036 -0.024539 -0.342462 0.148504 0.669977 0.071245 0.195603 -0.645096 0.611765 -0.492785 -0.358564 -0.717019 -0.018330 -0.253474 -0.045355 0.743572 -0.307060 0.578063 0.967922 -0.112173 0.881526 -0.426355 -0.303414 -0.576896 0.075578 -0.208465 0.165077 0.286294 -0.154469 0.011187 1.397391 0.597472 0.943855 -0.271111 0.652961 0.247848 0.350169 0.746401 -0.141577 -0.782132 0.534120 -0.026991 1.220685 0.178946 0.517283 0.666510 -0.113994 0.111582 0.768076 0.674481 -0.475854 -0.854618 0.077785 -0.401655 -0.238287 0.635394 -0.962382 0.200943 0.234347 -0.469973 1.271964 0.812584 0.976465 -0.577781 0.465004 0.339060 0.405125 1.194660 -0.304945 0.694960 0.115141 0.921555 1.112697 -0.423198 0.855378 0.586281 0.315199 -0.539846 -0.610398 -0.031937 -0.980578 0.032258 -0.157092 0.093154 -0.845764 -0.079071 -0.180365 -0.568129 0.141632 0.586120 -0.756751 0.601724 0.976683 0.121478 0.999607 1.344637 0.005573 0.409884 -0.616307 0.826969 -0.282663 -0.345796 0.871700 -0.323623 1.023901 -0.975769 0.662738 0.896777 0.716113 0.162116 -0.895971 -0.553817 -0.653772 0.751453 -0.132585 -0.875495 -0.114966 0.072791 -0.001555 -0.576851 -0.116208 0.428121 -0.048757 0.061434 0.215138 1.033918 -0.598575 0.677723 0.010516 0.439888 0.825605 -0.460470 -0.877383 -0.728284 -0.530099 0.983684 -0.948342 0.202740 -0.665420 -0.662290 -0.965082 -0.075561 -0.021764 0.075965 -0.887187 -0.711337 -0.103405 0.580545 1.106573 0.445331 0.923127 0.936789 0.505891 0.217808 1.174931 0.266442 -0.006228 -0.389762 0.750156 -0.812360 -0.021389 -0.199430 0.506931 0.451208 -0.406632 -0.035217 0.580788 -0.872521 0.487154 -0.220591 0.366892 -0.969776 0.352190 -0.290437 0.370312 -0.366012 -1.025202 0.539671 -1.141741 0.312479 -0.696885 -0.222083 -0.798323 -1.049381 -0.942888 -0.881359 -0.105071 -0.743255 0.347235 0.276629 0.648103 0.694126 0.653666 0.838944 0.487506 0.483929 -0.925277 0.850414 -0.580346 0.250720 -0.548159 0.256650 0.452205 -0.056578 -0.359415 0.070863 -1.085733 0.191925 -0.787803 -0.078435 -0.950901 -0.400344 -0.159106 0.379474 0.789616 -0.474534 0.516285 0.335636 -0.781409 0.920841 0.821696 0.246554 0.479799 0.829302 0.401788 0.798943 0.769027 -0.192317 -0.317021 -0.064345 0.362592 -0.501672 -0.278633 -0.488697 0.251329 -0.608049 0.804780 0.739381 -0.849295 -0.575520 -0.748444 0.256625 0.311892 -0.317571 -0.145768 -0.688270 0.177122 -0.228161 0.300905 -0.457025
1.324279 -0.720884 -0.150336 -0.026125 0.422687 -0.410318 -0.803056 -0.467660 -0.082949 0.972455 0.654786 -0.500404 0.101557 -0.568190 -0.739728 0.567292 0.574856 0.968677 0.334568 -0.157016 -0.581486 0.365560 0.894487 -0.687518 0.573493 0.181505 0.186651 -0.734006 -0.584711 -0.337416 0.648679 -0.522666 0.233397 0.394318 0.702087 0.364455 0.541126 -0.873753 0.038648 -0.675104 0.705842 -0.948160 -0.549996 -0.083920 -0.258998 -0.070753 -0.832758 -0.828993 0.681121 0.172797 0.751698 -0.549233 0.991904 0.591519 -0.435354 -0.345946 0.978183 0.871693 -0.683691 0.553949 -0.081382 -0.632722 -0.808804 0.733475 -0.322471 -0.821462 -0.672145 0.437606 -0.279226 -0.861293 0.094158 -0.508219 -0.707221 0.315862 0.272915 -0.788462 -0.402905 -1.103212 -0.399780 0.465790 0.581934 0.145372 0.168480 -0.180187 0.916095 -0.152000 0.279734 0.142968 0.652524 -0.725043 0.432670 0.555669 0.399810 0.039506 0.558896 0.596303 0.490507 -1.068350 -0.522300 -1.026516 -1.145518 0.594157 -0.834820 -0.928845 -0.058761 0.261860 0.622231 0.245495 0.396258 0.824848 -0.877619 -0.901660 -0.815372 -0.811188 -0.185079 -0.764136 -0.319088 0.772839 -1.065155 -0.216253 -0.283006 -0.690471 -1.128007 -0.522391 -0.889568 -0.297204 -0.813219 -0.167274 -0.436914 -0.535754 0.651215 0.192249 -1.329391 0.155950 0.432007 -0.685275 0.343993 -0.442817 0.054361 -0.595534 -0.355941 0.028713 0.667513 0.725156 -0.748750 0.203878 -1.273594 -0.251581 -0.872082 0.402132 -0.786145 0.478559 -0.099549 -0.355215 0.693627 -0.624882 -0.411611 0.165311 -0.290904 -0.007150 0.694403 -0.343575 0.198087 0.431189 0.925494 0.519523 0.766897 0.783448 -0.219870 0.964588 -0.759417 0.827878 0.299508 -0.038335 0.415492 -1.502759 -0.974171 -0.116458 -0.246186 0.390962 -0.077627 -0.943806 0.626401 -0.440974 -0.140387 0.061751 -0.137608 0.290978 0.148879 -0.327669 -0.237489 -0.179762 1.378494 0.535432 -0.045375 -0.473670 0.800199 -0.746782 0.768129 -0.239869 0.831168 -0.643631 0.338471 -0.814116 -0.501952 -0.193717 0.251346 -0.270242 0.353832 0.414046 -0.334734 -0.526185 0.671463 -0.395977 0.508738 -0.164008 0.481091 0.607623 0.870141 0.063471 0.789440 -0.135833 0.418669 0.276251 0.870500 -0.308371 0.108557 0.969307 -0.779163 -0.583579 -0.159061 0.317468 0.172941 -0.816181 -0.290133 0.043848 -0.121979 -0.273334 -0.298420 -0.418159 -0.125190 0.371037 -0.016456 0.807159 -0.264026 0.218548 -0.081642 0.605680 0.256368 1.025139 -0.065043 -0.544482 0.275695 0.495492 -0.260485 0.744933 0.459332 -0.263672 -0.182210 -0.040297 0.016658 0.424271 0.082971 0.534434 0.980179 0.328732 0.622383 -1.024056 -0.143995 -0.350636 0.883027 0.247369 0.174727 -0.159263 -0.249811 -0.032910 0.012592 0.824562 1.359655 0.616140 0.939597 -0.714021 -0.895135 0.251887 0.384821 0.761182 0.380129 0.584615 0.246551 0.090215 0.187541 0.273084 0.963430 0.326516 0.169226 -0.101643 -1.243409 -0.548119 -0.337981 -0.401723 -0.669767 0.651983 -0.146083 0.398859 0.026532 0.504667 0.624338 0.130018 0.645826 0.578196 0.168090 0.307396 -0.248811 0.265501 0.124741 0.841776 0.818982 0.097621 0.293411 -0.148875 0.614600 0.703732 0.592863 -0.641362 -0.562137 -0.769355 0.076055 0.925002 -0.752422 -0.875363 -0.396111 0.824510 0.780437 -0.008398 -0.122043 -0.542755 0.431744 0.454057 -0.722010 -0.552740 0.745152 0.109096 -0.067922 -0.197576 0.275606 0.900198 0.146891 0.627821 0.358911 0.566374 0.553896 -1.099719 -0.422412 -0.626860 -0.198698 -0.342105 -0.221570 0.396454 0.141395 -0.880412 -0.835298 -0.886089 0.961479 -0.203627 -0.642202 -0.819717 0.728862 -0.843462 0.041274 0.754612 0.244174 0.544778 0.518973 0.043344 -0.577872 0.249388 0.601878 -0.023676 -0.383746 -0.155732 -0.882008 -1.486776 -0.397088 0.331238 -0.316181 0.721724 -1.202689 0.952336 -1.053786 0.546391 -0.070856 0.897045 0.088279 0.270204 0.506074 0.736054 -0.836424 -0.104045 0.946781 0.603694 0.486635 -0.039871 0.677649 0.139457 -0.401466 0.651007 -0.490444 -1.080124 -0.273800 -0.055443 -1.023938 -0.379643 -0.404003 -0.664059 0.084899 -0.219056 0.582654 0.341609 -0.471525 0.301864 0.321981 -0.092687 -0.695056 -0.451784 0.365213 -0.206382 -0.029829 -0.401784 0.049596 -0.236632 0.151586 -0.191550 0.433925 1.051389 -1.228415 -1.376292 -0.640445 -1.049065 0.155606 -0.257258 -0.352842 0.102389 0.170713 0.119944 0.117348 0.134388 0.871062 -0.192751 -0.726004 -0.374401 -0.879111 -0.967456 -0.721532 0.399772 -0.092728 0.289398 -0.600704 0.509904 -0.399902 -0.516591 -0.688849 -0.858095 -0.630006 -0.970204 -0.240355 -0.845131 -0.367405 -0.682661 0.614391 -0.201009 -0.124735 -0.037944 -0.615601 -0.678073 -0.769084 -0.251646 0.349753 -0.484796 0.020891 0.747020 0.188411 -0.161383 -0.526069 0.220163 -0.023040 -0.990390 -0.391674 0.063919 -0.313580 -0.961106 -0.979844 -0.269235 -0.260311 0.098021 0.988169 1.131872 -0.125845 0.559621 0.167510 0.529980 0.357841 -0.451250 0.795940 0.329574 -0.892520 0.178275 0.446888 -0.998293 -0.085839 0.068294 -0.111255 0.248619 -0.670094 0.171186 -0.898151 -0.400057 -0.860171 -0.777900 -0.827490 0.000403 -0.035584 -0.444572 0.471362 -0.126793 0.518414 -0.523115 0.188013 -0.432349 0.220239 -0.263418 -0.824125 0.331147 0.630642 0.683216 0.770619 0.708327 -0.636408 0.674592 0.201419 0.236113 0.192868 0.574465 -0.205054 0.286922 -0.620601 0.149933 -0.714644 -0.175947 0.403738 -0.172953 -0.125536 -0.348693 -0.239448 -0.623646 -0.938989 0.543304 -0.428072 -0.621032 -0.752225 0.050225 0.999190 -0.035131 0.806846 0.602948 -1.112532 -0.413658 1.386576 0.164996 0.353299 -0.209888 -0.405696 0.438595 0.176369 0.397377 1.069389 -0.613643 -0.303657 0.282932 -0.166860 -0.524791 0.156768 0.508588 -0.741089 -0.341680 -0.063530 0.152572 0.093660 0.942196 0.566088 -0.607523 0.332270 -0.066464 0.384786 0.596098 -0.681332 -0.278217 0.108073 -0.360357 0.179346 0.041698 0.237679 0.456863 -0.076019 0.451619 -0.354661 -0.173896 0.474269 0.216456 -0.292991 -0.629767 1.256165 0.524549 -0.284387 -0.573270 -0.218036 0.225652 0.439055 -0.503245 -0.194870 0.498321 -0.604800 0.562052 -0.381373 -0.404005 0.473110 0.462689 0.160770 0.243693 -0.412804 0.445513 0.500395 -0.126879 0.831123 -0.278039 -0.128317 -0.584862 0.514096 -0.254344 -0.417586 0.384748 -0.651383 0.896639 0.182183 -0.345302 -0.131890 0.027887 0.268983 -0.504648 -0.624371 -0.398444 -0.314518 -0.270542 0.156009 -0.726366 0.230746 0.198561 0.282845 -0.327666 0.728768 -0.485965 0.168662 0.852606 0.255626 0.170930 -0.483693 0.032967 -0.458376 0.374040 0.781646 0.275482 0.750581 -0.661063 -0.581732 -0.867340 -0.257381 0.611063 0.415975 -0.236104 0.743023 0.304947 -0.044778 0.163136 -0.128461 -0.244564 -0.113186 -0.097951 0.444493 -0.364069 -0.149064 0.361087 -0.106367 0.860078 0.052888 -0.733576 0.631144 -0.856881 -0.440421 -0.873631 -0.228530 0.015348 0.972409 0.720811 0.621792 0.649595 0.656323 -0.472068 -0.308888 -1.153314 -0.780981 -0.441025 0.781819 -0.385826 -0.517261 -0.339051 -0.202261 0.466750 -0.528473 -0.770765 -0.391961 0.417277 0.607593 0.127087 -0.517178 -0.736645 -0.167472 -0.864990 0.985064 0.496123 0.455138 0.086805 -0.080241 0.971737 -0.846296 -0.784707 0.783520 0.250036 -0.496014 0.308961 -0.074666 0.825989 -0.658622 0.590588 0.438618 -0.497148 0.260589 0.713750 -0.058279 -0.831156 0.627486 -0.255577 -0.050402 0.831496 -0.630730 -0.672964 -0.814208 -0.444422 0.559259 0.941934 0.866693 0.113348 0.587908 0.916053 0.239047 0.190447 0.087190 0.328159 0.810726 0.300515 -0.429017 0.520491 -0.325949 0.018773 0.149763 0.191914 -0.031711 0.682172 0.706860 -0.948506 -0.771027 0.119727 -0.010141 -0.200709 -0.645323 -0.422663 0.698323
1.042635 -0.303586 -0.177170 0.696081 -0.152254 0.485325 0.719458 -0.569762 -0.585209 0.553787 -0.203507 0.943936 -0.696898 0.058525 0.481754 -0.227278 -0.094919 0.949460 0.008670 -0.170112 -0.284158 -0.337880 0.087555 -0.634956 -0.856675 -0.427117 -0.771607 -0.061150 -0.508675 0.316412 -0.897236 -0.633609 0.373612 -0.235770 0.610654 -0.771988 -0.524954 -0.073475 0.851349 -0.111040 0.968480 -0.314373 0.834018 0.313445 0.058080 0.394542 -0.962288 -0.782645 -0.826050 0.214682 0.783980 0.631096 -0.145593 0.275491 -0.978726 0.148083 -0.800749 -0.765104 -0.975052 -0.709501 0.423813 -0.190193 -0.276471 -0.769257 0.794450 0.087263 -0.530717 0.233127 -0.096413 0.222982 0.202016 0.856767 0.748805 -0.862091 0.190323 -0.791240 -0.774935 -0.329480 0.730780 0.634063 -0.180534 -0.481520 0.429192 0.135363 -0.173318 0.668825 -0.824779 -0.085025 0.639104 -0.333248 0.861162 0.087284 0.266189 -0.794716 -0.756918 0.017874 -0.596528 0.209084 0.237456 -0.500425 0.668014 0.890327 0.710173 0.458465 -0.436251 -0.411660 -0.360751 0.345114 -0.543888 0.015043 -0.136343 0.966916 -0.101155 0.412316 0.104997 -0.658205 -0.967839 0.428110 0.908345 0.862838 0.672493 0.924131 0.941564 0.294008 -0.506120 0.556461 -0.122147 0.629615 0.156157 -0.262221 -0.168017 0.754329 0.476089 -0.200807 0.562464 -0.895943 -0.727570 0.357678 0.233455 0.647378 -0.058699 0.687511 -0.451556 0.804099 0.819579 0.836620 0.349673 0.014993 0.233861 -0.577588 0.534352 -0.495921 0.804657 -0.560831 -0.067952 -0.123815 -0.338820 0.479809 0.324081 0.489199 -0.770591 0.581855 0.027622 -0.284430 0.101596 -0.754314 -0.702346 0.730313 -0.679671 0.369047 -0.083223 0.180137 -0.761177 0.704487 -0.182317 0.120600 0.000236 0.531027 0.067697 0.884096 -0.455660 0.745987 0.333216 -0.453640 0.385323 0.037858 -0.271486 -0.445565 0.718023 -0.348205 0.529116 0.458330 0.107461 -0.365016 0.000393 -0.481060 0.283436 0.218962 -0.171668 -0.442204 0.702935 0.010238 0.277002 0.383885 0.458073 0.602042 0.486071 -0.430725 0.952625 -0.492623 0.520482 0.954768 -0.524248 -0.336850 0.634676 -0.216455 -0.489631 0.141622 0.232618 0.013097 0.091571 -0.048908 0.020556 -0.065330 0.372027 -0.667841 -0.831723 -0.000433 -0.855114 0.554799 0.115522 -0.389222 -0.021175 0.009433 0.309187 0.135374 1.000421 0.183919 -0.223625 0.803328 0.413234 0.260842 -0.523182 0.480200 -0.016892 0.553808 -0.739670 0.472646 0.361117 0.428141 -0.113534 0.293229 -0.092486 0.301562 -0.924133 -0.076004 0.039842 0.343200 0.140507 0.399392 0.006136 0.589727 -0.211297 -0.529584 0.123457 0.503083 0.404744 0.850441 0.599393 0.455541 -0.377785 0.096849 0.596574 -0.283239 -0.185379 -0.268172 0.824742 0.006608 0.526380 0.502942 1.002453 0.622126 0.308489 0.157634 -0.156697 0.494853 -0.288105 -0.433872 -0.958744 -1.180659 -0.339085 -0.823748 -0.666091 -0.629333 0.649290 0.594213 -0.120565 0.801806 -0.390660 0.271190 -0.229375 0.591168 1.064704 -0.448902 -0.264898 -0.533052 0.562291 -0.635724 0.636098 -0.690473 -0.895915 -0.083841 0.652239 -1.024897 -0.542174 -1.068398 -1.422996 -0.390825 -0.530281 -0.531424 0.035729 -0.393866 -0.143102 -0.204765 0.145463 -0.789871 -0.081916 -0.948532 -0.199963 -0.525269 -0.683101 -0.738873 -1.305798 0.217832 0.380099 -0.738928 -0.278042 -0.083851 -0.324268 0.728424 0.164469 -0.292844 -0.821370 -1.412422 -1.120386 -0.543866 0.307957 -0.778976 0.738507 -0.405336 -1.081012 -1.820713 -0.571009 -0.202853 -0.261343 -0.654725 -1.515780 -1.088759 -0.459328 -1.176172 0.375673 0.254330 -0.563910 0.238581 -0.893649 0.090407 -0.233801 0.049327 0.549343 0.163543 -0.944834 0.527409 0.078365 0.119239 0.098513 0.996023 -0.239144 0.354735 -0.263609 -0.521640 -0.792215 -0.201941 -0.323671 -0.119769 -0.545584 -1.332415 -0.172437 -1.190411 0.344937 0.058478 0.027415 0.074282 -0.341397 0.566902 0.603249 -0.546738 0.936724 -0.572904 0.139801 -0.587700 0.883088 0.749830 0.066209 0.534755 -0.612701 -1.119612 -0.332553 -1.208483 -0.254327 -0.413620 -0.392307 -0.203272 -0.136924 -0.945205 0.438369 0.062328 -0.768640 -0.409059 -0.148626 0.986826 0.110939 -0.602946 -0.721221 -0.684869 0.563761 -0.224720 -0.241285 0.079651 0.406779 0.201650 0.549567 0.042357 0.003225 -0.983019 -0.487396 -0.583490 0.241975 -0.135668 -0.642227 0.125080 0.245672 1.151437 -0.000980 1.049866 1.190335 0.180490 0.588270 0.180493 0.010105 0.232280 -0.312146 0.916761 0.367735 -0.666478 1.268969 0.562932 -0.097303 -0.186214 -0.048223 0.271533 0.102717 -0.710620 -0.605334 -0.922396 -0.591295 -0.262304 0.101865 -0.063378 0.685655 0.580157 1.561635 1.409456 0.654535 0.069571 -0.682843 0.280644 -0.854732 0.776527 0.124997 -0.958902 0.773351 1.141242 0.370922 -0.425832 0.150438 0.358204 -0.499614 -0.039415 0.434527 -0.846220 -0.588159 -0.283474 0.361310 -0.449482 -0.044643 0.527684 1.139992 0.208377 0.995736 0.708974 -0.230231 1.149563 0.378207 0.685352 0.457938 -0.539732 0.499188 0.414653 0.030590 -0.302453 0.324497 0.691573 -0.385773 -0.283144 -0.769710 -0.974955 -0.711151 -0.357999 -0.161715 -0.189371 -0.211592 0.263168 0.344759 -0.411408 -0.525098 1.037712 0.756508 0.041262 0.942452 0.893203 0.289589 -0.474002 -0.978809 -0.561151 0.675307 -0.485928 -0.299836 0.408624 0.661621 0.017914 0.748458 -0.061213 0.657754 -0.604172 0.627385 -0.068466 0.805947 -0.315271 0.619254 0.559292 0.656026 1.011426 -0.087893 0.385149 0.037121 -0.405280 0.477570 -0.057216 0.111025 0.570320 -0.612394 -0.500633 -0.177747 0.820776 -0.378007 -0.081840 0.710441 -0.555033 0.290341 0.199229 1.041393 1.340681 1.509915 1.044823 0.194968 0.131626 0.858358 -0.107854 0.348648 0.349618 0.187637 0.587379 0.014954 -0.646537 0.786664 -0.806340 -0.100509 0.207509 -0.147653 0.442287 -0.746154 0.545284 -0.433867 0.754086 0.082109 0.249553 0.506971 0.630560 -0.003913 0.042400 0.324536 0.132731 0.844037 0.538015 -0.308661 -0.085383 0.513036 -0.126412 -0.139928 0.826970 0.193567 0.295051 0.252867 -0.033736 -0.459204 -0.937895 0.276301 -0.788389 -0.277533 0.039538 1.061819 -0.162408 0.316842 0.632662 0.359797 -0.353586 0.819388 -0.526531 0.450547 -0.424696 0.293439 0.142641 -0.042238 0.572034 -0.465068 0.055362 -0.234144 0.033832 -0.451941 0.341348 -0.666990 0.421934 0.975149 -0.756876 0.503665 0.254233 0.673300 0.875399 -0.936177 0.545579 0.006378 0.883793 -0.099077 -0.409458 -0.528854 0.221148 0.353486 -0.174903 -0.488699 0.235320 -0.487598 0.203606 -0.338125 0.147384 -0.397901 0.074311 -0.561848 -0.065459 -0.113151 -0.830837 -0.098697 0.772898 -0.183201 0.473293 -0.599371 -0.063252 -0.898191 0.047137 0.217871 -0.360481 -0.028455 0.739944 1.183301 0.293154 -0.114645 0.289765 -0.012048 0.912744 -0.299510 -0.016451 -0.799759 0.154224 -0.664693 -0.764640 -0.110429 0.295545 0.721785 0.219824 -0.465476 -0.303741 -0.617967 0.000962 -0.708573 0.302907 0.360659 -0.634354 -0.219480 0.968201 0.925627 -0.191865 0.327389 0.096385 0.814098 0.890197 0.100015 -0.218202 0.118021 0.758310 -0.275115 -0.428746 -0.827784 -1.022974 -0.048610 -0.691443 0.708097 0.376415 0.222842 -0.582891 -0.411482 -0.929062 0.038247 -0.480852 0.008722 -0.332937 0.426583 -0.995380 0.549453 0.316185 -0.586821 0.728561 -0.280074 0.260993 -0.752171 0.111049 0.224041 -0.570309 1.134177 -0.199871 0.265876 0.707191 -0.805102 -0.001545 0.417590 0.836840 -0.172679 -0.344912 -0.107786 0.500096 0.687778 0.214994 -0.203918 0.595287 -0.934971 -0.133724 0.113687 0.966933 0.303287 0.950485 0.145700 -0.675606 -0.173674 0.341175 0.210325 0.069474 0.645006 0.692139 0.285106 -0.290768 -0.604943 -0.565511 -0.133585 0.687918 0.715138 -0.835026 0.824243
-0.528080 0.077534 0.220127 -0.731448 -0.803548 -0.960095 0.125900 -0.833382 -0.501754 0.136558 0.465352 0.794607 0.661644 -0.640368 -0.324219 0.945784 -0.897488 -0.979725 0.141026 0.388805 -0.147392 -0.635558 -0.635897 -0.029907 0.242807 -0.591737 -0.352844 -0.169050 0.395415 -0.108817 -0.213552 -0.966274 0.297557 -0.572276 -0.812135 0.985984 0.828234 -0.326636 0.410594 0.734296 0.348665 -0.933264 -0.362740 -0.496654 0.380044 -0.964763 -1.013535 0.918483 -0.055867 -0.249197 0.534254 -0.198468 0.285900 -0.894520 0.512133 -0.632264 0.020281 -0.574226 -0.201728 -0.428613 -0.053158 0.873077 -0.561077 0.293261 -0.505374 0.479709 0.705703 0.218044 0.080195 0.709899 -0.870433 -0.230956 0.551727 -0.333207 0.408625 -0.474601 -0.240675 0.183945 0.086825 0.933040 0.024277 -0.904214 -0.938481 0.008775 0.457296 0.595377 -0.934742 -0.392615 0.533057 0.411309 -0.350141 -0.402102 -0.189113 0.874987 -0.728994 0.861458 -0.262161 -0.054666 -0.677099 0.568506 -0.669780 0.586499 -0.789509 -0.508004 0.662325 0.721975 -0.052551 0.009044 0.446968 -1.007232 0.884739 0.642534 -0.982556 -0.575036 -0.745876 -0.311716 0.132547 -0.718998 0.370383 -0.778751 0.070332 0.167872 0.532878 -0.098119 0.844258 -0.971417 -0.097063 0.474538 -0.388325 -0.597828 -0.433514 0.006635 -0.603436 -0.473603 -0.636045 -0.326952 0.852202 -0.524658 0.884264 -0.191477 -0.242404 -0.202247 0.926838 -0.178008 0.631943 0.875823 0.820719 -0.213027 -0.006259 0.669293 0.955279 -0.059283 0.218962 0.254347 -0.026407 -0.293829 -0.820200 0.423186 0.436368 -0.361624 -0.302675 -0.207450 -0.040341 0.685318 -0.056134 -0.247591 0.143002 0.156906 -0.041475 0.067219 0.804915 -0.478265 0.983296 -0.815967 -0.107637 0.584773 0.236875 0.211870 0.071713 -0.554018 0.192605 0.632977 -0.330592 -1.190919 -1.031036 0.678944 -0.592767 -0.178946 0.798564 0.084298 -0.621614 0.576739 0.506089 -0.523906 -0.304106 0.975772 -0.593035 0.126237 0.242299 0.805863 -0.439465 0.519872 0.942520 -0.171870 0.606337 0.229218 0.688364 0.768234 0.103857 -0.619840 0.213380 -0.350068 -0.967418 0.696580 -0.253161 1.101337 0.814522 0.144034 0.106379 0.525060 0.234919 -0.251707 -0.144389 -0.723776 -0.678075 -0.692391 -0.322529 0.624062 -0.006721 0.622555 0.273204 1.159211 0.920602 -0.354470 0.252471 -0.325910 0.412098 -0.140473 -0.546173 -0.947329 -0.376880 -0.009389 0.254510 0.157282 -0.714108 -0.267990 -0.001210 0.340881 0.389672 -1.300021 -0.462079 0.772614 0.236384 -0.304549 0.299919 -0.207302 -0.093907 0.694288 0.390269 -0.560115 -0.552173 0.789410 0.098665 0.391869 1.063777 -0.335098 0.886839 -0.950968 1.230510 0.827346 0.283683 0.654152 0.053513 0.326791 -0.918154 -0.644279 0.280333 -0.370298 0.666346 0.231119 -0.332527 0.248927 -0.385144 0.275079 0.004099 0.422765 0.306340 0.980420 1.016800 -0.254598 0.628962 -0.162416 0.061676 -0.526790 -0.449180 -0.327951 0.832931 0.751061 0.527111 -0.588650 0.441168 -0.476820 0.229548 -0.965382 -0.128826 0.350980 -1.096079 0.602812 0.980708 -0.550490 0.592408 0.999670 -0.933122 0.265814 -0.800497 0.044290 0.535088 0.388163 0.228592 -0.095173 -0.722827 -0.348541 -1.699221 -0.555442 0.175670 0.482184 0.674766 0.435934 0.078507 -0.252292 -0.440790 -0.155837 0.019716 -0.140249 -0.327160 -0.723229 0.183865 0.375355 -0.744176 0.272520 0.144696 0.492061 -0.247147 -0.810893 -0.378089 -0.912129 0.017520 -0.483389 -0.818672 -1.881133 -0.538872 -0.688084 0.427818 -0.083276 0.548330 -0.259917 -0.442476 0.084445 -0.621767 0.352033 0.341075 0.154592 -0.726256 0.483009 0.654317 0.950226 0.948268 0.813287 -0.353983 -0.027768 -1.148939 0.098688 -1.022946 0.309251 -1.621862 -1.701083 -0.678806 -1.396962 -0.992551 -0.573720 0.204419 0.168674 0.050634 -0.730407 0.574702 0.608386 -0.488066 0.335954 0.651018 0.677648 -0.152916 -0.476534 0.326514 -0.471298 0.962789 0.205598 -0.174490 -0.799428 -0.117576 -1.536802 -1.073636 -1.582282 -0.784091 -0.221654 -0.796369 0.686592 -0.476467 0.159501 -0.173407 -0.399650 0.596326 0.853374 -0.167637 0.279412 -0.278892 0.112575 -0.400065 0.257741 1.047357 0.387143 -0.880740 0.511117 0.422528 0.304639 0.174244 0.383225 -0.508843 -0.288367 -1.178271 -1.290714 -0.147849 -0.478447 0.142650 -0.452884 0.123833 0.109871 -0.037958 -0.340085 0.778487 0.231023 -0.448393 -0.071111 -0.789052 0.301118 -0.150941 -0.415008 0.507112 -0.365442 -0.665925 0.706163 -0.566939 0.640693 -0.055362 -0.221131 -1.357499 -0.623498 -0.510421 -0.081364 -0.413755 -0.589633 -0.040498 0.336415 0.396541 -0.331836 1.138245 0.527905 -0.642009 -0.248663 0.524050 0.305043 -0.046628 0.439230 0.191212 -0.009923 -0.197815 0.216447 -0.260156 -0.448037 0.562571 -0.234982 -0.920804 0.455016 0.136228 -0.466029 0.022011 -0.002411 0.405892 0.389821 -0.857604 0.459189 0.480180 -0.394722 -0.609043 -0.661190 0.352503 -0.215989 -0.372731 -0.230347 -0.427102 0.320315 0.515513 -0.489193 0.911241 0.938086 0.315066 0.417177 0.108015 -0.027131 -0.612334 -0.060988 -0.740211 -0.065978 -1.144872 -0.055496 -0.161641 0.101127 0.318447 0.752636 0.457232 0.531623 0.377267 0.338016 -0.029106 -0.585944 0.055651 0.496242 -0.065647 -0.906610 -0.300435 -0.057394 -0.558594 -0.938448 -0.248453 -0.116370 0.329471 -0.071179 0.859471 0.270489 -0.378506 0.234705 -0.947854 0.398568 0.261851 0.715527 0.151856 -0.304508 0.628709 0.249788 -0.321135 -0.142263 -0.607053 -0.613868 0.548108 -1.043810 -0.875744 0.306716 1.141674 0.184150 0.263942 0.490300 0.415910 -0.520455 0.679627 -0.976187 -0.784086 0.038464 0.164690 0.560032 -0.891614 -0.017056 0.475468 -0.467656 0.150746 -0.386129 0.675339 -0.764755 0.544091 -0.589432 -0.084807 -0.117708 -0.745619 0.917527 -0.071730 0.316198 0.270267 -0.422893 0.182577 0.282984 -0.057338 0.483793 -0.890507 -0.137094 -0.069359 -0.691810 -0.836249 0.261355 -0.241728 0.243259 -0.064967 0.053133 0.664273 0.325153 0.328771 -0.427444 -0.529292 -0.010039 -0.130519 -0.230362 -0.464911 0.173862 0.024387 0.117190 0.666786 -0.225964 0.916801 0.399888 -0.245897 0.489659 0.256696 -0.814453 -0.750477 0.508185 0.963988 -0.539731 0.305517 -0.230836 -0.155315 -0.067043 0.715837 -0.702280 -0.196865 0.182762 0.942338 -0.497168 0.034512 -0.496344 -0.048268 -0.547520 0.016632 0.151841 -0.694396 -0.145091 -0.217522 -0.091161 -0.365777 -0.327524 -0.589972 -0.075143 0.125016 -0.090002 0.142704 0.942673 0.036405 -0.670081 0.698363 -0.595112 -0.085966 -0.417763 -0.092365 0.208733 -0.316311 -0.597936 0.404010 -0.181840 -0.445127 0.524480 0.446560 -0.330462 0.170567 0.861991 -0.400250 -0.182714 0.413374 -0.113584 0.989163 0.695149 -0.681724 -0.200476 -0.496249 -0.556335 0.355586 -0.196094 -0.584689 -0.791601 0.355720 0.719200 -0.818729 -0.142885 0.854769 0.060728 0.273186 0.012816 0.170229 -0.248215 -0.966303 -0.038972 -0.871441 -0.962256 -0.184409 -0.169360 0.694517 0.327011 -0.237153 -0.713414 0.786179 -0.144038 0.582516 0.471517 0.319303 -0.680624 -0.380174 -0.040043 -0.593712 0.205761 0.832072 0.209410 -0.625517 0.588068 -0.740560 -0.456969 -1.234632 -1.160212 -0.482377 -1.019131 0.318899 -0.000237 0.881588 0.824126 -0.419847 -0.201777 0.439099 0.319223 -0.825612 -0.439204 0.181507 -0.689701 -0.130491 0.058981 0.516310 0.603705 -0.100341 0.092811 0.047364 -0.518010 -0.709628 0.712200 0.379837 0.514644 0.145528 0.007547 0.600779 -0.805048 0.904718 -0.540816 -0.270475 0.380414 -0.288494 -0.105690 0.329861 0.871877 -0.921865 -0.752845 0.292675 -0.537746 0.382072 0.643332 -0.689973 0.202464 0.881579 -0.321390 -0.505304 -0.549053 -0.558535 0.677501 0.034605 -0.877940 -0.740591 -0.473587 0.862145 0.724596 0.685693 -0.442121 -0.246604 0.132275 0.410247
