layer
0.854324 0.063653 -0.781328 -0.707935 0.017577 -0.568699 0.832887 -0.075695 -0.735465 0.528483 -0.574533 -0.851483 -0.809162 -0.685305 -0.308265 -0.809292 -0.713470 0.862026 0.153168 0.679290 0.246584 -0.350965 0.456023 0.045473 0.473623 -0.669188 0.374117 -0.146378 0.457115 0.512671 -0.204777 0.850400 -0.592979 -0.983995 0.852698 -0.411905 -0.670393 -0.969096 -0.116872 0.584971 -0.269750 0.209523 -0.950776 -0.312172 -0.890129 0.396334 -0.986142 -0.096159 0.894144 -0.359448 -0.074952 -0.791222 0.005739 0.771380 0.068755 -0.437046 -0.290831 0.792560 -0.517022 -0.952485 0.931688 -0.140742 -0.309231 0.138995 -0.679001 0.877695 -0.405407 0.863098 -0.597409 -0.784051 0.257247 -1.550816 -0.365109 -0.362303 -0.834593 0.078384 -0.858252 -0.960599 -0.978200 -0.263860 0.122095 0.721944 0.570739 -0.490595 -0.835490 -0.684488 -0.581014 -0.165799 -0.304956 0.398682 0.422484 -0.758844 -0.697586 0.609040 0.949802 -0.545408 -0.109183 -0.183066 -0.973524 -1.462479 -2.042299 -0.841637 -1.363456 -0.092052 -0.301328 0.105337 0.312759 -0.574776 -1.026902 -0.588534 -0.949481 0.869578 0.564184 0.035188 -0.967083 -0.402642 0.077969 0.717692 -0.461823 -0.641620 -0.509833 0.272890 -0.370690 -0.110328 1.432087 0.930016 0.987353 0.234136 0.325434 -0.164253 -0.258662 0.407725 -1.008561 0.537205 -0.072442 0.082074 0.660638 0.030548 0.646198 0.591009 -0.724271 0.080609 -0.065829 -0.564331 -0.127252 0.084698 -0.064821 -0.739766 0.363931 1.283579 -0.035648 -0.156079 0.572097 -0.782242 0.828156 0.634450 -0.017310 -0.178914 1.036961 0.396712 -0.173616 0.383723 -0.615426 -1.000198 0.201516 0.056130 -0.405882 -0.193471 -0.840044 -0.295757 -0.997989 0.265996 -0.670093 0.210527 -0.202399 -1.011173 0.516814 0.743808 -0.257939 0.601612 -0.051932 0.552435 -0.391049 0.118970 -0.668284 0.495613 0.195245 0.834900 0.960426 -0.038285 0.454580 0.608950 -1.436042 0.089530 0.001021 0.994456 -0.613314 0.985628 0.333250 0.667925 -0.239738 0.683985 0.444321 -0.054761 0.490733 -0.956649 0.015833 0.491659 0.122899 0.147666 0.246974 0.692181 -1.279256 -0.239057 -0.310496 0.123984 -0.098846 0.299586 -0.097219 1.017373 -0.488909 0.564544 0.467424 0.128837 -0.607525 -0.819168 -0.585958 0.081044 0.314159 0.138178 -0.716901 0.562057 -0.923936 -0.358857 -0.000860 -0.687973 -0.193776 0.187903 0.490218 0.119903 -1.180611 1.698915 -0.547809 -0.171450 0.260049 0.171606 0.283507 -0.275098 0.998627 0.886302 -0.377761 0.456913 0.169531 0.359971 0.156419 0.224370 -0.500117 0.748414 1.321137 -0.867491 -0.206695 0.378233 0.620480 0.493391 -0.530664 -0.260999 0.341880 0.154226 -0.642558 -0.469785 -0.497385 -0.519220 -0.176404 -0.574217 -0.666550 0.623967 0.866673 0.548746 0.954899 -0.753230 0.242114 0.675493 0.379344 0.174517 0.889722 0.680359 -0.525642 -0.108201 -0.642843 -0.340844 -0.861999 0.030747 -0.935500 -0.436625 -0.172150 0.440986 -0.471626 0.278761 -0.353943 -0.373455 -0.170975 -0.583412 0.932951 -0.752948 0.196820 1.884634 1.089222 0.292974 0.321424 -0.712333 -0.392066 0.743773 0.832032 -0.337446 -1.622766 -0.581583 -0.680749 -0.368645 0.111185 -0.521105 0.371127 -0.083315 0.314486 -1.371799 0.574380 -0.609824 0.013768 -0.834957 -0.959472 -0.809614 -1.062883 -0.499951 -0.509359 0.079027 1.430569 -0.814478 0.936283 -0.666368 -0.120589 -0.688641 0.624706 -1.389386 -1.653826 -1.593730 -0.616936 -0.489947 -0.153042 -0.930076 0.686318 0.965954 0.341412 -0.828666 -0.277171 -0.565080 -0.284867 -0.873378 -0.852018 -1.424792 -2.093249 -0.941368 -1.951144 -0.304474 0.622320 -0.473611 -0.610575 -0.667943 0.254528 -0.892348 -0.535948 -0.044205 -0.319865 -1.172921 0.549896 -0.232768 0.279879 0.235820 1.523448 0.968583 -0.471366 -1.415089 -0.792192 -0.590900 -1.079763 -1.235459 -0.787228 -1.600271 -2.177014 -0.529339 0.167762 -0.361054 -0.428935 0.643866 0.857309 -0.090068 0.948788 0.393308 0.231266 -0.195924 -0.222438 0.513853 -0.482439 -0.477335 0.223763 1.366539 0.446283 0.455912 -1.788688 -0.965408 -0.581844 -0.551546 -0.206176 0.107878 -1.007865 -0.550889 1.130396 -0.541979 0.801076 0.672916 -0.679029 0.733810 -0.100599 0.955496 -0.888397 -0.679880 -0.805931 0.599574 0.972343 -0.101275 0.418360 -0.161310 1.630793 0.645204 -0.321938 -0.311448 -0.393763 -1.121322 -0.156378 0.099768 -0.982026 -0.076135 -0.562450 1.240505 0.690369 0.204248 0.863568 0.557488 0.821135 -0.067908 0.872645 0.064084 -0.097803 -0.343185 -0.048281 -0.080715 0.923702 0.877674 -0.450476 0.810343 1.481480 -0.401967 0.253362 -0.880269 0.603839 -1.454781 0.097319 -0.460593 -0.017077 0.137604 -0.143743 0.691751 0.102252 0.508291 2.083513 0.730234 0.376854 0.305370 -0.594953 0.441036 0.694554 0.182719 0.534647 1.840560 1.725248 1.030410 0.040694 0.253142 0.789444 -0.075362 0.186111 -1.514791 -0.511440 -0.771458 -0.251437 0.184848 -0.012895 1.344569 0.547271 1.715458 -0.264089 2.041337 2.421112 0.940875 1.044503 0.441353 -0.572516 0.482824 0.955314 -0.139484 -0.423123 0.594753 0.537170 2.634112 1.011410 0.140896 0.215513 -0.610117 -0.791931 0.140380 -1.018970 -0.825802 -0.023583 1.485361 0.657721 0.909069 0.745450 0.388139 0.420336 2.121674 1.604691 1.226644 -0.021556 -0.727009 0.260483 0.899910 -0.925770 -0.054950 -0.443966 0.403209 0.762718 1.330381 0.666739 -0.155338 1.355527 0.655587 0.829783 -0.050018 -0.216833 0.146971 0.437270 0.336029 -0.536067 0.233959 -0.320076 0.824296 0.605942 1.662873 1.611686 1.204709 0.655071 0.639521 0.836075 -0.824681 -0.734284 0.515492 1.269608 0.566147 1.969358 1.606792 0.215352 -0.214219 0.429130 0.734487 0.576781 0.283618 0.439743 -0.552310 0.243032 -0.522366 -0.055404 1.453349 0.935717 0.107311 0.247155 0.982385 1.140242 -0.147828 0.379480 0.230624 -0.863721 -0.226803 0.071025 0.904195 1.255632 0.274634 0.367061 0.023089 0.764979 0.469159 0.555829 0.399979 0.304473 0.715686 -0.722482 -0.057643 -0.211362 -0.037091 -0.107901 0.758348 1.340047 0.677464 1.412886 0.842780 -0.034647 -0.890305 -0.102193 0.076303 -0.435925 -0.475564 -0.086124 -0.071845 0.672538 -0.270364 0.934992 0.034564 -0.312900 0.622604 1.293788 0.618046 1.166914 0.255019 0.169091 0.446172 0.179842 0.065713 0.142245 0.084594 -0.310451 -0.692349 1.221278 0.159656 -0.877353 -0.597254 -0.205740 -0.433714 0.083145 0.521270 0.813584 0.736410 0.526836 -0.206054 0.236363 1.135104 -0.318843 0.091392 0.254831 0.198161 -0.097127 0.415308 -0.801836 -0.050477 -0.125877 0.211037 -1.241352 -0.409968 -0.032586 -1.285733 0.497353 1.005354 0.445737 -0.569474 0.342598 0.202989 0.655955 0.692993 0.110091 0.557434 0.262471 -0.900516 0.340571 -0.110441 -0.763247 0.137906 0.476899 0.167585 -0.035529 -0.017061 0.697322 -0.016067 -0.584801 -0.225042 -0.682468 -0.510833 0.110370 -1.076201 -2.052423 -0.869091 -0.549148 -0.413655 -0.247468 0.009506 -0.874569 -0.773407 0.897674 0.543412 -0.705622 0.371098 0.820249 0.317580 -0.109251 -1.069713 -0.594620 -0.276629 -0.147423 0.906358 -0.226574 0.158967 0.267719 0.357269 -0.617597 -0.831274 -0.735628 -2.158506 -0.148353 -1.193829 -0.011320 -0.245324 0.504981 0.308088 0.841894 0.348344 -0.543165 -0.127617 0.022088 0.942487 -1.034542 -1.028803 0.107055 -0.341367 -0.764782 -0.341056 0.157270 -0.954298 -0.720053 -1.021395 -0.768749 0.102960 0.475663 -0.485695 -0.494148 -0.242543 -0.798679 -0.350011 0.440488 -0.084352 -0.857401 -0.329703 0.220130 0.404846 0.739614 -0.988978 -0.402586 0.498266 0.726299 0.791204 -0.206582 -0.129976 -0.229907 -0.522602 -0.645193 -0.948209 0.510570 0.835869 0.557450 -0.683161 0.499528 -0.662809 -0.343767 0.177573 0.355376 -0.256062 -0.468440 0.888518 -0.391106 0.169059 -0.150890
-0.622610 -0.165902 0.521678 0.725099 0.031503 -0.417304 -0.569821 0.916280 0.995603 0.099581 0.494764 0.472113 -0.400188 0.717538 -0.315475 0.586617 -0.052098 -0.486213 -0.808737 -0.788532 -0.474149 -0.207093 0.480956 -0.364138 -0.008892 0.710904 0.982960 -0.904964 -0.799923 -0.548548 -0.283321 -0.716081 0.569621 -0.255069 -0.876317 0.448067 -0.300144 -0.019839 0.416157 0.087773 -0.501068 0.503834 -0.146901 0.905753 0.987376 -0.930095 -0.043143 -0.837204 -0.156025 -0.696826 0.120008 0.329082 0.898752 -0.326055 0.016820 0.750220 -0.497600 0.296280 -0.670554 -0.294703 0.581949 -0.914463 0.267470 0.527322 0.650625 -0.134759 0.296862 -0.916827 -0.203059 0.358404 0.540803 -0.214853 -0.439236 0.594526 -0.574166 -0.722603 0.191656 0.141670 -0.872987 -0.085641 -0.432194 0.008633 -0.190794 0.929163 0.053565 -0.652004 -0.267331 -0.287440 -0.199404 0.909724 0.959422 0.850733 0.257357 -1.384647 -0.437351 0.226943 -0.762478 -0.562643 -0.798078 -0.233776 0.143571 -0.038474 -0.665399 -1.058202 0.223628 -0.563248 -0.087757 -0.162184 0.482506 0.119606 0.395984 0.673666 0.058909 0.902929 -0.374952 0.510026 0.057226 -0.842002 -0.550435 -0.105582 -0.390742 -1.477995 -0.865350 -1.447286 -0.624241 -0.764199 -0.057711 -1.192254 -0.152442 0.263458 -0.266273 -0.213087 0.044019 -0.895981 -0.630427 0.420751 0.805519 -0.259446 0.594531 -0.096652 0.183034 0.096747 -0.404294 0.586834 0.131608 -0.438868 -0.025686 -0.390453 -0.748584 -0.988970 -1.637333 -0.418568 0.772435 0.216867 -0.593939 0.110129 1.075223 -0.186552 0.838497 0.976617 0.859216 1.424394 0.257282 1.219195 0.357511 0.359987 0.815055 0.874371 -0.123694 -0.894574 0.095026 -0.560944 0.792250 0.381693 0.190351 -0.918003 -0.180985 -0.333950 -1.413492 0.964690 0.100645 0.061154 0.641714 0.979350 -0.478030 -0.789914 -0.419053 0.151285 -0.119479 0.299997 0.394063 0.556119 0.564946 0.247860 -0.337688 1.029847 -0.686548 0.437523 0.301253 0.562248 0.118292 -0.061727 -0.558861 0.092846 0.105321 0.113790 -0.622391 -0.169856 0.586614 -1.404271 0.066435 -0.389722 0.866459 -0.239487 0.219941 0.275994 -0.220969 0.200633 -0.455995 -0.582810 0.776092 1.060483 0.721556 -0.474894 0.416144 0.566457 -0.148248 0.618823 -0.305737 0.116040 -1.448597 -0.748837 0.857489 0.098541 0.241004 -0.548508 0.132294 0.946747 1.402642 -0.732179 -0.011554 -0.271848 0.329014 -0.907699 0.858549 -0.661124 0.392637 0.250289 1.233663 1.203907 1.531004 -0.405760 0.764792 0.598250 0.211494 0.697823 0.696119 -0.742514 0.191201 0.544276 0.228714 -0.413452 -0.242756 -0.461280 0.257077 -0.791361 -0.355325 -0.390305 0.048388 -0.508453 -0.465105 0.084795 -0.222982 1.457789 1.149514 0.952669 1.179349 2.152713 0.912779 0.547991 -0.429102 0.656578 -0.516913 -0.928553 -0.519442 -0.254540 0.101331 0.639468 0.130987 -0.729272 -0.256277 -0.726454 0.217109 0.144352 -0.684689 1.096808 -1.161823 -0.181530 0.077658 -0.491994 -1.090844 -0.170081 -0.007478 -0.025321 1.970074 1.352920 1.367484 0.796016 0.440299 -0.514980 -0.380201 0.466954 0.421600 -0.023613 -0.592840 0.785944 -0.648399 0.272742 -0.000814 -0.084374 -1.089921 -0.386562 0.959643 1.505053 -1.756127 -0.954773 -1.938898 -0.598847 -0.080560 -0.712599 -0.537410 -1.130698 1.960154 1.648159 0.982684 0.911968 -0.814268 -0.140199 -0.348610 -0.331184 0.023045 -0.508627 -0.845840 -0.270005 -0.740481 -0.801689 -0.482631 -0.691347 -0.458336 -0.167196 0.607263 1.526168 -0.261674 -1.620180 -0.718824 -1.736583 -1.330062 -0.971443 -0.930498 -1.016017 0.703204 1.225314 0.306488 0.131032 0.029389 0.105425 -0.218619 0.373099 0.614994 -0.291979 0.464305 -1.282414 -0.422579 -0.167585 0.214686 -0.662249 -0.005809 0.248558 1.559146 -0.033452 0.127038 -0.538612 -0.719694 0.142951 -0.646384 -0.130036 -1.084609 -1.310330 -1.139743 0.120409 0.720749 0.633836 0.369645 0.161871 0.256979 -0.586921 -0.834620 -1.756298 -0.827288 0.502369 -0.266321 -0.966330 0.671441 -0.500534 0.012693 0.453394 0.875526 0.109256 -1.043837 -0.673758 -0.745632 -0.444971 -0.713682 -0.199805 -0.146697 -1.034698 0.147451 -0.452463 0.824951 -0.169822 -0.767611 -0.555962 -0.549756 -0.213164 0.514392 -1.081544 -0.737123 -1.043179 -0.961014 -0.343496 0.006047 -0.181231 -0.270271 1.665253 0.226255 0.209204 -1.765130 -0.632235 -1.234666 -0.993159 -1.057801 -0.168485 -0.266369 -1.145856 -0.638644 0.339530 -0.409295 -0.465710 0.141057 -0.535773 0.549681 0.168721 0.098150 0.280634 0.981869 -1.710956 -0.730455 -0.261141 -0.254966 0.579796 0.051620 1.421435 0.104098 -0.241360 -1.477412 -0.589764 -1.259858 -0.643372 -0.950848 -1.815316 0.297231 0.240821 -0.754174 -0.510148 -0.578426 0.715457 -0.188201 -0.122923 0.608864 -0.858993 0.723145 1.074768 -0.008740 1.556367 -0.909438 -0.185192 -0.220907 0.497747 -0.084744 0.350246 -0.110292 -0.270926 -1.711952 -0.412988 0.031983 -1.252386 0.379980 0.450477 -0.795599 0.889771 0.804544 -0.896881 0.035405 -0.109904 -0.069034 -0.596714 0.285690 -0.614598 0.669283 -0.232622 -0.464332 0.465269 1.653367 1.911487 0.239925 -0.504159 0.395047 -0.366447 0.221948 -0.647208 -0.831456 -0.839797 -0.213524 0.278428 0.129069 -0.312338 -0.706228 0.230966 -0.333408 -0.302616 -0.019909 0.520516 -0.354341 0.010301 -0.186492 0.761374 1.185610 0.811054 0.582671 -0.240023 -0.061001 0.250488 1.337128 1.144697 0.266138 0.114860 -0.230991 -0.462356 0.217560 0.089351 1.112781 0.442734 0.064036 -0.686090 0.930193 0.934991 0.783500 -0.400956 -1.332837 -0.389130 -0.709667 0.241548 0.919283 0.372725 0.303034 0.294963 0.520890 1.030882 0.074311 1.064706 1.244071 0.986612 1.382844 0.427273 0.584963 0.113311 0.132758 0.040112 0.231385 0.257103 0.562367 1.811803 0.022540 0.560269 -0.737491 -0.668292 0.001871 0.757743 -0.717897 0.787753 0.455404 -0.114270 1.213075 1.384273 0.860383 0.296627 0.430076 1.288898 0.569519 0.949647 0.593768 1.411909 2.063756 0.893709 1.571878 0.264495 -0.286029 2.101158 0.499615 1.024032 0.676093 1.087491 -0.372560 -0.576704 0.399314 -0.855864 -0.371889 -0.932681 -0.035746 -0.198193 0.593657 0.299154 1.417259 1.843123 0.829231 -0.476330 0.328520 0.587324 0.944219 0.931671 0.753021 0.910397 1.781419 0.544556 1.943133 0.424617 1.633206 1.304428 1.435012 -0.029067 -0.644632 0.452352 0.722036 0.945730 0.195114 0.380581 0.748996 0.602669 -0.213234 1.640041 0.705363 0.839948 -0.164358 -0.174286 0.575984 0.020869 0.624149 1.135073 1.288800 0.648874 0.984005 1.712431 1.333274 1.597279 1.486622 1.738951 0.213762 0.686955 0.485561 0.391981 -0.267830 0.238046 -0.249079 0.639185 -0.300374 0.032155 0.395182 -0.215607 -0.340318 -0.821058 -0.706595 1.486397 -0.008825 0.989044 0.635328 0.005651 0.555086 2.092629 0.269766 1.145540 -0.339020 0.174795 0.733020 0.831917 0.158252 -0.579372 -0.188747 0.589389 0.955050 0.985429 0.864922 0.895126 -0.107236 -0.188744 -0.028374 -1.323493 -1.678189 -0.371627 -0.700243 -0.461967 0.417922 0.869820 0.180052 0.413052 -0.115305 0.367467 0.296475 0.542188 -0.477713 -0.039990 -0.335649 -1.322014 0.338292 -0.278742 -0.455761 -0.274674 0.240611 0.114678 -0.655563 0.380801 0.687398 -0.669490 0.243926 0.883691 -0.889283 -0.221567 -0.999886 -0.132644 -1.852047 -0.727347 0.119784 -0.155968 -0.096718 -1.466536 -1.461761 0.365826 -0.474200 0.505035 -0.147972 0.017712 0.086419 -0.302767 0.067341 0.708732 0.762519 0.926898 0.210653 0.494275 0.566322 -0.499578 0.706968 0.891005 0.080754 0.855694 0.038307 -0.527563 -0.242210 -0.334437 0.096780 0.856904 -0.440420 0.365078 0.920851 -0.013154 0.891427 -0.627233 -0.183295 -0.275608 0.901227 0.794839 0.199113 -0.137962 0.260533 -0.040304 -0.178594
0.030372 0.446115 0.192575 0.217378 -0.230969 -0.530064 -0.224864 0.941861 -0.032816 -0.176131 0.124683 0.687734 -0.565739 -0.008535 -0.404651 0.458307 0.612567 -0.037817 -0.320348 0.033795 -0.852633 -0.287106 0.424085 -0.622496 0.031794 -0.782112 -0.671400 -0.498586 -0.048409 -0.053785 -0.662073 -0.977622 -0.330914 0.321804 -0.687597 0.359354 -0.787392 0.822814 0.505373 0.862477 0.961348 0.303277 -0.346400 -0.601740 0.977344 0.031552 0.197924 0.425887 0.456364 -0.924017 -0.574255 -0.977094 -0.788997 0.651057 -0.963986 0.146148 0.913041 0.589467 -0.846549 0.934088 0.421815 0.303731 -0.335922 0.908521 -0.663565 0.313305 0.750677 -0.031256 0.079593 1.033941 -0.230057 0.677855 0.486778 0.308528 -0.261641 0.874925 -0.454758 0.009814 -0.745349 -0.651017 -0.271256 0.082219 -0.236717 -0.576460 0.746239 0.804622 0.634639 0.291959 -0.199164 -0.512820 0.365526 0.411511 -0.842827 0.061424 0.267285 0.902323 1.272820 -0.374465 1.042801 -0.178006 -0.334553 -0.176497 0.369965 -0.470140 0.115745 -0.662823 0.225358 0.330442 -0.759109 -0.939112 0.061922 -0.242870 -0.433071 -0.216199 -0.212855 0.057550 -0.751070 -0.595309 -0.635443 -0.197205 0.046896 -0.591763 -0.236020 0.075608 -0.584960 0.178262 0.388840 1.110159 -0.290650 -0.236650 0.172521 1.076520 0.399155 0.903074 0.843488 -0.589447 -0.065750 -0.379477 -0.031766 -0.384975 0.800914 0.053634 0.962277 0.610401 0.693288 0.612688 0.895160 0.322126 0.716678 0.608579 0.845574 0.046565 -0.306216 -0.468917 0.624844 0.699205 1.098990 1.060560 1.096965 0.692334 0.751710 0.348038 1.239698 1.139319 0.440790 0.756235 -0.335465 0.156418 0.291666 0.079476 0.145684 0.622846 0.799785 0.079480 -0.155742 0.277463 -0.578788 -0.321867 -0.227757 0.677809 -0.390017 1.001793 -0.638890 -0.643190 -0.374264 0.173017 0.446605 1.432916 0.640755 0.425982 0.196086 0.583861 0.619534 1.034189 0.763644 -0.167609 -0.235958 -0.144942 -0.967398 -0.586859 0.016572 0.568691 -0.897977 -0.293725 0.289206 -0.402850 -0.211344 0.771801 0.621063 -0.891744 0.000244 -0.001951 0.041873 0.769205 0.384081 1.046913 0.301204 -0.296717 0.621978 0.469619 0.126560 -0.807346 0.835263 -0.020428 -0.876824 0.390720 0.051649 -0.295133 0.316301 0.698356 0.777330 0.299641 0.955277 0.656560 -0.156873 0.187702 0.059333 -0.269190 0.500309 -0.573248 0.416289 -0.034011 0.537625 -0.217358 0.240962 -0.696268 -1.001361 -0.430205 -0.042215 -1.058780 -0.080845 -0.758824 0.661661 0.041373 0.869178 -0.716691 0.412924 -0.353656 0.163704 0.961244 0.218453 0.493094 0.573401 0.144239 -0.133215 0.160649 -0.510334 -0.214033 -0.604000 -0.339137 -1.292504 0.388773 -0.016867 0.250376 -0.222749 0.947800 0.554013 -0.513634 -1.201706 -0.363089 -0.462673 0.816304 -0.002511 0.963832 1.026274 -0.200493 -0.450874 -0.461968 0.130924 -0.095312 0.137475 -0.440390 -0.612906 0.149459 -0.093748 -0.061892 -0.971629 -1.314193 -0.704691 -0.782969 -0.647871 0.203654 -0.436303 0.308587 -1.101226 -0.812051 -0.549137 0.345789 0.831782 0.267418 0.605500 -0.375862 -0.743511 0.872025 1.137615 0.192601 0.451150 -0.060154 0.818106 -0.534812 0.506639 0.694191 0.158731 0.075141 -0.376205 0.322863 0.306342 0.519643 -0.964244 -0.081708 -0.026738 -0.843337 -0.401127 -0.800009 -0.503538 -0.041205 -0.836416 -0.887247 -0.004055 0.070358 -0.519209 -0.229350 0.294928 -1.142818 0.032315 0.761219 -0.319964 -0.086090 0.644734 -0.517612 0.877578 0.274446 -0.725875 0.090273 0.700117 0.649159 0.976427 -0.275983 1.100289 0.123780 1.034876 0.692018 0.196399 0.938131 0.925928 -0.840666 -0.462446 -0.968891 0.572374 0.764615 -0.088922 0.470710 -0.695057 0.695247 0.822778 -0.349979 0.286912 0.526938 -0.519477 0.200615 1.156757 0.757778 0.808551 0.914545 -0.086979 1.065328 0.414234 -0.121313 -0.404443 -0.440803 0.547606 -0.654203 -0.570627 0.922906 -0.434047 -0.542356 0.739869 -0.240465 -0.734737 -0.216996 -1.054933 -0.322123 0.133364 -0.745838 -0.793424 0.468678 -0.353141 0.281472 -0.671598 -0.120342 -0.159984 -0.668959 0.257323 -0.674070 0.582663 0.354396 0.291976 0.775432 0.637417 -1.091233 0.149886 0.939570 0.100167 -0.095107 -0.392247 0.182524 0.594783 -0.347398 0.777611 -0.770213 -0.676090 0.374224 -0.667598 -0.276773 0.453641 0.944411 0.506406 -0.452396 0.802185 0.870776 0.415294 -0.181706 0.058142 -0.218139 0.754678 0.247617 -1.194652 0.267055 0.142438 -0.266377 0.076761 0.923402 0.278470 -0.361733 0.085082 -0.114887 -0.912153 0.289019 0.329610 -0.377659 -0.649846 0.278809 0.370818 -0.508755 -0.480130 0.629778 -0.117879 -0.018600 0.503488 -0.063053 0.543973 0.125126 0.216598 -0.866590 -0.498031 0.712646 0.006785 0.491328 -0.892470 -0.776571 0.635623 0.720958 -0.225628 0.172930 0.596533 0.055059 -0.697335 0.316842 -0.340156 -0.633453 -0.153282 0.623339 0.504582 0.188667 0.177397 0.254479 -0.009449 1.270582 -0.076839 -0.604515 0.062751 -0.672552 -0.778491 0.206827 0.385391 -0.997875 -0.184653 -0.461751 0.044344 -0.733402 -0.127817 0.221213 0.204820 -1.058057 -1.123288 -0.168576 -0.273825 -1.374286 -0.459231 -0.985432 0.363879 -0.031442 0.814239 0.607214 0.022398 0.609900 0.799193 0.627931 -0.036529 -0.114367 0.294069 -0.208029 0.002508 -0.087234 0.717481 0.666612 -0.107814 0.036282 -0.732353 -0.179162 -0.494069 0.549900 -0.927265 0.725522 -0.214463 -0.690481 -0.168757 -0.403575 0.969196 -0.509286 0.054586 -0.019793 1.004316 -0.368501 0.189733 0.258744 0.873230 0.360124 -0.867361 0.982768 0.775223 -0.265495 -0.151178 -0.617543 -0.538065 0.208886 0.480186 0.753054 0.575003 0.823637 0.282418 1.288145 -0.353021 0.703077 -0.027051 -0.072252 0.813441 -0.098526 1.010806 0.089950 -0.199406 0.271761 0.368267 -0.944950 -0.374741 0.835924 0.440980 0.050298 0.214207 0.551700 0.913077 0.787507 -0.659330 1.113371 1.098113 0.842978 0.881933 1.292560 -0.539273 -0.532384 0.132571 0.377444 0.731038 0.447826 0.742529 -0.526437 0.897053 -0.579119 -0.207795 -0.325165 0.099672 0.467132 -0.723618 0.667018 -0.356844 0.195378 0.721718 -0.540919 0.629323 0.420553 -0.252835 0.987846 0.860634 -0.172064 -0.273599 0.613281 1.239995 1.134369 0.101649 0.177616 0.850973 0.214928 0.330016 1.021950 0.588840 0.537966 -0.173364 0.030118 -0.929278 0.092693 0.614186 0.447740 -0.639229 -0.626401 0.257091 -0.972738 -0.813492 0.240651 -0.143180 -0.558493 0.618181 -0.153918 1.142030 0.690527 0.510166 0.549533 1.033008 1.246727 0.255623 0.406982 0.546350 -0.276482 0.589408 0.260158 -0.388321 -0.619951 -0.046771 -0.555120 0.286649 0.131878 -0.934119 -0.685326 0.847123 0.270531 0.162575 -0.581199 -0.943967 0.896778 -0.023482 1.260991 -0.361343 0.752260 0.678411 -0.022372 -0.115832 0.351286 -0.491518 0.617283 -0.222082 0.585649 0.434788 -0.623742 -0.463239 0.294573 -0.228854 -1.037038 -1.096338 0.559344 -0.456711 0.914066 0.620338 -0.927800 -0.199028 -0.994081 -0.636627 -0.123528 -0.781587 -0.589708 -0.353545 1.324890 0.678019 0.739311 0.461800 -0.106460 0.248945 -0.369797 -0.024651 -0.810993 -0.572459 0.951428 -0.463838 -0.896355 0.132044 -0.575806 0.382526 -0.555401 -0.151093 -0.085748 0.685242 0.813180 0.273990 -0.720328 0.097446 0.558282 -0.845413 -0.539991 -0.393477 0.065247 -0.042905 -0.994801 -0.927182 0.170762 -0.654013 0.407320 -0.457108 1.057211 0.545381 -0.075467 0.784525 0.122471 0.933863 0.271858 -0.734469 -0.217218 0.892210 0.997613 -0.699119 -0.419085 -0.809585 0.293189 0.093050 0.777257 0.396526 0.536040 -0.188095 -0.406961 -0.418819 -0.008099 0.378634 -0.084267 -0.758591 0.407921 0.699660 0.542440 -0.622692 -0.254930 0.063127 0.133241 0.222685 -0.105725 0.758154 -0.260401 0.743080 -0.487815 0.996366
-0.526004 0.073275 0.128614 -0.571282 -0.602640 0.139570 -0.418757 0.902778 0.853047 -0.595475 -0.083758 0.194062 0.266002 -0.282602 0.663191 -0.051867 -0.117440 -0.763257 0.191562 0.097429 -0.775549 -0.298515 0.795355 0.153109 0.584167 -0.203065 0.984232 -0.880466 -0.737274 -0.982137 0.928136 0.904563 0.374377 0.170809 0.350942 -0.061724 0.355212 0.473651 -0.494558 0.958675 -0.118415 0.379994 -0.364109 -0.431485 -0.000347 0.303167 -0.164250 -0.563929 -0.020509 0.972370 0.802610 0.743525 0.756880 -0.003562 -0.912432 -0.729476 0.057741 0.808461 -0.403694 -0.317480 -0.215043 0.206400 -0.514466 0.358556 -0.837741 -0.708540 0.822075 -0.398631 0.328120 -0.873780 0.788374 -0.754073 -0.902248 0.358557 -0.094922 -1.015799 -0.506924 -0.566124 0.572393 0.281153 -0.271431 0.684631 -0.111883 -0.889018 0.719403 -0.961715 -0.206273 0.434365 -0.171187 0.785764 0.359694 -0.056415 0.438697 -0.755133 -1.242223 0.231994 -0.152436 0.754825 -0.185482 -0.581193 0.407554 -0.471179 -0.409800 -1.258169 -0.062987 0.404080 -0.648916 -0.290312 0.061874 0.111766 0.866393 -0.829843 -0.500444 -0.389597 0.884955 0.239024 0.193027 -0.612138 -1.076150 -0.608245 0.439457 -0.070119 -0.532268 -0.235854 0.659339 -0.385946 0.355308 1.110487 1.648991 1.002409 -0.370253 0.864146 -0.071342 -0.773668 -0.365496 -0.936229 -0.034022 0.838062 0.027007 0.152396 0.569556 0.285789 0.350480 -0.859905 0.739364 -0.310981 0.477934 -0.121826 -0.653792 0.103616 -1.767704 -0.501073 -1.109310 -0.439659 -0.105145 -1.648854 -1.110993 -1.277977 -1.239471 -0.368300 -0.525275 -0.032204 -0.182414 -1.077676 -0.870493 -0.887659 -0.780711 0.786246 -0.373483 -0.547559 0.877059 -0.764650 1.072285 1.020826 -0.055393 -0.366133 -0.248742 -0.633520 0.657050 0.467751 0.059122 0.159548 -0.462971 1.772760 0.182439 1.025011 0.830607 0.322200 0.983214 0.125373 0.111966 -0.271938 -1.909446 -1.545183 -0.402145 -0.518965 0.640969 -0.230094 0.537586 0.250192 0.441864 -0.409393 0.674795 -0.381371 1.047295 -0.846217 0.231797 0.501926 0.827338 1.699677 1.069501 1.881011 0.242108 1.220759 1.849886 1.717226 0.212659 2.080042 1.503374 -0.270340 -0.041139 -0.077362 0.493017 -0.291574 -0.442019 -0.513600 -0.255749 0.491744 0.470963 0.238063 -1.108271 0.269756 -0.611729 0.787511 -0.004742 -0.347829 1.632073 1.674214 1.292579 0.549750 0.701024 2.083566 0.020263 0.080113 0.296319 0.534358 -0.249533 0.390601 0.470252 -0.839711 -0.257584 0.319426 -0.109592 -0.885946 0.880948 0.237010 -0.166407 0.841006 -0.562299 1.134485 1.222244 0.123635 1.233081 1.721236 0.470099 -0.558259 1.716638 1.921435 1.929057 0.680189 1.122803 1.195998 0.172822 0.520494 0.783017 0.127522 0.514393 0.895823 -0.064927 0.261445 0.021566 -0.054817 0.875821 -0.363405 1.363511 -0.543755 1.822280 0.659046 0.390070 1.004618 0.688669 0.521903 0.867850 -0.295664 2.452641 2.109935 0.397298 1.292295 0.202619 -0.245399 -0.177643 0.849651 0.349479 0.331357 0.728362 0.716957 -0.149489 -0.101388 0.092997 -0.016296 0.582204 0.507657 0.125833 0.982603 0.391608 1.488109 1.239344 1.279098 0.517304 0.655693 1.421869 1.035307 0.869103 0.959324 0.510181 -1.010243 0.477532 0.390274 0.165718 1.025681 0.520935 1.996857 0.197714 0.957754 -0.180439 0.033923 0.563786 0.879513 -0.670447 0.505211 1.772023 2.890791 0.769069 1.169051 0.060924 -0.207589 0.055262 -0.491469 -1.081147 -2.361750 -0.856112 -0.014345 0.819357 -0.215918 0.390231 0.079217 0.462163 -0.164993 -0.145249 0.974707 0.628487 -1.181135 -0.085859 0.906983 -0.093975 -0.183343 -0.566188 -0.127199 0.371385 1.438776 -0.091725 -1.183707 0.129320 -0.034454 -1.153852 -0.305422 -0.709155 -1.097478 -1.335673 0.261574 -0.436981 0.306359 0.060849 -0.329287 -0.654349 0.908232 -0.679851 -0.155632 -0.673956 -0.742097 -0.087765 0.674445 -0.682239 0.334647 0.255119 -0.466459 -0.796739 -0.016318 -1.098995 -1.151935 -0.758308 -0.577817 -0.600557 -0.740956 -0.482002 -1.363225 -1.146514 -0.892394 -0.684641 -0.043147 -0.512039 0.424532 -0.341223 0.230926 0.264697 -1.262079 -1.213399 -1.310198 0.249858 -0.521044 0.442511 -0.777611 0.809707 0.402153 -1.290740 -0.749055 -1.553720 -0.895138 -0.247902 -0.566565 -0.261244 -0.126893 -0.158998 -0.178946 -1.400030 -0.842427 0.053886 -1.752195 -0.360716 -0.568014 0.033599 0.824286 0.297284 -0.251606 0.301097 0.694775 -0.893582 -0.486611 0.527095 0.647479 -0.502583 -0.921252 0.511960 -0.474779 0.183958 -0.382251 -1.649789 0.050364 0.620653 -0.451095 0.187323 -0.068134 -2.008071 -1.368390 -1.247364 -0.110411 -0.512832 -0.522459 0.465074 0.076296 0.356453 0.494987 0.439786 -0.165599 -0.561252 -0.368274 -0.659332 0.713585 0.554904 -1.008268 -0.149245 0.598903 0.447737 -0.835683 -0.472941 0.286044 -0.207644 0.290360 -0.289016 0.541457 -1.054898 -1.240779 -1.832926 0.320204 -1.038429 -0.210252 -0.285560 -1.212930 -1.082108 0.006318 -0.340216 -0.637605 0.584978 -0.654623 -0.210387 -0.324257 0.333360 0.921898 0.386753 -0.626956 0.064726 1.357852 0.163187 -0.402864 -0.535007 -0.098230 1.171149 -0.807706 -0.391006 -1.309619 -0.525176 -0.562217 -0.058427 0.578481 -0.280071 -0.354259 0.392932 -0.162739 -0.112041 -0.495698 -0.130418 -0.300015 -0.384845 -0.059829 0.670505 0.165594 0.525026 -0.594411 0.662821 0.153594 0.315551 0.955889 0.815415 -0.501715 -0.963393 -0.936938 -0.554069 0.077868 -1.729699 -1.012087 -0.010309 0.296138 0.296317 -1.561055 -0.331590 0.892094 0.975959 0.132593 -0.501779 -0.490694 0.115970 -0.332019 0.511418 0.262944 -0.516487 0.092886 0.981771 1.729482 -0.186796 0.599262 -0.362291 -0.005667 -0.199872 -0.955337 -0.314701 0.725489 -0.926232 -0.945403 -0.851059 -0.393881 -0.174454 0.223484 -0.382830 -1.366585 -0.989337 -0.708618 0.331365 -0.047039 0.704753 -0.951933 -0.824840 -0.804024 0.857883 0.378683 0.558967 1.486252 0.001373 -0.075775 -1.179326 -0.757730 -0.349846 -0.416643 -1.309044 -0.977553 0.417016 -0.074575 -2.043094 0.064617 -0.398773 0.340691 -1.517320 -1.745838 -0.841523 0.444248 -0.558176 -0.025063 0.817103 0.538138 0.785282 -0.780214 0.090834 -0.414677 -0.077276 -0.460927 -0.012337 0.799150 -0.541917 -0.017316 0.612440 0.641903 -0.116209 0.772214 -0.127532 -0.085824 -0.870922 -0.423924 -1.910386 -1.337688 0.044411 0.271888 -0.258421 0.132545 0.992875 0.127502 0.190805 -0.163440 -0.412568 -0.689068 -0.141784 -0.743125 0.771273 1.341976 1.184497 0.890408 0.670249 1.350374 0.451160 1.187339 0.163160 -0.110478 -0.131921 -0.609344 -0.295566 0.226131 -0.608883 -0.029582 -0.464184 1.487313 0.958714 0.458977 0.563587 -0.956142 -0.329643 0.507241 0.843172 0.040102 -0.960603 0.466581 1.010772 1.382008 0.985998 -0.099540 -0.524433 0.412910 -0.805582 0.746845 0.545424 1.000821 -0.019362 -0.072442 1.259781 0.968459 -0.147471 0.467205 -0.671847 1.175177 0.270583 0.692817 0.035646 0.990663 -0.116017 0.008425 -0.650327 0.045688 0.203496 0.384399 0.226804 0.252593 0.564376 2.260583 0.255343 0.776937 0.787723 0.789005 0.081423 0.859024 0.902056 2.117342 1.172672 0.653710 0.712456 0.900367 -0.369362 -0.239627 -0.609036 -0.383265 0.440932 -0.738442 -0.016103 0.698328 0.499131 0.640998 -0.134922 0.975247 0.025181 1.083981 0.187787 1.068547 1.689112 1.125168 1.552829 1.440006 1.549013 1.532886 1.149166 0.479448 1.512094 0.834558 -0.049645 0.856984 0.615500 -0.051849 0.639224 -0.102982 0.033954 -0.941182 0.474529 0.591634 0.653755 -0.482676 0.766416 -0.009651 0.339913 0.462252 -0.641111 -0.922450 0.305952 -0.094442 0.674765 0.887601 0.635046 0.352633 -0.512254 -0.011357 -0.500936 -0.789649 -0.406294 0.974265 -0.545960 0.586026 0.794889 -0.759353 0.028450 -0.358202 -0.877354
-0.183571 0.666093 0.253029 -0.895406 -0.935895 -0.247876 -0.502952 0.126689 0.624279 -0.321977 -0.150507 -0.092698 -0.371846 -0.668601 0.021216 0.892278 -0.891980 -0.973322 0.469480 -0.424928 -0.224798 0.837370 -0.020895 -0.210424 -0.213785 -0.667824 -0.219913 -0.766260 0.015125 0.078968 0.081720 0.687872 0.241879 0.731115 -0.656660 -0.393665 -0.670063 -0.048925 0.580849 -1.087871 0.080553 -0.258065 0.770360 -1.019252 0.754115 -0.220009 0.670003 -0.781166 0.798816 -0.886056 0.401344 -0.790817 0.534064 -0.058479 0.717610 0.315365 -0.025537 0.347420 -0.688796 0.525364 -0.879161 -0.664402 0.605688 -0.764510 0.125077 0.351336 0.653021 -1.298577 -0.793627 -1.338608 -0.634975 -1.589649 0.017754 -0.042003 -0.901493 -0.482774 -1.090097 -0.387908 -0.010821 -1.157678 -0.035856 -1.055791 -0.444065 -0.955445 -0.550058 0.665888 0.581035 -0.474477 -0.341683 0.272235 0.239570 -0.832756 -1.181903 -0.501733 -0.809923 -1.805798 -1.138226 -1.751518 -2.422245 -3.071488 -2.495926 -2.057295 -1.134119 -0.803691 0.096729 -1.047851 0.137675 -0.518541 -0.369185 0.227627 0.207479 0.302949 0.089478 0.663694 -0.888057 0.981763 0.320740 -0.204811 -0.653511 0.301027 -0.096483 -0.043011 -0.462522 -1.100149 -0.685453 -0.026456 -1.010084 -0.884133 -2.159445 -0.722858 -1.652411 -0.167324 -0.603255 -1.241667 -0.766877 0.457435 -0.259984 0.359969 0.118125 -0.889126 0.553366 0.753410 0.599697 -0.087811 0.291663 -0.235451 0.637113 -0.778603 -0.662026 -1.175918 -0.701785 -0.086895 -0.326213 -0.377376 -0.616459 -0.209038 0.122532 0.050037 -1.126470 -0.961926 -0.561509 0.280864 -0.315185 0.997975 0.002221 -0.345295 -0.920124 -0.746688 -0.829611 0.202264 0.920008 0.833018 -0.498001 0.962145 0.091684 -0.858099 -0.071163 -0.259352 0.613877 -0.552410 0.648855 -0.255962 0.233365 -0.497158 -0.245138 0.265146 -0.172416 -0.018171 0.450416 0.006053 0.540170 -0.096236 -0.320227 0.277535 -1.108939 0.793412 0.315908 -0.071658 0.767972 0.279668 0.348234 -0.379463 -0.657897 -1.399761 0.802112 0.590696 -0.396766 0.201260 -0.578626 0.323919 0.692915 0.189662 0.047361 -0.479666 0.131640 0.024390 -0.125493 0.917719 -0.568604 -0.196331 0.739052 0.538537 1.097295 0.168897 -0.757629 0.928843 0.712060 0.160466 -0.433510 -0.533201 -0.973284 -0.842567 -1.017053 -0.187297 -0.720052 -0.842719 -0.197592 -0.242324 -0.759026 0.495117 -0.336664 0.637118 -0.878903 0.906422 0.870556 -0.292028 0.411785 0.023636 -0.017564 -0.398718 0.209177 -0.149792 0.073063 0.074703 0.370425 -0.015510 -1.127171 -0.520349 -0.818062 1.105284 -0.155902 -0.854178 -0.099459 -0.099116 0.194938 -0.374223 1.047168 -0.456339 -0.667591 -0.058924 -0.013038 -0.085090 -0.132862 0.501496 -0.206739 -0.229816 0.464554 0.374854 0.310211 0.037517 0.111973 -0.935245 0.065772 0.582024 -1.530854 -1.310311 -0.551365 -0.299993 0.207024 0.314391 0.227532 0.489231 -0.173807 0.953823 -0.311694 -1.249908 -0.104439 -0.401566 -0.348324 -0.095702 0.094451 -1.095853 0.227463 0.063542 -0.567305 -0.621704 0.992363 -0.026304 -0.022844 -0.912403 -0.502315 -0.488132 -1.122809 -1.033823 0.020175 -0.703192 -0.573612 -0.173091 -0.144018 -1.242603 -0.676481 -0.534725 -1.398872 -0.059250 0.290286 -0.022648 0.058611 -0.529659 0.105474 0.292518 -0.593095 0.049984 0.250585 -0.412664 0.612945 0.436042 -0.024457 0.331646 0.408166 -1.079499 -1.430158 0.936242 -0.264952 0.783841 0.435281 -0.566051 0.020790 0.018502 0.085979 -0.824631 1.374910 0.942894 0.927948 0.299469 -0.004504 -0.517224 -0.064413 -0.474790 -1.082360 -0.087097 -1.718480 -1.960817 -0.424965 -0.768100 -0.518553 -0.421171 -0.255945 -1.321196 -0.283789 1.045319 -0.693799 0.316461 0.330387 -0.404002 0.312010 0.736560 0.507027 1.338642 0.814903 0.900363 0.809511 0.587610 0.233969 0.253668 -0.110999 0.019668 0.463790 -0.661601 -1.509305 -1.155106 0.104003 -0.832215 -0.648127 -0.487809 -0.449351 0.367100 -0.497908 0.576166 -0.345120 0.509133 0.443816 1.163404 1.284539 0.567197 0.268815 1.112382 1.657768 -0.388456 1.221208 0.483434 0.995189 0.258522 0.587370 1.467944 1.201916 -1.209140 -0.401331 0.732237 -0.947998 -0.893034 0.260226 -0.518364 -0.285420 0.517588 -0.307800 0.842245 1.682098 1.234261 0.431162 0.928803 0.074997 0.510452 0.596985 0.291452 0.642843 -0.039151 0.602150 1.600077 0.620305 1.303816 0.314348 -0.383294 -0.458192 -0.742885 -1.033749 -0.881759 -1.251292 0.179745 0.589811 0.222927 0.324772 0.427762 -0.296565 0.429793 0.688456 -0.295684 0.787707 1.263457 0.237768 0.248548 0.461196 0.954476 -0.052879 0.878016 0.179904 -0.063096 0.415302 -0.175213 -1.245023 -0.196645 -0.169548 -1.546417 0.430980 -0.866318 -1.305173 -0.860360 -0.088730 -0.497234 -0.144246 0.218637 -0.788973 -0.250415 0.002332 1.186391 -0.181968 0.847184 0.791095 0.741422 -0.353114 1.002608 0.793001 0.204027 1.255904 0.986304 0.193229 0.513269 0.268789 -1.275210 -0.638070 -0.208564 -0.381711 -0.387848 -1.067421 -1.111834 0.034098 -0.922354 -0.307630 -0.896011 -0.808526 -0.082251 0.587397 1.081683 -0.670815 0.248555 0.207595 0.683747 0.937060 0.010931 1.146812 0.734912 0.378568 -0.590864 -0.652317 -1.279008 -0.192689 -0.439802 -0.256917 -0.902580 -0.677279 -1.920646 0.024814 -0.198557 -0.649516 0.214805 -0.120674 0.415620 0.414779 -0.631428 -1.174794 0.021238 0.054416 -1.334179 -1.132232 -1.141455 -0.277132 -1.859472 -0.166797 -0.444958 -0.947486 -0.906240 -0.373300 -0.867408 -0.210467 -1.092192 -1.146402 -1.489262 -0.756880 -1.177478 -0.987553 -0.052520 0.071393 -0.178867 0.942450 0.148140 0.536803 -0.156183 -1.143560 -1.695725 -2.653406 -2.751027 -2.247180 -2.529063 -1.486646 -3.176062 -1.970252 -0.997237 -0.205528 0.947181 -0.097404 -0.637759 -0.332829 0.071092 -1.056308 0.296450 -0.476315 -0.059216 0.103653 0.640401 -0.481070 0.619345 0.078083 -0.713015 0.492373 -0.237787 -1.922576 -1.586101 -1.931216 -0.942971 -1.998929 -1.027808 -0.378158 -0.618095 -0.748959 -0.675262 -0.824433 -0.337379 -0.305668 -0.446716 -0.421650 0.473241 0.608202 1.258874 0.457009 0.226893 0.462683 -0.024981 -0.098819 -0.619303 0.027564 -0.838543 -0.365218 -0.350007 -0.802560 -0.472134 -1.127046 -0.282899 0.357682 -0.258790 -0.905950 -1.107948 -0.604455 -0.949973 -0.361819 -0.155283 0.676485 0.920820 0.024218 0.429285 -0.021956 0.648394 0.038516 1.005676 0.561870 0.617934 -0.715690 -0.495346 0.508897 -0.299529 0.885032 -0.910474 0.684108 1.144468 1.021709 1.031174 0.395120 0.497427 0.355604 -0.147675 -0.064805 -0.104308 -0.522777 -0.138544 -0.350176 -0.055051 0.176944 -0.456576 0.920912 0.249648 0.739277 0.281680 0.568879 0.242810 0.636056 0.835274 -0.646229 -0.508842 0.993170 -0.450641 0.900849 0.155843 -0.095320 -0.488847 0.215040 -0.254176 -0.071156 -0.373384 -0.831234 -0.203701 -0.562880 -0.415441 -0.375715 -0.979785 -0.448711 0.596735 1.099399 0.806487 0.851830 0.911930 0.493636 0.453337 0.475440 0.158122 0.010610 0.349740 -0.283636 0.093814 0.588419 -0.484467 -0.484782 0.412329 -0.446868 0.086246 -0.801097 0.087148 -0.100888 -0.315138 -1.072926 -0.589819 -1.178521 -0.981934 -0.129990 -0.102798 0.565725 -0.512961 -0.363576 0.483194 -0.870689 -0.457950 0.373413 0.907618 0.899003 0.809894 -0.896766 0.609556 -0.681627 1.014492 -0.131270 -0.897191 0.152472 -0.492349 0.341708 -0.423107 -0.165723 -0.141748 -0.572078 -0.165724 0.332189 1.250629 -0.759483 -0.196945 0.089003 -0.759236 -0.923309 -0.844395 -0.415541 0.616744 -0.427324 0.867801 -0.922545 0.526857 -0.642674 0.608136 -0.576535 -0.855292 -0.788988 -0.541974 0.115422 -0.111685 -0.223082 0.132834 0.392990 0.497256 0.213618 0.449981 0.843517 1.103429 0.528912 0.699502 -0.473424 -0.059883 0.283194 -0.614051 -0.261688 -0.342937 -0.240321
1.213790 -0.655346 0.663507 0.726260 -0.788470 -0.440845 -0.903156 -0.431832 0.917605 -0.358447 0.595150 0.160801 0.183106 -0.231536 0.951822 -0.368892 0.103144 0.927982 0.246137 0.574524 -0.162861 0.497257 -0.697689 0.682742 0.432291 0.977586 -0.399870 -0.447700 -0.211079 0.081433 -0.169506 -0.792703 -0.975154 0.801308 -0.509592 0.526665 0.101221 0.053151 0.972811 0.102021 0.018523 -0.633003 0.544348 0.452954 -0.077443 -0.381639 -0.528200 -0.956389 -0.240601 0.323547 0.211967 -0.936156 -0.938813 0.281477 -0.116355 0.373277 -0.275187 -0.448952 -0.671314 -0.764310 -0.268232 -0.603945 0.011380 0.305141 0.632552 0.506248 0.053193 0.473168 -0.105248 -0.264739 0.753371 0.504207 0.012710 0.985912 -0.884895 0.099652 0.906883 0.039500 -0.555415 -0.036364 -0.142785 0.024852 -0.822522 -0.511013 0.196804 0.138791 0.016164 -0.973124 0.458852 -0.244889 -0.366317 -0.924745 -0.734238 -0.326054 0.902901 0.537620 0.742870 0.243583 0.548436 0.772409 1.294922 -0.344291 1.266889 0.311339 -0.807531 0.599960 0.582846 0.384733 -0.040875 0.933811 -0.380010 -0.827915 0.481455 0.512276 0.883865 0.328569 0.229322 -0.005153 0.927413 -0.318969 0.173490 -0.006203 0.105718 -0.114666 0.020681 0.969919 0.453282 0.110128 0.272427 -0.898790 -0.769946 -0.448299 0.625394 -0.614858 0.619815 -0.737667 -0.551060 0.125783 -0.165177 -0.284248 -0.299778 0.833528 0.038208 0.359138 -0.450090 0.715680 0.107996 0.892817 -0.540923 -0.730868 0.109791 -0.201543 0.148992 1.397825 1.553478 0.233445 -0.554428 -0.033683 0.025044 0.460831 -0.643830 0.144849 -0.041385 0.047680 -0.597934 0.439134 1.114848 0.216854 0.428319 -0.883381 0.781889 -0.316125 -0.351508 -0.241446 -0.569816 1.122468 0.574928 -0.529518 0.473218 0.727744 0.331755 0.852392 0.655223 0.642390 -0.194177 -0.304401 -0.411985 0.014542 0.303135 -0.441016 -0.195450 -0.846843 0.278583 0.405154 0.896631 0.344291 0.242813 0.374241 0.006864 0.469164 0.366538 0.009182 -0.653549 0.094618 0.350833 0.170254 0.613127 0.424992 1.851806 1.247249 0.297614 -0.626635 0.582690 0.614965 -0.832177 0.192234 -0.474665 0.089976 -0.344662 -0.073359 -0.282346 0.076203 0.067360 -0.651646 -0.767557 -0.402476 -0.333329 -0.211625 0.414792 -0.223855 0.759007 0.451620 0.085407 -0.189327 0.562672 -0.002784 0.153126 1.325909 0.938145 0.298423 -0.594817 -0.026474 -0.374991 0.427324 0.615979 0.450690 -0.014442 -0.802096 0.432141 1.156338 -0.539404 0.150718 0.459358 -0.386911 -0.377491 0.217617 0.724601 -0.811603 0.325420 -0.364867 0.117402 -0.209079 -0.563795 0.260853 0.431850 0.262711 0.903095 1.698882 0.108683 -1.473149 -0.814473 -0.729948 -0.161963 0.312986 0.021353 0.055478 0.194233 -0.692592 -0.023196 -0.574184 -0.406628 0.762144 0.747833 0.550934 0.304644 -0.474616 0.601764 0.285070 -0.849601 1.083028 -0.702736 -0.480959 0.456268 1.110858 0.867764 0.271567 -0.455341 -1.014162 -0.940921 0.277401 -0.159598 0.724770 -0.338753 -0.181901 -0.288381 -0.059218 0.141778 0.437496 -0.055101 -0.793065 -0.028354 0.923098 0.493046 -0.518097 -0.096655 -0.809279 0.775087 -0.146882 0.868598 0.170452 -0.181248 0.345595 0.827634 -0.546116 -1.809093 -0.637309 -0.614537 -0.265835 -0.147465 0.443402 -0.194115 0.329680 0.709149 -0.402196 0.813111 -0.872369 0.648997 -0.546502 -0.006662 -0.221763 -0.960744 0.704711 0.377101 -0.176361 0.479179 0.814834 0.817191 0.376022 0.000410 -0.154344 -0.627584 -1.231783 0.441998 -0.473186 -1.364827 0.552024 0.446975 0.696675 0.704611 -0.516078 0.076106 0.692772 0.959269 0.464553 0.820336 -0.873604 -0.175196 -0.701874 -0.229648 -0.648068 -0.867775 0.129481 -0.032889 -0.634726 0.445015 0.364374 0.009359 -0.218792 0.294955 0.495943 0.045924 0.459719 0.166271 0.570252 0.328891 -0.448926 -1.001417 0.624389 0.543811 -0.499111 0.806677 -0.157671 0.525688 -0.757132 -0.405856 -0.201800 0.108062 0.339628 -0.645958 0.324710 0.330269 0.752563 -0.162508 0.570353 -0.462959 -0.110261 -0.088147 -0.077688 0.124797 -0.575696 -0.978614 0.713367 -0.936014 0.645423 0.635907 -0.354606 0.085304 0.344170 0.677346 0.270551 0.649365 -0.385648 -0.041824 0.335999 0.881448 -0.563468 -0.243752 0.730854 0.694009 0.974934 0.674161 0.449865 -0.311948 -0.189432 0.655444 0.910485 -0.068522 0.517979 -0.016157 1.519452 0.599238 0.785859 -0.943808 -0.610940 -0.178415 0.839262 -0.157943 -0.556175 -0.507123 0.818550 0.994846 0.520429 0.766953 -0.676591 0.635552 -0.070003 -0.602637 0.814106 -0.366632 0.883510 0.049255 0.512062 -0.964222 -0.139406 -0.066809 -0.752455 0.487288 -0.563859 1.072257 0.527983 0.368574 -0.465810 -0.267951 0.823389 -0.410360 -0.954798 -0.585396 -0.947732 -0.348206 -0.007416 -0.958341 -0.891184 0.194440 0.341747 0.193050 0.193766 -0.052748 -0.216987 0.472333 0.159268 0.069772 0.341614 -0.061739 0.050335 -0.011537 0.006772 0.485805 -0.655165 0.893391 -0.866834 0.471884 -0.564246 0.603432 -0.151996 0.823008 -0.777041 -0.809761 -0.561587 -0.553262 -0.560018 0.546164 0.084819 -0.147666 1.058330 0.628787 0.559477 -0.610326 -0.687849 -0.733255 0.525536 0.848456 1.008810 1.587392 0.652639 0.927805 -0.319962 -0.815867 0.614258 0.347533 -0.749238 0.902277 -0.832727 -0.689347 -0.149652 -0.031125 -0.769258 -0.280841 -0.308258 -0.677707 1.034701 0.152752 -0.121991 -1.021225 0.121081 -0.313971 0.329786 -0.492132 0.928746 0.537787 0.756080 1.119751 0.179822 0.947386 0.379226 -0.232726 0.815912 -0.194366 -0.698225 -0.960676 0.635395 0.718642 -0.534482 0.435799 0.145777 -0.486732 0.829534 -0.191228 0.106068 -0.015153 -0.426138 0.406938 -0.999623 -0.617824 -0.394736 -0.439245 1.073138 -0.544126 0.865582 1.500212 -0.271284 -0.151880 0.032236 -0.353834 0.395397 0.857091 0.854522 -0.113811 0.665390 -0.272281 -0.472762 -0.754312 0.927085 -1.072445 0.759654 0.250714 -1.054348 0.182794 0.655206 0.136753 -1.120366 0.598993 -0.595725 0.532037 1.268896 0.363111 1.645412 0.128293 0.550304 0.553874 0.899456 -0.787850 -0.912962 -0.915084 0.410566 0.065474 0.886843 0.673803 -0.747611 -0.428189 -0.101719 -0.398276 -0.270724 -1.472652 -1.634743 0.413958 -0.252171 -0.051664 1.257512 0.554199 0.730690 -0.467793 -0.496043 1.090649 0.270271 0.595108 0.872394 0.736222 0.624524 -0.110855 0.590633 -0.013671 -0.879982 0.696957 0.027925 -0.129898 -0.700712 -0.990074 0.968490 0.267458 0.165621 0.353186 -0.026729 0.258591 -0.125949 0.756279 1.062756 0.413296 -0.527548 0.921424 -0.507534 0.670725 0.008966 0.746228 0.327255 -0.273339 -0.494044 0.014410 0.017931 0.174928 0.735320 -0.525250 -0.966833 0.708715 -0.813187 -0.137317 -0.768933 -0.259962 -0.226483 -0.585365 -0.554565 0.064697 0.964848 0.930484 -0.028797 0.763281 0.079175 -0.539436 -0.718828 -0.430304 0.572040 1.007001 0.087322 -0.504426 -0.688243 0.911434 -0.295587 0.451950 0.462808 -0.884359 -0.074451 0.434199 -0.586589 0.390758 0.327830 0.285878 0.847430 -0.164847 -0.801476 -0.811174 -0.024114 0.110960 0.510454 0.353613 1.155737 0.803822 0.485955 1.242212 -0.719028 0.610465 -0.560103 -0.475113 0.597653 -0.418951 0.777518 -0.643357 -0.331386 -0.588006 0.667578 0.647876 -0.812090 -0.297604 0.244205 -0.501797 0.316435 0.412631 -0.517171 0.324932 -0.625369 0.716903 0.798671 0.891125 -0.392961 -0.096244 0.515143 0.934734 0.487724 -0.368747 0.148815 0.639645 -0.960579 -0.397165 0.287071 0.806770 0.766075 0.988348 0.236801 -0.386668 -0.183643 0.758722 0.578392 -0.422693 0.806819 0.446589 -0.768844 0.242161 -0.837497 -0.981233 0.686023 -0.318846 -0.570964 -0.744127 0.459096 0.114472 0.697139 -0.028143 0.233913 0.432308 0.252487 -0.052611 0.108428 0.128620 -0.704010 0.095915 0.060385 -0.138594
-3.665049 0.497105 0.112386 0.242151 0.961012 -0.039843 0.825073 -0.872272 -0.505061 -0.045807 -0.119315 0.130028 0.911750 -0.743529 0.155202 0.766121 -0.637278 -0.361608 -0.481718 -0.439879 0.369479 0.703785 -0.934669 0.475745 -0.497770 -0.842037 0.632200 0.641803 0.094282 0.655729 -0.337004 0.531334 -0.234054 0.429588 -0.748595 0.874165 -0.259525 0.477996 0.602705 0.526042 0.803213 -0.740645 -0.345953 -0.909693 -0.571867 -0.309393 -0.269168 -0.697693 -0.864870 0.355182 0.652228 0.219525 -0.096184 0.943559 -0.810325 0.054340 0.394778 -0.343251 0.547754 -0.107975 0.712355 -0.683988 0.155743 0.285743 -0.264343 0.407666 -0.501017 0.892508 0.137595 -0.706157 -0.426355 -0.880424 -0.711157 0.033426 -0.497941 -1.050656 0.371810 0.619155 0.418660 0.102238 0.569788 0.323444 0.992577 -0.269547 -0.784625 0.918106 0.140037 -0.589607 -0.988661 0.582785 0.316667 -0.845303 -0.819515 0.410705 0.606718 -0.271545 0.515694 1.230674 0.309777 1.313074 -0.627858 -0.274407 0.763517 1.240671 0.804434 0.698962 -0.705944 -1.014094 0.745114 0.022991 -0.807499 -0.915991 0.218914 0.499255 -0.191818 -0.830602 0.661827 0.143273 -0.128607 0.179645 -0.092835 0.537757 1.087786 0.979842 0.979561 1.150804 1.677453 0.301443 1.233812 0.111010 0.099336 0.459944 -0.265512 0.034321 -0.594154 -0.710101 -0.968920 0.666657 -0.432096 0.716996 -0.385431 0.553286 -0.694074 0.118658 -0.354023 0.490876 0.239102 1.876701 -0.111283 0.746502 0.845131 0.233088 -0.093961 -0.358575 1.224604 -0.009383 1.320733 0.109080 -1.000051 0.077223 -0.070334 0.308236 0.053210 -1.669363 -1.271104 -0.257151 0.061780 -0.973837 -0.937176 -0.961497 0.887828 0.292850 0.925616 1.086755 0.783087 1.072505 0.433938 0.426598 -0.472891 0.325857 1.213426 0.615911 -0.133364 0.696272 -0.205290 -0.503382 0.571447 0.618728 -0.960061 0.132565 0.013953 -1.491499 -1.046915 -1.474182 0.613754 0.334026 0.905766 -0.627832 0.980587 -1.016368 -0.012294 0.582466 0.404209 -0.512144 0.362702 -0.288399 0.697086 -0.402396 -0.114156 1.158133 0.496718 0.306688 0.084271 0.336290 -0.048179 0.101758 -0.844176 0.385434 -0.053138 -1.746665 -2.207466 -1.487083 0.366058 0.863285 -0.478630 -0.101060 0.194297 0.050753 -0.362058 2.219671 1.126749 0.486483 0.874233 0.602110 -0.222521 0.419518 -0.791036 0.779728 0.735815 0.491640 0.133467 -0.973476 -0.073519 0.260807 0.761129 -0.260730 0.201854 -1.839633 -3.832177 -1.486001 -1.423368 0.713782 -0.918391 0.524416 0.566635 0.467115 -0.350900 1.591299 0.551011 -0.165816 -0.147531 0.208805 -0.078727 -1.495165 -2.328066 -0.998081 0.492400 2.837507 3.173618 0.628842 0.463961 0.347903 0.840182 0.625049 1.165017 -1.049652 -4.276212 -1.886587 -0.501027 -0.324363 -0.254544 0.711485 -0.601354 0.047912 -0.161692 0.071137 -0.256529 -1.157004 -0.753512 -2.905247 -2.553246 -1.170579 -2.514807 -1.344006 0.529828 1.331661 1.732157 1.738520 0.319768 0.392446 0.933835 0.646123 0.789388 -0.852576 -2.808689 -1.075053 -0.554164 -0.566048 -0.610116 0.546188 0.441966 -0.954949 0.942809 -0.281255 -0.873949 -1.068851 -1.519310 -1.943930 -1.299138 -0.530216 -0.089478 0.509483 -0.421760 0.797974 1.747386 0.698272 0.664183 0.708108 1.140312 0.594941 -0.148206 -1.787639 -1.878809 -0.938238 0.545723 -1.022309 0.176507 -0.606947 0.041542 0.786841 0.322438 -0.521457 -0.810261 -1.125280 -0.195414 -0.725080 0.687432 0.196728 0.567710 -0.220141 -0.594511 1.896747 1.467512 1.179706 -0.616890 0.873669 -1.025870 -1.516540 -2.192792 -0.811700 -1.158407 -0.538746 0.846142 -0.844504 0.024252 -0.504874 -0.424856 0.487384 -0.345852 -0.371992 0.697580 0.204994 -1.273449 0.285956 0.726066 -0.560963 -0.873278 -0.356256 -0.160567 1.133431 1.357011 0.437252 1.012918 0.109236 -1.069490 -1.449944 -1.714450 -0.935723 0.263960 -0.534322 0.544953 0.376329 0.563189 -0.515479 -0.208812 0.291447 0.143313 0.001189 0.986488 -1.170030 -0.439565 0.255944 -0.264231 -0.534116 -1.613274 0.095540 0.002992 0.188450 1.454456 0.127444 -0.247229 -1.253818 -0.657754 0.049747 1.034842 -0.306105 -0.404762 0.088529 -1.161128 -0.229031 0.029345 0.001691 -0.290987 -0.467726 0.266794 1.255754 0.130929 0.178414 -0.364281 -0.445588 -0.386110 -0.519904 0.645865 -0.544637 1.146364 0.737118 0.603408 0.265338 -0.143438 -0.837105 0.765446 0.895598 -0.336400 -0.150429 0.785262 -1.146079 0.095262 0.536730 -0.878088 0.369015 -0.239450 -0.287982 -0.334793 1.035254 1.133638 -0.013251 0.841211 0.218524 0.896373 0.025569 -1.203834 -0.897946 1.565070 1.073591 -1.788577 -0.085046 -1.143693 0.602495 0.452591 -0.186391 -0.139650 -0.433040 0.137601 -0.484329 -1.083778 0.182044 0.673616 0.949693 -0.659071 0.795272 0.212544 1.022586 -1.091930 -0.783919 0.524245 -0.586813 -0.549496 0.070166 -0.807280 -0.063183 -0.503292 0.098415 -2.712108 -0.410491 -0.984117 -0.523914 -0.965178 -0.067115 -0.499020 1.098017 -0.322904 -1.201104 0.837485 -0.225822 -0.363887 -0.570194 -0.717781 -0.713180 1.719329 -0.367651 -0.241609 -1.520196 -1.625011 0.226165 -0.584155 -0.683616 -1.106530 -2.048009 -0.442367 -0.704936 -0.746573 0.347635 -0.178757 1.139775 0.570949 -0.080054 0.880462 0.811739 0.650519 -0.676814 0.549079 0.791903 -0.088354 0.266797 0.911239 -0.486921 1.410390 -0.495324 -0.317890 -0.821124 -0.163584 -1.342520 -0.931190 0.245675 -1.124620 -0.258161 0.184323 0.752326 -0.886923 0.819033 0.236273 0.808489 -0.530965 0.355324 1.883710 0.307395 -0.152300 -0.012590 0.493389 -0.587202 0.535608 -0.921164 -0.100173 0.859352 1.554638 0.310114 -1.095732 -0.090025 1.050815 -0.490864 0.583735 -0.535203 -0.085315 -0.503460 -0.898720 0.168426 -0.569947 -0.701734 -0.347840 -0.108104 0.638843 0.369648 0.506832 1.089808 -0.173648 -0.671540 -0.721210 -0.457912 -0.979237 -0.235952 0.294772 -0.383212 -0.196542 0.789896 -0.001873 -0.473982 0.078861 -0.564587 -1.373366 -0.521180 -0.638927 0.390858 -0.253931 -0.831928 1.190161 -0.025418 -0.037119 -0.580528 0.837360 -1.018572 -1.472358 0.057993 -0.335148 -1.078496 0.824438 -0.271644 0.015606 -0.354397 0.719945 -0.463725 0.331621 0.515824 0.197967 1.479973 -0.469545 -0.267773 0.294140 0.176719 -0.416665 -0.767780 -1.160018 -0.719093 -1.129976 0.614234 -0.704557 0.062692 0.643075 -0.340295 -1.211303 -0.895614 -0.113698 0.730213 0.765659 -0.262749 0.881867 0.027525 -0.052387 -0.539763 0.138323 0.063826 0.365054 0.965723 0.507013 -0.589675 0.030230 -0.096891 -0.342271 -0.398976 0.060363 -0.953360 -0.072681 -0.094999 -0.160039 -0.641656 -0.322730 -0.768006 -0.388876 -1.003659 0.433106 -0.211316 -0.028618 -0.250387 -0.553971 0.438328 0.862076 -0.298873 0.991800 1.752189 1.172979 0.298829 1.991926 -0.282305 0.281279 0.442098 0.992796 -0.058573 -0.702641 0.721033 -1.409550 0.568542 -0.391468 -0.312732 -1.224743 -1.677299 0.604415 0.182009 0.767594 0.853685 -0.756850 0.850397 -0.208988 0.938332 0.617503 0.475868 -0.524373 -0.140461 0.449471 -0.210952 1.050505 0.839795 0.271394 -0.157757 0.424503 0.709195 0.251907 -0.083228 -0.525491 0.114595 0.028886 -0.415732 -1.113076 -0.284052 -0.421973 -0.134884 0.590888 -0.448115 0.159204 0.242396 -0.601950 -0.506978 0.275101 0.301323 -0.002910 0.464687 0.717909 -0.078105 -0.878505 0.476006 0.020862 -0.677669 0.053307 -0.257197 0.341954 -1.260553 -0.922738 0.268826 -0.679880 -0.612938 -0.570994 0.549627 0.453734 -0.657255 0.522302 0.645061 0.478332 -0.581389 -0.067663 0.357404 0.085381 -0.524854 0.501646 0.704804 -0.372697 0.675833 -0.718655 -0.984393 -0.198794 0.302417 0.319849 -0.346028 -0.589784 0.529249 -0.973626 -0.736179 0.361888 -0.912174 -0.882247 0.005496 -0.303892 0.769895 0.206658 0.153635 -0.560535 -0.296943 -0.255234
0.666236 -0.671285 -0.310713 0.620115 -0.345459 0.668441 -0.958083 0.843367 0.013451 0.265736 0.910740 -0.564966 0.897828 0.468007 0.581680 -0.879345 0.628715 0.793073 -0.083536 -0.191049 -0.277435 -0.554231 -0.495144 0.952834 0.697177 -0.898598 0.568409 -0.789549 0.935066 -0.615206 0.263526 -0.444142 -0.792934 0.982178 0.931639 -0.585369 -0.088474 -0.629629 -0.497569 0.268361 0.213881 0.013145 0.099712 0.356103 -0.592110 -0.661106 0.979240 0.195362 0.235471 0.628690 0.100003 -0.542267 0.284958 -0.030769 0.569784 0.921778 0.727832 -0.307106 -0.275311 -0.622306 0.814275 -0.108533 0.049185 0.883829 -0.316886 0.760819 -0.171611 0.022591 0.107229 0.650884 -0.067749 0.236029 -0.078607 -0.134977 -0.226921 0.017207 0.092029 0.407133 -0.227135 -0.628641 -0.863625 -0.332588 0.848331 0.457843 -0.869760 0.812532 -0.758068 0.717088 -0.260099 0.285108 -0.649342 0.795855 -0.942768 0.600044 0.968590 -0.327726 -0.648284 0.244378 -0.729932 -0.033071 -1.187257 0.522772 -0.017907 0.605821 -0.075878 -0.310296 0.410014 -0.880281 0.389106 0.029513 -0.313097 -0.337455 0.175359 -0.772922 0.762255 0.305273 -0.009131 0.994142 -0.804006 0.911306 0.476586 0.158909 0.336563 1.057924 1.055236 0.224701 0.807331 0.781121 1.300247 -0.613267 0.142629 -0.069008 -0.276192 -0.284326 -0.398696 -0.750394 -0.656690 -0.617528 0.382663 -0.973806 -0.308796 -0.170097 0.754220 0.124131 -0.777710 -0.229766 0.291960 -0.415048 0.198709 -0.477774 1.144532 0.923110 0.691770 0.541254 1.017083 0.988383 1.375566 0.423086 0.452225 1.118260 -0.375554 0.068934 -0.247685 -0.747472 -0.353386 -0.207554 1.011613 -0.841353 -0.080585 -0.994333 -0.180441 -0.041348 -0.861351 -0.843280 -0.801894 1.329004 -0.633762 0.140056 -0.048677 0.878641 1.682634 1.844233 1.756498 0.355456 1.235362 0.922132 0.180319 0.796159 0.552442 0.641326 1.296007 -0.918653 -0.572687 1.191591 0.778945 -0.434554 0.542933 -0.237416 -0.378828 -0.192295 -0.400829 -0.450697 0.241862 1.208513 -0.142186 -0.026037 0.930152 0.317360 0.506910 0.950559 1.409178 1.734037 1.493632 1.749850 1.067106 0.641856 2.446474 1.801175 0.981573 -0.069209 -0.037112 -0.794285 1.182577 0.979009 0.914616 -0.492800 0.371644 0.164705 -1.118679 -0.320878 0.181994 1.344259 -0.049354 1.106617 0.176436 1.579656 1.000985 1.363082 0.801040 2.012734 1.858271 1.994515 0.623192 1.789944 1.191567 0.672556 1.666219 -0.093920 0.716329 0.703240 -0.640481 0.610934 -0.689385 0.260587 0.138578 -0.034379 -0.402939 -0.072012 -0.311548 0.297024 -0.067914 0.305478 0.955702 0.301568 0.052463 -0.359133 0.137134 -0.311063 0.835128 0.499186 0.281803 1.290847 0.551979 0.236669 0.285508 0.108844 0.066257 1.134504 0.039630 0.214695 0.537755 0.929465 -0.184688 -0.179476 0.512157 -1.048092 0.063941 0.262600 1.069828 -1.277949 -1.184152 -0.526591 0.135895 -0.707493 -1.400382 -1.004579 -0.906028 0.085149 -0.290246 0.088856 -0.394721 -0.099214 0.024334 0.284835 0.385727 0.984837 0.456193 0.672105 0.849128 0.748004 0.599714 -0.681623 0.220788 0.497444 0.750273 0.475009 -0.984485 -0.242727 -0.374026 -0.996483 0.014144 -0.335526 0.728152 -0.130792 -1.609693 -0.403983 0.381055 0.362465 0.064592 0.096560 -0.334806 0.572513 0.019631 0.078702 0.603754 -0.655723 0.598527 -0.445497 -0.742323 -0.450447 -0.664388 -0.271138 -0.672493 -0.849375 -1.309763 -0.702831 -0.454432 -0.492672 -0.945696 -0.665596 -1.557284 -0.227806 0.326626 -0.623043 0.057212 0.483170 0.180348 1.092916 0.079860 -0.611886 -0.832981 0.308302 0.811808 0.883502 0.876214 -0.585310 0.746430 0.974986 0.324848 0.525664 -0.962780 -0.810993 -0.267600 0.024324 0.259447 -0.540672 -0.426723 -1.199949 0.627081 0.024537 0.304051 -0.196189 -0.414160 0.376186 -0.321166 0.150632 -0.145524 -0.935708 -1.791290 -1.041825 0.033168 -0.004838 0.287921 0.467465 0.971866 -0.360306 0.299708 0.395331 -0.189560 -0.525225 -0.070386 -1.091492 -0.974850 -0.670449 -0.859498 -1.277194 -0.691214 0.748670 -0.270939 -1.444833 -0.622125 -0.286290 -0.383980 -0.606998 -1.135770 -1.680209 -2.084081 -0.986203 0.844943 0.425622 -0.794087 0.438382 -0.669288 0.306601 0.560848 0.724450 0.234303 0.252700 -0.248552 -0.041663 -1.091764 -0.443556 -1.170086 -0.562950 0.675928 -0.504559 0.438735 -0.330333 -1.243036 0.941344 -0.516857 -0.893036 -0.684380 -0.804324 -0.749221 -0.003614 0.008453 1.012964 -0.433271 -0.186231 0.570994 0.223560 0.039667 0.783277 0.235955 -0.190996 -0.879196 -0.317265 -0.606060 0.097205 -0.890611 -0.505681 0.146626 -0.135401 -1.253164 -0.115766 -0.381222 -0.667500 -0.654418 -1.128240 -1.372377 -0.370090 -0.498580 -0.583950 -0.205967 0.648113 0.862261 -0.675357 0.690682 0.391940 0.977252 -0.549856 -0.018626 -0.518994 -0.706657 -1.040414 0.033916 0.617280 -0.535080 -0.307276 -1.192340 -0.485886 -0.214214 -0.978291 0.083269 -0.948666 -1.013730 0.088452 -1.264631 -0.073180 -1.434926 0.964177 0.125824 -0.502324 0.921940 0.205045 -0.242918 -0.784740 -0.466367 0.649049 -0.083589 0.106734 -1.051151 -0.986910 -0.130450 -0.627248 -0.398695 -0.971609 -1.035509 -0.694669 0.232863 -0.270781 0.418334 0.442323 0.247482 0.809606 1.017396 -1.119598 0.695704 -0.056722 -0.206678 -0.152806 0.240377 0.401990 0.782549 -0.331245 -0.479462 1.025413 0.979732 0.463783 0.815368 -0.285994 0.041830 -0.185649 -0.870216 0.981308 0.268803 -0.411594 0.590499 -0.386618 -0.774341 -0.010486 0.727269 0.702273 0.994910 0.440440 0.222828 0.223267 -0.446576 -0.210760 -0.487982 0.183180 0.558571 -0.262707 0.476133 -0.156774 0.300655 1.727078 1.828743 1.077359 -0.181309 0.319344 0.057870 0.640572 -0.059245 -0.720432 -0.360679 -0.556087 -0.226873 -0.875963 -0.596905 0.983343 0.415706 1.164440 0.251374 0.884529 -0.024359 -0.707608 -0.621751 0.164363 0.780373 -0.040084 0.163337 -0.720182 -0.258649 1.204942 0.913155 0.103555 0.773497 0.833286 0.019229 -0.773462 -0.299733 0.715936 -0.406142 0.142615 0.243122 -0.865769 0.005259 0.052376 0.735879 0.610177 0.033967 0.505078 -0.584577 -0.608138 0.467638 0.081888 0.973442 0.415452 -0.714581 0.362329 0.193669 1.173696 1.372286 0.925409 0.718275 -0.122781 0.122238 -0.023563 -0.178230 0.284233 -0.593401 -0.135040 0.278826 0.592631 -0.028833 0.320739 0.461632 1.774163 -0.026740 1.275811 0.368768 0.586000 -0.160867 -0.111691 -0.827532 0.888571 -0.537257 0.574779 0.288609 -0.844560 0.143474 0.549885 0.495051 1.639670 0.768715 1.258292 0.210703 1.020129 0.580930 1.106486 0.708244 0.258235 -0.261748 0.744079 -0.149943 0.356570 -0.285855 0.960474 -0.807979 -0.260996 -0.742287 -0.746938 0.110469 -0.339996 0.809521 -0.736058 -0.445408 -0.012852 -0.538000 0.141167 0.269289 0.384393 -0.065267 0.536382 -0.552258 -0.100289 0.336730 -0.643016 -0.219333 0.137752 0.161352 0.421221 -0.040165 -0.478170 0.302760 0.341154 -0.972811 -0.783190 -0.165908 -0.089956 0.278928 -0.473651 -0.714003 -0.230143 -0.389275 -0.833290 -0.071855 1.276799 0.182710 -0.116566 -0.172714 0.698298 0.209707 0.183540 -0.515595 0.502192 -0.167817 0.511935 -0.009131 1.329664 0.727212 -0.132374 0.391793 0.471175 -0.570609 0.317955 0.915716 0.057828 0.125155 -0.866472 0.764408 -0.081498 -0.233108 -0.050117 -0.076867 0.124930 0.957272 1.159384 1.312790 1.713183 0.173576 -0.120183 -0.041169 1.537660 0.861027 1.416222 -0.348226 1.190953 0.054846 -0.204845 -0.633352 -0.910247 -0.515838 0.789456 -0.659836 -0.302971 0.450739 0.315434 0.227749 0.550454 0.538527 0.387638 0.288997 -0.659302 0.926102 0.146031 0.456246 0.270188 -0.684750 -0.907115 0.235710 0.872170 0.980795 0.778579 0.813231 0.196429 -0.874998 0.358159 -0.645443 -0.564881 -0.580612 0.764076 0.788992
0.091073 -0.273923 0.756166 0.686673 0.608470 0.442132 0.859188 -0.858943 -0.864903 0.031776 0.636401 0.923702 0.031098 -0.442131 0.535045 -0.908871 -0.946807 -0.968417 0.332716 -0.310962 -0.915830 -0.250187 0.012099 0.514945 -0.793838 0.723143 -0.146432 0.688555 -0.835400 0.913444 0.315632 -0.548543 0.568788 0.826027 0.341724 0.953868 -0.066621 0.271986 -0.436503 -0.449860 -0.482851 1.036788 -0.095736 0.050549 0.976903 -0.638860 -0.097054 0.911678 0.236967 -0.106223 0.066780 0.985209 -0.419517 -0.414160 0.199127 0.893416 0.873505 0.324245 -0.124874 -0.266467 0.855500 -0.140633 0.735098 0.749548 -0.249786 1.192880 1.140972 0.607732 0.617001 1.323752 0.860470 0.898594 0.549340 0.600261 0.677238 0.232499 -0.215103 1.259732 -0.622673 -0.200443 0.839506 0.956403 -0.947852 0.520940 -0.384015 0.357554 0.114903 -0.781746 -0.908207 0.757470 0.801388 1.252031 0.421407 0.144808 0.623422 0.876540 -1.046494 -1.171194 -1.358461 -0.854442 -1.031265 0.330589 -0.748184 0.729074 0.327172 1.289160 -0.232204 0.937066 1.062747 0.186737 0.234519 0.251258 -0.009370 -0.275091 0.770126 -0.283789 -0.051703 0.423498 -1.066558 -0.211348 -1.036062 -1.414626 -1.193000 -1.003747 -0.414567 -0.770989 -1.577080 -0.091818 0.129108 -1.057960 -0.500907 -0.044515 0.215723 0.514326 0.206488 -0.466149 0.334531 -0.257643 -0.956490 0.221440 0.967113 -0.950088 0.572615 -0.262718 -0.160457 0.389754 0.270458 -0.084610 0.201027 -0.962060 -1.302908 -1.059851 -1.018605 -0.569277 0.109416 -0.825138 -0.475776 -0.235428 -0.354272 -0.163274 -0.242549 0.118783 -0.172271 0.847017 1.320778 -0.712375 -0.350377 0.239915 -0.964079 0.044080 0.385597 0.843153 -0.405816 -0.179454 -0.929515 -0.502850 -1.280394 -0.239624 -0.159553 -0.289372 -0.636302 -0.760747 -1.302682 0.298448 -0.432964 -0.321724 -0.599007 0.113127 -0.646697 0.687806 -0.287769 0.580751 0.638350 -0.150400 -0.534274 0.979989 0.089075 -0.596894 0.525515 -0.044887 -0.869812 -1.160551 -0.890460 -1.179174 -0.004141 -1.221355 -0.548289 0.087491 0.038705 0.580816 -0.665242 -0.375918 -1.152523 -0.925553 -0.417981 -0.859434 -0.138664 -0.151504 -0.475545 -0.881380 0.463990 0.217149 0.992044 0.185936 0.821665 -0.910802 0.636577 0.135732 -0.064575 -1.194466 -0.832407 -0.323573 -0.374343 -1.198567 -0.878838 -0.666076 -0.159845 0.205813 -0.597487 -0.564781 -2.262274 -1.872959 -0.072279 -1.526061 -0.758780 -0.489306 -0.342389 -0.879503 -0.103688 0.801981 1.126471 -0.777480 0.863797 0.364873 -0.353757 -0.376814 -0.218514 -1.720129 -1.343399 -0.088455 -0.334811 -0.236344 -0.879310 0.786197 -0.407861 0.016313 0.104794 0.120375 0.558880 -1.201564 -0.283111 -0.362556 -1.471662 -0.297008 0.525331 -0.897997 -0.044346 0.462818 -0.054143 0.703076 0.440608 0.756235 0.351335 0.165038 -0.458160 -1.093807 -0.351472 0.571701 0.302077 -0.345681 0.361473 -0.787948 0.524189 0.314369 1.697076 -0.165586 0.606737 0.278571 -0.735679 -1.025629 -1.247483 -1.157471 -0.197533 -0.237781 -0.073888 0.421151 1.324340 -0.721006 0.149692 0.634029 0.322871 -0.082980 -0.369179 -0.482904 1.186705 0.203553 0.333680 0.211619 -0.177967 -0.073622 -1.215589 -0.076191 -0.362037 0.299874 0.526813 -0.260123 -0.752320 -1.324050 -0.931765 -0.085323 -0.658132 -2.125942 -0.960921 0.105693 0.592973 0.015012 -0.730385 0.009589 -0.534389 -0.982344 -0.692444 -0.961454 0.429193 0.192224 -0.563267 0.514619 -0.570086 -0.206708 -0.699739 0.022694 -0.884356 -0.025590 -0.174903 -0.198082 0.238077 -0.655371 0.223655 -0.319062 -1.488838 -1.917521 -1.691066 0.461242 0.880726 -1.072823 0.405322 -0.728790 0.492783 0.967309 0.800535 0.637612 0.316792 1.022848 -0.078527 -0.165295 0.280248 -0.377577 -0.374041 0.080499 -0.105984 0.964536 -0.139309 0.110839 -0.400999 0.010943 -0.364312 0.579268 -0.736104 0.001164 -0.424208 -0.001627 0.178856 -0.779988 -0.362649 0.140875 -0.604941 0.102875 -0.055115 -1.037340 0.099194 -1.244433 -0.264546 -0.725783 0.973074 0.875312 -0.604758 -0.337052 -1.088073 0.855323 0.418246 0.359772 -0.598935 -0.061359 -0.467209 0.804279 -0.072021 0.718013 -0.732300 0.525734 -0.912042 0.518760 0.925549 -0.850535 0.600840 -0.022995 -0.292994 0.245733 -0.217485 0.078712 0.264469 -0.242468 -0.166953 -0.259318 -0.541240 0.742573 0.804631 0.926257 -0.868300 0.426365 -1.230303 0.107824 -0.657446 -0.235741 0.364504 0.585012 -0.025223 -0.163126 0.890792 -0.410927 0.848761 0.895449 0.713342 0.181985 0.611347 -0.689691 -1.068236 -1.002905 -0.182033 -0.777499 -0.186086 -0.617060 0.590267 -0.368061 0.300842 0.926296 0.084768 -0.357308 -1.064875 0.103935 0.363088 -0.200354 -0.222765 0.532490 -0.649057 0.219144 -0.119714 -0.953030 -0.100707 -0.577103 0.946968 -0.305814 -1.268068 -0.626097 0.006006 -0.408832 -0.892838 0.914438 0.449570 0.135006 0.884159 1.553258 -0.318662 0.310893 0.432375 -0.173692 -1.138010 0.461421 0.413195 -0.496873 -0.255851 0.205388 0.266863 -0.376628 -0.638582 0.499840 1.002780 -0.450599 0.486341 0.808479 -0.913840 0.491991 0.345934 0.282975 -0.740436 -0.157135 0.546447 1.734343 1.023814 1.100125 0.431384 1.176210 0.817241 -0.108257 -0.430086 0.184337 -0.433643 -0.143337 0.121745 0.124506 -0.438432 -0.200880 0.283229 0.418537 -0.027463 -0.855092 -0.658912 -0.590802 -0.820798 -0.769878 -0.736057 -0.194342 -0.168714 0.396412 0.616116 1.658865 -0.138035 1.167152 1.025358 0.796588 0.407629 0.514475 0.400619 0.443714 -0.002646 0.870260 -0.764603 0.730578 1.110492 -0.608933 0.705190 -0.825421 -0.376406 -0.656926 0.269333 -0.928691 0.888902 0.982817 0.875070 0.206304 0.823012 1.512624 -0.241451 -0.632409 0.206653 0.251264 -0.412865 1.374518 -0.286607 1.061761 -0.721583 1.130719 1.135225 0.647621 -0.419089 -0.819793 0.589170 0.495071 0.057295 0.589341 -0.044307 -0.493822 0.532872 0.581166 -0.157645 0.848160 -0.116737 0.558198 0.804413 -0.326643 -0.185964 0.869017 0.624516 0.264712 0.688595 0.889122 1.048401 0.864865 0.852227 0.384655 -0.085109 -0.580128 0.937172 -0.287271 0.318952 -0.014078 0.506136 -0.062806 -0.973968 0.118459 -0.523186 -0.023027 0.611764 1.035569 -0.182044 0.340241 0.202174 -0.083790 0.390753 0.296969 -0.050286 -0.118224 0.467199 0.130593 -0.271192 0.382029 1.007539 0.595351 -0.006063 -0.132147 -0.999593 -0.646349 -0.757701 0.804300 0.546743 0.928953 -0.897176 -0.971969 -0.468195 0.980314 -0.115504 0.059336 0.965839 -0.323509 0.430463 0.401321 -0.367076 0.999223 -0.571371 0.382096 0.085157 -0.230549 0.914974 -0.122239 -0.763665 0.042070 -0.279864 -0.979080 -0.777049 0.217820 -0.369403 -0.775692 -0.484378 -0.396566 0.097896 -0.642894 0.444993 -0.608190 -1.022944 -0.876854 0.472634 -0.736407 -1.222353 0.140211 1.048096 -0.095072 -0.603061 -0.861588 -1.056427 -0.195483 -1.096653 -1.176243 -1.146290 0.498840 -0.895942 0.127818 0.661520 0.349739 0.602866 -0.046440 0.086288 0.252760 0.908154 0.933220 -0.829326 0.622272 -0.792916 0.321903 0.625269 0.163438 -1.064690 -0.501930 -0.248006 -1.716072 -1.041728 -1.702753 -1.581965 -1.308508 -1.363220 -1.471110 -1.522246 -0.318187 0.488378 0.454014 -0.328239 -1.006102 -0.661589 0.415963 0.136218 -0.806275 -0.930040 -0.009686 -0.648219 0.784885 -0.144091 -1.003603 0.604633 0.611673 -0.525079 0.626667 0.057824 0.627028 0.195878 -0.133473 0.048564 -0.306104 -1.193458 -0.933165 -0.980749 -0.125580 -0.841563 -0.288062 0.779116 -0.443191 0.206140 0.090712 -0.061372 -0.526578 0.774576 0.907074 0.174498 0.815896 0.099735 -0.698748 0.736940 -0.595350 0.679699 -0.257145 0.240258 0.507769 0.209158 0.615500 -0.247794 -0.131072 -0.322108 0.008110 -0.365946 0.332021 0.390368 0.248074 -0.295201 0.990814 0.895297 -0.276494 -0.091214 -0.325041 0.417240
-1.799685 -0.079249 0.241947 0.135557 -0.054097 0.800551 -0.149805 -0.228183 0.780633 0.489022 -0.191480 0.722669 -0.656937 0.652345 -0.728458 -0.554159 -0.500801 -0.368132 -0.882974 0.607645 -0.576811 0.275540 -0.098363 0.522516 0.620673 -0.523218 0.904965 -0.100654 -0.462936 0.313106 -0.515767 0.922469 0.053454 0.316356 -0.697039 0.738341 -0.418669 -0.476276 -0.620080 0.226968 -0.508882 0.515730 -0.516530 -0.373420 -1.263635 -0.560283 -0.885171 0.695867 0.594781 0.978362 -0.587459 0.625028 -0.966095 -0.922040 -0.186657 -0.563174 0.572689 -0.948110 0.800257 0.905900 -0.163340 0.896440 0.258045 0.528314 -0.776475 0.248733 -0.003616 0.724712 -0.534899 -0.320683 0.196786 0.849377 -0.968148 0.053749 -0.197618 0.372226 -0.061658 0.543879 0.393062 0.075175 0.667042 0.216283 -0.034991 0.102988 0.201557 -0.076312 0.613027 0.089242 -0.989081 0.730158 0.632122 -0.051370 0.018317 -0.903823 -0.493381 1.053278 -0.432961 -0.163947 0.902744 0.910436 1.145904 0.152148 0.325081 0.158010 -0.263851 -0.081018 0.372156 -0.526861 0.083551 -0.389831 -0.912059 -0.111856 0.907095 0.063522 0.262964 -0.255499 -0.544437 -0.787688 0.529956 0.401998 -0.164378 1.125923 1.327056 1.328245 0.269410 0.688579 0.130632 0.027634 -0.110466 -0.623549 0.362818 -0.343938 -1.014118 -0.160874 -1.465185 -0.881371 -0.638682 -0.469990 -0.253246 0.123963 0.203837 -0.187639 -0.599111 -0.528437 -0.428211 0.383709 -0.333360 -0.713646 0.279283 -0.355350 0.879423 1.487662 1.588125 1.211716 0.567885 1.086609 0.320294 0.980570 2.099045 0.030339 -0.112067 0.516281 -0.095004 0.911883 -0.639806 0.130982 0.516016 -1.097739 -0.415986 0.281513 0.090649 0.137915 0.691228 0.105262 0.174845 -0.087662 0.830492 -0.320565 0.114656 0.329524 -0.344350 -0.497079 -0.112968 0.725070 0.198225 0.057435 -0.248363 1.058799 -0.389859 -0.165876 -0.182040 0.114357 -0.523647 -0.635492 -0.833510 -0.920963 0.131204 -0.856284 -0.234995 -0.274532 -0.816100 0.785518 -0.317907 -0.901773 -0.036721 -0.343844 -0.186627 -0.121625 -0.253597 -0.226892 -0.754942 -0.320516 0.776056 -0.841521 0.186344 -0.370060 -0.489409 -0.199653 -0.395139 -1.476685 -0.047647 -0.743562 0.455710 -0.566481 0.588480 0.711982 0.272054 -0.271546 -0.751272 -0.812001 -0.512276 0.033915 -0.809447 0.049914 -0.670760 -0.065530 0.035949 -0.475123 -0.396489 -0.778984 -1.011242 -0.670120 -0.750903 -0.612380 -0.453696 -0.480732 -0.130744 -0.643417 0.109808 -1.279154 -1.236387 -0.406352 0.277926 -0.369223 0.790481 0.030127 -0.951829 0.073540 -0.436117 -0.250607 0.048561 -0.193983 -0.096788 -0.312651 0.710941 -0.119150 0.010547 -0.700161 0.053095 -0.148200 -0.536621 -1.141958 -0.644151 -0.294518 0.066023 -0.451947 -0.741426 -0.684061 -1.514344 -1.215608 0.860871 -0.805613 -0.213168 0.063719 -0.604256 -0.998648 -0.538818 -0.206042 -0.641703 0.704607 -0.334479 -1.792112 -1.301562 -0.412034 -1.433396 -0.656500 -1.420930 -0.551625 -0.886345 -0.016879 -0.755658 -1.227991 -0.345696 -0.476659 -0.192416 -0.689341 -0.499189 0.498722 0.078575 -0.459561 -0.395747 -1.002919 -0.326083 -0.607979 -0.330496 0.413995 0.201188 0.799087 1.112713 1.572786 1.996553 -0.630096 -1.838423 -1.333445 -1.328020 -0.229791 -0.161187 -0.797485 0.279101 -0.470107 -0.922314 0.380144 -0.562332 -0.920615 -0.425921 -0.824894 0.274912 -0.165072 -0.852162 -0.724447 -0.357509 -0.686788 1.213175 -0.131650 -0.396921 1.078781 0.149097 0.245430 1.272517 1.143186 1.076922 0.291283 -0.480503 0.913608 1.223425 1.522467 1.437116 1.345611 1.563717 2.389802 1.948601 2.201919 0.433373 0.916752 -0.776783 -0.853775 0.085474 -0.860208 0.701055 -0.894098 0.557762 0.990265 -0.966260 0.072684 1.001760 0.633061 1.730908 0.224989 1.248907 0.302835 0.367205 -0.231731 0.099619 0.807154 1.493865 1.799164 0.766056 0.871003 1.643431 0.643803 -0.531309 -0.404156 0.273163 0.347908 -0.945257 0.699047 0.051484 -0.591598 -0.697106 -0.445172 0.712310 1.240629 0.382231 -0.050731 0.952345 -0.301086 0.578419 -0.296942 -0.116870 0.234967 -0.331161 0.249812 -2.023355 -0.724196 0.498410 0.215424 1.082629 0.575800 0.196590 -0.221243 -0.077301 0.612804 0.036472 0.508331 0.233001 -1.224847 1.447134 0.904054 0.908742 0.562087 0.188069 1.125729 0.436502 0.304008 1.212437 0.419433 0.108852 0.013798 0.831018 -0.538785 0.377011 -0.028302 0.137104 0.347212 0.824980 0.748432 1.322683 -0.157899 0.484787 0.893346 0.475522 -0.572430 0.883690 -0.005065 0.093468 -0.364890 -0.707329 -0.386144 0.054793 1.146718 0.579606 0.438080 -0.731615 0.254081 0.187549 0.384935 -0.863918 0.662681 0.384056 -0.143138 -0.186528 0.767047 -0.165358 0.185898 0.561702 1.147272 0.874529 -0.176524 0.351923 -0.667576 0.655526 0.035361 0.407709 0.047143 1.061730 0.389783 0.051831 1.001186 0.676567 0.507257 -0.273289 -0.524195 -0.900962 0.179245 -0.052378 0.293211 0.588744 -0.458842 0.512590 0.614316 0.779136 0.774719 0.370280 0.009484 1.018040 -0.429285 0.300302 0.535485 0.378242 1.077369 -0.122560 -0.010630 -0.144290 0.953771 -0.216458 0.020446 0.000012 -0.417819 0.282885 -0.532105 1.288794 0.716191 -1.364884 -0.142115 0.222961 0.447797 1.532521 2.623272 1.038887 1.085869 0.913121 0.513632 0.974280 -0.126465 -0.138418 -0.923379 0.400447 -0.045078 0.152246 1.289223 0.555675 0.429556 -0.391548 0.878360 0.315640 -0.384113 -0.303041 0.010225 0.135128 0.340175 0.086744 -0.063283 0.232238 1.074341 1.093253 1.750883 0.682258 0.649873 -0.096731 0.074212 -0.219939 0.165077 0.312030 -0.137805 0.452619 2.000503 0.700846 0.348184 -0.053772 0.025553 0.524104 0.589572 0.659282 -0.288708 0.106843 -0.640924 0.467799 0.248365 -0.141930 1.462652 0.804477 0.948657 1.473197 1.846280 2.066159 0.361061 -0.595596 0.064135 -0.401874 -0.238286 0.653841 -0.773779 0.733333 1.169159 0.425178 1.372495 0.393979 0.061457 -0.107504 0.690838 -0.872930 -0.031191 0.908726 -0.738685 -0.062513 0.604316 1.056317 1.951552 0.238020 2.030756 1.894834 1.445924 0.419949 -0.259608 0.193332 -0.874235 0.032258 -0.157092 0.094156 -0.754134 0.383778 0.260640 0.385822 0.738537 0.086899 0.390498 0.038429 0.636625 0.354973 0.756649 1.018529 -0.575688 -0.141554 -0.245015 0.288541 0.130310 -0.293584 1.890330 0.908937 1.956129 -0.194949 0.697594 0.914686 0.688653 0.162115 -0.895971 -0.553817 -0.572868 1.101835 0.058833 -0.910248 -0.989046 -0.547005 1.212303 0.178429 -0.494597 0.418792 -0.603758 0.465503 0.031567 -0.212465 -0.623076 0.597181 0.557831 1.428288 1.686170 0.789884 0.014467 -0.122374 -0.363738 0.946329 -1.009966 0.202740 -0.665420 -0.662290 -0.966012 -0.109484 -0.030749 -0.608048 -1.283795 -1.016887 -0.156459 0.114539 1.091539 0.580752 0.630710 -0.100175 0.512713 0.093844 1.185623 0.530750 0.809370 0.207647 1.043415 -0.261781 0.701031 0.281611 0.761838 0.468034 -0.414199 -0.035217 0.580788 -0.872521 0.509236 -0.321287 0.305243 -0.686702 0.929524 0.428589 0.283328 -1.249681 -1.201253 -0.209723 -1.087323 -0.605518 0.899810 0.132013 -0.430915 -1.196900 -0.927211 -1.025286 -0.215091 -0.589678 0.430427 0.437791 0.686176 0.687700 0.645575 0.838944 0.487506 0.483929 -0.925277 0.850819 -0.326812 0.751873 0.231488 0.864684 1.143346 0.049093 -0.217354 0.510678 0.344262 0.357020 0.030438 0.056630 -0.348592 -0.255436 -0.520000 -0.626694 0.249225 -0.502952 0.319000 0.366474 -0.776188 0.920845 0.821696 0.246554 0.479799 0.829302 0.401788 0.798943 0.769037 -0.192256 -0.270834 0.162480 0.492064 -0.520186 -0.366096 -0.573356 0.153787 -1.133544 0.314579 0.462111 -0.957317 -0.696622 -0.990193 -0.069270 0.045617 -0.381404 -0.264332 -0.711260 0.177122 -0.228161 0.300905 -0.457025
-2.242975 -0.720884 -0.150336 -0.026125 0.422687 -0.410318 -0.803056 -0.467660 -0.082949 0.972455 0.654786 -0.500404 0.101557 -0.568859 -0.741247 0.567231 0.574854 0.968677 0.334568 -0.157016 -0.581486 0.365560 0.894487 -0.687518 0.573493 0.181505 0.186651 -0.734006 -0.584711 -0.337416 0.648679 -0.522666 0.233397 0.394318 0.702089 0.364633 0.541586 -0.869346 0.040845 -0.671230 0.709184 -0.912043 -0.528548 -0.085087 -0.255470 -0.069679 -0.830553 -0.830238 0.678876 0.165740 0.749549 -0.549291 0.991897 0.591519 -0.435354 -0.345946 0.978183 0.871693 -0.683691 0.553952 -0.080468 -0.632536 -0.808694 0.733684 -0.325796 -0.990651 -1.087226 0.195863 -0.389158 -1.057569 0.016457 -0.506563 -0.247793 0.222269 0.045737 -0.606697 -0.207478 -1.012150 -0.428028 0.359268 0.506887 0.108194 0.153449 -0.180187 0.916095 -0.152000 0.279734 0.143401 0.659641 -0.722275 0.479894 0.604985 0.455049 -0.371282 -0.193047 0.066024 0.243683 -0.782841 0.353979 0.012231 -0.961017 -0.187295 -1.369995 -0.566796 -0.149444 0.276496 -0.032025 -0.147827 0.180896 0.801505 -0.970157 -0.913411 -0.815372 -0.811188 -0.185083 -0.762335 -0.312382 0.854577 -0.785917 0.298662 0.283576 -0.262243 -0.926183 0.076569 -0.091985 0.730499 -0.354587 0.434982 0.802295 -0.170195 -0.379118 1.588918 -1.087905 -0.015302 0.144910 -0.577281 0.044379 0.152512 -0.133278 -0.570746 -0.358885 0.028713 0.667513 0.731299 -0.754020 0.552353 -0.013960 1.028983 0.227194 0.675448 -0.033929 0.642029 -0.517060 -0.135907 0.768613 -0.220827 -1.054585 0.827404 -0.303131 0.069693 0.452452 0.836318 -0.322660 0.706992 0.799076 0.428097 1.035443 0.946919 -0.233909 0.964588 -0.759411 0.974458 0.449597 0.371848 1.144390 -0.738284 -0.230552 0.416781 -0.473509 0.760139 -0.243440 -0.447444 1.421401 -0.804301 0.345078 0.738046 0.190561 -0.444965 -0.172902 -0.279690 0.511971 0.010109 1.630615 1.669651 0.944590 -0.180359 0.761419 -0.747134 0.767087 -0.170356 0.919098 -0.432567 0.488136 -0.085101 -0.982284 -0.216468 0.292568 0.448807 0.350111 0.697035 0.002804 -0.234470 0.279211 -0.829891 0.621586 -0.959596 0.352859 0.961853 0.887147 0.965628 0.295286 0.308568 1.286051 0.413536 0.836364 -0.309736 0.072602 0.903734 -0.301948 0.146492 0.235025 0.711018 -0.107313 -0.680681 0.478278 -0.568286 -0.303637 -0.739181 0.056325 -0.032144 -0.413962 0.626448 0.018021 0.862027 0.933770 0.307637 -0.236214 0.596711 -0.244358 2.085250 1.037105 -0.446431 0.293039 0.493368 -0.319891 0.593624 1.079688 0.137995 -0.543229 -0.116194 -0.052555 1.033579 -0.016362 0.162251 0.214477 -1.321734 -0.014567 -2.436632 -0.978818 -0.219603 0.141857 -0.770247 -1.004825 0.155022 -0.041763 0.309000 0.316413 1.646044 1.891639 0.819722 0.955885 -0.716348 -0.957050 -0.040705 0.613268 0.757966 -0.564004 0.823903 0.166189 0.534494 -0.270323 0.615396 0.736599 -0.042630 0.449055 0.007121 -1.977029 -1.724401 -1.157879 -1.147570 -1.123423 -0.471272 -0.546314 0.790977 -0.194247 0.821702 0.982293 0.157572 0.657147 0.577664 0.104987 -0.091086 -0.361809 -0.143353 -0.578445 0.265161 0.250177 0.605843 0.376705 0.198028 0.985274 1.767748 2.413456 1.350416 1.736557 0.166004 0.646376 1.209922 -0.705388 -0.652362 -0.499231 -0.450234 -0.403560 -0.696489 -0.195675 -0.612408 0.434771 0.453609 -0.791749 -0.888538 0.046655 -0.237640 -0.213521 -1.007652 0.090965 0.688713 0.552878 1.190909 0.808264 0.621756 1.406288 1.415705 1.231538 0.282454 -0.333410 0.701833 0.091534 0.046588 -0.862284 -2.587053 -3.444475 -2.935919 0.417696 -0.158682 -0.627074 -0.819716 0.690098 -1.144434 -0.718885 0.467516 0.163393 -0.347293 0.924827 0.754143 0.529806 -0.589871 1.357404 0.350285 0.562214 1.245631 0.656071 0.554729 -0.480043 1.093547 0.720983 0.313800 -1.674433 -0.366737 -2.952449 -0.985205 -0.588622 0.909075 -0.009066 0.266846 0.503050 0.602019 -1.285143 -0.658030 -0.331045 -0.883130 -0.213636 0.416696 0.160317 -0.503844 -0.328986 1.256313 0.733694 0.595391 0.552842 1.560693 0.315017 -0.244496 -0.713033 -1.357116 -0.298156 -0.679523 -0.232434 0.136744 -0.699970 -0.116236 0.229245 -0.094981 -0.679018 -0.382095 0.279296 -1.145245 -1.756149 -2.598502 -2.994014 -2.063119 0.092271 0.559524 1.353246 1.807520 0.199090 0.326317 0.458420 -0.211872 -0.147582 -0.745459 0.003705 0.135643 -0.365385 0.859285 0.151704 0.067807 0.344162 -0.436066 -0.797062 -0.381219 -0.802635 -0.796167 -0.300361 -0.778059 -0.930203 -1.446470 -2.481803 -2.012219 -0.961552 -1.020417 0.186386 0.948973 0.673460 0.163836 0.657764 -0.530487 -0.629504 0.080298 0.207478 0.145925 0.090605 -0.219916 -0.113515 -0.315934 -1.694679 -0.632581 0.202850 -0.484796 0.027360 0.613154 1.120942 -0.071609 -0.015243 -1.032421 -0.662043 -2.363656 -3.052466 -3.462322 -2.959339 -0.787864 -0.147700 -0.178615 -0.380855 0.070593 1.104775 0.182102 0.389668 0.452362 0.726255 0.978333 1.221597 -1.058518 -0.125529 0.188176 -0.902603 0.175848 0.447574 -1.185808 0.926417 0.945217 0.181251 0.537284 0.082082 -0.335852 -1.359038 -1.918016 -2.082648 -2.650814 -1.333914 -0.361513 0.154062 -0.334591 -0.219256 -0.662918 0.397499 -0.247912 0.278787 0.016853 -0.017373 -0.413419 -1.131085 0.311160 0.566674 0.683224 0.769028 0.431558 0.242100 0.976966 0.645756 0.881693 0.263056 1.138759 -0.091921 0.272798 -0.961968 -0.516649 -0.856682 -0.367967 1.058621 0.028450 -0.195513 1.233873 -0.155057 0.016656 0.331804 -0.055632 -0.267235 -0.707231 -0.873940 0.008491 0.971490 -0.035131 0.810326 0.530041 -0.873604 -0.404917 0.638837 0.980802 -0.258727 0.706552 0.000858 0.381593 -0.090278 -0.950909 -0.313461 -0.845253 -0.092434 -0.085036 0.346378 -0.286396 -0.309983 0.974424 -0.585491 -0.969404 -1.230508 0.123485 -0.036987 0.878105 0.566093 -0.607515 0.334938 0.015765 0.154820 0.634569 -0.191113 0.318781 0.006224 0.693897 0.090745 0.038362 -0.179355 -0.734617 -0.359696 -0.768960 0.157091 0.167649 1.187467 0.057301 -0.647826 -0.349609 0.829131 -0.667933 -1.435635 -1.069660 -0.426036 0.190822 0.438881 -0.503238 -0.194738 0.234024 -0.730354 0.967731 -0.208988 -0.401564 -0.438739 0.014235 -1.035261 0.077423 0.192318 0.187030 -0.542598 -0.144945 -0.423398 -0.029297 0.779925 -0.409087 0.816588 0.555746 -0.314912 -0.300893 -1.153642 0.485579 0.051270 -0.356590 -0.132207 0.027887 0.268983 -0.598302 -0.280233 0.116514 0.099577 0.124585 0.309888 -0.887946 0.961613 0.461533 -0.708636 0.094937 0.850443 -0.507172 0.153290 -0.060574 0.297854 0.985581 -0.051873 0.276415 -0.926525 -0.684993 0.276578 0.007577 0.680096 -0.668599 -0.581732 -0.867340 -0.257381 0.661961 1.001597 0.028422 0.610743 0.505546 1.015274 0.137813 0.512312 -0.107921 0.024308 -0.599277 -0.592695 0.047376 -0.654939 -0.569948 -0.780336 1.658791 0.866133 -0.124259 0.522655 -1.535431 -0.621308 -1.050850 -0.258373 0.013281 0.972409 0.720811 0.621792 0.653679 0.660694 -0.572004 -0.231115 -0.812957 -0.226770 -0.676884 0.706279 0.634915 -0.220841 0.705819 -0.731485 -0.171356 -1.141861 -1.914451 -0.730117 0.454048 0.722951 0.357922 -0.508226 -0.819513 -0.188030 -0.904730 0.983584 0.494221 0.455138 0.086805 -0.080241 0.971737 -0.846171 -0.691892 0.844777 0.286685 -0.510771 -0.286592 -0.303920 0.691511 -1.038085 -0.094161 -0.371709 -1.123672 -0.473608 -0.397421 -1.162934 -1.764777 -0.012830 -0.391822 -0.026048 0.793859 -0.633049 -0.672915 -0.814259 -0.444422 0.559259 0.941934 0.866693 0.113348 0.587908 0.915004 0.231560 0.178508 0.064731 0.236524 0.751758 0.258865 -0.534741 0.354217 -0.652639 -0.050142 -0.037570 -0.027324 -0.239214 0.560261 0.635035 -0.971269 -0.799596 0.101807 -0.010406 -0.200709 -0.645323 -0.422663 0.698323
3.666867 -0.303586 -0.177170 0.696081 -0.152254 0.485325 0.719458 -0.569762 -0.585209 0.553787 -0.203507 0.943936 -0.696898 0.058361 0.481396 -0.227282 -0.094921 0.949460 0.008670 -0.170112 -0.284158 -0.337880 0.087555 -0.634956 -0.856675 -0.427117 -0.771607 -0.061150 -0.508675 0.316412 -0.897236 -0.633609 0.373612 -0.235770 0.610631 -0.774478 -0.528732 -0.079692 0.848918 -0.101622 0.985505 -0.322810 0.831685 0.335838 0.085592 0.395234 -0.946221 -0.776870 -0.827946 0.211681 0.784193 0.630552 -0.146409 0.275491 -0.978726 0.148083 -0.800749 -0.765104 -0.975052 -0.709507 0.426016 -0.189322 -0.276472 -0.772369 0.781818 0.051043 -0.561391 0.218466 -0.181445 0.010504 0.055839 0.640373 0.637191 -0.698027 0.168905 -0.780184 -0.731931 -0.346551 0.695174 0.588507 -0.202866 -0.483040 0.427682 0.135363 -0.173318 0.668825 -0.824779 -0.082007 0.646518 -0.330914 0.859943 0.061152 0.391214 -0.672211 -0.898273 0.075546 -0.364201 0.448409 0.295551 -0.731642 0.266462 0.797482 1.156246 0.257413 -0.622644 -0.412626 -0.374398 0.375126 -0.531864 0.117850 -0.133333 0.966796 -0.101155 0.412316 0.104998 -0.647150 -0.951412 0.445915 0.978880 0.762040 0.786987 0.856369 0.709603 -0.277218 -0.250399 0.206126 -0.077759 -0.120187 0.303052 0.056181 -0.206874 0.721077 0.111541 -0.740222 0.519764 -0.290478 0.179073 0.898194 0.439031 0.740761 -0.057108 0.687511 -0.451556 0.805787 0.896246 0.744369 0.486219 -0.195654 -0.073869 -0.492360 0.436460 -0.734417 0.393977 -0.619224 0.056574 -0.322168 0.236621 0.730087 -0.567203 -0.178203 -0.587094 1.136862 0.394653 0.514523 0.952378 -0.208713 -0.420616 0.736900 -0.674899 0.369047 -0.083258 0.228996 -0.608992 0.777478 0.322657 0.361236 0.321539 1.248742 -0.209683 1.237209 -0.307974 -0.156363 0.000849 -0.184201 0.099471 -0.081994 -0.462191 0.904925 0.526711 -0.180207 -0.175384 0.644624 0.731585 0.666138 0.420290 -0.413023 0.297160 0.218953 -0.173105 -0.421724 1.000977 0.128400 0.103271 0.039058 0.539508 -0.039044 0.392909 -0.319255 1.009624 0.048440 0.126728 1.227434 -1.269831 0.268597 0.445919 0.222332 0.541103 0.632126 0.394693 0.121208 -0.148888 0.059525 0.645320 0.066070 0.388219 -0.674264 -0.822225 0.029933 -0.281621 1.178488 -0.143356 -0.522490 -0.176510 -0.407772 0.259925 -0.220942 0.479926 -0.390837 -1.026402 0.282792 0.031780 1.137663 -0.155774 0.768095 -0.253993 0.530766 -0.938422 0.898741 -0.117019 0.562805 0.408431 0.348532 -0.090598 0.297666 -0.922287 0.054574 0.877814 1.332256 0.438989 1.167127 -1.067586 1.077602 -0.257185 -0.129156 -0.098293 0.234851 0.916530 -0.696117 0.885142 1.038793 0.495100 0.326933 -0.051468 -0.395485 -0.072380 0.225583 0.783756 0.357833 1.117373 0.602876 1.031709 0.617347 0.307322 0.382206 0.644806 0.767730 -0.032235 -0.000884 -1.196552 -0.954452 -0.377553 -0.626191 -0.921995 -0.858035 -1.063529 -0.763848 -0.623812 0.513511 -0.299828 1.121058 -0.287244 0.599594 0.985050 0.222504 -0.339685 -0.318204 0.610910 -0.517669 0.674762 -0.691291 -0.819792 0.088065 1.184970 -0.805885 -0.740976 -0.818924 -1.140936 -0.024448 -1.615918 -1.049065 -0.485918 0.041049 -0.378018 -0.745879 -0.199491 -1.606556 -0.197924 -0.269763 0.195878 -0.300248 -0.513542 -0.724569 -1.680105 -0.588379 -0.101079 -0.652559 -0.279079 -0.084339 -0.265029 0.828171 0.558108 -0.082901 -0.733571 -0.774087 -0.966565 -0.102461 -0.101539 0.310632 -0.034132 -0.199919 -0.564519 -1.533222 -0.565113 -0.945522 0.474089 -0.402139 -1.012991 -0.678396 -0.638240 -0.585250 0.964172 0.195035 -0.680959 0.331945 -0.901059 0.090415 -0.217078 0.071121 0.837703 1.027169 -0.239652 0.996201 -0.355240 -0.103574 -0.348226 0.794442 -0.181560 -0.114437 -1.301627 -0.677360 -1.458161 -0.954088 -0.279006 -0.733389 0.609284 -0.214522 0.936173 -0.200097 1.453176 0.424180 -0.038788 0.011281 -0.452562 0.566333 0.607610 -0.542259 1.199975 0.112312 0.741815 -0.060799 1.141546 0.558639 -0.463164 -0.267083 -0.917278 -0.509984 -0.514683 -0.392569 -0.780164 -1.105680 -0.726424 -0.012272 0.361974 -0.714573 1.773766 1.373742 0.390830 0.398890 -0.350566 0.682881 0.058352 -0.603153 -0.718102 -0.676905 0.721163 0.180770 0.311844 0.678500 -0.495779 0.135661 0.162218 -0.105591 -0.383792 -1.328360 -0.502899 -1.226152 0.006133 -1.144137 -1.385319 1.783930 1.268054 2.114749 1.203546 2.167432 1.931451 0.827264 0.033808 -0.066070 0.003388 0.232165 -0.308940 0.979961 0.456621 -0.538117 1.396597 0.292266 -1.445381 -0.889675 -1.680083 0.195277 -0.295921 0.134939 -0.458792 -1.583941 -1.149605 -0.956682 1.227818 1.070362 1.291371 1.948573 1.896614 2.043877 0.293095 -0.026749 -1.120388 -0.000187 -0.857614 0.776527 0.125591 -0.868122 0.683350 0.941952 0.401690 -0.678588 -0.432234 -0.589309 -2.395668 -2.025875 -1.598947 -0.503821 -2.432772 -2.260586 0.645877 -0.231808 2.854541 1.587254 1.931807 -0.225421 0.038177 0.898577 -0.932899 0.248669 -0.153134 0.398776 0.451499 -0.539687 0.499351 0.497216 0.075128 0.104211 0.745795 0.142944 -1.387505 -0.823335 -1.798510 -1.985930 -3.078513 -2.763083 -2.045721 -0.858296 1.314727 1.746590 1.075915 -0.269393 0.272024 0.744319 0.249070 -0.238103 0.373779 0.462282 -0.023233 -0.576806 -0.996032 -0.561150 0.677640 -0.452932 0.065563 1.458746 2.054956 0.273142 -0.153414 -0.835063 -0.812805 -0.440287 0.471808 -1.377724 -0.140528 0.664827 1.730439 -0.046485 0.354650 0.422155 0.700525 -0.004723 0.240686 -0.713890 0.145907 -0.004946 -0.082242 0.475545 -0.622718 -0.500633 -0.181001 0.885765 0.173664 0.921311 1.370091 0.274800 -0.459870 0.174265 0.005368 1.024908 0.597612 0.267409 0.260433 1.048923 0.708837 0.336051 0.415232 -0.353914 -0.824428 0.083888 -0.253969 -0.580497 0.256783 -0.753140 -0.233562 0.235897 -0.148233 0.442297 -0.749651 0.721278 -0.252610 1.374626 0.238504 0.577417 0.347359 0.914210 -0.526807 0.036647 0.112187 1.004797 1.388897 0.835987 0.876728 0.179684 0.495051 0.462677 -0.469874 0.140907 -0.042830 -0.375742 -0.773911 -0.356573 -0.530976 -0.921515 0.276302 -0.788380 -0.277625 0.205073 1.183010 0.051974 0.168890 -0.431232 0.485272 0.162719 0.429274 -0.112053 0.840550 0.809719 0.720491 0.543575 0.759690 0.852568 0.620949 0.394289 0.253360 0.054106 -0.672389 -0.095962 -1.279634 0.339893 0.965804 -0.760259 0.503667 0.254233 0.673300 0.963984 -0.836500 0.912552 0.464226 0.713509 -0.119639 -0.392239 -0.151850 1.065834 0.185900 0.598273 -0.784465 0.929557 0.513543 0.364765 0.216848 0.278562 -0.171421 0.858549 -0.482054 -0.424896 -0.409373 -0.855500 -0.098407 0.765360 -0.183201 0.473293 -0.599371 -0.046109 -0.799301 0.324511 0.641972 0.523594 0.693444 1.084601 1.439711 1.064994 -0.286296 -0.088388 0.827799 1.868331 -0.816819 1.030153 0.400454 -0.117601 -0.708187 -0.263161 0.286355 0.242281 0.688582 0.237312 -0.470131 -0.303830 -0.617967 0.000962 -0.708573 0.303142 0.350187 -0.738886 -0.214871 1.261405 1.611743 0.195860 0.696023 0.458348 1.005973 1.617037 0.311044 -0.019666 0.223574 0.949381 -0.369541 -0.085624 -0.181746 -0.683153 0.516829 -0.439007 0.688328 0.361204 0.221229 -0.582899 -0.411482 -0.929062 0.038247 -0.480852 0.008879 -0.341925 0.425026 -0.961418 0.598165 0.266189 -0.527258 1.067588 -0.662742 -0.166161 -1.053806 -0.559145 0.006165 -0.910442 0.851325 -0.052681 0.384232 0.846301 -0.635118 0.047993 0.410726 0.836661 -0.172269 -0.344912 -0.107786 0.500096 0.687778 0.214994 -0.203918 0.595290 -0.936948 -0.143888 0.093995 0.940962 0.284928 0.969823 0.095641 -0.740750 -0.213037 0.291681 0.249087 0.125726 0.684605 0.792302 0.333631 -0.259359 -0.593360 -0.514803 -0.134425 0.687918 0.715138 -0.835026 0.824243
-2.896218 0.077534 0.220127 -0.731448 -0.803548 -0.960095 0.125900 -0.833382 -0.501754 0.136558 0.465352 0.794607 0.661644 -0.652311 -0.350328 0.945830 -0.897487 -0.979725 0.141026 0.388805 -0.147392 -0.635558 -0.635897 -0.029907 0.242807 -0.591737 -0.352844 -0.169050 0.395415 -0.108817 -0.213552 -0.966274 0.297557 -0.572250 -0.812266 0.968341 0.782245 -0.461064 0.320804 0.559171 0.222199 -1.139940 -0.389267 -0.407019 0.173313 -1.000941 -1.183884 0.735836 -0.093967 -0.296220 0.527813 -0.218535 0.260263 -0.894520 0.512133 -0.632264 0.020281 -0.574226 -0.201728 -0.428613 -0.054055 0.869078 -0.572696 0.213821 -0.626768 0.175164 0.248285 -0.533795 -0.602132 0.014224 -0.943964 -0.349751 0.296516 -0.613754 0.000574 -0.670002 -0.590063 -0.167022 -0.176753 0.801902 -0.082722 -0.950755 -0.948852 0.008775 0.457296 0.595377 -0.934742 -0.393383 0.529829 0.409595 -0.435678 -0.533009 -0.390307 0.197649 -1.587425 -0.279315 -1.596720 -1.236059 -1.094097 0.390422 -0.589678 0.517564 -0.143783 0.123214 0.304495 0.090486 -0.441447 -0.219130 0.259157 -1.221954 0.903846 0.646507 -0.982556 -0.575036 -0.745839 -0.314219 0.134704 -0.746410 0.259614 -0.802969 -0.049221 -0.231685 -0.077180 -0.957672 0.237980 -0.660331 0.053815 0.030350 -0.763439 0.110910 0.327539 0.498921 -0.054516 0.409884 -0.290255 0.072152 0.595350 -0.135935 0.928162 -0.180760 -0.240115 -0.202247 0.926838 -0.175779 0.647326 0.795515 0.638057 -0.308169 -0.405025 -0.416007 -0.248323 -1.652439 -0.344079 0.157370 -0.826439 0.258757 -1.233811 0.038600 0.613681 -0.538364 -0.029969 0.141032 0.272568 -0.045590 -0.529568 -0.146324 0.379753 0.173794 -0.039448 0.067219 0.804942 -0.484516 0.989793 -0.757523 0.072176 0.397481 -1.007944 -0.703453 0.332380 -0.169612 -0.666523 -0.031105 0.159953 -1.318857 -1.191187 0.515040 0.174783 -0.101035 0.726029 -0.136430 0.353955 0.741580 -0.054563 -0.854037 -0.147832 1.025029 -0.617599 0.126233 0.238091 0.784367 -0.332371 1.124998 1.664285 -0.065054 0.448219 0.256629 1.002061 0.550966 -0.146465 -0.688539 0.561441 -0.875400 -2.300272 -0.061593 -0.560886 0.131864 1.000943 -0.441632 1.087062 0.793880 -0.172309 -0.499231 0.014521 -0.548717 -0.682212 -0.697478 -0.315007 0.665644 0.306687 1.578503 0.768410 1.693632 1.374404 -0.509169 0.584757 -0.066417 0.906276 0.304295 0.443228 -1.250476 -1.755481 -0.330336 0.162619 -0.036553 0.246033 0.285681 0.635685 0.678501 -0.079235 -1.304526 0.144888 1.276615 0.288811 -0.305654 0.316136 -0.062427 0.251316 1.422715 1.103739 -0.359618 -1.009113 0.773583 0.070693 -0.193897 0.756738 0.005498 0.711372 -3.061603 -1.298135 1.222203 1.234517 0.585469 1.525045 1.739297 0.005897 0.203997 1.109654 -0.333322 0.815761 0.598588 -0.317782 0.248152 -0.363664 0.331998 0.212402 0.786506 0.460649 0.504640 0.853866 -0.316258 0.071488 -0.661819 -0.292495 -0.395976 -0.607574 -2.144314 0.601300 1.130814 0.929432 0.408405 0.901254 0.174401 1.095858 0.143298 0.761844 0.645559 -1.162737 0.655448 1.019095 -0.550162 0.604805 1.013700 -0.855496 -0.231958 -1.094523 -0.708390 0.142318 0.029980 -0.411878 -0.558114 -1.570600 -0.849228 -1.090074 0.599714 1.341148 0.334912 0.402614 -0.018165 0.121470 0.689400 -0.285420 0.001089 0.111375 0.331691 -0.235740 -0.851841 0.202352 0.375070 -0.745589 0.299777 0.091696 -0.295703 -0.613992 -1.671779 -1.002897 -1.471976 -0.830473 -0.692762 -1.247589 -1.715887 0.265800 0.130708 0.455198 -0.303172 1.313451 -0.431240 0.457931 1.118775 0.566018 1.012574 0.367180 0.260217 -0.282419 0.545395 0.666568 0.950207 0.941568 0.800972 -0.704550 -0.947427 -2.308171 -0.771773 -1.392288 -0.059723 -1.569961 -1.526599 0.342318 -0.066792 0.452694 0.203964 0.236838 -0.085521 0.397651 0.033265 -0.199411 1.053747 0.446101 0.781349 -0.170784 0.063534 0.015568 -0.419714 0.298112 -0.471303 0.964035 0.200617 -0.472559 -1.464937 -1.160346 -2.602434 -1.486588 -1.540757 -0.104193 -0.265385 0.398140 0.905288 1.289454 1.013804 0.479032 -0.243266 1.608660 0.321701 0.299229 0.215267 -0.135048 -0.680203 -1.726979 -0.255857 1.022395 0.382922 -0.883623 0.511289 0.433429 0.340642 0.128828 0.075319 -1.160603 -0.662365 -1.020754 -1.081472 0.164444 -0.686729 0.678687 0.257799 0.467185 1.042038 0.623001 -0.205856 0.135394 -0.331115 0.228851 -0.082237 -0.851148 -0.836611 -1.457574 -0.539934 0.523160 -0.319585 -0.627962 0.707148 -0.559605 0.776081 0.221528 0.021203 -1.159858 -0.300306 -0.431049 0.665049 0.283983 0.038469 0.481899 1.262794 1.362748 0.002629 1.110722 0.024725 -0.304775 0.401893 0.407088 -1.276293 0.681824 -0.301871 -0.462883 0.242523 -0.187670 0.253531 -0.257025 -0.448037 0.564724 -0.038782 -0.620952 1.239676 0.935585 -0.113234 0.134300 0.504445 -0.130546 -0.358055 -0.332374 1.617109 0.841960 0.394842 -0.620539 -0.404692 0.438844 -0.412065 -0.600956 -1.423151 -0.162741 0.539244 1.036747 0.166944 1.087456 0.989203 0.314049 0.414414 0.108263 0.085303 -0.163779 0.488070 0.225654 0.606468 -0.284942 -0.492570 -0.180954 0.075950 1.008242 1.518607 1.092197 0.366637 -0.239621 -0.296146 0.256582 -1.005559 0.058593 1.068918 -0.679328 -0.445341 0.609421 0.117810 -0.512878 -0.924611 -0.263583 -0.116376 0.330416 -0.018870 1.165146 0.281773 0.482476 0.911004 0.815851 0.448540 1.331643 1.687670 0.310597 -0.869127 -1.157182 -0.386686 -0.413013 0.066650 0.521673 -0.723804 0.430380 -1.304645 -1.334212 0.295284 1.963384 -0.138115 0.151391 0.526826 0.409267 -0.520455 0.691364 -0.903132 -0.670841 0.466515 0.485836 0.540324 -0.180765 -0.151245 0.272716 -0.914298 -0.355406 -1.163312 -0.953894 -1.032474 0.788782 -0.966308 -0.053881 -0.090216 -0.292970 0.628446 -0.113263 0.528170 0.512334 -0.576598 0.120495 0.275554 -0.057353 0.483782 -0.882677 -0.060636 0.070614 -0.925059 -0.824503 0.295205 0.313832 -0.526639 0.121517 -0.548481 -0.083686 0.196933 0.964139 -0.089610 -0.899191 0.199624 -0.242681 -0.064283 0.020665 0.368614 0.627555 0.753533 0.379569 -0.575435 0.966741 0.465783 -0.245918 0.489648 0.257029 -0.751075 -0.550277 0.617960 0.837803 0.029033 1.265196 0.126242 -0.263001 -0.408781 0.878166 -1.087044 0.647103 -0.182819 0.201389 -0.007199 -0.285176 0.085067 0.383140 0.072596 0.891522 0.302103 -0.998646 -0.205304 -0.172491 -0.090521 -0.365814 -0.327524 -0.589972 -0.034106 0.179330 0.176215 0.244401 1.090605 0.290986 -0.102129 0.746419 0.101485 0.494828 0.165716 0.953481 0.810119 -0.177932 1.145976 -0.135240 -0.098834 0.203798 0.008164 0.418411 -0.482996 0.240288 0.841760 -0.367226 -0.247157 0.413374 -0.113584 0.989163 0.711168 -0.661401 -0.047736 -0.425209 -0.361821 0.764535 -0.009228 -0.271140 -0.496324 -0.349563 0.404639 -0.596381 0.679956 1.225511 -0.054401 -1.346107 -0.460597 -0.093117 -1.143327 -1.675218 -0.323818 -0.947439 -1.021163 -0.173472 -0.166870 0.694517 0.327011 -0.237153 -0.713305 0.802090 -0.076178 0.505960 0.406612 -0.246991 -1.368461 -1.014639 -0.396123 -1.021597 -0.265937 -0.153121 -0.425401 -0.731506 -0.122625 -1.465654 -0.519701 -1.101881 -1.497299 -1.019883 -1.254635 0.280035 -0.003597 0.878858 0.826841 -0.419847 -0.201777 0.439099 0.319223 -0.826139 -0.473499 0.065514 -0.996205 -0.525805 -0.494728 -0.400321 -0.248403 -1.114565 -0.942439 -0.932868 -1.368419 -0.849700 0.343954 -0.110305 0.024570 -0.018199 -0.237884 0.234156 -0.893475 0.873802 -0.542672 -0.270560 0.380414 -0.288494 -0.105690 0.329861 0.871877 -0.921865 -0.753237 0.290466 -0.577434 0.168538 0.448449 -0.731350 0.152480 0.733052 -0.553124 -0.497023 -0.528214 -0.500129 0.743959 0.080558 -0.835896 -0.650401 -0.472221 0.841404 0.717602 0.686667 -0.442121 -0.246604 0.132275 0.410247
