layer
1.751004 0.778749 0.749021 0.695580 0.295448 0.171157 -0.436834 0.983308 0.599322 0.003272 0.544631 -0.751440 0.842036 -0.910837 -0.543973 0.684901 -0.388860 -0.031357 0.300107 -0.712114 -0.388404 0.773841 0.773684 0.030433 -0.465825 0.760687 -0.004033 -0.333121 0.789393 -0.591034 0.639209 0.677676 0.045592 -0.676124 0.897941 -0.890208 0.756944 0.142610 -0.244730 0.275898 -0.736375 -0.194721 -0.294846 -0.693855 0.692349 -0.806375 0.898302 -0.690161 -0.137149 -0.686600 0.728419 -0.073874 -0.220202 -0.449060 -0.896718 -0.722571 0.557277 -0.643893 0.166877 0.856247 -0.784736 -0.094000 -0.686985 -0.395737 0.502396 0.231538 0.386774 -0.726426 -0.950707 0.627035 -0.483415 0.057792 0.766532 -0.263805 -0.634034 -0.678402 0.213013 -0.949982 -0.414792 0.851154 0.465501 -0.596710 0.170022 -0.120424 0.227108 -0.360057 -0.776200 -0.373968 0.989514 -0.641848 -0.084899 0.260345 -0.967332 -0.538665 0.633375 -0.952147 -1.243478 0.107427 0.159794 -0.896484 -0.613810 0.349955 0.481971 -0.288794 0.750925 0.461880 0.482602 0.013369 -0.847238 0.533108 -0.549277 -0.278292 0.128729 0.245177 -0.083801 0.625369 -0.500834 -0.170386 0.544591 -0.009035 -0.606329 -1.212591 -0.916615 -1.082567 -0.331848 -1.118565 -0.554796 -0.505320 -1.026469 0.189746 -0.419762 0.637282 -0.923237 -0.379647 -0.286388 0.179333 -0.233798 0.199762 0.825452 -0.499165 0.842045 0.320126 0.380151 -0.664447 0.388815 0.122914 0.068341 -0.373340 -1.247622 -0.677848 -0.850745 -0.422378 -1.000235 -1.163771 -0.665876 -0.403815 0.150915 -1.257014 -0.094416 -0.105423 -0.072130 0.006936 -0.010241 -0.614897 -0.086534 0.827347 0.853058 0.634649 0.922078 -0.386899 0.856513 -0.911371 -0.319628 -1.062395 0.498404 -0.910823 -0.026333 -0.304598 -0.668127 -0.783582 -0.402751 -0.472867 0.942357 0.046270 -0.414127 -0.387217 -0.316652 0.567778 0.637981 0.388517 0.590863 1.190727 1.144165 0.336439 0.517280 0.565692 0.931194 0.373125 0.839251 -0.853508 -0.000758 -0.263174 -0.799738 -1.064088 -0.528100 0.012046 0.757924 1.087645 0.187778 1.754226 1.019443 -0.704131 0.877957 0.418193 -0.077527 0.982155 0.867173 0.011604 0.077895 0.372878 0.158420 1.209041 0.224487 -0.929070 0.504271 -0.153279 -0.646605 0.408228 0.139144 -0.834511 -1.339870 -0.167355 -0.288739 1.012758 1.043892 0.023563 0.184277 0.645637 -0.219711 0.430164 0.066360 -0.569737 0.626108 1.626670 -0.514624 0.326501 0.342149 0.998120 1.119970 0.419468 -0.273205 -0.324123 0.812444 -0.190027 0.416729 0.121312 -0.082890 -0.268797 -1.034482 0.553163 -0.730383 -0.110356 0.281371 1.560103 0.798672 1.468096 0.860885 0.658763 0.294365 -0.286120 0.980451 -0.250016 -0.193996 0.752179 1.431634 0.692126 1.506979 1.267466 0.711131 -0.558244 0.244359 0.116152 -0.875428 -0.048442 0.845620 -0.724442 -0.675661 -0.090155 0.516285 1.425695 1.164041 -0.294141 -0.079019 0.729868 -0.273876 -0.332723 -0.143147 0.034409 -0.656989 0.008916 0.250853 0.885386 1.232073 0.001444 0.593197 -0.224254 0.780641 -0.572244 -0.962860 -0.972011 -0.567917 0.875885 -0.815209 -0.206347 -0.447304 0.705241 -0.240995 -0.067889 0.992112 0.231259 0.043971 -0.420375 -0.777192 -1.366844 -0.081517 -0.054196 0.479204 0.404182 0.449824 0.191706 0.933367 -0.247361 0.641869 -0.591231 -0.526035 -0.315768 0.206023 -0.823587 0.719030 -0.850315 -0.303737 0.736097 1.110183 -0.066249 0.221703 0.060273 -0.228585 0.059296 0.790891 -0.673891 -1.010037 -0.801521 -0.293886 -0.871978 1.065703 1.064325 1.748844 1.032208 0.290401 -0.188003 0.125511 0.443892 -0.790917 0.074667 0.035230 0.075026 -0.677394 0.249233 -0.548257 -0.645549 0.101027 0.500260 0.021711 -0.199428 0.309773 -1.009599 0.595286 0.739335 0.378071 -0.531487 -0.135612 -0.397806 1.460315 0.502773 0.054038 0.572597 -0.187482 -0.914729 0.288181 -0.209470 -0.706402 0.707961 0.598292 0.442450 -0.881280 -0.985013 0.874920 0.130395 -0.788408 0.773860 0.806849 0.073740 0.635328 0.307631 -0.627849 -0.114637 -0.087145 -0.466289 -0.727385 -0.202886 0.302749 -0.462339 0.384706 0.726832 -0.935249 -0.097203 0.360344 0.243383 0.134680 -0.552771 -0.840082 -0.818024 -0.990581 0.910229 -0.989761 0.374608 0.267837 0.335683 -0.912221 -1.083295 -0.975530 -0.425777 1.436958 -0.584143 -0.588452 -0.482021 0.212388 -0.479691 1.037009 0.580565 -1.401504 -0.370276 -0.428073 0.540013 -1.519284 -1.058147 0.432649 0.863904 0.502114 0.302319 0.630694 -1.003871 -0.564918 -0.465870 -0.684107 0.184284 0.066114 -0.534666 -0.971751 0.282089 -0.821077 -0.876645 -0.300239 -0.482045 -0.930645 -0.743202 0.367399 0.263313 0.286733 -1.333339 -0.969489 0.112486 0.030562 0.382595 -0.495378 -0.253746 -0.280997 -0.549836 -0.704363 -1.009081 0.509755 0.808642 0.708698 -0.592744 0.238284 -0.263298 0.066371 0.138497 0.010566 -0.761852 -0.281050 0.802594 -0.868478 -0.379153 0.159886 -0.272270 -0.560188 0.178288 0.183456 -0.565125 -1.096822 -0.971731 0.682776 0.942954 0.099168 0.495066 0.472065 -0.410452 0.668185 -0.455582 0.474350 0.213930 -0.192479 -0.155078 -0.081762 -0.102872 -0.109901 0.016302 0.103412 0.454676 0.477740 0.469312 -0.758856 -0.887624 -0.662146 -0.313705 -1.073768 0.143988 -0.537946 -1.114569 0.319017 -0.304132 -0.024196 0.414040 0.098660 -0.420796 0.587383 -0.249774 0.856298 1.115937 -0.701449 0.698989 -0.526542 -0.223230 -1.170619 -0.006310 0.504098 0.905124 -0.597749 -0.320992 0.542064 -0.633821 0.353944 -0.567732 -0.447082 0.475637 -0.981724 0.215842 0.450865 0.627889 -0.093210 0.423212 -0.643501 0.322358 0.829596 0.790889 0.119055 -0.274597 0.642388 0.158940 -0.452763 -0.225151 -0.160522 -1.081100 -0.026281 -1.280163 -0.148516 -0.200286 0.765358 -0.754275 -0.539414 -0.463962 -0.853686 -0.434464 0.974232 0.943789 0.870754 0.409720 -0.942755 -0.182950 0.861923 0.624948 0.283837 -0.540170 0.171264 0.635111 0.544440 0.037079 -0.444258 -0.043060 -0.788512 0.295318 -0.160117 0.232973 -0.585719 -0.438400 0.034748 -0.235383 0.784479 -0.428907 0.162794 -0.032158 -0.742621 -0.383854 0.259396 0.293651 -0.856350 -0.206558 -0.884378 0.000806 -0.677507 0.377102 -0.347823 -0.408539 0.578148 0.548113 0.157772 0.533641 -0.253508 -0.098300 0.358003 1.089719 -0.889662 -0.466195 -0.427193 -0.691599 0.210819 -0.133517 0.465216 0.075448 -0.343731 0.306470 0.350518 -0.131290 -0.131720 -0.641583 0.300872 0.820963 -0.869889 0.377113 -0.486585 0.977540 -0.263826 0.113554 -0.109414 0.706715 1.196243 -0.146785 0.562998 0.267602 -0.306795 0.200859 0.486249 -0.456652 -0.582506 0.384021 -0.505016 0.756280 0.451690 0.844529 -0.022619 0.844675 0.777443 -0.820394 0.933571 -0.732919 -0.122349 0.711613 -0.174026 -0.766816 -0.275471 0.013110 0.151096 0.005924 -0.759326 -0.331765 -0.566371 -0.194079 0.167199 -0.392319 1.215704 -0.523428 0.921228 0.684726 0.602366 0.182818 0.481221 0.021227 0.254272 -0.372540 -0.047196 -0.947560 -0.148857 0.915707 0.683141 0.873549 -0.359203 0.411858 0.392207 -0.495870 -0.865421 -0.372877 0.126008 -0.179071 0.028481 1.163177 1.019100 0.518542 -0.158432 0.936345 1.182660 0.200934 0.689375 -0.296711 0.843978 -0.899288 -0.035262 0.727408 0.707586 0.592632 0.009467 0.641494 -0.027367 0.697407 0.508557 -0.114270 -0.691690 0.050524 -0.742591 0.882301 -0.718819 0.845552 -0.173738 0.974840 0.706275 0.669267 -0.577846 0.852525 0.650380 0.289626 0.727470 0.616492 -0.770037 -0.177167 0.767590 0.913367 -0.051665 -0.464176 0.674498 0.895143 -0.615302 -0.789640 -0.807511 -0.117348 -0.729476 0.188551 -0.340369 -0.789072 0.275537 0.388979 0.211106 -0.168959 0.934859 -0.597640 0.018451 -0.416757 0.654958 -0.504846 -0.913287 -0.749554 -0.843250 -0.328897 -0.157187 0.410609 -0.741231
-0.077136 -0.476881 -0.755141 0.960085 -0.001594 -0.551577 -0.435374 0.963984 0.564679 -0.986785 -0.981453 0.029028 -0.204337 -0.601593 -0.102828 -0.768756 -0.645426 0.339473 0.378811 -0.514976 -0.315747 0.619127 0.613183 0.101959 -0.418524 0.962781 -0.153812 0.400122 0.735975 0.944536 -0.601177 -0.779429 -0.025748 0.124100 -0.998822 0.129568 -0.735573 -0.435905 0.949967 0.762851 0.874854 -0.915428 0.165299 -0.879233 -0.285777 0.420998 -0.864033 -0.152657 -0.261806 -0.188013 0.164195 0.203407 -0.286141 0.776792 -0.471693 -0.871613 -0.715664 -0.448325 0.144174 -0.501038 -0.633953 0.897607 0.904776 -0.788643 0.252012 -0.494111 -0.912223 -0.485266 0.210274 -1.010768 0.022599 -0.022887 -0.606485 -0.424511 -0.142207 -0.002116 -0.295548 0.312258 0.593720 0.206760 0.814827 -0.991019 -0.271656 0.315047 -0.093456 0.538192 0.950678 -0.322363 0.789395 0.154004 -0.027521 -0.955670 -0.378715 0.199190 0.194742 -0.044352 -0.380973 -1.021223 -1.310861 -0.229566 0.096226 0.217875 0.388961 -0.049688 -0.214659 -0.983078 -1.015914 -1.133582 -0.762002 0.848071 -0.475137 -0.791301 0.422516 0.070522 0.568387 -0.160855 0.521420 -0.802675 0.524024 0.063800 -0.317050 0.892753 -0.268468 0.156037 -0.117415 0.051392 0.140843 -0.679867 0.445046 -0.151841 -0.465082 -0.547533 -1.052179 -0.816252 0.681866 -0.351471 -0.361558 0.115252 -0.822724 0.211647 0.592628 -0.991793 -0.930919 0.366641 0.388745 0.680523 -0.085542 -0.637869 0.686315 -0.853782 -0.719335 0.749496 0.404059 -0.149053 0.002484 0.773998 -0.272394 -0.239636 0.744901 0.142508 0.843131 0.082989 0.534067 0.498098 1.412493 -0.282899 0.646160 0.811896 -0.567733 0.191408 -0.277363 0.840898 0.629115 0.850152 -0.062109 -0.618027 0.581712 -0.203362 0.028054 -0.382865 0.716731 0.146798 -0.717622 0.110009 0.129636 0.945871 0.600023 1.097260 1.532371 -0.436318 0.729939 1.197117 0.349646 1.002139 -0.812484 0.074142 -0.112191 0.215092 0.083564 0.384892 0.522674 -0.252594 -0.410529 -0.401791 0.355652 -0.381263 -0.935836 0.730917 -0.461953 0.378959 1.061780 0.268359 1.127330 0.522485 0.468607 0.020700 0.770483 -0.709429 0.315678 -0.161969 0.091059 -0.570191 0.777552 0.918694 -0.835356 -0.490100 -0.286755 0.263063 -0.492565 -0.524291 -0.491787 -0.755222 -0.567725 -0.198291 -0.281226 0.247355 0.370416 -0.269627 -0.120584 0.109248 0.471027 0.638853 -0.357649 -0.060368 -0.242415 0.457317 1.068102 0.541891 0.463075 -0.093933 -0.393628 0.129235 0.442190 0.953903 0.371089 -0.464995 -0.761931 -0.999049 0.392930 0.589904 0.350101 -0.554728 -0.192949 -1.108962 0.516448 0.473321 0.222381 -1.275725 -1.320181 -0.275805 -0.344867 0.610434 1.228752 0.648891 0.287910 -0.192445 -0.000499 0.165933 -0.258425 0.814347 0.686907 0.061016 0.669636 -0.930673 0.442945 -0.779114 -0.436560 -0.836245 -0.675501 -0.998969 -0.517387 0.268834 -1.515295 -0.477577 -1.399436 -0.811426 -0.162990 1.176754 0.366005 0.568147 0.222398 0.171028 1.017130 0.786990 -0.377120 -1.073292 -0.216342 0.472162 -0.580933 0.252492 -0.341872 0.641638 0.716386 -0.640417 -0.053395 -0.642827 -1.503202 0.022526 -0.968266 -1.096952 -0.745089 0.243702 0.307486 -0.142217 0.466231 -0.659512 0.137422 -1.564611 -0.073331 -0.194848 0.206429 -0.362961 -0.154926 0.384809 0.464925 0.352055 0.035339 0.919963 0.027986 0.208153 0.090133 -0.752221 0.661204 -0.691166 0.567621 -0.669108 0.583438 0.134810 0.228425 -0.230136 0.577699 0.996332 0.716939 0.885206 -0.001904 -0.044349 1.069542 0.480823 -0.661759 0.804063 -0.565123 -0.046756 0.421534 -0.091530 0.550864 -0.066567 0.895167 0.288054 0.472708 -0.001287 -0.446910 0.346864 0.202673 1.335810 1.224283 0.703737 -0.173843 1.339731 1.515125 0.824233 0.056673 -0.014673 -0.638281 0.148312 -0.526698 0.194501 0.208191 -0.092177 0.010222 -0.656858 -0.705542 0.735430 -1.013709 0.241229 -0.429726 -0.944215 0.334112 1.099918 0.575571 1.237789 0.355006 0.130284 0.442449 0.749583 0.798529 -0.178546 0.367957 0.830322 1.378486 0.763904 0.742416 0.303363 -0.237933 -0.076364 0.246007 -0.559329 -0.887241 0.006863 -0.022751 0.199239 0.078747 0.158449 -0.453950 -0.010533 -0.968157 0.431618 0.510210 1.090245 -0.247116 0.686290 -0.075832 -0.484580 0.649009 -0.362596 -0.592989 -0.295810 0.546251 0.413984 -0.085247 0.123848 0.387384 -0.867754 -0.250581 0.808453 -1.203578 -0.233083 -0.581244 0.608897 -0.612700 0.628008 0.845938 -0.254864 0.076376 -0.574428 -0.653749 0.892929 -0.127470 1.370294 0.324832 0.347458 0.568472 -0.136318 -0.628364 0.131107 0.573348 0.638516 0.858270 0.438171 -0.062805 -0.935651 -0.059202 0.533538 -0.163218 0.487240 -0.236902 -0.753367 -0.279209 -0.377934 -0.024679 0.750356 -0.356133 0.671147 1.067537 -0.095242 0.437685 -0.532023 0.007480 -0.476701 0.628883 0.490157 -0.210161 -0.517703 0.182613 0.487397 0.473848 -0.508724 0.149462 0.151982 0.227164 -0.232533 -0.651882 -0.510565 0.730454 -0.142847 -0.181219 0.100115 0.687838 -0.567068 0.006003 -0.293778 0.478400 0.587368 -0.726817 -0.616112 0.125027 -0.715924 -0.413939 -0.218396 -0.899451 -0.088345 -0.827204 -0.031946 0.010530 -0.079008 -0.219542 -0.578080 -0.663701 -0.085921 0.495511 -0.698434 0.258402 -0.840302 0.813967 0.506790 0.860086 0.949005 0.311313 -0.395837 -0.497453 1.013328 -0.402721 -0.286760 0.097695 0.718491 -1.054452 -1.306369 -1.361751 -1.015835 0.559618 -0.510764 0.435923 0.860256 -0.058553 -1.137264 0.837802 0.593474 0.414332 -0.374870 0.817884 -0.728092 0.261421 0.665862 -0.267395 -0.225991 0.809608 -0.455483 0.691209 0.617100 0.004462 -0.769912 0.359123 -0.198900 0.188531 -1.062306 -0.986797 -0.266273 -0.507912 0.214558 -0.530686 0.626706 0.570790 0.631944 0.199361 -0.358623 -0.592850 0.370652 0.393679 -0.909880 -0.041371 0.130315 0.560431 0.919575 -0.455318 0.920958 -0.072099 -0.079264 -0.400665 -0.504451 -1.062979 -0.206988 -0.520380 -0.853639 -0.468009 -1.318432 -1.617557 0.076557 -0.410095 -0.566705 -0.412169 -0.259267 -0.206594 -0.943802 -0.796170 -0.653115 -0.249369 -0.198464 -0.780539 -0.370393 -0.365810 -0.976342 -0.130154 -0.234499 0.568623 -0.608072 -0.777674 -0.967406 0.265434 -0.076711 0.723245 -0.031322 -1.126872 -0.633115 -0.791105 -0.299655 -0.648322 0.544742 -0.546854 0.596993 0.414789 0.762000 0.695350 0.913678 0.191288 0.386128 0.338225 0.841581 -0.232531 -0.598489 -0.782890 0.526378 0.042032 0.779594 0.700983 0.091535 -0.017651 0.534594 0.172622 0.856120 1.152298 0.248235 0.382828 -0.242827 -0.024653 -0.047270 -0.353750 0.056452 0.721367 1.004318 0.305422 0.015436 0.526099 -0.561838 -0.338443 -0.364194 0.265777 -0.954767 1.018996 0.119188 -0.563827 -0.606269 -0.040459 -0.396613 0.686477 0.408427 0.254404 -0.516549 -0.061727 -0.017409 0.404840 0.414442 -0.445161 -0.490280 -0.361612 -0.908677 -0.389420 0.247052 0.790023 -0.599747 0.083988 0.596349 -0.347798 -0.646663 0.087912 0.436377 -0.490332 0.421940 -0.392048 -0.463188 0.284187 -0.428124 0.260484 0.117777 -0.614461 -0.281637 -0.179510 -0.103238 -0.746641 0.096698 -0.192439 -1.104267 0.253042 0.091212 -0.171715 0.389872 0.732306 0.790417 0.290291 0.877483 0.642824 -0.692041 -0.776199 0.062480 0.540575 0.548104 -0.684324 0.575709 0.160726 0.605672 0.639039 0.954762 -0.655772 -0.769955 -0.075116 0.263703 -0.880445 -0.008359 -0.707877 0.513969 -0.161120 0.883442 -0.704821 0.413508 -0.485812 -0.097736 0.481568 -0.239698 0.321086 0.183275 -0.420163 0.228699 0.048868 -0.853889 0.771840 0.719430 0.649627 -0.697862 0.947053 0.360668 0.079244 -0.641047 0.869192 0.426971 -0.558263 -0.770713 -0.330167 -0.528032 0.820340 0.007083 0.924783 0.977139 -0.361823 -0.930173 -0.993107 -0.227791 -0.365739
0.885891 -0.534018 -0.072977 0.466445 -0.278850 0.806444 0.201931 -0.779974 -0.659360 -0.886381 -0.632145 -0.109901 -0.641057 0.584509 -0.743338 -0.162035 0.344483 0.590354 0.845103 0.267403 0.578059 -0.383576 -0.805019 0.760165 0.817144 0.182715 0.733156 0.313715 0.764527 -0.520977 0.858631 0.145462 -0.760625 0.242457 -0.316763 0.782411 0.858716 0.856717 -0.563752 0.355132 0.437211 -0.382736 -0.209367 -0.504492 -0.098147 0.083423 -0.830310 -0.888275 -0.020875 0.055428 -0.540875 -0.286364 0.317945 -0.924722 0.281977 0.945972 -0.337542 -0.235606 0.966378 -0.944088 0.340135 0.252635 -0.907248 0.255141 0.316678 -0.484688 0.329233 -0.288606 0.893140 -0.446974 0.762910 0.064892 0.357515 1.045865 0.956857 -0.814619 -0.426867 -0.937509 0.606252 0.849534 0.080593 0.370377 -0.622790 0.896207 0.978510 -0.517882 0.867357 0.983681 -0.844261 0.042120 0.984097 0.623752 0.078936 -0.101005 -0.736131 0.867417 0.053736 -0.722686 -0.800206 -0.638711 1.007743 -0.356774 -0.445455 0.909458 -0.538912 -0.784435 0.568615 -0.213222 -0.598429 -0.190825 -0.774569 0.339910 0.494157 -0.751834 -0.637040 0.918811 -0.412434 -0.264258 -0.679627 0.415123 -0.622494 -0.626192 0.140067 -0.600984 0.147455 -0.326328 0.047413 0.525825 0.289747 -1.323674 -0.065069 0.815179 -0.111030 -0.700470 -1.004352 0.116766 0.722328 -0.288875 1.003528 -0.380969 -0.512772 -0.184811 -0.601748 0.696757 -0.175564 0.221911 1.020269 -0.422964 0.621210 0.342640 -0.585972 -0.776045 -0.356892 -0.566296 1.143193 1.686963 -0.152398 0.564358 0.341713 -0.087352 0.443724 0.762997 -0.799710 -1.182866 -0.111826 0.504039 -0.817171 0.261161 0.290964 -0.501187 -0.706378 0.685283 0.468029 -0.778853 -0.604376 0.559800 -0.550750 -0.729040 -0.487834 0.028662 -0.021403 0.154422 1.410930 0.646767 0.661450 1.222043 0.024529 0.399621 -1.125541 -0.863455 0.111665 0.009127 -0.505732 0.798339 0.804249 -0.146480 -0.807071 0.802890 -0.375845 -0.549180 -0.244795 0.512408 0.256466 -0.548077 -0.796218 -0.513308 -0.510446 0.129262 -0.793291 -0.212240 1.665705 0.850273 0.218479 -0.353761 -0.402350 -1.284568 -0.760760 -0.724207 -0.057101 -1.015344 -0.224436 0.291283 0.104980 -0.902963 -0.819575 0.414548 0.675726 -0.859351 0.013193 -0.532612 -0.217873 -0.429023 -0.145305 -0.322081 -0.677459 -0.574696 -0.171090 0.368793 1.142711 1.168323 0.790820 -0.395351 -0.466536 -0.208992 0.304623 0.085864 -0.359580 0.086824 -0.982068 -1.041178 -0.746870 0.562653 -0.891149 0.887615 0.065117 -0.649340 -0.632632 -0.246150 0.620047 -0.454231 -0.066209 -0.593649 0.157991 -1.288025 -0.661424 0.114882 2.612490 1.456244 -0.673525 0.756429 0.587743 -0.199222 -0.186219 -0.858430 -0.364883 0.603501 0.435116 0.260729 0.056505 0.327430 -0.237515 0.953120 -0.503799 0.648229 -0.310929 -0.779509 0.578082 -0.298213 0.773784 -0.390396 -1.399194 -1.336043 -1.044381 0.026916 1.686993 1.880416 0.534445 -0.054281 0.012165 0.823533 1.138360 0.875756 0.016626 1.864213 1.145869 0.557289 0.411159 1.004550 -0.628297 -0.879617 0.272533 0.879130 0.572920 -0.734123 0.620950 -1.227106 0.380848 -0.362810 -1.102904 -1.629215 -0.461719 1.714507 0.671025 1.144140 -0.132607 0.000206 0.647863 -0.229580 1.272760 0.812513 0.490274 1.606835 0.836792 -0.020546 -0.839680 0.086329 0.695833 0.786252 0.133120 0.326007 0.118397 -0.757618 0.515932 0.175922 -0.192896 0.473236 -0.651866 -0.901739 -0.935079 0.870618 1.146663 0.645345 -0.376562 -0.532073 0.123878 -1.152507 -0.249278 -0.090274 0.196986 -0.113040 0.500991 -0.190370 0.851765 0.269910 -0.065083 0.146831 0.615865 0.920815 -0.414825 -0.231429 0.489530 -1.001171 -0.168732 -0.288427 -0.838440 -0.840222 0.668684 0.517120 1.346190 1.071182 -0.321395 -0.174451 0.627732 0.369120 0.746797 -0.290346 -1.193501 0.762076 -0.233039 0.865123 -0.853791 0.272813 0.537128 -0.177873 -0.036079 0.451202 -0.624945 0.335850 -0.424336 0.598676 -0.036086 -1.120987 -0.543117 0.416517 0.231387 -0.023752 -0.197096 0.828863 -0.406142 0.443648 0.260696 -0.889275 0.199788 -0.529005 -0.656982 -0.187653 -0.836398 -0.978422 -0.771756 0.905295 0.565721 0.958340 0.489902 -0.182033 0.483677 -0.413028 -0.099402 -0.969314 -0.584098 0.760081 -0.583193 -0.823625 0.159757 -0.227817 0.402458 -0.218418 -0.128717 -0.596062 0.602437 0.479015 0.539118 -0.010985 0.028636 0.359221 -0.713105 -0.769811 -0.560722 0.170631 -0.059767 -0.819264 -0.597074 0.670782 -0.506262 0.343366 -0.715996 0.556771 0.241705 -0.105753 0.535408 0.032897 1.005282 0.251423 -0.345795 -0.081376 0.646686 0.604784 -0.097103 -0.215460 -0.878280 0.010530 -0.199467 0.554057 0.259173 0.438140 -0.026686 -0.173087 -0.350105 0.084027 0.460243 0.030457 -0.828852 0.361178 0.912485 0.547455 -0.129806 -0.079862 -0.170918 0.217385 0.239949 0.059064 1.846262 0.000371 0.695718 -0.219001 1.638749 -0.574084 -0.193157 -0.268701 -0.721845 -0.446258 0.002013 -0.572735 0.914162 0.878442 -0.592180 -0.083758 0.194064 0.297365 -0.071779 0.947768 0.095830 0.501265 -0.136165 0.253946 0.055796 -0.772196 -0.937012 0.615705 0.278427 -0.038374 -0.129031 1.323614 -0.137242 -0.775614 -0.929863 1.215190 0.474681 0.673691 0.293837 0.201610 0.032724 0.357867 0.476789 -0.492388 0.961090 -0.127407 0.379201 -0.390139 -0.309884 0.424246 1.126348 0.052144 -0.517183 -0.114536 0.311933 0.575336 0.383947 0.133677 -0.085552 -0.291940 -0.170941 0.472098 0.642760 -0.437903 -0.678167 -0.061005 0.187792 -0.664014 0.442553 -0.837789 -0.698093 0.847290 -0.310053 0.574886 -0.396846 0.799301 -0.759735 -0.768323 1.021697 0.166867 -0.597345 0.043773 -0.574006 0.232700 0.062948 -0.170298 0.410161 0.010894 -0.653368 0.764943 -1.168765 -0.523545 0.272004 -0.417613 0.646442 0.443647 0.212920 0.587038 -0.646991 -0.813710 0.814599 0.302633 0.984755 -0.618290 -1.100118 0.333009 -1.027791 -0.388654 0.107965 0.451220 0.498509 -0.343216 0.281327 -0.121398 -0.346124 0.429119 -1.176562 -0.599420 -0.459069 0.383077 -0.194658 0.030474 -0.860505 -0.854258 -0.500963 0.369771 -0.019144 0.088740 0.363094 0.989669 -0.261090 -0.881809 -0.699057 0.614503 0.628860 -0.824991 0.615034 0.393596 0.326847 0.481148 -0.318213 -0.080374 -0.017459 -0.344730 -0.068348 0.499518 -0.268141 0.016706 -1.124467 0.637067 -0.258753 0.609639 -0.067708 -0.766357 0.598061 -0.825118 0.933045 0.650937 0.939938 0.388775 -0.175821 0.091539 0.647992 -0.029948 -0.004683 0.561303 -0.101407 0.358519 -0.290791 -0.371624 -0.657093 -0.564956 0.609259 -0.497101 -0.723785 0.995463 -0.955905 0.414328 0.914844 0.265598 -0.577014 -0.684794 -0.231846 0.950801 0.005979 0.182811 0.057095 -0.341781 0.389613 0.081192 0.329810 -0.241081 0.635378 0.117828 -0.222978 -0.464505 0.480520 -0.845756 -0.992855 -0.353272 -1.135161 0.466227 0.227788 0.925844 0.262607 -0.203187 -0.798979 1.044820 -0.496084 0.962206 -0.951415 -0.603571 0.931801 0.399094 -0.530635 -0.460822 0.475518 -0.459815 0.387954 -0.279363 1.263083 -0.454388 0.041430 0.804943 -0.619394 0.242459 -0.573666 0.283798 -0.565287 -0.557117 0.022717 0.001181 0.640587 0.106441 -0.198803 -0.581809 0.307843 -0.885477 0.094262 -0.340041 0.201561 0.256678 0.790566 0.796359 0.269666 0.292961 0.739229 0.633169 0.360506 0.831122 0.005794 -0.263660 0.749453 0.031489 -0.930932 0.290247 0.324398 0.169676 -0.395284 1.028612 0.391818 -0.592766 -0.005987 -0.991002 0.743735 0.394125 -0.852415 0.383092 0.965067 -0.716513 -0.811353 0.866790 0.376267 0.688340 0.720677 0.820342 0.960141 0.509096 0.130490 0.097979 -0.271482 -0.260937 0.831718 -0.001281 0.030508 0.106900 0.198664 0.874066 -0.361797 0.892648 -0.801131 0.814891 -0.771775 -0.967628 0.113225
0.772530 -0.411943 -0.716313 -0.309875 0.960809 0.262657 -0.486208 0.664255 0.843900 -0.273096 -0.297070 0.326134 0.583261 -0.400060 -0.521164 0.541883 -0.734724 -0.562909 -0.066925 -0.016250 0.563122 -0.101153 -0.654954 -0.037418 -0.696648 -0.695397 -0.197169 -0.605609 0.107430 -0.570793 -0.200331 -0.242926 -0.654468 -0.119270 0.189889 -0.283581 0.377256 0.799976 0.124236 0.196947 0.395231 0.854037 -0.938660 0.081678 -0.972932 -0.572639 0.484327 0.881784 -0.871374 -0.223257 0.560918 0.999195 -0.119795 0.484104 -0.250432 -0.340995 -0.670088 -0.364030 -0.350234 -0.258450 0.848802 0.814234 -0.089390 -0.461617 0.476661 -0.605958 0.045789 -0.390715 -0.950773 0.466297 -0.431414 -0.539960 -0.351772 0.737895 -0.090817 -0.160606 -0.732798 -0.493767 -0.272257 0.782917 0.999746 -0.883299 -0.738599 0.899515 -0.119982 0.637007 0.905799 0.473501 0.205798 0.642789 -0.881391 0.754151 0.350047 -0.362221 -0.489411 0.749787 -0.882140 1.035084 -0.108905 1.032006 0.244721 0.778046 -0.833581 0.212472 0.317994 -0.344131 -0.721470 -0.018993 0.621942 -0.799924 -0.601334 0.976348 0.165920 -0.900157 0.905168 -0.895772 0.481064 1.006516 -0.169132 1.068109 -0.232647 0.833729 -0.162794 0.326521 0.203599 1.414421 -0.278723 -0.066182 0.943019 -0.120636 0.237658 -0.992704 1.009863 0.539090 -0.863124 -0.933862 -0.900307 0.186274 0.630267 -0.622659 -0.336467 0.608303 0.484519 -0.196199 0.541903 0.731777 -0.048084 -0.475172 -0.301135 -0.203181 0.026444 -0.408077 -0.890184 0.529332 -0.142681 -0.067476 -0.656488 -0.185812 0.834263 0.531288 -0.247727 -0.494272 0.923500 -0.370399 -0.245434 0.332029 -0.801326 0.232174 0.532534 -0.895925 0.195570 0.477567 -0.915063 -0.026832 -0.279544 -0.014557 0.110788 0.529493 1.208716 0.233449 0.297833 0.720207 0.230013 0.151093 -0.649146 -0.666491 -0.510449 0.663114 0.567529 -0.750958 -0.189148 0.827048 0.397525 -0.480887 -0.128436 0.644846 -0.749755 -0.643779 -0.399946 0.411318 0.473621 0.814098 -0.715940 -0.164803 -0.874454 0.390729 0.106924 -1.136605 -0.220887 0.762346 0.422393 -0.179688 0.747336 -0.572973 0.521380 0.296730 0.081164 0.191785 0.337955 -0.599036 0.887402 0.987826 0.315248 0.637864 0.922072 -0.578018 -0.391289 0.554126 0.453824 -0.955805 -0.418511 0.377687 0.461695 0.742146 0.325971 0.121375 0.113781 -0.585854 0.387218 -0.032244 -0.179191 -0.512482 -0.047091 0.320437 0.853043 -0.424258 0.855403 -0.235715 0.695434 -0.176473 0.077793 -0.517826 0.757421 0.689759 -0.717186 -0.161777 0.653096 -0.750251 -0.456194 -0.385082 0.102848 0.651871 0.552465 -1.072502 -0.220540 0.076885 0.678972 1.106183 -0.063876 -0.377182 0.161870 -0.454854 0.574443 0.297554 -0.354518 0.039746 0.239584 0.807715 -0.502003 -0.747320 -0.889068 -0.310599 -0.560531 -0.599220 -0.184401 0.242868 -0.485836 -0.889082 -0.699056 -0.420154 0.034113 0.112876 0.216576 -0.735812 -0.037708 0.722943 1.363928 0.087372 0.400362 -0.992775 -0.985693 -0.714057 0.794425 0.372348 -0.115302 0.735613 0.318355 0.586230 0.051410 0.483843 0.023394 -0.145666 -0.278704 -0.775052 0.793178 -0.789762 -0.506633 1.077299 0.349748 0.250677 -0.808751 -0.292309 0.133487 2.080749 0.692694 0.172393 1.004575 0.244156 0.779698 -0.357894 0.201782 -0.183327 -0.435659 -0.793781 -0.502157 -0.178328 0.416664 -0.645993 0.769977 0.672403 0.015525 0.578344 -0.352739 -0.153901 0.959148 -0.025987 -0.127280 -0.441002 0.210754 -0.915299 -0.555784 0.699329 2.000164 0.335314 0.247526 -0.255713 -0.128911 -0.461868 0.141672 -1.205083 0.168867 0.725370 -0.103661 -0.601490 0.110137 0.480889 -0.440037 0.139728 -0.929338 -0.344601 -0.307445 -0.271310 -0.779508 -0.058184 0.330931 0.292619 -0.904147 0.333565 0.672720 1.168283 1.796619 -0.415654 -0.218824 0.804640 0.608264 0.010150 -1.359139 -0.353503 -0.086301 0.321908 -0.395043 -0.914475 -0.130074 0.353936 -0.068781 0.669185 0.953095 0.616749 -0.813123 -0.732884 -0.633605 0.045432 0.508412 -0.220838 -0.747586 0.042954 0.076403 1.813382 0.769028 0.854320 -0.155902 -0.162832 -1.143613 -0.469722 -0.246080 -0.537217 -0.602892 -0.738344 -0.569036 0.992565 -0.353543 -0.952284 -0.725890 -0.700408 -0.418842 -0.213691 0.301774 -0.740291 -1.082562 -0.331317 -0.081064 -0.079279 -0.730192 -0.146861 0.573571 1.409319 1.324328 -0.937539 -0.757593 0.056087 0.113541 0.553781 -0.394484 0.379506 -0.277702 0.689401 -0.000196 0.819894 0.763828 -0.465898 0.585762 0.982877 0.906030 -0.325127 0.328946 -0.724867 -0.054074 -0.964964 -0.989587 -0.134986 -0.180414 0.106184 2.105484 1.643965 0.497499 -1.037517 -0.267362 -0.312653 0.455388 -0.588751 0.432817 -0.168022 0.611502 0.671197 -0.615112 -0.953701 0.289698 -0.498790 0.400985 0.855011 0.735260 -0.019691 -0.568510 -0.029404 -0.384760 -0.890827 -0.490426 0.155305 -0.751382 1.525913 2.026187 -0.246937 -0.627224 -0.880918 -1.770081 -0.329751 0.380844 -0.023764 -1.040850 -1.156630 0.017816 -0.257954 0.055574 0.615823 -0.344880 -0.154647 -0.092698 -0.371377 -0.364369 0.456579 1.221463 -0.234354 -0.704999 0.626346 -0.526838 -0.335733 0.776603 0.855339 0.659672 -0.105407 -1.527767 -1.054794 -1.122440 -0.897708 -0.155077 -0.355106 0.539435 0.190224 0.966349 -0.375827 -0.342239 -0.603158 0.137597 0.682873 -0.760459 0.285226 0.329609 1.055429 -0.557176 1.044044 -0.237786 0.828993 -0.588681 1.134237 -0.469630 1.213174 0.100096 0.502827 -0.582193 0.288811 -0.187242 0.107319 0.139481 -1.015092 0.116140 -0.761063 -0.522668 0.762166 -0.695326 0.248030 0.620970 0.981058 -0.348219 -0.046657 0.139959 0.139734 -0.329824 0.791325 0.868707 -0.260225 0.225728 0.039436 0.172832 0.525121 -0.651302 0.326516 -0.676771 -0.518154 -0.666344 -0.325647 0.513226 0.400979 -0.638052 -0.245613 0.371452 0.290658 -0.589499 -0.902819 -0.145094 -0.233043 -0.529598 0.403021 0.769470 0.486560 -0.617266 -0.801457 -0.596085 -0.471627 0.026156 0.998777 -0.138608 0.704934 -0.041370 0.084070 0.330133 -0.024685 0.483793 -0.190835 0.765814 -0.771325 0.953514 0.036379 -0.296809 -0.564038 0.796796 0.423452 0.492521 0.334266 0.261548 0.099789 0.687501 -0.258523 1.130043 -0.746895 0.851584 -0.183279 0.757121 0.197578 -0.960276 -1.021405 -0.077703 -0.965394 -0.122480 0.049707 -0.953134 0.415482 0.896877 0.656518 -0.126985 0.151536 -0.291516 0.863325 -0.422451 -0.464681 -0.904780 -0.184589 0.705973 -0.451479 -0.366516 -0.575728 0.199293 -0.230052 -0.001749 0.609787 -0.285972 -0.517775 0.962820 -0.242720 0.947204 -0.737260 -0.809812 -0.713588 -0.857195 -0.648045 0.441519 0.872089 0.720788 -0.513780 0.955382 0.349267 -0.477775 0.081672 -0.237178 0.645631 0.329097 0.510902 -0.775336 0.016419 -1.096232 -0.560875 0.367308 -0.472194 -0.777765 0.278237 -0.317015 0.516805 0.011213 -0.348030 0.543528 -1.054294 0.431039 0.400438 -0.179572 0.652056 0.123809 0.324189 -0.391590 -0.678707 -0.789457 0.805477 0.382246 -0.248984 0.556976 0.551235 -0.188254 0.982319 0.766937 0.250425 -0.004405 -0.096321 -0.225651 0.652850 1.121105 -0.182455 -0.234140 0.576007 0.673947 0.730741 -0.069325 -0.604881 0.917678 0.727527 0.032738 -0.494225 -0.446774 -0.788721 -0.687330 -0.773531 0.425552 0.414916 0.628205 -0.733066 -0.293224 0.119082 0.811886 -0.085946 0.569552 -1.001061 0.772856 0.582587 -0.225380 0.159099 -0.451901 -0.857387 -1.130064 0.377903 0.037274 0.158238 0.039420 0.435263 -0.012978 -0.953698 -0.126095 -0.441167 0.941195 -0.252870 -0.811377 -0.557476 -0.886864 0.696903 -0.673140 -0.993119 0.259730 0.741944 0.110754 0.840763 0.388402 -0.939576 0.255469 0.057930 0.085908 0.608606 0.392917 0.870314 -0.037602 0.066334 -0.939557 0.136765 0.775564 -1.002370 -0.876831 -0.003715 0.144109 -0.369730 0.762790
-0.969845 0.654999 0.161895 -0.996706 -0.994089 0.152417 0.476907 -0.069757 0.250767 -0.047702 -0.734258 -0.536789 0.954959 0.996750 0.597574 -0.932550 0.961014 -0.188480 -0.202303 -0.912605 -0.447048 0.011541 -0.502817 -0.575790 0.783391 -0.840502 -0.802967 0.424938 0.608544 -0.977376 -0.079655 0.620330 -0.784536 -0.805988 0.225577 -0.696877 0.489162 -0.962737 0.750622 -0.158344 -0.993743 0.338985 0.186760 0.008964 0.853117 0.152471 -0.160147 0.339685 0.486913 -0.514894 -0.849791 0.954988 0.778405 0.517400 0.626704 0.256361 0.535659 -0.041741 -0.128982 -0.909577 -0.807871 -0.615943 -0.938401 -0.866666 0.451203 0.486173 0.504183 0.270372 -0.757726 0.286474 -0.965775 -0.771140 -0.517811 -0.960704 -0.527010 -0.423330 -0.217981 -1.014391 -0.333346 0.595177 0.031346 0.491762 0.035086 -0.759715 0.782897 -0.451608 -0.464560 0.663370 -0.088073 0.872217 -0.069610 0.229403 0.357314 0.500721 0.584565 -0.978873 -0.320814 -0.360016 0.546842 0.006883 -0.130247 -1.184170 -0.920440 -0.750284 -0.551437 0.467732 -0.969539 -0.278237 0.061370 0.224923 -0.058798 -0.071316 0.366134 0.037099 -0.409312 -0.710574 0.791339 0.083834 -0.221094 -0.647762 0.402085 -0.798806 -0.294517 0.111770 0.343130 -0.694368 0.787551 0.798855 -0.465089 -0.208110 0.543917 -0.834425 -0.399659 0.439650 -0.824840 -0.501942 0.782925 0.663626 -0.770945 -0.741891 -0.461982 0.407011 0.509819 -0.030764 0.900290 0.021485 0.377540 0.283936 0.246385 0.873196 0.234088 -0.172512 -0.424037 0.045777 -0.659516 0.351303 0.073849 0.965723 0.108958 -1.350044 -0.721216 0.044071 -0.572537 -0.163255 0.111737 -0.444757 -0.139526 0.040305 0.751463 -0.075049 -0.948519 -0.297894 0.863691 0.136503 -0.480804 -0.843518 0.981609 -0.397867 0.084736 -0.638290 0.291876 -0.430859 0.321308 -0.786923 -1.232340 -0.861814 -0.355833 -0.902921 -0.752944 0.194243 -0.793487 0.322175 0.043022 0.908871 0.672900 0.457272 0.208499 0.296297 -0.805451 0.602030 0.496531 0.378618 -0.348248 0.366886 0.526083 0.099097 1.178539 -0.465220 -0.215018 -0.807208 -0.203867 -0.778586 -1.533465 -1.681827 -0.221528 -1.271744 -0.700167 -1.932028 -1.440475 0.299332 0.471206 0.808503 0.503019 0.538339 0.134352 -0.058536 0.479343 0.204514 0.594810 0.409775 -0.307734 0.321098 -0.137353 0.867788 0.500310 0.125464 -0.935802 -1.251522 -0.397181 -2.023351 -0.957424 -1.946066 -1.727219 -0.709450 -0.701499 -0.467613 -0.571400 -0.127056 -0.477346 0.723254 1.143363 -0.354591 -0.613162 -0.815534 -0.394129 -0.383092 -0.479524 0.674271 -0.104756 0.067410 0.439634 -0.151461 0.313498 -0.926926 -0.861784 -0.582889 -1.636552 -2.315876 -2.123007 -0.982703 -0.269638 -0.736244 0.585039 0.072726 0.034847 0.103993 0.374094 -0.856239 -0.682019 -0.793391 -0.075212 -0.431058 0.045061 -0.897945 -0.862016 -0.596126 0.743711 0.504558 0.356831 -0.446549 0.484553 0.990710 0.356762 0.782412 -0.642981 -0.744397 -0.241533 0.623321 0.612004 0.589280 0.552666 0.077868 0.474150 0.266913 -1.183733 -0.183649 -0.346714 0.246181 0.429918 -0.225572 -0.316287 -0.225041 -0.463307 -0.085573 1.151402 0.692556 0.543698 0.055825 0.606004 1.265981 1.315073 2.350539 0.664243 0.079240 0.981681 0.472749 0.109687 -1.056472 -0.096291 -0.699828 -0.938047 -0.501887 -0.310158 0.017639 -0.696804 -0.726613 0.679177 -0.111342 -0.997761 -0.028402 0.958212 -0.564092 0.643328 0.808228 0.687713 1.346586 1.021340 0.560610 0.552822 1.971452 0.330097 1.055116 0.416322 0.396475 -0.350545 -0.658707 -0.029911 -0.466699 0.317136 -0.896295 0.666325 0.709640 0.052084 0.419807 -0.442559 0.446415 0.781959 -0.383330 1.075978 0.186212 -0.457279 0.676139 -0.415160 0.450481 0.226668 -0.200221 1.151180 0.019721 0.086164 -0.448384 0.034117 0.038115 1.098815 0.815084 -0.611948 -0.610730 0.400294 -0.249063 0.982262 -0.428879 -1.014189 -0.348259 0.814939 -0.685606 0.136903 0.931114 0.051768 1.029973 0.279168 -0.152660 0.372867 0.168803 0.039164 -0.036478 0.860302 0.291849 0.614870 0.970031 -0.262819 0.795976 1.122439 0.446247 0.388663 0.349033 -0.353913 0.785808 0.530006 -0.645249 -1.015832 -0.459423 0.080938 -0.161658 -0.996920 -0.070992 0.140974 0.264666 0.370297 -0.036977 0.584309 -0.228661 1.543334 0.270226 0.913227 0.019965 -0.084117 1.001814 -0.883412 -0.288973 0.692341 0.904256 1.086235 0.599285 -0.649600 1.319204 -0.316598 0.844366 -0.109187 -0.665325 0.092020 -0.817117 0.424936 -0.951051 0.908878 0.878604 0.404123 0.383064 0.437612 0.493223 -0.727444 -0.071456 0.145643 0.001348 0.425009 0.600939 0.356981 0.397253 0.138456 1.332056 -0.070844 0.924130 -0.048050 0.904103 0.031210 -0.580293 -0.853034 -0.554754 0.133882 -0.039376 -0.056164 0.187780 0.702708 0.738213 -0.289437 -0.261924 0.592413 0.375874 0.146755 1.140893 -0.065037 0.423592 0.993328 0.899754 0.060673 0.060272 0.749016 -0.203392 0.154248 1.185217 1.093746 -0.443622 -0.044994 -0.878306 -0.656476 0.869291 -0.364357 0.591965 0.160883 0.186365 -0.282155 0.691623 -0.534776 -0.153911 0.898745 0.237439 0.453465 -0.275397 0.129802 -0.271807 1.032916 1.412996 0.459315 -0.329367 -0.406908 -0.442058 0.319552 0.416456 -0.358955 -0.707135 1.105451 -0.555147 0.236606 0.094391 0.051661 0.972813 0.104805 0.038396 -0.669064 0.081713 0.107333 -0.377487 -0.565673 -0.712144 -1.100830 -0.471041 0.320133 0.189486 -0.420985 -0.191276 0.005293 -0.280192 -0.207445 -0.785129 -0.559483 -1.002108 -0.663067 -0.155861 -0.444862 -0.075340 0.057760 0.597921 0.505302 0.052018 0.479600 -0.087325 -0.355640 0.267947 0.028352 -0.491958 0.242351 -1.610331 -0.152307 0.622290 -0.039704 -0.742820 -0.368339 -0.333770 -0.495440 -0.661220 -0.445976 -0.153282 -0.470941 -0.424439 -1.103907 0.518127 -0.259628 -0.564212 -1.132350 -0.735085 -0.346820 0.894999 0.553767 0.929028 0.080524 -0.070540 -0.072422 0.515479 -0.901306 0.853605 0.127677 -1.182719 0.624528 0.435718 0.324455 -0.019459 0.378572 -0.348422 -0.239941 0.032322 -0.186445 0.598519 0.203163 0.234745 -0.211110 0.747666 -0.381466 0.164042 -0.060096 0.015704 -0.174190 -0.254589 0.493163 -0.361830 -0.940328 -0.464110 -0.788454 -0.729010 -1.036930 0.525527 -0.676718 -0.141406 -0.908619 -0.717566 0.211350 -0.094575 -0.156767 -0.878093 0.996133 -0.022046 0.240427 -0.481582 0.443046 -0.014024 0.768392 -0.642929 -0.996894 -0.261793 -0.747574 -0.905233 0.262629 0.354168 -0.743195 -0.633705 -0.018881 0.291211 0.898496 -0.696925 -0.117695 -0.341053 0.287297 -0.341998 0.615082 0.489693 0.193336 -0.069470 -0.849798 0.835505 -0.380018 -0.480526 -0.382859 -0.682113 0.965017 0.450544 -0.785860 -0.040517 -0.217377 -0.869784 -0.358018 -0.363944 0.490447 -0.309388 -0.714867 -0.615810 -0.066803 -0.179863 -0.892938 -0.258124 -0.740439 -0.114292 -0.469260 0.007037 -0.382270 -0.259571 0.463208 -0.074227 0.344101 0.163574 -0.207999 -0.757659 0.033197 0.343420 0.039937 0.333350 -0.762086 0.399670 0.077652 0.044187 0.176215 0.414506 0.043834 -1.129604 -0.693234 -0.845583 0.139759 -0.472460 0.455175 -0.770893 -1.075315 -0.946399 -1.502205 -1.867979 -0.961016 -0.881965 -0.585471 0.241505 -0.332150 0.654343 0.347385 -0.010158 -0.336465 0.170281 -0.806697 -0.730918 0.585585 0.897379 0.649269 -0.901498 -0.349142 -0.586300 -0.408301 -0.191391 -0.153626 -0.542256 -1.117227 -0.692565 -0.436677 -1.566639 -0.746067 -0.455367 -0.655947 -0.628406 0.068780 0.679206 -0.904771 0.267765 -0.369581 0.125616 -0.351304 -0.924811 -0.080548 0.017369 -0.004509 0.926332 0.702357 -0.111276 -0.229874 -0.707987 -0.792150 -0.687468 -0.058721 0.189080 0.321310 -0.199793 -0.950127 -0.326844 -0.721307 -0.556149 0.657952 0.706374 0.535919 0.306880 -0.538660 0.614366 0.355908 -0.870786 0.936552
-0.680775 -0.518706 0.194647 0.702118 -0.339579 -0.660602 0.369090 0.370733 0.262193 0.971643 -0.628891 0.449623 -0.164221 0.080002 -0.143810 0.092512 0.140510 0.411979 -0.054892 -0.793067 -0.028181 0.923053 0.493549 -0.455665 -0.029529 -0.706675 0.813452 -0.194974 0.615633 0.004326 -0.451011 -0.261430 0.290444 -0.280880 -0.721640 0.877641 0.418397 0.629247 -0.073903 0.612551 0.100413 0.402428 0.543239 -0.614599 0.588471 -0.907793 0.650777 -0.538682 0.004129 -0.236192 -0.889319 0.872714 0.494471 -0.042101 0.493342 0.473483 0.271577 0.200738 0.048712 -0.403043 -0.661703 -0.868600 0.918544 0.048549 -0.927274 0.867320 0.961486 0.909818 1.075027 -0.336592 0.194488 0.693566 0.839773 0.366442 0.807223 -0.840741 -0.115999 -0.708715 -0.129000 -0.393883 -0.817762 0.159531 0.102630 -0.612833 -0.399592 0.051384 0.826464 0.097763 0.901827 0.790232 0.212498 0.598058 0.802614 0.982375 0.558956 -0.481234 -0.835303 0.691678 0.525518 -0.374887 0.981253 0.061955 0.717929 -0.419184 -0.154514 -0.017166 0.472030 0.564915 -0.638334 0.461890 0.614194 0.734099 -0.772123 0.321332 0.638513 0.075094 -0.047546 -0.321739 0.033738 -0.458668 -0.710376 0.668362 -1.233336 0.404876 0.575098 -0.386109 0.349930 0.688519 0.876716 0.230378 0.744932 -0.246553 -0.125922 0.165612 0.707771 -0.586147 -0.156003 0.642386 0.794025 0.950365 0.445851 0.732808 0.045807 0.035518 0.931769 0.075486 0.364391 1.041294 -0.597415 0.870560 -0.174422 0.207483 -1.401346 -1.045376 -0.127447 0.717435 -0.398184 -0.908987 -0.771907 0.397938 0.547011 0.221986 0.339830 -0.749273 0.684973 -0.456211 -0.959258 0.595153 -0.428819 0.700860 0.135723 0.898314 -1.049431 -0.863490 0.902688 -0.413597 0.117083 -0.830345 0.462562 0.249028 0.210794 -0.648870 -0.455398 0.255412 -0.861547 -0.738014 -0.444094 -0.788985 -0.601099 -0.494537 -1.034062 -0.859921 0.249277 -0.062710 -0.502705 -0.851244 -0.725482 -0.558171 0.314884 0.318780 0.064728 0.603312 0.144430 -0.415223 -0.416077 -0.295119 0.658501 -0.316724 1.095575 -1.101151 0.003833 -0.824312 0.574165 -0.202777 0.856072 -0.607400 -0.674273 -0.744463 -0.446021 -0.879825 0.372772 -0.621279 -0.748423 0.103253 0.188626 0.412016 -0.055534 -0.666695 -0.566548 0.688574 0.566637 0.351707 1.146782 -0.019884 0.591905 0.112734 -0.134505 0.768208 -0.499432 -0.975987 0.615150 -1.253892 -0.909961 -0.037528 -0.075534 -0.733412 -0.367050 -0.526681 -1.131173 0.529549 -0.046118 -0.418603 -0.959049 0.830679 0.315964 0.979023 -0.487915 0.329963 0.733531 0.772182 0.765102 -0.567908 0.737681 0.607493 0.224515 0.813992 -0.115399 -0.129472 -1.008046 0.138758 0.402216 -0.623299 0.355383 -0.113451 -0.703535 0.553179 -0.740044 0.178785 -0.237677 -0.788965 0.176747 -0.937767 0.019780 0.922715 -0.706530 0.615231 -0.750262 0.656804 0.888203 -1.073188 -0.679133 0.107775 -0.050591 1.051579 1.535687 0.688427 -0.439915 0.067943 -0.565251 -0.434134 -0.312444 0.639254 -0.942044 0.742811 0.363753 -1.294629 -0.350450 -0.251919 0.003494 -0.558893 0.866144 -0.039412 0.849433 0.993426 0.264059 1.276765 -0.592685 -0.311807 0.109815 0.671541 -0.615420 -0.323756 -0.866596 0.169716 -0.296153 0.660247 0.372020 -0.130027 0.430635 0.214273 0.374537 0.141616 -0.857437 -1.224846 -0.317246 -1.016139 0.355449 0.875889 0.075901 0.841323 0.088535 -0.116144 1.174615 0.135943 0.492979 0.492261 0.427840 -0.221673 -0.563487 0.376684 -0.708291 -1.043558 0.710412 0.389763 0.236338 0.124598 -0.163725 1.139400 0.711499 0.578768 1.070001 0.240384 0.172634 -0.237465 0.822575 0.259303 -0.767399 -0.840311 1.152798 -0.169426 0.486548 -0.045861 0.719881 -0.129582 -0.793007 -0.899728 -0.430790 -0.627591 -0.782481 0.567676 -0.058384 -0.611103 0.146368 -1.010325 0.028954 -0.859706 0.231891 0.326172 0.209417 0.026423 0.327156 0.774685 0.530209 -0.936659 0.372976 -0.369116 -0.544771 -0.841147 -0.880409 0.222747 0.486595 -0.114305 -0.391055 -0.665094 0.743902 -0.827227 -0.473544 0.201490 -0.390760 -0.011339 -0.451966 -1.083256 0.414735 0.735881 0.874986 1.336055 0.575396 -0.489219 -0.839138 -0.214499 -0.137065 0.004021 -0.016094 0.857201 0.717044 0.532310 0.998181 -0.801433 0.323573 -0.647473 -0.622230 0.474298 -0.314759 0.250979 -1.336343 -0.113666 -0.476180 0.887666 0.269329 -0.705059 -0.169517 0.613132 0.162222 0.715878 0.688214 -0.399828 0.367921 -0.690405 0.735892 0.821988 0.900854 -0.609154 -0.344962 0.429067 0.930501 0.359656 -0.522624 0.024757 0.342668 -1.227221 -0.822910 -0.520794 -0.066620 1.145085 1.459241 0.776596 -0.520195 -0.284398 0.678090 0.579154 -0.099802 0.824438 0.521928 -0.541787 0.341976 -0.858239 -0.982801 0.678932 -0.319546 -0.573836 -0.758870 0.328632 -0.028195 0.655955 -0.300785 -0.240388 -0.177114 -0.209212 -0.556360 -0.018408 0.037747 0.165393 0.868139 0.184709 -0.375519 -0.767618 -0.074331 -0.497740 0.063944 0.717469 -0.127069 0.947589 -0.802349 -0.508293 -0.045403 -0.111784 0.130008 0.916250 -0.785310 -0.009090 0.454008 -0.994416 -0.620727 -0.826327 -1.385490 -1.424566 -0.075832 -0.371051 1.168278 1.093817 -0.255042 0.182478 0.125456 0.006965 0.022731 -0.899564 0.157536 -0.562116 0.396414 -0.782309 0.860622 -0.261159 0.506144 0.616762 0.523286 0.826881 -0.758453 -0.444652 -1.165662 -1.066434 -0.574922 -0.670492 -1.255290 -1.941784 0.216768 1.625523 1.313893 1.245415 0.922252 -1.150619 -0.131626 0.305774 -0.489408 0.364462 -0.426142 0.495424 -0.685470 0.084422 0.161430 -0.318182 0.447876 -0.393578 0.990969 0.184832 -0.881697 -0.610049 -0.934669 -0.851957 -0.308298 -0.771495 -1.453000 0.209260 0.671246 1.628432 1.171360 1.062674 0.343084 1.181850 0.344705 -0.656861 0.673845 -0.103960 -0.646798 -1.095572 0.538333 0.083274 -1.029473 -0.820475 0.614279 0.733424 -0.420624 0.254978 0.374169 -0.577402 0.804073 -0.801136 -0.208019 -0.590835 0.305346 0.100846 0.354031 -0.121025 -0.584795 1.106978 0.246391 -0.207050 -0.537555 0.310300 0.302601 -0.278815 -0.646972 0.547751 0.063235 -0.544083 -0.599529 -0.421148 -0.197351 0.552434 -0.539197 0.076196 0.221956 0.504250 -0.043501 -0.053864 -0.449139 -0.614621 -0.663055 -0.441179 -0.357899 -0.146628 -0.072659 -0.720738 0.600160 -0.206046 1.311068 0.184018 0.804232 -0.466703 0.309657 -0.442983 0.070961 -0.848163 0.570924 -0.801275 0.450881 0.694412 -0.441684 0.365246 -0.679249 0.050049 -0.599108 -0.685854 -0.521559 -0.548269 0.774627 0.356560 0.364146 -0.197505 -0.945033 -0.673573 -0.490983 -0.286917 -0.930367 -0.945904 -0.988308 0.824809 0.336078 0.898178 0.872009 0.636761 -0.193803 0.954201 0.872294 -0.632898 0.681021 0.942673 -0.387475 -0.966833 0.916831 -0.596730 -0.100882 -0.132538 0.347273 0.948703 0.432381 -0.680987 -0.511682 0.321495 -0.692784 -0.096546 -0.016745 0.934294 -0.750700 0.908191 -0.815714 0.041611 0.171623 0.432567 -0.941766 0.767620 0.020810 0.734176 0.358053 0.840666 -0.536914 -0.178580 0.334045 -0.370167 0.620473 -0.431185 0.762708 -0.785396 -0.787495 -0.180026 0.102147 -0.603245 0.029867 0.545866 0.496535 -0.714205 -0.202456 0.282956 0.323718 -0.444545 0.690347 0.943994 0.520336 -0.742612 0.248411 0.241506 0.021237 -0.580659 -0.396580 -0.459995 0.294063 -0.874199 -0.835663 0.612990 0.199015 -0.163799 -0.429523 -0.017013 -0.319963 -0.333930 0.658475 -0.892985 0.440975 -1.009390 0.559764 0.672651 0.598299 -0.711089 0.018906 -0.577254 -0.643742 -0.864203 0.259532 0.637015 0.508111 -0.745749 0.119387 0.789242 -0.708424 0.431863 0.080519 0.569154 0.284471 -0.476250 -0.263460 0.826367 0.352445 -0.666199 0.551291 0.371922 -0.314181 -0.244418 0.716941 -0.568732 0.056862 -0.564504 -0.236100 0.103715 -0.526671 0.183325 -0.853461
-0.259984 -0.180171 -0.902926 0.724827 -0.473616 0.010664 -0.600133 -0.000633 -0.829279 0.787192 -0.151846 -0.679167 0.210808 0.965504 0.314951 0.837427 0.042431 -0.511563 -0.610793 0.546179 0.458543 -0.988364 0.451018 -0.802086 -0.278568 -0.026652 0.570405 0.391213 0.289741 -0.953117 -0.971201 -0.563910 0.555221 -0.742842 0.401751 0.020323 0.820912 -0.073661 0.052139 -0.506429 -0.208515 -0.381273 -0.330727 0.041297 0.986634 -0.950427 0.168535 -0.604212 0.038586 0.764147 0.023645 -0.742222 -0.762715 -0.275025 0.695640 0.130391 0.663206 -0.747107 0.051701 0.358499 0.980753 0.923719 0.917617 0.362496 0.952523 0.896448 0.060302 -0.420175 -0.819853 0.210001 -0.360885 -0.219608 0.935331 -0.836296 0.016929 -0.393901 -0.364124 0.525565 -0.544465 -0.546653 0.418263 0.428016 -0.880037 0.318013 -0.025536 -0.663976 -0.643777 -0.288591 0.039197 -0.091817 0.452107 0.000147 0.816909 -0.169450 -0.118933 -0.890021 -1.096842 -0.561867 0.510837 -0.146453 0.629117 0.260445 0.921635 0.114497 0.188361 0.790934 0.034021 -0.238806 0.977148 -0.771093 0.194958 0.231990 -0.886450 0.359620 -0.292985 0.040818 -0.028601 0.486482 0.120851 -0.928589 0.307136 0.067658 -1.183337 -0.170676 0.571286 -0.000185 -0.499159 0.726626 -0.462354 0.490550 0.189286 0.051057 0.077963 0.114928 0.283809 0.965775 -0.267083 0.450159 -0.134835 -0.779912 -0.404997 -0.668602 0.959121 -0.958211 0.419103 -0.750232 0.074548 -0.108175 0.144011 -0.461043 0.437415 -0.048944 -0.909470 -0.361398 0.191999 -0.518165 0.543456 0.501713 -1.104907 -0.006260 0.008466 0.097862 -0.350821 0.528139 0.224178 0.426051 0.657541 0.040526 -0.072127 0.397532 -0.475301 -0.540428 0.709595 0.158293 -0.547040 0.838304 -0.761207 0.130906 0.833071 -0.127768 -0.136727 -0.740967 -0.097697 -0.307058 -0.768189 0.211302 0.677275 0.942624 -0.452871 0.803852 -0.581414 0.806812 -0.832106 0.635685 0.956612 -0.748079 -0.418311 -0.670841 0.107010 0.225837 -0.704342 1.121345 -0.786927 0.085846 -0.602959 0.719286 -0.642174 0.638250 0.010979 0.560159 -0.812510 -0.626310 1.263691 0.156146 0.098669 -0.577262 -0.346627 -0.080531 0.074482 -0.533314 0.531427 0.052585 -0.603536 0.193847 -0.724930 -0.423433 -0.085641 -0.805336 0.565702 0.077310 -0.579751 0.238330 -0.516065 0.776052 0.890988 -0.535093 -0.037089 0.221249 -0.299206 -0.060312 0.502123 0.555972 -0.275873 0.250724 1.218983 -0.230643 -0.174766 -0.435673 0.651780 1.527711 0.350512 -0.250130 -0.011584 0.137148 -0.483947 0.686843 0.095413 0.948385 0.053854 -0.412008 -0.525024 0.358734 -0.400581 0.044339 0.970572 0.203061 -0.806051 0.170412 -0.353876 -1.094278 0.841968 -1.321054 -0.159476 0.381278 0.522724 -0.034014 0.535071 0.307769 0.747432 -0.235296 -0.176136 -0.774871 -0.271326 -0.271752 -0.247893 -0.323888 0.021533 -0.906231 0.518036 0.799171 1.057868 0.222921 0.697426 0.042454 0.253871 -0.232266 -1.136471 -0.320722 -0.361773 -0.088563 -0.188116 -0.812973 -0.913249 0.657678 -0.539623 -0.169993 0.532126 -0.485404 -0.920215 0.420596 -0.691800 0.336208 1.067689 -0.544626 0.536309 0.220000 0.521643 -0.008880 -0.027446 -0.132374 -0.204386 0.369507 1.474587 0.208955 0.987687 -0.095865 0.703961 -0.508840 0.433935 0.231231 0.179659 1.195366 -0.547608 0.577997 -0.600632 0.496137 0.844788 0.246436 -0.492504 -0.532229 -0.525701 0.054811 0.331425 -0.275398 -1.025123 0.223699 0.282575 -0.010624 -0.062358 0.224802 0.671427 1.817518 1.728281 0.403508 1.241274 0.227966 0.289792 0.086244 0.387275 -0.563223 -0.405392 0.289561 -0.171021 0.452089 0.254604 0.783886 0.857371 0.760258 0.684325 0.102836 -1.289188 -0.890841 -1.129491 -0.703151 0.221610 0.539299 0.682570 -0.326517 0.379768 0.582956 1.206284 0.297017 0.017633 0.732674 1.241807 -0.020378 0.897997 0.588928 -0.518298 -1.311717 0.380462 -0.377883 0.207100 -0.960568 -0.331996 0.160099 -0.487588 0.430710 -0.256647 0.032764 -1.391606 -0.218016 -0.333232 -0.618637 0.626245 -0.284798 0.327108 1.806165 0.065143 0.657532 0.085953 0.835380 0.844123 0.178240 -0.496894 -0.529831 -0.441456 -1.320920 -0.022196 -0.230466 -0.125987 -0.917970 -0.851929 -0.401935 -0.458794 -0.457784 -0.333519 -0.062448 -0.386574 -0.779048 -1.336352 -0.257271 -0.590916 -0.467368 0.370874 -0.128363 0.389143 0.023873 -0.535693 -0.187042 0.283479 0.430250 0.243523 0.551018 0.560754 -0.505015 -1.257900 0.442060 0.234920 -0.453199 0.174886 0.110664 0.483873 -0.689236 -0.751454 -0.024111 -0.969033 -0.873700 -1.049524 0.226561 0.180707 -0.950074 -0.020073 0.683701 0.382331 -0.486738 -0.201291 0.064433 -0.391689 -0.441420 0.338247 0.333196 -0.756824 0.070465 -1.154013 -1.172747 -0.223904 0.322642 0.331166 -0.352226 -0.576020 0.578361 -1.345647 -1.344610 -0.060126 -1.389741 -1.700067 -0.646959 -0.751662 0.277873 0.196405 -0.316120 -0.693533 0.008085 -0.567807 -0.174803 -0.420050 -0.349383 0.531947 -0.909516 0.147459 -1.550755 0.405396 -0.101411 0.259252 0.920062 -0.564966 0.868424 0.676139 0.547252 -0.883032 0.770521 0.575089 -0.607660 -1.159862 -0.941840 -1.107521 -1.232753 0.594435 0.414214 -0.742624 -0.136713 -1.843194 0.436895 -0.677390 0.420499 -0.548953 -1.721197 -0.078206 0.291994 -0.809281 -0.087400 -0.621548 -0.482058 0.290854 0.216080 0.083683 -0.079595 0.465659 -0.402719 -0.582032 0.331419 -0.270365 0.119974 0.044355 0.082960 -0.798051 0.287634 0.239576 -0.535008 -0.222918 0.270805 -0.202624 -0.254019 -1.064403 0.075927 -0.785345 -0.261974 0.788704 -0.316076 0.779052 -0.210846 0.209426 0.474925 0.440546 -0.231647 -0.122789 -0.331958 0.032843 -0.201791 0.096059 0.275539 0.314984 -0.479758 -0.653141 -0.381005 -0.273390 -0.113429 0.207153 -1.057314 0.909449 -0.948559 -0.099120 -0.783264 -0.172203 -0.720953 0.737197 -0.955122 0.516994 0.718987 -0.525134 -0.654854 0.008087 -0.338803 0.616009 -0.568242 1.365140 0.536719 0.399394 0.303305 0.535133 0.690941 -0.943953 0.607095 0.123135 -0.651619 -0.538786 0.156826 -0.774477 0.267499 -0.483833 -0.834040 0.534176 -0.984432 0.601650 0.154449 -0.367585 -0.124898 0.181337 -0.490889 -0.668437 0.719129 0.003096 0.296614 -0.522645 0.432179 -1.598110 -0.123054 0.084999 0.457981 0.355209 -0.088689 -0.562169 0.299258 -0.449218 -0.067060 -0.370397 0.342600 -0.376785 -1.126168 -0.491241 -0.018511 -0.790711 -0.393372 -0.890783 0.659167 0.533634 -0.523596 0.261386 -0.223241 -0.562800 0.526557 -0.774560 -0.289097 0.219332 -1.241477 -1.020830 0.084843 0.301855 0.434298 0.371942 0.859559 -0.749775 -0.270249 -0.890415 -0.497071 -0.480397 -1.135265 -0.961740 -0.943565 0.906455 -0.745616 0.083508 0.401372 0.195910 0.996349 1.056872 0.921333 -0.891241 0.657886 0.663366 -0.079824 0.736894 0.463132 -0.149781 0.600029 -0.845987 0.151880 1.358805 0.542775 -0.534887 0.511510 -0.089119 -0.577379 -0.530375 -0.618042 -0.352291 0.253861 0.775822 -0.465971 0.247553 0.701131 -0.987862 -0.919027 -0.291652 0.849643 0.366982 0.267199 1.123587 1.517569 -0.211585 0.997715 0.063434 0.426960 0.198326 0.206392 -0.046900 1.545470 1.301363 1.365131 -0.053176 0.494556 0.184350 -0.956691 0.291664 0.168591 0.690618 -0.860324 0.389827 -0.963271 0.897125 0.462242 -0.071425 -0.958624 -0.680233 0.836385 0.771034 0.049648 1.256237 -0.198750 -0.667034 0.787977 -0.423865 0.542189 0.232171 -0.617632 0.583427 -0.468901 0.510093 0.261256 0.108768 -0.073828 0.553971 -0.260101 -0.261452 -0.953041 0.510981 0.485242 -0.074718 0.219803 -0.958739 -0.759003 -0.856416 0.918890 -0.442651 -0.792612 0.771906 0.702030 -0.883742 -0.202927 -0.495898 -0.226810 0.571373 -0.676393 -0.131078 0.535811 1.034994 -0.190086 -0.089054 0.766193 -0.721537 0.053621 -0.917693 0.410701 -0.832205
0.036428 -0.604294 0.888284 0.382381 -0.857968 -0.536019 -0.598326 0.350182 -0.502273 0.639782 0.121929 0.387941 0.319197 -0.750776 0.056084 0.357534 -0.507104 0.425664 0.789106 0.748101 0.620125 -0.651038 0.396320 0.645425 0.882447 0.270454 -0.900152 0.316176 0.378952 -0.986571 0.077644 0.089527 -0.088558 0.239284 -0.913381 -0.000678 -0.929821 -0.351929 0.077163 0.385887 0.393771 -0.100754 -0.788209 -0.786879 -0.272839 -0.787457 0.602445 -0.444867 -0.754616 -0.421822 -0.584023 -0.397802 -0.176863 0.005145 -0.814356 -0.341182 0.045370 0.118165 0.000100 -0.681132 -0.417732 0.726265 0.651690 -0.276446 -0.015951 -0.074615 -0.405377 0.312390 0.160797 -0.188168 -0.471973 0.195704 0.193611 0.491853 0.882901 -0.561845 0.741282 0.974810 0.348620 0.552838 -0.201998 0.715570 -0.313288 0.456441 0.307383 0.795282 0.713882 0.469556 0.849558 -0.308798 0.631758 0.439782 -0.460300 0.301434 -0.342140 -0.632720 -0.647901 -0.407746 -0.104230 0.205836 -0.421926 -0.234433 0.227192 0.341992 0.942152 -0.142164 0.508621 0.263332 0.799573 0.478327 0.712624 -0.246608 0.151277 -0.724680 -0.362934 0.018255 -0.798418 0.877167 -0.074168 -0.845985 0.171854 0.247825 1.025328 1.084614 -0.520833 0.075857 -0.240136 -0.109586 0.777807 0.313689 -0.708281 0.749214 -0.088590 0.785626 0.958019 0.419371 -0.139312 0.936816 0.677325 0.204219 -0.581029 -0.711109 -0.627373 0.031456 0.778019 -0.474304 -0.037321 0.530987 -0.223687 0.935275 0.554552 0.255172 -0.224257 0.167090 -0.093594 0.064489 0.377996 1.140266 -0.260787 0.310135 0.888543 0.717792 -0.040049 0.004462 -0.655610 0.584279 0.045479 -0.596853 -0.602482 -0.543229 -0.249669 0.540196 0.599889 0.139414 -0.411760 -0.144020 -0.254411 -0.336190 0.828448 0.315347 -0.579484 -0.164860 -0.344469 -0.173677 -0.017628 -0.090627 0.613420 -0.977369 0.599294 0.538055 0.664298 -1.203470 -0.395779 0.324105 -0.194452 -0.609700 -0.305880 0.413579 -0.564410 -0.603905 0.461642 0.708583 0.888244 -0.511282 -0.123918 0.339845 -0.144679 0.641033 0.049775 0.546641 -1.007462 0.339132 0.265113 -0.824444 0.924826 -0.094520 -0.372923 -0.314494 -0.082781 0.460713 -0.616934 0.729329 -0.013456 -0.392136 0.795265 -0.871333 -0.766536 -0.610093 -0.400509 -0.437138 0.757638 -0.035305 -0.090902 0.948330 -0.593680 0.188782 0.761158 -1.030025 0.058182 -1.190815 -0.468436 0.545216 0.719618 0.272206 0.841915 0.268814 -0.134377 0.886370 0.905433 1.074481 0.768870 -0.137998 0.045899 0.074435 -0.434875 0.144152 0.127526 0.741897 0.694513 -0.239891 -0.320668 -0.252121 0.448971 -0.299731 0.374246 -0.122595 -0.389220 -0.990485 -1.267890 0.234456 0.009109 0.029381 0.335147 -0.107169 0.328361 -0.595732 -0.246330 0.668407 0.718924 0.180425 -0.742302 -0.649385 0.012126 0.733256 -0.088729 0.690483 0.201198 0.165687 0.027176 -0.234384 -0.412045 0.611696 0.075696 0.287428 -0.072096 -0.511725 -1.344166 -0.523877 -0.652133 0.001714 0.185238 -0.300503 -0.010421 -0.945686 -0.885680 -0.191914 -0.166163 -0.809649 0.137168 0.971241 -0.222210 -0.803191 -0.312116 0.697635 -0.252221 0.020179 0.844058 -0.709303 0.172854 0.505408 0.129896 -0.218922 -0.470421 -0.874071 -1.484276 -1.153878 0.473021 0.189557 1.030937 0.610174 -0.655638 0.351156 -0.185533 0.308038 0.158956 0.129405 0.568226 -0.950946 -0.806289 -0.442634 0.048067 -0.862523 0.337227 0.985801 -0.430812 -0.237293 0.760827 0.532868 0.158691 0.680291 -0.859395 0.347669 -0.431215 -0.027615 0.444612 -0.120957 -0.104659 1.384348 -0.374576 0.757831 0.385721 -0.991277 -0.412790 -0.653891 -0.105825 0.709976 -0.223375 0.926324 0.342896 0.666219 0.051865 0.418908 -0.174604 -0.303371 -0.669027 0.240584 -0.266962 0.003648 -0.552184 -0.108798 -1.596441 0.150906 -0.059739 -0.557562 0.460907 -0.106118 0.996235 -0.441246 -0.186424 0.018106 -0.551625 -0.591628 0.133934 -0.224216 -0.556659 -0.096990 -0.523651 0.316537 0.247318 -0.270025 0.170222 -0.343290 -0.440305 -0.310793 -0.405868 0.103883 0.288784 -0.002185 -1.103237 -0.649240 0.396043 0.095130 0.524902 -0.087413 -0.491991 0.022741 -0.191089 -0.783140 -0.214735 0.806735 0.024964 0.155071 -0.426242 -0.399870 0.029738 0.808763 -0.708680 -0.310717 -0.474131 0.253878 -0.486891 0.797490 0.869006 0.062270 0.529409 0.238197 -0.672331 0.042786 1.104908 0.216977 0.575079 -0.400021 1.129724 0.171601 0.017857 0.001122 -0.185300 -0.357768 0.380162 0.768478 0.974536 0.900461 -0.482827 -0.923446 -0.191663 0.772728 0.386070 1.239215 -0.735892 0.931677 0.291678 -0.268942 -0.315277 -0.929388 -0.368040 0.717479 -0.327526 0.339327 0.930119 0.798972 0.635474 0.920650 0.756397 0.576619 0.397806 -0.564775 0.936231 0.027114 0.311049 0.168747 -0.685872 -0.970508 0.330782 1.141955 1.338714 0.722314 0.380584 -0.087187 -0.581538 0.484458 -0.337179 -0.522498 -0.392279 1.215239 1.584692 1.540973 0.160520 1.056836 1.028785 1.025608 0.562034 0.959303 -0.780023 -0.834036 0.032867 0.637462 0.923740 0.038325 -0.496181 0.675933 -0.502430 -0.655604 -0.654615 0.262010 -0.623549 -0.837729 -0.585378 -0.368630 0.518415 -0.465817 1.289844 0.728882 1.405312 -0.096181 1.245649 0.421124 -0.358565 0.954586 0.903000 0.371848 0.927813 -0.134358 0.165671 -0.502657 -0.523815 -0.604543 0.734361 0.078721 0.579637 1.321600 -0.635595 -0.192415 0.604435 0.209803 -0.464315 -0.021825 1.077237 -0.472944 -0.105866 0.216495 1.130892 1.716661 0.557922 0.000565 0.018645 1.245242 -0.057736 0.711219 0.712797 -0.379556 0.785443 0.502636 -0.141850 0.094319 0.784065 0.452286 0.682243 -0.052042 -0.357200 -0.101067 -0.364867 -0.317613 1.038190 -1.004185 -0.132134 0.880118 0.846336 -1.451344 0.281946 -0.069111 0.427854 0.165283 -0.823919 -0.907916 0.793197 0.799507 1.035290 0.170103 -0.062040 0.400380 0.637769 -0.893145 -0.654373 -0.616184 0.365953 -0.745365 -0.130754 -0.800216 -0.052886 -0.209301 0.509376 -0.546529 0.611469 1.015050 0.333803 0.179613 0.568859 0.326943 0.032518 0.735739 -0.552839 -0.080409 0.405747 -0.869041 -0.197544 -0.956218 -0.819183 -0.641121 -0.471162 0.706610 0.193016 -0.423805 0.258579 -0.299671 -0.835620 -0.607880 -0.514033 0.463868 0.580845 0.346651 -0.775316 0.070601 0.439750 -0.806888 0.094309 0.884599 -0.706099 0.422594 -0.618683 0.038517 0.745208 0.742813 0.106447 0.749103 -0.358779 -0.990099 -0.758234 0.754935 0.754767 0.597203 -0.317653 -0.561811 -0.514404 0.377749 0.746217 -0.061777 -0.244328 -0.558328 0.068171 1.027553 0.006736 -0.610115 -0.260699 -1.137942 -0.030034 0.292620 0.726725 -0.187471 0.200648 -0.436597 -0.231063 -0.933192 0.563395 0.655203 0.836239 -0.298303 -0.541016 -0.329877 0.682675 0.840342 0.070163 -0.554430 1.108114 -0.341199 0.139289 0.488415 1.156495 0.750855 -0.050810 -0.533690 0.903950 0.141755 -0.594564 0.374366 -0.167423 -0.585303 -0.804095 -0.603189 -0.685267 0.700261 -0.774239 -0.609292 -0.406206 -0.512687 0.355080 -0.528234 -0.322396 0.547460 -0.757130 -0.012315 -0.619816 -0.142728 0.112014 0.315000 0.047167 1.171295 0.428658 1.279941 0.391262 1.166329 -0.650370 0.722205 0.164685 0.082349 -0.640199 -0.203568 0.238183 0.907885 -0.496658 -0.547621 -0.794144 -0.504658 -0.403377 -0.931352 0.480570 -0.822817 -0.862020 1.095108 -0.858762 0.136809 0.817575 0.532053 -0.409237 0.338409 0.434963 0.588823 -0.585501 1.014131 0.453625 -0.216290 -0.331533 0.182763 -0.779768 -0.470959 0.691378 -0.009294 -0.040666 -0.616120 0.814614 -0.192680 0.006158 0.382137 0.328861 0.992639 -0.409531 0.727104 -0.673679 -0.741392 0.479442 0.745168 -0.512666 0.271986 -0.858079 -0.800297 0.723060 0.455136 0.756736 0.368280 0.218073 -0.011109 -0.326850 0.053387 0.324831 -0.690141 -0.878799
-1.518413 -0.972741 0.332255 -0.925895 0.956657 -0.962322 -0.537951 0.078153 -0.889586 -0.630169 -0.146457 -0.209390 0.740025 0.813898 0.630199 0.378686 0.881907 -0.659277 0.180022 0.634067 0.456189 0.150801 0.111348 0.126099 0.926258 -0.559818 -0.773034 0.432035 -0.380055 0.879167 -0.001566 0.396000 -0.559387 0.258046 0.109493 -0.423598 -0.546939 -0.071914 -0.113106 0.049967 0.300090 -0.290740 0.120316 0.361570 0.365320 0.286923 -0.721861 0.028842 -0.368515 -0.768457 -0.366796 -0.383756 0.512786 -0.591632 -0.570774 0.685197 -0.561372 0.093090 -0.176426 -0.734461 -0.835122 0.301818 0.934632 0.615814 0.697630 0.348079 0.605201 -0.676272 -0.845039 -0.108215 -0.012197 1.023512 1.072646 -0.829099 0.550104 -0.611547 0.608962 1.092093 0.910608 0.978524 0.641404 0.722448 0.850133 -0.250022 0.065157 -0.731017 0.076715 0.556871 0.014260 0.537244 0.405218 0.442885 -0.283452 1.005382 0.026168 0.672569 -0.377109 0.334112 0.029899 0.205788 0.427154 -0.423182 -0.067511 0.465130 -0.290378 0.195197 0.171449 -0.503682 0.818941 -0.717117 0.975241 -0.863266 0.934538 0.757518 -0.301792 0.753789 -0.162499 0.886422 0.810836 0.006793 0.496132 -0.729196 -0.336649 -0.061659 0.011546 0.776618 -0.740637 -0.055987 -1.006272 0.241059 0.444171 -0.805855 0.574808 0.214427 0.100221 1.264996 1.256385 1.030270 0.568651 -0.711240 0.490866 -0.097012 0.130669 0.271289 0.837854 0.056057 0.548937 0.794892 -0.157560 -0.532444 0.069321 -0.019135 -0.096744 -0.141503 -0.499918 -1.376174 0.690011 -0.149976 0.129332 -0.065598 0.566329 0.637485 1.101061 0.141126 0.460045 0.001119 0.948357 -0.177492 0.376166 0.121814 0.590991 -0.685453 -0.699695 -0.155580 0.688871 0.723022 0.218965 -0.707715 0.520406 0.624312 0.660166 0.435124 -0.785192 -0.403646 0.326176 -0.430124 -0.286271 -0.815266 1.009978 -0.062411 -0.412415 0.094714 0.520742 -0.257083 -0.233827 0.899531 0.767275 -0.552390 -0.493284 -0.076074 -0.314942 0.811548 0.637864 0.600319 0.373195 0.232964 0.187343 0.071715 0.444381 0.736706 0.647809 0.311694 -0.297617 0.333209 0.818234 -0.146592 0.246979 0.663990 -0.959578 0.312349 0.162706 0.355303 -0.470034 -0.488564 -0.425135 -0.038848 0.163581 -0.937183 0.350663 0.124172 0.906575 -0.036135 -0.431982 -0.648281 -0.635442 0.493118 0.678999 1.110270 -0.172311 -0.068675 -0.257439 -0.184746 -0.733141 -1.113428 -1.287049 -1.488554 -2.002261 -1.745798 -1.145347 -0.145820 -0.185168 0.661452 0.284963 0.956763 -0.381655 0.572010 -0.224982 -0.295836 -0.779417 -0.978963 0.460604 0.740624 -0.828934 0.040261 -1.461647 0.283255 0.521482 -0.856720 0.201644 -1.188999 -1.339768 -1.624573 -0.802887 -2.451080 -0.614053 -0.288559 0.471703 -0.097927 -0.277720 0.647577 -0.744686 -0.343708 0.293685 0.464651 -0.588649 0.140260 -1.055396 0.383303 -1.276472 0.266941 -0.466020 -0.489151 -1.869937 -1.364725 0.014256 0.188485 -0.711579 -0.041178 -0.478873 -1.053907 -0.222539 -0.137293 -1.153579 -0.615497 -1.125936 -0.471734 -0.858193 -0.614763 -0.334465 -0.483595 0.051500 -0.368289 0.458003 0.322231 -0.213480 0.070008 -1.298217 -1.314715 -0.941065 -1.418278 0.013023 -0.272491 0.084730 -0.369825 -0.186105 -0.136842 -1.091986 0.309658 -0.555904 -0.221335 0.308124 0.086583 -0.894436 -0.515213 -0.067282 0.642552 0.017070 0.129825 -0.899242 -0.084181 0.753005 -0.328592 -1.213950 -0.057314 -0.704842 -1.007615 -1.170462 0.238220 0.089009 0.296519 -0.111565 1.084840 0.345011 0.814726 -0.844625 -0.652555 -0.774698 0.859894 -0.222036 -0.071379 0.610921 -0.897383 0.705102 0.732078 -0.778149 0.853087 -0.010341 0.195226 0.060524 -1.223198 -0.006293 -0.116843 -1.051594 -0.109785 0.409683 0.782742 0.419373 0.962714 0.620942 -0.259914 -0.534222 -0.035084 -0.065634 -1.109785 0.610942 -0.617681 -0.393062 -0.539887 0.818103 -0.319685 -0.867670 0.622435 0.249383 -0.287989 -0.208192 -0.184520 -0.883104 -0.099527 -0.312175 0.267520 -0.158167 1.234550 0.373132 0.863981 0.629731 0.763800 1.013992 0.048138 0.030767 0.844531 1.046158 0.824455 -0.420881 1.036467 0.099168 0.817698 1.170371 0.653333 -0.685258 -0.266426 0.464275 -0.215646 0.292371 -0.606214 -0.538842 -0.719683 0.377854 0.259854 -0.583998 0.249143 1.247814 0.739938 0.147313 -0.353088 -0.191155 -0.205795 -0.433892 -0.420971 -0.238292 -0.087334 -0.176751 1.147519 0.317391 -0.831620 0.826666 0.958227 -0.268444 0.809340 0.300373 0.861563 0.507240 0.226850 0.519198 0.103711 -0.584786 -0.622538 -0.229417 -0.218486 -0.625290 -0.406286 0.731418 -0.234128 0.270951 -0.499328 -0.708647 -0.282289 0.588348 0.627193 0.427476 1.167186 0.557353 -0.273249 1.008991 -0.244373 0.878739 -0.170601 0.291833 0.617259 0.228560 0.673458 -0.107113 -0.123191 -0.283231 -0.051308 -0.136645 0.083871 -0.116931 0.032086 -0.936325 0.232823 0.182133 -0.886389 -0.462451 -0.454993 0.106251 -0.255949 0.208133 0.413192 0.703307 0.521814 1.051604 0.000665 -0.120682 0.811156 0.486810 -0.191478 0.722616 -0.639880 0.705703 -0.561067 -0.529009 -0.605920 -0.239620 -1.021566 0.215935 -1.350808 -0.957174 -0.239384 0.322293 0.943943 -0.522935 0.842560 0.179625 0.106293 0.699412 -0.138394 1.337433 0.545332 0.525207 -0.553621 0.839404 -0.387479 -0.473166 -0.621787 0.220073 -0.467435 0.574216 -0.254148 0.077669 -0.681586 -0.270477 -1.189448 0.531268 0.388527 1.369193 0.228535 1.009151 -0.401658 -0.405065 0.320685 -0.173700 1.106704 -0.812029 0.935503 1.380310 0.278701 1.074651 0.370087 0.583865 -0.734266 0.243663 -0.015395 0.652501 -0.648092 -0.382861 0.184106 1.211130 -0.605683 -0.012063 -0.501460 0.393579 -0.040446 0.550461 0.609054 0.115378 1.040121 1.039430 0.335144 0.127044 0.325969 -0.640703 0.253623 0.176517 -0.840269 0.832884 0.724062 -0.032190 0.054355 -0.889900 -0.576364 0.911331 -0.826328 -0.288444 0.207090 -0.163499 0.688572 -0.371349 0.198759 0.443814 -0.278212 0.131831 1.068416 -0.191840 0.049698 -0.263354 -0.458054 -0.212412 0.781034 -0.309301 0.113416 -0.081347 -0.501401 -0.736760 0.713053 0.398359 -0.264819 0.880465 0.873204 0.651287 -0.393333 -0.066295 0.072932 0.210485 0.021392 -0.682292 0.590996 -0.213882 -0.813848 0.465790 0.111429 0.285591 -0.718706 -0.148864 0.209043 -0.354045 -0.111483 0.051173 -0.473096 -0.685679 -0.543693 0.443393 0.032926 -0.421217 0.221756 -0.452329 0.453017 -0.384029 0.088759 0.525164 0.197547 0.855416 0.075501 0.666267 0.571770 -0.335973 -0.581526 0.485405 -0.130828 1.236290 -0.497707 1.008474 0.420026 -1.459317 -0.844499 0.200724 -0.168572 -0.260070 0.705045 0.517987 1.037895 0.836459 0.829128 -0.628112 -0.723323 -0.493156 0.421342 0.036955 0.217453 0.257772 -0.011432 0.820212 0.654400 0.989070 0.141439 0.140252 -0.244067 -0.196035 -0.138787 0.618817 -0.290785 -0.631957 0.090486 -1.015568 -0.588336 -0.438580 -0.560432 0.965577 0.083177 0.022612 0.016888 -0.259875 -0.561030 0.694151 -0.448819 0.156452 0.076748 0.853370 0.148612 -1.009776 -0.847387 -0.516699 0.016431 -0.045630 0.616634 -0.465907 0.255491 -0.040615 0.782523 -0.341467 0.650982 0.753422 0.147002 -0.505181 -0.455974 -0.645694 -0.226790 0.462812 -0.570548 0.494779 -0.866232 0.457620 0.458854 0.786812 0.909311 -0.870965 -0.059050 0.770630 -0.582800 0.072170 0.786233 0.723757 0.636942 0.868572 0.574971 -0.394797 -0.813393 -0.269054 0.272845 -0.352219 0.873768 0.077684 -0.270555 0.797306 0.122367 -0.108721 0.866204 -0.413840 0.222103 -0.736294 0.526995 0.836933 -0.591850 -0.727454 -0.244024 -0.829446 -0.826563 -0.942564 -0.423272 0.681566 0.912353 -0.082967 -0.622035 0.674847 -0.455654 -0.995609 0.860895 -0.814699 -0.142740 0.521401 0.239355 0.333689 0.674038 -0.535051 0.022054 0.865991
-0.926931 -0.449192 -0.789252 -0.754927 -0.324408 0.199634 -0.274432 -0.207655 -0.499939 -0.295429 0.671619 -0.209423 -0.204582 -0.229589 -0.520650 -0.041169 0.758427 0.863863 0.103013 -0.459474 -0.333871 -0.535635 0.793772 0.684608 0.112429 0.174404 0.572079 -0.164502 0.266284 0.843974 0.813517 -0.397163 0.051097 -0.597856 -0.309308 0.370751 -0.542471 0.369150 0.704019 0.438970 -0.559148 0.582754 0.208583 -0.854390 0.286184 -0.604142 0.275576 -0.167248 -0.800352 -0.668534 0.323776 0.244119 0.867447 -0.994098 0.799581 0.892443 0.109797 -0.300583 -0.946677 0.763824 0.968194 -0.484689 0.093640 0.640914 0.654258 0.738904 -0.876194 -0.699501 0.193113 0.804809 0.988035 0.315405 0.643971 0.945098 -0.772971 -0.838557 0.080056 -0.720140 0.974476 -0.983693 0.459497 0.686611 -0.950929 -0.439199 -0.569785 0.167620 0.772697 -0.549449 -0.685991 0.575586 0.360119 -0.882240 0.369219 0.639141 -0.465943 0.442271 -0.501280 -0.637998 0.042607 -0.111147 -0.268378 -0.336749 0.364638 0.446449 -0.863300 0.848846 0.509228 -0.768941 -0.920051 -0.939428 0.583724 0.156218 -0.793024 -0.342488 0.341257 0.223532 -0.620827 -0.695418 0.893260 0.727743 -0.710015 0.564215 -0.727355 -1.194004 -0.162725 0.237595 -0.082087 0.113026 0.215052 0.061245 0.058872 0.544114 0.165095 0.687260 0.731440 -0.978264 0.833356 0.918387 0.280813 0.006759 -0.395371 0.523484 -0.992595 0.810602 0.753072 -0.308303 0.709878 -0.995246 0.108562 -0.735013 0.066296 -0.361660 0.542532 -0.297013 -0.148059 0.258661 1.067616 -0.346850 0.613600 1.015767 0.674986 -0.466984 0.790952 -0.023185 -0.803258 -0.422455 -0.652634 -0.321913 0.546597 -0.353192 -0.809458 -0.043303 -0.955558 -0.909132 -0.581462 0.661068 -0.740972 0.316554 0.967664 -0.164217 -0.300119 -0.579023 -0.714411 0.513900 0.083149 0.674561 0.728657 -0.112322 0.756264 -0.493078 0.176756 -0.200872 0.857303 -0.264792 1.041171 0.919128 -0.606112 0.422567 0.764011 0.482004 -0.090710 -0.852018 -0.446428 0.612334 0.276841 0.645327 0.897164 -0.113535 0.029719 0.514959 1.287510 0.684192 0.454725 -0.011739 1.335884 -0.097665 0.854619 1.099029 0.419410 1.016231 -0.189581 -0.205343 -0.402876 0.469009 -0.254165 -0.365599 0.587469 -0.517690 0.832114 -0.503013 0.222969 -0.102811 -0.968815 0.578198 0.502256 0.830816 0.534768 1.108116 0.194762 0.853849 1.727815 1.197627 1.326644 -0.043612 0.181628 -0.379265 0.443014 -0.304941 -0.157614 0.226767 -0.157231 -0.281735 -0.859134 0.904174 -0.186266 -0.443400 -0.501089 0.009587 -1.228323 -0.378658 0.633792 -0.452387 1.168146 1.227788 -0.723387 0.206744 -1.280797 -0.284866 -0.048381 -0.032534 -0.337808 -0.003453 0.514896 0.358388 -0.024030 0.990371 0.060458 0.315153 -0.814391 0.433871 0.276978 0.763686 0.658205 -0.983122 -0.885388 0.616112 -0.951989 0.675713 -0.115193 -0.016244 0.784695 -0.615677 -0.826578 -0.390025 -0.841326 -0.703266 -0.509959 0.001287 -0.764157 -0.776717 0.311013 -0.782397 -0.278553 -0.337617 -1.072737 0.547378 0.430535 0.811005 -0.735185 0.699420 -0.376034 -0.444373 0.654748 -1.125087 -0.013754 -0.514742 0.538000 1.138426 -0.556633 0.385763 -0.141546 -0.731493 -1.781237 -0.845493 0.223420 -0.775999 0.055695 -0.660240 -0.479992 -1.023783 -0.851886 -0.588598 -1.342473 -0.557001 0.415644 -1.100431 0.387299 0.987049 -0.661307 0.077275 0.176487 -0.906406 -0.180895 -0.771259 0.584101 -0.840023 -0.985470 0.496913 -0.967051 0.372540 -1.153449 0.159065 0.895211 0.949583 0.683342 -0.758012 -0.173212 -0.855382 0.450356 -0.123224 -0.900933 -0.017867 0.169363 -0.207612 -1.021275 -0.263367 0.127379 -0.256637 -0.551127 -0.619681 0.531027 -0.728619 0.839220 -0.176734 0.441740 0.877879 -0.918017 -0.877741 -0.528284 -0.374247 1.504445 -0.520655 0.522053 -0.344357 -0.034348 -0.871741 -0.202514 0.131486 0.169894 -0.841839 -0.776252 -0.407788 0.058255 0.998065 0.107189 0.723295 0.805907 0.491681 -0.135149 0.608984 0.714093 0.507134 0.230879 1.141046 -0.337100 0.435079 -0.285541 0.788737 0.900417 0.016925 0.244255 0.797643 -0.199041 0.926403 -0.330220 0.038779 -1.215368 0.606489 0.028055 0.827941 -0.120871 -0.969513 0.813467 -0.830227 0.500913 -0.165650 0.404257 -0.191393 -0.577449 -0.179991 -0.131031 0.444612 -0.506756 0.457823 0.368246 0.726131 0.502824 1.087447 0.984411 0.552225 0.421352 -1.049468 0.263048 -1.220278 -0.065961 -0.527060 0.432355 0.833705 0.404658 0.219641 0.540946 -0.863510 0.520814 -0.088384 0.544748 -0.375069 0.146153 0.546737 0.822179 1.052251 -0.192247 0.955757 0.319458 -1.094568 0.745876 0.450851 0.542867 0.578784 0.602046 0.180612 0.405996 0.636249 -0.304046 -0.329033 0.024804 0.431216 -0.483598 -0.241728 -0.459653 0.268804 -0.555677 1.041203 0.862022 -0.790187 -0.353670 -0.275155 0.753787 0.616669 -0.059418 0.136067 -0.632288 -0.119264 -0.498800 0.498379 -0.128963 0.901737 -0.520987 -0.033858 -0.124551 0.577762 -0.402908 -0.772748 -0.414921 -0.056315 0.986085 0.622826 -0.500416 0.084538 -0.516216 -0.548323 0.717181 0.633662 0.773439 0.278096 0.376575 -0.258607 0.664077 1.023517 -0.527461 0.261434 -0.065569 0.597682 -0.735130 -0.573128 0.064625 1.235733 -0.360096 0.323219 0.353187 0.831195 0.394788 0.544876 -0.872293 0.040055 -0.687410 0.687378 -0.895647 -0.414727 0.115896 0.037684 0.068835 -0.475723 -0.199378 1.023846 0.668979 1.060985 -0.335898 0.554763 0.206486 -0.209440 -0.278177 1.109169 0.938852 -0.415432 0.957394 0.243647 -0.506927 -0.676265 0.779861 -0.314549 -0.822625 -0.651526 0.499699 -0.165418 -0.728789 0.391658 0.016276 -0.317351 0.564767 0.939260 0.045408 0.262571 -0.127962 0.084169 0.520699 0.662749 0.028221 0.553428 -0.003389 1.129796 -0.313069 0.344302 0.726676 0.966842 -0.574270 0.566067 0.675970 0.511072 0.139831 0.798999 0.958689 0.915504 -0.663685 -0.121294 -0.424623 -0.646047 1.012092 -0.470440 -0.100394 0.863037 0.928042 0.746745 0.345286 0.664814 0.600057 -0.817945 -0.679766 -0.780529 -1.089602 -0.214663 -0.513063 0.072802 0.871885 -0.914147 0.038112 0.077677 -0.159922 -0.695044 -0.207944 -0.790973 -0.108056 -0.799249 -0.067816 -0.664459 -0.922088 0.282115 0.453647 -0.491831 0.587037 0.013104 -0.541276 0.375537 -0.992159 -0.161271 -0.611468 -0.688279 -0.324365 0.482349 0.792381 -0.374044 0.441194 -0.853347 0.408526 -0.358667 0.916604 -0.740861 0.485148 -0.735752 -0.761037 0.716633 -0.661286 -0.590466 0.345707 -0.359439 -0.230695 0.915440 -0.904216 -0.454270 -0.157999 0.475809 0.098199 0.668034 0.598991 -0.739304 0.759607 -0.827270 0.989821 0.774963 0.459113 0.994107 -0.975464 -0.777891 0.517035 0.363248 0.966782 0.106896 -0.800978 0.754591 -1.022145 -0.095372 0.587535 0.093835 0.294757 -0.076957 -0.740022 -0.556266 -0.698669 0.864057 0.126032 -0.240777 -0.564360 0.728804 -0.752417 0.928847 -0.043582 1.124122 0.008436 0.806165 -0.682562 -0.614047 -0.070378 0.050369 -0.841336 -0.069902 0.536253 -0.678698 -0.984060 0.532451 -0.387919 0.717165 -0.931995 -0.127965 0.128583 0.403444 -0.500645 -0.122845 -0.727817 -0.284728 0.335677 1.001439 -0.272179 0.113151 0.874260 -0.715959 -0.120562 0.138415 0.811668 0.674857 -0.730656 -0.430981 -0.626225 -0.557966 -0.208688 0.039286 -0.765856 -0.959828 -0.305125 -0.869817 0.571182 -0.006003 0.352061 -0.132590 0.587456 -0.839851 -0.325682 -0.770717 -0.449181 0.274500 0.350567 -0.376156 0.562591 0.443902 -0.118665 -0.008643 0.514945 0.813815 0.992164 -0.382350 0.486772 0.950099 0.622244 0.746296 -0.841693 -0.128250 -0.611806 0.357379 0.371207 0.692874 0.024870 -0.971136 -0.151645 -0.798225 -0.096026 0.798298 0.499536 0.974493 -0.715881 -0.905246 0.115655 0.170108 0.499061 0.016336 0.876409 0.300979 0.157795
-0.184136 -0.606388 0.159658 -0.637960 -0.290107 0.659086 -0.948537 -0.707043 -0.302188 -0.005880 -0.459009 0.711776 -0.476873 0.548642 -0.533990 -0.381238 0.132557 -0.049363 0.635535 0.577940 0.140226 0.126987 -0.479215 -0.110409 -0.397074 0.217885 0.141174 0.240664 0.155958 -0.465271 0.739924 0.498621 0.929719 0.245860 0.365559 -0.551342 0.202131 0.717043 -0.933095 -0.969348 -0.183706 1.026386 0.538084 -0.361583 -0.317620 -0.691445 0.428783 0.450636 -0.759010 -0.702510 0.438219 -0.337648 -0.643501 -0.865061 -0.179839 0.444142 0.465630 0.937366 0.655888 -0.115863 -0.141485 -0.776504 0.971768 0.568245 0.198736 -0.912005 -0.788715 0.350040 0.655859 -0.914443 -0.899611 -0.875170 0.821552 -0.419868 -0.750115 -0.888965 0.619643 -0.989575 -0.194977 0.512633 -0.198288 0.410313 0.442390 -0.427309 -0.847361 0.607136 0.865699 -0.792409 -0.861483 0.923627 0.615348 -0.985028 -0.168450 0.662688 -0.289891 0.345410 -1.364762 0.634101 -0.733742 1.179497 0.232559 1.079783 0.269073 0.173624 0.407364 0.591603 -1.061076 -0.292101 0.701499 0.492171 0.376160 -0.441344 0.537707 0.219257 -0.123455 0.720080 0.197889 -0.006161 0.626577 0.456994 -0.998293 0.701202 0.488043 -1.094560 0.142906 -0.313120 0.838827 0.654120 -0.183365 0.132437 0.709975 0.783704 -0.012342 -0.072973 0.434709 -0.145308 -0.069224 -0.725091 -0.483762 -0.873876 0.075459 -0.369366 0.673467 0.711452 -0.813665 -0.461767 0.627413 -0.034632 0.874576 0.461455 -0.040604 -0.089749 0.054298 -0.540267 -0.431520 -0.339361 0.555439 0.059965 0.035950 0.980748 0.607817 -0.421456 -0.616130 0.627151 -0.075339 0.038276 -0.925848 0.514111 -0.363921 -0.698051 -0.860808 -0.604269 0.381568 0.024026 0.955900 -0.116334 0.038070 -0.874810 0.264796 -0.028514 -0.272120 -0.524423 -0.604724 -0.650301 -0.663280 0.293645 1.400444 0.745760 0.561230 0.577211 0.307694 0.100947 -0.873120 -0.638959 -0.091946 -0.179793 0.398085 -0.399574 -0.935054 -0.926975 0.016087 0.910535 -0.373324 0.114750 0.469575 0.233682 -0.573774 -0.007398 -0.501447 0.467316 -0.149915 -0.923434 0.238859 0.522182 -0.025381 1.132700 1.137655 -0.289510 0.448526 0.651915 -0.375067 -0.879807 -1.151060 0.662344 -0.264482 -0.195293 -0.888715 -0.217744 0.166268 0.931425 -0.447245 -0.941747 0.281611 -0.262140 -0.209726 -1.126389 0.183793 -0.781480 -0.640254 -0.885544 -0.228368 1.344458 1.203898 1.035570 0.621764 1.098164 -0.341926 0.750242 -0.469399 -1.130310 -0.263800 0.814748 0.348215 0.608903 -0.904618 0.466566 -0.168107 -0.245618 0.338608 -0.189130 -0.292672 -0.712586 -0.732383 -0.445923 -1.091654 0.203976 -0.680389 -1.548478 -0.777345 0.985158 1.864078 0.918463 1.380040 1.501758 -0.562279 0.072384 0.500332 -0.912368 0.173294 -0.162037 -0.048260 0.777938 -0.270675 0.291001 0.804003 -0.589012 0.349712 0.521988 -0.788747 -0.476843 0.430069 0.670501 -0.925256 -1.369270 -1.884610 -1.777942 -0.851563 1.390611 1.560699 0.027229 0.900050 0.862859 1.062434 1.233338 -0.974584 -0.930150 0.195681 -0.174839 0.771029 0.200842 0.172333 0.534875 -0.323132 0.238005 -0.497481 -0.118267 0.701905 0.902858 0.277619 -0.516658 0.482558 -0.850296 -1.187785 -1.787054 -0.426937 0.595535 1.182200 0.507120 0.382842 1.206145 0.264317 1.670030 0.007783 -0.884336 0.357864 0.795482 0.484851 0.546856 -0.348876 -0.039228 -0.089575 -0.344802 0.458553 -0.647647 -0.757473 -1.181878 0.542577 0.056977 -0.844924 0.097175 -1.029955 -0.382939 -0.194743 0.119292 0.571411 0.702832 0.371301 -0.131427 -0.211928 0.370382 0.282916 -0.153291 0.147312 -0.836382 0.088266 -0.262427 0.124858 -0.574070 0.826212 -0.465619 -0.055274 0.528303 -0.515821 -0.011515 -0.587836 -0.059764 -0.906691 -0.082125 -0.444853 -0.716512 0.150121 -0.640651 -0.373718 -0.476438 -0.379065 0.263095 0.481917 0.305621 1.164839 0.436259 0.235979 0.347800 -0.059358 -0.521873 -0.079039 -0.391940 0.308535 0.123899 0.119975 0.488026 -0.231630 0.488780 -0.524122 -1.083125 0.070482 -1.281354 -0.744610 -0.846114 0.088352 -0.368184 0.583259 1.002665 0.689986 0.270107 0.770931 -0.178095 -0.097398 -1.041558 -0.673938 -0.426953 0.742351 -0.251873 -0.704918 -0.500713 -0.390440 0.720584 -0.149796 -0.449068 -0.182644 0.429541 0.017654 -0.193957 -0.729061 -1.215710 -0.285038 -0.351820 1.046205 0.208507 -0.042850 -0.032735 -0.070562 1.187916 -0.804207 -0.738900 0.715363 0.295827 -0.534228 0.259044 -0.102694 0.874236 -0.922898 0.488746 0.474994 -0.102946 0.557009 0.915985 0.033640 -1.295850 0.161492 -0.350260 -0.576758 0.474369 -0.505872 -0.599412 -0.758296 -0.481302 0.566066 0.805007 0.971328 0.336946 0.600149 0.830413 -0.162436 -0.081601 -0.014872 0.283865 0.777822 0.270661 -0.482790 0.472545 -0.382184 0.039117 0.221684 -0.033379 -0.059952 0.087930 0.720283 -0.274232 -0.834755 -0.260984 -0.238827 -0.153234 -0.408913 -0.047167 0.570346 0.736096 -0.008129 0.111405 0.542790 -0.420647 -0.219644 0.357952 -0.573451 -0.595810 0.565583 -0.188498 0.943862 -0.685237 -0.061906 0.468390 -0.199595 -0.431365 0.415306 -0.026762 0.469969 -0.180897 -0.311608 -0.200263 -0.738355 -1.062829 -0.251808 0.088895 0.034525 -0.098831 0.555068 -0.261512 -0.676595 -0.268013 -0.911984 0.279816 -0.708726 -0.525894 -0.079950 0.849354 -0.110256 0.843222 -0.620301 0.722739 -0.097053 -0.249348 0.282687 -0.479103 0.188652 -0.573992 0.112240 0.147850 0.185605 -0.376854 0.842945 -0.422893 0.164663 -1.070499 -0.896151 -0.658292 -0.813289 -0.344711 -0.788781 -0.531942 -0.736292 0.789957 0.081431 -0.494262 0.274380 -0.175552 -0.030452 -0.156136 0.112811 0.550122 -1.179878 0.081273 -0.136133 0.111381 -0.123854 0.519774 0.530573 0.000653 -0.949764 0.340468 -0.546794 -0.676172 0.551794 -0.696895 -0.285014 -0.049235 -0.720987 0.778843 0.135111 0.263997 -0.798709 -0.786326 -0.071965 -0.730602 -0.099966 -0.544543 -1.287508 0.188078 -0.226740 0.297534 0.068248 -0.030087 0.060949 0.107773 0.995635 -0.003150 -0.137453 -0.126572 0.331335 -0.280475 0.879109 0.102469 -0.878638 -1.178282 0.321249 0.983912 0.861761 0.621512 0.876886 0.856734 0.063784 -0.786779 0.115286 -0.620438 0.398007 0.115032 -0.401623 -0.449966 0.417326 0.332788 -0.124250 0.748411 -0.299391 0.053033 0.404918 0.105415 0.656440 0.326130 1.024639 -0.414462 0.660705 0.868658 0.962037 0.390889 -0.045381 0.019182 -0.918249 0.147369 -0.926644 0.671768 -0.819319 -0.472824 -0.351590 -0.457213 0.648742 -0.037906 -0.050842 -1.414027 0.419607 -0.128259 0.055158 0.122487 -0.806304 -0.620140 0.974272 -0.137986 0.518306 -0.048984 0.139213 -0.710900 0.830125 -0.199728 -0.115376 -0.391519 0.320510 0.027196 0.944463 -0.348798 0.586110 0.196132 -0.334055 1.050511 0.190425 -0.409178 -0.632879 0.874292 -0.645307 0.428835 -0.133852 -0.042724 -0.719503 -0.236281 -0.543565 0.213130 0.113360 -0.171922 -0.397535 0.719951 0.031853 0.162777 0.118098 0.239140 0.382455 0.471677 -0.735511 0.645408 -0.848543 0.345003 0.958728 -0.309335 -0.313423 1.021074 0.184714 -0.407038 0.251440 0.485572 -0.449576 -0.413334 -0.646551 -0.477880 -0.378410 0.124790 -0.749859 -0.782202 0.043839 -0.861510 0.481574 0.096035 -0.297073 -0.055383 -0.219647 0.442742 -0.160623 0.552547 -0.471835 -0.921004 0.656868 0.596166 0.920913 -0.468211 1.085360 0.058806 0.157040 -0.864185 0.391849 0.004594 0.099345 -0.577197 0.159361 -0.086139 0.335021 -0.878683 -0.056013 -0.061401 0.228400 0.261198 0.810371 0.227394 0.943485 -0.234613 -0.610206 -0.110404 0.138229 0.004148 -0.121516 0.317596 0.659862 -0.804712 0.074985 0.589296 -0.655815 -0.820709 -0.904221 0.423753 -0.438729 0.140481 0.462625 0.994724 0.631885 0.300062 0.109228 -0.253645 0.484674 -0.185218 0.072105 -0.568556 -0.630424
0.270543 -0.817178 -0.816639 -0.930903 0.208883 -0.079780 -0.650826 0.619478 -0.653731 0.403306 -0.145003 0.723430 0.869412 -0.660787 -0.288203 -0.730410 0.344169 -0.716128 0.628500 -0.691444 -0.903079 -0.108964 0.621670 -0.917786 -0.113560 -0.499766 -0.939374 0.751597 0.372715 -0.306801 0.231889 -0.307947 0.382438 0.915945 0.525841 -0.847446 0.367176 -0.939695 0.549004 0.481287 -0.088170 -0.308361 -0.774348 0.585965 0.417765 -0.787331 -0.278085 -0.084531 -0.320502 0.715912 0.154451 -0.144420 -0.400146 -0.966545 -0.906999 -0.464521 0.550426 -0.830392 0.487627 -0.402261 -0.254630 -0.796773 -0.290172 0.011309 0.473092 -0.717100 -0.740537 0.382984 0.696686 -0.618003 0.794085 0.581361 -0.443423 0.349378 -0.896167 0.073885 -0.260747 0.032495 0.557070 0.378756 -0.725330 0.866702 0.196874 -0.357316 -0.884583 0.694589 -0.813959 0.860499 0.551949 0.043445 -0.858772 -0.526848 0.396024 0.267860 0.582109 0.232420 0.972355 -0.542232 0.767799 0.089149 0.109355 -0.214328 -0.676763 0.328125 0.530292 -0.462375 1.090139 -0.325083 0.100583 -0.597076 0.944385 0.538092 -0.184979 0.578363 -0.365727 -0.224342 0.661976 -0.983172 -0.515383 -0.217684 0.101242 0.378051 1.233860 -0.163397 1.097124 0.516273 -0.759971 -0.347468 -0.177711 0.480856 -0.289572 -0.469823 -0.229172 -0.185014 1.016387 0.166066 -0.298693 -0.163365 0.047431 0.082457 0.635789 0.706242 0.913813 -0.509640 0.476878 -0.270208 0.236949 0.544974 -0.773959 0.240993 0.196620 0.382377 -0.131986 0.631422 0.917452 -0.235258 0.505739 -0.093604 0.752713 0.883724 0.096309 1.618791 0.706335 -0.519118 1.134030 0.196839 -0.627610 -0.514402 -0.524747 0.163522 0.473181 -0.051986 0.631694 -0.155171 -0.363213 0.076222 -0.654214 -0.206445 0.350723 0.830709 1.057757 1.054270 0.738528 0.502916 0.862589 1.880939 0.669149 1.375142 0.111588 -0.921926 0.618249 0.574959 -0.156764 -0.773517 -0.016069 0.414730 -0.964195 -0.717820 0.189108 -0.791673 0.093574 0.592298 0.608277 -0.510103 -0.573388 0.704414 1.670569 0.329202 0.822861 1.007724 0.438064 1.946007 2.014441 2.220335 1.015031 0.025908 -0.222946 0.007547 -0.309674 -1.215229 -0.538320 0.259316 -0.480993 -0.285873 -0.917490 -0.952000 -0.668776 -0.289519 0.499063 0.580273 0.326001 0.460844 -0.101195 -0.166279 0.398614 1.281384 1.083877 0.986561 2.076013 1.640614 0.275783 -0.916145 -1.282703 -0.075076 -0.154881 -1.147134 -0.640296 -0.549464 0.129778 -0.239229 0.876301 -0.041837 0.584894 -0.991043 0.142851 -0.285129 0.874327 -0.519054 0.499292 1.020174 1.022358 1.477001 0.498131 1.663204 0.945106 -0.018500 0.740405 -0.462061 -1.199471 -1.051632 -1.002899 -0.562543 -0.199078 0.186402 -0.793473 -0.747670 0.192921 -0.972286 0.455578 0.118304 0.676414 0.862910 0.512052 0.076333 -0.654257 -0.491880 0.754420 0.386730 0.922102 0.762944 0.318151 0.723834 -0.091824 -1.064221 -0.316800 -1.747619 -1.045238 -0.116823 -0.041651 0.754603 -0.834745 -0.164660 -0.649106 0.025937 -0.353404 0.024165 0.664496 0.525484 -0.129747 -0.076309 -0.370267 -0.463922 0.471355 0.439073 -0.336575 0.330532 0.293315 -0.998703 -0.888685 -0.136145 -0.299924 -1.676876 -0.686525 0.119454 -0.298558 -0.231156 1.250004 -0.461454 -0.381872 -0.449614 0.920738 -0.445746 0.106629 0.269382 0.300926 -0.502621 0.669173 -0.558717 0.345357 -0.915311 0.577673 0.567564 0.182632 0.404872 -1.523918 -0.676448 -1.109836 -1.188912 -1.597534 -1.379748 -0.556554 0.971356 1.137874 -0.392908 0.185576 -0.390851 1.086581 0.591213 -0.741155 0.497653 -0.449938 -0.065486 -0.812818 -0.815878 -0.924644 0.318452 0.612741 0.024825 -0.266278 0.730453 -0.656595 -0.090707 -0.379534 -0.208536 -0.818973 0.071117 -0.872422 -0.675811 0.385730 -1.097155 -1.103823 0.202338 0.057147 0.394232 -0.673697 0.157234 -0.462367 -0.055075 -0.483138 -1.062122 -0.269265 0.608074 0.974588 0.034027 -0.735050 -0.588635 -0.957740 0.634912 -0.876306 0.046560 -1.273038 -0.049724 -1.004164 -0.785793 -0.823074 -0.715670 0.672920 -0.151874 -0.571108 -0.630488 -0.007130 0.246570 -0.884937 0.122649 0.268365 -1.132457 -0.524132 0.921634 1.096249 -0.308773 0.020960 0.003866 0.193697 0.360215 -0.822034 -0.720069 -0.998566 0.049939 -0.731246 -0.081984 -0.237214 -0.477767 -0.244850 -0.526952 0.477767 0.282568 0.319888 -0.764968 0.087627 -0.976831 -0.148857 -0.519065 -0.041361 -1.180504 -0.017701 -0.824466 0.610921 0.112170 -0.751644 0.788303 -0.440999 0.286857 -0.751314 0.285307 -0.555912 -1.875295 -0.005595 -0.796823 -0.115610 0.261116 -1.181756 -0.266831 -0.219013 0.434309 -1.057412 -0.449108 0.540362 0.059865 0.492318 0.081922 -0.228919 0.113566 -1.118503 -0.063688 0.255508 1.016590 0.313528 0.964843 0.110531 -0.761214 -0.271294 0.204690 -0.266899 -0.361545 0.264352 0.613668 0.016854 -0.549579 -0.649810 -0.230822 -0.107355 -0.236292 0.703654 -0.078101 0.557206 -0.003860 -0.405219 -0.049403 -0.740024 -0.964364 -1.267523 0.349323 -0.647710 -0.462864 0.145856 0.466152 0.794457 0.661903 -0.606222 -0.309291 0.833485 -0.851450 -0.747572 0.166379 0.411178 0.359442 -0.537799 -0.480113 -0.013772 -0.150198 -0.259935 -0.453113 -0.177925 0.062959 0.131947 -0.255273 -1.398293 0.042639 -0.883004 -0.590865 1.179121 0.835517 -0.312879 0.425263 0.760836 0.444393 -0.845090 -0.190229 -0.338454 0.584217 -0.353988 -0.728239 0.604017 -0.383494 -0.540009 0.451425 -0.436418 -0.315770 -0.619424 0.521443 -0.219167 -0.029436 -0.128144 -0.196006 -0.696670 -0.017778 0.820599 -0.449174 0.409052 -0.449889 0.534299 0.755430 0.305592 0.190595 0.936380 -0.431060 0.295450 0.861238 0.267600 0.516369 -0.724834 -0.400185 0.089107 0.573424 1.105771 -0.260649 0.295439 -0.948308 0.188898 -0.200485 0.717070 -0.703994 -0.352197 0.811420 0.563017 -0.293217 -0.366637 -0.170855 0.923519 -0.669188 0.913378 -0.216236 0.035594 -0.358648 0.947394 -0.325452 1.355936 -0.252772 -0.629458 0.558731 0.210710 0.103121 -0.447438 0.389932 -0.500648 0.529765 0.472245 -0.735838 -0.519874 -0.398597 0.174283 0.471412 -0.496557 0.498522 -0.807435 0.041609 0.146186 0.428638 -0.275131 0.885422 -1.034001 0.178203 0.964170 -0.125996 -0.067022 0.490509 0.658850 -0.484331 -0.395718 -1.075868 -1.176723 0.991628 -0.702284 0.324623 0.148514 -0.247255 -0.848413 0.773825 -0.412812 0.906507 1.253084 0.997508 -0.132027 -0.080164 0.595046 0.761128 -0.181259 0.427361 0.528615 0.204110 -0.066705 -0.710997 0.777858 1.270984 0.259085 0.123808 0.602601 0.236989 0.526453 -0.358039 -0.020128 0.173515 0.042685 -0.376704 -0.202484 0.378373 -0.819436 1.324282 -0.379761 0.177395 0.474955 0.001256 0.171357 0.031278 -0.619264 0.338745 0.882920 0.058638 -0.930652 -0.681024 1.002588 -0.394960 -0.552608 0.399300 0.268060 -0.192124 0.499081 0.666088 0.259272 -0.172830 1.410845 -0.433848 0.149176 0.350555 0.674517 -0.341399 0.654279 1.019999 -0.354284 0.646549 0.360432 0.950596 0.593677 -0.469540 -0.871120 0.432003 0.155514 -0.623619 0.494562 -0.479808 0.895259 0.836045 0.390043 0.624349 0.820145 0.642114 0.396244 0.748360 -0.368799 0.064106 0.588490 0.729075 1.188916 -0.112328 0.412667 -0.010473 0.994456 0.705343 -0.569198 0.580705 -0.975943 0.053332 -0.559417 -0.904366 -0.849883 -0.502620 -0.597441 -0.582703 0.377318 -0.211832 0.002100 0.028462 0.655819 1.330050 -0.322070 0.185430 1.102453 0.539990 0.103171 0.909340 0.208224 -0.188693 0.373465 -0.086623 -0.903734 -0.880584 0.810976 -0.322151 -0.109706 0.989709 -0.966072 0.825193 -0.739938 0.976084 0.268293 -0.112752 0.823406 0.660402 0.851775 -0.715119 -0.136006 0.950897 0.197875 0.959662 0.374179 -0.286001 0.275313 -0.360526 0.201534 -0.121838 0.157951 -0.160078 0.703924 0.865610 -0.275226
0.181387 -0.776022 -0.554727 -0.139416 0.645613 -0.161056 -0.022992 0.324520 0.446002 -0.566173 0.998029 0.088868 0.449627 -0.504633 0.558252 0.805263 -0.927848 0.646724 0.988400 -0.550959 0.585668 0.947897 -0.997561 0.141600 -0.839134 0.040248 0.436855 0.834217 0.497825 -0.374313 -0.985232 0.887093 -0.214893 -0.524492 -0.672885 0.234348 0.964152 0.243164 0.690791 0.124560 -0.360573 -0.076993 0.642885 0.219646 -0.441021 -0.741360 0.185531 0.382189 -0.746632 0.231253 0.133085 0.569906 0.152225 -0.395103 -0.304393 -0.784867 0.467123 0.063138 0.081539 -0.521954 0.896116 -0.321433 0.595952 0.231316 0.687800 -0.847158 0.180172 0.446120 -0.594649 0.511279 0.772589 0.453722 -0.957170 0.253939 0.716987 1.038354 1.014389 0.832516 -0.289894 0.287504 -0.537305 0.699710 -0.507876 0.993254 -0.952047 -0.794900 0.330376 -0.014628 -0.109135 -0.439418 0.490733 0.298896 -0.395484 -0.896747 0.920007 0.865115 -0.469671 0.181953 0.376479 0.024284 -0.846429 -0.719352 0.331028 -0.794751 0.746644 -0.210849 -0.124212 -0.346971 0.751439 -0.575666 -0.393439 -0.380024 0.263015 0.500904 -0.441021 0.924249 -0.577988 -0.142659 -0.456002 -0.856183 0.509764 0.628774 -0.646074 0.467898 -0.187271 0.170981 -0.714339 -0.703124 -0.159446 -0.015261 -0.764930 0.457734 0.601820 0.088898 -0.117177 0.438615 0.067570 0.473004 -0.682862 -0.555390 0.471301 -0.446294 -0.017892 -0.537584 -0.141828 -0.127058 -0.349609 -0.613424 0.864969 0.096492 -0.210481 0.410423 -1.201504 0.032909 -0.228583 -0.914684 -0.492610 -0.480010 -0.450338 0.497908 -0.603984 0.403865 -0.232600 -0.127353 -0.762294 -0.152958 -0.395252 0.273903 -0.249284 -0.745270 -0.119786 0.482181 0.398703 -0.505856 0.783437 0.537104 -0.407096 -0.101512 0.641362 -0.143929 -0.752267 0.284262 -0.117454 -0.584922 -0.585144 0.300572 -0.491043 -0.650534 0.458760 -0.051390 -0.512509 1.039807 0.775729 -0.441195 0.056382 0.482748 0.639220 0.281554 -0.986451 0.266780 0.018400 -0.803425 -1.035949 -0.704426 0.842671 0.315851 0.151462 0.059764 -0.610853 -0.116796 0.026586 -1.214684 0.337176 0.546902 0.334161 0.505899 -0.612318 -0.535499 -0.216161 0.360144 -0.267778 0.102151 -1.058826 0.337644 0.009884 0.109322 0.228951 0.180783 0.040838 0.722186 0.583927 0.590119 0.219282 -0.082591 0.200494 0.564527 -0.095453 -0.886727 -0.365012 0.042873 -1.114269 -1.870931 -0.636716 -0.000294 -0.497994 -0.087554 0.875583 0.140561 -0.476262 -0.038700 -0.797274 0.817360 0.558764 0.869262 -0.064421 -0.830276 0.304845 0.222291 0.358056 0.664996 -0.837065 -0.665400 0.701170 -1.610126 -0.913374 -0.201580 0.232957 0.172851 -0.048646 0.015972 0.177433 -0.576167 -0.227489 -0.914959 -0.766456 -0.467324 -0.247715 0.225967 -0.680173 0.226627 0.665247 -0.729462 -0.392165 -0.850825 0.466043 -0.811764 1.257258 -0.402359 -0.253898 -0.224490 -0.991599 0.591598 0.227379 -0.528210 -1.177045 -0.577501 0.048719 -0.410159 -0.333409 0.732155 -1.047508 0.186351 0.184030 -1.021095 -1.547886 0.004173 -0.153421 0.140762 -0.641848 -0.637190 0.308680 0.267701 0.666215 -0.245004 -0.378609 -0.305164 0.036747 -0.403712 0.059472 0.493205 0.369845 -0.594882 -1.142783 -0.754061 0.406832 -0.448037 -0.936001 0.172562 0.750048 -0.374360 -0.560703 0.433743 0.248339 -1.024067 -0.054773 -0.482543 -0.611843 -0.770768 0.452969 -0.864176 0.315327 0.597453 0.705994 -0.541094 0.253870 -0.385307 -0.263793 -0.663311 0.059117 0.030676 -1.748842 -0.566092 -0.641602 -0.616933 -0.622334 -0.043689 -0.022934 0.269391 0.648661 0.353681 -0.294905 0.508712 -0.044265 -0.600463 0.652381 -0.649328 -0.386766 -0.421128 0.106519 0.082222 -0.928746 -0.399680 0.470917 -0.134519 0.128641 0.535594 0.611400 -0.738860 -0.741913 0.021483 -0.431553 -0.512024 0.349064 0.676378 0.969753 1.335979 0.191619 0.218731 -0.360579 -0.625731 0.738681 0.050050 -0.385432 -0.760802 0.253837 0.970170 -0.787628 -0.560921 0.787355 0.628126 0.196605 0.724223 0.936924 0.457559 -0.950573 -1.070389 -1.521061 -0.844922 0.188831 0.571680 0.973858 0.567595 0.109570 0.022005 1.336424 0.000322 0.616697 0.237892 0.571568 -0.829237 -0.609674 -0.139150 -0.795874 0.253172 0.750245 -0.426798 -1.240037 0.734255 -0.633132 0.451457 -0.741555 -1.141348 -1.145462 -2.106462 0.653957 1.265837 1.987430 1.298353 0.004218 0.013574 0.517544 0.206105 -0.837935 -0.641343 -0.039845 -0.792286 -0.122701 -0.095056 0.376580 0.583504 -0.109551 0.360904 0.378047 -0.790782 -1.435977 0.607185 0.334322 0.642972 0.139392 -0.851970 -1.055992 -0.739826 1.800384 0.748468 1.556365 0.979412 0.371737 0.666063 0.871216 0.466367 -0.900457 -0.930821 0.085397 -0.453907 0.428609 0.620291 -0.715541 0.172127 0.879941 -0.388170 -0.583911 -0.639749 -1.062565 0.458930 -0.353395 -1.123987 -1.373586 -1.453162 0.930477 2.156058 1.848613 1.174628 0.714141 0.325480 0.554779 0.528306 -0.780276 0.117528 -0.697495 -0.797354 0.368918 1.137482 1.013629 -0.678585 -0.816418 -0.274203 0.498300 -0.023418 0.579212 0.418046 -0.837010 0.766824 -0.642556 -0.623402 -1.615616 0.074002 0.756081 1.855370 1.120327 0.943360 0.881105 0.084280 0.081827 -0.122308 -1.114733 1.135950 -0.749997 0.259971 -0.890555 -0.673106 0.027435 -0.737973 0.706849 -0.001984 0.513911 0.254932 0.605111 0.625298 0.435208 0.041048 -1.117783 -1.107035 0.335812 -0.198183 0.361808 1.217456 -0.356428 0.151787 0.472357 0.339576 -0.266681 0.549011 0.127706 -0.185718 -1.064730 -0.908809 0.241887 -0.045285 -0.566241 0.113988 0.117770 -0.260356 -0.675543 0.180713 -0.700644 -0.927480 -0.452073 -0.911939 -0.902915 0.233021 -0.532705 -0.555503 -0.315799 0.267562 -0.307544 -0.344179 -0.084240 1.693825 0.181023 -0.173258 0.275472 0.303649 -0.283840 -0.277510 -0.591770 0.817292 -0.757225 0.265346 0.382004 -0.997904 -0.827173 0.112718 0.847332 0.801491 -0.447012 0.016145 0.334189 -0.752386 0.241496 -0.573119 -0.260263 -0.331695 0.503114 0.480815 -0.124634 0.143149 -0.053436 -0.523565 0.664234 0.213564 -0.046001 0.775655 -0.074381 0.663541 0.842917 -0.033460 0.440886 0.682158 0.609616 -0.260323 -0.624645 0.016805 -0.344189 -0.044014 -0.261515 -0.538968 -0.085699 -0.154125 0.500544 -0.296526 0.277446 0.153924 0.120341 -0.313889 0.406869 0.846781 0.648854 0.443386 0.344953 -0.376849 0.466666 -0.774212 0.449481 0.116609 -0.697100 0.154572 0.763169 -0.615598 -0.847328 0.109907 0.812476 -0.406890 0.123612 -0.117145 0.045600 -0.074114 -0.294990 -0.829278 0.150339 -0.179027 0.091036 0.663036 -0.030965 0.696383 1.839884 1.329176 0.898952 0.454220 0.922542 -0.740829 -0.206618 -0.080594 -0.141456 0.874058 0.286374 -0.049478 0.751286 -0.988810 -0.667460 0.012414 -1.247839 -1.418017 -0.518005 -0.310855 0.972723 -0.329134 0.108061 0.666048 -0.214676 0.058975 -0.595320 0.178935 0.129718 -0.494466 0.419617 0.808666 -0.583532 0.810994 0.659105 -0.450103 0.860177 -0.535671 -0.309526 -0.119047 0.145768 -0.169355 -0.424889 -0.276165 -0.398189 0.058652 -0.891243 0.019506 -0.161790 -0.163805 -0.349793 -0.152289 0.193215 -0.329637 0.073283 0.287345 0.532281 0.784757 -0.569928 -0.423382 -0.826390 -0.392578 0.057344 -0.040167 0.976624 -0.333902 0.208148 0.998344 -0.078855 0.935843 -0.301952 -0.434926 -0.210581 -0.152528 -0.316995 -1.236931 -0.900679 -0.603910 -0.345542 -0.017341 -0.937766 -0.101199 0.321738 0.794079 -0.720682 0.429541 0.607503 0.379337 -0.172477 0.281136 -0.932597 -0.351964 0.585812 0.594959 0.654554 -0.024113 -0.134232 -0.243833 -0.666373 0.059051 0.539753 -0.392882 -0.166243 -0.949564 -0.093812 -0.463556 0.052904 0.222904 -0.903538 0.309687 0.876773 0.453698 0.952849 0.344049 -0.524828 0.646338 0.280865 -0.641113 0.141350 0.520024 0.687933
