epochs 137
layer
-2.832333641982 -0.096758614966 -0.031191732801 -0.189572871251 0.903940841386 -0.967032763196 -0.373266747616 0.980233840282 0.768084773949 -0.960115280348 -0.794409518916 -0.811838714816 -0.468405347608 -0.617686677124 -0.228528728671 0.578683217909 -0.823788110078 -0.244309967559 -0.216663883714 -0.395265297995 -0.064935056616 0.981327427935 0.494496886309 -0.832199234559 0.230724029795 -0.609537683703 -0.238331469829 0.894874266504 -0.529243859050 -0.188481571683 0.943406642492 -0.912154983622 -0.429510812716 -0.459071851402 -0.074299553088 -0.150138278762 0.510254490255 -0.513850696175 0.695301861001 0.137183676666 0.369662893342 -1.045571698653 -0.741638688051 0.122932823399 -0.483562058723 -0.568425253670 -0.747014244005 -0.852408058407 0.037084385445 -0.606373898268 -0.433492885999 0.848128957212 -0.640027255169 0.281121839292 -0.798899538006 -0.127657989993 0.474221751531 0.656216110327 -0.221899337759 -0.776251367211 0.099604829370 0.581585726326 0.996051908245 0.670810163356 0.011202374656 -0.272852917938 -1.131100201043 -1.087806117167 -0.690190155223 -0.734415910051 -1.058356963979 0.397610083364 -0.569091873140 -0.964908857783 -0.644854244950 -0.041440059576 0.189897677923 0.042013764462 -0.654731738581 -0.211754719038 -0.961907281680 0.222158473836 0.074276351476 -0.411113835457 0.146567208406 -0.196601822894 0.596188086708 -0.286786580997 -0.411038512035 -0.743990078473 0.701185834687 -0.392798024607 0.141819026135 -0.314421495559 -0.522542477574 -0.702419844188 -1.426591717196 -1.982849959370 -0.663142192406 -1.939653206364 -0.708626206118 -1.343076943014 -2.869420537530 -0.184537529212 -1.964383655339 -2.041010589040 -0.300836192166 0.392363576268 -0.826727732508 -0.237549456003 0.554814865840 0.012750929288 -0.933881064788 -0.586073951498 0.681357686608 0.698750147550 0.928466241789 -0.599839588973 0.550473719493 -0.347538713009 -0.262634535887 -1.937984048557 -0.331321329762 -1.661846208905 -1.527163897367 -0.942825322603 -0.531060768101 1.369008478223 0.677660936304 1.372713927521 -0.212349941336 -1.171122586951 -0.327259550148 -1.519169036738 -1.206244570552 -2.964946359166 -1.672398169060 -0.177845455731 -0.747550731527 0.205522614967 -0.276776717003 0.035616210347 -0.572573882474 0.811750282951 0.633027914817 -0.788679329117 0.276350724978 0.234130817520 -0.722449155463 -0.866941632906 0.774451595965 -0.701437029228 2.489032772804 1.698850751328 -0.515278392840 1.005888987236 0.827451826596 1.596145482098 2.487214223986 0.084198540253 -0.443352505428 -1.301054458784 -1.040311449549 -0.879166411256 -1.771596528353 0.567864464612 0.086449273276 0.386308012697 -0.420757473836 0.506778187518 0.110026652627 -0.370976028265 -1.061341299654 -1.601813675390 -1.155509671794 -0.810842320880 0.831935027224 -0.840534201779 0.057579186235 0.087816451148 0.972346595008 1.288940734054 1.688785577843 -0.968948545312 0.184813299948 0.186816484808 0.743119574094 0.090615005668 0.281080925583 -1.090051141095 -1.142421986395 0.036299985514 0.757664156029 -0.249533161842 -0.397739038226 0.119060470665 -0.343864750845 -0.098211318298 -0.668690465932 -0.382686296008 0.214274632123 -0.456610485663 -0.917700877856 -1.037781624006 0.420056372884 2.019514238032 -0.305503759678 -0.025620383510 1.234015540879 0.277289505453 0.506423115246 -2.741923519119 -0.338051995487 -0.341591191214 -1.816735532031 -1.074927040080 -1.225243837347 -1.329300530107 -1.087351060094 -0.926830429134 -0.199205484962 -1.015610857720 -0.087351848992 -0.000873274736 0.892518196526 0.686225657411 -0.474216796225 0.143970563773 0.365220158487 -1.539379703336 0.373120010618 0.482133632313 0.890776380213 0.322711097263 0.898292068900 2.378681915412 0.575374537952 0.284088556418 -1.417776064715 -1.435040966508 -0.560560359024 -0.360418835277 -1.582584999877 -0.954818433386 -0.650742218063 -0.208126607480 -0.557268823395 -0.494708365290 0.715075496157 0.885938031103 0.747847288941 0.213166074629 0.879109151391 -0.796469410930 0.978715728101 0.388460884314 -1.153735100993 -1.161887677512 0.803947306741 -0.006546925502 -0.065615756549 0.254098061284 0.464004752712 2.064577282882 0.821337890992 0.083000064226 -1.469558099659 -1.319210970471 -3.030536647185 -1.839878755619 0.367500789237 0.758810807810 -0.974645827115 -1.094113003549 -0.097660606871 -0.364089339841 -0.369625864802 0.961628398728 1.533023300751 0.889534149618 0.470770639158 -0.901316539970 0.959492107922 0.694785574006 -0.947208302331 -0.939301659268 0.317572822452 0.416791472422 1.494168649611 0.116946607977 0.858066873000 1.625088946935 0.999898203541 -0.028909645106 -1.076100760247 -1.851995892057 -2.361423836348 -1.037542870238 -0.616718174141 2.464221470241 0.832299050798 0.472334569147 -0.431926263001 0.204891591774 1.902796664511 1.342616404441 1.063643723097 -0.529843536476 0.926782968228 -0.613334190327 -0.559283334782 0.253411855034 -0.318608672681 -0.315645707334 0.499256014049 0.395564052905 0.197876568287 -0.289775380227 1.806868226548 0.089864565266 0.203866517273 -1.026766570661 -1.808680274815 -1.339068915020 -2.336613934638 -3.190827361035 -0.341931099800 -0.744658477916 1.498159525590 1.479920247410 -0.601272617863 1.418747961384 0.631109628072 0.715026146572 1.004912856841 -0.104320813937 -0.422220084251 -0.505412320865 -0.085384331744 0.782324766045 0.335365713407 -0.511896140444 1.358451642230 0.372981961557 -0.469105981007 -1.569305327233 -0.059935098868 -0.794111659490 -2.223725816652 -1.878670008252 -2.427289733275 -1.408928669305 -2.266297761192 -2.981447834670 0.015971467605 -0.189350983540 1.323449178640 2.047173819152 0.770158171983 0.062733641973 0.249450968612 0.340430718688 0.836407823625 0.635740802077 0.402764471278 0.538280424522 0.404371454691 0.625584477097 0.151021001221 0.141770681860 -1.235817111965 -0.190896683218 -1.580303804427 -1.558524525691 -1.585641824282 -1.780382296010 -1.012022759442 -0.221826495777 0.068629183139 -1.461764749510 -0.167897111373 -0.781914621585 -1.584355037949 -0.042241323981 -0.247266673716 1.021895366892 -0.198772189460 -0.100964697478 -1.017747173690 -1.287774182208 0.697728657873 1.138632492884 -0.862639140615 -0.939170869308 -0.568909447106 -0.920705941146 -0.692495023062 -0.675509985251 -0.825970339278 -0.806995164568 -1.392064728325 -1.353659773871 -3.744204766531 -1.521021837765 0.702130262328 -1.345011250078 -0.415964650271 -0.209567360123 0.117541405231 -0.141215872578 0.434867092132 -0.445541377780 -0.330479486361 -1.525525091672 -2.119440643553 -2.096028443162 -1.742908478204 -0.596062866451 -0.232224034187 -0.683430115519 -0.658300437259 0.219739389089 0.848736340315 -0.674000587430 0.595200704408 -1.656702426276 -1.195654564228 -1.768377337285 -2.842685232405 -0.991665499100 -0.499140421400 -1.282601845941 0.134922774362 0.718301879932 0.111315231230 0.019731575531 0.164692485288 -1.852356983824 -0.647782292217 -0.269084052441 -2.681659214408 -2.080087479010 -2.787875550111 -1.889924184350 -2.999951990856 -1.221094400408 0.342510414847 -1.057702465626 -0.500707708258 -0.056118002325 0.380819633758 -1.076369604048 -1.071708094843 -1.726036246245 -2.282193402120 -2.971819705384 -2.443642627602 -0.182131451163 -0.393247612242 -0.168743269029 -0.987725928953 0.525368677141 -0.205085803420 -1.115726268926 -0.897952711144 -0.116428471598 -0.819276367312 -1.887656819624 -2.636950881063 -4.253376207306 -2.560300014493 -2.092103251690 -1.026840018954 -1.551065440204 0.111160465093 -0.735166446872 -0.565497133756 -0.083604763011 0.382123579782 0.206680710094 -0.425395188731 -1.795304619987 -2.696447596412 -2.174597538862 -1.634426805993 -0.419681283724 -0.285914734326 -1.156490932805 -0.191262667583 0.572267492901 -0.479896766064 -2.221847289650 -2.482494552638 -0.810143374715 -2.122213464496 -4.252731138451 -3.865491998283 -2.000849432706 -2.528083308294 -0.941804070517 0.077418018776 1.086224188357 0.831415962204 0.147210804257 -0.958680531766 -0.333848354393 0.542214123304 -0.750787680909 -1.473575620245 -1.864395754671 -2.267520095122 -1.765093415178 -0.014534989545 -0.541535691241 0.701034065624 0.086964167291 -0.168864263443 1.383958706888 0.569725493820 -1.714203582901 -3.310226467273 -3.703230877727 -2.450155607442 -3.846505895936 -2.501870097923 -2.023494093582 -1.910177522268 -0.997153220519 0.387288286628 -0.054995768366 0.064116591459 0.654924561602 -0.706629981194 -0.952505151750 0.587613373296 -0.671606730470 -0.288814787313 -2.130038144024 -2.375798013033 -0.415874301970 -0.081950765375 -0.982262726813 -0.184844637310 -1.276595312230 -1.926563487844 -0.252333338910 -0.948664867525 -2.389588648450 -2.242884911913 -4.052282173048 -3.451250312202 -3.076034861393 -2.421085589188 -0.264974731904 -2.048640382359 0.772949846888 0.743302327277 0.548116880154 -0.574033984091 0.647785278839 -0.800544811770 0.847415406521 -0.017548362884 -0.586682077644 -1.493677784960 -2.767057792360 -2.147815867808 -1.707258790811 0.231246639963 -1.139586270309 -1.998714648425 -0.666835992881 -1.223814392643 -1.522525560936 -1.549479690901 -2.597719961935 -2.195746884150 -2.307875367243 -3.437542728326 -1.423355101732 -0.703950012018 -0.376357131968 1.803645085138 1.055093999287 1.621761686059 0.675544272336 -0.547328154833 0.488950337247 -0.169232947567 -0.744837088963 0.624141628016 -0.149536018143 -0.013191458523 -0.024547721845 -0.284261467764 -0.280279386292 -0.891589269579 -1.073927866922 -0.521122384018 -1.072890079649 -0.252042985367 -2.117410240562 -1.054453049841 0.346519760236 0.621610145750 -0.049541664421 0.134150899440 -0.226630541227 -0.405644952418 1.346465485273 1.064370680682 0.610628888821 0.035529197376 -0.560675160985 0.151048403329 0.898727189699 -0.342107957653 0.478321623011 0.654409352026 0.913733984912 -0.771450217201 -1.351415071661 0.401430014594 0.093930283044 -0.644013644483 -0.861302723434 0.523766016989 -0.447580584647 -0.338396835494 -0.418149945192 1.162380496067 0.513736453788 -1.669345973723 -0.498168517828 -0.912652314830 -0.407006837070 -0.757252318363 -0.004342845752 0.719583072297 1.582350370769 -0.046916949513 0.145049182250 -0.675924624612 -0.591900683327 0.437262726627 -0.949080895364 -0.293927651493 -0.455219712906 -0.765231050824 -1.437780345915 -1.896748333472 -1.386779629667 -1.111772181476 0.581674170676 0.761341753128 -1.057424311224 -0.203977263949 0.508806366255 0.301527557085 -1.474649346579 -1.172126228729 1.382635171395 -0.160956064791 0.516696304566 -0.732939111063 0.473864346637 1.487211921036 1.487131154246 1.128114607865 0.409428492591 -0.577791305270 0.894100395941 -0.524241663053 -0.240047922002 -0.032082520598 -0.191429925190 -0.205119261438 -0.980521577480 -2.518693652779 -3.713432441808 -2.101447039586 -1.249013971825 -0.888301644936 -1.894325499214 0.269035510934 -1.041545003141 -1.131775643583 -0.994036134666 0.031838121569 0.498478696792 -0.578204678452 1.589135501572 1.828098436050 0.149027630947 0.233720212241 0.514713205103 0.877879114595 0.209495185908 -0.734874166480 0.642251357153 -0.812313274274 0.427797114003 0.169546071142 -0.062086264415 -1.008167954341 -0.323461408670 0.002788999370 -0.988862032653 -1.700842535205 -0.955586394745 -1.413847770656 -0.942564865080 -2.232343382282 -1.455662882348 -0.611520032645 0.021630026018 1.367395171631 1.191162715623 1.080945427703 -0.041793100481 0.779928249502 -0.388725340846 0.668701452230 -0.905255002015 -0.287811941748 0.235387842762 -0.466400059537 -0.761704131514 -0.547844371347 -0.816280919687 -0.002405497472 -0.035929619093 0.208397650101 0.430594892183 -0.234792959281 0.552814512996 0.174587498254 -1.024773699556 -0.511963040904 -1.108815108282 0.127837496981 0.043181752710 0.259648816019 0.394418058657 0.156572513686 -0.753792649194 -0.005974384623 -0.031250530591 0.715359304602 0.252097576212 0.006555164730 0.637581901515 -0.668268562335 0.041479965653 -0.623218748824 -0.125101291609 -0.472423376224 -0.037837697790 -0.166096987622 -0.441637186192 0.036990701738 -0.105942407183 -0.272890049079 0.956106025960 -0.422890115383 0.523440276451 -0.860581474076 -0.543207319123 -0.935821647271 0.243095510762 -0.278360232859 0.267386817617 -0.104118862724 -0.891932224571 -0.811461825755 0.314572760461 -0.203244932768 0.394411262232 0.207985991054 0.543061545518 0.667359215263 0.281582779320 0.255364100423 0.082599379537 -0.684714600499
-4.179867691294 -0.847113349696 -0.572636011761 0.255613270233 0.812615457472 -0.027771465873 0.090004626848 0.408028946338 0.943729379701 0.364337056606 0.486846649447 0.258172870163 -0.869168625395 0.286203645559 -0.259639592734 -0.885517446823 -0.532492905691 0.515428977450 -0.717850078065 -0.873974285059 0.896096749895 -0.646726271110 -0.974554324083 0.054286055550 0.199922117023 -0.778590455065 -0.908032197811 -0.290589183735 0.164750847632 0.847453708269 -0.078729644288 0.942289091117 -0.869461473754 -0.233733178994 0.409755866659 -0.887575279495 -0.429279159150 0.231447987943 -0.732223239435 0.780587793717 -0.904297653274 0.584877434220 -0.680914379231 -0.415117847861 -0.335271138498 -0.215913753408 0.930389782135 -0.909152735013 -0.166307420091 0.908436919613 0.158605420376 0.631207152943 -0.953683967696 0.079803180169 0.764154251668 -0.072553941563 -0.028241045359 -0.638288020443 0.977889016451 0.029648540526 -0.648760717993 -0.677350211913 -0.265302336483 0.178248219228 -1.046513033301 0.056712337441 -0.394222255070 0.785789803973 -0.670579585983 0.961859167487 -0.244178688796 -0.439123864172 0.305669267733 -0.394707270089 -0.794563448631 -0.363861539278 -0.481095270063 0.145932422509 0.580058552514 0.425080861798 -0.915692244337 -0.212368054487 0.042437085133 0.358252365370 0.524615155112 -0.039397448702 0.479509955707 -0.492231896927 0.267025310234 0.389604136598 -0.086863443889 -1.166824169754 -1.272851330539 -0.635985774754 -0.453644632404 -0.280578896940 0.611779055982 0.060624648727 0.675173076552 0.651991766657 -0.982029585637 -0.394238276505 -0.250781244539 -0.759942901442 0.755324564584 1.005663331385 -0.844621649421 0.032942762285 1.195110058364 0.811353192548 0.932670670397 0.745850558527 -0.646187577619 -0.816690374989 -0.824721294571 0.439932510546 0.653324868849 -0.566808746133 -0.612583589040 -1.317412917328 -0.533430845886 0.015034640718 0.352102174048 0.260981954709 0.820679933824 -0.504192796302 -0.424075921758 -1.605909373979 -1.528208402523 -1.506819661648 -0.368969526607 -0.574517121614 -0.366231433791 1.538936992317 0.139257826910 1.213415853698 -0.313071233214 -0.822164632157 0.586694586416 0.827829645623 -0.238109628033 -0.128520401905 0.933112134294 0.336839119038 -0.885503932394 -0.193953488698 -2.309774182568 0.146262318921 0.248339133552 1.138116406499 0.274712261626 0.629035957450 0.762477969846 -0.529716334298 0.002847895277 -0.166755066459 -0.465612984998 0.635510922792 1.136141393438 1.526901792802 1.017494167615 0.104749953549 -0.868395103423 0.421871250298 0.491827575631 0.099064309619 0.009435144341 -1.063660780335 -0.628706438930 -0.824108654274 -0.969542271982 0.473309583995 -0.703674005741 -0.238831491797 0.127027753744 -0.382192883294 0.896048166208 0.979695739207 -0.000751688070 0.796192967736 -0.849870103118 -2.014894579329 -0.987871099087 0.148071995081 0.216811361592 0.082437796715 -0.074144822764 -0.886784547790 0.159738451402 -0.842823960884 -1.174535859900 -1.261267182528 -1.392040661727 -0.786480903399 -0.948723371267 -0.830582175025 0.928257183348 0.001538843352 -0.432256727877 -0.125933142664 0.339675276202 -0.622634659671 -0.496232484643 0.287432609252 0.825741059504 -1.028978393003 0.893425404933 1.099375743472 0.582322491995 -1.365084964517 0.333320201068 -0.386113672029 -1.186127888488 -1.316694505259 1.188628202716 -0.133646174684 0.591797472579 -0.144782703844 -1.521055268270 -2.274584795097 -1.052670810400 -0.256478030867 -0.649185940199 -0.607090613118 0.638726969824 0.826532304150 0.175460839470 -0.634672234533 0.560101523086 0.005641548202 -1.988984394011 -1.568180557388 0.275747152952 0.452745925341 -0.706125320671 0.997345621832 -0.179687702874 -1.211429692533 -2.524121714314 1.180601059092 0.134833556048 1.701303405710 1.287328186792 -0.320098515348 -0.548944973925 0.486181243605 -0.839530700181 0.114202982057 -1.898649975933 -1.899922446906 -0.480566347495 0.454354702382 0.865451656535 0.957257084049 -0.623859164790 0.247607641772 -0.766449373085 -0.551344018345 -1.272230491155 -0.987872196043 0.865956968967 0.687890308097 0.925160695248 0.533224078086 -1.976493591343 -2.084382425248 -1.008019237853 -3.090962184767 0.497777196726 2.148353196318 1.818641758472 1.880576296266 0.467374003143 -0.970290565991 -0.378307494206 -0.448954338201 -0.031479344317 -1.181961510749 -1.175268825243 0.569501176660 -0.508834497630 0.934823934005 0.271831282788 -0.302235285433 0.153118264975 -1.056366602495 -1.442320211385 -0.078332646662 -0.841654464539 -0.315296624867 0.363866833195 -0.712138417933 -1.548735838683 -0.654861918819 -3.805453964230 -4.135911103351 -1.264711879180 1.399003303918 2.604624471063 1.452230241203 -0.828952402824 -0.675646889112 -0.646467783075 0.527451636956 -1.257154217137 0.336763757907 -0.342309069696 -0.620971253479 0.928001408880 0.956008064949 -0.273866166533 1.003299413307 0.609493218326 0.144683845257 0.100899140857 -0.706753464882 -0.018736344895 0.561600230652 -2.403731422900 -1.388994719180 -1.181428510656 -2.763980656517 -4.277900385838 -5.731158278876 -3.952777071498 -2.150643730325 0.687775703215 -1.583837278376 -1.625590801930 -0.538546920487 -0.467448201000 -1.500077187815 -1.971069232676 -1.148288410168 -1.457211269191 -0.895065022122 -0.505340604980 -0.991146292467 0.939444332140 0.419127719832 0.624662438820 -1.035526571098 0.392983401380 -0.194265525167 -1.292645345290 0.122344723767 -2.374944273737 -0.931924844021 -1.803145352805 -1.413731866043 -4.113921473001 -6.635409429448 -5.216486579944 -3.848064382952 -2.913045398362 -2.555225042372 -1.487844134136 -1.652797983031 -1.700697051661 -0.110118307215 0.066034824938 -0.029124891705 -2.251900267337 -0.105671956569 -0.926736809864 0.689178258575 0.783397960453 -0.685219871327 0.706028333865 -0.272262682468 -0.008762456358 0.332596582738 -1.697578890965 -1.296788731812 -0.723951790582 -0.857481549451 -1.730508676368 -2.529237971580 -3.904310802036 -3.707738601662 -5.034048739950 -5.764284271322 -3.031425798579 -2.984916014028 -3.189365161195 -2.005141500225 -1.181697407776 0.282434123919 0.403283026530 1.165152134839 -0.798881305454 -0.832918700543 -0.064365049383 -0.946853982621 -0.479085768097 0.835071699161 -1.267764749554 0.656718644789 1.755467143324 -1.167075178426 -1.943991199582 -0.932043908518 0.061676321646 1.277622341735 -0.430690963270 -0.332281275720 -1.906655500788 -4.303655012484 -3.880097992696 -4.343824642328 -3.692829420900 -3.029583638598 -2.899745237272 -2.213477522697 0.519830519282 0.613479824286 1.485439195859 -0.255002425676 0.238262200733 -0.598359594519 -0.931341516561 -0.891443233457 0.938715680179 -0.736490975521 0.228858948165 0.273451806807 1.679019692225 -1.811826719508 -0.542158451220 -0.087163989856 -0.485676252854 1.534727407154 0.221401997392 -0.697751147652 -3.966131539640 -2.897594424977 -4.247217294160 -2.518230662090 -3.523282713165 -2.645007045394 -1.956335437693 -1.590327515670 0.692695012080 0.595027934126 0.197472334269 0.543338880764 0.331257055696 -0.291625809359 -0.842612305921 -0.585377120915 -0.331860262519 -1.023833294972 -0.707616190673 -0.496645972632 1.409037992371 -1.055368270867 -2.152815977688 -0.823637330239 0.882405672579 0.678969763079 -0.980677863332 -1.900648198160 -3.502593433504 -4.046470069987 -3.015231419955 -2.615202588059 -2.747377022554 -1.948959830309 -0.837788630467 0.350204240302 1.158065832317 0.875324147926 1.120656445099 -0.299773487512 0.312771949813 -0.331751915287 -0.127185469494 0.785337343698 0.168354127690 -1.033238896119 -1.262850024379 0.410044729670 1.953573602574 0.462487157599 -1.683400156793 -0.090401251085 0.109869620562 1.132707395724 -0.242566548726 -1.544554000687 -3.641065589729 -3.534823527756 -3.872556685804 -3.182485993833 -2.549416443837 -1.739627617396 -0.967712204995 0.355634794508 0.949273631235 0.003647720010 -0.468261217592 -0.776582821651 0.179990426979 0.406065570998 -0.343378183101 -0.742673823812 -0.578075681307 -0.207081389954 -0.608531148440 -1.054169640229 0.662164563912 -1.959831990939 -1.629485560411 -0.873509292993 0.355937120638 0.148598160040 -1.277053059399 -2.642679481956 -5.082157145833 -4.896710931398 -2.620560375236 -1.709930319591 -2.038323771041 -1.072173000291 -0.244843025465 -1.087938892050 0.211215378103 0.536433374861 0.121678877779 0.775309711177 -0.180018355793 0.197954585535 0.169228561078 -0.546920340133 0.232502785533 -0.253792506815 -0.601451262507 -1.253779770367 -2.130426221775 -0.920393732579 0.984038838247 -1.340311942609 -0.341758385514 0.661135454323 0.916338072696 -1.510794268532 -1.070718819437 -1.789307641750 -1.449437740952 1.806140536330 0.746043661909 -0.198168200806 -1.236172166448 0.968249127719 -1.455784820609 -0.520872267828 0.162863044986 1.159640977067 -0.925564316541 -0.871232391424 0.852677757022 0.595456170504 0.855428918483 -0.274390601410 -0.530207078424 -0.638882327370 -0.561369674909 -1.495478432816 -1.306892861555 -1.605861007878 1.439116710800 -0.253366156440 0.228527522276 1.632835119613 1.327509789141 0.506993567299 1.350062784800 1.843088926054 1.867446788227 0.179238794966 -0.903671143362 -1.142849732122 -1.971119393143 -0.653929101662 0.564083253577 -0.378741304196 -0.503361433973 0.529270033534 -0.519300721032 0.225590681168 0.740889938745 0.739330781111 0.170058610009 -0.387589018981 -0.281087407906 -1.268285753222 -2.251161533386 -1.035561088893 -0.456995440741 1.258112773007 2.272407568550 1.386346590393 0.953518801136 0.706972661495 -0.949109699609 -0.491054424553 -0.903304572502 0.047260375714 -0.304565240010 -1.664097625858 0.831988018174 -0.127706815577 0.460622838564 0.826831381734 -0.813450860578 -0.332431351173 -0.364990394728 0.194575514017 -0.588892470669 0.393748160291 -0.656651068648 -1.573158684126 -0.649787016422 -0.107471838213 -0.671263912075 -1.625298440479 -0.692474113847 0.015598864881 -0.450476724378 0.325883611248 2.069225889398 1.979592210958 1.139864079647 1.869446551277 1.591919518158 1.187104721419 1.048788459507 0.371734035365 -0.664761066325 -0.131836352538 -0.210975821551 -0.538816122656 0.038993003679 -0.135024924598 0.870913322826 0.921687223204 -0.439174586914 -0.201797120238 -0.896887563780 0.671811549507 0.392818350767 0.980517582835 0.168287883524 0.244492761890 -0.156826296292 0.450134827464 0.309356471683 0.619222916045 -0.047888789177 -0.574125675237 -0.461933527480 0.442293525004 0.926266861759 0.051605644865 -0.645666052004 0.144190216600 1.474826938105 0.803472233662 0.206067567780 -0.082519553114 -0.450689185747 -0.318590643725 0.755858247575 -0.101818732019 0.539366303026 0.172957581468 -0.402060782906 0.371013345505 1.370215431950 1.639613631885 1.468922870995 0.487957288113 -0.818987697987 -0.574469023923 -0.138603721516 -0.486544174877 -0.934256178438 -0.874844893707 -1.988922526049 -0.613702855700 -0.079522512750 -0.519604632486 -1.793956662504 -0.951979302149 -0.117187592827 -0.514317143260 -0.014839048976 -0.418575264209 0.360882170698 -0.398922797305 0.717363598513 -0.501522078841 -0.888819069246 -0.455355223797 0.852868228496 0.334604064800 -0.237787111703 0.621142234909 -0.110908064296 -0.829209693941 0.741678733500 -0.569089809976 -0.804903009988 -0.829449063570 -0.382824137871 -2.611261508608 -2.458624560506 -0.569378139345 -2.081103004114 -0.720870036009 -1.155529557400 -1.306237267124 -1.621810278422 -0.842937857425 0.267072554757 -0.518689454219 -0.038045798356 -0.955168954958 0.733996804575 0.222445543289 -0.569000383511 0.129363748344 -0.933092832601 -0.532121245457 0.153552586634 -0.864240291157 0.101583517115 -0.789005333344 -0.548349573927 -0.213459780188 0.533995269633 0.540829975178 0.089417084542 -0.454140991159 0.933790170448 -0.343172689153 -0.151290334578 -0.006244973005 -0.300166289726 -1.049002944558 -0.298106741338 0.375094164181 -0.892928175438 -0.393706230830 -0.847472735323 -0.212304797638 0.968512819063 0.292402264691 -0.075652944587 -0.079225620699 -0.386777306757 -0.293730154481 0.943584535742 -0.884397100607 -0.428353588139 -0.225082374044 -0.062019882841 0.218108842487 0.988659228468 -0.934648005250 -0.457113502475 0.847968771251 0.742228076648 0.737523992400 -0.448118478795 -0.718696492243 0.686938197972 -0.382797832175 -0.309681113976 -0.599339767123 0.136072547018 -0.815244639919 -0.412715311627 0.345622439330 0.460377519992
-2.646843384618 -0.754209151540 0.089213984156 -0.655125236594 0.220548552457 0.971747935155 0.199549919612 0.156497134316 0.750667314197 0.684212804497 0.122408046928 -0.936299771452 0.495925346059 -0.114930259222 0.902694692890 -0.435934385584 -0.164441275407 0.400756123452 0.455347464788 -0.983836247939 0.091916391390 0.612511134806 -0.141023446987 0.849327858423 -0.465727817220 -0.684151054525 0.030712149014 -0.671500035211 0.102939233814 0.072124374483 0.106540199165 -0.411161142168 0.616976525555 -0.076347954566 -0.457029887740 -0.013041506790 0.298812509876 0.235975441790 -0.991486423305 -0.595354397141 0.069444024113 -0.874800570833 -0.758642334900 -0.882567193963 0.522805568875 -0.214285720580 0.661782576441 -0.465635374798 0.483804521713 0.022252811248 0.685375993847 0.383848546094 -0.944991519114 0.237682872296 0.569461881300 0.381027723338 -0.395862717372 -0.962194629793 0.547727459604 0.861765430477 0.259044120891 0.832562980495 0.196054815540 -0.613568195794 -0.623311286175 -0.550494098392 0.210276452040 -0.436689227130 -2.178899211922 -2.749734250755 -2.473151998782 -0.448716144031 -1.055260887999 -1.084180635925 0.508040568759 -0.541968444610 -0.607603631044 -0.711164055889 -1.220736265320 -0.020227953934 -0.017373906014 -0.362912093875 -0.834053843404 0.710865135067 0.624935486062 -0.977790439302 -0.714522943474 -0.708264444421 -0.795913959613 -0.906880067854 0.167737951460 -1.083337473125 -1.625012558877 -2.258130756373 -2.138877570427 -2.509320887513 -2.834403741029 -3.875208592529 -4.679731069961 -4.014386365058 -2.672396473545 -3.455089924671 -2.882070062134 -1.605514810859 -2.153625458542 -0.638345225937 -0.879189251596 -0.002508935436 -0.965596953104 -0.572266890397 -0.359935404027 -0.224520753532 -0.101864302521 0.178107725795 0.913922219341 -0.908430420606 0.895962206298 0.558345213860 0.364876405823 -1.876733261347 -1.151851255910 -2.113072841022 -2.477996523374 -3.757721677954 -2.434335975746 -4.365865568099 -3.977732899891 -3.742626877918 -2.747817000299 -2.169493609751 -2.926387006078 -3.015327810467 -2.219996793775 -0.788246575020 -1.332648070204 0.478549124025 -0.282575906563 -0.205848486983 0.200656180071 -1.219157694740 -0.071282565529 -0.133204453409 0.365132443940 0.885469080830 -0.218060421357 0.862301523455 -1.539631829157 -1.373815997619 -0.516825930694 -0.941148156083 0.522449515089 -0.618652538609 -1.429724506092 -0.934672497350 -3.423439956911 -2.093803499631 -2.531087188153 -0.043148161470 2.139407621772 -1.841271298115 -1.174892899219 -2.543326832249 -2.330731251762 0.614675950237 2.123789196981 -0.362734270983 -0.855765219811 -0.436849958232 0.403324924607 -0.709199236990 -0.288510809133 0.373730747180 -0.304324293893 -0.270352781251 3.228088052204 1.177186115310 0.960865925898 -0.187917283590 0.642615517348 -1.494000684403 -2.699187087210 -3.627889391382 -2.345729345380 -7.262391201109 -6.279542712121 -4.626271743868 -3.606954565956 -4.171959425427 -0.521954146240 -1.042644333508 -0.946414281144 3.028598582132 4.583589320685 -1.304294282929 0.118540441656 -0.147521808487 -0.195358067093 -0.924933726849 -0.506006508758 0.411192866476 0.262293566406 0.531353657522 2.981860821213 1.152526694353 1.337823537581 0.900967924306 -1.250393239855 -2.027466482754 -4.053912784380 -6.071571617699 -5.662443461507 -7.448945205980 -7.918073602433 -5.497892303616 -3.736228432593 -4.775459549090 -1.958632748255 -3.754563719101 -2.863416605814 1.644282064031 2.394259888345 -0.255454272123 1.120243787346 0.812374007043 0.707991391937 0.586014872171 -0.272963128176 0.008252695697 -1.105338138256 -0.895421170604 1.279015388838 -0.829703689640 -0.012369672266 -2.190493649787 -0.009279198177 -1.546723569200 -2.373708337388 -4.039161227865 -4.203251816441 -8.605899594756 -9.624785554274 -8.010965462266 -2.584750028090 -2.113634280174 -0.013971835840 -0.043552842844 -2.139557136836 -2.101026459069 2.093250044479 1.178364806211 1.887765541878 -0.954300199060 -0.920114944734 0.081523490830 -0.033330935273 1.155196445111 -1.430807318773 -0.573095572039 0.638595000715 -1.661294062497 -0.583496886940 -0.701798650962 -2.315265725251 -2.003677055794 -1.909107113713 -3.014074112737 -4.013482364729 -9.356773953265 -8.440225705916 -1.596622935003 0.464525380877 1.156060030044 0.283453655970 -0.308436051373 -0.452198132066 0.719911153422 -0.236486613309 0.232030723944 0.419668120728 -0.226483318696 -0.605775563914 0.526165712554 -0.865005981812 -0.053745703552 0.143848160316 -0.678617833792 -2.250852838483 -3.305305908341 -1.321627542849 -1.563590699532 0.304512741850 0.027747178850 -0.311590884112 0.963117685776 -6.206063067605 -11.871824599919 1.592631445319 1.169417935415 -1.109978847839 -0.624582552626 -0.007219616552 -2.942518958132 -0.050040152581 0.737680343581 -4.115349417211 -2.195652858326 -0.591796389533 -0.812648556508 0.802326127464 0.525696041610 0.026178406758 -0.831119378785 -1.741850884954 -0.472574457266 -1.828506914966 -1.206390827956 -3.419572510338 -0.916754915249 0.588130221071 3.779995279380 2.197515791361 3.966372360857 -5.402294734790 -8.888638009229 2.119995469235 -0.068646822968 -1.089297628300 -2.535309609244 -2.230759796811 -4.716264978773 -3.210791943954 -3.163317626438 -4.449233207431 -2.499175086291 -0.260357438191 -0.091778504326 -0.405372455591 -0.707589443347 -0.161453192049 -1.382605219295 -0.455636144474 -2.717123295877 -1.809135523114 -0.403791793076 0.254164282236 2.799849564401 2.209062756929 5.080057498360 6.374491469299 8.296010581567 -1.647070671321 -6.325043671088 1.993793257371 2.637906428101 -2.594439022875 -3.202522234299 -0.733348851052 -1.753459943979 -0.860337178478 -1.749837092986 -4.923731469308 -1.438738864567 -1.197600494836 -0.411672196372 -0.322906934780 -0.853170942823 0.161524247975 -0.404320973257 -0.396650585521 -0.353113960143 0.082367871109 2.615816325011 2.089889215196 4.720110655962 1.872864774407 3.231388082818 7.553251511165 4.170707042382 -5.211740977190 -4.146128933474 0.750290712796 0.543021374730 -2.002484635314 -2.033965860254 -0.362835658997 -1.065272663008 0.965425985910 1.020183810522 0.388971196782 -1.560377267624 -0.350199255647 -0.652918010555 0.553350419738 -0.614706108892 0.931467772083 0.223292682398 -0.170595868687 2.141628814224 3.485987441801 3.811922029893 4.631899248626 3.997117258477 5.772895990764 5.644372701598 4.017535517966 1.001865075296 -3.520116706902 -2.282752879857 -0.618654030418 2.145574371640 4.856223917086 1.244991186205 3.823614460734 3.812627251480 1.085955007486 2.021215474542 1.729089692888 -0.324656857169 0.227718745607 0.687867775528 -0.220573043421 0.973625367413 -0.301456340271 1.177225342100 1.750432563215 1.429905210600 2.536993268157 2.956670675816 3.240869986598 3.470996706335 4.019446241045 0.257054050255 -0.641824524557 0.993815664384 3.466984586353 0.513428693764 1.298242629662 2.647113708210 2.259158494791 2.382147568999 3.730824768441 0.425070392997 0.408796049596 2.806457828668 3.205722618974 -0.480493635148 -1.658609947633 -0.369350341638 -0.268714748840 -0.006538856532 0.796059043608 -0.301060480840 -0.780176063843 0.595157229274 -0.487115570986 3.343348183396 2.825356504230 0.973439856470 0.715341701679 -1.199036809608 -3.112967289547 -2.410886197124 -0.377755348197 3.702025356688 3.667803013997 2.388725557873 2.019685061321 2.006996233816 0.997073402326 2.485670373457 2.168968534521 0.727175317638 -0.223298408430 -0.711847032157 -1.361496026563 -0.376743302002 0.926978998606 0.123875427188 0.862634311684 -0.136024030750 -0.558540037935 0.343619056291 -1.329240590235 1.270042072167 1.877261808017 0.493525503065 0.783125074060 -2.827981628632 -1.511971953557 -1.907159467295 0.278746290807 3.219977010751 4.391501972019 3.528928765592 0.644054688265 1.853479915483 -0.966111290841 -1.951539040883 -1.499402186488 -3.820850604765 -1.250798709110 -1.471966692830 -1.101649879727 0.481701093899 0.944007738158 -0.281408822504 -0.059887026667 0.663058751834 -0.484913455887 -0.264725496807 -0.408951188757 0.191614686103 2.286551972696 1.108619089612 -1.356124071087 -4.463309936718 -2.009709095871 0.558798862926 0.093115463087 2.154893168375 -1.644335480096 -0.007434102088 -5.842518345587 -4.080039146643 -4.471256752961 -4.125916978035 -3.311447347894 -5.027906140513 -1.874432773677 -1.328560691623 -1.551160276289 -0.661937016279 -0.248464923516 -0.989936151087 -0.578494432654 -0.277809964198 -0.137541553441 -1.475264325689 -2.938279995056 -0.944613122358 -1.540140707655 -3.826083533229 -3.527132725909 -5.890223363155 -5.463085244467 -5.641625718932 -3.284149104817 -3.124224587446 -3.869865604019 -4.033471515116 -3.211063337656 -4.125239084616 -3.901297995144 -3.789592291640 -1.901041434466 -5.178427625999 -3.317052091385 -0.561350254228 -0.376396812722 -0.391348826667 -0.128128828094 -0.927343859042 0.556516014417 0.079810413142 -1.476411916982 -1.319333304189 -4.442990210641 -4.285575956329 -4.613637799295 -6.699921666325 -7.160855687290 -7.631063055870 -6.855692453406 -7.189821785657 -10.157805689194 -4.365147111926 -3.309790995492 -0.985758288205 -2.690581524639 -1.077859714354 -3.408108218153 -3.849605602647 -2.322940223625 -3.679948969103 -1.632573421509 -2.162937440638 -1.032824910317 0.567479080272 0.717047734962 -0.785192907666 -0.031573716641 0.950170574168 -0.742473323646 -1.466387780446 -2.901664201006 -4.144433528431 -4.674290927525 -2.941582637293 -3.340643031984 -3.394059452301 -3.186252016394 -4.487570735186 -3.878888915945 -3.463932755710 -4.221695201463 -2.592100425004 -0.834245966312 -0.341096303009 -1.056756568757 -3.911757437407 -1.964287327048 -2.209253118240 -1.214989709462 -0.932992262110 -0.873414312083 -0.052777175642 -0.008707315863 -0.340962768295 0.709925723976 -0.057819871894 -0.832164285023 -0.923084274003 -0.955144612993 -1.388697925185 -1.702382639891 -2.059125233017 -0.458420877926 -1.117902277472 -1.101895411763 -3.548334501073 -0.448955561534 -3.872444637049 1.087832066837 0.151771778902 0.505887536777 1.016468784014 1.087364761687 1.177668494646 1.326922407903 -2.026521965688 -1.475526423435 -1.339166965895 -0.825079770961 0.389103379296 0.467655540860 -0.126173517432 0.064479390857 0.683953170805 -0.029178452697 -0.929398116594 -0.555034308070 0.436180957272 -0.531802403428 -0.067136718277 0.010359991609 -1.468207514240 -0.706169660359 -0.727931198238 -1.347795639715 -0.628846510120 -0.831807761732 -0.534293821175 0.878542898060 -0.098900533591 0.334032106543 0.986106959703 0.382741763470 -0.622284591100 -1.277046287682 -0.406239498742 0.325011931851 0.369519541869 -0.131263565882 -0.354373897036 0.729461068694 0.858706813858 -0.565887559682 -0.830450922322 -0.362747433804 -0.199603267926 -0.404793457483 -2.026744458272 -1.124461777755 -2.465391412505 -2.098135756532 -2.810205881934 -2.280758066594 -3.370346398368 -2.651371811115 -2.544609315891 -0.247054349918 -1.224372273307 -0.980290500092 -1.925079214764 -1.741008494421 -0.475501893904 -0.611438018651 -0.770734104130 0.000944703166 -0.646122903349 0.368508962200 0.748461708350 0.762485328025 0.042407703562 0.884735697019 0.563676443088 -0.316666701359 -1.906884203565 -1.821457061283 -3.002770451062 -3.405122892010 -5.461623408159 -2.639512656103 -3.520255203141 -4.305634900785 -4.125449860399 -3.011764850281 -5.442697044546 -4.091099464063 -7.128536637297 -4.731019260200 -3.937000518389 -0.719982370422 0.723037605979 0.833652318056 -0.932077604404 -0.488164990984 0.072654108057 0.723503904589 0.314006121549 -0.764429369378 0.318567174582 -0.727388038663 -0.867955193353 -1.367391626027 -0.471355744779 -1.918283881647 -2.311090231092 -3.475184598665 -3.540253829093 -3.865755883499 -4.416237137591 -3.674212506224 -6.503301836536 -3.561235853511 -6.149130361868 -5.255812013411 -6.475860253726 -3.078002393074 -1.851466862794 -2.408334395669 -1.553763651638 0.431015542615 -0.953078997575 -0.977894049343 -0.647483619279 0.420885567890 -0.517958402895 -0.001781293061 0.587392794134 -0.840578871640 -0.865642765194 0.695876612224 -1.010147983125 -0.655453796565 0.500225692661 -0.685268098864 -0.602331132479 0.452488355380 -0.888312772301 -0.433051072710 -0.149031668728 0.779962972972 -1.059179896579 -1.094842567199 0.311373963848 -1.138111869572 -0.252200049823 -0.041044468140 -0.586740778836 -0.128443593648 0.077180552472 0.278086800913 0.062580940673 0.508865318323
-6.614931743373 -0.742505987264 0.030869413335 -0.250651864101 0.066405089126 -0.019791808667 -0.015090590410 0.006646026821 0.610451394640 -0.103510224890 -0.493114934266 0.077703347696 0.417709952456 -0.515920602085 -0.419155562055 -0.551818823114 0.333123173601 0.562856173061 0.483758471477 -0.051722576278 -0.777159792557 -0.787053023002 -0.331248204368 0.034145990819 -0.388039454627 -0.862168272347 0.175915718779 -0.897625410801 0.554628557807 0.570836830000 0.530609052753 -0.853572335842 0.227447981293 -0.941082143115 -0.864571722052 0.203284000330 -0.944698060848 -0.778976399031 -0.691454219996 -0.547146480191 0.177145885964 -0.444110158115 -0.247990758363 0.627392518280 -1.306924136446 -0.249066694755 -1.059997816589 0.427160944449 -0.589382059454 0.211250231562 -0.789268966886 -0.833820424172 0.872719015438 0.923833579282 -0.205635249860 -0.722052014793 -0.381119833516 0.877422485056 -0.373247912743 0.370054483429 0.937854808473 0.916989554118 0.438026444731 0.024063343869 -0.055015605468 1.305505619370 1.743106854451 0.251595499020 -0.215317319115 -0.633788673181 -0.431661073666 -0.502447976417 0.082659839609 2.753051197693 0.309379518958 -2.372561984561 -2.783549538629 -2.534423452072 -2.106125759769 -1.872998712565 -1.049510901220 0.177657147961 -0.758843676306 0.304958571822 0.331738831269 -0.846871184793 -0.570155825157 -0.899911843025 0.089177606681 -0.944094567443 -0.402651898300 0.982837557803 0.414685833634 0.957341318812 2.726259445289 2.504187815279 2.460431794869 3.107253521830 4.067352966595 2.463735308172 0.871441320114 3.249149323270 1.053919082276 -3.795008459440 -3.624179455157 -2.734225824348 -4.119397278315 -4.468304182554 -1.948129208359 0.231783727971 -0.166706814114 0.401506309668 -0.111555630615 -0.300111496390 0.315374114881 -0.183206162183 -0.595683958792 0.627274557813 0.124327593494 1.355028271005 0.142904857252 1.250573994216 2.899557225781 4.491436127560 2.317230405816 0.230667128832 0.552674997373 -1.360606983698 -1.874887389847 0.710083223232 1.759850039444 0.124007297865 -0.501989054701 -1.537342010414 -2.746772636938 -3.231586331327 -2.679132173145 -1.928691463906 -0.649676313517 -0.395460393412 0.100917565594 -0.381777208793 0.718079706679 -0.557282042848 0.245546069371 0.784207259486 -0.724416284572 1.247791801902 1.512085375401 2.144568159101 0.902864979399 1.014997305211 1.307704672885 -0.490571149801 -0.342426749527 -1.362625610124 1.391416567901 1.916123863754 1.137291640905 0.633123362530 -1.435689002259 -0.683238354268 0.343243908974 0.399128496700 -2.173228748838 -0.381811996574 -0.115395337442 0.455925518397 1.090804079339 0.537835983393 0.294704498879 0.660511501554 0.423728530328 0.684744875946 2.546151224180 2.347985112717 2.013263208360 -0.102482867243 0.737061698631 0.406253426687 -1.376494801990 0.570948882478 1.344374008126 0.104106055750 -0.836978184060 0.184746653116 -0.546279063750 -1.830931044051 -2.593623042759 -1.532845359933 -1.234314428257 -2.300928240284 -0.954175948310 -1.251063011509 -0.621069482655 0.221808994509 -0.933091486596 -0.029123309703 -0.452595234256 -0.821850169225 -0.359781556050 2.058838984494 2.071902193284 2.050417163338 -0.230963372368 -0.039829733017 -0.354397017192 -1.486400236539 0.573742144114 2.269040546401 0.740523648719 -2.966766798870 -4.746282753624 -3.587609837011 -3.596040508951 -4.334893073297 -1.086669506107 -1.764272115824 0.014444049551 -0.609611634690 -2.972987959771 -2.978589295510 -0.452144713629 -0.817488213904 0.093767134096 0.404455929002 0.345022988303 -0.342395135610 -1.312511959283 2.119615070264 3.222447677273 0.533966596363 -0.907274737974 -0.523683745384 -1.336354428712 1.257538391049 2.592287047091 1.367175864106 -0.341690189921 -2.084888851502 -2.059145894635 -4.385609726087 -1.878541341149 -2.388688624747 -0.377886896825 0.676522425370 -0.403059926466 -0.179974399391 -1.993416440980 -3.203546013613 -0.518997491570 0.936677281295 0.347111232224 -0.848850195584 -0.007533157327 -1.338321073045 -1.140875167500 2.295480718532 3.671315499636 -0.170717769208 -1.343165058177 -1.880152935040 0.249175874089 -0.643689516502 0.625710286098 -1.290619939448 -2.404603818999 0.328064280748 1.494102206821 0.547563964229 -1.098114844857 -0.877142012850 0.544583846536 0.472419704397 -0.098756626921 -0.130082829166 -2.166962563290 -2.491717768262 -1.597246402948 -0.770351880955 -0.494262377613 0.560003109381 0.183121663675 -0.568664187299 -1.136758257722 -0.979845535742 0.677046875818 -2.464298948566 -5.234342419809 -3.852568891480 -3.409930833972 -2.802605759941 -3.796056785345 -5.798725197992 -7.232241263868 -4.480485512139 1.328418377215 1.590630168119 -0.742888376944 -1.754363637748 -2.557903852638 -1.703968530461 -1.007999017528 -3.686526850407 -4.039042984048 -2.599656735524 0.695942262388 0.301166813773 0.819278280022 -0.013221408515 0.111073395309 -0.730330591046 -1.453682769583 -4.048368920002 -4.340028256982 -5.676326094069 -9.890166145454 -9.051909837601 -9.558372929806 -10.472719012333 -11.326907018385 -9.997613944953 -14.569514858637 -10.415533362520 -3.563555958463 -1.406967577586 -4.767685255435 -1.116668225126 1.077318491657 -2.387762248400 -0.745127993157 -1.840578853080 -3.460546649613 -1.641029764368 -1.249251747081 0.482451121431 0.873953659750 0.115660976619 0.419956893181 -0.628162641392 -1.228172680788 -4.043866423823 -9.394051433186 -13.366888442183 -13.345926716695 -11.406878427136 -12.437745378974 -13.597626783590 -10.024896542900 -9.618259641517 -8.230344349511 -9.688325243420 -3.912080399583 -5.161579977296 -6.578946033360 -2.754073990401 -1.121175895725 -0.650513240156 -0.045444868302 -3.855570415303 -3.869833288971 1.593700278229 1.752713491698 0.394350061423 0.180745252702 0.158014434450 -0.020352920766 0.692903264755 -2.119768867226 -5.757750481246 -9.393041649503 -11.780022696966 -8.455004430329 -4.692684640130 -2.584342563803 -1.881058465173 -1.454601237320 1.284910869037 1.242658757048 -0.645612472972 -2.917075612893 -5.600384583884 -5.804773768720 -2.301205790670 0.406109308095 -0.692555368002 -0.047758785435 -1.902370362789 -1.313924018581 0.398720050045 2.680888068377 1.595663859323 0.519932851055 0.826161948103 -1.027867311692 -0.868681643130 -0.537229059759 -2.588442578629 -4.196236494748 -2.620450618998 2.142321692480 3.402636276646 2.707430039678 0.639832758001 1.258514058655 2.310420333868 1.302435724909 -2.017423075441 -3.985095530131 -2.546721870277 -3.952011382867 1.707049809695 -0.197695158434 -2.365597493692 -2.628940065545 -3.252569240453 -0.348825488851 0.073308380994 1.690156451689 2.087514545635 0.921998230891 -0.258305486095 -0.568570444691 0.202366194503 -0.627562972346 1.052531259277 2.680712841491 3.450941474663 3.815457142674 4.166519309687 1.298380838815 0.191921584360 1.219533075293 0.130513556566 2.357157749293 -1.323527603285 -0.775495755569 -0.988723883687 -3.788371783629 -2.040527720787 -0.956073075845 -5.129592195254 -3.240949470850 -2.661489732807 0.472220072789 3.255996787082 4.413422654837 3.038325151505 -0.196402128231 -0.608662715279 -0.496422888749 -0.739857702019 0.906699060195 2.699547109955 3.107938619238 3.389801775625 1.753785527458 0.173839986388 -1.341140105343 0.300333908539 -1.089635674464 1.031265100941 2.109137225908 -1.554504290428 0.140851392697 0.527010107290 1.027441297350 -0.993411947632 -1.340050979562 -2.798845534049 1.497828865776 2.281823969672 2.176727362749 3.593850900174 3.976540328398 1.680228005681 0.775457613443 0.065219036558 0.797363970018 -0.266836228301 2.277873171383 5.410316752162 4.220127208093 4.072642085625 1.651150640751 -1.265008109470 2.361994705948 0.664891303117 -0.101923570486 -1.939939840338 -0.747012318744 -0.205142106103 2.178311098106 1.206919849285 1.151691920652 2.758363424337 2.169429040678 2.695470658818 1.224427917605 -0.709793241769 0.763989921138 4.009839367811 4.917885439707 0.843764696796 -0.015143190323 0.750440093532 0.453642557919 -0.785885963884 0.351835605484 4.823186795510 6.109597597857 2.440423031087 3.564960161842 1.174680396005 1.020448309732 2.701892393885 -1.363572451817 1.974530763197 0.891238038592 1.320484190049 -1.300121371609 -0.234995053361 1.308209100922 0.028044616922 0.136534472317 1.900089814141 1.820736167430 1.637815938936 3.969081460944 6.968944453810 3.055161012160 -0.235097137137 -0.510448716117 -0.504165163069 -0.346854901875 -0.364223279876 -0.392973228959 2.514089149098 0.150341648851 -0.122171011347 -0.043018383754 0.317269860666 0.936116530907 -2.220795865440 -2.675899459702 -2.666520987774 -0.460195453610 -0.470600166776 -1.825280060407 -1.786603456594 1.351115887664 -0.689232570673 -0.516460926416 0.397228966419 2.232416199359 1.406995816001 1.653140299858 4.417295071997 3.151934477467 0.937576587957 0.910754842368 0.636938185136 0.204857810709 -0.261455099123 1.534411726322 4.331386958765 2.905855956200 0.657014690319 1.379520597867 0.375469536931 -0.586941965245 -2.266047157241 0.349884898171 -1.980377944147 -3.228575900182 -3.047090409927 -3.702490473328 0.399056302012 -1.808709104258 -0.974164975018 -1.092380716399 -2.338071520951 -0.021762815000 1.538902790911 5.677515733979 4.236658195350 1.987632950020 -0.390239989378 -0.152576213688 0.919130311281 -0.529451947952 0.329525075008 0.229493839167 3.917718480884 2.539746325037 0.425204266718 2.277940086107 -0.243728615747 0.389606939853 -1.450456629007 0.540693432122 -0.721093894562 -2.682024430840 -3.569253636679 -2.825587805622 -0.890485229654 -1.072491459627 0.227060683457 0.726440819201 -2.116069304882 -0.566425162845 4.062513994674 3.735422722311 1.882849413391 0.178823189852 0.232749923120 0.736593665993 0.474851727419 0.453729852476 0.929146314195 0.556459888604 2.311034985062 0.781153681033 -0.381278101874 -1.068265965507 1.467480150238 1.457939078975 -0.870467438391 0.347937564492 -1.645126895059 -1.498183562111 -1.236916684679 -2.239519038655 -3.250604414199 -2.952028167284 0.400536333054 -0.858927498506 -0.141217710003 0.553397768896 3.914451023751 3.905833424301 1.386158707171 0.270488859929 0.441759800862 -0.465724571320 -0.707245115918 -0.257227319344 0.051348602527 0.776234379962 -0.161663877091 -0.446410872302 -0.054356202071 0.250579857617 -1.066499464251 -0.468882007199 -0.674821106104 -0.359299094410 -2.169072112398 -5.374624127769 -3.979422109585 -2.479805346365 -4.420847742059 -3.072429099303 1.673398714719 1.695221070958 0.227669708146 2.455430936369 2.724327297391 1.624406621376 -0.575133844384 0.768953367379 -0.727463961398 0.561937107175 -0.073220397005 -0.364827309739 -0.408718853832 0.131714510662 -0.329701771186 -0.838481013734 -3.141751401796 -1.029143147797 -1.964433975022 -2.860210782597 -2.463868056184 -1.410714138034 -2.203324497471 -2.850970144777 -0.856231170529 -1.463069263074 -2.237058195492 -1.010804776178 0.279311198015 -1.752580736866 -0.657733503250 0.228096979688 0.652449242263 0.120256604069 0.974436222617 0.003558710559 0.444707886364 -0.060606976752 0.195780723479 0.548850114197 0.572396164475 -0.430671386812 -0.477896840796 -1.116231351033 -0.204359823746 -0.660231855589 -2.395747777707 -2.504607385615 -1.426235163725 -2.501147322374 -2.370783654230 -2.770655267957 -2.213458095835 -2.595693859049 -1.525642185230 -1.884799210063 -2.451484218646 -1.161530398846 -0.753872582842 -1.394089153878 -0.315337121184 -0.511310401129 0.521331516551 0.799570520845 -0.118832833064 0.286954443386 -0.650438987327 -0.381317041071 0.907107107771 -0.391457027718 -0.946247590438 0.730947515410 0.321818327236 -0.986342878546 -0.495195915156 0.291126935177 -0.614202714352 -1.050107581255 0.585400127320 -1.584970857769 -0.216812275733 -0.419035120516 0.240984986272 -1.298891776156 -1.129453801488 0.472863580022 0.535935640095 -0.956964304318 0.391996323573 -0.268011564639 0.356649915571 -0.089722161696 0.650968566466 -0.557389321619 -0.903540917242 0.828757213015 0.490319984707 -0.522339005212 -0.941443399806 0.677727050236 -0.788273967256 -0.207864279114 -0.904653804507 0.821269088521 0.222868328520 0.667769564954 -0.063700287675 -0.762750330887 0.234935752540 -0.584417282033 -0.270441868059 0.070981167033 0.098232457656 -0.810535840599 -0.754442032813 0.676912365744 0.055842290953 -0.595554355480 0.886552585927 -0.555487715588 0.514668211817 -0.681648416418
-0.899330951311 0.920368057486 -0.005845699726 -0.076982483338 0.329280638121 0.875795589116 0.770919992119 0.664394963081 -0.604226376503 -0.587648171810 0.525088160431 -0.681565831134 0.563617696262 0.903297617616 -0.738909040877 -0.910040550254 0.189129915361 0.931990061978 -0.068225839099 -0.557215151536 0.787487604700 -0.279652081529 0.516094232316 -0.118520159675 -0.692854197885 -0.855807129195 -0.207858584579 -0.543498637369 0.715562151334 0.182462098549 -0.276857518388 -0.383884218858 -0.507713727944 0.676585426229 0.062243574277 0.899162269286 0.545729027503 0.480785113315 0.476111222072 -0.945305323978 -0.674173266472 0.326212010771 -0.224087924952 0.577489840835 0.828445752964 -0.594684717123 -0.937579560479 -0.743909467609 -0.683969146306 0.762626437428 0.566742329859 -0.956451267202 -0.344835354865 -0.947721841612 -0.049962231265 0.683540799447 -0.109241014479 0.695304790454 -0.724767954611 -0.922392998642 -0.381573776847 0.535318549244 0.469721136150 -0.589662784322 -0.552102311511 0.307715713915 0.504829959973 0.534564645441 0.464770061811 -0.922104599362 0.113716716910 -1.392196056606 0.676319585176 0.614712279245 -0.049869286291 1.180532201401 0.654073820304 1.121493366949 0.485161354836 -0.510727813031 -0.588957414735 0.600501006456 -0.341366958816 0.280145603645 0.457009486817 -0.873152097564 -0.507770214591 0.317866565710 -0.170655791765 -0.954514443892 0.026185496665 0.105877581713 0.121311800418 -0.657099917041 -1.047421080338 -2.023572812562 -4.278862690814 -2.034243757089 -1.986443753932 -0.545582189343 0.073207229193 1.316687580716 1.273522363294 0.013742734080 1.833730764621 2.872485550986 0.727081626707 0.005297215177 -1.051256539618 -0.769914692640 -0.175538508799 -0.050341025170 0.336725906025 0.404263811468 0.031790088616 -0.478299095271 -0.148124679626 0.442101432305 -0.549687397943 -1.379275990919 -0.680589205969 -4.981226411424 -3.739328618489 -2.897787181824 -2.944793068802 -3.993689862457 -5.583283740536 -1.245223194386 1.995475129023 2.820389138401 0.708002232394 2.422507954304 1.832365295647 0.078814329013 3.250526437572 2.635145392828 1.685846096859 2.013482956402 0.098757819595 -0.274061842622 -0.281864448370 -0.279895706934 0.635405264640 -0.846859397265 0.045289542454 -2.600257802796 -1.068327448885 -1.915537091617 -2.370623559372 -5.093742867706 -1.438311307653 -3.938378167521 -1.027656571479 -1.191814507224 -3.242813271478 0.076849458764 0.786634131385 3.658418775580 2.994471398832 0.964544268747 0.775350159070 3.013290464410 3.264569479533 5.002603493238 3.343519045516 3.647906197519 2.019159249863 0.132381037642 -0.372963569525 -0.229976611782 0.818340994230 1.082654372531 -0.030938212767 -1.720418523421 -2.079649121391 -1.469541065197 -3.681020288288 -2.745596112695 -2.071737970330 -2.089647694448 -2.712436149463 -0.151923173073 -0.271736904777 0.090473107363 0.527107601757 3.154560939742 0.710852639984 -0.745164529259 3.579015069132 3.606205278707 2.072913611557 4.265804521001 3.593647310266 3.676203743882 1.061231882750 0.582178045900 0.744441862432 -0.671790438082 0.171933160882 1.115138495831 -1.006088166168 -2.081209870390 -1.659785988778 -0.369254575645 -0.745407489144 0.784813065527 -0.307016422923 0.800687619325 -0.554499767206 1.550384231763 -0.008246681359 0.166424505887 0.268063702999 0.663194609021 2.129355272645 3.235989303509 1.129287558716 3.803046934578 2.236686838180 1.015781363456 -0.880697298068 -0.593486124735 -0.035864811905 0.060176267846 0.406885716211 -0.480239211859 0.698039586125 0.415467561492 -0.806229825305 -3.088710736292 -0.877788082454 -1.642374396004 -3.393846551426 -2.217004532660 -0.759296492256 1.063406052367 2.625442314245 -1.353988391100 -4.490206990998 -4.843922276737 -4.526859398423 0.024802781239 -1.167894853426 -0.655669799744 -1.707572147738 -1.522982704496 -1.224463118505 -2.348931600807 -0.384141765661 -0.215860416245 0.316572559041 0.780091932958 -0.756408638268 0.933204355186 0.177447843520 -0.341506060821 -1.019030097285 -2.313462529420 -2.300012576614 -0.824254944524 -1.937965470231 0.061591396318 -0.858631444557 -0.877519083127 1.378220355608 -3.044332577332 -4.116774760971 -8.990105243275 -12.986186321744 -13.619718391186 -12.435092082652 -12.687192856284 -12.326932466976 -9.956509255299 -7.729719359583 -7.986978223351 -6.457899572243 -1.704936014605 1.031371386728 0.599471702654 -0.822562372859 -0.147369421870 0.486945174736 0.545092801115 -0.888417077608 -0.582496734111 0.253007068475 0.390640717162 1.540822354974 -0.034483817101 3.548004231312 -1.422279208751 -0.306364300903 0.916099598985 -1.232731533649 -6.317064799360 -6.698949876902 -7.551810512254 -9.696126761469 -13.246202450401 -14.734803596066 -11.610060528545 -10.316574021135 -10.559030069033 -7.815971585490 -2.654544660263 -0.653741981708 0.925588747990 0.970270038543 0.692859456967 -0.186816051719 0.294170915511 -0.712987681916 -0.281732526049 -2.001330387001 -0.447654422028 -0.331228404902 -2.869216867174 -2.608928317428 1.244175047374 0.066726280222 0.291116290922 0.164711951410 -1.140177450552 -2.471622995417 1.275436458137 1.041079101998 -1.079880727880 -5.946219634603 -7.809402625593 -7.062910124216 -8.908711131496 -6.970516008774 -4.190734892795 -1.135279152477 0.794853820003 0.986897649985 0.891130419805 0.126425007486 0.045665824550 0.809823906170 0.763863454282 -0.205443162827 -0.169748581193 -2.142589129320 -3.001986866531 -1.616539279896 0.813605580757 0.062664586911 -0.451445184552 0.806434793629 -0.661637143672 -2.582871890514 -3.427454615707 -2.188439197580 0.837145022054 -0.724825540533 -0.391867583085 -3.679631260574 -5.295179740039 -5.677598819055 -3.772952472502 -0.727615872554 0.512105578927 0.199332147401 0.174790670536 -0.089435821580 -0.558643138028 -0.265307850569 0.843215554972 0.776819151430 1.421983147529 0.729553354900 -0.088493850157 0.523145013382 -0.346387855166 1.692914055299 2.249637719669 0.820113238004 -2.599394550304 -2.184724066764 -2.436645231054 -2.337679223553 -0.237026135452 0.585490581917 -1.251788918495 -1.372680265351 -0.938211131522 -2.457968215072 -1.300189503206 -1.057674305997 -0.088641647416 0.855732387751 -0.195426138996 -0.219629483894 0.431121315699 -0.385734547593 0.816994964571 0.616354413487 1.189858089530 -0.502123994750 3.828942689627 0.831705485119 -0.480010405250 -1.120029545869 -2.465594800732 -4.085932036993 -1.589865150547 -2.344674690885 -0.774676160289 -2.258423040282 -2.669534449393 -3.937636857214 0.777027792976 -0.992538151998 -1.253952728235 -1.807920808697 -0.701806375090 0.077959141284 -0.279204358603 0.188199847229 -0.875861358442 -0.253730828006 0.092907942165 0.044763088214 -0.826903664519 -0.299396268627 -2.322272212249 -2.014852590140 0.852911362597 -0.666657150972 -2.421759119419 -1.032268177969 0.702612446006 -0.419114301582 -1.506191817367 -3.449547675781 -2.815397737802 -3.227928362457 -0.806699808203 -2.090263717174 -1.779456813723 -2.195241620727 -0.382243612076 0.201376573640 1.245005501121 0.800260030474 -0.640775131190 -0.177902569074 -0.087720883927 -0.843828722352 -0.185864302209 0.649325717921 0.186846185615 -1.923184952901 -4.874001041820 -7.241335973891 -6.518633834235 -5.009560485946 -3.425570687120 -1.687311760524 0.466067580002 0.476576015819 0.502611699650 -2.628854065454 -5.063721134904 -3.069263773717 -0.103662902578 -1.853124361076 -0.417713107556 -0.416169761075 -0.247040178112 1.239986739365 1.230949953239 0.799793080055 -0.053681878091 0.801551791105 0.602151042769 -0.385040889051 -0.245233345518 0.487679294148 1.055232452739 -0.401361136348 -0.902501936558 -4.493377656005 -7.847989546840 -7.558732501690 -7.779068306618 -8.555027552728 -5.745037436062 -4.644995169961 -3.789267417708 -2.099882069719 -1.964456266376 -1.117145439217 2.307767762308 0.068380448234 1.749666495339 -0.128980387862 0.660332982911 1.485286457498 0.534520009258 -0.232288651950 -0.215634030146 0.072439419460 0.882259976344 -0.027148662232 -0.603060405994 -0.780756313800 2.689277569371 1.167059283618 -1.533827100839 -1.022296034313 -4.530590541951 -6.956147442616 -8.421892381339 -10.487268958124 -7.801003181624 -5.325245158167 -2.513980207678 -2.817901972377 -1.832662067940 1.401471520904 -0.311207261941 -1.015198191755 -1.164978843343 2.294579302811 0.326573736780 0.397231010481 1.851720278215 -0.570626384988 0.065025181699 0.560488442828 0.670528735105 -0.280575447402 0.590001652914 -1.138225554513 2.810162303040 1.357786371092 -0.015327195747 -3.197946897405 -1.593306198524 -3.094735718385 -3.801798711764 -2.423472668941 -2.591597463416 -1.862752396114 0.972912092752 0.062421623929 -0.018625282861 -2.985816389460 -2.424267397416 -1.171648557991 -1.615440653909 2.344309846948 -0.002611656142 0.443600246679 0.989293244083 0.840008923535 0.584964385343 -0.469954340899 -0.094325042824 -0.520823604219 -0.617752415063 -0.597258266629 1.292466859365 1.246267641084 0.505312861696 -3.913031047027 -1.580083544318 -5.525814989381 -3.481732217718 0.443888079221 -0.733122882582 -0.466988280609 -1.440912850668 -1.359315626186 0.140975240476 -0.339131818802 0.257081540500 -0.093123337342 -0.872337622575 0.597579103492 0.671458919845 0.813850035132 0.769633714686 0.014413299425 -0.309187116207 0.005833932036 0.362112021630 -0.707551182666 0.578898616862 0.398717971902 1.650826989164 1.353751444521 1.985952431822 1.103888476394 2.524645660928 0.453513548302 0.123573075234 -0.627507129444 -0.478540170489 -1.130898497126 0.515580190980 -2.896413086788 -2.207465293803 -1.731900416328 -0.969594561090 1.084779289040 2.048130452410 4.421581210513 1.473524658895 1.713342194455 0.284299093848 0.518664502108 -0.100970312887 0.195480580777 -0.669481565551 0.341492675688 0.641705951090 -0.491012919018 1.913654288941 1.143315211313 -3.114445876639 -1.855504459256 -0.211563643889 2.546764794336 1.307018161950 2.826557837882 -0.615765502405 -2.150093393800 0.727543245990 -0.873433758792 -1.800942788587 -2.946096710903 -1.220083175842 1.653685888496 2.774336911459 0.784532484756 1.344150639978 1.821613870139 -0.663942724250 0.129097936438 0.734047687328 -0.581162516993 -0.655758211543 0.173713782502 -0.935429688651 -0.979565523537 1.563074572943 2.555415276924 0.398781124004 -2.064111847236 -1.526840089704 -1.931925395993 -1.292946006795 -1.377415916104 -1.003562283107 -2.860608817767 -3.232775153380 -1.608790539149 -1.618097523926 -0.418841027390 -0.343303088031 -1.733694483268 0.213009698681 1.961822003639 2.666457594575 1.120655468609 -1.086530139205 0.385145159571 0.994461672113 0.045061238437 0.540825269928 -0.777496089738 -0.230525189168 -0.335186046148 -1.083914661966 0.988021801122 0.833256778071 -1.406769126678 -1.522478346489 -0.233992505042 -0.665805592278 -1.109588349232 1.116942167233 0.094491765868 -0.460661161217 -0.353434810641 -0.573301323243 -0.795686904932 1.832527605402 0.665822213857 2.178242718228 1.037906318480 1.863105916302 0.061634053526 -0.203162171020 -0.196055728354 -0.014174502325 0.229342760643 -0.782296208610 0.529456603176 0.278839202723 -0.603443260582 0.610504440893 0.089238790062 0.219182138110 -0.256716334078 -1.536573156364 -1.016441404809 -0.163037179391 1.366357276510 2.156525004792 1.327389478975 1.166966133591 0.629729864096 -1.456736305055 -1.185553781046 1.427730978637 1.616647192298 -0.388846459451 0.349799595631 1.538717491166 -0.069194353015 -0.174272827735 -0.743578973391 -0.049142900678 0.250236212033 -0.229727797120 0.668614569475 -0.667711639184 -0.350835967466 0.581084797820 -0.335593880613 0.171778548097 0.941774981402 0.833315156878 0.625445806315 -0.630797909444 0.370405107375 0.789285788747 0.524802874788 -0.433623994858 -0.073288626691 -1.398314654723 -2.361461828304 0.832558405964 0.887270946255 0.442656060167 0.654646069306 0.963042877460 0.350076672978 -0.653870955067 0.997052979464 0.534380461368 -0.537589513500 -0.711557876580 -0.130794098483 0.346182873513 -0.479476384900 -0.562467382618 -0.451389954420 -0.036179034408 -0.369815242695 -0.908832821529 -0.242010101797 -0.925891614931 -0.865686807546 0.594424132942 -0.180838153091 0.463695567602 0.467595891233 -0.078821214018 -0.053841732713 -0.299164613261 0.341516181503 -0.389411848418 -0.836370075497 -0.593490056230 -0.797142619122 0.584385249783 -0.228003336477 0.181749736657 -0.227533086483
-4.471188076646 -0.603842001160 0.288780144003 0.515496023425 -0.387650043765 0.918686832367 0.559417011123 0.401769896788 0.405934391428 -0.155609930691 -0.006915865979 0.970977368876 0.191576190478 0.853311466730 -0.035833668676 0.377711792743 0.821801058387 0.395883013245 -0.578904654849 -0.176798869267 -0.664139841980 -0.528284415736 -0.030760781422 -0.780522249739 0.093996223792 -0.341885002729 0.603241145976 -0.038952103268 0.732101425384 -0.573075636813 0.041329366664 0.220602747239 0.438099708189 -0.805138095539 0.017791663448 0.590823004788 -0.069444765412 -0.705321740029 0.073555675454 0.465507177963 0.194028146190 0.615407695796 -0.251851506596 -0.679167646837 0.643305265378 0.994336085983 1.000150521268 -0.655413594980 -0.785834521016 -0.937287204869 -0.343769676356 0.219190202254 0.872688682762 0.427860644722 -0.633257048763 0.925383019088 -0.593548629121 0.398640603778 0.583745254546 0.032036109373 -0.566702925432 -0.334107374261 -0.944074808299 -0.904315149084 -0.773136026050 0.493368166715 0.677852688712 -0.393642273907 -1.188934905294 -0.803129395508 -0.363230623714 -0.423287982542 -0.142703496899 0.667117667849 -0.321725122329 -0.918691945078 0.461369338542 -0.698563379747 0.645996760852 0.264910366849 -0.031733473939 -0.949072271526 0.483842836741 0.356720409409 -0.287771457011 -0.588593182877 -0.912200415483 -0.918468441774 0.728903703731 0.699816663252 -0.663344662625 0.808454680834 -0.587936198576 -0.944535204505 0.511573781367 0.496897824010 -1.229556092999 0.621291726578 -0.316912103639 -0.485307267330 0.078320322918 -0.469533227391 -1.414620828745 -0.228459736421 0.345926376990 -0.869005448353 -0.371741805323 -0.991448590442 0.129958207097 -1.002153222959 0.017294828530 0.301831523278 -0.247405518709 0.988011031883 -0.396667545131 -0.849326271286 0.099454732003 -0.433642757784 -0.994493372219 -0.728156054076 -0.887468826818 -0.181761484789 0.235016518378 -1.077318666277 -0.168997559716 -1.098314153347 -0.878318009411 -1.160463380447 -0.334763226510 -0.604199698783 -1.143790733819 -0.366214936599 -0.815144193228 -0.362757495818 -1.017519896941 -0.187913456158 0.614116150223 -0.565039882649 -0.168177271186 0.728863993875 0.873851859742 -0.815107567704 -0.745196513184 -0.833093389845 -0.102057046235 -0.051766316229 0.632975383047 -0.001582835088 0.315004510490 0.545387386661 -0.083702895360 -1.902492731351 -2.421684184363 -2.325144346801 -1.924456856561 -2.262771474802 -4.138321472950 -3.939891091419 -5.635041161309 -3.426156726682 -5.154911666271 -2.451144447291 -2.130711783552 -0.324730458444 0.677801134857 -0.749467173431 0.226872155589 -0.010492402951 0.149921943652 0.542902936967 0.153709704246 -0.995557997388 0.069233790343 0.496118882121 1.849285212758 2.941273339327 1.850529247224 1.812085187989 2.656906805902 5.177920332628 4.762675446650 1.415405336520 -1.227976055601 -5.096538509331 -1.874410022951 0.185999728677 0.763836707498 -1.090248490394 0.409798251831 -0.052410712234 -1.403397886979 -0.685282785382 -1.473000018033 0.526888806608 0.254224048104 0.337524957423 0.940787937670 0.865097661936 -0.251504832373 0.316343603568 -0.299723394818 1.000323451060 1.424935155585 1.168781548414 3.129550133330 0.161096205402 1.491536410854 4.337259308972 2.448083466541 3.297853696962 1.865890050367 -2.487758646748 -2.748669718995 1.596558413604 1.740532443652 0.089996379924 1.322608716330 2.608893953841 1.374004604699 -0.708532738596 0.404694760700 -0.896909735427 0.649778329124 0.876997953258 0.022384254657 -0.859155990061 -0.073327002798 -0.965676715914 0.698972584827 1.615445479154 1.641722012658 -0.912740536675 3.553859516879 3.162386669531 0.227039026894 1.900444891293 4.884232667077 2.883460159893 1.520500564943 1.940411409756 2.494093162324 2.278858886769 1.673662036147 3.251442201396 3.376764184757 4.300302515113 0.560648709967 1.986524160546 1.692525931065 0.329927242829 -0.710157196526 -0.502215519731 -0.575948580840 0.994977160668 0.074706500136 1.090244855927 0.599486099865 3.298607160490 -0.572070593256 -1.252846369650 0.586279487345 2.010831130077 1.889524982660 0.811636960633 0.053124018205 3.958201181041 2.772347589717 2.797009904675 1.457445695273 2.343543353125 2.785480103914 1.761836323129 2.978756183602 -0.744427033684 1.873723369218 2.987004856948 -1.334302820705 0.432530419281 -0.942530513773 0.518455775665 -0.220944448682 0.036912386647 0.599559262794 1.620935398694 1.739600677660 1.176705597846 -1.694850838266 -0.911438841607 1.317921044212 0.181358310613 -0.620544196155 -0.395131558611 0.028397441453 0.245115637016 2.105619488759 1.933539712916 3.887234443538 3.479058749523 0.170132385062 -0.183366077670 1.793422401672 0.271286608397 1.928064983759 -0.293348949382 -2.898636193953 -1.306826100214 0.001349277573 0.963299386828 0.687909173349 0.580727529044 0.874530116010 -0.450768350150 0.712240836453 -0.367545406832 -1.661329736562 -0.450728368070 -1.501984623465 -1.891078841169 -0.001593901178 -3.174124200698 -4.508195027541 -4.202155097753 -3.458932358490 -0.169514915692 1.656143942304 1.395126948693 -1.216253087213 -2.606138277778 -1.824061655739 0.396928371497 0.478777776817 -1.811057445453 -1.614329190573 -2.066908731268 0.902585853754 -0.876688892147 -0.632169960978 0.802624223011 -0.404294787002 0.385426683754 -0.046690191656 -0.598326663895 -1.972625779484 -3.174757775542 -2.508290974672 -2.039646347856 -2.904931931885 -5.745662947159 -3.744002415559 -7.358526451062 -7.331916713756 -6.082638397410 -0.686101868938 0.760239967003 -0.866130485781 -2.697416981734 -3.354822067241 -3.293048168980 -2.004544077597 -2.081223560471 -1.773050134618 -2.050665244183 -0.464247238719 -0.551206972323 0.839774963701 0.655319574255 0.968159540810 -0.925191983211 -1.752544875457 -0.662264606269 -2.994561687734 -2.847781238556 -3.621035369006 -5.584057646112 -7.588823128012 -5.868912169161 -4.837609904563 -4.918278505988 -5.407262690608 -4.201823713100 -0.350544341447 0.560778163601 1.317126341990 -0.610118621993 -2.548140261179 -3.423908764574 -1.443093853154 -3.221690804227 -1.930239663280 -1.296588143553 -0.900658364758 0.536582734540 0.489021188349 -0.025941547013 -0.138710779164 -0.549669497263 -0.185076901038 0.107029529047 -2.367150606727 -2.401487934296 -3.849692822084 -6.068161464718 -5.445102503093 -3.540256213946 -1.935667677911 -2.792652754631 -4.364736376308 -1.262361667448 1.427087194195 2.655320182353 0.443746335611 1.577033491505 2.636967503495 3.765168141024 1.018038858141 -1.844681232285 -1.924309657136 -3.022046233414 -0.152041563718 0.068172408687 0.664746663039 0.842736728669 -0.024887101657 -0.578136882688 -0.663840672928 -1.078072612641 -1.900564604617 -2.096620405225 -4.733667356306 -4.572052047582 -0.276316467114 0.640483951124 -0.431762574863 -2.867828547265 -2.660806106128 -0.787337573788 4.671317675349 1.197654657047 3.026886118429 0.654874867241 1.690145802437 2.621191048764 4.120046908469 0.135764850041 -1.181874979366 -1.698736953234 -1.273489185264 0.051069952262 0.408972929115 -0.753997994956 -0.166172955778 -0.527382571476 -0.477386193291 -1.749462260249 -1.570869795843 -0.827217356326 -1.245657955637 -1.702341063265 0.429646172127 -1.630474583676 -3.936114228332 0.374991006843 0.406209685674 -0.485639633328 1.754134664050 1.315924014011 1.432932771200 1.419583371461 2.007720160218 1.930321647819 0.960022668311 -0.601414864113 -3.347646034014 -2.872126423718 -2.391433194571 -0.064696080875 0.811763095161 -0.013653129730 0.551698154143 0.387538414856 -0.914330232807 -0.884391814181 -2.164140036439 -1.953597473009 -1.786812358408 -1.662197600052 1.038264216993 -2.392526542456 -0.184695403737 0.637469983652 1.403449665117 -0.680790739377 -0.248694389491 -0.324338853929 -1.620445301863 -0.234664997637 -2.731582146626 -3.795373167562 -2.663116583523 -2.819051574745 -2.857436772622 -1.612010118641 -1.462264126071 -0.459823518322 -1.181261643719 -0.550620076606 0.304003220778 0.561308822372 0.038478701625 -0.641121771616 -1.482143022188 -3.644452338066 -1.896782406537 -1.269438155232 -0.486647835839 -1.681467259946 1.916744043929 2.102562181247 2.632850921861 -1.312134417555 -1.932237836420 -1.181180659632 0.799733988103 -2.679678393997 -3.605881990134 -4.129919845555 -5.579428772934 -4.774262167961 -5.313603217056 -2.684021212026 -1.273069220895 0.829429134314 0.190830214199 -0.750935987417 0.401712075782 0.532505632593 -0.683107657866 -0.236939655164 -2.369039999183 -5.670407740320 -3.894078135304 -2.516425393788 -1.522576313204 -1.932180776454 -1.700293332476 0.369939569545 0.241025898038 1.782667743688 -0.403950256589 -1.278198935435 -2.935358586217 -5.626831545905 -5.383651941851 -3.349308005879 -4.924160496394 -3.504341125532 -3.823922325769 -2.630489655870 0.305534560082 0.258525736826 -0.579266515078 0.841161914024 -0.097315457672 0.936030111528 0.256923049012 -0.053845675236 -3.369224670343 -4.108178699134 -3.663595562371 -3.470757221230 -1.980178349308 -1.534373867012 -2.224283730275 0.211578835107 2.505829702034 -1.051869866211 -1.049903573125 -4.067971120599 -5.240740464223 -5.972482689043 -4.543859358925 -4.219323165690 -3.771177925791 -3.277454982648 -3.337058560490 -2.337843768750 -0.145657076801 -0.017575404464 -0.799216140161 -0.840329780716 0.003256773360 0.169027727000 -0.494312947469 -2.423429940223 -2.553159612449 -2.805678772805 -2.619847418867 -1.255493675583 -2.715335294032 -4.073526259788 -4.142659262798 -2.282466303732 -0.167927217277 1.716909336042 -0.463227963180 -2.353333008142 -3.162376284883 -6.815936911846 -6.090196050990 -4.233413250651 -3.138959015224 -1.347267485153 -2.228983383832 -0.635565765397 -0.348862877295 -0.609419653450 0.614024705327 0.515225696242 0.875566794928 -1.045109325770 -0.983226153971 -1.542914799394 -1.760978148019 -1.963974427946 1.509164063782 -0.188349573754 -2.340484350575 -0.623407660026 -3.307966540245 -1.473878768868 0.231654979212 0.725001673360 0.118552519988 -1.222080171630 -2.243470448045 -5.933643460354 -5.088878538273 -4.972103264121 -3.396014584393 -1.946661201787 -2.725594345765 -0.455460739313 0.113204660126 0.662544383940 -0.777216975358 0.869208300118 -0.962776379237 -0.313294822581 -1.451678332200 -0.686537448049 0.182615197279 1.451412452188 1.345460370399 -1.436378786476 -0.885303713892 0.120917498234 -1.836156662727 -2.283714793301 -0.200640563746 -0.962915180988 -0.307297783382 -0.349672772917 -1.460534230037 -2.621527496067 -4.632710754607 -3.109866743928 -1.186332784327 -2.008450601195 -0.792995815770 0.360101337820 -0.910736681045 0.327272939288 -0.187497796362 -0.307515450581 0.795094483067 -1.353372352261 -0.219141386021 0.601088834300 2.953437241120 1.399833241968 0.585405068443 1.179957840875 -0.720932027003 -0.485723842249 -0.795412462944 -1.196903365453 2.226276623536 0.440337622533 1.310546062883 -0.239753998494 0.924763130080 -2.404356961348 -3.865240743201 -1.371145137821 -2.230717566819 -1.091292669628 -0.384459479855 -0.759368567441 0.107329380682 -0.439249839991 -0.286306764806 0.405349406637 -0.059823731605 0.692564147373 -0.867289649638 0.155605218035 -0.506064927308 -0.577129492778 -0.628173013554 2.430896969164 1.716555566085 0.668142582459 2.014211682434 1.054281130641 1.283685174162 0.108815251976 1.857601727318 0.678780021907 2.929838481232 0.839850770362 0.505661564251 -1.136567272034 0.456501264278 0.817316015228 -0.621398001503 -0.604245135560 0.773837761607 -0.261802386648 0.706869959208 -0.046949007573 0.048431449448 0.046772634722 0.184687491502 -1.322915651231 -0.379081404224 -0.787826186342 -0.133002639914 -0.866180599283 -0.584687941652 1.638853149278 0.140321917752 -0.483485668887 -1.362053464183 -0.433386379247 1.113548472665 -0.019464279618 1.558034803844 1.095519515516 -0.607047338316 0.075473108473 0.372533725905 -0.209088005267 -0.139773445281 0.813915262299 0.092798676605 -0.138052011104 -0.409898069164 -0.863526857357 0.803984961991 -0.622273033974 0.571038794809 -0.875172219257 0.972743617479 -0.021826494507 0.917325365805 -0.119242765667 0.493744243272 1.052392231941 -0.742201589554 -1.424739229199 0.438751021100 0.717382068952 1.017990855300 0.506158876045 -0.009551654210 -0.430622226494 -0.937082075605 0.661552403774 0.749846886506 -0.630301667970 -0.502516387560 -0.429238397513 0.138992343855 0.530303796669 -0.241669451669
-14.797045370627 -0.127509567711 -0.726117115160 0.405783389652 0.348379466485 0.057499074830 0.390775345426 -0.556134040592 -0.381230518525 -0.259458976265 0.040891550943 -0.164387098295 0.498547978254 -0.635227856518 0.028423833471 0.064170011129 -0.373872101873 -0.291418183386 -0.038021927558 -0.343878358732 0.531475550346 -0.109211664804 0.707911904552 -0.339817085782 0.257057388488 -0.435673469214 -0.850749813487 0.242417291534 0.502180449141 -0.374323388317 0.603683490172 0.313349850914 0.014841152450 0.742791977728 0.314105055044 0.359343139563 -0.106242282649 0.264402571877 0.371049144320 -1.003025436033 -0.831956579273 0.186565906122 -0.599064048375 -0.596739767801 0.122361021928 -0.099648073256 0.946372302119 -0.278914682264 -0.842013532209 0.887465865165 0.242981822138 -0.473732793876 -0.809476868883 0.555857745426 0.552914215955 0.704536722069 -0.270692305228 0.942778667457 0.970022461507 0.566695055889 -0.385679362291 0.005768459286 -0.494675790134 0.905623346771 -0.149365224340 -0.962673358010 -1.792457306640 -2.426981937965 -1.864192744699 -0.866483360452 -1.051763956469 -2.202876833141 -0.406662449018 -1.015819109246 -1.715980311405 0.004649403461 -0.758998163883 0.649517029590 0.344145720277 0.070216928989 0.711749160124 -0.665317767713 0.258851508304 -0.830283952490 0.474472819135 0.670414001123 -0.743144415716 -0.533023370318 0.149094254736 -0.625331017823 -0.882007032201 0.395066093299 0.562124581257 -0.933172147281 -2.802732739492 -1.738655467688 -2.604305858478 -1.920629338172 -1.802539486643 -2.528495659010 -1.498879456304 -1.792172050106 -0.689164097247 -1.300102127759 -1.044078853390 -0.977808539975 -1.054074119609 -0.621791800243 0.055716829014 0.572829873303 -0.585117677073 0.436931576692 -0.408870606714 -0.943857191176 0.547941320399 0.107189741373 -0.668295991658 -0.340274132012 0.471887157990 0.189550029527 -0.087207659119 -1.176198839103 -1.214282411716 -2.130396179401 -4.675692899120 -3.160551461126 -2.614088169487 -2.409917138952 -1.298332938707 -1.794364289756 -1.079174663695 -0.622002713697 -1.345456181364 0.022699477642 -0.993209285324 0.070509184248 0.669036620461 -1.646238898233 -1.508715300695 0.549098283613 0.358101737618 0.189727446975 0.081588830186 0.538952763133 -0.261291688776 -0.792888524893 -0.058965107348 -0.021095645361 -0.749787199793 -1.814442013119 -3.639499652147 -2.240714760084 -2.977801436719 -1.911533553609 0.926758370362 0.504202788107 0.936249825939 0.076491238520 1.172827826181 1.599375030393 0.272260611800 -1.428400913442 0.430965770980 2.045350188995 0.569360122503 -1.402090269862 -1.971406345485 0.172423027828 0.076250451777 0.113094357528 -0.573308376652 -0.728799724570 0.509874793186 -0.589050360150 -0.284304850504 -1.360016418864 -1.096735654225 -1.482628874320 -3.010938381940 -2.108645037211 -0.934948670378 -0.536622347757 -0.289984127888 -1.137326473461 -0.721956545282 -0.963405331272 0.247021095658 1.675262222742 2.395875959326 3.311080183842 2.277148179704 3.267131642851 1.884139202408 -3.334300819657 -3.171201370990 -0.475802458639 -1.089209252839 -0.758321834136 -0.926731301261 0.128219720727 -0.380212899729 -0.495208233787 -0.542913838527 -1.854150628961 -1.149258083279 -1.039164274724 -1.717479661424 -2.507722672783 -0.993856374736 0.464746403086 0.605709776351 -0.912592770498 -1.876436851447 -1.384251115373 -1.026605181037 1.607946284482 3.229844914340 1.156869280713 0.513763041724 2.783684938480 0.134297840153 -2.713381456491 -2.270326394467 -0.906013497093 -0.337514792851 0.489917922311 0.116181405436 0.394666337081 -0.518098842816 -1.199348479119 -1.671416933215 -1.795867298341 -0.941700031303 -0.927782717248 -3.135405769120 -0.631826533700 -0.619526373500 -1.839778003289 -1.306037337892 -0.011329269054 -0.812682150451 1.231573940619 1.333561276424 1.612455016133 0.564531872497 1.890805932580 3.068960128355 3.762029643687 3.588258449439 -2.330864726869 -1.832308309453 -0.351808034665 0.096666914079 0.582909022225 -0.640375445447 0.641801689739 0.607714502486 -1.176859500802 -0.509297534174 -2.318749301033 -0.834558253221 -2.343801677204 -1.720016801169 -0.001484068306 -0.956477220873 1.151829443377 3.408941698432 2.272460938448 0.690211667603 1.205387262863 3.330712093796 2.552119741029 3.158140064603 -0.107394392065 0.715419285558 1.747154779805 5.487332271811 1.914308467345 -1.875331377455 0.354399712618 0.700238224683 0.779112027277 -0.562302536998 -0.854598394835 0.523318962428 -1.515251480688 -2.085789226445 -1.194309877202 -0.819909505510 -2.719241737042 -1.498081203115 -1.574778554072 1.042239320505 0.401546511323 0.537488739120 -0.364849515524 -2.893207698572 -3.295108340189 -1.983990273037 0.126301612884 -0.208475667254 -0.235263041458 1.452521716981 3.571410705888 6.140962281076 2.228161015515 -1.673084850006 0.386948022077 -0.287136349437 -0.642967952873 -0.362306006608 0.709648971412 0.657437804048 -2.002176014617 -0.998301448791 1.391214234536 0.197072402015 -2.922210916380 -4.063296928540 -2.161750691907 -0.677865185413 -1.002149990636 -2.469474446198 -3.579602054569 -5.283004847634 -6.324111531713 -4.571230975433 -5.440250042824 -4.357767485540 -0.347045066298 -0.478632452848 3.512335978512 2.972833420145 2.288464938216 -1.336353012876 -0.685051089846 -0.162051460219 -0.454415198652 -0.002325638922 -1.008342323057 0.152881897841 -1.326643279885 0.296720175605 1.229637276941 -1.678066444042 -1.020107966256 0.112589958098 2.507491368065 1.730772144354 0.860114263366 -0.643521939048 -5.803879495222 -7.522727399340 -6.440757132736 -4.609749126767 -3.816005883081 -3.779440745589 -3.497367902734 -1.169989927109 3.390067225387 0.757419245209 0.904201605189 -0.413207022238 -0.842125871512 0.215033033249 -0.794315020193 0.247891736003 0.506214517588 0.445177518794 0.893617005486 -1.249984399068 1.915705492823 0.324385758627 2.820626634473 2.345751655768 2.951385228695 -0.271165828313 -3.523954860638 -5.814643323560 -6.280041836351 -6.736668987361 -6.123409166326 -5.466863325569 -2.827214505397 -5.972546467051 -3.876000380325 2.019246080027 3.799945375054 1.837808746972 -2.860397488841 0.660719000528 0.667354846063 -0.274230385915 0.057372242597 -0.756649718235 0.271863101932 0.578770146057 -0.532970277255 2.207978481627 0.997231007570 3.864485058907 1.630786551353 0.570337778763 0.997152361359 -0.819808631084 -0.648038859271 -4.556347059187 -6.541521115992 -7.578354453498 -5.823752176900 -3.641597834900 -3.345386669165 -4.060347845705 -0.539302686030 3.059811695774 5.418995531806 2.051773872023 -2.008609992090 0.353164969937 -0.357064550736 -0.741536500470 0.935804667180 -0.809460136651 0.529840011114 -1.631101843136 1.569958499163 3.673073401944 1.026612109619 4.421599390042 1.121010854440 0.439709076098 0.493591786135 -2.141213071688 -2.016464482609 -5.333007270810 -7.503272888235 -6.448438825007 -5.187176031750 -3.115328461772 -3.731672140662 -2.135852070669 2.889794436733 3.453267832068 1.682819621709 -1.484954422371 0.064416412031 -0.140642373926 0.026082405178 0.238199246465 -0.047030579803 -0.724245334223 -0.072030118311 -1.262168018179 2.304057483061 4.005132086608 2.754897993413 0.740042104281 1.738783900011 -0.732577521145 -2.522986646433 -3.617057480017 -4.850142500245 -7.782351172519 -8.262359196866 -5.410733140815 -4.936445522642 -1.993259967603 0.169536759188 2.177160412970 3.254463952181 -1.477161977391 -3.183656254224 0.474167149037 0.219190645784 0.588370055972 0.107766792736 0.859471841195 -0.556918589520 -0.724719768412 -0.617210741819 -0.318610608313 3.707013580921 3.162935159128 3.822613852893 3.151270766985 1.039833063700 -0.558226382429 -1.812118442885 -2.555228507330 -5.503423491872 -7.829501147350 -5.780856856424 -4.024892093018 -3.441575713164 1.141495076604 -0.123305009535 1.411615582187 -0.327594588696 -1.505371646871 2.611215981505 0.146300595221 0.620705957048 -0.410047838453 0.762083180047 0.304272820939 0.354433712632 0.029800652418 -1.015220032146 -0.622125185198 1.759360893154 0.986874024125 -0.084358437325 1.798391822771 0.761416220819 -0.724105554169 -2.054582031876 -3.888455039318 -6.213910740200 -6.004717569907 -3.580414627936 -0.388033829813 -1.905967118435 1.158824301638 0.415659609601 -2.407780115836 -2.766470779634 0.629292761594 0.854770758245 -0.499793643721 0.352630573787 -0.759784130959 -0.303375629826 0.500703205312 -0.678582987843 0.821210036330 -0.378144997062 0.492065783593 0.548831783877 0.776870938690 1.470646127837 0.853609062101 0.809114921681 -0.435352011112 0.012497619422 -0.035938116113 -1.304474020894 -2.988335267783 -1.833199067061 -3.285616394917 -2.114764396167 -0.977719264650 -2.802867876295 -3.078560782610 -0.893127962233 -1.269603777177 1.431098100549 0.162091740000 -0.162100411747 0.269137346413 0.142209719064 -0.054425409271 0.398572025838 -0.439061244902 0.412310479053 -1.109100137721 0.219442901446 3.437592232421 2.555579372325 3.327111355305 1.671163626086 -0.111041705061 0.199294572977 0.045092272089 0.720882836580 -0.885932770347 -1.992767788267 -1.253285234095 -2.226021138681 -2.811092732255 -4.307903816489 -4.931807097329 -3.244268933855 -0.061461761890 0.544016161473 -0.822250170430 -1.211047457650 -0.862087375504 0.981113918467 0.674627019896 0.726186898181 -0.267766546933 -0.377053597654 -0.551341729000 0.253652865054 0.813796073249 4.815730421723 3.043051221780 3.497585646334 2.074857244007 3.164538124159 2.479529816114 2.752984796332 -0.275286925556 -1.575836278562 -2.745503761710 -2.359510356864 -3.871252610685 -3.557716884579 -2.941837484295 -1.124127750690 -1.386388136853 -0.972567598617 -0.048029875216 0.620979614080 -0.386918513836 -0.575122234894 0.620581682360 0.175870818570 0.504528842934 0.154248699609 0.348448299462 -0.775722747376 0.572795754781 1.743067391952 0.707913911162 2.272120867535 1.968932073310 2.598390907492 -0.617075400278 1.252828299569 1.148620343922 0.238380501654 -1.319080367164 -0.046857913006 -0.939828063965 -2.037619023900 -1.169198528258 -0.627913890740 -0.724394451132 -0.602877050231 -0.724938951672 -1.271162439775 -0.141809598203 0.739939513727 0.798878016664 0.269962864130 0.925759262392 -0.860854113678 0.379873258389 -0.441174320021 0.653047427370 1.984378812499 2.020358866233 1.985972546332 0.640317107054 1.128694306080 -1.086277319563 -1.079924759969 0.677692262851 -0.912176665235 -0.564377602907 -0.368171823212 -0.983973956414 -0.993341482171 -1.807043824803 -2.236019467964 -0.908431172355 -0.488235801474 -1.246857763900 0.797341814996 -0.858249807023 0.072810579960 0.783078892426 0.091307886154 -0.655588876381 -0.057374220138 -0.750212396821 0.235780674091 0.807542083678 0.144403378738 -1.974119921317 -0.924612513962 -2.229542297425 -1.457522638715 -2.641095211003 -1.224144813815 -0.328651788761 0.010077617186 0.089035772508 -0.152836644165 -0.786038327057 -2.081453232398 -1.145321549711 -1.987825393057 -0.803979097481 -0.157465758112 0.619929470469 0.693235250860 0.819396579247 0.042780560314 0.406686170517 0.188599666926 -0.131726527939 -0.497932411846 -0.354198471054 -0.211662673282 -0.186585708745 -0.562803077712 -1.690285981638 -1.886271048544 -2.268244453819 -2.750909974519 -2.545452161169 -1.913121390042 -1.713511788420 -2.374294151484 -1.762964415639 -0.601833572064 -1.991758585417 -0.587286506993 -1.463982766323 -0.046573546399 -1.225306320461 0.337311340523 -0.460035152173 0.868489738447 -0.290560962625 0.308886434592 -0.861817200142 -0.561183288129 0.522610762398 -0.586294178676 0.102925023252 0.083797613369 0.797545718887 -0.006697924115 0.054065317870 -0.536459352411 -2.354365892414 -0.758233484188 -0.366767949576 -0.535475849137 -1.226940967340 0.125173186743 -0.693127367954 -0.665767174691 -0.022497526948 -0.206860841709 -0.609167432692 0.726753397876 0.374353644516 -0.357859465172 0.160186904532 0.895500701649 0.741847094727 -0.358448707701 -0.441018468517 0.787376264808 0.959357025309 0.057235014551 -0.640938715711 -0.424626381150 0.745026709360 0.225643292683 -0.693488338926 -0.949136599103 0.594590173132 -0.680850681747 -0.507360606630 -0.090018236676 -0.869378046948 -0.035311724268 -0.395044366932 -0.013220566546 -0.938977554143 -0.555515275054 0.539609794489 -0.626617199077 -0.652874006265 -0.432644807124 -0.881125036088 -0.762483946477 -0.400664599405 0.299256266986 -0.026655632082
-8.983451648169 -0.349568643045 -0.103050364784 0.958148100974 0.161205040536 0.210374594510 0.108262399103 -0.449367415291 0.486253985644 0.029925172469 0.297825089955 -0.507795867976 -0.540972026063 -0.387699834537 -0.100796157355 0.320295351952 -0.414389703809 -0.080904090019 0.165549711878 -0.486703736580 0.292585786130 -0.363223831325 -0.057870015183 -0.215576922949 0.589153838296 0.862123455319 0.647029035302 0.766380598203 -0.311424514720 0.022287548047 0.623978070039 0.339023557630 -0.157937286672 0.257419506351 0.922000418620 0.710685273816 0.182431974699 -0.993824084127 -0.989034739392 0.961125383925 -0.057095744401 0.187970411883 -0.281350642942 0.948647068154 0.016378751228 1.006293182851 -0.258111698726 0.387021388980 0.257207519698 0.116047694996 0.538525331637 -0.288114967246 -0.325600552057 -0.905864160505 0.543867082193 -0.196226257073 -0.806089033328 -0.792635060711 0.691439097665 -0.865021528971 -0.812616047736 0.310011722353 0.682902355847 -0.973347820268 0.795565612972 -0.268636113650 -0.767756146080 -0.463311138938 -0.054923202763 0.354703249105 2.021493127025 0.578182230694 2.385741511181 1.471021417607 0.276115214967 -0.807946285491 -1.125366981842 -0.431329002127 -0.213222562812 -0.050980000772 0.949712003093 0.320289016312 -0.487684739634 0.562350289551 0.454929985468 -0.831117319958 0.166495919207 -0.781552059738 -0.601668357474 -0.598207643277 0.303762306757 -0.468301022398 -0.274775650737 -0.616234655369 -0.857804879074 -1.399907223579 -1.203905328302 -0.227333256389 1.201163777930 1.508014962401 2.168859563916 1.004747497648 -0.303596011132 0.145522875584 -0.320310095384 1.018994438151 -0.244790260866 0.629204276957 -0.603051254732 0.810622583123 0.181301186878 -0.551265937337 0.151190627697 -0.641668262095 0.363665188506 -0.174421203657 -0.882581090158 0.308367043519 -0.614472901402 -0.189054901275 0.156666997855 -1.235821750917 -1.510249132102 -3.302916150627 -1.237967726492 -1.008941404031 -0.071159325499 1.741965151174 2.318241901066 -0.652360401071 -0.885123839861 -0.408412913334 -0.337051980561 -1.494606203689 -1.152054101716 0.064848299418 -0.016975248444 0.127651451769 0.025362761054 0.176931907652 0.266165548200 0.723013869122 0.000664362941 -0.074326354124 -0.367735312452 0.006812788685 -1.027782441792 -0.931641556699 -0.677736011993 -2.026795484519 -4.481259386874 -3.866482124552 -1.251934564461 -2.206239235086 2.329762892594 2.428754213654 4.147507974137 2.523905977340 -0.828627335428 -2.408278792888 -1.140432832453 -2.592398992528 -0.516461439292 -0.225042281579 -0.693083092295 0.043162472649 0.059478549050 0.539972461497 0.800401172368 0.996622819570 0.625766674871 0.675847777379 0.795515647508 -0.867085507349 0.033822376752 -0.869140105313 -1.220224665141 -1.560992952253 -2.853390713854 -1.989733750057 0.067912129379 1.044039423607 2.141986043954 -0.753014316862 0.764753377181 -0.059653422050 -0.649477071073 -2.050570985414 -2.217982314960 -1.627077377773 -0.588767038284 -0.752548246966 -0.550748452244 0.038833812345 -1.220208138042 -0.978801035106 0.493890018472 0.684906783573 -0.450624365658 -0.568908846999 -0.036238469133 -0.305468839050 -0.685686511580 -2.144611187039 -2.607700165274 -2.173060394546 -1.585875790495 -1.420992927434 0.476218560762 1.705147194741 -0.948492773634 -0.056250777476 -0.832433951321 -1.195814678094 0.682612934789 -1.431007127063 -1.345477275297 -0.856409546537 -1.253975538577 -0.590041951401 -0.096962375212 0.673500331473 -0.452115932980 -0.476363075781 -0.721051257259 0.123880830230 0.580731772459 -0.442659954139 0.242911905246 -0.601925064747 -1.394384888502 -0.774886851333 -2.344061207247 -1.986459255148 -2.962150924645 -2.721427500722 -1.584868143535 -0.384498799489 2.144185700659 2.169459686227 -0.422905067719 -2.037697414762 -1.099281477974 -2.290917880046 -1.226928850989 -1.142471883783 0.027069954129 0.143541888864 -0.535290176538 0.058216042610 -0.407299973161 0.841817925909 0.891153912698 0.379504869391 -0.544982478499 0.046580530092 -0.416656274713 -0.503351688655 -2.117057590995 -0.750618923347 -2.379409634103 -3.046565773805 -2.771905123302 -1.151642442973 0.086033522564 0.113253682999 2.904163772935 6.459720201491 2.013527510452 -1.914172743120 -3.617017079001 -2.375575213951 -2.086169309738 -1.510377471832 -0.480768664471 0.012204447179 -0.031353500238 0.699319791173 -1.128132663902 -0.561955150730 -0.915479748631 0.253046769124 0.130827506489 0.269491066456 -0.207304695325 -0.168135242592 -1.463771129863 -2.181698920608 -2.657074915466 -1.829414733739 -1.618449470305 0.194771006333 0.406423716859 -1.099164022671 2.768096270078 3.585914331491 3.082378069661 -1.758047578421 -3.457065699577 -2.902611853328 -0.520737603901 -2.594807894390 0.032586567279 0.050523921999 -0.585396967442 -0.170850398373 -0.390698874931 -1.056292036601 -0.497367322287 -0.295714868285 0.330250665894 -0.129111317005 -0.587412219555 -0.510627282129 -0.564045894232 -1.587827551871 -0.358102452297 -0.357122559711 -1.365404294034 -1.729489737029 -0.306807783118 -2.638776795945 -0.204076804159 0.368932400485 0.250656484878 -0.522480970684 -4.447826881718 -4.911531117661 -2.910222451291 -1.834737110743 0.219300262626 0.065547691865 -0.563949905360 -1.006394197296 -0.160933063794 -0.185179592762 0.398801112422 0.059302299458 0.012357427937 0.306782483758 0.021122374887 1.255758187709 0.149352169804 -0.702783161097 0.281938700677 -0.377268883386 0.768403192443 -1.484490278743 -1.268933115197 0.218870821711 -1.439784923820 -0.344336019852 1.009996661642 -0.024844388890 -3.037090527431 -3.932581654317 -1.644334631249 -2.132170302896 0.092297578151 0.800516546976 -0.159473543214 -0.302515127600 -0.354307682245 -0.721893898172 -0.511882157777 -0.997931439315 -0.121000225397 -0.321438224557 -0.092382348863 0.372220815792 0.545274270857 0.326807323297 -0.373283715737 1.442763884519 1.619844292029 -1.034022261763 -0.575657944374 0.269059286377 -4.027118118942 1.175272014398 -0.188137072917 -0.441312030866 -3.723556633454 -2.564502037430 -2.330915095122 -0.345076071299 -0.120012234098 0.301895446161 0.875221444111 0.608607862530 0.566007515238 -0.619390172002 0.461223453212 -0.682510550355 0.605288769361 -0.587252906269 0.224189837357 0.987634082917 1.147904111391 1.072694086979 0.158256926532 1.179504063970 -0.391334107998 -1.321100150528 -5.086415100212 -1.628107265041 -3.450551003103 2.318231279147 0.970424177987 0.104210787821 -4.010105506618 -2.005882544375 -2.231851583171 -0.241803533062 0.159071134096 0.906560616792 -0.012810720957 0.050666757136 -0.061953641520 -0.584280214005 0.850442240186 -0.401061423556 0.074658893895 0.922922257965 0.335995708861 -0.684134756000 -0.407467792803 0.425669111590 -1.374042450336 -0.315444266271 -0.498708440608 -2.625133652410 -2.843819238363 0.071276445424 -2.263590704149 2.022750049749 -0.841716783444 1.078017506758 -3.389823752413 -2.200479938160 -2.436497484483 -0.832188128178 0.449218113615 0.360954571363 -1.556725485904 -0.458739497744 0.689988916510 -0.471461016279 -0.819331236002 0.887737169158 0.979152863335 -0.612354621345 -0.013584729233 0.480392296116 -0.814818801021 0.962274354225 0.106233696735 -1.933967335354 0.279185716033 -3.020616814800 -2.938171696924 -2.802915921831 -1.777899136760 3.284324830122 -2.093849751047 -1.647814124120 -2.809298104701 -2.440490098254 -2.717998757367 -0.908107945564 -0.143058202716 0.054650260374 -0.357239667644 -1.197531617650 0.323211590433 -0.433316329882 -0.905863682311 0.254743665655 0.182101248377 0.001359600104 0.158369599550 -0.768524486209 0.760065771887 -0.767757790275 -1.422106919785 -0.413225488054 -0.509699708161 -2.718165090851 -3.337850504809 -2.272978824916 -0.781718413711 3.175925313285 0.416037208626 -2.281116140795 -3.732955505364 -2.444754102129 -2.304381935483 -1.030875013163 0.365935978100 -0.032158242751 0.190259706735 -0.807978283334 0.456065622856 -0.665588358138 -0.776586841580 0.599047326912 -0.801173393186 -0.732423448077 -0.838603365478 -0.117762005284 -0.689951766813 -0.034179779188 -1.671932203336 -1.214526556871 -0.514627981923 -2.268560443080 -3.659541537042 -1.311606266105 -0.340676803950 4.202628665498 2.889432201850 -1.580582750214 -1.984454288300 -2.798225096648 -0.599584804939 1.372138718918 2.032077440603 -0.485411440162 -0.891980695295 -0.081629588815 -0.344204558448 0.775223947478 0.821129007217 0.844203572812 -0.719066005761 0.245487677494 1.362553402283 -0.297118140652 -1.274645453494 -0.485635485249 -1.598398541047 -1.519519662975 -0.351260645166 -2.445575064944 -3.142786949743 -2.952395120298 0.327846218573 2.748308216108 2.018182280204 1.257933108709 -2.513592081153 -1.496187479836 0.256302204526 1.280978623533 0.471817337033 -0.996603429927 0.215755790382 0.574546412081 0.165307525850 0.720609921608 0.675495107331 0.926890711682 -0.808862196519 0.691299289741 1.460594694557 -0.173025259995 -0.472908799306 0.237154543392 0.802535226777 0.482442135319 -0.073718039328 -1.552842596598 -0.021955318936 0.384132136754 1.327698357481 1.170022013997 0.855584488558 2.676219408220 -1.795291957627 -0.357118782718 2.301258104160 0.103314566463 -1.538075169561 -0.603116556352 -0.489143179642 0.075247765991 -0.417545390421 0.397026098127 -0.667300624894 0.421317466122 -0.034532493238 0.055176986359 -0.191887355603 -0.631348853390 0.312124270199 -0.332609348474 -0.730314369647 0.609448943615 -0.320426626634 0.162008297114 1.915219910820 0.800969280298 -0.206684139233 0.540311811404 2.772837603728 0.729561910324 -0.540199670130 0.315520223726 1.031186820055 0.313487087381 -0.165846287813 -0.784618393864 -1.419449516805 -0.946817648550 0.813499575159 0.298780512205 -0.348214223532 -0.475281490953 -0.317851299522 -0.091269417047 0.064426963639 -0.405461792829 0.863574612572 -0.270756803841 -0.724800705178 0.218955901008 1.009093830307 -1.802662396006 -0.867694935360 1.123952092326 -0.865436568157 -1.659600357975 -0.263883517249 0.056144927006 -0.500130219396 1.591304054936 0.086009848846 0.292871550169 -0.548789067796 -0.815404876035 -0.456543600911 -0.381057410407 -0.257596983710 -0.282024378015 -0.116178933235 0.028261107284 -0.250396005998 0.385345849342 -0.729523471523 -0.849581785930 0.795452554822 -0.687446780529 -1.022088848910 -0.691776067525 -2.450957869206 -3.577739493509 -3.578652046457 -0.588744902253 0.591264150101 -0.277252190343 0.196446956907 -0.873257874978 0.703370991968 -0.129564262711 -0.490111883585 -0.677944076473 0.140529957882 -0.856373742894 -1.050409794521 0.287479418584 -0.602053676595 -0.087515703902 0.556476912063 -0.894135752638 0.255523430912 -0.009392336446 -0.075014672538 -0.919444718355 0.341444303420 1.170163771759 0.311939217282 -0.816270699047 0.626804820892 0.648007535668 -1.496116186124 -2.174583809031 -1.699545784323 -0.504146519516 -1.105103264201 -3.101078581001 0.175183928775 0.288336109656 -0.339628047603 0.956743420272 0.421604769160 -0.400652144255 -0.901028424396 0.221235703707 0.883673111407 0.663055543948 0.011072218990 -0.294818315414 -0.253082839230 -0.305819754274 -0.361901894140 -0.171998046942 0.515261182319 0.715751661141 0.919972804205 -0.059228666118 -0.010636429950 -0.012220853857 -0.908792005675 -1.332567856296 -1.014357857736 -1.652000073344 -2.167852576819 -1.050116492498 -0.730085264718 -0.122542121714 0.261004337736 0.688769288127 0.508908986815 0.066838736916 0.278910602867 0.033366352546 -0.983057090950 -0.685107996884 0.786586817416 0.030833362534 -0.330398010857 0.512520425197 0.962549952132 -0.865375495735 -0.611603445124 0.586468990923 -0.206963308061 -0.286898888095 -0.381442180830 -0.002917800944 -0.617599626761 -1.497380724185 0.372368871031 0.447314464723 -0.687681935752 -0.297011517254 -0.891764048738 -0.681031729680 0.506049660063 0.265423984878 0.464525804818 0.399019704185 -0.172123432830 -0.103002473521 -0.324914382019 -0.575728400266 0.847527035179 0.692596989662 -0.885370800229 -0.935720666482 -0.990591123241 -0.298433663790 0.726266567867 0.656105942370 0.837022044114 -0.695439131498 0.058873007907 -0.133205339634 -0.348882737026 0.527356717502 -0.391953442413 -0.387307614507 -0.313493174772 0.060238104599 -0.682078874807 0.083273386724 -0.034726101147 0.916568564495 -0.351759484210 0.186489767142 -0.510934756082 -0.157687982573 0.523352186943 -0.334035612620 -0.098090333927
