layer
0.153481 -0.940437 0.700860 -0.538909 0.811845 -0.375224 -0.065327 0.919412 0.735837 -0.562426 0.409562 -0.103173 -0.819064 0.024489 -0.347498 0.730508 0.491075 -0.269468 0.497930 0.013544 -0.213192 -0.493506 0.621546 0.539668 0.591431 -0.647406 0.208282 -0.322463 0.842088 -0.314855 0.297557 -0.595279 0.792810 0.629933 0.657110 0.304748 0.547846 0.439967 0.705448 0.939428 -0.087594 -0.370386 0.299667 -0.886858 -1.053301 -0.901828 0.260193 0.116462 0.020585 0.801556 -0.428909 0.262496 -0.041622 0.349246 -0.038554 -0.679446 -0.937396 0.889749 0.549846 0.868140 -0.536734 -0.799803 0.438531 0.411964 -0.519831 0.191817 -0.691552 -0.530581 0.697157 -0.075762 -0.811885 -0.060577 -1.111622 0.023230 0.114477 -0.292857 0.431697 -0.508115 -0.408444 -0.008471 0.549928 0.271491 0.535792 0.668697 0.335443 -0.738271 -0.572118 -0.229132 0.682148 -0.928349 -0.037278 0.204770 -0.554742 -0.348185 -0.079553 0.751296 0.823069 -0.597317 -1.078892 -1.022307 -0.055815 0.257717 -1.224717 -1.017827 -0.788856 -0.707694 -0.795923 -0.616575 -1.127648 -0.231746 -0.901673 -0.414477 -0.596714 0.960327 -0.450973 -0.313105 0.287667 0.297206 0.663209 -0.002679 1.104969 0.270936 0.705211 1.700684 0.542663 0.586424 0.522991 1.536791 0.285213 -0.411947 0.668649 -0.335733 -0.475981 -0.409194 -1.336808 0.253218 -1.080633 -0.548271 -0.143164 -0.554678 -0.753810 0.758469 0.619867 -0.514435 0.095647 -0.925355 0.852130 0.119729 1.588985 0.483822 0.338708 0.487362 0.940605 1.190936 0.481811 0.781952 1.187868 1.448360 -0.009960 1.001214 -0.625634 -1.009918 -0.553241 -0.563918 0.598915 -0.569964 -0.366547 -0.093214 0.858815 -0.952111 -0.974047 -0.733619 -0.371699 0.324800 -0.031244 0.224191 0.346590 0.968824 -0.324471 0.837687 -0.311477 1.086124 -0.156400 -0.137131 0.199584 0.658659 0.610422 0.059787 0.473083 -0.354270 -0.422486 0.543968 0.134062 0.869936 1.075649 0.524520 0.585832 -0.208837 0.341075 -0.914990 0.595601 -0.496627 -0.245814 0.700282 0.594083 0.891808 1.446408 0.456028 0.807327 1.430576 -0.509654 0.069713 -0.945046 0.390451 -0.218269 0.464839 -0.301642 0.531797 -0.451661 -0.623557 1.188263 0.254228 -0.638048 -0.916191 -0.406474 -0.348718 -0.974187 -0.540951 -0.773215 -0.952272 0.651011 0.440001 0.228957 -0.232602 0.866153 0.620726 1.095966 0.367022 1.017955 0.737666 0.406285 0.288055 -0.031328 1.052666 0.842329 0.815922 -0.716467 1.149399 -0.087726 -0.411103 -0.298448 -0.246051 0.526792 -0.945852 0.144338 -0.656306 0.625321 0.508137 -0.832504 0.357783 0.974060 0.171526 0.293550 0.656065 0.311745 0.153043 1.129609 0.711987 -0.223488 0.622056 1.036756 1.391889 1.008023 1.025062 1.507123 0.589494 1.192988 0.560855 -0.272505 -0.077431 -0.003494 0.181860 -0.222469 -0.813676 0.431302 0.684777 0.794142 0.700676 -0.136552 1.374022 -0.056687 0.197249 -0.614140 1.231861 0.499561 0.473783 0.364495 0.545799 0.076869 0.597950 0.789555 1.270757 1.538538 1.472930 1.011856 1.898749 0.878476 -0.653809 0.935527 -0.837015 -0.273895 0.750443 0.219016 0.475578 0.383626 0.050084 -0.145896 -0.276291 -1.199514 -0.857890 -0.597543 -0.821102 -0.360923 0.408255 -0.372462 -0.283149 0.535038 -0.485294 0.137065 0.160165 0.715952 1.791673 1.363250 0.675101 0.895782 0.665214 0.420524 -0.479879 0.619396 -0.986883 -0.716830 -1.305007 0.415598 0.429016 -1.002280 -0.597843 -0.433815 -0.862505 -0.891111 -0.925742 -0.001644 1.509328 -0.276165 -0.479074 0.705668 -0.183415 -0.283018 -0.105020 0.190331 -0.309246 1.452948 1.540999 0.936843 -0.696868 -0.208984 0.002576 0.795696 -0.920967 -0.240765 -0.405936 0.399217 -0.888529 -0.660112 -0.442840 0.047225 -0.213250 0.759268 -0.136709 0.098379 1.283240 -0.323701 -0.624469 -0.313490 -1.058058 -1.085385 -0.022171 -0.615599 -0.260488 1.416082 1.281587 -0.742616 -0.014093 0.834566 0.170342 0.492691 0.101412 -0.385247 -0.598057 0.600741 -0.034435 -0.131342 -0.839596 -1.556879 -0.139479 -0.721698 -1.036940 -0.347618 1.230210 -1.062052 -0.803435 -0.343892 -1.282518 -0.365931 -1.394802 -0.273486 -1.172907 -0.349294 1.115921 0.212589 -0.500740 0.851900 0.384946 -0.129937 0.111085 0.257950 0.603058 0.036331 -1.336124 -1.102268 -0.225134 -1.023565 0.088389 -0.171344 0.499538 -0.314435 0.972983 -0.092374 0.606583 -0.893309 -0.936145 -0.782506 -0.349073 0.219855 -0.225119 0.473032 -0.717035 -0.605621 0.573676 -0.288719 -0.597955 -0.227592 -0.668829 -0.783950 -0.344930 0.153254 -0.331285 -1.717795 -1.361309 0.058335 -0.552301 -1.847720 -0.485113 -0.443038 2.387353 0.784841 -0.341200 -0.700058 0.295674 -0.838561 0.312324 -0.386877 -0.510778 0.658578 1.178357 0.053490 0.738177 0.208345 0.386519 -0.850625 -0.234144 0.077671 0.397774 1.153540 -0.350058 -0.590205 -0.027970 -0.677532 -1.164931 0.072363 -1.138330 -0.459045 -0.028075 -0.520164 -1.200165 -0.503974 -0.568578 -0.531255 0.561000 0.257021 -1.290704 -0.073630 0.520867 -0.286699 -0.242433 -0.172510 -0.538545 0.989557 0.215154 0.078493 0.369256 0.026151 1.572633 0.039351 -0.242772 0.422129 -0.274710 -0.816975 -0.238855 0.183837 0.277666 0.133880 -0.799650 -0.488976 -0.590070 0.468137 -0.106492 0.428938 0.839342 1.149616 0.377501 1.137599 0.746255 0.842534 -0.713770 0.582498 -0.862430 0.845978 0.044333 0.771470 0.815711 0.846601 0.568230 -0.872086 0.003379 -0.960158 0.137322 -0.534934 0.003120 0.103493 -0.523294 -0.452573 0.349672 0.540850 -0.658670 0.404537 1.458207 -0.254859 0.541514 -0.300374 -0.467727 -0.031710 -0.870834 0.449251 0.547018 -0.284899 0.515924 0.482140 0.570737 0.251394 1.225487 0.695904 0.627930 1.751390 0.608410 0.808868 0.440933 -0.190023 -0.766881 0.282673 0.185993 -0.087083 -0.731791 1.142748 -0.048351 -0.480017 -1.041375 -0.695477 0.741951 -0.027133 0.423504 0.805838 0.878400 -0.252337 -0.603143 0.165220 0.840839 1.494426 0.120180 0.830758 0.667905 1.154243 -0.182123 -0.897668 0.398785 0.218030 -1.192107 -0.936363 -0.481380 0.416489 -0.136598 0.055088 0.670669 -0.369273 0.506738 -0.295651 -0.814540 0.314474 -0.469965 -0.554577 0.263934 0.161409 0.003101 0.414081 0.743820 0.803964 1.210337 0.561314 -0.899553 0.352525 -0.308365 0.843996 -0.180115 0.301920 -1.084393 0.318717 -0.149526 0.469077 -0.118766 0.246535 1.052541 0.764208 0.498322 -0.997190 -0.123288 0.210418 -0.593828 0.249001 1.011399 -0.797057 -0.029866 0.656610 0.346873 0.677002 0.435650 -0.054028 -0.121709 0.026252 0.212805 -0.065936 -1.266649 0.510068 0.499657 -1.278288 -0.371914 -1.121794 -0.784596 -1.309529 -0.397259 -0.017138 -0.804689 -0.580859 -0.339327 0.031562 -0.327001 0.094904 -0.332029 0.546994 0.936700 0.747073 0.880913 0.647026 0.467561 1.405629 -0.737690 0.365404 0.632723 -0.535920 0.393946 -1.094028 -1.223756 -0.563001 -1.254828 0.180526 0.066870 0.132523 -0.324486 -0.483993 -0.529072 -0.152817 -0.317911 0.390347 0.666714 -0.870396 -0.091122 0.312987 0.867576 -0.451405 0.900019 0.401100 1.111636 0.819374 -0.011382 0.380663 -0.346731 0.480258 -0.039549 -0.621937 0.594021 -0.310139 0.229479 -0.240789 -0.447335 -0.783977 0.721562 0.272775 1.083826 -0.102745 -0.186798 -0.870003 -0.194951 0.278648 0.864117 -0.773384 -0.799924 -0.092667 0.654160 -0.685216 0.305939 -0.539254 0.476185 -0.229736 -0.583035 0.242147 0.295346 0.353911 0.052858 0.465742 -0.819940 -0.938251 -0.230791 -1.032334 -0.626788 -0.386072 0.874822 -0.615471 -0.947702 -0.430262 -0.000513 -0.613537 -0.097166 0.318413 -0.306518 0.388111 -0.541313 -0.090786 -0.751094 0.247850 -0.767352 -0.533151 0.666396 0.357735 0.116469 0.892854 -0.862173 -0.896848 -0.710335 0.747076 0.799220 0.442651 -0.964313 -0.907006 -0.201714 -0.295647 0.203659 0.715664
0.249573 -0.081170 0.461266 0.174744 0.481310 -0.261792 0.615441 -0.275539 -0.143930 -0.371377 -0.863633 0.232639 0.966913 -0.230028 -0.156761 0.889232 0.426127 -0.763242 0.757107 -0.777955 -0.752587 0.865204 -0.988490 0.675670 0.026400 0.699225 0.990950 0.854270 -0.910531 0.155548 0.120279 0.569851 0.741908 -0.585815 0.930549 -0.138701 0.177102 -0.057297 -0.101192 -0.120104 0.713712 -0.850235 -0.969718 0.237621 -0.669666 1.086767 0.639798 0.675846 -0.103004 -0.848100 0.481441 0.929962 -0.628099 0.453180 0.967436 0.608059 0.483887 0.165932 -0.433353 -0.085021 0.812120 -0.246626 0.825707 0.281130 0.340203 -0.813814 -0.765911 0.835523 0.385777 -0.216664 0.688252 0.437365 0.268586 0.515878 -0.478563 -1.000262 0.771914 0.753202 -0.131451 0.529098 -0.280696 0.779158 0.200112 0.400275 0.822685 0.735409 0.790920 0.537781 -0.925038 0.689646 -0.590760 -0.796125 -1.008631 0.184785 0.776263 0.414415 0.200691 0.932939 0.674499 -1.347350 -0.807732 0.199501 -0.234764 0.506779 0.699973 -0.237756 0.680284 -0.062779 -0.619290 -0.186706 0.237718 0.409613 0.660491 -0.365173 0.337754 -0.220926 -0.305607 -0.677923 -0.554503 0.133498 0.273900 -0.685608 0.598509 0.847355 0.215364 0.700136 0.030208 -2.647653 -1.093183 -1.802100 -0.606345 -0.275375 -1.102128 0.222194 -0.381635 0.856666 0.668086 0.236669 0.388479 0.797719 0.790465 0.917200 0.653035 0.531661 -0.848871 1.031337 0.542510 0.859211 -0.533004 0.675759 0.798295 -0.786774 0.746984 0.712197 1.095977 0.108295 -0.968687 -1.866813 -2.569796 -1.934659 -1.922298 -2.240824 -1.257683 0.345719 -0.003818 -0.594787 0.759305 0.801866 0.782657 -0.771572 -0.461033 0.059663 -0.259857 0.410791 -0.425916 -0.102840 0.133008 0.567495 -0.841522 0.132146 0.947486 0.211251 1.698011 1.411917 -0.514715 -1.740305 0.167046 -1.549842 -0.980878 -0.974919 -0.233547 -1.019781 -1.046612 -0.399967 0.715853 0.548477 0.882314 0.829897 -0.491904 -0.851348 1.333152 1.149933 -0.142281 0.594358 0.300462 -0.725720 1.276411 0.927196 1.143084 0.072082 1.578735 1.196529 -0.016661 0.612487 0.084353 -0.976365 -0.791747 -0.371825 -1.086901 -1.110487 -1.239834 -1.072912 -0.445312 -1.004668 -0.462425 -0.890909 -0.822213 0.278165 0.609975 1.027634 -0.979444 0.177384 0.153283 0.720994 -0.234918 0.636319 -0.461587 1.196654 0.830490 0.755232 1.608710 1.361033 0.557658 0.825185 -0.076497 0.119099 -0.436943 -0.054470 0.263584 -0.969058 0.402442 -0.322133 -0.970367 -0.755129 -0.773721 -0.461573 0.089299 0.882994 -0.449635 0.328616 0.733211 -0.731704 -0.058454 0.481862 -0.816995 0.574782 2.058294 2.972535 1.472205 0.534364 0.467755 0.655856 -0.115369 -0.447779 0.327452 0.492912 -1.429230 -0.187339 -0.195994 0.319474 0.666038 -0.175652 -0.388120 0.395556 0.023551 -0.565684 0.737740 1.051680 -0.363475 -1.471038 0.688367 0.636147 -0.602221 0.870993 2.793281 2.824460 0.959052 0.912257 0.302520 -2.039434 0.477779 1.030134 0.788642 -0.080328 -0.280793 0.338657 -0.476691 -0.584326 0.053559 0.989882 0.789587 -0.690371 0.862840 0.695705 0.258070 1.213179 0.915205 -0.083536 0.743951 -0.630685 0.977592 0.435775 1.240364 1.388865 0.335202 0.310234 -0.166839 0.280021 1.443670 0.098814 -0.538679 0.954697 0.454087 0.491077 0.622232 -0.909894 0.127816 -0.779872 -0.272872 0.162266 0.694802 0.880043 1.371526 0.921283 0.275501 0.585730 -0.136252 -1.425203 -0.255373 -1.226639 -0.037839 -0.144878 0.787843 0.197058 0.435122 0.273187 -0.308061 -0.162368 0.335663 -0.836809 -0.463502 -1.401891 -0.376386 -0.917158 -0.015965 -0.598983 0.692285 0.369168 0.960489 1.544394 -0.679154 -0.650063 -0.238121 0.043349 -1.069332 -1.918849 -1.916272 -1.263544 -0.238719 1.113628 -0.044228 0.593841 -0.499622 -0.368962 -0.261626 -0.526313 -0.041306 -0.139591 -0.544430 0.302989 -0.539392 0.730558 -0.250367 -0.366493 0.146394 0.721998 -0.368281 0.056728 -1.498677 0.106888 -1.021494 -0.319477 -0.202820 -1.190947 -1.157444 -0.171117 0.104036 -0.262625 0.846748 0.477072 -1.884224 -0.624916 -0.325473 0.585304 -0.197438 -0.879266 0.413883 -0.156986 -0.107042 -0.035289 -0.810461 -0.604107 0.018958 -0.482149 0.586305 -0.367738 0.175728 -1.197637 -1.528318 0.247280 0.373057 -1.579622 -0.489765 -0.384899 -0.662163 0.057243 -0.673276 -0.388985 0.930922 0.078385 0.558127 0.658812 -0.022224 -0.889286 -0.030066 -0.143519 0.100154 0.690371 -0.623710 0.983005 0.043704 -0.910018 -0.685065 0.607159 0.372817 -0.181442 -0.266726 -0.410758 0.203584 -0.470069 0.541978 -1.005876 -0.474303 -1.619986 -1.469268 0.489499 0.818014 -0.195132 -0.497555 0.539166 -0.670560 0.421469 0.105266 -0.546486 -0.463470 0.578604 0.246307 0.568527 0.906846 0.203327 0.255524 0.824304 0.246355 -0.829460 0.498847 -0.893814 -0.447614 1.027470 -0.274917 0.274739 -0.686721 -0.416175 -0.998124 -0.447332 0.604145 -0.646183 0.119429 0.524224 0.556091 0.307648 0.245652 0.259997 0.669950 -0.518591 0.748197 0.216800 0.672496 0.400662 0.314559 0.615013 0.131332 0.361549 0.272185 0.466880 -0.421767 0.288846 -0.081945 -1.676586 -1.275966 -0.888892 -0.003088 1.012213 0.925588 -0.408580 0.292997 0.103886 0.363624 1.554781 1.031079 0.503439 0.566595 0.489472 0.830642 -0.872993 -0.921300 0.621307 -0.855323 -0.201067 -0.227215 0.093868 -0.399763 0.150069 -0.946918 1.455815 -0.304053 0.356526 -0.513609 -0.783975 -1.935598 -0.624396 0.229006 -0.001950 -0.262471 0.440765 -0.103050 -0.210450 0.397303 0.526218 -0.541185 -0.636808 -0.471724 -0.478085 -0.280893 0.144178 -0.392809 0.477188 -0.951488 -0.761723 -0.613885 -0.237072 -0.081540 -0.623767 -1.477221 -1.162111 0.476001 -0.059773 -0.172758 -0.818435 -0.374612 -1.154663 0.090093 -0.071721 -1.051868 -0.755022 0.996907 0.464209 -0.600878 0.642144 -0.897171 0.184744 0.414009 -0.593718 -0.837452 -0.747887 -1.137456 -0.880542 0.008932 -0.573972 -0.454486 -1.511125 -1.934483 -0.328937 0.112495 -1.776631 -1.545018 -1.722005 -0.464418 -0.952557 -1.175638 -0.520902 -0.021738 -0.211335 -0.408676 0.520556 0.721765 -0.335077 0.322475 -0.662304 0.498187 -0.517044 0.921133 0.176034 -0.963930 0.189766 -0.230773 -0.951073 -0.924122 0.124404 -1.474727 -0.277853 0.076627 0.113835 -0.044462 0.142089 -0.265928 0.300424 -0.667778 -1.248822 0.210362 0.307079 0.648705 0.795363 -0.290090 0.134412 -0.470412 -0.411325 -0.098559 -0.624940 0.868893 -0.455350 0.015421 0.568705 0.978268 -0.374841 -0.201457 0.052414 0.519807 0.514915 1.028602 -0.407690 1.348289 -0.199265 -0.352639 0.626453 -0.046527 0.672965 -0.673383 0.435456 -0.248565 -0.487186 -0.174384 0.323736 0.280882 0.120674 0.044204 -0.932824 0.222150 -0.578083 1.189741 1.446999 0.456931 1.361870 1.039697 1.133276 1.568817 -0.677268 0.252004 -0.045731 -0.691722 0.082068 -0.089206 -0.065711 0.564721 0.251491 0.195942 0.212380 -0.362479 -0.464846 0.604502 0.525301 0.696834 -0.249614 -0.831679 -0.398733 -0.443303 -0.184209 -0.664821 1.310252 1.189447 1.170029 0.973392 1.563611 1.172812 0.671514 0.728066 0.179961 0.130650 1.207393 1.971903 0.741308 0.485847 0.928845 -0.086538 0.110699 0.894443 0.347110 0.786267 -0.982014 0.538690 -0.125861 -0.173946 0.134550 -0.906337 0.483282 -0.720995 0.372917 1.310526 0.421594 0.285581 0.685478 -0.827236 0.399257 0.112288 0.578618 0.619553 -0.301542 0.232423 1.119054 0.192984 0.134794 0.468370 -0.390767 0.767481 0.820735 -0.623470 -0.350623 0.521307 -0.196884 -0.919700 0.319381 -0.758192 -0.647157 -0.233168 0.215749 0.148903 0.963719 0.126159 -0.364664 -0.141452 0.890298 0.666540 -0.474367 -0.392151 0.200519 0.857574 -0.450824 0.283082 -0.818475 -0.034061 1.019470 0.468102 0.910789 -0.888575 0.404382 0.898145
-0.170394 0.534157 -0.245582 0.370637 -0.594250 -0.437114 -0.774172 0.479133 -0.446403 -0.478572 -0.984634 -0.713560 0.153836 0.223349 -0.723506 0.931418 0.584071 -0.912101 0.293225 0.141284 -0.437773 0.317547 0.051100 0.537234 0.103292 -0.138097 -0.568925 -0.294397 0.598259 -0.684733 0.703926 -0.272941 0.048256 0.100638 -0.683403 -0.945164 -0.810756 0.454435 0.555919 0.683532 -0.357084 -0.336720 -0.352527 -0.958884 -0.738088 -0.007000 0.195042 0.064220 -0.139753 -0.648509 -0.547702 0.036430 0.911991 0.755335 0.437581 0.803401 0.099814 0.395390 0.324211 0.058097 0.237330 0.592205 -0.728500 -0.609323 -0.077927 -0.276413 -0.074916 0.908807 -0.808120 0.334262 -0.753452 -0.966040 0.683895 1.051459 -0.702168 -0.094700 -0.699985 -0.674692 0.732263 0.299786 0.576338 0.792444 -0.297284 -0.956277 -0.745587 -0.207780 0.193624 -0.522668 0.658250 -0.591769 -0.109458 -0.795240 -0.319751 -0.375481 0.934688 0.004948 -0.869477 -1.036067 -0.130152 -0.738728 0.373886 -0.846657 -1.230275 -0.889666 -0.813830 0.415974 -0.788413 0.549513 -0.721704 0.289405 0.525529 0.046910 0.269843 0.724258 0.466230 -0.038933 0.828974 0.774742 0.191448 0.533859 -0.611793 -0.402265 0.009883 -0.154259 -0.666542 -0.574962 -1.004201 -0.070106 -1.282937 -0.950121 -1.694371 -1.668703 -0.156811 -0.089453 0.569658 0.006061 -0.035928 -0.408816 -0.160037 -0.306145 -0.377915 0.701274 -0.458753 -0.466432 -0.514898 -0.858778 -1.019128 0.179023 -0.437572 -0.965373 -0.553737 -0.984488 0.178746 -1.253602 0.860702 0.258140 -0.229607 -0.364483 0.918857 0.664545 1.237496 -0.457069 0.533412 -0.400386 -0.381324 0.521383 0.599505 -0.289328 -0.812102 -0.211061 0.460787 0.739781 -0.199184 -0.561643 -1.197446 -1.113315 -0.012138 -0.049408 -1.401146 -0.936751 0.087145 -0.074764 0.055611 0.208383 1.386887 2.299113 0.040215 1.282971 0.384235 0.461537 0.340741 -0.682672 -0.007648 -1.427914 -0.130447 -0.128820 -0.714219 -0.775023 0.824321 -0.772437 0.314894 -1.155924 -0.367330 -0.491301 -0.548537 -1.918342 -0.725795 -0.655006 -0.319118 0.544427 1.836117 1.127636 2.537526 1.408005 1.343585 1.522338 0.959047 1.119986 0.960311 0.170047 0.904018 -0.889933 0.523401 -0.603566 0.885123 0.300643 -0.670782 0.357510 -0.779368 -1.200801 0.158762 -0.477384 -0.734972 -0.432571 -1.062214 -0.541192 0.206633 0.896641 0.992279 -0.682425 1.015660 0.798390 1.129935 1.585764 1.313934 -0.079620 -0.079251 0.344558 0.603915 0.345734 0.507346 0.521965 0.633436 0.312291 -0.860443 -0.898345 0.158117 -0.772053 0.289702 -0.558837 -0.007591 -1.183598 0.355855 1.075299 -0.244693 -0.424266 -0.112649 0.077758 -1.656996 -0.852729 -1.069060 0.811936 0.127604 -0.078390 0.933810 0.104416 0.033900 0.843939 -0.887105 0.055998 0.183932 0.998657 0.604464 0.864872 0.156681 -0.079444 -1.444328 -1.039493 -0.217457 0.989797 1.162521 0.548198 0.279041 -0.971292 -0.670743 -0.700780 -0.578107 -1.532130 -1.503410 -0.997669 -1.412823 -0.152047 0.364252 0.746821 0.370166 -0.383036 -0.580170 0.711862 0.038639 0.178942 -0.293636 0.646711 -1.089320 -0.705527 0.187038 -0.908523 0.669837 0.071212 0.300211 0.382352 0.592893 0.192706 0.656269 0.771920 0.459947 -0.027970 -0.330358 0.137980 -0.169544 -0.145769 0.478476 0.329662 1.004538 1.024957 0.850372 0.246236 0.049518 -0.738573 -0.757415 0.695424 0.789291 0.661192 -0.326519 -0.845555 -1.172145 -1.021650 -0.411366 -0.171585 0.404631 0.196712 -0.718151 0.865586 0.509040 0.546680 0.022858 1.430619 0.437628 1.640692 1.582804 0.030224 0.471831 0.152902 -0.592139 0.559974 -0.571518 0.635848 -0.210525 0.856595 0.907302 1.296671 1.041442 0.420529 -0.398665 -0.644948 0.513323 -0.695688 -0.004569 0.273595 -0.429376 -1.115491 -0.293042 -0.648102 -0.307033 -0.256356 0.386031 -0.497229 1.055214 0.186841 0.956709 -0.069121 -0.771453 0.886835 0.730811 -0.215889 -0.418200 -0.973214 -0.900890 -0.336515 0.303686 -0.332050 0.166703 -0.545195 -0.485640 -0.151120 -0.405800 -1.021269 -0.244870 0.428686 0.596545 0.597548 0.150559 -1.090320 -0.833767 1.537479 -0.918430 -0.359992 -1.187479 -0.405535 -0.899659 -0.398467 -0.107626 0.777868 -0.119134 -0.182846 -1.171209 -0.946982 1.431565 1.560770 0.232773 -1.161565 -1.782409 -1.142076 -0.329373 0.273597 -0.223069 -0.299903 0.375568 -0.225564 -0.361552 -0.606046 -0.470254 0.017764 -0.013016 0.095864 -0.099473 -0.848608 -0.491756 -0.009601 -0.705554 -0.825606 -0.195688 -0.881985 -0.154070 -1.250073 0.054726 0.420606 -0.898100 -0.287094 -1.016284 -0.270036 0.518005 0.600789 -1.173679 -0.319691 -0.154654 -1.138699 -0.453409 -0.945467 -0.627701 -0.796263 -0.730760 -0.201783 0.230139 0.189697 0.215390 0.808599 -0.163093 -0.152068 -0.357616 -0.404439 0.776369 -0.333781 -1.253883 -1.004785 -0.328384 0.035146 0.780995 0.725782 1.065619 -0.747194 -0.335523 -0.787185 -0.473099 -1.703601 -0.118170 0.654490 -0.864169 -0.141204 -0.138885 -1.181149 -1.020843 -0.139274 -0.896892 0.477569 -0.505390 -0.314681 -0.735032 0.378879 -0.342501 -1.031463 -0.630827 -0.346448 -0.441471 0.528826 0.545883 0.258457 -0.576213 -0.890797 -0.525208 -0.734526 0.298438 -0.289301 0.665178 -0.080867 -0.241897 0.507461 0.363581 0.053451 -0.506233 0.139693 0.420336 0.496488 -0.255828 0.229511 0.952193 -0.035974 0.579297 -1.005473 0.583292 -0.940657 0.070023 -0.148865 -0.441613 -0.428910 -0.367463 0.518712 -0.592711 -0.590975 0.173891 -0.395544 -0.658403 -0.506835 -0.209100 -0.404076 0.722078 -0.336340 0.485748 -0.835059 -0.126227 0.444046 0.652810 -0.663226 -0.115033 0.968094 0.244182 -1.219726 0.405112 0.155624 0.282584 -0.120979 -0.775608 -0.302215 -0.978324 0.741332 0.098621 0.725797 -0.359881 0.501214 -0.256956 -0.963364 -0.075740 0.929170 -0.716451 -0.902571 0.370776 0.394916 -0.827003 0.620809 0.717039 0.828940 0.035186 -0.122416 0.449723 0.058432 -0.134621 0.631792 -0.378815 0.251649 -0.581097 -0.055679 0.036970 0.603673 -1.289908 -0.527896 -0.532030 0.339566 0.669320 -0.292699 -0.456312 -0.993458 -0.359037 -0.587578 -0.210041 -0.850772 0.741174 0.723377 -0.038071 0.116270 -0.444560 -0.669249 -0.415804 -0.916542 0.669959 0.220015 -0.383325 0.207402 0.437367 0.237664 -0.555547 -0.477027 0.124020 -0.513770 -0.843567 -0.719795 -0.211894 -0.503573 -1.521484 0.411199 0.228071 -0.160688 0.372494 -0.547663 0.614206 0.702143 -0.369350 -0.284974 0.588160 0.697444 0.186353 -0.421620 0.263217 1.480689 0.425545 0.662780 -0.656822 -0.071644 0.466023 -0.076991 0.100522 0.720366 -0.118053 -0.346993 0.447998 0.633800 0.352264 -0.036832 0.611213 -0.088516 0.915665 -0.825853 0.526663 -0.391418 0.936668 -0.550171 -0.737322 0.695465 0.413898 0.259383 0.752825 0.432200 0.539050 0.169488 0.075993 -0.761778 -1.325789 -0.909765 0.065030 0.166676 0.788712 0.265708 -0.311671 -1.059369 0.707571 0.450009 0.438678 0.526420 0.640286 -0.734816 0.202734 0.601674 0.873742 0.699454 0.893685 0.107311 0.564086 0.994756 0.699724 -0.255311 -0.164936 0.451371 -0.579715 -0.438776 -0.176287 -0.346027 -0.874568 0.642364 1.175857 0.465693 0.112344 -1.536872 -0.073581 1.126353 0.756456 -0.139764 0.020176 -0.096213 -0.451195 0.415945 -0.658712 -0.575487 -0.073039 -0.382654 -0.340217 -0.286740 0.714607 0.810530 0.360238 0.453849 0.943007 0.270126 -0.359415 1.184546 -0.201423 0.806778 1.376065 1.017290 -0.050482 0.700147 -0.416461 -0.293301 -0.756124 0.940539 -0.502649 -0.327121 -0.082864 -0.242381 -0.362372 -0.724263 -0.362284 -0.533279 0.818862 -0.241214 -0.578746 -0.819276 0.372707 -0.005864 -0.991135 -0.944683 0.906427 -0.966454 -0.526311 -0.691546 -0.496866 -0.121654 -0.486618 -0.127443 0.843010 0.434186 -0.163602 0.387231 0.666693 0.318101 -0.535314 -0.509678 -0.846891
-0.566844 -0.970347 -0.453724 0.104424 0.490740 -0.283412 -0.944964 -0.194077 0.596839 -0.116744 -0.135529 -0.115122 0.914252 0.456471 -0.344286 0.983846 0.038888 -0.548579 0.340272 0.757966 0.825201 -0.561330 -0.977936 -0.075940 -0.863625 0.470260 -0.550342 0.582823 0.114983 0.252931 -0.431026 0.048101 -0.744579 0.777706 0.760001 -0.628744 -0.720429 0.942678 -0.212552 -0.100996 0.297218 -0.107366 -0.098163 0.351895 0.345588 0.857564 -0.727677 0.130415 0.126464 -0.975303 -0.628514 -0.318274 -0.373863 0.436782 -0.241937 -0.768053 -0.985543 0.698101 -0.915257 -0.649733 -0.966739 0.987919 -0.309298 0.267823 0.060535 0.724419 0.309561 0.954098 0.075469 0.473337 -0.157896 0.776283 0.911529 -0.409813 0.508160 -0.655996 -0.500873 0.340890 -0.865864 0.836108 0.289230 0.315646 0.822372 -0.180585 -0.285795 0.749985 -0.210430 0.536078 0.527002 0.737945 -0.787189 0.710642 0.589015 0.168648 -0.129865 0.505315 -0.141036 0.240093 -0.063725 -0.354086 0.416523 -0.299409 0.361638 -0.024368 0.732023 -0.048166 0.732779 -0.901671 -0.787708 0.673909 -0.260074 -0.345743 -0.576682 0.754679 -0.083467 -0.163020 0.967062 -0.910054 0.381455 -0.592991 1.048445 0.251782 -0.368438 0.571137 0.339211 0.042527 0.561387 0.198615 -0.115866 -1.822604 -2.389112 -0.209115 -0.510265 -0.825015 -0.638911 -0.565011 -0.056900 0.245742 -0.654784 -0.414484 -0.930953 -0.357569 -0.538163 -0.638780 0.506671 0.062382 -0.201345 -0.761181 1.084887 -0.003358 -0.350968 -0.358365 -0.037863 -1.421187 -0.859855 -0.027932 -0.513550 0.187810 -1.017152 -1.459857 -1.538640 -2.000327 -0.430524 -0.531286 -0.831149 0.232610 0.254950 -0.991928 -0.976666 -0.476217 0.941863 -0.384794 0.580110 0.733515 -0.440966 0.875337 0.155845 0.684951 0.206703 -0.978071 1.001564 0.206966 -0.136216 0.508098 0.883698 0.249278 -0.456716 0.229639 -0.389969 -0.681811 0.305010 0.219522 -1.009307 -0.219653 0.096509 -0.671573 0.435819 0.858597 0.686507 -0.788498 0.885362 -0.176216 0.340767 0.459432 0.575222 -0.452805 0.020899 -0.651091 0.457851 -0.695957 0.039984 -1.269216 0.688512 1.085877 -0.361158 -0.809295 -0.475125 -1.178181 -0.892834 0.258826 0.213302 -0.148689 -0.732697 -0.756843 -0.513924 -0.177976 -0.420125 -0.453610 0.162581 -0.204581 -0.307952 0.701321 0.190631 -0.275024 -0.902199 -0.434052 0.498065 -0.325366 -0.096305 0.227546 0.069316 0.340545 -1.133137 -1.214394 0.232808 0.345537 -0.111856 -1.215349 -0.042408 -1.002669 0.238931 -0.076828 -0.853690 -0.343261 0.127683 -0.167579 0.079551 -0.097255 1.403089 -0.504739 -0.240646 -0.168081 0.133588 -0.413835 -1.401435 0.722155 0.037048 1.805004 -0.142983 -0.368455 -0.334990 0.337438 -0.418332 -0.926779 -1.000891 0.917444 0.029551 0.092850 0.604738 0.281077 0.256872 0.412369 -0.746558 0.947609 0.083411 -0.691263 -0.063480 -0.846961 1.568379 -0.242574 0.678570 -0.454595 1.264860 0.880492 0.690111 0.503328 0.212347 -0.654885 -1.368670 -1.452665 -0.100343 -0.932798 0.541046 0.153483 0.144740 -0.342526 -0.114227 -0.997668 -0.893372 -0.910006 -0.845021 0.892918 0.340357 -0.443819 1.080612 0.897151 0.750563 0.937161 -0.562341 0.209240 -0.249264 -0.168641 -0.496180 -0.640872 -1.560948 -1.283919 -0.127327 0.403498 0.217860 0.152388 1.997397 1.178278 0.400641 -1.592191 -1.129447 -1.110858 -0.232000 0.415381 -0.920948 0.255237 0.716637 1.268849 1.443116 0.388887 -1.151506 0.390118 -0.725238 -0.205293 -0.150682 -1.352044 -1.704671 -1.644448 0.262847 -0.147692 0.376688 -1.347170 0.819466 0.401854 0.169531 -0.401717 -0.230493 -0.746851 0.645664 -0.612904 0.613066 0.890215 0.605643 -0.437732 0.986545 -0.046147 0.038943 -0.491523 0.831560 -0.694477 0.133457 -0.511049 -1.035055 -1.092498 -0.563218 -0.775313 -0.426965 0.480636 0.462177 0.061170 0.742264 0.251968 0.662331 0.102638 -0.253368 -1.111806 -1.000946 -0.058499 0.651421 0.982003 -0.927776 0.936201 -0.845044 -0.269170 -0.103159 0.440981 -0.923178 -0.267615 -0.884823 0.980225 -0.878396 -1.709446 0.122979 0.406977 0.190566 0.373931 0.458868 0.015266 1.443522 0.114246 -0.165436 -0.513092 0.276454 0.154832 0.533565 -0.198849 -0.198520 0.553209 0.496921 0.235616 0.162954 0.806514 -0.353500 0.437753 0.171421 -0.891165 -0.576297 -0.124348 -1.179967 -0.852119 0.554264 1.406810 0.394609 1.106272 0.832384 0.234752 -0.062716 0.481185 -0.691051 -1.055342 -0.613174 -1.144100 0.484039 0.851509 0.108291 0.926771 0.095900 -0.129894 -0.700306 0.701890 -0.348763 -0.265738 -0.188839 -0.960194 0.089019 -0.868646 -1.087615 -0.243478 -0.020042 0.663747 1.046064 0.884196 -0.978419 1.252427 0.509878 -0.189508 0.770209 0.268679 -1.571345 -1.080239 -0.886749 0.455378 0.321775 -0.736695 -0.751479 0.796775 -1.221322 -0.021235 0.250518 0.422836 -0.988163 -1.589343 -0.417573 -0.834761 -0.629814 -0.277763 1.028469 1.339254 0.466234 -0.074943 0.997983 0.308382 0.181939 -0.438935 0.257840 -1.389278 -0.036691 0.854296 0.133334 -0.707779 0.905046 -0.441497 0.190777 -0.970615 -1.291669 -0.165349 -0.306705 -0.351966 -1.150978 -0.772111 -0.467843 -1.217267 -0.224135 1.609994 1.181329 0.806594 0.518058 -0.035030 -0.147243 0.581315 -0.932912 -0.710960 -1.204150 -0.445558 -0.959093 0.687223 -0.004659 0.731364 0.687126 0.620620 0.948706 0.298758 -0.888659 0.247760 -0.926608 -1.118396 -0.428601 -0.819198 -0.606699 0.009719 -0.540772 2.001887 0.781883 1.326608 0.232818 0.680921 0.809505 0.252306 0.311419 0.617902 -0.498801 -0.839877 -0.124855 0.720803 0.408977 -0.371427 -0.644516 0.733740 0.271610 0.588631 -1.009894 -0.220755 -0.810579 -1.031564 -0.322191 -0.276276 -0.651917 -0.696699 -0.821762 0.345283 1.234531 0.108623 0.590780 0.432787 0.389513 0.735747 0.334888 0.370588 -1.280470 -0.227690 -0.289426 -0.126740 0.898003 -0.805557 -0.335659 0.290162 -0.638151 -0.328151 -1.113838 0.153262 -1.128352 -0.522530 -0.142131 -0.149461 -1.180857 0.429919 0.186925 -0.100215 0.175325 0.824081 -0.297393 0.393895 -0.184977 -0.578379 0.594048 -1.349261 0.095582 0.437970 -0.293123 0.673838 -0.524850 -0.028621 -0.603391 -0.380686 -0.336053 -0.867088 -0.109082 0.546754 0.468085 -0.350007 0.162298 -0.844282 0.113577 -0.946724 -0.524928 -0.182810 -0.495873 1.146736 -0.183076 0.278108 -0.830719 0.052845 0.227513 0.068043 0.291165 1.068920 -0.007072 1.064430 0.825093 0.595943 -0.814343 -0.713641 0.381914 -0.030142 0.774075 -1.079766 0.032913 0.622081 -0.244130 -0.061758 0.263324 0.472265 -0.478734 0.092195 -0.851174 -0.017963 -1.150937 0.036577 -0.363323 1.051513 0.822660 -0.327223 0.109499 0.953430 1.126445 -0.565513 -0.623204 0.287445 0.594265 -0.338874 0.839242 -0.827692 0.678612 -0.422772 -0.704762 0.671875 0.061180 0.905184 -0.413797 -0.856872 -0.988123 0.021255 -0.106084 0.418837 -0.316267 -0.187437 0.029032 0.626233 -0.552611 0.114591 0.909851 0.461170 1.431538 0.732855 -0.420113 0.015101 -0.382391 -0.783180 0.568435 -0.517183 -0.047793 0.158153 0.662860 -0.017188 0.566222 1.209206 -0.163533 0.048878 0.388221 0.482281 0.992245 1.030755 -0.011172 0.317799 -0.073191 -0.468786 0.059036 1.355189 0.703604 -0.538442 -0.409464 0.806325 -0.594650 0.846928 -0.101756 -0.398053 0.261559 0.852554 -0.686117 -0.610057 -0.957794 -0.169377 0.513218 1.304574 0.617476 0.269873 -0.334629 0.043912 0.510570 0.046431 0.344963 -0.324099 -0.806011 -0.528751 -0.254583 0.451931 -0.784893 0.663862 0.832201 -0.855986 0.343476 0.299751 0.302040 0.781262 0.774416 -0.080091 0.380229 -0.329871 -0.651206 0.850228 -0.438916 0.093121 0.017537 0.644412 0.815761 0.526533 0.270248 -0.792308 0.635962 0.137811 -0.599058 1.047295 0.095689 0.739041 -0.152275 -0.867893 0.850451 0.889785 0.644957 -0.409616 -0.793367
1.266336 0.840399 -0.467914 0.911269 0.858548 0.397686 0.446268 -0.854985 0.365539 0.247197 -0.758236 0.957042 -0.350714 0.538133 0.824422 -0.114440 0.275479 -0.463820 0.541623 -0.300750 -0.305814 -0.336550 -0.420160 0.817295 0.944138 0.377309 0.073285 -0.831672 0.943994 -0.326937 0.274310 -0.824644 -0.674125 0.413243 0.454175 -0.676611 -0.577224 -0.710708 0.127084 -0.804224 1.157782 -0.148802 0.106898 -0.355671 0.374645 -0.723658 0.541973 -0.384023 0.206480 -0.311961 0.523149 -0.747464 -0.605693 0.394108 -0.608980 0.668676 -0.097216 -0.771636 -0.902725 -0.443083 -0.058051 -0.813432 0.160951 0.525892 1.018678 -0.672301 -0.443996 0.267302 0.405270 0.017849 0.215005 -0.039153 -0.301668 -0.496028 -0.557225 0.110306 0.784410 0.880561 -0.145745 0.797692 0.636887 0.744283 0.399572 0.989724 0.656612 0.316439 0.238869 0.144782 -0.849196 -0.783234 0.509749 0.858989 -0.513669 -0.609573 -1.073094 -0.508077 0.327019 -0.147459 -0.607498 -0.598367 -0.590175 -0.850687 0.078251 0.654367 0.347017 0.399932 0.346835 0.440081 1.100809 -0.673458 0.774003 -0.536232 0.210733 -0.950132 -0.856610 -0.995798 -0.191464 -0.330642 -0.427004 -0.565799 -0.336746 0.530529 -0.907115 -0.288719 -0.023530 -0.390580 0.235857 -0.269506 -0.055404 0.388045 0.427747 -0.226993 -0.748452 -0.471028 1.010866 0.442365 1.488928 1.331426 -0.309082 0.809317 0.512650 -0.561908 -0.339057 0.881781 0.762495 -0.449367 0.751768 -0.939131 -0.324739 -0.944999 0.040225 -0.586349 0.951097 -0.000634 -0.595798 0.285955 -0.004790 -0.865795 0.701409 -0.126774 0.436128 0.253667 0.718968 -0.787029 0.296909 -0.154821 -0.161467 -0.227804 0.330003 0.022604 0.754598 0.824250 0.458773 -0.015557 -1.056407 0.477417 -0.115227 0.071555 -0.850446 -0.804293 0.038361 -0.325082 -0.502403 -0.157990 -0.844071 -1.013777 0.454765 -0.511922 0.559604 0.269060 0.703402 0.184438 1.748185 -0.010409 -0.792280 -1.005948 -0.601978 -0.929260 -0.655981 0.025500 -0.714381 -0.930436 0.046330 -1.061742 -0.497678 -0.187337 0.820519 -1.332896 0.266744 -0.363943 0.042633 -0.352384 0.658020 -0.284055 -0.276866 0.611111 -0.367361 -0.196618 0.342747 -0.145760 0.476396 1.352662 0.916890 -0.806198 -0.895671 0.667822 0.431584 0.946655 -0.594180 -1.017209 -0.156383 0.345784 -1.637122 -0.182520 -0.327748 -0.222823 -0.658447 -0.686658 -0.515296 -1.102674 0.717198 -0.056838 -0.416692 -0.335251 0.208283 -0.256446 -0.522986 -0.156644 0.957176 1.572738 0.546888 -0.235632 -0.268927 0.152786 0.252666 0.986238 0.248938 -1.752646 -0.745898 -0.465766 0.578697 -1.229115 -1.188693 -0.521356 -0.362659 -1.080092 -0.072353 -0.650656 -0.545926 0.297502 0.003754 -0.171625 -0.634412 1.241132 -0.378981 -0.179658 -0.233687 1.443402 1.056220 -0.472569 -0.826931 0.481561 0.446136 0.444762 1.025251 0.018768 -0.924672 -0.669345 -1.588922 -1.019332 0.503658 -1.430800 0.902813 0.929669 1.648417 1.246523 0.541575 0.071813 -0.644048 -0.240070 0.398188 0.290273 -0.341782 -0.236848 -0.143613 1.050749 0.365032 -0.702928 0.419767 -0.762161 -0.140149 -0.460261 -0.477131 1.604424 2.218166 0.850281 1.321478 1.467155 1.083077 3.169164 3.009012 3.691039 3.094145 0.873969 -0.442203 -1.025729 0.916354 0.167593 -0.309872 -0.496521 -0.259805 0.774894 0.847553 0.048954 -0.000487 0.510058 -0.362328 0.508923 -0.128894 -0.756906 1.419241 0.349241 2.569024 2.787543 2.921485 3.770664 4.587940 3.844149 1.415539 0.629300 -0.992311 0.265512 0.028434 -0.174386 -0.305654 -0.549059 0.412169 0.598110 1.487704 1.559016 0.743536 0.707958 -1.365695 -1.018474 0.860033 -0.288052 0.902988 0.867031 1.452502 1.258225 2.307153 3.103284 3.921272 1.431615 1.237464 -0.127672 -0.324673 -0.534778 -0.100991 0.033204 0.837658 0.497555 0.135808 0.021837 1.410133 0.557296 0.080654 0.455223 1.120267 -0.994099 -1.469273 0.299124 0.678003 0.154196 -0.707890 0.835486 0.119179 0.804957 2.154145 0.665415 0.263939 0.380925 -0.581952 -1.171394 -0.382932 -0.560580 -0.113113 -0.588625 0.297900 -0.287708 0.945476 -0.843650 0.312300 -0.149439 0.480889 -0.077481 -0.219237 -0.017921 0.165815 0.415703 0.156600 -0.925042 0.271604 -0.235007 0.959983 1.017398 -0.482026 -0.637468 -1.183285 -0.583667 -0.481686 0.008124 -0.562048 1.183102 -0.691934 -0.602832 -0.608756 -0.589802 0.543280 -0.389662 0.089305 0.923115 -1.180208 0.275896 -0.308632 0.131104 -0.627471 -0.530946 0.733956 -0.971897 0.939151 0.888384 -0.657782 0.608855 -0.313866 -1.529858 -0.767312 0.647224 -0.207214 -0.196462 0.353684 -1.090961 -0.063875 -0.575958 0.864327 0.583656 -0.384085 -0.160855 0.161680 -0.128134 -0.624821 -0.673352 -0.633445 -0.289807 -1.313380 0.001535 -1.000722 -0.226118 0.807427 0.573579 -0.558945 -0.601682 0.817537 0.299915 0.179546 -0.417164 -0.515447 0.200633 0.915162 -1.173486 0.215784 -0.203405 -1.269012 0.181341 -0.056486 -0.212109 0.032060 0.121884 0.527697 -0.910384 0.471312 -1.239207 -0.806057 -1.105522 0.905505 -0.015131 -0.733911 -0.602675 -1.571750 -2.130618 -1.059156 -0.568872 0.540426 -0.613533 0.630546 -0.379346 -0.036535 -0.046866 0.101905 -0.671169 0.376720 -0.474314 -0.281151 -0.801620 -0.593728 -0.246333 -0.416026 0.270387 -0.027483 -1.033162 -0.361050 -0.198912 0.542858 -0.670485 -0.506284 -0.679072 0.377085 -0.695336 0.855831 -0.049056 -0.782676 1.243430 -0.439457 0.674413 0.893710 0.366641 -0.819344 0.224409 0.178579 0.541171 0.274968 0.577247 0.128931 -0.993814 -0.163197 -0.135289 0.155274 0.391679 -0.767155 0.241135 0.735694 0.452053 -0.887103 -0.730573 -0.325542 -1.586600 -0.250364 -0.352035 -0.666020 -0.724261 0.290044 -0.064431 -0.728960 0.937246 -0.058112 -0.201975 -0.514986 -0.294990 0.177111 -0.381096 0.110331 0.779229 0.191258 0.155052 -0.219885 0.502899 -0.716917 0.667252 -0.926687 -0.093506 0.536244 -0.940619 0.332520 -1.009853 0.893035 -0.859249 0.227804 -0.370887 -0.238150 -0.187688 0.075509 -0.021336 0.641936 -0.187044 0.396810 0.204025 0.147873 -0.014566 0.381463 0.766618 0.439892 -0.868551 -0.610572 1.035929 -0.883380 0.758741 0.681612 0.558238 -0.395912 0.564763 0.153020 -1.501050 -1.181580 -0.213675 0.133905 -0.821612 0.281411 -0.330193 0.317272 0.379816 0.459206 0.170076 0.282913 0.174678 -0.266533 0.208956 -0.210892 0.000832 0.083228 0.679172 -0.654770 0.167711 -0.430802 -0.212699 -0.091196 -0.239931 -0.110266 0.740856 -0.179078 -0.783617 -1.285445 -1.020483 -0.043811 0.499656 0.078048 -0.070561 -0.240467 0.101537 -0.063785 0.516296 -0.567796 -0.177006 0.225786 0.096185 -0.197793 0.386464 -0.516548 -0.857449 0.741180 0.249400 0.937895 0.380044 0.306234 0.145680 0.954780 -0.463493 -0.728334 0.160502 -1.105487 0.313852 0.049783 0.206466 -0.152194 0.674010 0.176553 0.461677 0.082229 0.338309 -0.449335 0.843698 -0.166694 0.036943 0.941797 0.173013 -0.076930 1.192092 -0.452688 -0.298242 -0.031951 -0.024209 0.910462 -0.916066 0.124689 0.581770 -0.287448 0.283112 -0.860666 -0.878405 0.464165 -1.276560 -0.416451 -0.281326 0.497731 -0.014185 0.052980 0.615996 -0.503997 0.804986 0.183036 1.667234 -0.166336 0.654648 1.938879 0.573659 0.567880 -0.243386 -0.888588 -1.003783 0.981368 -0.364118 0.849292 0.440431 -0.397939 -0.869579 -0.514744 1.033176 0.901721 -0.246697 -0.005226 -0.074023 -0.043682 -0.482878 0.400795 -0.804501 -0.327729 -0.474887 0.467172 -1.187525 0.171520 0.804756 -0.203076 -0.244093 -0.530496 0.230503 0.627382 0.184726 -0.875895 -0.946194 0.868580 -0.136087 -0.547904 0.877676 -0.280340 -0.478886 0.028902 0.398107 0.348075 0.393720 0.339894 -0.689539 0.474152 0.775206 0.567500 -0.719717 0.896759 0.516779 0.918375 -0.247026 0.782045 0.144744 -0.407161 -0.391290 -0.468989 0.152726 -0.107779
1.397010 -0.141005 0.566912 -0.378069 0.189456 -0.918749 -0.475433 0.694113 0.212159 0.630358 -0.143682 -0.820708 -0.754556 0.904131 0.206046 0.904148 -0.933897 0.154426 -0.463001 -0.549500 -0.223857 -0.776966 0.133724 -0.152247 -0.294550 -0.295507 0.326205 -0.689215 -0.581770 -0.252943 -0.635751 0.995985 -0.939220 -0.341576 0.210491 0.305668 -0.114605 -0.740268 -0.479443 0.991973 0.471526 0.532939 -0.373341 0.684439 0.060525 0.830553 -0.045270 0.293175 -0.412452 -0.929310 -0.101164 -0.538894 -0.444553 -0.958504 0.476691 -0.218214 -0.075936 -0.065153 -0.764158 0.175058 0.015383 -0.393095 -0.401601 0.728368 0.878257 -0.635010 0.045100 0.406334 -0.654343 -0.706109 1.059989 -0.939043 -0.705915 1.020231 0.643393 -0.338287 0.710800 -0.729211 1.007006 -0.166654 0.022682 0.221728 -0.025270 -0.013830 0.616033 -0.533816 0.143826 0.587583 -0.803413 0.405991 0.950483 0.696417 -0.636047 0.786736 1.249316 0.749473 0.353311 0.554203 0.811904 -0.825917 -0.565872 0.373735 0.225682 -0.925329 0.745807 0.423503 0.022712 0.324493 0.369127 -0.324964 0.144434 -0.308851 0.329563 -0.868603 -0.375531 -0.467586 0.394846 -0.407923 -0.882661 -0.101917 0.212523 -0.357640 0.842760 1.277684 -0.191969 -0.139899 0.926429 0.518510 0.959691 -0.569837 0.531857 0.242694 -0.862301 0.655084 0.007753 0.578718 0.154378 0.802889 -0.797227 -0.352631 0.071607 -0.521878 -0.023752 -0.941898 -0.314632 0.890532 0.552177 -0.326857 0.090277 0.106233 0.597363 1.563744 0.504335 0.082930 0.912720 0.616816 -0.761759 0.333493 -0.655708 -1.006686 0.350755 -0.645361 -1.131115 -0.483751 0.280677 -0.539894 -0.449178 0.549224 0.167449 0.029454 0.963072 -0.402889 0.842488 1.146618 1.508600 1.190456 1.200960 0.799330 1.090410 0.936707 0.441861 -0.605364 -0.142588 0.521782 -0.598637 -0.940597 1.648264 -0.689487 0.470799 -0.598962 0.206698 0.192044 -0.697451 -0.825899 0.585046 -0.073158 -0.712397 -0.378480 -0.029301 -0.135627 -0.756459 0.051758 0.954202 0.522761 0.377688 0.611271 -0.598110 0.674263 -0.457660 0.006051 -0.290603 0.581440 -1.058794 -0.517862 0.548883 0.572592 -0.209799 -0.235845 -0.520020 0.116218 -0.604321 -0.388851 0.458764 -0.886827 -0.284868 0.425810 0.567959 0.329681 0.905105 0.421215 0.603178 1.283149 -0.579497 -0.097490 -0.619438 0.587814 -0.584786 0.505533 -0.654059 -0.354660 1.005920 0.288962 2.367773 -0.405636 -0.240833 -1.073783 -0.797980 -1.564229 -0.435959 -0.374978 0.856237 -1.040250 0.174560 0.183558 -0.772555 -1.023040 0.431467 -0.571116 0.174261 0.153725 0.704357 -0.735092 -0.422444 -2.111765 0.141774 -0.208609 -0.511687 1.566750 1.043155 1.614901 0.265579 -0.655083 -0.802080 -0.370081 0.474472 -0.754492 -0.530647 0.143353 0.411359 -0.405976 -0.101452 0.198306 -0.332415 0.158458 0.527555 0.430330 1.156771 -0.469865 0.149981 0.132479 -0.635058 -0.265208 0.090087 0.685326 0.996192 0.542206 2.058548 0.929159 0.447483 -0.529286 -1.599471 -0.811743 0.675461 -1.226476 -0.212290 0.453366 -0.006219 -0.648614 -0.553706 0.441510 -0.882177 1.003083 0.074376 -0.737594 -0.844976 0.083519 -0.422802 0.698449 0.163568 -0.281938 -0.138866 0.798062 1.257983 0.305502 1.020295 -0.522048 -0.945146 -1.202088 -1.326593 -0.731075 -0.109993 -0.121860 -0.851394 -0.715658 -0.468538 -0.231368 -0.305545 -0.081022 -0.627169 0.060374 -0.804016 -0.387770 -1.053618 -0.019443 -0.568332 0.453353 1.337423 1.443479 2.325903 1.740415 1.039566 -0.411884 -1.170460 -0.703209 -0.378233 -0.898323 0.205156 -0.175829 -0.745962 -0.786723 -0.019242 -1.110048 -0.643280 0.188315 -0.661985 0.289775 -0.284830 0.992053 -0.067350 1.064930 0.696499 0.337329 1.255749 1.888839 0.358998 0.158885 0.598312 -0.072218 -0.254546 -0.598849 0.002664 0.856460 -0.486494 -0.749828 -0.381626 -0.685203 0.287299 -0.804622 -0.880312 0.161956 -0.807573 -0.931668 -0.929809 -0.807743 0.337070 0.026518 0.297823 0.029007 0.950965 0.256150 -0.317217 0.780904 0.157345 0.735840 -0.965266 0.025776 -0.428774 -0.403524 -0.816071 -0.729098 -0.306202 0.285614 -0.560961 0.678374 -1.085979 0.524205 1.106710 1.437235 -0.557640 0.639377 -0.707628 0.974497 0.685453 0.752012 -0.292381 0.538038 -0.133652 0.794304 1.522042 0.029568 0.235844 -0.665498 0.465887 -0.402199 -1.169066 -0.277369 0.408383 -0.580096 0.065142 -0.211567 -0.129760 -0.621062 -0.749443 0.411939 0.234479 0.071546 0.541023 0.332257 -0.414671 -0.829114 0.152712 0.333441 -0.531160 -0.970329 -0.521444 0.226682 0.523245 0.241027 -0.493583 0.469622 -0.383871 -0.891446 0.584519 0.231638 -0.985650 -0.907735 -0.689103 -0.185469 -0.093926 0.726569 1.118142 0.998425 -0.041473 0.032942 0.574809 0.517456 -0.748650 -0.482726 -0.182624 -0.978441 0.649146 -0.652201 0.149352 0.475765 -0.263235 -0.981295 -0.052126 1.181680 -1.043212 -0.520491 -1.009827 -0.877518 0.559447 -0.246720 -0.416215 0.699969 1.379879 0.336394 0.257953 0.902460 1.069489 0.850611 0.634842 -0.366502 0.400970 -0.829006 0.879225 0.936854 -0.937381 -0.207793 -0.757823 -0.737258 0.886753 0.685037 0.943813 -0.388001 -0.734013 1.025312 -0.221633 -0.254807 0.012599 1.746415 1.028739 -1.313137 0.479945 0.940951 1.081692 -0.210517 -0.184728 -1.212615 -0.399949 -0.332180 -0.119415 -0.721027 0.482370 -0.543400 -0.974218 -0.686147 0.182323 -1.458428 -0.194559 -0.450917 -0.744889 0.210615 0.514704 0.859513 0.505983 0.653227 -0.335305 -0.218585 0.399529 -0.848035 0.621182 -0.295240 -0.331370 0.504880 -0.855874 -0.007376 -1.016279 -0.302256 -0.379652 0.525859 0.994039 -0.712071 0.305991 -0.390359 -0.086574 0.340384 -0.336533 0.313847 -0.966121 0.647859 0.470903 0.574058 -0.459536 -0.159894 0.697979 -1.074967 0.503044 0.114712 -0.404550 -0.144325 0.176144 -0.792845 -0.802954 0.581057 0.395141 -1.021702 -0.411455 -0.494132 0.866037 -0.254301 -0.297945 0.199166 -0.081565 -0.319036 -0.307293 0.337810 -0.381944 0.561941 0.576059 0.104002 0.431552 -0.052130 -0.417893 -0.707869 0.531431 -0.235737 -0.245954 0.211674 0.208466 0.121836 0.582515 -0.890042 0.677195 -0.131511 0.503493 0.173396 -0.183348 -0.409073 0.419296 -1.050976 0.274731 -0.396054 -1.173607 -0.565886 0.230385 0.780771 0.861158 0.391465 -0.793922 0.695866 0.677862 1.604000 0.254938 0.237390 -0.640244 -0.466293 -0.957542 0.260245 -1.246813 0.684377 0.060916 0.504378 -0.353515 0.479259 -0.284126 -0.025144 0.727660 -0.284885 0.067006 -0.534080 0.516157 -0.851937 1.254440 -0.011322 -0.029314 -0.019051 -0.145966 -0.905913 0.154501 -0.213311 -0.392883 0.803186 0.175133 -0.205170 0.895719 0.181668 -1.239341 -0.041480 -0.459037 -0.659471 0.662068 -0.526705 0.277522 -0.632421 0.447239 -0.338749 0.377000 0.724936 0.210281 -0.111908 0.080880 0.810769 0.607326 1.029714 0.204480 -0.122351 0.762180 0.116156 -0.916383 -0.374523 0.547794 -0.022888 0.727262 -0.593475 -0.125075 -0.831695 -0.557969 0.736809 -0.577232 0.880991 -0.939170 -0.461512 -0.713778 0.673799 0.888648 -0.321887 -0.346670 -0.751547 0.620357 -0.688518 -0.554242 -0.147331 0.497929 -0.586565 -0.156346 -0.461479 -0.131374 0.981111 0.426368 -0.546107 0.296154 0.063032 0.501038 0.465754 0.901482 -0.568512 0.292303 0.685664 0.531259 -0.948580 0.522478 -1.003835 0.063186 0.723613 -0.565286 -0.705946 -0.582588 0.115397 0.700468 -0.075375 0.937511 0.481163 1.182614 0.914911 -0.569147 -0.731832 0.033365 0.377970 0.699891 0.324560 -0.551809 -0.823662 0.644555 -0.157758 0.869921 0.155259 -0.785787 -0.777892 -0.342459 -0.582774 -0.660288 -0.140239 0.251155 0.532928 -0.567256 0.873877 0.206047 -0.360280 -0.406127 0.442897 -0.500776 -0.227893 -0.445227 0.515718 -0.340093 0.374315 -0.404315 -0.178145 -0.690728 0.050296 -0.758506 -0.964124 -0.739947
-3.145965 -0.370842 -0.170781 -0.758690 -0.656913 -0.243707 -0.184486 -0.516692 -0.563929 -0.796874 -0.158527 0.920168 0.951862 -0.883976 0.282580 0.518562 -0.158219 0.194031 0.533333 0.325877 0.282036 0.745750 -0.524872 0.682634 -0.718618 0.166554 0.278765 0.619078 -0.078060 0.578087 0.359130 -0.825725 0.575265 0.110711 -0.013996 0.129695 -0.158369 -0.705550 0.748883 -0.343740 -0.826145 -0.459633 -0.185754 -0.784962 -0.605220 -0.501123 -0.170215 -0.028073 -0.318902 0.213512 -0.693321 -0.333208 -0.176830 0.986163 -0.095487 -0.544094 -0.300558 0.786854 -0.160404 -0.007104 -0.775457 0.692347 0.574146 -0.628878 0.861870 0.655745 0.707907 -0.255009 -1.014723 -0.967206 0.298716 -0.506921 0.431502 0.310444 -0.852840 0.638537 -0.897312 0.826525 -0.404179 0.755036 -0.400770 -0.090299 0.408646 -0.711439 -0.839742 0.889569 -0.945099 0.689782 0.518880 0.321455 -0.207171 0.798646 0.308639 -0.152494 -0.806584 -0.589929 0.665134 0.789995 0.147799 -0.842451 -1.311012 -1.258170 0.034629 1.446308 0.541905 -0.675671 -0.247484 0.647873 -0.835008 0.840230 -0.312821 0.812512 0.135809 -0.849479 -0.511837 1.090914 -0.612129 -0.227860 -0.408819 0.115732 -1.143883 0.403859 -0.013540 -0.623613 0.274109 -0.040917 0.815838 0.025455 -0.749602 0.509021 -0.631221 1.070007 0.964876 -0.413652 -0.881272 -0.494184 -0.403399 0.362967 0.132666 0.624555 -0.990534 0.341194 -0.237735 -0.342484 -0.919729 -0.252714 1.034299 -0.030611 0.751683 -0.626411 -0.162678 0.360995 -0.308563 -0.581789 -0.481101 -0.374567 0.208437 -0.592163 -0.155851 0.606210 -0.127875 -0.371320 -1.103858 0.906513 0.026959 -0.238392 -0.799553 -0.260085 0.761354 -0.483766 -0.302706 0.446602 0.303413 0.188220 1.044050 -0.274931 -0.136983 -0.233137 0.838738 0.361618 0.396434 -0.198747 0.524822 0.638122 -0.844643 0.079667 0.080654 0.633733 -0.351596 -0.972270 0.579509 0.067108 0.077509 0.789825 -0.721573 0.053772 -0.459257 -0.211678 0.714005 -0.419854 0.752382 1.211860 -0.843705 -0.547587 0.966278 0.842903 0.361365 0.444981 0.043452 0.799884 -0.004519 0.136872 0.268513 0.275872 0.557391 -0.385510 0.003029 0.994096 -0.279686 0.263658 -0.143487 -0.352565 -0.356943 -0.246336 -0.531417 -0.679601 -0.455481 -0.652451 0.844776 -0.040306 0.133170 0.314408 1.280499 0.376867 -0.208596 -0.180167 0.198734 0.300846 0.115840 -0.381386 -0.059787 -0.966707 0.915243 -0.086366 0.820133 -0.717183 -0.743837 -0.514453 0.119420 -0.292665 -0.657338 0.832232 -0.772230 -0.560919 -0.805920 0.012345 0.837756 -0.473014 0.077738 0.000250 0.475472 -0.128575 -0.548152 0.246448 0.180839 -0.110102 0.225139 -0.200575 0.715345 0.280788 -0.631686 -0.138172 -0.515410 0.374687 0.420290 -0.547112 -0.986342 0.285388 -0.312654 0.247185 -0.047199 0.667038 0.692803 0.266713 -0.429673 -0.202423 0.530823 -0.345788 0.064245 -0.206022 -0.088077 -0.582177 -0.252864 -0.606651 -0.744091 -0.333120 0.931454 1.234841 0.061833 -0.369328 0.486906 0.231234 -1.361708 -1.332927 -0.739935 0.024229 0.779504 -0.082401 -0.752730 0.996392 -0.365274 0.157781 0.330828 -0.444135 -1.299030 0.176090 0.288729 -0.609521 -1.523910 -0.778755 0.416448 0.592961 1.051957 1.673696 1.219619 0.905123 -0.180381 -0.191262 -0.115033 0.296647 -1.218742 0.114536 -0.110617 0.864567 0.114648 -0.519401 -0.120522 -0.349747 0.051783 0.935685 -1.241881 -0.165468 -0.688931 -1.005218 -0.720536 -1.313480 -0.860233 0.429681 0.572795 1.002953 0.364941 0.219838 -0.044856 -0.059063 -0.312960 0.735948 -0.216654 0.232908 -0.775743 0.150169 0.160431 -0.482699 0.816842 0.865124 -0.607592 -0.436808 -0.572446 0.940513 -0.367650 0.237809 -0.478787 -0.998442 -0.823336 -0.166687 1.580321 0.612006 -0.007814 0.879075 0.168321 0.072569 -0.623470 0.437997 -0.307072 1.228443 0.550218 -0.143469 -0.600923 0.032995 0.087463 0.535262 -0.478452 -0.111701 0.874635 0.871468 0.447541 0.133911 0.469263 -1.182307 0.306180 0.244572 0.392946 -0.220746 0.540339 0.534359 0.316011 0.856130 -0.616759 0.601803 1.118202 0.286411 0.590341 -0.031314 -0.329891 -0.043608 -0.877611 0.478859 -1.342143 -1.209163 -0.295965 -0.496005 -0.228407 -0.130383 -0.821560 0.181147 -0.988818 0.462948 0.524013 -0.441601 0.628303 0.971117 0.330119 0.947840 1.009147 0.128212 -0.268296 -0.410485 -0.592537 0.198032 0.820083 -0.270384 0.460604 0.754037 -0.245764 -0.269748 -0.036314 -0.195236 -1.015368 -0.566463 0.156816 0.312099 -0.638964 -0.434331 0.656535 0.171058 -1.367900 -1.533979 0.403505 -0.039321 0.389006 0.829624 1.123301 2.263724 0.729931 0.869091 0.688951 0.887165 -0.019304 -0.775232 -0.013363 -0.792208 0.088207 -0.514786 -0.044988 -0.544940 -0.329985 0.003821 0.904259 0.900099 -0.322225 0.625497 -0.952779 0.398531 -0.604960 -0.492468 -0.236363 -0.898906 -0.333049 0.041273 0.272962 0.969227 0.439982 1.615523 0.843412 -0.156396 -0.965582 -0.321052 0.041573 -0.317294 -0.311858 -0.779981 0.536189 -1.311738 0.509345 -0.224052 0.605879 0.550913 -0.316830 0.017267 -0.962438 -0.355905 -1.199803 -1.853840 -1.523600 -1.746307 -2.123611 -2.556738 -1.689691 -1.567173 0.204781 -0.107109 -1.547081 -1.640355 -0.463522 -0.825730 -0.722343 -1.677557 -0.630396 0.186083 -0.003553 -1.224091 -1.010648 0.287970 0.308426 -0.489183 0.185213 -0.752125 -0.622476 -0.097539 -1.224915 -0.515555 -1.867922 -2.335368 -1.391708 -3.430750 -1.756340 -1.328073 -0.990441 -0.024038 -0.075003 -0.932966 0.416850 -1.182844 0.023421 -0.208731 0.251745 -0.759723 -1.027761 -0.368325 -0.459528 0.866365 -0.142369 -0.901527 -0.797533 -0.555703 1.134478 0.452322 -1.313338 -0.819511 -1.744409 -0.457178 -0.543351 -0.064855 -0.105493 0.430631 -0.042603 -0.677214 -0.482659 -0.221915 0.044749 -0.043832 -0.737848 0.074117 -0.606481 -0.330701 0.280553 0.420449 0.415519 0.844693 0.661117 0.378354 -0.502101 -0.712487 -0.714880 -0.568991 -0.182978 0.260155 -0.747909 -0.324418 -0.595874 1.614201 0.216550 0.235743 -0.875022 -0.214383 -0.144159 0.249564 -1.243092 -0.575386 0.495877 -0.824185 0.059295 0.187970 -0.061532 -0.769857 -1.063920 -0.384549 -0.555572 0.768201 0.526835 0.113503 0.688422 0.195709 -0.178811 0.579907 1.153792 0.177104 1.186854 1.021158 -0.765140 0.206645 -0.922686 -0.526224 0.145380 -0.296414 0.611799 -0.378523 -1.220779 -1.125559 -0.167552 -0.070887 -0.051939 0.063770 0.869662 0.055785 0.386129 0.657545 0.685961 0.590965 0.106140 0.680939 0.935591 0.084259 1.400334 0.355054 0.063365 -0.287188 0.435425 -0.501276 0.465454 -0.639829 -0.520182 -0.449207 1.207665 -0.932003 -1.006158 -1.171667 -0.123499 -0.111516 -0.638666 0.810420 -0.538664 0.469904 -0.949566 -0.003157 0.535414 0.464909 0.622624 0.219809 0.651450 -0.167158 -0.018742 0.146423 -0.165742 0.900169 -0.194262 -0.574070 0.229215 -0.740282 -0.914945 -1.185776 -0.016254 -0.574058 -1.073761 -0.686245 -0.082533 0.097069 0.362138 -0.793382 -0.990276 0.094596 0.086399 0.166850 0.073723 0.854389 -0.305571 0.337557 0.068284 -0.288433 0.287783 0.378124 -0.304206 0.541226 0.909769 -0.569175 0.255176 0.099420 -0.063199 -0.796657 0.815003 0.513997 0.339325 -0.279341 0.742608 -0.059643 -0.974743 0.391141 -0.722491 0.636786 0.280716 0.163358 0.275560 -0.869882 0.649302 0.918587 -0.567617 -0.591095 1.075250 -0.132678 -0.095687 0.352123 -0.363553 -0.157246 0.762415 -0.326587 -0.725055 0.778729 0.460394 0.120541 0.190380 -0.527466 0.798443 0.790088 0.908040 0.682314 0.411436 0.280420 0.470760 0.689671 0.940826 -0.333740 -0.283951 -0.816585 0.438134 -0.779025 -0.221597 -0.857946 -0.600375 0.381158 -0.929358 -0.154726 -0.291498 -0.798856 -0.084376 0.882766 0.108545 0.194302 -0.542017 0.319617 0.552165 0.825443 0.344293 -0.887125 -0.360232 -0.015591 0.378091
-1.025238 0.084241 -0.904119 -0.364951 0.841297 0.184866 -0.981611 0.235214 -0.682461 -0.734787 -0.454229 0.010676 -0.461086 -0.010555 0.713327 0.220597 -0.191670 -0.647695 0.545975 0.043637 -0.628449 0.720446 -0.141376 -0.241502 -0.609480 0.243450 -0.506354 0.364555 -0.131388 0.847834 -0.388180 -0.882866 0.858018 -0.293938 0.230915 0.114119 0.189721 0.130243 0.190594 -0.075401 -0.435563 -0.777448 1.001355 -0.193238 0.366248 -0.890773 0.346189 -0.019168 -0.428999 -0.608143 0.801607 -0.215064 0.642790 -0.415879 0.898000 -0.032549 -0.877738 0.345167 -0.129247 0.264868 -0.754259 -0.238472 -0.010915 0.745218 -0.401941 0.079856 0.564894 0.559723 0.619747 1.069709 0.200628 -0.278318 0.913212 0.158471 -0.585148 -0.763109 0.211298 -0.787137 0.516079 0.387660 -0.628426 -0.865370 0.778959 0.317301 0.925800 0.145434 0.858673 -0.963507 0.776004 0.280060 -0.876585 -0.677220 -0.427210 -0.183863 0.828841 -0.128947 0.378446 -0.002096 1.605496 0.332440 -0.752625 -0.547058 0.532998 -0.447482 0.041115 1.220538 -0.501099 -0.521718 -0.014737 -0.389161 0.665302 0.292956 0.266857 0.925900 -0.955575 0.524612 -1.007275 -0.821651 0.127296 0.847996 -0.069668 0.493714 1.427626 0.701694 0.249063 1.157917 0.109688 -0.591218 0.303165 0.179812 0.601558 0.132310 0.435094 0.539311 -0.074224 0.054029 -0.113092 -0.237928 -0.557041 -0.741597 0.215471 0.645417 -0.749843 0.761694 0.940868 0.955139 0.496417 -0.582626 0.301635 -0.261223 0.603024 -0.390201 0.537360 0.771334 0.010111 0.347056 -0.415586 0.694786 0.681121 0.197094 0.207490 -0.518363 0.441206 -1.667891 0.285873 0.301545 -0.803458 0.466051 0.890803 -0.409312 -0.244419 0.670034 -0.158364 -0.869331 -0.327231 -0.470068 -0.118734 -0.063144 -0.430776 -0.045167 0.823774 -0.300255 0.918187 -0.266720 0.067040 -0.443277 -0.132855 0.118883 0.267326 0.374744 -0.520433 -0.956781 -0.012669 0.258799 -0.326970 -0.097494 -0.226549 0.231609 0.510585 -0.589823 0.555129 -0.331744 -0.245326 -0.717571 0.161286 -0.741026 -0.151654 -0.931080 -0.380321 -0.436804 -0.044207 0.391181 -0.438100 0.033913 1.301759 0.449755 -0.360026 -0.249714 0.524416 -0.244090 0.015653 -0.124302 0.762928 -0.514931 -0.114865 -0.871800 0.895930 -0.525602 -0.837155 -0.285061 -0.151756 -0.566573 0.475702 -0.293656 -0.481825 0.194248 0.289949 0.130373 -0.289457 0.840937 0.179134 -0.254884 0.354765 -0.382307 -1.339651 0.408147 -0.183269 0.210504 0.401283 0.564702 0.129847 0.844169 -0.683952 -0.971605 -0.624680 -0.201830 -0.698108 -0.258495 -0.141935 0.356503 -0.660730 -0.207671 0.158354 -0.033498 -0.731279 0.137350 -0.963146 -0.129892 -0.829300 -0.994866 -0.485652 -0.835186 -0.453378 -0.554768 -0.063720 -0.124526 0.398687 -0.328234 -0.823084 -0.087469 -0.685301 0.696292 0.439526 0.189616 -0.398356 0.896651 -0.365093 -0.103505 -0.134700 -1.024024 0.668949 -1.315192 -1.212416 -0.996716 0.302153 -0.718830 -1.122233 -1.649739 1.443050 -1.026269 -1.106662 0.040448 -0.569336 -0.589721 0.227793 -0.458062 -0.669418 -0.688308 -0.265031 -0.583763 -0.817072 0.403895 0.550404 -1.321818 -0.356861 -1.066428 -1.261231 -0.380040 -0.896896 -0.561694 0.396609 -0.409434 0.039402 0.141439 -0.305404 -0.490581 -1.230771 -0.398941 -0.434571 -0.967249 -1.146391 -1.150323 0.378351 0.274281 -0.222440 -1.115469 0.899228 0.597898 0.004468 -0.872557 0.352287 -1.152931 -0.602671 -1.343903 0.186202 -0.335207 -0.183712 1.004239 0.705975 0.610321 0.207088 -0.302855 0.315232 0.497464 -0.229056 -1.784946 -1.283058 -0.991065 -0.377265 -0.316711 -0.756595 -0.585580 -0.932185 -0.771787 -0.913802 0.547531 -0.518153 -0.003079 -0.170578 0.139219 -0.315794 -0.538286 -0.389521 0.618800 0.089300 0.495570 0.737129 0.286030 0.019434 -0.827535 -0.529782 -0.809375 -0.795667 -0.624298 -0.563846 -1.006374 0.379300 0.858816 0.856426 0.202464 -0.582255 0.708532 0.010194 -0.775730 0.109551 -0.044169 -0.358266 -0.889357 0.061405 -0.320694 0.412722 0.215700 0.241934 0.045404 0.608155 -0.046192 -0.539233 0.355718 -0.128763 -0.896869 -0.596440 0.152126 -0.919927 -0.401300 0.092836 0.460994 0.180364 0.760803 0.908417 0.310503 -0.896201 -0.404506 -0.002315 -0.351763 1.002523 1.021276 0.179026 0.084423 0.203687 0.004570 -1.043777 0.643368 1.222004 -0.646036 -0.217423 -1.404234 -0.515799 -0.100007 -0.054136 0.230842 0.470014 0.700619 -0.001832 -0.270111 1.117656 0.648141 1.240461 -0.029351 -0.690286 0.988602 0.338978 0.128829 0.951908 0.220905 -0.101852 0.503424 -0.372697 -0.242673 0.742596 1.089883 0.100344 -0.435529 -1.094575 -0.803745 -1.068556 -0.395947 -0.256036 -1.058253 1.137189 1.117300 0.991792 0.984494 0.448472 1.235796 0.691384 0.882458 -0.126471 0.376133 -0.611633 0.344419 0.709197 -0.136239 1.254644 -1.107682 0.226466 -0.309079 -1.272827 0.232394 -1.087368 -0.689802 -1.565615 -0.860605 -0.641382 -0.454539 -0.732003 1.196579 1.224167 -0.122128 -0.258576 -0.052801 -0.279119 0.645071 0.742010 0.415434 0.543283 -0.229703 0.873807 -0.941036 0.925297 0.683831 -0.346704 0.109004 0.310205 -0.607679 -0.203977 -0.154680 -0.686750 -0.998984 -1.589968 -0.200899 0.264918 1.089647 0.555251 1.429890 0.782785 -0.523868 0.480989 1.261056 1.464162 1.041203 -0.257386 0.070907 -0.235900 -0.551126 -0.463790 0.421309 -0.355126 1.385130 0.797259 0.794255 1.060808 -0.205130 1.101214 0.689453 0.545216 0.326127 0.422167 1.094641 1.052999 1.643759 1.837628 0.746983 1.096397 2.260216 1.434650 0.355084 1.096032 0.931463 0.565278 0.503709 0.893272 -0.401259 0.736332 0.134882 0.757304 0.095544 0.404615 0.509766 0.689079 1.445616 1.427250 2.250026 1.797618 2.570010 1.609430 0.762338 2.102792 0.498138 0.794492 1.506852 1.555594 2.282703 1.002321 -0.864062 0.726546 0.040183 0.958062 0.434143 0.929575 -0.140458 -0.332438 0.179822 0.835551 -0.293390 0.867114 0.902855 0.939297 1.665317 1.099573 0.095603 0.701856 0.764925 0.601324 0.652700 -0.664625 0.237346 -0.881435 -0.190991 0.379189 0.430210 0.134374 -0.113430 0.173252 -0.309654 0.694507 -0.875778 0.179786 0.361236 0.165694 -0.913634 0.810937 0.486837 0.673163 -0.901236 0.498915 0.380432 -1.199131 0.634046 0.009888 -0.235497 -0.158362 -0.793184 0.423709 -0.417761 -0.403830 -0.398466 -1.513142 0.262629 0.580736 0.119818 0.927678 -0.307715 0.029830 -0.807306 0.436226 -0.090227 -0.944894 -0.061557 -0.012887 1.510626 0.931067 0.043434 0.467900 0.763508 0.011216 -0.240063 -0.504200 -0.899114 -0.333240 -0.063153 -0.056708 -0.728847 0.399158 -0.953803 -0.883966 0.382930 -0.950151 0.095222 0.114634 0.525029 0.594152 -0.327223 0.132675 0.592222 0.928855 0.267576 -0.556673 0.567599 0.929649 1.120955 1.027341 0.126382 0.726461 0.391453 -0.208494 -0.265814 0.262103 -0.008592 0.112569 -0.116380 -0.494449 -0.350347 -0.456240 0.422360 -1.154581 0.801922 0.154732 0.195290 0.031661 0.508900 -0.420786 0.113308 0.986384 0.572751 0.026404 -0.307021 -0.136194 0.545011 -0.067357 -0.133026 0.041626 1.056053 1.066745 -0.411777 0.363971 -1.309413 -0.196516 0.277447 -0.053295 -0.657317 -0.292957 -0.884958 -0.933090 0.684908 0.336976 -0.984286 0.162733 0.107330 0.315211 0.512111 -0.677733 0.572555 -0.178832 0.310173 -0.450985 -0.311824 0.017147 0.449608 0.035696 -1.041913 -0.102091 0.613632 -0.760228 -0.183530 -0.024259 -0.592049 -0.640379 -0.683538 -0.504586 0.193043 0.280324 1.028376 0.444714 -0.638964 0.108386 -0.746676 -0.802597 -0.431565 0.805902 0.204991 -0.971492 0.273430 -0.952530 0.201800 0.873188 -0.597479 0.780464 -0.138967 -0.932144 -0.721844 0.730149 0.059911 0.954324 -0.944815 -0.727520 -0.687416 0.638269 0.807361 0.655818 0.133320 0.748715 -0.107628 -0.927740 0.098443 -0.719682
0.381561 0.994245 0.949181 -0.572692 0.746489 -0.444428 -0.911834 -0.180725 -0.362217 -0.999385 0.434517 0.459918 -0.009318 0.221430 0.556922 -0.020964 0.404565 0.461007 0.418315 0.063382 -0.281516 -0.609586 -0.005186 0.783933 0.377685 -0.287869 0.287800 -0.722618 -0.278659 0.993007 0.814769 0.063170 -0.663315 -0.717543 0.404098 0.889709 -0.269742 -0.020321 0.447825 -0.708385 -0.668107 0.551373 -0.185665 -0.294537 0.522048 -0.550390 -0.232917 -0.646003 0.482788 -0.668764 0.356006 -0.648214 -0.495286 -0.382584 -0.367653 0.086760 0.413576 0.447410 0.519943 -0.163958 0.805672 -0.720658 0.289341 0.798975 0.954414 0.818831 -0.320947 0.743897 0.770299 -0.148813 0.361477 -0.791787 0.378073 0.731753 -0.495109 0.223332 0.847158 0.727855 1.199479 0.029105 -0.651897 -0.801224 0.955515 -0.616417 0.975420 -0.984874 -0.237178 0.972428 -0.899067 0.960781 -0.698455 -0.286237 -0.440579 -0.300671 0.453621 0.450161 0.060396 0.862054 0.952198 -0.517773 0.956287 0.364788 -0.577571 -0.028109 0.419878 -0.113912 0.611301 0.622750 0.678812 -0.656382 -0.306884 -0.664311 0.020679 -0.817416 -0.349460 -0.374143 0.173673 0.000236 -0.174172 -0.455207 1.000217 -0.056323 0.727584 1.228034 0.589060 0.260382 -0.033163 -0.007908 0.483721 0.685224 -0.325008 -0.947925 -0.559642 -0.591615 0.469364 -0.107672 -0.089871 -0.417175 -0.497292 0.420303 0.238148 0.679169 0.993386 -0.071280 0.869721 0.327480 -0.239387 0.657182 -0.586005 -0.387376 -0.826435 -0.345332 0.140381 -0.485473 0.374702 -0.286600 0.186520 -0.719143 -0.110746 0.660461 0.247408 0.186591 0.290952 0.954785 1.226482 -0.879556 -0.765651 -0.741227 0.599412 0.449730 0.147514 0.608036 -0.786622 -0.125375 0.254317 -0.683612 -0.980227 -1.294036 0.049451 0.061456 0.347050 -0.183570 0.001712 -1.078579 0.271270 0.267272 0.353095 0.978905 -0.348373 -0.205449 -0.005605 0.922068 0.638014 0.599218 0.357791 -0.281603 0.822881 0.570819 -0.923835 0.574897 -0.677751 0.198980 0.077519 0.277545 -0.025816 -0.262899 -1.007487 -0.117724 -0.410406 -0.343158 -0.538119 0.181438 0.914010 -0.400826 0.513280 0.821813 0.911623 0.229423 0.824857 -1.026996 -0.346729 -0.108273 -1.085225 0.766160 -0.498183 0.629815 -0.298163 -0.258547 -0.491803 -1.168845 0.039320 -0.264677 -0.092111 -0.146623 -1.243441 -0.113165 0.677406 -0.796666 0.387418 -0.086910 1.112437 -0.280161 0.071244 -0.396606 -0.378867 0.094745 -1.414021 -0.589501 -0.640617 0.463555 -0.513260 -0.689101 0.086852 0.565463 0.494062 -0.093552 0.499001 -0.183418 0.053635 -1.466314 -0.874776 -0.130305 -0.485199 -0.427954 0.418170 0.570711 0.146328 0.169428 -0.662631 -0.639049 -0.774959 -2.505122 -2.236102 -1.277623 -0.624760 -1.872487 -1.680513 -1.100363 -0.844076 0.693386 -0.630216 0.248747 -0.823795 -0.262761 0.774859 -0.320188 0.615402 -0.081690 -0.286546 0.214105 0.076486 1.288848 0.130917 0.182610 -1.199174 -0.172766 -0.937738 -1.901215 -1.781417 -2.176675 -1.734494 -1.733343 -1.508308 -0.754702 -2.206674 -0.835312 -0.597669 0.506271 -0.095810 0.415743 -0.849519 -0.914101 -0.400390 0.109185 -0.038370 -0.323688 0.839732 -0.178930 -1.274573 -0.586479 0.424399 0.094968 0.263375 -1.247215 -0.607078 -0.799525 -0.465287 -0.611861 -0.364673 -0.230834 -0.844689 -1.447315 0.092246 -1.139495 0.578724 0.493322 -0.692606 -0.331596 0.678776 -0.125494 -1.072756 -1.267726 0.188641 0.659760 0.279965 -1.106126 -0.597412 -0.123040 -1.019297 0.169489 -0.469583 0.486641 0.616751 -0.637030 0.215801 -0.001864 0.404334 -0.721500 0.973001 0.435935 -0.821821 -0.401775 1.341696 0.221205 0.043195 0.934591 -0.518412 0.919727 0.360207 -0.568519 0.108171 -0.061714 -0.902290 0.384085 -0.855605 0.212103 -0.966673 -0.341432 0.575563 -0.310351 -0.004141 0.959939 1.088642 0.137816 0.365445 0.113946 -0.520866 -0.352443 -0.521727 0.382326 -0.078706 -0.223142 0.864476 -0.685147 0.675578 0.710819 0.092754 0.047192 -1.626204 -0.419290 -0.387384 -0.245156 -1.151798 -0.442771 -0.997782 -0.399638 0.951522 0.213316 -1.022191 -0.230386 -0.735290 0.321324 -0.396511 0.808875 0.338859 0.055034 -0.933476 1.022090 -0.471337 0.234037 0.005740 0.761927 -0.404413 -0.847585 -0.612622 0.148384 -0.715656 -0.404246 -0.518111 0.334683 -0.555847 -0.277177 -0.278156 1.591972 1.105023 1.010151 -0.200386 -0.471913 0.760857 -0.154242 -0.629366 -0.324445 -0.279179 -0.278126 -0.241307 0.292498 0.733954 -0.328590 0.164050 0.363032 0.686967 0.100590 0.052731 -0.836280 -0.228405 -0.143506 -0.840342 -1.179598 -0.065713 -0.248169 0.655815 0.296907 1.399818 1.197954 0.776024 0.281705 -0.188757 -0.628771 0.821210 0.757233 0.311428 0.280987 1.163301 0.954359 1.124145 1.393943 0.851123 -0.648983 0.512221 0.775048 0.419521 -1.159191 -0.566249 0.818475 -0.728182 -0.114209 0.330279 0.547058 0.177949 -0.168093 -0.948104 0.976412 -0.587852 -0.803532 -0.360107 0.133896 -0.122246 0.296537 0.689382 -0.826407 -0.413641 -0.191546 1.336454 -0.440872 -0.216087 -0.091013 -0.771442 -0.281457 -0.916771 -0.264616 -0.931660 0.331080 -0.115640 0.036617 0.728035 -0.029454 1.289139 0.847355 1.257620 0.904707 -0.181242 0.827609 -0.667016 -0.805235 0.272134 0.205329 -0.612807 0.618739 0.321413 1.343718 -0.062457 -0.187821 -0.445156 0.683044 -0.432450 -0.128870 0.161558 0.353771 -1.128603 0.158101 0.643829 0.653203 1.158271 0.306195 -0.317431 -1.028214 0.775581 0.091609 0.139639 1.137632 0.442665 0.411230 -1.142702 -0.099206 -0.141140 0.503204 1.206729 1.304363 -0.449182 0.068901 0.351427 -0.994339 0.369277 -0.687071 0.401301 -0.032518 0.952196 1.165680 1.181882 -0.202853 1.263320 0.181532 1.138505 0.051478 -0.506523 0.190987 0.153510 1.193076 0.235432 -0.457800 0.746329 0.872888 -0.198744 0.363168 1.596510 1.224606 0.606971 0.050711 0.102443 -0.020560 -0.748338 0.787336 0.807342 0.007640 -0.260147 1.105136 1.321951 0.463286 0.194237 0.374355 -0.446465 0.907116 -0.321112 -0.015191 -0.188928 0.031789 0.369801 1.625665 1.623054 0.564984 0.067242 -0.512900 0.274988 -0.254625 0.826898 -0.602156 -0.740775 -0.386462 -0.917206 0.684547 0.720774 0.440133 -0.246548 -0.317742 -0.518157 -0.011425 0.673090 -0.128811 0.526186 -0.378652 -0.164765 -0.484227 -0.227839 -1.386144 0.885852 -0.136433 0.938946 0.125341 1.218053 0.777914 0.876544 0.733453 0.222390 0.292603 0.782650 0.339661 -0.499679 -0.006125 0.837877 0.335374 0.749457 0.260298 -1.021427 0.977474 -1.053408 0.458475 -1.076848 -0.753036 -0.903787 -0.507420 0.664168 -0.577089 -0.019251 -0.142367 -0.187802 -0.871122 -0.664870 0.176509 -0.275040 -0.009316 -0.453377 0.551841 -0.990828 0.817813 -0.669792 0.328280 -0.868721 -1.016633 -0.350989 -0.742362 0.277657 -1.013505 0.749391 -0.912849 -0.502503 -1.025352 -0.950379 -1.709073 -0.297373 -0.667544 0.294547 -0.558936 0.136906 -0.132663 0.952698 0.528240 -0.803961 -0.440315 -0.458750 0.298884 -0.840994 -0.980438 -0.434259 -0.931817 0.758324 0.029866 0.599726 -0.483399 0.467333 -0.604274 0.357499 -1.127914 -0.649658 0.694020 1.120332 -0.450624 0.115855 -0.155049 0.401160 0.116871 -1.109679 0.515608 0.000023 -0.439902 -0.300071 0.109925 -0.714201 -0.252409 0.956985 0.133410 -0.176099 0.302936 -0.878706 0.701331 0.674392 -0.968661 0.471421 0.881715 -0.785133 0.580187 -0.874919 0.143443 0.759020 0.939271 -0.326555 -0.485681 0.560048 -0.881623 -0.721489 0.113234 -0.257567 -0.142118 -0.009814 -0.261585 -0.991864 -0.138203 -0.293739 0.266240 0.840614 0.105514 -0.550487 0.706411 0.174547 0.701527 0.938791 -0.358442 0.898769 0.145723 -0.353613 0.576933 0.295848 -0.496479 0.150698 0.985639 0.049260 0.378338 0.670882 0.216289 0.485539 -0.305151 0.654020 0.648653 0.335955 0.807870 -0.272478
0.144149 -0.533297 0.321341 0.794599 0.819447 -0.646073 0.678100 -0.682367 -0.918355 -0.877259 0.292931 0.410302 0.350926 -0.190884 0.647569 -0.003659 -0.286451 0.905261 0.961544 0.607891 -0.888235 0.615743 0.155832 0.401928 0.963186 -0.743264 0.157003 0.419619 -0.155826 -0.216873 -0.029550 0.647306 0.620021 0.430063 -0.450930 -0.806084 -0.122878 -0.325084 -0.452807 -0.710523 -0.267706 0.366924 -0.743884 -0.426711 -0.630835 0.564242 -0.349528 -0.818563 0.573141 -0.572667 -0.218763 -0.824924 -0.274826 0.717871 0.814845 -0.752027 -0.184170 0.621572 0.441098 -0.009795 0.387171 -0.276013 0.943677 -0.500529 0.680936 0.206627 -0.235457 -0.994873 -0.024448 -0.905180 -0.447832 0.209333 -0.205559 -0.569106 -0.820137 -0.878812 -1.038464 -0.473497 -1.182379 0.644313 -1.021594 -0.319793 -0.442807 -0.453806 -0.017750 0.811690 0.384559 -0.967787 0.689653 -0.222352 0.534633 0.267047 0.574282 -0.697215 -0.430307 -1.039099 0.022551 -0.317814 0.661117 0.542978 0.100570 1.010977 0.374829 0.208127 -0.628874 -1.440638 -1.033579 0.024690 -1.030216 0.195668 -0.570834 -0.696561 0.938548 0.398633 -0.483887 -0.842529 0.359503 -0.862718 0.621000 0.685364 0.005963 -0.355023 0.426136 -0.000512 0.839680 -0.550131 0.230257 0.562046 0.887625 -0.733110 -0.238438 -1.598388 -1.334833 -2.169070 -1.516046 -0.132499 0.111603 -0.149023 0.419344 -0.245901 -0.474095 -0.985908 0.369439 -0.014340 -0.693736 0.951382 1.234357 0.896926 -0.447813 0.711108 0.424861 0.560559 0.830959 0.186789 -0.678488 -0.553064 -0.266319 -0.821200 0.174520 -0.939799 -0.532568 -0.875994 -1.265094 0.852376 -0.254638 -0.600753 0.236842 -0.770747 0.722347 0.280828 -0.958691 0.361987 -0.718067 -0.257605 0.009900 -0.100741 0.202609 0.797623 0.849880 -0.500098 1.264777 0.726920 1.132398 0.160977 0.551438 2.219969 0.745006 1.886231 0.660332 -0.369165 0.209864 -0.000846 0.200500 -0.303341 -0.645454 0.589469 -0.315419 -0.236900 0.386468 0.811525 0.729714 0.884691 0.736169 0.821751 -0.261958 -0.805422 0.545432 0.198280 0.360477 -0.330201 0.540352 0.832347 0.847545 1.491546 1.203866 1.870885 1.519489 0.901914 1.210223 -0.623310 0.129698 0.961573 -0.196077 -0.024808 0.207611 -0.644075 0.021164 -0.469716 0.269025 1.151257 0.793880 -0.102221 -0.048624 0.733523 -0.273886 0.022602 -0.912464 -0.389434 0.600180 0.355410 1.910133 2.582197 1.013608 2.156590 1.249313 -0.087115 0.402398 0.846973 0.139464 0.356956 -0.615542 0.539364 -0.802262 0.410930 0.673439 0.285501 -0.397510 0.655934 0.376628 0.316985 -0.691963 -0.787272 1.025439 1.372168 -0.522348 -0.208794 1.311357 1.248554 0.302209 0.582114 1.946454 0.164559 0.334388 -0.370223 0.644558 1.032825 0.152538 0.425547 -0.623535 0.667620 0.372873 -0.207990 0.237480 0.728801 1.164120 0.378231 0.121336 -0.012478 -1.028848 -0.215557 0.869038 -0.150889 0.829094 -0.546379 -0.149330 0.289109 -0.181372 -0.174247 -0.249277 0.325405 0.009064 0.007379 -0.552629 0.011065 0.406373 0.323231 -0.386107 -0.004543 -0.705004 -0.228034 0.339843 -0.057448 0.993419 -0.495897 0.659112 0.962953 0.569116 -0.188977 -0.030313 0.605329 0.740027 -0.039391 0.303712 0.045250 -0.256130 0.576671 0.889097 0.312185 -0.180870 0.235795 -0.698568 -0.253103 -0.144680 -0.178924 0.291572 -0.852471 0.489356 0.657756 0.796408 0.414092 -0.562763 -0.385356 0.659819 0.136355 0.306119 0.052930 -0.444263 0.797417 -1.449170 -0.869230 0.878179 -0.730173 -0.607818 -0.297551 0.479802 -0.339397 0.096557 0.079510 0.666583 -0.927810 -0.773571 -1.801317 -0.125289 0.549076 0.150713 0.778264 0.310732 -0.792732 -0.610510 0.641427 -0.425405 0.832859 0.444678 0.046016 -0.422387 -0.106285 0.017950 -0.115732 -0.671090 0.381300 -0.475415 -0.358954 1.496877 -0.452635 0.744934 -1.510504 0.339985 -0.803412 0.015083 -0.719807 -0.814607 -0.131112 -0.484291 -0.663437 0.976443 -0.521065 -0.272769 0.583651 0.405105 0.614941 0.299008 -0.573516 0.679666 -0.022185 -1.159489 0.180012 -0.881811 -0.579221 -0.433645 -0.533264 -0.610199 0.138679 -0.012513 -0.507929 -0.320685 -0.416842 -0.870645 -0.436005 0.832500 -0.426088 0.161207 -0.623808 -0.478963 0.600206 0.263681 1.074425 0.428362 -1.030056 0.301957 0.165197 0.826057 0.417974 0.063368 0.252077 -0.253391 -0.728896 -0.532065 -0.140906 1.213447 0.935735 0.729046 0.602119 1.089733 -0.581020 0.133596 0.871051 -0.281561 -0.787727 0.498652 -0.089240 -0.578261 -0.596284 -0.348834 1.137356 0.120332 0.112588 0.523734 -0.352477 -0.505834 -0.178397 -0.691443 -0.499943 -1.406990 -1.006116 -0.607534 0.151182 0.030686 1.141670 0.903892 1.252990 1.997990 1.253364 0.588448 -0.318599 0.017311 0.827330 -0.513102 -0.266341 0.220763 0.114477 -0.370889 -0.060638 0.511023 -0.289859 0.267606 -0.328346 0.930124 -0.137411 -0.962069 -0.019921 0.084052 -0.306244 -0.220158 1.055164 1.074571 0.848339 0.225047 1.519351 0.357983 1.348397 -0.173642 0.063280 0.536371 -0.653437 0.299537 0.964433 -0.063591 -0.127825 -0.229681 0.708911 -0.422891 -1.005530 0.030679 -0.271012 0.138927 -0.313267 0.594819 -0.989907 -1.933024 -0.085224 -0.623267 0.289252 0.321639 0.325103 -0.315889 -0.825297 -0.699486 0.482999 -0.411690 0.488132 -0.426939 -0.069858 -0.655935 -0.293112 -0.192235 -0.359175 0.964476 0.047109 -0.798775 -0.805753 0.778851 -0.255908 0.170259 -0.648946 -1.624840 -0.694339 -0.777425 -0.246805 -0.089726 -0.336306 -0.605057 0.376933 0.368940 0.525713 1.151752 -0.041509 0.437746 0.545052 -0.904373 0.340572 -0.430325 -0.775029 0.734674 0.792436 0.257358 -0.656434 0.049041 0.447528 0.202359 0.731074 -1.322557 0.014792 -0.997003 -0.686266 -0.836394 -0.009081 -1.419728 -0.109676 0.291841 0.295570 -0.462123 -0.301248 -0.323628 -0.773106 0.412957 0.488129 0.024071 -0.949470 0.195284 -0.289015 -0.694800 0.152581 0.089361 -0.855633 -0.744617 -0.284708 -1.044451 0.404536 -1.536794 -0.504353 -0.898290 -1.453664 -1.681436 -1.466097 0.500894 0.825245 -1.228520 -0.564630 -0.197733 -1.116389 -0.555804 -0.529859 -0.308642 -0.929139 -0.405884 0.326652 0.042852 -0.343578 -0.082051 -0.695656 -0.478659 0.258455 -0.856828 0.824380 1.015304 0.524133 -0.015803 -0.972290 0.259635 0.240776 0.187310 -0.235993 -0.065988 -0.079694 0.338849 -0.835250 -1.097202 -0.302603 0.391202 -0.703655 0.044833 0.474878 -0.499923 0.205277 -0.589581 -0.003595 -0.973880 0.496669 0.272090 -0.524986 -0.525806 0.604930 -0.047972 0.281074 -0.395329 0.991950 -0.466052 -1.199324 -1.236446 -0.284416 -0.735241 -0.933015 0.247231 1.076863 0.041553 -1.064553 -0.638719 -0.800446 0.416103 0.038694 -0.046529 0.890447 -0.124280 0.913408 0.521295 0.763833 1.060364 0.684883 0.680487 0.532874 1.341839 0.354566 -0.105791 -0.684922 0.102184 -0.247727 -1.460907 -1.266580 0.692612 1.333770 0.181132 0.132152 0.361412 -0.507708 0.073891 -0.034946 0.507494 0.542093 -0.346313 0.973758 -0.912570 -0.579944 -0.227420 -0.746206 -0.764480 0.778107 -0.474479 -0.677018 -0.469634 1.155436 0.412430 0.533511 0.152798 1.685425 -0.236266 0.190091 0.583352 1.012003 0.645634 0.950780 1.038643 1.124021 0.930515 -0.575817 0.574844 -0.195397 -0.744628 0.618023 -0.331458 0.280953 0.871240 -0.802426 0.301750 -0.585397 -0.719091 -0.081889 0.839531 -0.598051 -0.054372 -0.268540 0.177634 0.935281 1.353131 0.791721 0.298343 -0.391070 -0.036704 0.695644 0.453957 0.810656 -0.791674 0.213573 0.964514 -0.543382 -0.611805 -0.876205 -0.197748 0.582578 -0.720143 -0.383590 -0.462637 0.221861 -0.569242 0.948227 0.062095 -0.804542 -0.438436 0.370755 0.721041 0.720277 0.840202 0.889770 0.976363 -0.708325 -0.168079 0.334087 0.578208 -0.251858 0.254389 -0.675546 -0.736301 0.749469 0.290806 0.006035 -0.629508
-0.826047 -0.453872 -0.389874 0.072714 -0.303967 0.930236 0.745809 0.260719 -0.458801 0.319659 -0.175940 -0.997456 -0.122765 -0.056240 0.762506 -0.354895 0.263503 -0.069640 -0.289012 -0.200184 0.161427 -0.498783 -0.483596 0.007434 -0.918616 -0.923334 -0.893680 -0.578110 -0.384589 0.768311 -0.073680 0.105344 0.236520 -0.103031 0.135292 0.611205 0.681262 -0.999006 0.377142 -0.145699 -0.768302 -0.282946 -0.484462 0.544713 0.676408 -1.017525 -0.372192 -0.544374 0.793842 0.502508 -0.181498 -0.790290 0.871043 0.931014 -0.388959 -0.478225 0.031161 -0.229174 0.252413 -0.863615 -0.219474 -0.017473 0.248132 -0.175516 0.985486 -0.956360 -0.371472 0.579888 -0.978528 0.552207 0.496165 -0.304103 -0.522675 -0.454759 -0.955232 0.831093 -0.183260 -0.995877 0.110951 0.230345 0.366061 0.797805 -0.585865 0.812213 -0.851159 -0.106969 -0.930266 0.100399 -0.837029 -0.923340 0.115741 0.226096 -0.100210 0.779599 0.462106 -0.365536 0.074138 -0.692786 -0.922658 -1.820863 -0.500264 -0.681742 -0.239223 0.050301 -0.627242 -1.001112 -0.107029 -0.418690 -0.233592 0.148192 -0.458554 0.125852 -0.084216 -0.067657 0.378903 -0.774922 0.984732 0.656932 -0.566673 0.680436 -1.092886 0.585069 0.585958 0.581028 -0.966858 -1.178663 -1.310170 -1.689755 -1.216460 -0.123855 -0.606742 -0.640544 -0.814464 -1.483130 0.298299 0.660486 0.919624 0.669087 0.121943 -0.981365 0.686773 -0.858676 0.393493 -0.211487 -0.977884 -0.142275 -0.593148 0.566070 0.046936 -0.657189 -0.473269 -1.100289 -1.606631 -1.924382 -1.701843 1.087993 0.067809 0.382640 0.002539 -0.259134 -0.170679 0.806568 0.402212 0.028971 0.422876 0.187449 0.632279 -0.880132 0.792290 0.639841 0.714888 0.728337 0.862287 -0.396422 0.592128 -0.462656 -0.939541 -0.150197 0.385860 -0.920503 -1.497012 -1.600745 -0.635978 0.317640 -0.368154 -0.265901 -1.154704 -0.225227 -1.060873 1.060819 0.701033 0.431909 0.326720 0.691575 0.880300 0.914243 0.673366 -0.950898 0.378311 -0.534516 -0.735661 0.576470 -0.310818 0.724815 -0.898389 0.169613 0.453127 -1.894833 -1.571692 -1.227628 -0.675698 0.393116 0.393584 0.584514 0.337994 -0.849048 0.391461 -0.821393 -0.454287 0.273693 0.107043 0.166416 0.915955 0.819205 -0.792594 -0.121838 0.344391 0.026415 0.711033 0.162224 0.609241 0.629498 0.099988 -0.511553 -1.376539 -0.711351 -1.932819 -1.493232 0.440273 0.322157 -0.067387 0.752007 0.248826 0.393307 0.061154 -0.005212 0.861994 0.096563 0.452155 0.756449 -0.163053 -0.101711 -0.168509 -0.872244 0.285877 -0.059476 0.568548 0.503326 -0.990988 -0.162698 -0.195324 -0.468065 0.280688 -1.336163 -1.740762 -1.177249 -0.072410 1.169716 0.419716 1.327419 1.731280 0.516641 -0.137539 0.406780 0.349498 -0.824286 0.418341 1.070954 0.553884 0.856328 -0.892434 -0.824956 -0.929887 0.534767 0.054641 -0.836568 -0.200407 -0.020985 0.777875 0.920868 -0.498071 -1.085250 -0.805919 -0.100163 0.378282 0.727865 0.737667 -0.201213 -0.085482 0.342500 -1.088517 0.502100 0.152243 -0.040170 1.301662 0.117378 1.070808 1.005753 -0.654199 -0.870713 0.397151 -0.008717 -0.486377 -0.227930 -0.779434 0.774675 0.632563 -0.456456 0.328659 -0.348343 -1.552224 -0.862374 -0.404865 0.108809 1.234605 0.853804 -0.517465 -0.593005 -0.991445 0.070889 0.932060 0.739663 1.141969 1.485166 1.185855 0.612080 -0.596401 0.432530 -0.660704 -0.286758 -0.885648 0.869441 0.624791 0.471933 0.488469 -0.407055 0.482710 -0.685687 0.166773 0.284530 -0.178210 0.188745 0.577141 0.846823 -0.139502 -1.129402 -1.603462 -1.181384 -0.838877 0.193480 -0.994424 0.688167 -0.345888 -0.868161 0.589303 0.223338 -0.210815 0.799045 0.247859 -0.376630 0.341734 -0.751773 -0.740295 -0.449569 -0.317695 -0.519107 -0.272132 -0.062860 -0.621579 0.278535 -1.008367 0.849199 -0.609305 -0.798827 -2.024125 -1.540704 -1.263115 -0.354584 -1.329756 -1.094471 -0.201930 0.564968 -0.532650 0.159160 -0.206488 0.719723 0.088368 -0.824533 -0.728256 0.227432 0.610644 1.149151 1.097348 -0.283466 0.873283 -0.297393 -0.439435 -0.764742 -0.091926 0.481189 0.320906 0.043163 -0.287980 0.155891 -0.749463 0.290313 -0.942083 -0.478602 0.336876 -0.289447 0.107688 0.443822 0.646885 -0.670073 -0.906877 -0.653610 0.195755 0.244573 0.349686 0.633299 0.479492 0.310023 0.061646 -0.636318 0.894138 0.952252 -0.693656 -0.626650 -0.996723 -0.198532 0.416944 1.106019 -0.648407 0.721253 0.256009 0.444720 -0.370737 0.139214 -0.361636 0.215703 -0.976287 -0.290598 -0.759969 0.478075 0.154205 -0.328243 0.643316 0.913208 -1.252866 0.272136 -0.427697 0.592528 -0.328390 0.065122 0.336944 -0.510805 0.193467 1.284589 0.936898 0.941739 -0.664999 -0.524522 0.015635 -0.814210 -0.685613 -0.508507 -0.807091 0.901136 0.698386 -0.128986 -0.990542 0.128072 0.822238 0.489087 -0.197657 -0.024615 0.157041 -0.632268 -0.047365 0.226995 -0.278518 -0.045274 -1.084654 0.643040 -0.795812 -0.650118 -0.267862 -0.057383 -0.427636 0.030615 -0.003672 -0.540336 0.446668 -0.638732 0.753611 -0.494077 0.508529 -0.844497 -0.767951 0.682467 -0.727936 0.983992 0.293751 -1.035843 0.515655 0.225602 0.203445 -0.585558 0.390006 0.767106 -0.538852 -0.101919 0.796856 0.248526 -0.856591 -0.684599 0.100540 -0.299481 0.700290 -0.567060 0.256443 1.033282 -0.537104 0.438218 0.739659 -0.618503 -0.823044 0.229440 0.146574 -0.059911 0.839181 -0.112762 -0.029328 0.628387 0.683983 0.422432 -0.599950 -0.453073 0.305075 0.081449 0.124792 0.514059 -0.574622 -0.808303 0.498443 0.553066 0.250399 0.955477 -0.328123 -0.262718 0.989277 0.663912 0.401914 -0.558867 -0.671128 0.275371 -0.424314 -0.636892 0.385965 0.709654 -0.698560 0.218645 -0.354910 0.217658 1.080293 -0.095435 -1.199564 1.359433 0.576811 -1.193286 0.222971 0.193150 -0.682554 -0.612942 -0.452747 0.661349 0.135716 0.069367 0.261635 0.971945 -0.485696 0.308581 0.040455 0.608006 -0.132489 -0.779740 0.078965 -1.199074 -0.582246 -0.120923 -0.570257 -0.935281 -0.105779 0.735999 0.051930 0.265999 -0.809691 -0.828704 -1.541817 0.232990 -0.371095 -0.434500 -0.434294 0.220717 -0.454185 -0.018974 0.136041 -0.707669 0.545700 0.842910 0.862920 -0.030104 -0.061199 0.854878 0.346731 -0.682974 0.822759 -0.894303 0.001015 -0.274695 0.007238 -0.407239 -0.480780 1.095423 0.255333 0.411726 0.637837 0.933245 -0.430402 0.973672 -0.306519 0.554737 0.055962 0.439474 0.746080 -0.182872 0.131153 0.539371 0.003562 0.526094 -0.860383 0.407614 -0.296912 0.247254 -0.469543 -0.806319 -0.724009 -0.327951 -0.660610 -0.083850 0.210885 0.506647 0.553031 0.782746 -0.506262 0.631170 0.107931 -0.282411 1.038252 0.209900 0.977796 0.095746 0.539199 0.885010 0.718628 0.342663 -0.431296 -0.796531 -0.970430 -1.010192 0.382859 -0.786421 0.489002 -1.261715 0.559359 -1.159335 -1.141663 0.056041 -1.074026 -0.648224 -0.706646 -0.251502 -0.249739 -0.624816 -0.624699 0.578547 -0.418105 -0.034464 -0.503282 0.361489 0.451453 0.515989 -0.042290 0.351183 -0.628585 0.213301 -0.561664 0.212781 -0.638748 -0.236984 -0.584142 -0.595174 0.063617 -1.412399 -1.572690 -0.714840 -1.038411 -1.628908 -0.467109 -0.140086 0.060779 -0.438423 -0.803445 -0.550773 -0.250022 -0.231050 -0.765062 -0.766529 0.566221 0.725818 -0.137369 -0.588455 0.031322 0.038427 0.350798 -0.163517 0.132136 -1.243044 -0.737156 0.295218 -0.908279 0.496065 0.609166 -1.002368 -1.160930 -1.016147 0.229924 0.520165 -0.471810 -0.172362 0.035970 -0.481161 0.923992 -0.995623 -0.070428 -0.125122 -0.921984 -0.589853 0.740004 0.892508 0.898346 0.595124 0.687762 -0.917979 -0.132085 -0.971124 0.934703 0.610822 -0.491468 -0.691066 0.447451 -0.735161 -0.290562 -0.095497 0.192443 0.801174 -1.002223 -0.296857 0.047949 0.768059 -0.876064 -0.685482 0.052036 0.673900 0.418629
0.413215 -0.001532 -0.236978 -0.196462 -0.433485 0.139047 -0.983862 0.323412 -0.270663 0.176430 -0.863017 0.764260 -0.840042 0.611109 -0.406002 -0.526745 0.807956 0.428407 -0.470477 0.712956 0.619729 0.193269 -0.334656 0.550537 0.173680 0.125636 0.928064 0.764183 -0.779297 0.413447 0.329243 0.004198 -0.927978 -0.807570 0.818612 -0.884055 0.493009 -0.564201 -0.333058 0.660404 0.062528 0.323982 -0.093312 0.208219 -0.922761 0.565589 0.373716 -0.121163 -0.639258 0.134607 0.089122 -0.336889 0.815015 -0.854346 0.246864 -0.551257 -0.631777 -0.935809 -0.605172 -0.621262 0.456959 -0.986260 -0.423288 -0.647569 0.707838 -0.825816 -1.422472 0.257560 0.857588 -0.565694 -0.442188 -0.968666 0.241501 -0.096840 0.631374 -0.748346 0.288105 0.402785 0.309958 -0.290455 0.390832 0.290199 0.510946 -0.456540 -0.871136 -0.957710 0.406534 0.608606 0.583903 -0.050589 -0.787442 -0.190728 0.796938 0.407846 -1.360044 -0.533943 -1.334872 -0.217418 -1.719925 -1.078080 0.553029 0.053600 0.124483 0.105319 -0.048447 0.837572 -0.786182 -0.566391 0.864732 0.604806 0.810431 0.906855 0.854717 -0.911033 0.707166 0.136789 0.510085 0.411292 -0.838037 0.808077 0.263427 -1.025573 -0.675295 -0.520992 -0.154414 -1.325593 0.217824 0.508585 -0.656404 -1.140672 0.553242 0.100635 -0.062916 -0.868825 -0.261849 0.983061 1.477270 0.919056 -0.161436 -0.850962 -0.186881 0.371159 0.677982 -0.132981 0.549821 -0.472332 -0.795247 -0.315737 0.137257 -1.531325 -0.355237 -0.845703 -1.902990 -0.265356 1.175524 -0.324172 0.623005 -0.899515 -0.672956 -0.076131 -0.041465 1.041255 0.158167 0.913868 0.227920 -0.552488 -0.253093 -0.288023 -0.021092 0.682859 0.699901 -0.196866 -0.785843 -0.605091 -0.411623 0.568514 -0.667809 -1.635510 -1.445927 -1.101068 -0.396058 -0.559832 -0.382138 -1.103931 0.088216 -0.897087 -0.598540 0.866549 0.446596 -1.227955 -0.462393 -0.224952 0.129197 -0.033213 0.473728 0.797666 -0.895795 0.826624 -0.413672 0.426326 -0.841584 0.186319 0.506868 -1.114769 -1.256025 -2.081412 -1.362305 -0.066373 0.719270 1.032193 0.526967 -0.449388 -1.299736 0.962210 -0.658677 -0.402140 -0.387516 0.016512 0.278759 -0.480398 0.442185 -0.468240 0.637783 -0.101497 -0.436300 0.365073 -0.297605 0.503198 -0.616587 -0.027666 -0.288006 0.158938 -1.476193 0.115515 -0.758296 -0.177719 -0.268408 -0.799993 -0.019775 1.101065 -0.662257 -0.828892 -0.225506 -0.212494 0.002780 -0.255400 0.034043 0.843127 0.817033 0.941430 0.531994 0.470423 0.238309 0.762213 -0.158505 0.819715 0.933356 -0.436115 -0.113804 -0.832937 -0.516697 -0.893356 -0.433954 0.574324 -0.985912 0.806498 0.218861 1.532702 1.110466 0.618900 -1.021265 0.358195 0.538252 -0.661414 0.300467 1.247721 -0.916569 -0.043090 0.635293 -0.676270 0.745967 -0.346090 -0.909098 0.521578 -0.268321 -0.441936 0.634144 -1.526279 -1.065107 -0.640321 -0.016456 0.011882 -0.334103 -0.787274 1.463999 1.650341 0.708068 0.407676 -0.250806 0.155442 0.860132 0.271026 1.405966 0.440061 0.445707 0.471499 1.427887 1.152014 -0.599387 -0.379356 -0.042704 -0.944752 0.385062 -0.823184 -0.188789 -1.251727 0.159514 0.491423 -1.083880 -0.237988 -0.229583 -0.275339 0.562868 -0.175793 -0.380225 0.934515 0.195923 0.794290 -0.147341 -0.915357 0.193265 0.797205 0.075167 -0.157830 -0.587903 1.083464 0.677553 -0.121775 -0.439174 0.746588 -0.937799 -0.816960 -0.082818 -0.500517 -1.018916 0.200987 0.680386 0.133565 -0.779996 0.791887 0.693807 0.798751 1.014146 -0.905703 0.727870 -0.431098 -0.666958 -0.710638 -0.361931 -0.450938 -1.363264 -0.862289 0.437910 -0.703417 -0.337342 -0.311984 -0.810224 0.835244 0.851399 -0.301052 -0.765639 -1.307131 0.029570 0.652553 -0.593654 -0.363793 1.049293 1.384290 0.009652 1.806764 0.419876 0.497322 0.638144 -0.969634 -1.272855 -1.920699 -0.640135 -1.682056 -1.327379 -1.198722 -0.741820 -0.943397 0.161608 0.445879 0.643241 0.784943 0.158754 -0.042921 -0.777069 -0.130410 -1.200418 -0.385582 -1.086088 0.398400 -1.274565 0.396980 0.450577 0.752552 0.068509 -0.876187 -0.688890 -0.714723 -0.227555 -1.060863 -0.721091 0.154086 -0.840212 -0.062824 -0.389306 -0.852872 0.948625 -0.198732 0.069415 -0.257288 0.629535 0.345146 0.434143 -0.144899 0.112540 -0.527651 0.386849 0.336202 -0.719324 0.018412 -0.861775 1.158483 -0.646882 0.530725 1.059721 -0.423408 -1.657565 -0.064194 -1.268676 -0.734036 -0.940161 -0.212448 -0.702630 0.465419 -0.361762 -0.993847 0.720332 0.074349 -0.355138 -0.928389 0.949177 -0.499757 -0.856977 -0.631815 -0.898788 -1.727352 -0.389182 -1.044160 0.110281 0.461508 -0.323199 0.035664 -0.285529 -0.738963 -1.181100 0.392646 -0.223952 -0.946945 -1.258652 -0.113892 -0.147534 0.662711 -0.085847 0.631640 0.358424 0.321000 0.156885 -0.315143 0.126459 0.002082 -0.574222 -0.196219 0.218976 0.283435 -0.287054 -0.375538 -0.826360 0.068777 0.309258 0.242018 -0.651953 -0.942440 -0.483751 -0.863374 -1.012981 0.669921 -0.468559 -0.486110 -0.446367 0.042467 0.095165 -0.413055 -0.646305 0.688989 -0.507303 0.723145 -0.603518 0.755333 0.211136 -0.405815 0.103695 0.055012 0.402986 0.315838 -0.230998 1.446957 -0.752926 -0.414563 -0.733061 0.203798 -0.306297 -0.359251 0.138240 -0.448400 -0.884522 0.085123 0.106773 0.252576 -0.989314 -0.854485 0.919632 0.026733 0.071964 -0.948481 -0.964748 0.216248 0.596018 -0.340600 -0.757801 -0.255397 -1.316181 -0.116290 1.366839 0.328817 0.949943 -0.256094 -1.216527 -1.278983 0.658370 0.151944 -1.458799 -0.405847 0.107337 -0.823481 -0.073457 -0.930776 -0.830572 -0.457350 -0.196448 1.010674 0.686010 0.102876 -0.078670 -0.116402 0.309127 1.390806 0.080885 0.194401 -0.027985 -0.433661 -1.372677 0.231832 0.378454 -0.162917 0.351619 1.005738 0.400499 -1.341895 0.269219 -0.578695 -1.050043 -0.138006 -1.044576 -0.607175 0.738153 0.297671 -0.257390 -0.324259 -0.401817 -0.563323 -0.255927 0.584616 0.118401 0.309915 0.691446 -0.045437 0.679651 0.273148 -0.677705 1.335966 -0.205399 -0.539373 -0.697033 -0.364801 -0.081865 -0.380275 -0.149997 -1.482980 0.252384 0.184011 0.663674 0.001543 0.738617 -0.737893 -0.821417 0.360506 -0.133999 -1.050260 -1.013996 -0.583863 -0.388412 0.625952 0.720031 -0.424944 -0.420003 -0.678668 -0.187173 -0.038131 -0.356994 -0.946104 -0.175229 0.639919 -1.111819 0.263610 -0.964421 0.784278 -0.712372 0.448260 -0.750739 -0.002771 -0.097181 0.539678 0.565790 0.740200 0.102467 -0.609367 0.351375 -0.318637 -0.642532 -1.032394 -0.632471 0.950725 0.408571 -0.191022 0.409439 -0.600654 -0.025889 -1.065307 0.386614 -0.524034 0.066304 -1.581446 -1.137681 0.292244 -0.316100 0.943750 -0.239659 0.413275 -0.860979 0.286516 0.592552 0.915292 -0.711220 -0.138648 0.554385 -0.444366 -0.091087 -0.201241 -0.367842 -1.020562 -0.547259 0.661079 -0.880836 -1.373804 -0.243370 0.145933 -0.034571 0.448789 -0.968924 0.078154 0.030605 0.471711 -0.590479 -0.117885 -0.126293 -0.755142 -0.201999 0.882443 0.521799 -0.205238 -0.025506 -0.102359 -0.534265 0.049188 0.077426 -0.302542 0.186400 -0.173495 -0.339142 -0.049781 0.219425 0.397707 0.264770 0.019610 0.019843 0.084490 -0.184743 0.253159 -0.070894 -0.406576 0.069794 -0.578932 0.230032 0.787780 0.259284 0.968165 0.742245 -0.789984 -0.671350 0.292377 -0.493270 0.682189 0.237442 -0.738742 0.039454 -0.551770 0.492194 -0.690665 0.755304 -0.004145 0.101963 0.036439 -0.889482 0.633636 0.132421 -0.367111 0.050170 0.003270 0.958007 0.406233 -0.659038 -0.814831 -0.788567 -0.028013 -0.949544 0.536531 0.047382 -0.795270 -0.039751 -0.295521 -0.248648 0.202123 -0.328997 -0.513133 0.901349 -0.922756 -0.859364 -0.900862 -0.694389 0.076225 -0.211520 0.836473 -0.267071 0.877325 -0.977301 -0.362002 -0.713079 0.028030 0.115813 -0.949421 0.669200
1.110591 -0.691357 -0.493951 -0.987968 -0.982653 0.542584 -0.065762 0.519873 0.088729 -0.937180 0.025919 -0.297873 0.749343 -0.089064 0.106424 -0.812435 -0.846569 0.692829 0.256658 0.064604 -0.314378 -0.386428 0.355836 0.873927 0.039543 0.385450 -0.070274 0.946826 -0.696504 -0.988843 -0.996181 -0.904634 0.317931 -0.018940 -0.599728 -0.901300 -0.943971 -0.071226 -0.109442 0.323328 0.337853 0.130636 0.895523 0.185674 -0.801827 0.805556 -0.413997 -0.850780 0.311332 0.064171 0.854491 -0.727438 -0.026792 0.166473 -0.912461 0.542047 0.488805 0.515985 0.938604 0.428948 -0.871421 -0.959957 0.565372 0.080121 -0.705187 -0.519042 0.574878 -0.317505 0.011641 0.983411 0.360359 -0.496517 1.209093 0.931204 1.071382 -0.142001 -0.272789 0.727785 0.291675 0.063492 -0.427929 -0.888433 0.083415 -0.737425 -0.400793 0.277703 0.326701 -0.190704 -0.650116 -0.985790 -0.398614 0.366506 -0.666506 -0.293577 -0.422355 -0.535860 -0.509363 -0.043336 -0.030298 0.254396 0.917697 0.313363 0.304961 -0.531802 0.933630 -0.092572 0.783465 0.246867 -0.719898 0.441828 -0.814452 0.360957 0.253168 0.152984 0.454874 0.832546 0.391042 0.631484 0.134375 -0.611341 -0.873926 -0.033453 -0.396450 0.386405 0.271478 0.515017 1.004459 -0.444154 -0.273940 -1.264262 -0.500044 0.288152 -0.673294 0.215450 0.658551 0.060080 -0.649811 -0.901454 0.556037 -0.920400 -0.576058 0.708841 -0.181879 0.399484 0.226117 -0.616572 -0.875974 0.508421 -0.060944 0.095943 -0.115479 0.208570 0.542868 -0.010934 0.223732 0.094192 0.485818 -0.337435 -0.213633 -1.110582 -0.598849 0.751114 -0.193084 -0.168558 0.941076 0.086427 0.813686 -0.531727 -0.451285 -0.531487 0.746812 0.145485 -0.688191 -0.221510 -0.878927 -0.067964 0.150459 0.843931 -0.569551 -0.207520 1.854781 0.280792 -1.181603 1.007127 -0.008690 -0.630052 -1.646656 -0.688665 0.344007 -0.182428 -0.375967 0.523102 0.924289 0.003620 -0.225459 -0.635200 -0.847403 0.033916 0.918118 -0.061376 -0.915836 -0.699449 -0.526574 -0.848708 0.422124 -0.347786 0.355003 -0.328370 0.862163 -0.257087 0.677076 1.333050 0.506379 -0.620723 -1.838103 0.016032 0.493411 0.237076 0.337346 0.615593 1.558507 -0.379941 1.226270 0.335206 0.015250 0.942390 -0.314825 -0.197195 -1.004922 -0.909762 -1.130468 -0.501372 -0.411999 -0.720372 -0.044639 0.390167 0.422082 0.002484 1.319690 1.812751 0.096082 -2.356005 -1.117901 0.033926 -0.193392 0.699999 0.208293 0.473280 0.521451 1.553735 1.409542 0.684424 0.465230 0.121274 0.810430 -0.922010 -0.621444 -0.291761 0.155176 -0.627365 -1.285539 -1.455484 -0.895252 -0.331534 -0.147008 1.099094 2.785055 1.061542 -0.825129 -2.327319 -1.874888 -1.272417 -1.701236 -1.252640 -0.899525 -0.014065 0.631609 2.023939 1.071546 -0.756462 -0.930056 -0.487106 -0.423103 -0.564160 0.324212 0.524764 -0.751476 -0.440673 1.399058 -0.917785 0.414558 0.811050 1.010080 2.219281 1.292148 0.693389 -1.110537 -1.494595 -1.769345 -1.664224 -2.209632 -0.881002 -1.080630 0.496284 0.437710 0.963690 0.038076 0.604465 -0.236280 0.687414 -0.840844 0.735981 0.087034 -0.505640 0.762420 0.002761 0.116074 -0.230211 0.415608 1.558791 1.198780 -0.001591 -0.748367 -0.612157 -1.879425 -0.352885 -1.284816 -1.256656 -0.794912 -1.311863 -1.543314 -1.039419 0.810784 0.416196 1.487050 -0.195003 0.950457 -0.558836 0.859250 -0.581564 -0.740358 -0.374413 -0.930566 1.301838 0.673118 0.481240 0.741905 1.858210 0.969586 1.342676 0.638476 -0.344056 -0.728228 -0.133589 -1.806210 -0.002944 -0.425858 0.053405 -0.560776 0.383500 0.073287 0.265013 -0.242937 0.322439 -0.064099 0.049396 0.207692 0.011067 0.726720 -0.154103 0.779387 1.442440 0.807445 0.579167 0.221813 0.838853 0.379768 -0.895400 -0.849002 -1.280387 -1.139129 -1.644563 -0.774424 -0.692794 -0.468226 -0.903193 0.295983 0.840661 0.307307 -0.152182 -0.951735 0.087332 0.901584 0.388523 0.434240 0.434753 -0.312804 -0.321429 0.913060 0.577487 1.159208 0.200796 0.430930 1.512502 -0.143181 -0.206634 -1.001709 -0.939179 -0.074287 -1.483693 -0.600340 -0.169402 0.437383 0.418490 -0.783182 -0.262504 1.338898 0.247073 -0.781157 -0.023861 -0.530634 -0.365302 -0.258469 0.841481 0.655546 -0.209530 0.390171 0.588741 -0.066535 -0.722471 1.380577 0.928069 -0.246219 0.053311 -0.352995 -0.680174 -1.241078 -0.321627 -0.960981 -0.188035 0.235774 -0.692035 -0.049912 0.217624 0.003094 1.129238 0.352305 -0.090674 -0.700615 0.964884 -0.894049 -0.681408 -0.506053 -0.468888 -0.036023 -0.593250 -1.101179 -0.505246 -0.397667 0.967791 -1.085568 -0.261764 -0.899538 -1.711570 -0.204552 -0.621408 -0.406522 0.973699 -0.774755 0.078013 0.325578 0.645179 0.924828 -0.421038 -0.433872 0.438053 0.074363 0.101542 0.265685 -0.360576 0.334085 0.716829 -0.477893 0.938309 -0.550138 -0.301865 -0.350379 0.436178 1.144905 -1.716402 0.124170 -0.008160 -0.482690 -0.556968 0.716087 0.802172 -0.347739 0.619741 1.266186 0.003817 1.184539 -0.682404 -0.939402 -0.302768 0.159172 -0.080629 -0.050963 0.421223 -0.312072 0.923330 -0.305498 0.524059 -0.073591 -0.513616 0.395365 -0.091623 -0.703145 -0.629852 -0.446847 -0.692874 0.012662 0.165194 0.952062 0.507797 -0.545596 0.247515 0.333674 -0.436462 0.350594 0.575807 0.340681 0.544224 0.428635 -0.619984 -0.957888 0.892144 -0.188577 1.313445 0.459389 0.822441 0.147709 -0.062210 -0.187319 -0.557467 -0.388464 -0.287709 1.169915 0.247177 -0.192793 -0.004523 0.093401 0.722993 0.503114 0.628739 1.181731 -0.507261 -0.142606 -0.188734 0.395557 -0.076877 0.625362 -0.201266 -0.879724 0.886485 -0.286420 0.658164 -0.229022 -0.824061 -1.018370 0.358254 -0.201721 0.177567 -0.015667 0.668312 0.345991 0.166320 0.479407 0.188798 -0.813597 0.434586 0.040743 0.403323 1.210808 0.174006 0.071526 -0.011219 -0.807485 0.646494 -0.510058 -0.062820 0.383875 0.242975 0.653072 0.709701 0.082443 -0.830586 -0.485933 1.119289 -0.539167 0.595616 1.036190 0.126090 0.901789 0.574298 -0.063152 0.301850 -0.430223 -0.114355 -0.977066 -0.710344 0.474679 -0.214062 -0.401599 0.414058 -0.426664 0.585134 0.997940 0.661166 0.163943 0.650922 -0.448220 -0.462236 0.269638 -0.570639 -0.204397 -0.685830 0.288354 -0.119157 0.335754 0.298884 -0.296268 0.549420 0.628719 -0.385152 0.978039 0.265397 0.709232 -0.381709 0.082188 0.086764 -0.658714 -0.801716 -0.035384 0.841215 -0.196504 -0.993943 -0.589234 0.784036 -0.299738 -0.656178 -1.138641 0.004010 -0.411758 1.093211 0.031493 0.272040 0.164512 0.093490 0.054964 0.844846 0.970828 0.538815 0.749314 -0.301353 0.254844 1.163108 0.314059 -0.593740 0.038696 -0.295581 -0.145433 0.461648 0.088296 0.590336 0.665373 -0.020050 0.219184 0.382523 -0.252529 -0.423140 0.044834 1.246714 0.117692 0.565866 -0.047213 -0.078004 0.406352 0.847688 0.805807 -0.289841 -0.261815 0.276031 0.951413 0.581511 0.173121 0.479240 0.420620 0.782067 0.005983 -0.401623 -0.977994 -0.167517 -0.497489 -0.183006 -0.850424 -0.995940 -0.486598 -0.547164 -0.216825 -0.088708 0.131070 0.654213 -0.409023 0.706572 0.357555 -0.023269 0.253584 1.120430 -0.415959 -0.368221 -0.515040 -0.185772 -0.552795 0.378794 -0.224111 0.526848 -0.884277 0.156026 0.209426 0.137620 -0.529525 0.065143 -0.487384 -0.673391 -0.258382 0.596495 0.737397 0.114669 0.369295 -0.096736 0.439503 0.413978 -0.040622 -0.526025 0.000149 0.115051 -1.184905 -0.311271 0.596118 -0.754406 0.695191 0.343141 0.262811 0.333462 -0.289946 -0.282090 0.015770 -0.425101 0.787309 -0.156743 -0.805240 -0.483634 -0.821869 -0.935126 -0.184304 0.150879 -0.309833 -0.385168 -0.323383 0.313654 -0.054401 0.383220 0.725760 -0.234000 -0.504769 -0.733587 -0.330294 -0.472307 -0.309962 -0.740299 -0.124058 0.935761 -0.738125 -0.755661 -0.060691
