layer
0.643994 -0.400741 0.143364 0.019806 -0.761733 -0.705349 -0.162554 0.286084 -0.611087 0.908167 0.684518 0.491655 0.799396 0.262044 -0.245564 0.043508 -0.881638 -0.992839 0.865337 -0.834179 -0.263812 -0.609644 0.519408 0.060045 0.469084 0.318872 0.899014 -0.057958 -0.409262 0.362520 -0.427991 0.110601 -0.030309 -0.691578 -0.360988 0.824793 0.014452 0.191359 0.699896 -0.116798 0.303150 0.397140 -0.271526 -0.493002 -0.017388 -0.031928 -0.828334 0.687254 -0.503211 0.293041 0.873112 -0.832093 0.427961 0.720618 -0.496328 -0.808049 -0.123565 -0.864587 -0.832807 -0.881583 -0.348662 -0.852230 -0.876278 -0.297778 0.856608 -0.962442 0.302522 0.457821 0.115540 0.269796 0.597532 -0.964598 -1.122269 -0.961342 -0.307079 -0.765437 0.250763 0.735200 -0.928552 0.699306 0.638480 -0.200817 0.662582 0.852916 -0.054595 -0.812916 0.068786 0.564019 -0.080506 0.708593 0.891664 -0.143155 -0.099643 0.484733 -1.256500 0.257310 -0.138176 -1.126143 -0.069226 -0.954390 -0.738596 -0.239909 -0.396712 0.697330 0.261329 -0.902071 -0.218708 0.117820 -0.062734 -0.638705 -0.929747 0.803960 0.373406 -0.130380 -0.624133 0.526714 0.698910 -0.147963 -0.684259 -0.472811 0.207138 0.126803 -0.595282 -0.330201 -0.799339 -0.440606 0.285946 0.513556 -0.458844 0.470494 0.516557 -0.818597 -0.058837 0.459184 -0.873343 0.436534 -0.473213 1.024162 0.624172 0.633977 -0.479061 -0.434283 -0.789012 0.744627 0.083397 -0.537300 0.244573 0.151418 -0.541295 0.216896 -0.588662 -0.413899 -0.695318 -0.648855 -0.110305 -0.078040 0.168824 1.245607 -0.267507 0.133710 0.193583 0.314270 0.597377 0.522744 0.248193 0.093693 -0.079357 -0.308528 0.074534 0.559614 -0.180257 -0.655636 0.236330 0.915687 1.336075 -0.360588 -0.265282 0.340767 0.709654 -0.388779 -0.802440 -0.840148 0.117866 0.392210 0.206770 -0.075557 0.658201 -0.389913 -0.716048 -0.375691 -0.181431 0.568628 0.372610 0.165507 0.519017 0.306161 -0.363411 0.009813 -0.052110 0.012123 -0.277923 -0.244816 -0.233167 0.971607 1.013453 -0.690142 -0.246229 -0.306303 -0.085699 0.535778 0.149026 -0.212981 -0.518978 -0.777248 0.330881 -1.771169 -0.657929 -0.307171 -0.220293 -0.290633 1.185915 0.008624 -0.139945 0.927740 0.061020 -0.246249 0.144182 -0.443746 -0.545091 0.856467 1.027122 -0.359885 1.053844 0.707101 0.452541 0.013097 0.693881 0.326853 -0.940534 -0.389727 0.541612 -1.134426 -0.239463 -0.148996 0.439524 0.464720 -0.417774 0.229222 0.223853 0.018922 -0.300073 0.398833 0.421117 0.162417 0.176493 0.735559 0.326616 -0.586323 0.046291 0.331849 -0.734640 -0.727029 0.540275 0.446735 0.396089 0.182201 0.107789 -0.600728 -0.544664 0.937539 1.337919 1.407383 0.848729 0.545637 -0.210256 0.888338 1.648425 0.636208 0.110708 -0.760087 0.503620 0.464077 0.954389 0.044240 -0.083742 -0.718427 0.327964 0.392123 -0.348954 0.365825 0.786116 0.033146 0.620449 -0.891888 -0.796291 0.064750 1.053888 1.099423 1.225739 1.745938 1.466048 1.078797 -0.547328 0.510839 0.306535 -0.329988 0.397191 0.340720 -0.083260 0.673160 0.240882 -0.167815 0.794942 0.700590 -0.235458 0.398354 0.135837 0.011633 1.095902 -0.163542 0.026845 0.703628 -0.074698 -0.411119 0.653591 1.344234 0.061605 -0.300443 0.552963 0.049834 -0.583159 -0.429253 0.248733 -0.958829 0.989091 -0.588696 0.535578 -0.056717 0.958029 0.544335 0.364532 0.206543 1.082856 0.555421 1.085892 1.348195 0.869801 0.293838 0.509846 1.186095 0.500415 -0.552200 -0.698404 -0.591205 -0.872807 -1.305907 -0.222535 0.036032 -0.295478 -0.102617 -0.553528 -0.821275 -1.116987 0.412886 0.108517 0.644257 -0.199928 0.920411 -0.779300 -0.796169 0.217592 -0.600625 0.342005 0.269968 0.069655 1.458926 0.081724 0.296841 -0.729622 -1.276589 -0.531966 -0.295033 -0.193705 -0.163231 0.610727 0.681568 0.151075 -0.944147 -0.679064 -1.194008 0.673034 -1.019612 -0.059697 0.573361 -0.051389 -0.951325 -0.598038 0.177123 0.996203 -0.726159 -1.046126 0.079451 0.100039 -0.302274 0.793323 -0.151922 -0.562120 -0.607366 -0.255457 -0.404302 0.906902 -0.178773 1.007002 0.524072 -1.078832 -0.563223 0.543962 -0.846781 -0.782702 -0.962554 -0.115589 -0.000600 -0.439125 -0.619384 -0.122004 0.975451 -0.034189 0.324513 -0.543203 -0.909312 -0.582583 -0.583962 1.146446 0.271068 -1.517183 0.155676 -0.421937 0.155218 -0.010728 -0.014226 0.565183 0.150306 0.474441 -0.797205 -0.748940 0.081890 -0.624023 0.776707 -0.985620 -0.423731 -0.330208 -0.416807 -0.796430 0.458410 1.065125 0.221605 0.369269 1.160889 0.356456 -0.818522 0.007983 0.533749 0.354271 -0.061189 1.075132 0.440223 0.049801 -0.882218 0.341949 0.275799 -0.075450 -0.023890 -0.095106 -0.555859 -1.044561 -0.308657 -0.352188 -0.237813 0.228027 -0.994363 0.014704 -0.620933 0.951196 -0.345668 -0.194252 -0.763022 0.440995 -1.237597 -0.485436 -0.058804 1.147857 -0.532546 0.097373 0.156451 0.180649 1.159221 -0.478491 -0.657537 0.599164 0.378897 -0.918806 -0.273564 -0.298937 -0.077190 0.146590 -0.435865 0.920817 0.379423 0.318243 0.808768 -0.249334 -0.355078 -0.022249 0.134871 -0.201183 -1.099629 0.793379 0.509479 0.348090 0.390489 0.550142 -0.369331 0.211209 -0.291495 -0.975559 -0.171759 -1.010297 0.503385 0.061022 -0.010120 -0.335653 -0.377545 -0.274441 -0.118344 -0.182895 -0.375455 -0.162180 0.765506 0.099951 0.898055 0.565503 -0.865656 0.576449 -0.176223 -0.690009 0.437363 -0.818115 0.407470 0.062327 0.782592 0.201937 -1.069944 0.154340 -0.466769 0.376600 -0.892321 -1.157025 0.267331 0.357344 -0.652528 -0.850510 -0.767309 -0.921409 -0.041030 0.625880 -0.236243 0.231640 0.350693 1.121637 0.180783 -1.408433 -0.955544 -0.426338 -0.417249 -0.070072 -0.230965 -0.136452 -0.972335 -0.540246 -1.060152 -0.099929 -0.150855 -0.455034 0.502071 -0.588854 0.107376 0.553758 0.964671 -0.337871 0.960266 -0.081505 -0.552683 0.169446 0.151375 0.349474 0.846772 0.963826 0.158869 0.189171 -0.997673 -0.103482 -0.464071 0.388208 -0.327443 0.918757 0.069185 -0.497716 0.538764 0.704979 -0.628061 -0.580529 -0.715803 0.602552 -1.201630 -0.525169 -0.479681 0.976340 -0.065294 0.062562 -0.434323 -0.795547 0.817665 0.374766 0.956803 0.258774 -0.755971 0.350227 -0.666726 -0.234185 0.153333 -1.083724 -0.535243 -0.371866 -0.908138 1.090043 0.296424 -0.084301 0.458668 -0.190084 -1.001037 0.196226 -1.073901 0.369071 -0.590883 0.289744 -0.280761 -0.440273 -0.723887 0.649941 0.176094 -1.185986 0.736980 -0.063338 0.152288 1.065442 0.218562 0.593615 -0.132059 -0.229779 -0.095005 0.804081 0.578123 0.407301 -0.189858 -0.975751 -0.382527 -0.843543 0.785284 -0.695020 0.715403 0.937921 0.434355 -0.763425 -0.003605 0.547234 -0.215145 -0.720756 0.073089 0.697807 0.140820 0.568277 0.636892 -0.594172 -0.359907 0.140387 -0.793743 0.282575 0.595699 1.331401 0.590412 -0.017802 0.042082 0.064473 0.248280 -0.199349 -0.923560 0.338624 -0.553442 0.347946 0.454556 0.873192 0.088771 0.868235 -0.389749 0.813840 0.744015 0.515228 0.490084 -0.579317 -0.925804 -0.146042 0.533676 0.325503 0.145707 -0.974432 -0.364112 0.052517 -0.379779 -0.730423 -1.090095 0.329279 -1.348263 0.167874 -0.292293 -0.165796 0.458535 -0.379565 -0.079458 -0.313928 -0.410684 0.152444 0.024036 -0.319512 0.970990 -0.530370 -0.320267 -0.364891 0.270317 0.801749 -0.510022 0.013912 0.139370 0.408475 0.147750 -0.502227 -1.119891 -0.688441 0.033799 0.367074 -1.194248 -1.085245 -0.539885 -0.457280 -0.539429 -0.366517 0.290974 0.899855 -0.874033 -0.253410 -0.727382 -0.352357 -0.191889 0.535590 0.167493 -0.300150 -0.272063 0.867893 -0.113637 -0.827934 -0.836541 -0.615045 -0.371366 -0.849972 0.176730 0.587362 0.277264 -0.852232 0.483898 0.422549 0.632734 -0.698644 -0.736699 -0.688126 -0.840084 -0.505447
0.268886 0.564154 0.939548 -0.776781 -0.365294 0.193631 0.918963 -0.299498 -0.222679 0.109474 -0.536904 0.603470 0.324549 0.963377 -0.003836 -0.305574 0.926409 0.604636 -0.948967 0.897752 -0.979214 -0.829488 0.785833 -0.538774 -0.233033 0.958574 -0.686221 -0.821903 -0.904683 -0.063079 -0.674106 0.561006 -0.893924 -0.848631 0.666255 0.763548 0.138835 -0.573558 -0.497097 -0.890422 0.888048 0.761900 -0.617509 -0.552711 -0.122969 -0.093876 -0.587261 -0.949319 0.652747 0.778545 -0.289725 0.277289 -0.578269 0.094546 -0.904937 -0.552618 0.215756 -0.188190 0.809357 0.555547 0.139884 -0.301762 -0.199159 -0.942583 0.690761 -0.753420 0.523976 -0.851604 0.994466 -0.177360 0.390220 0.028840 0.054981 -0.253305 0.236279 0.475258 0.852961 0.766397 -0.907467 -0.188615 -0.945034 -0.710184 -0.458949 0.156983 0.220108 -0.143042 -0.452180 0.499644 0.280626 0.767286 0.977076 -0.244217 -0.703064 -0.352282 -0.040687 0.739011 0.798028 -0.343551 0.246546 0.189084 -0.143506 -0.626452 -0.405384 0.245987 -0.088519 -0.364532 0.745513 0.201740 -0.514345 0.241290 -0.491388 0.091914 0.585476 -0.170606 -0.157457 0.166293 -0.651864 -0.714933 0.971135 -0.372391 0.795713 -0.349267 1.075414 0.814443 -0.367247 0.305350 -0.860802 -0.769075 -0.355520 -0.261473 -0.649085 -0.295233 0.794775 -0.517583 0.618204 0.392025 0.296159 0.165270 0.654797 -1.145625 -0.777407 0.265413 -0.560681 0.119849 -0.814566 -0.866824 -0.241788 0.633787 0.829576 -0.315276 -0.508333 0.093740 -0.481761 -0.379592 -0.333437 -0.224387 -0.618322 -0.952339 -0.331812 -0.683056 0.841134 -0.085173 0.266610 -0.230074 -0.688925 -0.993399 -0.093425 0.330149 -0.386821 -0.059438 0.212397 0.215173 0.151177 -0.064821 0.227051 0.458550 0.353544 0.743817 0.214317 -0.173923 -0.690243 -0.137872 -0.924154 -0.170090 -0.211927 -0.043942 -0.767665 0.457734 -0.414366 -0.520953 -0.066154 0.575271 -0.288993 0.077927 -0.199809 0.383837 -0.328775 0.011574 -0.630393 0.510043 0.774142 -0.798531 -0.631749 -0.610998 0.004369 -0.695518 0.028772 -0.164480 0.453175 0.320068 -0.015277 -0.458685 0.111124 -0.482548 0.173711 0.395670 -0.412338 -0.239706 0.418018 -0.024136 -0.532142 -0.196404 0.249103 0.092571 0.817744 -0.849954 0.357717 0.844317 -0.234149 0.022497 -0.949729 1.037770 -0.027003 -1.030969 0.227586 0.020856 -0.467235 -0.461598 0.147577 -0.903823 -0.796844 -0.498112 -0.241210 -1.078082 -0.118692 -0.066530 -1.208319 -0.532269 0.208606 -0.232647 -0.306275 -0.118666 -0.545307 0.829910 -0.000233 -0.310072 0.378651 -0.020159 -0.089614 0.003038 0.075225 -0.754921 0.223124 0.166852 -0.387239 1.026016 -0.100186 -0.876989 0.471207 -0.591267 -1.036595 0.062291 -0.401267 -0.624091 -0.028968 -0.284249 -0.952385 -1.185724 -0.237259 -0.786328 -0.968178 -0.194246 0.650996 0.087333 -0.743850 -0.590494 -0.242194 -0.900393 -0.567012 -0.465175 -0.774703 0.049606 -0.436773 0.054892 0.357169 -0.485616 -0.457501 0.461115 0.207977 -0.289602 -0.434977 -0.883279 -0.118504 -0.186542 -0.344267 -0.320008 -0.097816 0.589494 0.922006 0.235807 -0.632942 -1.238910 -0.787167 -0.640811 0.441736 -0.168486 0.875025 -0.779709 0.053441 -1.233412 -0.335425 -0.757800 -0.698863 -1.152365 1.163166 1.348058 0.603985 0.544348 0.413156 -0.294746 -0.874455 -0.482542 -1.271631 -0.774205 -0.726843 -0.326448 0.824942 0.190914 0.658219 -0.305209 0.155220 -1.139061 -1.201497 -1.352083 -0.631831 0.010964 0.345117 0.260536 -0.030188 0.638643 -0.350860 0.046667 0.252014 -0.450327 0.519780 0.007965 -0.543371 0.567316 -0.814899 0.287082 -0.844889 0.512411 -0.395274 0.221424 0.737392 0.453232 -0.126588 0.193773 0.213708 0.746296 0.039869 0.792768 0.471874 0.844395 -0.712241 0.821442 0.185363 -0.359260 0.454256 0.761085 0.712548 0.957084 0.084409 1.005731 0.256728 -0.484486 0.582769 -0.853013 -0.805867 -0.452432 0.641047 -0.207439 -0.620148 -0.613909 0.758275 0.532770 -1.111253 0.428369 -0.063795 -0.217809 1.021778 1.048907 -0.241567 0.489167 0.340398 -0.413421 0.987573 0.115372 0.229585 1.098819 1.449344 1.620948 0.368319 0.720880 0.234928 -0.911076 -0.583236 -0.099958 -0.825531 0.288896 0.985365 0.077557 0.340646 0.165684 -0.506375 0.054828 -0.151243 0.563742 0.522814 0.049478 0.283215 -0.068983 -0.638026 0.516901 -0.568747 1.129167 -0.381701 0.755973 0.091558 -0.501464 0.565047 -0.293257 -0.160544 0.152026 -0.072640 -0.933777 -0.224348 -0.706992 -0.380481 0.578452 0.871855 0.151617 0.719087 0.395185 -0.357828 0.246233 0.259474 -0.296455 0.557952 0.145734 0.328085 -0.102878 -0.189938 0.879557 0.604323 1.514111 1.139966 0.464626 0.790217 0.967364 1.680528 -0.400498 -0.917972 -0.141204 0.382085 1.099325 -0.313265 0.725746 -0.004086 0.442238 -0.311422 -0.536400 -0.120647 0.614054 0.275958 1.159077 -0.194589 -0.263228 -0.175247 0.104247 0.222964 1.430511 0.936517 0.117452 1.075758 0.629732 -0.797667 -0.467953 1.438341 0.642170 0.669677 -0.805399 -0.102972 0.959452 0.085542 -0.472883 -0.826516 0.667917 -0.111590 0.475713 -0.442972 -0.115263 0.430846 0.698438 0.596305 -0.331876 0.019307 0.251043 0.819991 1.066184 1.622950 -0.401703 -0.397330 -0.781227 0.452298 -0.071181 -0.584375 -0.098871 0.810309 0.870670 1.002794 -0.863197 0.256019 -0.605301 -0.081623 0.712376 0.201787 0.032004 -0.104986 -1.476531 -0.739336 0.249798 0.202515 0.650656 -0.217503 -0.342012 0.696269 0.671257 1.017934 1.076065 0.415315 0.454159 0.113031 -0.615787 -0.919137 -0.835457 0.494405 -0.023553 -0.600489 1.000770 0.858921 0.189276 0.074037 -0.871939 0.258043 1.370317 -0.705025 -0.271645 -0.857503 -0.617818 -0.129932 -0.662923 -0.506304 -0.664816 -1.015394 -0.363416 -1.341567 1.324029 0.862249 0.893342 -0.327832 0.032634 -0.491872 -0.954876 -0.118377 0.155152 -0.264969 0.875817 0.832844 0.005660 -0.076061 0.356539 -0.610234 -0.645872 -0.087997 -0.348682 -0.523978 -1.036743 -0.301562 -0.629724 -0.196260 -1.123768 -0.122178 -1.768245 -0.083939 -0.710686 -1.348015 -0.315033 0.586125 -0.176037 0.652955 -0.951588 -0.230037 1.276921 -0.462331 0.102770 -0.546341 -0.316292 -0.509114 0.880422 0.337831 0.113399 -0.541557 -0.371196 -0.589465 -0.231230 -0.707321 0.247975 -0.736278 -0.663900 -0.698773 -1.624212 -1.289507 -1.092076 -0.963606 -0.995513 -0.789926 -0.535524 0.566973 -0.100656 0.269925 0.552577 -0.395983 0.006101 0.525363 0.766282 -0.256939 -0.114485 -0.248751 -0.494165 0.898352 -0.605052 -0.486505 -0.004768 -0.197763 -0.334777 -1.445617 -0.867114 -0.916012 -0.264664 -1.407062 -0.789457 -0.970898 -0.926052 -1.127014 0.448598 0.358321 0.495057 0.076542 0.330943 0.993228 0.298873 -0.244336 0.317809 -0.894781 0.657895 -0.809030 0.259430 0.570114 -0.789224 0.266479 0.036046 -0.549581 0.507250 0.330259 -0.738819 -0.288649 -0.427759 -0.996303 -0.579790 0.008545 -1.003955 -0.573513 -0.819247 -0.802556 -1.074959 -0.225460 -0.209154 -0.294494 -0.069700 -0.576989 -0.094936 0.132522 0.244757 -0.984712 0.804092 0.013061 0.534752 -0.260086 -0.978759 -0.177840 -0.599680 -0.035105 0.142555 0.319435 -0.700527 0.348864 0.154323 -0.673995 0.387226 -0.124953 0.564539 0.738479 -0.235521 -0.597484 0.386752 0.315821 0.428076 0.160250 0.362415 -0.647814 -0.511999 0.704936 0.422995 -0.615474 0.668219 -0.786338 -0.231994 -1.101524 0.421259 -0.449618 0.008675 -1.022587 0.361739 -0.114088 0.421488 -0.337210 0.576341 -0.772128 0.697308 0.011371 0.355014 -0.717326 -0.586593 0.550110 -0.766368 -0.662945 -0.010264 0.517172 0.032833 -0.782029 0.715887 0.602186 -0.741905 0.234450 -0.223813 0.790693 -0.758221 0.600552 0.205469 -0.626939 0.880267 1.036997 -0.404261 0.960930 -0.850935 0.413385 0.751630 -0.916694 -0.499117 0.167963 -0.713655 0.745374 -0.979319 0.319476
0.492343 -0.820292 -0.275947 -0.972210 0.472431 -0.597791 -0.248230 -0.524764 -0.185417 0.147769 -0.484235 0.972039 0.767304 -0.859759 0.842372 -0.142334 -0.027904 -0.322380 0.556683 0.941275 -0.186358 0.681513 0.418446 0.835574 0.643972 0.174757 0.244302 -0.832169 0.664133 0.619865 0.115604 -0.386805 -0.779047 0.570226 0.858786 0.072181 -0.679514 0.889046 -0.821861 -0.775206 0.078283 -0.237154 -0.873439 0.172420 -0.893609 -0.943269 -0.892752 0.646059 0.066166 -0.224976 0.612036 -0.370579 -0.023963 -0.298973 -0.579050 -0.350762 0.073451 0.474447 -0.626438 0.310746 0.851711 0.543016 -0.985189 -0.477747 -0.459805 0.568318 -0.820972 0.312283 0.982724 0.746554 -0.268429 1.153698 -0.555465 0.693644 -0.225962 -0.084876 -0.878809 0.295936 0.562481 -0.703236 0.616557 0.862139 0.826084 -0.043889 0.529895 0.990047 -0.198105 -0.095564 0.184160 0.283135 -0.277976 -0.416357 -0.502290 1.015526 -0.097966 0.230796 -0.535870 1.037670 0.674477 0.150227 0.459875 0.024889 -0.282503 0.933181 0.088669 -0.672139 0.330472 0.075891 0.333771 0.266456 0.059749 -0.271734 0.896165 0.278927 0.469479 -0.393572 -0.801522 -0.715805 0.188127 0.777721 0.998923 0.689508 -0.656845 -1.117937 0.561080 -0.691328 -0.548219 0.149239 0.116853 0.469850 0.586557 0.113390 -0.796633 -0.364152 1.268856 -0.131843 0.205993 0.466280 -0.357970 0.270547 0.317530 0.566111 -0.375540 -0.038755 -0.746286 -0.343130 -0.279322 0.942106 -0.271829 0.601363 -0.652208 -0.820426 -0.392096 0.535275 -1.549239 -0.163421 -0.082579 0.146768 -0.451752 -0.501776 0.179821 0.808770 0.190707 0.267965 -0.043120 0.527095 0.204159 0.218175 0.039556 -0.171743 -0.705720 0.662481 0.117414 0.342630 0.423848 1.015829 -0.529121 -0.103521 -0.231349 -0.989294 0.621854 -0.328070 -0.076309 -1.409711 -0.778612 -0.163888 0.301818 -0.717488 -0.551207 0.012618 -0.438400 -0.201997 1.025324 0.607307 -0.736933 -0.912850 -0.446231 0.912556 0.667531 0.504304 -0.485022 0.057069 0.658968 0.004778 -0.525808 0.270841 0.683363 0.213358 -0.415268 -1.010291 0.399122 -0.848663 -0.406475 -0.605475 -0.994595 -0.680037 -1.056003 -0.738078 0.506149 0.176489 -0.323137 0.078065 -0.120666 0.548421 0.617086 -0.535824 -0.465153 -0.541580 -0.575297 0.507019 0.755224 0.203397 -0.076701 0.897253 0.888251 -0.342143 -0.309919 0.038760 -1.033062 -0.286197 -0.036138 -0.444482 -0.540576 0.213595 0.619376 -0.898893 0.439326 0.114829 -0.147826 -0.397165 0.897731 0.251239 0.753212 0.283825 0.682442 -0.398488 -0.198482 0.680208 -1.190789 -0.003039 -0.224333 -0.755481 -0.304408 0.522960 0.988120 0.001319 0.210847 -1.204883 -0.843266 -1.339350 -1.343291 -1.460251 -1.476351 -0.036575 0.237338 -0.164404 0.750594 -0.095696 -0.528074 0.352583 0.347387 0.093148 0.851770 0.386041 -0.296674 0.868367 0.640548 0.937630 0.161161 1.284134 -0.873317 0.387446 0.361548 -0.050599 0.565854 0.364112 1.273015 0.613530 -1.371340 -0.336509 0.152068 0.479019 -1.202296 0.696843 -0.041380 -0.493213 0.238211 -0.750205 -0.150315 0.248471 -0.613694 -0.100745 0.239640 -0.690871 0.835684 0.292360 0.586981 0.225587 -0.057400 -0.771419 -0.097620 -0.587104 -0.002718 1.897677 1.503477 0.741608 -1.067289 -0.795041 -1.175882 -0.793285 0.179075 0.617814 0.024320 0.539544 -0.561517 0.843943 -0.242022 -0.987833 -0.876308 -0.610051 0.517836 0.084433 -0.554325 0.744456 -0.646054 -0.363512 0.137220 0.083340 0.564982 -0.704022 0.705537 0.478914 1.241860 0.292739 0.104345 -0.049670 0.682153 0.192881 -0.653000 0.070421 -0.764131 -0.571986 0.154847 1.018453 0.777926 -0.327266 -0.050115 -0.995062 -0.824917 -0.121238 0.721767 -0.677728 -0.953951 -0.581304 0.560196 0.471896 0.022485 -0.396921 1.120572 1.389062 1.331924 0.524300 -0.567097 0.806693 -0.626365 0.988089 -0.000594 0.931767 -0.206343 -0.949285 0.407627 0.226137 -0.452853 0.419191 0.933835 0.004599 0.386133 0.199162 -0.532623 0.622040 -0.936396 0.900044 0.091959 0.997021 -0.194971 0.283456 1.358922 0.359689 0.257939 0.543806 1.112511 -0.607634 -0.654711 0.446580 -1.059262 -0.413605 -0.100510 0.122419 1.024692 0.751934 -0.356117 -0.125081 0.993931 -0.086813 0.806827 0.975055 0.301340 0.135295 -0.771487 0.267585 1.101426 0.859386 0.344082 0.007503 1.700956 0.492447 0.394345 0.448645 0.553062 0.673787 0.619038 -0.579085 0.722831 -0.814704 -0.157858 -0.597400 0.418453 -0.462182 -0.888026 0.944531 0.214375 0.164492 0.292844 0.414345 -0.302478 0.454457 -0.486844 -0.126219 -0.674494 -0.455417 0.566972 0.848753 1.463443 0.741676 0.430320 1.082769 0.200853 -0.056326 0.163481 -0.095389 0.189386 0.383302 -0.721745 -0.509311 -0.038154 -0.876702 0.812759 -0.526583 -0.949862 -0.726795 1.156434 -0.813925 0.107218 0.586950 -0.371593 -0.474494 0.213500 -0.092218 0.595587 1.129713 -0.108177 0.625743 0.330319 0.651547 0.669022 -0.344838 -0.072616 -0.137190 -0.141266 0.154176 0.595343 0.464256 -0.868887 -0.455027 0.508993 0.873415 0.648173 -0.734677 -0.237754 0.056187 1.245236 -0.315463 0.007516 0.933391 -0.618683 -0.377779 0.020783 -0.196589 1.437780 0.754514 0.856273 -0.813841 0.474104 -0.084631 0.465521 -0.943917 0.768810 0.283598 0.894343 -0.112703 -0.159230 -0.775856 -0.406097 -0.738850 0.253466 0.552079 -0.283119 0.887182 0.797665 1.193612 -0.073572 0.952696 0.298966 -0.384054 -0.407814 -0.091040 -0.103998 -0.283555 -0.312400 0.192273 -0.716452 0.914916 0.770982 0.379758 0.559117 0.580958 -0.784337 0.381683 -0.376140 0.295422 -0.918951 0.140485 -0.513969 -0.769892 1.045210 0.382417 -0.881360 0.585782 0.328901 0.251051 -1.087352 -0.463045 0.090574 -1.384720 0.067258 -0.659316 -0.490611 0.523057 0.523150 -0.324933 -0.403754 0.030675 0.234232 0.888193 0.591039 -0.861286 0.100084 0.589428 -0.193179 0.068275 -0.343619 -0.631754 0.222786 0.398629 -0.882110 0.734268 0.646987 0.367323 -0.681100 -0.127347 0.125181 -0.489920 0.662339 0.031355 -0.434086 -0.850605 0.520697 0.165317 0.257893 -0.325324 0.200732 0.010707 0.518279 -0.333097 -0.590462 0.223340 0.984850 0.093598 0.733802 -0.734309 -0.647900 0.040924 0.084969 -0.323381 0.094666 -0.503161 -0.189732 -0.056207 0.488460 -0.080869 -0.822513 0.902990 0.524579 -0.708854 0.560509 -0.466926 0.200997 0.620944 0.654511 0.401416 -0.602243 0.253541 -0.747174 -0.097829 -0.562542 0.604970 0.386868 0.632076 -0.723690 1.065786 0.299739 0.471798 -0.809446 -0.212801 -0.233330 0.155584 -0.429468 0.208256 -0.195520 -0.238103 -0.263003 -0.174500 -0.240642 0.026682 1.011850 0.855999 -0.793059 -0.031594 0.334969 -0.634056 0.463819 -0.850148 -0.037909 -0.512297 0.021082 0.727165 -0.084340 0.028952 -0.206450 -0.234787 -0.849271 0.830020 0.728766 -0.530391 -0.109325 -0.468460 1.073607 -0.053270 0.608438 0.627857 0.304392 0.602974 0.407706 -0.253496 -0.530256 0.999025 0.084294 -0.974901 0.306139 0.687380 -0.714135 0.570740 0.279302 0.111815 -0.156643 0.028742 0.818842 0.750585 0.495757 0.134731 0.161610 0.458913 0.742736 0.702593 -0.396318 0.578454 0.983119 -0.189470 0.306073 0.474946 0.324488 0.073341 0.587954 -0.693982 -0.552346 -0.945295 0.271204 -0.638369 -0.743050 0.445635 -0.549240 -0.067913 -0.697073 0.319249 -0.421363 0.940868 -0.904834 -0.271978 0.328085 0.640309 0.650839 0.599147 -0.321013 -0.506672 -0.739029 -1.183644 -0.439272 0.954887 -0.461632 -0.685566 -0.898339 -0.057027 0.006561 0.675920 0.182140 0.979268 0.404185 -0.588880 -0.483117 -0.074063 -0.240925 0.891647 -0.923719 -0.123580 0.429791 0.774261 -0.980510 -0.223062 0.297809 -0.865230 -0.745626 0.572567 0.189472 0.217246 -0.301606 -0.914410 -0.157114 -0.096149 -0.365918 0.598953 0.140415 -0.627525 0.498180 -0.929818 0.538593
1.159274 -0.266590 -0.537416 0.839176 -0.673538 0.699935 -0.376106 0.579645 0.054599 0.129252 0.930144 0.787461 0.416121 -0.586262 0.422924 -0.468000 -0.567305 0.226032 0.664388 -0.858155 0.143202 -0.724372 0.569853 -0.042996 -0.033439 -0.550572 -0.087587 -0.819961 -0.819925 -0.223509 -0.674198 -0.530741 -0.982018 0.959082 -0.299234 0.587232 0.973210 0.790446 -0.845095 -0.159791 0.593598 0.586107 0.336529 -0.897442 -0.565869 -0.443479 -0.360642 -0.548344 -0.768301 -0.019059 -0.210672 -0.924992 -0.802188 0.608811 -0.193810 -0.224695 0.056942 -0.439622 0.465723 -0.954512 0.751557 0.781757 0.195543 -0.061551 -0.177283 -0.010807 0.492407 0.975837 0.496181 0.676991 0.418067 -0.368687 0.746941 -1.010084 -0.020888 -0.780812 0.905715 -0.190232 0.686922 -0.343419 0.818405 0.351520 0.456920 0.773778 0.650667 0.565477 0.665407 0.897671 0.914939 0.526028 0.723180 0.191464 -0.262277 0.957240 -0.520866 0.967006 -0.528241 0.451184 0.767391 -0.371080 -1.086112 -0.166784 -0.763477 -0.324634 0.828794 0.701221 -0.082947 0.230669 -0.003227 -0.131672 -0.748741 -0.816317 0.646848 -0.594179 0.075668 -0.098056 -0.036846 0.434313 -0.132648 0.770171 -0.554274 -0.115708 0.528499 1.179313 0.181461 0.594282 0.622472 -0.004043 -0.534081 -1.231286 -0.667988 -0.737093 -0.575612 -0.176768 -0.959320 0.490334 -0.464443 -0.074025 -0.525196 0.931174 0.029335 0.672349 0.623602 0.446621 -0.000563 0.541430 -0.093050 -0.663135 1.138576 -0.492014 0.140184 0.568068 0.223698 0.308540 1.101756 -0.193631 0.005600 -0.313251 0.087826 0.352299 0.794671 -0.326589 -0.197677 -0.348026 0.223839 -0.742816 -0.488224 0.834734 0.955218 0.045250 0.464695 0.563882 -0.416816 0.242044 -0.308318 0.723263 -0.284457 -0.661881 -0.957662 -0.647654 -0.066359 -0.297458 0.531620 0.837685 0.935919 0.491004 -0.367297 -0.496319 -0.030093 -0.079531 -0.785851 -0.138059 -0.844169 -0.178117 0.380356 -0.952569 0.301738 0.938590 -0.989023 0.496284 -0.060165 0.334767 -0.215847 0.486637 0.403789 -1.140076 0.945987 -0.546060 0.500455 0.755911 0.822338 -0.386939 -0.067899 0.558306 0.424094 0.235665 -0.969484 -0.445918 -1.418201 -1.356248 -0.224414 -0.388709 -1.203081 -0.105958 0.977879 0.816454 0.724343 -0.933278 -0.030560 -0.021672 0.086447 -0.761511 -0.485305 0.906872 -0.102331 1.041302 0.737619 0.577601 0.383624 0.239569 0.534126 -1.022763 -0.048813 -1.547014 0.550192 0.070276 -0.180692 -0.170535 -0.731324 0.369246 0.706454 0.407711 -0.045741 -0.930230 0.807321 -0.940744 0.634861 0.727714 -0.143253 -0.744405 -0.494266 0.681795 0.190786 0.865745 0.421425 0.159501 -0.080027 -1.019244 0.805424 -0.398776 -0.527084 -0.161529 -0.555935 1.107147 -0.917574 -1.389672 0.121755 -0.318138 -0.156523 0.919908 0.592960 -0.456487 -0.949999 0.118600 0.611419 -0.919701 -0.049161 0.102080 -0.115096 0.346353 0.009303 0.247336 -0.893538 0.177656 -0.608334 -0.118230 -0.866163 0.495159 0.196035 1.136483 1.537032 -0.225728 -0.495119 0.802215 0.652064 -0.195826 0.818913 -0.498199 -0.835650 -0.186003 0.345740 -0.152391 0.457071 0.532145 -0.104606 -0.103776 -0.101650 -0.281526 0.249758 -0.865200 -0.649779 -0.985385 0.732794 0.971556 0.329433 0.949603 0.416067 -0.266457 0.334513 0.685256 0.214986 -0.500901 0.646858 0.438553 0.175702 0.509215 -0.423322 -0.436155 -0.290932 -0.791422 0.084146 1.171348 -0.721171 0.321896 -1.008285 -0.355033 -0.587192 -1.115905 0.392597 -0.856263 1.030597 1.015541 0.220905 -0.305135 -0.235682 -0.785470 0.133135 0.501756 1.036578 -0.420760 -0.589562 -0.831817 0.126752 -0.677952 0.726223 0.753736 0.145967 -0.097396 -0.107230 0.180655 0.569194 -0.193423 -0.018051 -0.457410 0.560949 -0.168608 0.187371 0.141992 -1.135888 -0.697194 0.184043 0.175873 -0.419313 0.152998 -0.471637 -0.378443 0.583141 0.512435 -0.209227 -0.736454 0.369342 0.875766 0.653724 -0.742920 -0.851566 -0.227050 -0.451246 -0.368034 -0.680438 -0.782323 0.204186 0.511188 -0.848115 -0.070312 0.142594 0.722871 -0.345906 -0.255285 0.205286 -0.145056 -1.455665 -0.894649 -0.136377 -1.047379 0.596269 -0.605882 -0.342897 0.233809 0.899070 0.897887 -0.693372 0.938781 -0.706475 -0.840197 0.387345 0.150118 0.297203 0.145124 -0.630034 0.373068 -0.735483 -0.715477 0.288407 -0.162624 0.670220 0.715039 -0.709356 -1.211291 -0.640070 -1.318518 0.580023 -0.939487 0.273026 0.417841 0.748619 1.188059 0.904449 -0.546689 -0.316055 0.315481 0.210295 0.813587 0.001476 0.062757 -0.405230 0.401106 0.613496 -0.965214 0.630562 0.033692 0.133204 0.116660 -0.931326 -0.507645 0.461348 -0.359881 -0.824469 0.391651 -0.073038 -0.878261 -0.210570 0.692322 0.081545 0.510108 0.826001 -0.553424 0.571538 -0.490727 0.034107 0.715336 1.146881 0.933173 -0.843782 0.740149 0.808251 1.091756 -0.558903 0.869479 -0.699775 0.501840 0.062779 0.831650 -0.069636 -1.211554 -0.503854 -0.727545 0.620837 -0.872391 1.220286 -0.507560 1.294779 0.316213 -0.029547 0.122980 -0.533826 0.765010 -0.068964 -0.122741 0.118852 -0.211170 -0.729784 0.284441 0.210720 0.467922 -0.090004 0.806270 0.469344 -0.406460 0.492781 -1.082827 -0.840828 -0.034441 -0.477495 0.112123 0.922557 0.505656 -0.020012 0.750042 0.625963 -0.343430 1.121410 0.301094 0.830717 -0.957242 0.781450 -0.932327 -0.704966 0.623811 0.925725 1.138475 -0.186926 -0.274100 -0.015764 -0.867749 0.774516 -0.355569 -0.242589 -0.706007 -0.184683 0.098264 0.515954 0.905354 0.135204 0.843419 0.797917 0.571309 0.092930 0.018650 -0.362223 0.647150 -0.295464 -0.892624 -0.227256 0.857455 0.471484 -0.471901 1.357554 0.161097 0.500714 0.157377 0.042439 -0.841047 -0.095042 0.599338 0.508506 0.508741 0.355638 -0.363444 0.134031 -0.081560 1.128968 0.338310 1.209768 0.241168 1.164874 0.078556 0.659122 -0.345514 0.516603 -0.962775 0.226225 -0.413854 -0.394553 0.595949 0.135261 0.476419 0.780021 0.758947 -0.469015 0.653710 0.207146 0.129984 0.681266 -0.082506 -1.217817 -0.161487 0.646157 0.728916 1.411161 -0.354872 1.030719 0.337632 0.247579 0.189629 -0.744062 0.621477 0.307804 0.694501 -0.712958 0.875813 1.053793 -0.107374 -0.457364 0.488625 -0.061648 -0.094750 0.998625 0.701309 -1.452058 -0.308729 -1.049140 -0.417607 0.455511 1.014404 0.375612 -0.303595 0.209509 0.654763 -0.395440 -0.774119 -0.210313 -0.952677 -0.046410 0.457786 0.431802 -0.940416 -0.321957 -0.069990 0.711303 -0.477916 0.490757 -0.068427 0.343204 -0.245000 -0.166456 0.096638 -0.312146 0.620453 -0.509575 -0.348697 0.500106 0.240718 0.280456 -0.943096 -0.581437 -0.828290 -1.016890 -0.628415 -0.015597 0.884796 -0.617007 0.334022 0.065266 -0.146716 0.715552 0.173164 -0.942723 0.919715 0.417244 -0.726582 0.644350 0.501193 0.152082 -0.464858 0.115460 -0.736582 0.892397 0.900094 0.643669 -1.049263 0.403614 0.261218 -0.619460 -0.115666 0.784429 -0.433647 -0.474017 -0.233184 -0.534847 -0.329264 -0.020891 0.317613 0.131799 0.578159 -0.879301 0.734524 -0.071026 0.152225 -0.517715 0.060125 0.391074 0.129470 0.300757 0.048982 -0.623109 0.433281 0.476928 -0.636892 0.112246 0.148233 -0.019035 -0.262770 0.115523 0.622963 0.171958 0.030506 0.938325 0.423705 -0.102711 0.474318 -0.799400 -0.347600 0.301600 -0.915707 -0.320473 0.391651 0.775830 0.624038 0.606338 -0.858321 -0.647513 -0.614826 0.333712 -0.720074 0.668607 0.235469 0.840665 -0.320486 -0.796640 -0.047939 -0.607902 0.600598 0.387881 0.261087 0.699360 0.913061 0.290091 0.283567 0.360581 -0.788226 -0.032020 -0.165173 0.485195 0.095761 0.710975 0.319998 -0.266002 0.307057 -0.509878 0.200490 -0.323699 -0.957165 0.986979 -0.775433 -0.306172 -1.039413 -0.705119 0.642995 -0.715553 -0.096096 -0.378504 -0.251365 0.517392 0.456915 0.489631
-1.450473 0.690457 -0.788822 0.070575 0.110261 -0.377191 -0.762615 -0.187057 -0.442523 0.630130 0.268041 -0.699025 -0.907244 0.328495 0.440183 -0.755058 0.397359 0.889531 -0.966531 -0.714811 0.282870 -0.024833 0.218756 -0.205046 0.993346 0.627884 -0.145022 -0.138093 0.440923 -0.590477 -0.475000 0.513327 -0.707315 -0.946895 -0.291347 -0.397152 0.057207 -0.444300 0.185253 0.720167 0.044306 -0.332037 -0.617674 0.726182 -0.312443 0.958141 0.968051 0.876489 0.066973 0.060402 0.498424 0.838424 0.437111 -0.271888 0.863273 -0.903598 -0.230130 0.876811 0.611884 -0.713053 0.009403 -0.788078 -0.324051 -0.669982 0.772590 -0.962748 0.519134 -0.302735 -0.767919 -0.773511 0.019731 0.500705 -1.194931 0.479083 -0.873235 -0.340838 0.368430 -0.334841 0.244670 0.303603 0.096829 0.178098 -0.163318 0.403949 0.333390 -0.878161 0.811692 -0.195789 0.984338 -0.658193 0.110462 -0.040268 -0.260108 0.851401 0.683322 0.383624 -0.147368 0.686336 -0.016701 0.215480 0.682015 -0.724508 -0.857546 -0.500851 -0.306200 -0.215323 0.299506 -0.468891 -0.706038 0.778848 0.807575 -0.237426 -0.181002 0.255684 -0.658535 -0.458143 0.801233 -0.267155 0.500367 0.501991 -0.272506 0.001171 0.553613 -0.910129 0.037927 -0.322177 -0.205916 0.318726 -0.834975 0.145088 -0.077957 -0.199014 -0.038781 -0.058815 -0.702071 0.834377 -0.031196 -0.342602 -0.874349 -0.012865 -0.213063 0.466761 0.816688 -0.534956 -0.261524 -0.705848 0.723616 -0.192486 0.603410 -0.065723 0.116012 0.057044 -0.146312 0.399847 1.369463 0.037243 0.992811 0.895449 -0.112080 1.055413 0.098742 -0.498309 0.382081 -0.466593 0.331468 0.640073 0.121483 -0.010316 0.235855 -0.792057 0.998701 0.902875 -0.350861 -0.166371 0.872982 0.024583 0.032321 -0.682060 -0.029563 0.454632 -0.426573 -0.420395 0.286103 0.607248 -0.667494 0.740516 -0.351586 0.783989 0.201842 0.493011 -0.290614 0.233913 -0.256780 0.124629 0.949919 0.262875 0.168152 0.137961 -0.573997 0.002508 0.387414 0.252877 0.538294 0.739931 -0.499858 0.480117 0.288510 -0.837344 -0.118173 0.862983 -0.600026 0.438916 0.217511 0.219082 -0.419656 -0.225290 -0.003465 1.177925 -0.395891 0.391317 0.202265 0.750801 -0.536659 -0.515086 -0.499924 0.252901 -0.352270 -0.692164 0.085861 -1.178078 -0.763171 -0.337157 -1.318170 -0.958801 -0.231950 -0.042450 -0.338869 -0.031371 0.130651 -1.013279 0.165633 -0.521589 0.555863 -0.106319 0.093782 -0.199891 0.102069 -0.412011 0.036539 0.466174 -0.398239 -0.283147 0.519576 -0.133079 -0.467117 0.138659 0.027106 0.215974 -1.168501 -0.761581 0.163610 -0.172475 0.851735 -0.179627 0.579532 -0.125889 0.068696 -0.387162 -0.962132 -0.135420 -1.265634 -0.796072 -0.423744 -0.458743 0.396420 -0.662520 0.638948 0.478012 0.101602 -0.871995 0.612409 -0.517696 -0.967803 -0.157307 -0.420575 -0.926554 0.283960 0.263373 -0.107445 -0.043224 0.325249 -0.556976 -0.616818 0.948334 -0.354778 0.909664 0.267963 0.309352 1.120223 0.006814 0.212695 0.298542 -0.277777 0.648217 0.435107 0.637886 1.158089 -0.240532 -0.129105 -0.079944 0.772371 0.776764 -0.271111 -0.102137 0.156084 -0.287812 -0.833103 -0.949024 -0.543607 0.364442 0.745618 1.083070 0.966289 1.193101 1.263802 1.173182 1.047242 1.019965 0.318946 -0.456259 -0.513990 -0.703083 0.275532 0.258612 0.679064 -0.014846 -0.489015 0.687979 0.569717 -0.686520 -0.288454 0.654847 -0.960732 -1.133965 -0.860808 0.512346 0.699719 0.361560 -0.483697 1.529171 0.446697 1.188430 0.264048 -0.116590 0.018628 0.230557 -0.533760 -0.050699 -0.439663 -0.087692 -0.892232 -0.839579 0.430768 0.828383 0.264929 -0.201262 -0.609701 0.292349 0.661568 -0.317707 -0.566911 -1.428593 -1.774796 -1.033501 -0.336546 -0.682783 -0.226427 1.139241 0.247866 0.137794 1.488577 0.313319 -0.468969 1.003472 0.087789 -0.914232 -0.222135 -0.360345 -0.472618 -0.124420 -0.418062 -0.785298 0.032318 -0.024607 0.756481 -0.315141 -0.121621 -0.354540 -0.931268 -0.516863 -2.022156 -1.600597 -1.663525 -0.675778 -0.798755 -0.262454 1.039938 0.946145 0.475140 0.469375 -0.328383 -0.418450 -0.141452 0.725737 -0.001014 -1.343513 0.145170 -0.762519 0.873180 0.526519 -0.682755 0.383161 0.687380 0.735840 0.149924 -0.516705 -0.966138 -0.477089 -2.281027 -1.520005 -1.568353 -2.016998 -0.399107 -0.454822 0.949522 0.990790 -0.511968 -0.617923 0.089302 0.715952 0.241757 0.640586 0.641922 0.081363 -0.460200 0.488842 0.604253 0.811729 -0.933941 -0.921556 -0.894994 0.723514 -0.215570 0.880537 0.041119 -0.662034 -0.350206 -1.734193 -0.819422 -2.442486 -1.658734 -0.910053 -1.103803 0.711850 0.135740 -0.851364 -1.154810 -0.376297 0.344339 -0.592833 -0.186870 -0.239451 -0.126259 -0.175484 -0.943743 0.754341 0.794583 -0.393670 0.031333 -0.644713 0.110479 0.061611 1.038855 -0.186702 0.762807 -0.400168 -0.865060 -1.357745 -1.143405 -0.444573 -1.910172 -0.369452 0.153644 -0.633433 -0.021623 -0.694872 0.480277 -0.552381 -0.130610 0.408213 -0.210361 -0.264720 -1.024615 0.560056 -0.869724 -0.666438 -0.403812 -0.662881 1.590298 0.596368 0.518265 1.118864 -0.009773 0.787447 0.473641 0.541379 -0.184451 -0.459881 -0.621791 -0.476119 0.128133 0.449329 -0.616652 -0.043813 0.434033 -0.291167 0.378415 0.207717 0.481515 -0.385538 0.119083 -0.879615 0.867328 -0.588254 -0.771339 0.118890 0.865127 0.102782 0.740937 -0.099242 0.323402 0.649431 -0.072558 -0.342949 0.493075 -0.137356 0.658716 -0.508901 -0.089475 0.552768 -0.177625 -0.075945 -0.446370 -0.531602 -0.108179 -1.036988 0.419661 -0.575651 -0.907041 0.741280 0.018818 -0.529577 -0.981865 -0.561534 -0.709564 0.371312 -0.950387 1.544155 -0.412561 0.444486 0.827444 0.083649 -0.093056 -0.708944 -0.130484 -0.181063 -0.725095 -0.004585 -0.616008 0.304164 -0.000741 1.021919 0.080821 -0.210423 -0.349687 -0.909066 -0.215875 0.248375 -0.253930 -0.062266 0.676788 0.307450 0.337806 0.204553 0.016035 0.530180 -0.337816 -0.283601 0.544724 0.061749 0.376159 -0.324192 -0.567454 -0.196646 0.942656 -0.184928 -0.483447 1.364173 0.560378 -0.470802 0.249119 -0.727613 0.424202 -0.437720 -0.434457 -0.756069 0.847149 -0.824663 -0.527194 0.735850 0.675275 -0.757160 0.796177 -0.419386 0.541343 -0.576557 -0.016066 0.377420 -0.817158 0.234288 -0.151525 -0.257884 0.147338 -0.734793 -0.621670 -0.278244 -1.268723 -0.316045 -0.709375 -1.097142 -0.371885 0.554835 -0.843561 -0.280353 -0.862926 -0.762789 -0.559930 0.847662 -0.965257 -0.637851 -0.301832 -0.391715 0.308990 -0.053183 0.689890 -0.156332 -0.044242 0.943271 0.551518 0.611797 -0.218491 -0.179168 -0.330490 -0.888070 -0.120733 -0.262823 -0.022335 -0.221053 -0.359032 0.399513 0.958889 0.818706 -0.002687 -0.867093 0.968741 -0.518725 -0.796168 0.492987 -0.395689 -0.140211 0.004349 -0.682328 0.567080 -0.699494 -0.556956 -0.766429 -0.994049 -0.738397 -0.825504 -0.486850 0.088567 -0.696998 -0.662935 -1.123120 0.458353 -0.536090 -0.146190 -0.282481 -0.659919 0.608249 -0.042379 -0.756932 -0.373344 -0.182528 -0.128215 -0.472676 -0.966001 -0.969378 -0.506994 -0.423397 -0.432582 -0.437566 -0.643581 -0.178310 -0.553195 -0.885045 -1.103164 0.334487 0.430669 -1.082611 0.330233 -0.563924 0.813239 -0.625904 -0.863513 0.213872 0.660872 -0.148338 0.359846 0.494177 0.700236 -0.002267 -0.659888 0.958735 0.513160 0.796493 -0.293250 0.353017 0.579674 0.328001 -0.619186 -0.058623 -0.485113 -0.687529 0.169075 -0.655030 -0.456530 0.653577 0.244445 -0.078496 -0.049545 -0.038426 0.663450 -0.959420 -0.907439 0.173274 -0.643926 0.058951 -0.771293 0.149902 -0.756419 0.293288 -0.188092 -0.419774 -0.187444 0.964902 -0.484886 -0.457375 0.288516 0.211129 -0.468782 -0.074158 -0.277816 -0.292337 0.971467 -0.295569 -0.060020 0.411924 -0.752489 0.395898 -0.101018 0.442459 -0.871982 -0.655881 -0.921713
0.120000 -0.624380 0.473279 0.003591 -0.822460 0.117260 0.554159 0.133999 -0.347087 0.578296 0.841122 -0.378562 0.279087 0.096107 0.977806 0.772646 0.301353 -0.234754 0.450748 0.870371 -0.867580 -0.819875 -0.380604 0.331745 0.898645 -0.505033 -0.887638 -0.279687 0.039513 -0.161288 -0.811524 0.362750 0.703710 -0.008483 0.494304 -0.094575 0.540370 0.382714 -0.598806 0.653690 0.898465 0.502439 0.198328 0.627833 -0.413972 -0.213291 -0.323546 0.403081 0.476424 0.509736 -0.489195 0.973213 -0.323724 -0.191073 0.498155 -0.207430 0.528508 0.917925 0.702667 0.810076 -0.263475 -0.810586 0.105093 -0.370320 0.543186 -0.438596 0.753748 0.670146 0.664587 -0.170509 1.010695 -0.396173 0.906909 -0.000568 0.311899 0.457909 0.730948 0.333238 0.769985 0.516481 -0.695303 -0.069789 0.227345 -0.946374 -0.700709 -0.659138 -0.759868 0.481905 -0.670448 -0.074012 0.615936 -0.500731 -0.967740 0.693979 0.457053 -0.535724 0.056887 -0.520044 -0.721408 0.608270 -0.599315 -0.501554 0.584500 -0.859525 -0.503274 -0.899934 -0.895629 0.307987 0.719253 -0.692588 -0.346104 -0.159887 0.992486 0.907485 0.904642 -0.691455 0.757344 0.212539 -0.176489 0.178680 -1.002194 -0.890471 -0.569580 -0.121321 0.445499 -0.483028 0.077850 0.708909 0.545996 0.940285 -0.479027 0.002705 0.331596 -1.209240 -0.093380 -0.689912 -0.202792 0.924833 0.641980 0.470308 -0.488118 0.373972 -0.979457 -0.744970 -0.876215 -0.891621 -0.653454 0.169015 -0.405794 -0.486460 0.671647 -0.158047 -0.440160 -0.637875 0.280033 0.712097 -0.054394 -0.344277 1.077264 -1.801895 -0.859444 -0.803197 -0.148841 -0.250802 -0.038685 -0.182874 0.985282 -0.878833 -0.851784 -0.193279 0.291605 -0.905808 -0.437771 0.578426 -0.447782 0.760338 0.310700 -0.414298 -0.571043 0.172493 1.078092 -0.672804 0.556634 -0.213027 -0.534088 -0.824961 -1.399919 -2.098788 -1.658996 -1.619643 -0.692870 -0.753171 0.412419 0.300540 0.846747 0.212701 -0.340915 -0.430342 0.815235 -0.198224 -0.179113 -0.100590 -0.313990 -0.004147 0.131527 -0.218238 -0.869299 -0.480582 -0.383064 -0.940569 -0.906249 -0.977519 -0.499667 -1.762340 -2.595372 -2.240773 -1.081268 -0.997574 0.674019 -0.875904 -0.222886 -0.139888 -0.478734 -0.178636 0.688612 0.962590 0.637912 0.021662 0.238853 -0.103733 0.450314 0.119960 0.903200 0.621857 0.699467 -0.659165 -0.748902 -0.537837 -0.695199 -1.508695 -1.594214 -1.276190 -0.393581 -1.131189 0.326484 0.593609 0.851343 1.132956 1.409680 0.093070 0.054046 -0.880405 0.878237 0.757572 0.978985 -0.310696 -0.239807 -0.195398 -0.039910 0.284045 0.111316 0.190724 -0.108241 0.281220 -0.026425 0.067161 -0.503423 -0.963048 -0.723046 -0.267189 0.119186 0.896909 -0.187675 0.199524 0.683745 1.019886 0.089971 1.114191 0.684299 0.134587 0.654657 -0.775621 0.524006 0.215857 -0.350243 -0.564095 -0.510405 -0.047062 0.924814 0.291049 -0.798549 0.605243 -0.291877 0.541028 1.314725 -0.837042 0.707200 0.727157 -0.173212 1.070011 0.844588 0.099718 0.401363 0.298885 0.113344 0.187205 0.495007 0.622493 -0.569183 0.893385 -0.346621 0.446459 0.686511 0.877744 -0.535111 -0.346797 -0.271540 -0.265263 1.045016 -0.090229 1.221507 1.113380 -0.586905 -0.498656 0.603111 -0.796635 -0.463910 0.747100 -0.054948 0.662589 -0.151096 0.348786 0.977429 0.177857 0.028671 0.494950 0.106375 0.800580 -0.293824 1.091236 -0.003149 -0.528781 -1.208308 -0.642231 0.161320 0.305084 0.440684 0.348993 0.968272 0.164719 0.331332 -0.502035 0.463973 -0.306034 0.092045 0.280658 -0.511288 0.960367 0.803777 -0.144546 0.620599 -0.277633 -0.574453 0.718462 0.602154 -0.614644 0.429709 0.596878 -0.301106 -0.183874 0.183025 0.142047 0.059419 0.732968 0.283332 0.230641 0.601257 -0.140694 -1.210160 -0.239052 -0.480954 -0.205788 0.155755 0.788459 0.280032 0.210454 -0.003798 0.131993 0.490569 0.146432 -0.627296 0.791448 0.528866 0.408169 0.857127 0.688687 -0.699319 -0.031136 0.286106 -0.143241 0.663177 0.671133 -0.263156 0.406955 0.107003 0.274986 -0.351107 -0.664322 0.468670 0.148985 0.447518 -0.631867 0.028300 0.312120 -0.780514 -0.294205 0.275266 0.818063 -0.839236 -0.877058 -0.425512 -0.303333 -0.407253 0.309528 0.783534 -0.310920 -0.428518 -0.954837 -0.221125 0.146840 0.596511 0.324930 -0.781853 0.920835 -0.056299 -0.145779 -0.879129 0.060133 0.259989 0.580614 0.322601 -0.081063 0.819913 0.164617 0.643595 0.983359 -0.759649 0.705806 0.363686 -0.337562 -0.755305 0.767091 -0.683052 -0.354383 -0.907837 -0.098241 0.092783 -0.458139 -0.247147 -0.067412 -0.685986 -0.412557 0.501089 -0.293906 0.198649 -0.059932 -0.916961 -0.811815 -0.784687 -0.666381 -0.069800 -0.814067 0.944344 0.600493 -0.775708 -0.648511 -0.756084 0.974251 -0.652095 0.654586 -0.583264 -1.328996 0.149873 -0.413204 0.495625 -0.189592 -0.659892 -0.039863 -0.076144 0.138612 0.623754 0.678221 -0.163240 -0.547241 -0.385765 0.647054 0.220100 0.360511 -0.604070 0.236097 0.837535 -0.392456 0.842451 -0.863862 0.343327 0.364560 -0.296153 -0.249108 -0.969319 0.100630 -0.927978 -0.459063 0.328794 1.022317 -0.441069 -0.838110 0.207342 1.402393 -0.142965 -0.302613 -0.143917 0.414132 0.124969 -1.010568 -0.433486 -0.360621 -0.205402 0.414159 -0.194582 -0.246633 0.287041 0.710956 -0.231951 0.748522 0.335573 -0.419557 -0.529863 -0.483806 -0.186315 0.451550 -0.549845 0.231430 0.145857 -0.129026 0.587160 1.079249 0.793148 -0.035707 0.714788 -0.222880 -0.006879 0.243034 0.041818 -0.112376 -0.843335 -0.433070 -0.133809 0.342634 -0.241903 -0.265656 -0.571730 -0.808947 -0.145939 -0.232277 0.169187 -1.106550 -0.520928 -0.492567 -0.020134 -0.041334 -0.257658 0.171749 -0.695217 0.718426 -0.856888 0.269499 -0.440417 -0.083746 0.512652 0.299640 -0.977382 -0.122220 -0.536021 -0.121029 -0.105163 0.333375 -0.891726 0.381053 -0.739544 0.416611 0.159140 0.438391 0.816777 0.424481 -0.783224 -0.934193 -0.278983 -0.344208 0.309327 0.669682 0.890363 0.144520 0.646918 0.417641 0.863937 -0.298911 -0.430544 -0.183156 0.591360 0.154957 -0.617512 -0.654048 0.624316 0.396104 0.340278 0.719916 -0.071575 -0.233911 -0.618115 0.915913 -0.884058 -0.476630 -0.225647 -1.354003 -0.329022 -0.967578 -0.407089 -0.013426 0.849555 0.316629 -0.957250 -0.228660 0.874473 -0.256173 -0.323124 -0.612355 0.514623 -1.113177 0.260696 0.061797 -0.256528 0.554190 -0.370121 0.227254 0.233318 0.143171 -0.230610 -0.518821 -0.475775 -0.432021 -0.338993 -0.474218 0.097943 0.122613 -0.259292 1.455494 -0.054299 0.417544 -1.174339 1.310379 0.508180 -0.097980 -0.573539 -1.302205 -0.217441 -0.469580 -0.597319 -0.412933 0.986146 -0.953763 -0.462555 -0.970602 0.550777 -0.716147 0.444195 0.877284 0.508792 -0.246991 -0.075516 -0.308819 -0.520534 -0.262333 -0.429063 1.224618 -0.298002 0.912336 -0.612972 0.863413 -0.132272 0.080097 -0.509974 -0.490341 0.391200 0.764037 -0.358759 -0.699718 -0.325843 0.758837 -0.226431 0.430569 0.623114 -0.634203 0.010961 -0.121044 0.239937 -0.692520 -0.680276 -0.945680 0.301236 -0.218412 0.020324 0.458436 -1.055067 0.738256 -0.480451 -0.754801 -0.557984 -0.187514 0.341891 -0.754933 -0.127349 0.339661 0.705947 0.722772 -0.557136 0.204276 -0.559698 -0.522131 0.902516 0.222097 -0.404259 -0.713897 -0.310486 -0.795616 -0.237880 0.476787 -0.327047 -0.101821 0.053250 -0.343285 0.096281 -0.511668 0.451937 -1.545025 0.481493 0.688495 0.297428 0.124702 -0.184075 0.561476 -0.314268 -0.481465 0.386860 -0.151993 -0.762725 0.055644 -0.112798 0.552887 0.299458 -0.526743 0.864798 0.884928 -0.715336 0.385334 -0.594733 0.808569 -0.263463 -1.018695 -0.639546 -0.591429 0.463516 0.443060 -0.181544 0.062088 0.663364 -0.234228 -0.339374 -0.096183 -0.548369 -0.026098 -0.220713 -0.201409 -0.608048 -0.266458 -0.401311
0.510638 0.019525 -0.023528 0.938596 -0.721302 0.889501 0.062684 -0.813014 -0.172425 -0.502180 -0.618725 -0.716248 0.948133 0.891316 -0.577256 -0.980907 0.901724 0.394338 -0.655348 -0.291470 -0.270460 -0.650181 0.541854 0.742992 0.675087 0.851392 0.620138 0.628152 0.154226 -0.876125 -0.331355 0.577728 0.829130 0.779447 0.448584 0.715814 -0.075681 0.017204 -0.656953 -0.385835 -0.655443 0.974655 0.866361 0.108198 0.074156 -0.822422 -0.470576 0.906758 0.463750 -0.348620 0.032899 0.648091 -0.872708 -0.905976 0.925839 0.668524 -0.165116 0.484749 0.443214 0.471860 -0.086497 -0.338769 0.607683 0.060877 -0.218103 -0.455712 0.663006 0.305227 -0.240154 -0.961792 -0.172592 0.212484 -0.236234 -0.620236 -0.755855 -0.730945 -0.109283 -0.234394 -0.137095 -0.478157 0.875987 0.090056 -0.475020 -0.194756 0.607852 0.240700 0.523923 -0.975967 -0.900409 0.220032 -0.170874 -0.580883 0.118288 -0.840790 -0.906362 0.174915 0.188790 -0.650509 -1.523273 -1.634591 -1.379040 -1.271291 -0.592116 0.057909 0.257408 -1.081748 -0.184510 0.556212 -0.917369 0.171937 -0.661622 0.906552 -0.755989 0.476329 -0.922444 -0.485610 0.514665 -0.122511 0.754541 0.750291 -0.605708 0.489360 0.349180 -0.062302 -0.961151 -1.169450 -1.281504 -0.942377 -0.203902 -1.413763 -0.830167 -0.496406 -0.092627 -1.080699 -0.283565 -0.526404 0.652132 -0.296871 0.360409 -0.935242 0.246377 0.272048 0.890865 -0.221638 -0.646493 0.269529 0.464791 -0.906041 0.482033 -1.330678 -0.664104 -1.212808 -0.946156 0.099878 -0.498932 0.069389 -0.090707 -0.520003 0.102606 -0.909204 0.464015 -1.031437 -0.506809 0.596054 -0.186262 0.624582 0.528854 -0.628059 -0.945781 0.346797 0.046787 -0.569735 -0.247034 -1.015058 -0.997257 -1.195680 -0.759681 -0.627919 -0.865381 -0.093473 0.580318 1.328094 2.412737 1.283451 -0.046944 0.480755 0.697941 0.925261 -0.403603 -0.438461 0.317091 -0.412402 -0.847358 0.298887 0.092316 -0.209793 -0.947558 -0.476951 0.403999 0.570479 0.061733 -1.178196 0.040617 0.417137 -0.907385 0.179251 -0.119605 -0.309330 0.700898 0.947227 0.038571 0.423354 -0.265562 0.478341 -0.100924 0.669560 -0.385688 -0.079734 -0.157440 0.110065 1.421128 1.294662 -0.292445 -0.819306 0.668345 -0.635170 -0.648898 1.027116 0.671085 -0.463058 0.004885 0.445012 0.395174 0.003971 0.183424 1.189805 1.447248 1.233250 1.426605 1.155800 0.657290 -0.214824 0.421188 0.181037 -0.340055 0.218494 0.293527 1.583552 0.856074 1.656317 0.906024 -0.715564 0.524777 0.193323 0.333298 0.335993 0.665856 0.513320 -0.034105 -1.535135 0.444182 0.936486 -0.300591 0.183948 0.212447 1.421749 1.498861 1.149317 -0.325168 0.703242 -0.576442 0.198058 0.500914 0.475546 0.534479 1.400399 1.176695 0.723718 0.588156 -0.427389 0.739536 0.421922 0.867428 -0.227372 0.374938 0.856131 -0.647307 1.000412 0.300190 -0.480615 0.691913 0.265446 0.500653 -0.323755 0.135196 0.936385 -0.340309 0.070023 0.621553 0.462599 0.619059 0.079764 1.121787 0.501034 1.331453 -0.276319 0.510684 0.025900 -0.208411 -0.576079 -0.245032 -0.693914 -0.349392 -0.720903 0.492753 0.958029 -0.459256 0.176745 -0.022281 0.275906 -0.212157 0.830898 -0.025486 0.015089 -0.306618 -0.796419 1.034085 0.597470 0.513230 0.315764 0.829532 -0.023331 0.506500 -0.541742 0.463389 0.223644 -0.842249 0.592791 0.236601 0.445969 0.518323 -0.500177 0.786307 0.924610 -0.328970 -0.287264 -0.531166 -0.777349 0.770675 -0.330427 0.346338 -0.307198 0.620315 -0.218897 0.342567 0.525159 0.657065 0.521046 -0.267395 0.747538 0.097713 -0.130951 0.297230 0.735588 -0.735578 0.397856 -0.607602 0.986837 0.314889 0.918144 -0.493419 -1.217347 0.409801 0.267706 0.860774 0.395804 -0.226121 0.610048 -0.320908 -0.037958 -0.110187 -0.655799 -0.004526 0.528180 0.643911 -0.214183 0.329081 0.298660 -0.820516 0.241250 0.133506 0.604694 -0.769680 0.922319 0.988075 -0.062397 0.599424 0.322583 0.279819 0.753000 -0.953830 -1.083737 -0.608526 0.218029 0.779891 0.201845 -0.276338 -0.164556 0.402674 1.303324 -0.391640 0.351193 -1.942233 -0.360638 0.266706 -0.451947 -0.727076 -0.163799 0.704030 0.213140 -0.418454 0.922801 -0.901416 -0.823460 -0.304846 0.121085 -0.510749 -0.846613 0.123826 -0.114234 0.851441 -0.010919 0.471268 -0.017714 -1.234741 -1.425072 -0.295709 -0.550244 1.332027 -0.072059 0.341047 -0.395366 -0.016837 0.366480 -0.572958 -0.012471 -1.080261 -0.535671 0.820941 -0.621014 -0.064340 -0.561649 -0.670295 0.486412 -0.324945 -0.714173 -0.789781 0.282196 -0.089142 0.591567 0.518264 -0.299250 -0.608010 -1.660289 -0.096078 -0.688749 -0.974881 -0.299779 -0.500069 -1.221573 -0.284584 -0.879488 0.071324 0.493816 -0.070130 -0.397214 0.240180 -0.921169 0.457515 -0.401253 -0.942019 0.838146 -0.555914 0.034514 0.454187 0.063394 -0.641829 0.715105 0.897406 -0.310998 0.105461 0.325324 -1.126308 -0.343747 -0.296106 0.150215 0.105571 0.409929 -0.688752 -0.142245 -0.994047 0.114846 0.686609 -0.970767 -0.776092 -0.745665 0.461631 -0.010565 -0.419141 0.313033 -0.104895 1.057645 0.121904 1.243452 0.565644 -0.047382 -0.101328 -0.668305 -0.791819 0.153773 0.284195 -0.232293 0.359289 -0.480441 0.276088 -0.331526 -0.445315 0.117525 0.368974 -0.002337 -1.015273 0.728939 -0.854012 -0.322790 -0.920927 -0.076871 -0.745987 -0.231536 0.311085 0.619169 0.411981 -0.057180 -0.428979 0.272076 -0.585905 -0.558990 -0.997370 0.185693 0.215995 0.166144 0.119407 0.530492 1.274326 -0.394035 -0.332106 0.336986 0.288978 0.605964 0.779376 -0.980831 0.538436 0.193914 -0.779799 -1.009489 0.762083 -0.111108 -0.632343 1.039442 0.307142 -0.461010 0.289500 -0.422765 -1.782333 0.476296 -0.288467 0.027012 -0.514935 -1.216926 0.448229 -0.406502 0.972908 0.240696 0.331696 0.173001 0.302300 0.172798 0.604656 0.365818 -0.734825 0.827454 -0.564354 0.172648 0.230363 -0.696264 -0.660618 0.811948 0.018417 -1.056387 -1.130406 -0.333524 -0.733611 -1.243604 -1.179261 -0.665540 -0.318640 -0.591636 -1.678576 -0.132330 0.342902 -0.804130 0.239973 -0.846281 -0.491905 0.129664 -0.237152 0.994102 0.957479 -0.307311 -0.294350 0.362791 0.470647 0.312926 -0.779316 0.409815 -0.366393 0.396848 1.064129 -0.289064 -0.098488 -0.088558 -0.295356 -0.886266 -0.447816 -0.204820 -1.118192 -1.577653 -1.196625 -0.508055 -1.157342 -0.666193 -0.610093 -0.381146 -0.125370 -0.072127 -0.547071 0.799880 0.799359 -0.279221 0.645402 -0.190419 -0.034493 -0.239735 -0.652574 0.685535 -0.135014 0.352708 0.747714 0.923835 -0.281311 -0.616284 -0.781128 -0.961143 0.363951 -0.848167 -1.057123 -0.931402 -0.474212 0.438927 0.696968 0.134239 0.112299 0.725605 -0.363441 -0.014960 0.843435 -0.168317 0.605872 -0.804196 0.322921 -0.441027 0.315639 0.222549 -0.061575 1.103023 0.725413 -0.093490 -0.160690 -0.235609 -0.271890 0.405188 1.319960 0.701733 -0.236035 0.485106 0.063216 1.033026 -0.486466 -0.786702 -0.562643 0.959820 -0.228321 0.420837 -0.766245 0.401927 0.619376 -0.665197 0.771821 -0.110844 0.979724 1.189094 0.159095 0.168639 0.229111 -0.108070 0.321033 -0.016478 0.998034 -0.161021 -0.505321 -0.597608 0.891689 -0.428383 0.295583 0.775105 -0.431979 -0.809930 -0.249668 0.171644 0.699869 0.404566 -0.708134 -0.649951 0.040159 -0.240112 -0.944824 -0.750995 0.230627 -0.215930 0.749974 -0.148671 0.930878 0.922346 0.843655 1.203702 1.448106 0.208972 0.855763 0.730298 0.551128 0.282045 -0.044283 0.410360 -0.072373 -0.218347 -0.889779 0.069243 -0.610429 0.924977 0.681603 0.199955 0.201374 0.846837 0.996519 0.063074 0.508175 -0.069674 -0.648912 -0.537656 0.111486 -0.661184 -0.598629 0.040861 0.072730 0.789525 0.042444 -0.590924 -0.629486 -0.849606 -0.431864 -0.241797 -0.774737 -0.140417 0.048961 -0.001475 0.575579
0.382650 -0.826422 -0.944130 -0.734987 0.494437 0.696955 -0.734886 -0.756893 0.461002 0.740054 -0.169359 0.329210 -0.749237 0.518433 -0.205784 -0.915742 -0.547723 0.054460 -0.050754 -0.685637 0.750916 0.787933 0.899182 -0.776391 0.043349 0.731246 -0.612936 0.296343 0.136953 -0.294135 0.922763 -0.006485 -0.420497 -0.609583 0.408265 0.191744 0.118455 -0.316409 -0.649622 0.878568 0.681357 0.980625 -0.688277 -0.588575 -0.877016 0.748224 0.125628 -0.036249 -0.075976 0.951597 -0.416786 -0.741261 -0.305731 0.964868 -0.108996 0.453785 -0.011853 0.298819 -0.373266 0.320039 -0.620492 -0.631487 0.445508 -0.483076 -0.094374 0.546711 0.377360 -0.877229 -0.587817 -0.885335 0.249088 0.688482 -0.945919 -0.764623 0.512847 0.794119 0.122780 0.241029 -0.310441 0.757021 -0.389867 -0.451272 -0.756424 -0.672392 -0.228466 0.925246 0.731108 -0.908806 -0.178673 0.280286 -0.248585 -0.146694 -0.394507 -1.017029 0.429151 -0.489772 -1.136036 -1.121746 -0.715208 -0.849201 -0.269579 -0.359649 -0.877775 0.257088 -0.007131 0.284907 -0.117657 0.824479 -0.776359 -0.528535 -0.795497 -0.401994 0.840128 -0.503364 -0.553687 0.346207 -0.509771 -0.602922 -0.137112 0.320679 -0.871780 0.163470 -0.815285 0.009046 -0.299335 -0.674206 0.181160 -1.371393 -0.197251 0.095387 0.436631 -0.645830 -0.142712 0.143357 1.471003 -0.119419 0.505193 0.965587 0.848604 0.211586 0.782882 0.791347 -0.476027 -0.576935 0.916422 0.005934 0.163182 -0.154859 -0.605285 -0.328775 0.537503 0.983468 -0.614008 0.640560 0.146470 -0.400974 -1.637329 -0.273739 -0.530215 0.340002 -0.116298 -0.357286 0.027490 0.596108 -0.029723 -0.319797 -0.617102 0.880827 0.755807 -0.610947 0.829773 0.347368 0.015925 0.366162 0.290346 -0.556966 -0.014854 0.088477 -0.239315 -0.151116 -0.535102 0.572619 -0.836293 -0.892318 -1.817137 -1.672866 -0.131854 0.212802 -0.020826 0.484380 0.416651 0.195133 0.860717 0.534297 0.845452 0.148916 0.253403 0.678951 -0.602841 -0.897155 0.515598 0.531404 0.581672 1.268485 0.714905 0.575797 0.493833 -0.030211 -0.286645 -0.071113 -0.032937 -1.906248 -0.837662 0.195238 0.077849 1.509434 0.615666 -0.369909 0.634987 -0.024563 1.231843 -0.074295 -0.376572 0.618576 -0.138618 -0.797879 0.593620 0.239805 -0.503935 0.196550 -0.400889 -0.519883 0.608035 -0.783422 0.601121 0.188795 0.782996 1.032076 -0.304471 -2.068687 -1.397152 -0.627119 0.736725 0.985256 0.411760 1.159829 -0.848461 -0.336958 0.234918 0.770045 0.399524 -0.055990 0.769102 0.977070 0.076228 0.962165 0.179017 -0.083352 -0.473724 0.245187 -0.466473 0.487492 -0.380679 -0.641626 0.207804 0.425019 -0.966819 -2.040680 0.370843 -0.174884 0.785863 -0.673118 -0.389147 0.468762 0.134022 -1.110744 0.565969 -0.583958 0.888629 -0.375971 -0.475089 -0.094427 -0.339225 -0.300599 0.204169 -0.204253 -0.468327 -0.319964 -0.731082 -0.628549 0.972295 0.505537 0.916102 0.812781 0.126156 -1.542844 -0.407702 0.332835 0.863974 -0.093481 -0.696676 -0.940184 0.170734 -0.806356 -0.204922 0.991426 0.538838 0.927521 -0.270574 0.731413 -0.970156 -0.120200 0.391285 0.319319 -0.125259 0.038546 -0.181860 0.091572 0.209801 -0.011878 0.600328 1.339995 0.545529 -0.896617 -0.122439 0.571933 0.159942 0.340419 0.049546 0.036779 0.154183 0.259358 0.098704 -0.535214 0.719365 -0.736758 0.589959 0.813054 -0.018881 -0.444121 0.502115 -0.089904 -0.180125 1.159676 0.448362 0.552213 -0.577353 0.537758 1.107625 2.137422 0.334655 -1.199872 -0.227064 0.167185 -0.989713 -0.459728 -0.062659 -1.449446 -1.039439 0.131243 -0.188432 -0.549369 -0.563283 -0.772594 0.779085 0.716259 -0.819311 0.586363 0.428219 0.560489 0.719263 0.778746 -0.005470 0.456277 0.404709 1.233216 2.087405 0.034214 -1.943294 -1.515796 0.972266 -0.479140 -0.768656 -0.455221 -1.429913 -0.850927 -0.713115 0.166003 0.893894 -0.065888 -0.682296 -0.922554 0.940977 -0.687535 0.220445 0.879451 0.345403 -0.616214 0.859641 0.320339 -0.508807 0.195323 1.254257 1.621713 0.294778 0.483313 -1.356994 -0.760144 -0.706606 0.488703 -0.408957 -0.476964 -0.288639 -0.547842 0.044142 1.110552 0.922756 0.908240 -0.414249 -0.186363 0.906574 -0.481934 0.762357 -0.707206 0.229732 0.575408 -0.582404 -0.021850 0.969931 0.972131 0.846120 0.385166 0.720825 -0.436017 -1.207834 -0.291230 -1.426312 -0.562034 0.641024 -0.873403 -0.077781 0.335924 0.211003 1.234250 1.109424 0.807614 -0.144733 -0.548355 -0.082658 -0.175172 -0.945760 -0.306570 0.772829 0.285032 -0.221260 -0.874903 1.275366 -0.085742 0.281963 -0.134064 -0.804577 -0.488522 -0.230843 -0.721693 -0.035947 -0.666912 -0.722458 1.213542 -0.225055 0.010290 0.928928 0.652512 0.034430 0.519105 -0.986306 -0.659816 0.860555 -0.589770 0.324637 -0.387635 -0.584211 0.101952 -0.394412 1.172322 0.758390 0.676451 1.010285 0.358790 -0.879282 0.405746 -0.832918 -0.110252 -0.558936 -0.164022 -0.658962 -0.993855 0.892240 1.198623 -0.142759 0.489178 -0.951521 -0.406927 0.863702 0.297537 0.759174 0.185132 0.414971 -0.836483 -0.354764 0.029697 -0.519208 0.152514 0.711150 -0.275607 0.659651 -0.173439 -0.112655 -1.210728 -0.302905 0.015136 -0.808688 -0.508410 0.140302 0.669891 0.022184 0.456915 -0.076066 0.602720 -0.556963 0.304522 -0.621325 0.178343 -0.194183 -0.495555 -0.712180 0.379158 -0.822495 0.563898 0.564526 -0.418007 -0.978402 0.522942 0.241011 -1.050677 0.088862 -0.158869 -0.853721 -0.581157 -0.675661 -0.474095 -0.300551 -0.403628 0.333593 0.891493 -0.379614 0.313281 -0.767054 -0.971542 -0.543656 0.462383 -0.406260 -0.878519 -0.139130 -0.224630 -0.104605 -0.583908 0.471548 0.165002 -0.428194 0.605709 -0.816046 0.177077 -0.040995 0.295249 0.127574 0.210857 0.881866 0.602251 -0.820820 0.808121 0.409625 0.879554 0.437854 -0.892485 0.024181 -0.161557 -0.448238 0.541978 0.585216 0.112800 0.866923 0.479949 -0.295805 -0.167612 -0.373177 0.385277 -0.313219 0.817449 -0.093951 -0.797832 0.101741 1.002366 0.301970 -0.517997 1.063000 0.183657 0.929085 0.254861 0.106519 -0.955656 0.061910 -0.384529 0.283656 0.068614 -0.040156 -0.863729 0.225581 0.836731 -0.515272 0.044862 -0.685178 0.363979 -0.823860 0.036152 0.172208 -0.991044 0.414586 -0.775306 -0.060558 0.133048 0.298182 0.713751 0.015165 1.104186 0.543152 -0.003642 0.327260 0.486350 0.369705 0.763761 0.547083 -0.050027 -0.186715 0.313189 0.398227 -0.379348 0.487388 -0.483728 -0.387652 0.444462 0.469654 -0.671210 -0.927477 0.005728 0.279992 0.431185 0.699800 0.396657 0.600478 0.029059 0.166495 -0.270981 0.616292 0.231191 -0.810695 0.465299 0.037201 -0.748476 -0.676138 -0.359614 0.084136 -0.729247 0.668223 -0.360258 -0.498794 -0.486281 0.303430 0.416364 -0.891625 -0.770522 -0.232151 -0.877904 -0.325015 -0.460480 -0.233355 0.155851 0.264724 -0.197942 0.028337 -0.527092 -0.345846 1.079171 -0.649347 -0.035592 0.232003 0.088467 -0.802930 -0.711804 -0.977960 0.042906 0.547762 -0.107805 -0.492876 0.066631 0.768253 -0.549768 0.653869 -0.216403 -1.019438 -0.095515 -0.781776 -0.162064 -0.857256 -0.045803 -0.862041 -0.868731 0.431357 -0.306415 0.315391 -0.793930 0.285670 -0.977037 -0.195756 0.560911 -0.902084 -0.507492 0.028973 0.480339 0.931489 -0.956640 -0.938588 0.569936 0.208348 0.228552 -0.931756 0.571688 -0.100944 -0.593923 -1.070008 -1.138639 -0.729938 -0.947947 0.406170 -0.223282 -0.777247 -0.353911 -0.741716 0.720547 -0.986079 -0.141353 0.421627 -0.622871 0.439819 0.365269 0.203286 -0.168518 -0.387726 -0.504719 0.522765 0.083151 -0.231979 0.032437 0.852580 0.849650 -0.786401 0.173984 0.581501 -0.455175 -0.966071 -0.185364 0.920159 0.601611 0.914679 -0.784983 -1.002189 -0.300972 0.711736 -0.198109 0.786391 -0.170956 0.989088 0.241964 -0.317430 0.792731 -0.141030
-0.813355 -0.199720 -0.440210 -0.647970 -0.467857 -0.618884 0.871976 -0.353628 0.686297 0.541835 -0.591831 0.039848 -0.039049 -0.792286 -0.436931 0.175213 -0.027270 -0.165189 -0.929627 0.941793 -0.216913 0.029653 0.456330 0.900287 0.577506 0.101368 -0.812978 -0.029760 -0.192969 -0.678095 0.956789 -0.583201 0.344343 0.024160 -0.497448 0.918632 0.664230 -0.877959 -0.525271 -0.411520 0.505820 0.730450 0.221747 -0.199767 -0.277368 0.560376 -0.975689 0.925412 -0.495703 0.739566 -0.085480 -0.362179 -0.751257 -0.001815 0.094978 0.797927 0.390334 0.540907 0.348373 -0.579134 -0.881743 0.832735 0.009198 -0.164969 0.725729 0.265932 0.287581 -0.025613 -0.157319 0.471688 0.954508 -0.207123 0.917684 -0.584630 0.909295 0.312955 0.965433 -0.155736 0.049392 0.677226 0.010956 0.525154 -0.500743 0.029494 -0.101450 0.619724 -0.782839 0.506814 -0.362857 0.854817 0.683657 -0.552665 0.898397 0.443784 0.545969 -0.314923 0.619320 -1.250090 0.523710 0.622966 -0.341391 0.823020 0.128127 -0.396564 0.283223 1.237846 0.923034 0.058220 -0.271668 -0.211062 -0.411107 0.545830 0.535521 0.611655 0.536249 0.198778 0.751885 -0.141924 0.665351 -0.526752 -0.741276 -0.267492 -0.989741 -0.318502 -1.041305 -0.987302 0.125303 -0.633309 -0.239262 -0.136183 0.126634 0.151291 0.407191 1.050140 0.463524 0.553500 0.052956 1.079313 0.856805 -0.254391 0.660004 0.350428 0.956805 -0.685444 -0.042646 0.495798 -1.112079 -0.860114 0.516350 -0.737958 0.505104 -1.198528 -0.393885 -0.389241 0.007529 -0.157517 0.004432 0.183056 0.253085 0.870137 0.856047 0.807564 0.118794 1.147475 1.077208 1.351914 -0.535665 -0.322317 0.377536 -0.074460 0.678857 -0.401971 0.916363 0.532354 0.497094 -0.689100 -0.138822 -1.008858 -1.026941 -0.524899 -1.010743 0.463279 -0.396495 -0.239546 -0.094617 0.053376 0.538466 0.920993 -0.511064 1.080674 0.558669 0.253640 0.873991 -0.466109 0.924776 0.572645 -0.007436 0.477730 -0.514975 -0.727170 0.285310 0.023279 -0.746649 -0.729626 -0.651507 -0.415793 -0.319276 0.435316 -0.249410 0.402396 0.540369 1.397363 0.564054 0.056645 0.283863 -0.011508 0.280339 0.296208 0.338493 -0.195388 -0.657876 0.272719 -0.696703 1.046887 0.483514 -0.180899 0.411231 -0.503326 -0.107342 -0.830211 0.878626 0.365376 -0.667180 -0.074683 -0.347895 0.158062 0.486096 -0.210729 -0.183064 -0.370437 -0.560341 -0.491658 -0.471529 -1.401576 -0.861981 -1.830158 -1.523347 -1.680332 -1.103384 -1.194244 -0.392783 0.297440 0.902987 0.702929 -0.823206 0.532038 0.757954 0.497770 -0.860966 -1.292396 0.155830 -0.829733 0.081388 -0.058887 -0.467350 -0.065671 -0.232534 -0.203189 -0.514270 -1.883415 -2.393858 -3.001978 -1.536330 -2.837942 -1.195064 -2.272688 -0.703743 -1.158161 -0.595540 0.513843 -0.943075 0.484789 -0.789468 -0.054217 0.787840 -0.790980 0.607875 -1.282267 -0.923448 -0.325774 0.236397 0.713955 -0.007461 -0.792767 -0.036724 -0.397852 0.229207 -0.597722 -0.333050 -0.515957 -1.640616 -1.597460 -2.952706 -1.363082 -1.080670 -1.409789 -0.749272 -0.934990 -0.538040 -0.712067 -0.107683 0.816909 -0.568520 -0.312344 0.661849 0.210713 0.048766 0.191543 -0.271441 0.352786 0.753514 -0.197105 0.803568 -0.323568 0.018681 0.614931 0.171654 0.104326 0.220813 0.041428 0.141638 -0.685390 -0.243087 -1.010772 -0.321636 0.575832 0.022379 0.565572 -0.142103 0.045315 -0.101312 -0.369328 0.102025 0.921272 -0.321453 0.958652 -0.423217 0.466018 0.167729 0.056284 0.115479 1.146475 -0.659301 -0.167640 -0.328345 0.952289 -0.009349 0.766966 -0.223502 -0.509236 -0.200313 0.711089 -1.010057 -0.234704 -0.107456 0.110182 -0.324380 -0.317055 0.364787 0.882956 -0.642096 -0.553100 0.124414 0.816697 -0.955261 -0.113454 0.079735 0.206424 -0.655603 0.073178 1.005202 -0.633368 -0.717322 0.946109 -0.858361 -0.302404 0.712983 -0.831998 -0.659275 -1.179712 0.218563 0.196149 0.272848 0.301158 -0.882937 0.890653 -0.895029 0.726134 -0.254375 0.015172 -0.185031 0.506218 -0.019428 0.757075 -0.119104 -0.279307 -0.453561 0.500148 -0.027853 0.371421 -0.332414 -0.501438 -0.067910 0.333098 1.081053 0.257175 -0.453352 -1.048556 0.537441 0.450619 0.321414 0.325840 0.754176 -0.853054 0.117571 -0.658081 -0.209474 -0.812829 -0.618543 0.074172 0.030599 -0.709889 0.514621 -0.587075 -0.160885 -0.585964 0.664849 -0.334666 0.038848 0.632453 -0.475667 0.871881 0.952111 0.098751 0.312154 -0.325263 0.626244 -0.282758 -0.301625 0.105364 0.367887 -0.060734 -0.428315 0.050963 -0.331104 -0.454390 -0.507302 -0.049468 1.024758 0.590265 0.766304 0.053662 0.466107 0.591419 0.192885 0.303451 0.210298 0.328697 -0.512097 0.502194 -0.197767 -0.639721 -0.123848 -0.054523 0.233901 -0.792961 0.808948 -0.711275 -0.787551 -0.333195 -0.683342 -0.540250 -0.318601 0.568926 -0.018046 -0.364623 -0.425730 -0.297440 0.232156 0.603236 -0.111439 -0.500546 0.002595 -0.525632 -0.716435 0.313463 -1.094415 -0.193186 0.349788 0.328828 -0.677446 -0.756959 -0.317493 -1.111770 0.432969 -0.826960 -0.250481 -0.596927 -0.759810 -0.123912 -0.108778 0.503639 0.745114 -1.117871 0.166678 -0.723031 -0.616553 -0.408808 0.406546 0.729997 0.822246 0.198768 1.296875 -0.136816 -0.169913 0.104608 0.393005 -1.000335 -0.510975 -0.759148 0.628063 -0.884324 0.519881 -0.495514 0.105456 -0.403906 -0.254168 -0.219540 0.068105 -0.871123 -0.032746 -0.021938 -0.201695 0.129085 -0.631370 0.878824 -0.240187 0.564377 -0.172831 -0.357659 0.773285 -0.673898 -0.354274 -0.313692 0.064935 0.799066 -0.303449 -0.760994 0.622855 -0.658913 0.173317 -0.456025 -0.824563 0.473562 0.352476 0.300524 -0.227051 -0.267872 0.053580 -0.325790 0.356231 0.373986 -0.515552 -0.393870 0.465439 0.114069 0.533509 0.422686 -0.748040 0.072672 1.154245 -0.095006 -0.175456 -0.615875 -0.631208 0.822684 0.264495 0.931279 -0.811687 0.769026 -0.895608 -0.801155 -0.793159 0.751457 0.054277 -0.109195 0.125178 -0.275591 0.456726 0.205959 0.158733 0.896644 -0.166089 -0.212794 0.877775 0.019178 -0.255991 0.756117 -0.626205 -0.101998 0.419935 -1.002843 0.673745 -0.097612 -0.562947 -0.446116 0.670394 -0.485479 0.139249 0.566258 -0.789723 -1.196081 0.142320 -0.732427 -0.822648 0.806099 -0.148694 0.169588 -0.310221 -0.198886 0.255971 0.388081 0.047047 -0.315266 0.633254 0.373891 -0.091118 0.125281 -0.753552 1.067873 -0.028091 -0.567829 0.650174 0.233675 0.727283 -0.505279 0.982958 0.407680 0.379523 0.710926 -0.218444 -0.363811 -1.230926 -1.009712 0.134987 -0.790348 -0.133908 0.061565 0.166834 0.590551 0.557894 -0.276331 -0.073750 0.093535 -0.004394 0.863553 0.191988 -0.292878 -0.051038 0.951019 -0.662165 0.405882 0.264336 0.212884 -0.916803 0.217501 0.128733 0.144451 0.398657 -0.710601 0.046698 -0.277109 0.102197 -0.378971 -0.464131 -0.158793 -0.578452 -0.028645 0.296973 -0.240598 -0.546943 0.329973 -0.445061 -0.918731 -0.328846 -0.885197 -0.713566 -0.628231 -0.461943 0.730351 -0.017340 -0.012661 -0.288477 -0.339421 -0.839197 -0.657933 -0.019138 0.077605 0.775130 0.882816 0.594146 -0.613809 -0.457926 0.829479 0.552075 0.505822 1.120116 0.985592 -0.576060 1.397806 1.149304 -0.207714 -0.549920 -0.112320 -0.937834 0.202405 -0.489905 -0.851789 0.652998 0.337173 0.492473 -0.013785 -0.575160 0.268457 0.311513 0.569157 -0.268950 -0.499139 -0.677190 0.189637 0.074836 0.416928 0.762215 0.250237 0.189676 0.006842 1.066720 0.335434 -0.240145 0.371493 0.893600 0.020250 -0.284078 -0.903812 0.335779 -0.167276 -0.284790 0.349442 -0.015465 -0.897358 -0.907819 -0.339784 -0.553962 0.252705 0.350556 0.734676 0.959904 -0.612768 0.569048 -0.919630 0.821404 0.817932 -1.005114 0.419206 -0.420914 0.682405 -0.936441 -0.819278 -0.105963 0.900397 0.047162 0.384322 0.876867 -0.067699 -0.069323
0.930304 0.023643 0.786893 0.011592 -0.647549 -0.611068 -0.300853 -0.706865 0.487244 0.403793 0.542129 0.087992 -0.214272 0.294009 0.770930 -0.082810 0.230484 0.848521 -0.427615 0.142922 -0.602096 -0.363165 0.887075 0.797280 -0.692992 -0.591755 0.116650 0.430513 0.427438 -0.110608 0.951016 -0.765347 -0.802582 -0.149125 -0.516244 -0.433565 0.273159 0.740306 -0.438879 0.039204 -0.884315 0.116026 0.136360 0.048158 -0.100467 0.606690 0.718330 0.030730 0.760634 -0.480915 -0.532825 0.785808 -0.042446 0.949968 0.358352 -0.687658 0.472412 -0.448268 -0.748515 0.585831 0.620096 -0.992437 -0.079134 -0.378865 -0.513738 -0.346694 0.470517 0.220699 -0.676007 0.390799 0.457017 -0.377347 0.940180 0.992902 0.076575 0.735985 0.559122 -0.830615 0.071745 0.084930 0.073948 0.165134 -0.900094 0.154442 -0.502249 -0.263214 -0.455438 -0.571993 0.445996 0.073772 -0.381399 -0.447349 0.294861 0.122403 0.176353 0.379072 0.373564 0.322082 0.032869 0.446328 -0.030119 1.018123 0.074092 -1.005368 0.393513 -0.883251 0.663666 -1.100647 -0.172310 -0.179521 -0.602176 0.053703 -0.575795 0.277865 0.448044 0.897921 -0.309243 0.614738 0.612959 0.748180 -0.863777 0.837388 -0.103515 0.729096 0.685982 -0.577499 -0.006745 -0.487432 -0.948903 -0.419340 -0.609784 -0.587055 -0.704466 -0.568405 0.216971 -0.307311 0.821104 -0.257388 0.286098 -0.714561 -0.116731 0.096670 -0.215819 0.941491 -0.750138 0.583166 1.011987 0.480277 -0.059525 -0.698343 0.363691 -0.360820 -0.315647 -0.413202 -0.934992 -0.697335 -0.422916 -0.717015 -0.746960 -1.042086 -0.802935 0.445756 -0.236157 0.617244 -0.236187 0.310416 -0.542557 -0.998372 0.192664 0.028149 0.450372 0.786062 -0.871913 -0.620740 -0.003633 -0.375073 -0.905200 -0.541867 -0.051823 -1.132874 0.180170 -1.231820 0.079905 -0.634277 -0.065647 -0.755662 -0.102865 -0.210268 -0.514861 -0.248501 0.123814 -0.679071 0.429366 -0.234638 -0.709542 -0.917394 0.297459 0.288765 -0.246850 -0.863112 -0.346753 -0.573691 -0.571730 -0.122426 -0.411255 -1.378979 -0.743847 -0.959179 -0.350113 -0.131331 -1.678626 -0.397475 -1.685369 0.255216 -0.581747 -0.164899 -0.739084 -0.163696 -0.146061 0.931017 -0.346156 -0.050880 0.682731 0.037676 0.227683 -0.141384 -0.366736 -0.698807 0.781970 -0.703176 0.022080 0.169732 -0.705584 -0.428265 -0.834509 -0.488863 -1.336119 -1.060196 0.646902 0.101818 -0.326688 -0.859115 0.105540 -1.063281 -0.244085 -0.762635 -0.031519 -0.564039 0.502373 -0.927078 0.013652 0.802470 -0.579157 -0.168522 -0.423361 0.902850 -0.413005 -0.620807 -1.171965 -1.675225 0.105830 -0.715306 -0.443565 -0.750203 -0.226163 -0.081221 -0.178720 0.251315 0.154952 0.374936 -0.443597 -0.579038 -0.678792 0.137214 -0.575526 -1.100647 -0.682111 0.810170 -1.133995 -0.699111 0.196687 0.556906 -0.172218 0.442292 -0.817287 -0.429587 -0.616705 -0.202673 0.177273 -0.784868 -0.755350 -1.004390 0.083769 0.630312 0.757419 -0.155675 1.544373 0.533068 0.198177 -0.112937 -0.688275 -0.419567 0.312604 -0.007148 -0.484274 -0.910880 0.452827 0.643056 0.100125 0.380777 0.993998 -0.798256 -1.029390 0.593662 -0.661608 0.263749 -1.206577 0.607728 -0.561043 -0.645072 -0.910069 0.733565 0.285382 0.119050 0.154297 -0.379843 -0.382844 -1.090460 0.105563 -1.214129 0.739745 -0.893234 0.560331 -0.423438 -0.878410 -0.574258 0.890351 0.291172 0.436717 -0.467720 0.126657 0.239304 -1.027040 0.003925 -0.365976 -1.140998 -1.337832 0.032214 0.420209 0.642773 -0.272316 0.482441 0.103658 0.475156 -0.200261 0.482163 -1.345213 0.016140 -0.297356 0.176044 0.826182 -0.190846 -0.008028 0.640804 -0.927035 -0.745138 0.074861 0.791296 -0.322839 0.117447 0.720179 0.255203 0.784241 1.039818 0.376529 0.304307 -0.215151 0.198424 1.093782 0.892277 0.474333 0.499104 -0.228933 -0.290026 -1.265314 -0.878011 0.047790 0.409874 -0.312836 0.968277 -0.184926 -0.731358 -0.919561 0.858666 0.989255 -0.805207 -0.774508 0.057737 -0.503582 -0.235461 0.429191 1.328676 0.376466 0.250818 0.856215 0.263727 0.525580 0.087111 0.772270 0.027636 0.804210 -0.776550 -0.750254 -0.566895 0.038071 0.893948 -0.376254 1.125957 0.596866 -0.830282 -0.921247 -0.454173 0.656043 -0.068509 0.309410 -0.166907 0.333098 0.023736 0.414625 0.152382 0.800925 0.434262 -0.155745 0.230597 0.651006 -0.365071 -0.443072 0.982938 0.731050 -0.776792 -1.286568 -0.930329 -0.769840 -0.524425 0.417149 0.610467 0.574064 0.094484 0.420227 -0.037116 0.094218 -0.578103 -0.534218 0.045641 0.890387 1.006598 -0.376180 -0.393347 0.999106 -0.148095 0.504542 0.875754 1.536681 0.669608 0.566689 -0.034965 -0.180431 -0.618662 0.286764 -0.479475 -0.237793 0.011722 -0.061785 -0.258299 0.671005 -0.531364 0.458284 -0.332472 -0.022480 -0.783072 -0.901121 0.482328 -0.115825 0.216441 1.332982 -0.290215 0.413359 0.477833 -0.577268 0.053534 0.921582 0.603894 -0.271286 0.653575 -0.588841 0.930502 0.222952 0.320558 0.261297 -0.144479 0.765265 0.616712 1.079180 -0.079521 0.264423 0.979194 0.030643 -0.114774 0.889702 -0.457225 0.129617 -0.358677 0.269336 0.639705 0.999496 -0.356402 0.396175 1.565691 1.224110 1.182879 -0.342592 -0.011908 -0.985464 1.455508 -0.585131 0.596416 0.369781 0.023894 1.000045 0.323186 0.772265 -0.500490 0.575991 0.355509 -0.446495 0.596474 -0.525286 0.874549 -0.687398 -0.616251 -0.087286 -0.429473 0.669861 0.190196 0.668781 -0.119923 0.490816 0.086056 0.788110 0.437231 0.598796 -0.012628 0.121579 0.133265 0.745907 -0.602305 -0.458324 0.877641 -0.077346 0.188711 0.029065 0.546960 0.341014 0.828563 0.213099 -0.685556 0.012593 -0.669606 -0.198301 -0.673611 0.115849 -0.416260 0.599526 1.314327 -1.048413 0.872328 0.133670 0.760388 -0.078078 0.319999 -0.453735 -0.864805 0.664483 -0.680838 -0.307235 0.116674 0.755588 0.486714 -0.335211 0.524749 -0.635164 0.559934 -0.023494 -0.849279 -0.289399 -0.003809 -0.264835 -0.074452 0.400629 0.409688 -0.611613 0.016821 -0.050469 0.469938 -0.388924 0.242353 -0.664916 0.894260 -0.355846 -0.548152 0.174413 -0.907851 0.499738 -0.103576 -0.249717 0.788670 -0.316636 -0.087097 -0.578707 0.485475 -0.570231 -0.306704 1.296016 -0.806507 -1.109082 -0.668481 -0.870214 -0.720489 -1.738797 -0.746389 -0.864822 -1.334733 -0.611397 -0.453456 0.135731 -0.653658 0.161769 0.625726 0.378268 0.725207 -1.063826 -0.490022 0.379800 0.687790 0.384981 0.774002 0.944278 -0.773705 -0.564709 -0.328047 0.306449 0.553695 0.084791 -0.029279 0.101831 -0.768234 -0.174615 -1.009222 -0.662016 -0.224346 -0.916572 -0.212600 -1.114366 0.354774 0.005391 -0.210300 -0.267218 0.512444 0.648173 -0.741346 0.881572 -0.106996 -0.393378 0.964178 0.797015 -0.215044 -0.418504 -0.690198 -0.469276 -0.527102 -0.980979 0.206852 -1.005507 -0.621730 -0.874523 -0.194791 -0.699635 -0.796712 -0.728131 -0.434908 0.103268 0.276558 -1.323381 0.618499 -0.421110 0.203942 -0.663619 0.657079 -0.667331 0.306829 0.022566 0.919798 0.935367 0.454270 -0.891671 -0.802402 0.864980 0.099461 -0.767507 -0.147947 -1.094859 -0.220398 -1.437008 -1.163555 -1.163662 -0.260717 0.255524 -0.290164 -0.910232 -0.435823 -1.692294 -0.317162 -0.784825 -1.059687 -0.880941 0.561115 0.078854 -0.287908 -0.153335 0.471618 0.550419 0.774239 -0.192711 0.033472 0.605787 -0.156210 -0.945430 0.315104 -1.135828 -0.632918 0.019984 0.095180 -1.175979 -0.950137 -0.140770 -0.854683 0.227196 0.203724 0.645602 0.716032 -0.413223 0.410516 -0.319154 -0.875530 -0.282801 -0.186051 -0.205408 -0.340971 0.918831 0.758327 0.159189 0.217159 0.031500 0.531158 0.245384 -0.053253 -0.377493 -0.431676 0.155476 -0.538641 -0.556735 0.565556 -0.700811 0.445930 -0.220227 0.630354 -0.541564 0.739706 0.602060 0.443791 -0.531396 0.060767 0.864915 -0.196594 -0.768779
-1.010478 0.430395 0.355861 -0.106206 0.540463 0.451232 -0.033571 0.009032 0.845750 0.145501 -0.445586 -0.756657 -0.165507 0.184784 -0.972454 -0.370628 -0.986354 0.991854 0.521144 0.574357 -0.074355 0.587269 0.162668 0.330762 0.599135 0.640216 0.775055 0.984753 0.718713 0.589488 0.637553 -0.776793 -0.001067 0.914092 0.105596 0.452015 0.420104 0.125977 0.826850 -0.229591 0.496563 -0.792303 -0.030444 -0.935671 0.103916 -0.935663 -0.542756 0.422601 -0.328285 -0.117917 0.504847 -0.082269 0.452638 0.034330 -0.377327 0.361863 0.140812 -0.484441 -0.900256 -0.135819 -0.678962 0.423617 -0.070307 0.257046 -0.214075 0.896156 -0.666756 -0.952676 0.148353 0.522355 0.215161 -0.104388 -0.441761 -0.468182 0.397068 -0.435615 0.080990 -0.921719 -0.374472 0.950311 -0.784498 -0.766505 -0.972946 0.662132 -0.345565 -0.562451 -0.562477 0.514532 -0.191469 -0.244994 -0.076793 -0.064496 -1.021086 -0.582541 -0.807245 0.653425 0.164579 0.910707 -0.727081 0.088845 -0.549156 -0.171171 -0.151512 -0.017158 -0.145235 -0.508739 -0.652249 -0.285315 0.267946 -0.604942 -0.791128 -0.155036 -0.881446 -0.181078 0.570218 0.310961 -0.517967 0.335159 -0.237983 0.750573 -0.013805 0.298715 -1.104728 -0.534327 -0.601075 -0.139227 -0.045276 -0.460472 0.626456 -0.526845 -0.518230 0.600297 0.126816 0.635428 0.279850 0.108056 0.073472 0.990020 -0.152176 0.827519 -0.683404 -0.548684 0.962909 -0.805227 0.471529 0.232146 0.757172 0.486067 -1.035393 0.409333 0.332364 0.562165 -0.151394 -0.143765 -0.862612 0.337033 -0.069238 0.247054 0.024291 -0.468421 -0.381496 1.126694 -0.977565 0.168783 1.073258 -0.311051 0.608837 -0.809232 -0.696215 0.309749 -0.148110 -0.352409 0.087193 -0.604085 0.632310 0.604126 -0.720224 0.217087 -0.300667 0.306420 0.334980 0.266426 0.619255 0.992290 -0.268797 0.178020 0.083924 -0.075794 0.399844 -0.033147 0.335396 -0.110209 -0.003925 -0.071952 0.795086 1.063182 -0.262950 0.444669 0.660336 -0.000920 0.631565 0.300583 0.964270 -0.392265 0.772997 1.160527 -0.268031 0.808313 -0.297109 1.280057 -0.186161 0.205478 0.250984 0.492673 -0.596408 -0.141243 0.401999 -0.069180 0.599165 0.057263 -0.810534 0.713197 0.998290 0.905314 -0.742255 -0.964314 -0.507839 0.671219 0.501758 0.925916 0.339363 0.700301 0.058616 -0.927460 0.173310 -0.446878 -0.586364 -0.437795 -0.597486 0.442271 0.305639 -0.252921 -0.075125 0.127555 0.256494 -0.828615 -0.227326 -0.126633 0.108252 0.340692 0.981054 -0.211731 0.307372 0.707567 -0.715202 -0.466337 0.623651 -0.692057 -0.349305 0.876010 -0.526082 -0.179910 -0.457915 0.481635 0.433207 -0.102957 0.200224 0.631553 0.730339 -0.828671 0.400113 -0.419048 -0.462266 0.370403 -0.634353 -0.439207 -0.834720 0.494148 -0.579835 0.690294 0.214754 -0.441511 -0.596588 -0.051048 -0.733991 0.444981 0.158146 -0.090774 0.936214 -0.390300 0.529402 -0.517035 -0.698763 -0.146502 -0.170881 -0.135293 -0.564606 0.294203 -0.765668 0.373934 -0.407352 -0.038260 0.577720 0.067186 0.129898 0.327101 0.674334 0.040758 0.834458 -0.151204 0.592060 -0.130956 0.503645 0.484018 -0.031241 -0.219998 -0.895126 0.242032 -0.615322 -0.053599 0.475691 -0.513538 0.250836 0.694857 -0.018991 0.316616 -0.074619 -0.247763 -0.876372 0.010869 0.182641 0.321686 -0.554761 -0.056461 1.087303 0.906271 -0.802384 0.526704 -0.249836 -0.264172 0.575098 0.535076 -0.200265 -0.720262 0.627042 0.469473 0.233849 -0.080502 0.205292 -0.487371 -0.229898 -0.922784 0.110810 0.210152 -0.068963 1.067611 -0.201124 -0.833820 -0.690931 -1.122404 -0.833002 0.059843 -0.724752 -0.617492 0.194153 0.193803 0.909771 0.236160 0.675683 -0.043089 0.416042 -0.135603 -0.271611 -0.098267 -0.012242 0.041189 0.289259 0.421992 -0.306347 0.365495 -0.221844 -0.101043 -0.519596 -0.132244 0.096771 0.469795 -0.120071 -0.648089 -0.825071 -0.709242 -0.431506 -0.121665 -0.351462 -0.438703 -0.439073 -0.121656 -0.598539 0.316224 0.318773 0.675997 -0.094571 1.189288 -0.096168 0.457812 -0.240852 -0.127313 -0.595743 0.431643 1.102016 -0.218334 0.113846 -0.002295 0.077050 0.037920 0.528405 0.432990 0.939372 0.598351 0.726252 -0.325544 -0.794394 -0.756260 0.067523 0.289903 -0.728241 -0.368447 -0.098819 -1.351131 -1.560912 -0.722050 0.312730 0.076974 0.908146 0.508036 -0.917634 0.700236 -0.100963 0.020063 -0.561743 -0.433901 0.505097 0.213407 0.840698 -0.593366 0.711401 0.567418 0.795876 0.808582 -0.941542 0.226467 -0.932814 -0.288340 -0.573920 -0.114880 0.136380 -1.730786 -1.513972 -1.907391 -0.983670 -0.462912 -0.492861 0.847811 0.024057 0.121427 -0.364612 -1.166829 0.054690 0.621179 0.971364 0.326142 -0.208579 -0.357974 -0.389448 -0.289181 -0.032717 0.373457 0.645037 -0.679798 -0.304224 -0.297689 0.563719 -0.208509 -0.475711 -1.028011 -1.328529 -2.202951 -2.345797 -2.171796 -1.249371 -1.302423 -0.576038 -0.769829 -0.814702 0.938178 0.493709 0.479336 -0.586782 -1.045307 0.462943 0.831846 0.055337 0.538383 0.519729 -0.080752 -0.906009 -0.052771 -0.743948 0.236431 0.575547 -0.021359 -1.480659 -1.500754 -1.073199 -0.751785 -2.720171 -2.112541 -2.556174 -3.384833 -1.249085 0.895502 0.166420 -0.040119 -0.303982 0.184686 -0.290432 0.596452 -0.218893 -0.292135 -1.072246 -0.866365 -0.572460 0.027213 -0.738100 0.345323 0.167041 0.857548 0.529611 0.082303 0.299350 0.144652 -0.386062 0.197297 -0.856902 -0.678828 -1.132128 -2.790945 -0.953601 0.641563 1.194534 0.688272 0.226475 0.381703 -0.033814 -0.080828 0.647275 -0.457082 -1.203873 0.389188 -0.984904 -0.822294 0.813929 -0.893098 -0.361007 0.138155 -0.697766 -0.629959 -0.185521 0.510589 0.325071 0.120878 0.414190 0.511128 0.242400 -0.669012 -0.589434 2.238079 0.919106 0.009053 0.685881 0.868892 0.386247 -0.723461 -0.356472 0.097985 -0.091571 -0.069412 -0.334885 0.683167 -0.744825 -0.828855 -0.781939 0.876996 -0.169161 0.318387 -0.225841 -0.134056 -0.586480 0.555125 -0.277862 0.203872 0.113245 -0.604475 0.176501 0.900112 0.767719 0.435252 0.191953 0.028080 -0.034590 0.684698 -0.474939 0.205508 -0.185156 -0.167541 0.405081 -0.175798 -0.933251 -0.254470 0.488680 -0.171781 0.121750 0.898001 0.822309 0.639530 0.854417 0.261557 -0.548902 0.018503 -0.075083 -0.402497 0.351658 -0.154150 -0.244749 0.598228 0.650086 0.863147 0.549871 0.383105 -0.726110 -1.014900 -1.050524 -1.160513 0.188550 0.310192 -0.616641 0.878511 -0.620804 -0.797751 0.731825 -0.387641 0.626895 -0.254333 -0.122482 -0.368353 0.075795 0.764330 -0.445283 -0.535725 1.019973 0.294687 0.057511 0.353762 1.159434 0.596739 1.219969 -0.059409 -0.504544 -0.424936 -0.387353 -0.620962 0.089064 -0.842657 -0.893489 0.517976 0.504127 -0.717416 0.612679 1.045556 0.069877 -0.597036 0.463051 0.812353 0.720155 -0.670201 -0.623786 -0.305372 0.081403 -0.175207 -0.582638 -0.673919 0.758848 0.193214 0.013500 0.661855 -0.458422 -0.049034 -0.878517 0.804457 0.821969 -0.598848 0.264040 -0.262511 0.887595 -0.974430 0.591928 0.322530 -0.924590 0.110860 -0.216397 0.153664 -0.341779 -0.244198 0.703686 0.091399 -0.598003 1.250335 0.002266 -0.506485 0.941950 0.020438 1.134779 0.095475 -0.827846 0.119380 0.273959 0.686335 0.679679 0.554303 0.509972 0.956738 -0.094284 0.129578 -0.084357 0.027747 -0.286603 0.864910 -0.741502 -0.914070 -0.379722 0.667949 0.463197 -0.278399 1.106605 0.815556 -0.614629 -0.736111 0.838832 0.450816 0.588898 -0.765401 -0.063086 -0.358651 0.551640 0.167941 0.968190 -0.016115 0.102697 0.388394 -0.514662 0.484527 0.449079 -0.361887 0.185216 -0.917145 0.685827 0.679391 0.978239 -0.428211 -0.109694 0.199444 0.472110 -0.490248 0.661985 -0.298468 0.456371 0.597000 -0.782639 0.362110 -0.774556 0.882485 -0.395938 0.192475 -0.631614 -0.788839 0.175510
-0.072024 0.261335 -0.460483 0.865710 -0.558155 -0.566463 0.282930 -0.920773 0.840874 0.264758 -0.000231 0.032517 0.282731 -0.290142 0.975279 -0.094010 0.681031 -0.317089 -0.971148 0.032400 -0.372397 -0.657976 0.257756 0.379860 -0.874271 0.100830 -0.021250 -0.885509 0.810140 -0.685178 0.095709 0.850673 -0.377151 0.889038 -0.491389 -0.309964 0.811194 -0.900365 -0.300185 0.888175 0.255608 0.303495 0.261575 -0.869443 0.959518 -0.484161 0.816164 -0.323107 0.309257 0.497286 -0.325253 -0.253184 -0.130877 0.890837 0.855848 0.323663 -0.750603 0.160758 -0.817725 -0.657985 -0.302453 0.420086 -0.904974 -0.186273 0.754050 -0.176708 -0.493672 0.256925 0.489421 -0.632482 0.417815 -0.817198 -0.834940 -0.308423 -0.596405 0.216657 -0.031951 0.365744 0.679036 0.353316 0.226056 -0.124626 -0.748236 0.755762 -0.496626 0.124215 0.269136 -0.772870 0.838887 -0.606745 0.829249 -0.634369 0.209937 -0.927633 -0.866685 -0.477490 0.025723 1.137891 -0.106148 0.689742 -0.428972 0.374411 0.095152 0.473297 0.532078 -0.570568 0.008827 -0.451898 -0.732762 -1.093242 0.533833 0.434563 0.801708 0.627354 -0.149025 0.617676 0.517500 -0.590133 1.101424 0.346334 -0.368577 -0.049278 0.492276 0.643412 0.151321 0.728077 0.521230 0.041106 0.019617 0.002406 -0.900894 0.416245 -0.675814 -1.119943 0.090784 -0.662139 -0.326785 -0.774389 0.239525 0.870118 -0.874010 -0.351043 0.260171 -0.484809 0.660558 0.451966 -0.139420 -0.109585 0.149292 0.694672 -0.771143 0.292639 -0.179921 0.271950 0.245119 -0.154708 0.608853 -0.618497 0.350845 0.484809 0.681474 1.096409 -0.345441 0.442762 0.219856 0.113766 -0.808846 -0.309701 -0.501899 0.346683 0.445351 0.780298 -0.393027 -0.629294 0.783188 0.547830 -0.211528 0.166161 0.869867 0.314110 0.069178 0.102457 1.087251 -0.073856 0.048569 1.353041 0.708682 0.230615 0.857212 0.669331 -0.065686 -0.624633 0.070286 -1.000497 0.730189 -0.350611 0.983473 0.084237 -0.473780 -0.259451 0.828163 1.144988 1.081261 0.992150 0.220708 -0.289472 0.017362 -0.301214 -0.640198 0.733047 0.003219 0.685344 0.165974 0.810001 0.631060 0.502435 -0.430084 0.184009 0.146316 -0.601324 -0.331610 -1.066691 0.429747 0.156501 0.531670 -0.140581 0.055866 -0.272915 -0.560558 0.910937 1.073398 -0.360653 1.001013 0.336235 -0.512093 0.269345 -0.108387 -0.764443 0.201055 0.407327 0.253903 -0.057715 -0.091632 -0.056707 -0.164630 1.025097 -0.704316 0.108006 -0.519822 -0.267504 -0.755089 0.372704 -0.362118 -0.472282 0.394595 0.595128 0.972457 0.751374 -0.991155 -0.890807 0.806585 0.548959 0.114108 0.054537 0.308779 -0.882978 0.113019 0.169320 0.903492 0.196988 -0.528089 -0.365964 0.033503 -0.715176 -0.765874 -0.057281 -0.780715 -0.572315 0.030228 0.608364 0.115242 0.727476 -0.804624 0.339311 0.319559 -0.351691 -0.178047 -0.162340 -0.478234 -0.268475 0.295719 -1.112682 -0.312885 -0.587309 -0.078961 -0.634537 0.431457 0.742592 0.935897 -0.106942 -0.054474 0.053938 -0.288395 0.301036 -0.426363 0.238280 -0.802450 -0.072233 0.717542 0.305441 -0.514333 -0.221665 0.539062 -0.515716 0.369558 0.459694 -1.479338 -0.379856 -1.294104 -0.235921 0.114544 -0.348968 0.581098 -0.500821 -0.023827 0.634165 0.589205 1.674861 0.147421 1.296093 0.821291 0.273772 -0.846365 -1.333298 -0.767525 0.589307 0.761364 -0.521669 0.982170 0.682937 -0.873064 0.209528 0.145020 -0.382816 -1.003194 0.571027 0.422033 -0.096925 -0.284166 -0.360346 0.289411 0.303546 0.254417 0.635749 0.816421 1.194355 0.414067 0.290989 -0.667785 0.425620 0.544530 -0.368033 0.074502 0.155749 0.601824 -0.699056 0.990148 -0.905425 -0.795431 0.048344 -1.102622 -0.775018 0.061126 -0.435905 -0.398823 0.324763 -1.110247 -0.217052 -0.690949 -1.473586 -1.427562 1.206888 1.659347 -0.452879 0.215270 1.094359 0.264818 0.706939 0.177010 0.343533 -0.386855 0.679878 -0.667816 -0.851509 -0.106976 0.565097 -0.160704 -0.798647 -0.039403 -0.060789 0.474786 0.658352 0.228642 0.875070 0.133427 -0.062214 0.588798 -0.495093 -1.391893 -1.322451 0.698269 0.463046 0.394928 -0.352484 0.441110 -0.373335 1.175344 0.713892 0.983208 0.105076 0.585119 0.834273 0.628630 -0.090105 0.983281 0.579329 0.730021 1.372239 -0.292213 0.401365 -0.117234 0.179111 -0.759793 -0.518951 0.737080 -0.468145 -0.456132 -0.034999 1.519334 -0.089486 -0.157298 1.057150 0.293410 0.080202 0.371390 0.776002 -0.027856 -0.387025 -0.057348 -0.489925 -0.488826 0.628527 -0.512845 0.795881 0.829721 0.567510 1.372479 0.986992 1.350304 -0.193119 -0.077628 -1.039571 -0.251567 -1.272417 0.057802 1.461469 0.373362 0.234875 0.808262 0.065983 0.364344 1.180858 -0.018004 0.070708 0.437457 -0.760343 0.839138 -0.438559 0.686297 -0.827807 0.462889 0.439671 0.411995 -0.316511 1.397178 1.338051 0.076202 0.327473 -0.452937 -1.479407 -0.872132 -0.510430 0.518344 -0.041282 0.408774 0.025483 0.548497 0.106532 -0.150737 -0.434241 1.047534 0.037237 0.870303 0.734872 -0.151139 -0.848577 0.015582 0.975917 -0.552722 0.375377 1.133229 1.135635 -0.437997 0.535941 -1.240922 -1.423151 -0.368682 -0.984276 -1.587547 -0.023378 0.004188 1.306291 0.958160 0.501505 0.097090 -0.094181 1.323804 1.044302 -0.161676 -0.552057 -0.714484 -0.717554 0.895733 0.114936 0.889186 0.069953 0.565142 0.417429 0.453048 0.853773 -0.196682 -0.045231 -0.196849 -0.805290 -0.870726 0.330549 -1.439568 0.093148 -0.293765 0.072088 0.832453 1.042104 0.596973 0.627657 0.096359 0.505473 -0.405412 0.705100 0.182000 0.559448 0.651280 0.538047 -0.003277 0.036809 -0.584462 0.129616 0.866987 -0.025590 -0.122200 -0.629256 -0.031776 -0.636199 -0.633467 -0.540232 -0.542039 -0.631007 -0.332220 -0.151156 0.169105 -0.576374 -0.348942 0.146656 0.192834 0.315090 -0.400881 -1.029569 0.276071 -0.456031 0.610035 0.734369 0.766461 -0.713744 0.731606 0.326583 0.197263 0.827899 0.521628 0.592851 -0.185003 0.480697 0.528350 0.064985 0.079931 -1.124486 -0.191806 -0.457584 -0.564973 0.257138 -0.548754 -0.638046 -0.385234 -0.976106 -0.716844 0.187236 -1.020895 -0.242758 -0.789177 -0.454082 -0.375693 0.340389 1.004441 0.417645 0.521199 0.038173 -0.289597 -0.133219 -0.642955 0.195081 -0.240970 -0.569646 -0.264578 0.298261 0.012692 -0.260606 0.215616 -0.682955 0.139450 -0.579778 -0.420399 0.103416 0.913128 -0.294551 0.751406 0.478691 0.514985 0.749415 0.253965 -0.250658 0.764727 0.508893 0.883015 -0.044196 0.432606 -0.486936 -0.235014 -0.446252 0.778542 0.124271 -0.107780 -0.547409 0.253849 -0.557374 0.470944 -0.456184 -0.780808 0.251832 -0.114792 -0.424785 -0.122557 0.372637 0.368746 -0.165124 -0.144921 0.707405 0.868571 0.932534 -0.406381 0.022545 0.890563 -0.127776 -0.160059 0.303989 0.336080 0.698600 -0.255258 0.178000 -0.398636 -0.024667 -0.369657 0.167236 0.760316 -0.246536 -0.687543 0.807634 -0.572172 0.700551 1.056945 -0.022327 -0.753734 0.606747 -0.762342 0.547360 -0.013070 -0.661655 -0.153958 -0.895679 -0.870328 0.435360 0.520653 -0.745629 0.592010 0.769260 -0.541987 0.842217 -0.523255 0.104953 0.671965 -0.788944 -0.328267 0.103176 -0.789852 0.735514 0.275804 0.903048 0.268183 -0.413653 0.622693 0.638672 -0.036920 0.532941 -0.184193 -0.055495 -0.553642 -0.648977 -0.258304 0.625195 0.906627 0.805145 0.434635 0.065171 0.865689 0.461583 0.786939 -0.546167 0.889479 -0.224275 0.348867 0.474204 0.799482 0.044754 0.047192 0.507990 -0.393063 0.395227 -0.304690 -0.036737 0.733378 0.718951 0.381467 -0.813687 -0.554292 -0.009135 -0.523604 0.546842 0.544429 -0.515539 -0.003309 -0.851477 -0.053991 -0.411843 -0.542184 0.107987 0.856775 -0.455352 -0.223164 -0.745312 -0.432519 -0.491550 0.494742 -0.446655 -0.695434 -0.056943 -0.505145 -0.066095 -0.647941
-2.437702 -0.604177 -0.989504 -0.682682 -0.578247 -0.975944 -0.194520 -0.185464 0.027025 0.676356 -0.491964 -0.615249 -0.082059 0.511790 0.968915 -0.634269 0.738178 -0.143650 -0.055789 -0.141428 -0.880735 -0.866517 -0.166403 -0.976168 0.482981 -0.732148 -0.499791 0.124397 -0.323399 -0.942474 -0.799191 0.442426 0.711600 -0.586554 -0.218548 -0.025510 0.681447 0.450221 -0.683487 -0.421189 0.953575 0.624364 0.934312 -0.236111 0.228293 -0.600030 -0.638086 -0.930388 -0.846879 0.586922 -0.794344 -0.108508 -0.353475 0.187527 -0.714015 -0.983067 -0.818669 -0.587752 0.659114 0.756904 0.265922 0.062477 -0.833358 0.077817 -0.774038 0.289643 -0.444072 0.539095 0.149355 -0.086427 0.828595 0.368458 0.475070 0.189642 -0.271986 -0.164374 0.172205 0.276391 -0.232029 0.092271 -0.507549 -0.963557 -0.743277 0.447034 0.434380 0.843602 0.326419 -0.785738 0.776947 0.333091 0.225254 0.908266 -0.697762 -0.631162 -0.720193 -0.524654 0.666827 0.466503 0.280725 0.003777 0.526688 1.200653 0.431887 -0.297595 0.638774 -0.731368 0.109189 0.014011 -1.426568 -0.905303 0.830081 0.279390 0.967326 -0.765166 -0.374174 -0.235640 -0.657630 -0.040578 -0.301247 -0.261343 -0.194635 -0.570244 0.904528 0.469264 0.340121 -0.029565 -0.255185 0.445685 0.509428 0.243991 -0.319146 0.911373 0.128456 0.470406 -0.052681 -0.129685 -1.108807 -0.583251 0.529434 0.077721 -0.087220 0.350755 -0.472851 0.648154 0.230863 0.167767 -0.181568 -0.129849 0.700361 -0.173551 -0.374148 -0.372061 -0.388084 -0.029478 -0.151713 -0.244132 0.365420 0.833079 -0.249071 -0.037818 0.424368 -1.027478 0.081122 -0.373556 0.393981 0.741496 -0.063815 -0.552175 0.573301 0.442137 0.607773 0.082734 -0.664582 0.714550 -0.487548 0.218350 0.459980 -0.657600 0.885778 -0.204414 -0.218935 0.084883 -0.883296 0.321079 0.208594 0.797431 0.112522 0.110393 0.354140 -1.032842 0.234441 0.146326 -0.661888 -0.449460 0.175046 0.735269 0.640609 0.710927 -0.923410 -0.703111 -0.009998 -0.509640 0.472212 0.080337 0.488295 0.394838 0.775213 0.049727 0.026408 -0.225174 -0.134557 0.475714 -0.296115 0.360534 0.370662 -0.353960 1.163536 0.379818 0.053289 0.129851 0.006013 -0.986786 -1.021597 -0.765265 0.940129 -0.760769 -0.132938 0.076593 -0.344105 0.656157 -0.624327 -0.410869 0.353970 0.477485 0.867194 0.089815 0.410585 0.305527 -0.332592 0.373003 0.155660 0.571515 0.435319 0.936248 -0.459351 -0.421084 0.497795 -0.261464 -0.429535 -1.434523 -0.109872 0.610001 0.653659 0.603408 -0.460211 0.177003 -0.059125 0.743816 1.055231 0.623948 0.504061 0.753709 0.692781 0.857933 0.713364 0.476429 -0.256064 -0.395377 0.794724 0.841521 0.061996 -0.275346 0.129083 -0.778788 0.375190 1.123972 -1.062606 -1.296976 0.738831 -0.020116 0.235884 0.748258 -0.767723 0.629037 0.718857 0.566588 0.143750 1.301082 0.619444 1.490016 0.096059 0.652818 -0.948307 -0.836677 -1.629460 -0.617933 -0.507480 0.145865 1.256731 0.038930 -0.130690 0.500827 -0.143923 -0.383428 -0.052139 -0.021706 0.103922 -0.551379 0.262751 -0.797786 -0.119702 0.597583 0.413909 -0.626209 -1.387510 -1.316988 -1.184514 -1.610713 -2.491675 -2.052060 -2.345610 -1.902594 -2.038421 -0.639740 0.511196 0.334353 -0.257738 -0.208517 -0.033438 -0.705907 -0.330567 -0.190696 -1.088940 -0.399105 -0.815005 0.151678 -0.292754 -0.732668 0.349855 0.792464 0.473943 -0.602588 -0.952647 -1.847200 -2.323520 -3.167486 -3.161200 -2.113331 -1.198178 -0.140511 -0.575225 -0.396475 0.267320 1.306294 0.371150 -0.110185 0.099218 -0.041349 -0.552516 -0.412670 0.390003 -0.093180 0.055209 0.125045 -0.613035 -0.470349 -0.596995 -0.193246 0.269268 -1.860589 -2.525784 -2.707671 -2.241434 -1.648929 -0.459951 0.188179 0.091120 0.610006 0.092243 -0.427925 -0.377485 0.141347 -0.223070 -0.327434 0.181896 -0.344882 0.509770 0.314288 0.238065 0.738349 -0.146451 0.977145 -0.414879 -0.983645 -0.037258 0.079627 0.575895 -1.290299 -0.516100 -1.517802 -0.567042 -0.123146 0.584242 0.390276 0.753123 0.355446 0.109363 0.853000 -0.480378 0.548364 0.057034 -0.047655 0.709212 -0.615456 0.674322 0.462287 0.204591 0.883938 0.277479 0.819710 0.777805 0.565832 0.187883 -0.033752 -0.400676 -0.201745 -0.706629 0.685563 0.549111 0.959592 0.318709 0.331455 0.064507 -0.071199 0.325931 -0.156787 0.682584 -0.443288 0.174850 -0.236277 0.192965 0.037417 -0.107087 -0.665676 -0.037596 0.844004 -0.563431 1.004313 0.108535 -0.414105 -0.889719 -0.494396 0.502060 -0.132626 0.587297 0.664504 0.612647 -0.538575 -0.049803 -0.247302 -0.450174 1.308276 0.450037 0.061820 0.147944 -0.010450 -0.433348 0.366088 0.372315 0.008924 0.614701 0.992570 0.682342 1.154479 0.131137 0.985165 0.011830 -0.442254 0.150314 0.218886 0.992219 0.964964 -0.677085 -0.055076 -0.338519 0.393887 -0.321110 -0.453748 0.932880 0.662957 0.078314 0.034879 -0.027908 -0.377043 0.302805 0.049217 0.468741 -0.627618 0.204690 0.586463 -0.221004 0.038414 0.697179 1.067101 -0.826521 -0.292583 0.982129 -0.768849 1.433039 -0.174586 1.093557 -0.401565 -0.308791 -0.935397 -0.186043 0.811370 -0.842915 -0.356771 0.603751 -0.020105 -0.076243 0.594884 1.686873 0.268990 0.457489 0.676115 -0.031972 0.085002 1.066890 1.213879 -0.044424 0.554843 0.818234 0.920911 -0.086874 -0.405194 0.331158 0.261484 0.210731 -0.153800 -0.103432 0.029277 -0.536762 -0.273004 -0.846152 0.275031 -0.289725 0.004063 -0.059073 0.343338 -0.252278 0.216964 0.015949 0.852590 -0.282042 -0.897810 0.730297 -0.138443 -0.150804 0.797981 0.186018 -0.954925 0.743910 -0.000774 0.488288 0.602203 -0.416364 -0.518463 0.411615 0.076038 0.615713 0.867964 0.414747 0.275700 -0.573613 -0.525887 -0.535349 0.072067 -0.443416 0.015430 0.276510 0.341753 0.658748 -0.289170 0.039058 -0.320512 -0.222023 -0.524791 0.084688 0.057026 -0.381567 0.427778 -0.346660 -0.662367 -0.588511 0.411107 -1.051718 -0.047224 -0.525144 0.061911 -0.509820 -0.038231 0.410766 -0.128661 -0.381216 -0.501865 -0.738039 -0.326606 0.472946 0.145828 -0.591753 0.838198 -0.873882 0.675025 0.925531 -0.078961 0.238238 -0.352760 -0.518618 0.579418 0.611453 0.281446 0.647871 0.308834 0.767714 0.570353 -0.408442 0.381039 -0.593378 -0.635786 0.410237 0.258351 -0.156314 0.748169 -0.617601 -0.366779 0.006284 -0.690386 -0.625091 0.835879 0.286745 0.679607 -0.124316 0.997703 0.948858 0.414398 -0.334866 0.501326 0.663869 0.603808 0.287607 -0.038096 0.525380 -0.761451 0.042752 -0.022168 0.043635 -0.107479 0.803784 -0.491380 -1.068639 -0.150057 -0.779050 -0.093272 -0.161538 -1.136261 0.607728 -1.308227 -0.475735 -0.700131 0.886143 0.441531 -0.529924 0.180854 -0.875209 -0.815164 -0.447004 0.235372 0.720276 1.024632 -0.108934 -0.475445 0.586018 0.145505 -0.010073 -0.700786 0.167872 0.464992 -0.240219 -0.883301 0.381146 -0.669313 -0.465468 -0.556760 0.420571 -1.378503 0.685250 -0.401345 -0.111878 -0.831794 0.215332 -0.674408 0.625048 -0.913776 -0.851053 -0.330443 0.927031 0.042804 -0.402208 1.219211 0.209055 -0.130891 -0.263074 0.925515 -1.127362 -0.624953 0.034498 -0.176618 0.478026 -0.803003 0.228487 -1.140234 -0.462069 0.189432 -0.222230 0.895113 -0.594174 0.272520 -0.108658 0.385545 0.845503 -0.758996 0.842590 0.881388 -0.386864 0.324422 0.793749 -0.498441 -0.509095 -0.422901 0.443634 -0.614539 -0.619456 0.093521 0.614572 -0.056994 0.324708 -0.886254 0.511446 -0.973098 -0.961567 -0.038412 0.406519 -0.127927 0.049275 0.533236 -0.252997 0.542430 0.383667 0.761385 0.571141 0.931174 -0.171725 -0.860261 0.501470 -0.093560 -0.127521 -0.876838 -0.030481 -0.585585 -0.981934 -0.609175 0.262329 -0.526287 0.302122 0.965675 0.137409 -0.043433 0.660441 -0.372235 -0.982359 0.715049 -0.086185 -0.722957 0.456308
