layer
0.049744 0.994370 0.865115 -0.743751 0.998081 -0.527822 -0.206839 -0.224179 0.339492 0.871078 0.692622 -0.373453 0.049096 -0.113094 -0.540846 0.068828 0.827924 -0.085590 -0.138603 0.878256 0.556778 0.431941 0.605515 -0.814398 0.036305 0.730040 0.658294 0.659207 -0.453900 -0.881514 0.341056 0.186131 0.343308 -0.176424 -0.604898 -0.420741 -0.715760 0.566629 -0.174922 -0.931657 0.248060 0.321271 -0.403009 -0.107731 -0.555751 -0.853272 -0.061523 -0.807655 0.806740 -0.761019 0.049599 -0.832754 0.833723 0.820897 -0.402140 0.168778 0.131824 0.227877 0.913071 -0.478042 -0.537969 0.066897 0.899876 -0.013881 0.081201 0.530970 -0.909309 -0.720068 0.584807 -0.940397 0.766251 0.081576 -0.104040 0.784272 -0.244831 0.076849 0.304598 -0.277478 0.142017 0.275673 -0.747370 0.380409 0.295499 -0.292122 0.526466 -0.286937 0.505577 0.762684 -0.976662 -0.003782 -0.852416 0.573903 -0.871865 -0.289379 0.883674 -0.240393 0.525840 0.543190 -0.397279 0.545478 -0.694140 0.157268 -0.981984 0.418085 -0.058718 0.529185 -0.065215 -0.461998 0.663385 0.102650 -0.859837 -0.055050 0.485530 -0.616088 -0.071377 -0.539274 0.016495 -0.582863 -0.901392 0.037724 -0.655443 -0.207373 -0.785269 0.019621 -0.795730 -0.422564 -0.536483 0.935336 -0.443362 -0.532755 -0.816887 0.140133 -0.164147 -0.264314 0.625990 -0.420480 0.434783 0.225896 -0.146180 0.503746 -0.144375 -0.143235 -0.276191 -0.693323 0.874381 0.832820 0.563917 0.232658 -0.928001 0.308648 -0.740461 -0.411281 -0.278370 -0.450710 -0.852062 -0.695726 -0.676763 0.877423 -0.257732 -0.899964 0.481911 -0.402640 -0.591284 0.963513 0.786042 0.518698 0.302241 -0.920633 0.627753 0.525146 -0.089435 0.063653 -0.781328 -0.707935 0.017577 -0.568699 0.832887 -0.075695 -0.735465 0.528483 -0.574533 -0.851483 -0.809162 -0.675589 -0.287073 -0.809384 -0.713474 0.862026 0.153168 0.679290 0.246584 -0.350965 0.456023 0.045473 0.473623 -0.669188 0.374117 -0.146378 0.457115 0.512671 -0.204777 0.850400 -0.592979 -0.983995 0.852701 -0.410977 -0.666097 -0.951797 -0.095997 0.616677 -0.263246 0.218414 -0.930305 -0.290846 -0.842960 0.386370 -0.974575 -0.080909 0.922635 -0.331630 -0.055833 -0.789217 0.006152 0.771380 0.068755 -0.437046 -0.290831 0.792560 -0.517022 -0.952232 0.931454 -0.140064 -0.307423 0.154135 -0.746948 0.900087 -0.372778 0.905662 -0.563214 -0.502600 0.727604 -0.529463 0.630200 0.087794 -0.617479 0.177680 -0.903726 -0.968254 -0.900578 -0.201169 0.153808 0.735035 0.572324 -0.490595 -0.835490 -0.684488 -0.581014 -0.165234 -0.304620 0.399768 0.395019 -0.850552 -0.927061 0.578800 0.801057 -0.990673 -0.471593 -0.065245 -0.280368 -0.519565 -0.953663 0.063336 -0.739611 0.122918 -0.664338 -0.157850 0.369376 -0.452199 -0.980001 -0.560267 -0.936088 0.869744 0.564184 0.035188 -0.967074 -0.402400 0.081439 0.719767 -0.629771 -0.832907 -0.911455 -0.112384 -0.961362 -0.865936 0.623543 0.272581 0.545701 0.411364 -0.523578 -0.911164 -0.437566 0.730179 -0.853753 0.320664 -0.625243 0.044573 0.807759 -0.049695 0.694045 0.677559 -0.721440 0.080609 -0.065829 -0.562634 -0.118343 -0.039444 -0.333431 -0.982175 0.010928 0.346295 -0.889081 -0.684841 0.210206 -0.361552 0.781034 0.580747 -0.565002 -0.599582 0.360880 -0.687566 0.020722 0.976129 -0.710616 -0.903400 0.798128 0.430659 -0.379344 -0.214119 -0.838433 -0.295757 -0.997973 0.249261 -0.599457 0.250223 -0.357096 -0.905364 0.446730 0.518504 -0.187391 0.408670 0.170718 0.939129 -0.392243 -0.372489 -0.547077 0.344669 0.557844 0.025323 0.230530 -0.908678 -0.107801 0.936025 -0.280879 0.108064 -0.177291 0.932093 -0.593884 0.985653 0.318400 0.618154 -0.083698 0.774616 0.067869 0.154559 0.834997 -0.371707 0.452277 0.610472 -0.039874 -0.024851 0.682820 0.111055 -0.460237 -0.026515 -0.448308 -0.549219 0.293508 0.842267 -0.599050 0.759706 -0.068385 0.449960 -0.394257 -0.021985 -0.592651 -0.822767 -0.668621 0.005993 0.575162 0.807204 -0.560952 0.476262 -0.484394 0.128417 -0.735141 -0.255825 -0.834289 0.011452 0.388814 -0.086044 -0.277451 0.632015 -0.908377 -0.224344 -0.082954 0.471464 0.819274 -0.445189 0.635537 0.312632 -0.977439 0.470707 0.206989 0.360038 0.167920 0.147042 -0.277965 0.917400 0.973886 -0.225729 0.672360 0.964285 0.170706 0.341864 -0.827487 0.982901 0.559000 0.988730 0.307380 -0.925144 0.438179 0.376232 0.217626 -0.787577 -0.438630 0.552429 0.780333 0.021199 0.431416 -0.844442 0.230608 0.675608 0.392011 0.110119 0.722379 0.490643 -0.470901 0.999538 0.147464 0.278118 -0.020601 0.778749 0.749021 0.695580 0.295448 0.171157 -0.436834 0.983308 0.599322 0.003272 0.544631 -0.751440 0.842036 -0.910327 -0.542790 0.684973 -0.388857 -0.031357 0.300107 -0.712114 -0.388404 0.773841 0.773684 0.030433 -0.465825 0.760687 -0.004033 -0.333121 0.789393 -0.591034 0.639209 0.677676 0.045592 -0.676124 0.897954 -0.881102 0.772999 0.148688 -0.242306 0.281811 -0.744386 -0.186594 -0.287180 -0.697688 0.712946 -0.795985 0.906242 -0.666372 -0.121191 -0.679167 0.758544 -0.043099 -0.201693 -0.449060 -0.896718 -0.722571 0.557277 -0.643893 0.166877 0.856248 -0.784672 -0.094711 -0.688015 -0.391578 0.528248 0.253844 0.422191 -0.613079 -0.863138 0.759312 -0.360302 0.208960 0.910420 -0.168416 -0.608217 -0.667943 0.249614 -0.887413 -0.342894 0.960824 0.543195 -0.581335 0.170564 -0.120424 0.227108 -0.360057 -0.776200 -0.373971 0.987876 -0.668452 -0.074160 0.271034 -0.925824 -0.493451 0.740425 -0.720737 -0.963858 0.379428 0.742156 -0.288983 -0.206402 0.725823 0.864514 -0.098482 0.949983 0.395874 0.507221 0.155549 -0.730788 0.615398 -0.790663 -0.328977 0.128729 0.245177 -0.083798 0.625710 -0.503478 -0.154469 0.611223 0.096246 -0.504947 -0.978456 -0.506159 -0.500261 0.231527 -0.476133 0.048552 -0.239489 -0.927821 0.687213 -0.100067 0.952962 -0.885106 -0.673821 -0.634811 0.082585 -0.454602 -0.013463 0.467886 -0.630489 0.841395 0.320126 0.380151 -0.663827 0.371507 0.203609 0.309922 0.035388 -0.861031 -0.052326 -0.030512 0.235797 -0.798557 -0.943461 -0.864063 -0.248234 0.545669 -0.185739 0.869909 0.065355 -0.107179 -0.342361 -0.311870 -0.905072 -0.102785 0.806462 0.762857 0.625911 0.920455 -0.386899 0.856534 -0.910144 -0.279735 -0.847965 0.850852 -0.323953 0.581960 0.498245 -0.068339 -0.835348 -0.600070 -0.847662 0.784928 0.441943 -0.104626 0.152897 -0.597067 0.441036 0.694688 0.137108 0.212884 0.800546 0.786633 0.200760 0.568050 0.576673 0.961518 0.373126 0.839894 -0.861208 0.062917 0.168200 -0.226735 -0.477479 -0.101369 0.095183 0.691846 0.631591 -0.477472 0.964111 0.856115 -0.328655 0.409124 0.298269 -0.582419 0.488943 0.955436 -0.168792 -0.816883 -0.477404 -0.542291 0.662882 0.053628 -0.934601 0.521686 -0.153253 -0.645981 0.402478 0.195196 -0.448832 -0.876320 0.409769 -0.283612 0.446474 0.053949 -0.810116 -0.287092 0.819967 -0.642667 -0.615145 -0.597386 -0.755692 0.259343 0.899910 -0.919809 -0.071534 -0.860594 0.187688 0.197161 -0.299092 -0.476016 -0.373353 0.809820 -0.190024 0.412735 0.101078 -0.099724 -0.074007 -0.793401 0.900063 -0.749008 -0.737572 -0.679145 0.740163 0.974203 0.877699 -0.235929 -0.035505 0.339776 0.625595 0.836078 -0.824681 -0.742973 0.470927 0.925742 0.134263 0.894431 0.713848 0.406999 -0.639767 0.238668 0.116157 -0.874982 -0.121761 0.719929 -0.978744 -0.829680 -0.142502 0.174929 0.719104 0.229185 0.064837 0.672897 0.488122 -0.344265 -0.510616 0.309092 0.217566 -0.863864 -0.226803 0.072768 0.785802 0.878663 -0.563800 0.123664 -0.731693 0.417635 -0.693573 -0.994907 -0.971993 -0.564778 0.809692 -0.873457 -0.415402 -0.709948 0.303090 -0.712587 -0.378065 0.909563 0.835010 0.697095 0.050544 -0.806452 -0.707350 -0.169793
-0.848753 -0.435926 -0.475563 -0.086044 -0.207994 0.459915 -0.987985 0.227439 -0.937607 -0.874580 -0.484776 0.183778 -0.823587 0.722086 -0.855070 -0.342438 0.621140 0.866297 -0.506013 0.109111 0.120959 -0.045505 -0.100337 0.871727 -0.219853 -0.906248 -0.488584 -0.134895 -0.411695 0.083143 0.521270 0.813584 0.543342 0.129735 -0.657126 -0.148669 0.498395 -0.934078 -0.035805 0.043452 0.075026 -0.673647 0.276155 -0.527601 -0.686380 -0.222767 0.005313 -0.668735 0.113875 0.620894 -0.727310 0.550704 0.964498 0.885090 -0.321539 0.386174 0.324324 0.655955 0.692993 0.110091 0.346492 -0.002835 -0.984044 0.424131 0.016953 -0.618921 0.722183 0.627468 0.442449 -0.879337 -0.978644 0.965592 0.216619 -0.997636 -0.057991 0.077971 0.122653 0.844220 0.301801 -0.872928 -0.389948 -0.016565 -0.176906 -0.364270 -0.023435 -0.874569 -0.773407 0.897674 0.503771 -0.797187 0.169876 0.815067 0.286588 0.329086 -0.549993 -0.837105 -0.818024 -0.992312 0.914855 -0.870415 0.529866 0.091510 -0.000378 -0.824904 -0.973971 -0.870256 -0.981362 0.944207 -0.702321 0.199384 -0.176334 0.475696 0.273081 0.841894 0.348344 -0.543165 -0.127617 0.022092 0.943440 -0.994882 -0.870322 0.693025 0.890958 0.532006 0.302319 0.630176 -0.995406 -0.494256 -0.339463 -0.798697 0.290259 0.650621 -0.289511 -0.567144 -0.049007 -0.552914 -0.265275 0.477998 -0.078515 -0.857401 -0.329703 0.220130 0.404846 0.739614 -0.988978 -0.402586 0.498285 0.726632 0.793399 -0.201612 -0.123509 -0.225953 -0.549836 -0.704640 -0.994825 0.532437 0.959154 0.652066 -0.628530 0.525011 -0.621587 -0.319547 0.217189 0.379591 -0.223805 -0.461205 0.888518 -0.391106 0.169059 -0.150890 -0.314885 -0.165902 0.521678 0.725099 0.031503 -0.417304 -0.569821 0.916280 0.995603 0.099581 0.494764 0.472113 -0.400188 0.717473 -0.315609 0.586626 -0.052097 -0.486213 -0.808737 -0.788532 -0.474149 -0.207093 0.480956 -0.364138 -0.008892 0.710904 0.982960 -0.904964 -0.799923 -0.548548 -0.283321 -0.716081 0.569621 -0.255069 -0.876317 0.448064 -0.300541 -0.022399 0.414064 0.085693 -0.500419 0.505644 -0.145575 0.882158 0.935034 -0.935609 -0.042840 -0.837306 -0.156316 -0.698956 0.113921 0.328800 0.898754 -0.326055 0.016820 0.750220 -0.497600 0.296280 -0.670554 -0.294712 0.582514 -0.914563 0.267448 0.528326 0.631648 -0.093132 0.423212 -0.676953 0.234718 0.742730 0.764168 -0.140651 -0.452527 0.696593 -0.494141 -0.830742 -0.114597 0.030042 -0.871187 -0.086883 -0.421227 0.020655 -0.188029 0.929163 0.053565 -0.652004 -0.267331 -0.290076 -0.195445 0.916875 0.954182 0.884042 0.411242 -0.942755 -0.182949 0.862221 0.654167 0.319519 -0.480886 0.010192 0.355034 0.219317 -0.006495 -0.975842 -0.058368 -0.467914 0.388319 0.084902 0.573822 0.150939 0.398747 0.673724 0.058909 0.902929 -0.374953 0.501048 0.036708 -0.841540 -0.399216 0.249656 0.294638 -0.856350 -0.206557 -0.884377 0.023195 -0.631099 0.488147 -0.169029 -0.367676 0.288937 0.296928 0.449997 0.790992 -0.238086 -0.056611 0.694479 0.728436 -0.564006 0.250840 -0.177100 0.182872 0.096747 -0.404294 0.585942 0.029526 -0.472347 0.290619 0.321858 -0.131025 -0.131719 -0.641583 0.300872 0.826576 -0.897190 0.468383 -0.343765 0.815258 -0.831015 -0.888953 0.051815 0.875018 0.939962 -0.531288 0.701828 0.313864 0.290845 0.710716 0.862115 -0.123814 -0.894574 0.094988 -0.595767 0.706619 0.442686 0.862024 -0.029570 0.846793 0.777443 -0.820394 0.933571 -0.732039 -0.147344 0.717655 -0.091464 -0.742200 -0.382415 -0.058395 0.386295 0.278547 -0.408812 -0.303303 -0.737906 0.029634 0.215475 -0.588555 0.985136 -0.715644 0.437530 0.294734 0.597707 0.227449 0.452364 0.072673 0.295105 -0.354694 -0.047196 -0.947560 -0.148857 0.915673 0.681526 0.865997 -0.381748 0.355240 0.218113 -0.591139 -0.668556 -0.400746 0.074691 -0.319994 -0.031549 0.736741 0.601801 0.093240 -0.636781 0.401695 0.566481 -0.119521 0.651285 -0.217566 0.857022 -0.898212 -0.019421 0.746345 0.707586 0.592632 0.009467 0.641494 -0.027432 0.695438 0.501724 -0.144714 -0.749362 -0.050692 -0.841723 0.776311 -0.894085 0.678092 -0.266976 0.844634 0.621530 0.758714 -0.699632 0.717523 0.598256 0.223080 0.693814 0.620362 -0.774444 -0.177833 0.767590 0.913367 -0.051665 -0.464176 0.674498 0.895143 -0.615302 -0.789622 -0.807464 -0.126208 -0.780079 0.142547 -0.349071 -0.791800 0.273353 0.354118 0.179993 -0.193955 0.934529 -0.597131 0.009977 -0.447154 0.656580 -0.512924 -0.904861 -0.717769 -0.835603 -0.328897 -0.157187 0.410609 -0.741231 0.561847 -0.476881 -0.755141 0.960085 -0.001594 -0.551577 -0.435374 0.963984 0.564679 -0.986785 -0.981453 0.029028 -0.204337 -0.600650 -0.099948 -0.767848 -0.645389 0.339473 0.378811 -0.514976 -0.315747 0.619127 0.613183 0.101959 -0.418524 0.962781 -0.153812 0.400122 0.735975 0.944536 -0.601177 -0.779429 -0.025748 0.124100 -0.998822 0.130250 -0.732454 -0.420226 0.961790 0.774986 0.886182 -0.883725 0.199974 -0.858630 -0.290131 0.444896 -0.846945 -0.140368 -0.241768 -0.168140 0.238232 0.285661 -0.278116 0.776792 -0.471693 -0.871613 -0.715664 -0.448325 0.144174 -0.501035 -0.632477 0.898145 0.904693 -0.785754 0.259766 -0.464810 -0.848754 -0.371807 0.319335 -0.826065 0.134802 0.030587 -0.432513 -0.163176 0.005146 0.105421 -0.208303 0.415610 0.742722 0.373250 0.878400 -0.983752 -0.272520 0.315047 -0.093456 0.538192 0.950678 -0.322318 0.817017 0.178630 -0.021904 -0.953260 -0.335741 0.266980 0.346829 0.256402 -0.073068 -0.687450 -0.904176 0.002503 0.323469 0.422710 0.375040 0.147292 0.248474 -0.581232 -0.687326 -0.944557 -0.648571 0.949753 -0.469435 -0.780046 0.422516 0.070522 0.568385 -0.160751 0.546178 -0.790539 0.520076 0.011935 -0.372692 0.825760 -0.150035 0.524378 0.256768 0.478529 0.646003 -0.432412 0.947947 -0.136046 -0.766604 -0.560217 -0.567090 -0.230809 0.863805 -0.420655 -0.429644 -0.015278 -0.866602 0.193987 0.592916 -0.991793 -0.930919 0.366799 0.395245 0.713859 -0.158992 -0.643871 0.676133 -0.944364 -0.799416 0.705082 0.405704 -0.037102 -0.211468 0.773552 -0.105557 -0.335508 0.152912 -0.532809 0.479480 0.087379 0.462875 0.204558 0.989644 -0.556666 0.549480 0.803217 -0.569273 0.191408 -0.277355 0.830605 0.620586 0.868318 0.000074 -0.413991 0.811471 -0.264797 -0.185150 -0.711421 0.771299 0.330768 -0.632641 0.168100 -0.096128 0.874404 -0.156334 -0.122923 0.602777 -0.968545 0.629655 0.893266 -0.201313 0.816762 -0.809215 0.091488 -0.101348 0.215103 0.085805 0.384144 0.534866 -0.255909 -0.282730 0.120301 0.956848 -0.062068 -0.733189 0.936885 -0.622705 0.185314 0.539242 -0.161490 0.720499 -0.015530 -0.036930 -0.596633 0.285721 -0.749867 0.569452 -0.357452 -0.462994 -0.670181 0.783672 0.935270 -0.828657 -0.487136 -0.278484 0.287154 -0.444028 -0.331826 -0.012334 -0.460691 -0.028068 0.086278 -0.989813 -0.314795 -0.421707 -0.677779 -0.597835 0.330396 0.723191 0.667352 -0.287520 0.010300 -0.194505 0.708877 0.931809 0.461791 0.229202 -0.207871 -0.460610 0.117663 0.444963 0.954218 0.381941 -0.381374 -0.652468 -0.751476 0.841367 0.832703 0.850758 -0.874490 -0.770647 -0.973104 0.875439 0.979928 0.963997 0.169991 -0.816597 -0.362899 -0.707640 0.241548 0.899690 0.321923 0.000442 -0.310372 0.007741 0.264399 -0.206830 0.849216 0.691179 0.061724 0.681028 -0.804755 0.483680 -0.617149 -0.195831 -0.588808 -0.363564 -0.862992 -0.293705 0.931618 -0.991909 0.403425 -0.321998 -0.339653 0.288011 0.768195 -0.717897 0.787752 0.454472 -0.120191 0.864817 0.629614 -0.265486 -0.813804 -0.171694 0.530316 -0.603562 0.252709 -0.330826 0.706244 0.771051 -0.637198 -0.044381 -0.582243 -0.894013 0.112799 -0.671662 -0.670616 -0.242908 0.883956 -0.188537 -0.159774 0.657183
0.216487 -0.371889 -0.932683 -0.035783 -0.202314 0.360357 -0.650356 -0.055897 0.780913 0.622935 0.345444 0.025791 0.919966 0.032726 0.285580 0.104087 -0.777717 0.700376 -0.471020 0.905493 -0.695347 0.354036 -0.327827 0.260135 -0.533287 -0.987744 0.506647 0.846740 0.943692 0.195114 0.380581 0.748996 0.487533 -0.667857 0.483873 -0.187894 0.457753 0.736080 0.082161 0.596301 -0.066568 0.897878 0.377887 0.457415 -0.170081 -0.615443 0.335675 -0.044231 0.750276 0.679083 0.164794 -0.853061 0.303081 0.280009 0.435303 -0.231659 0.237690 -0.249079 0.639185 -0.300374 -0.104454 0.104627 -0.316102 0.539398 0.142777 -0.467501 0.892814 -0.984120 0.241231 -0.428829 -0.923739 0.302523 0.667028 0.304438 0.792325 -0.399633 -0.815329 0.082230 0.675058 0.274923 -0.720834 -0.352766 0.569672 0.993821 0.986940 0.864922 0.895126 -0.107236 -0.212750 -0.024438 -0.887901 -0.535804 0.704369 0.236826 0.295576 0.082399 0.158482 -0.455405 -0.013300 -0.978507 -0.074350 0.064982 0.651753 -0.809345 -0.229713 -0.456761 -0.519730 0.939894 -0.152133 -0.375187 -0.272432 0.259364 0.116281 -0.655563 0.380801 0.687398 -0.669490 0.244881 0.909533 -0.697061 0.333191 -0.283354 0.711917 -0.585837 0.628196 0.845135 -0.265921 0.030640 -0.909772 -0.976217 0.784775 -0.126127 0.894324 0.070462 0.106097 0.045271 -0.260245 0.067064 0.708734 0.762521 0.926898 0.210653 0.494275 0.566322 -0.499578 0.706968 0.891661 0.082515 0.857157 0.038398 -0.519710 -0.228180 -0.377934 -0.025111 0.740512 -0.419174 0.478654 0.991973 0.027320 0.907376 -0.603622 -0.166196 -0.251077 0.923779 0.805369 0.206196 -0.137962 0.260533 -0.040304 -0.178594 -0.552005 0.446115 0.192575 0.217378 -0.230969 -0.530064 -0.224864 0.941861 -0.032816 -0.176131 0.124683 0.687734 -0.565739 -0.008737 -0.405192 0.458196 0.612562 -0.037817 -0.320348 0.033795 -0.852633 -0.287106 0.424085 -0.622496 0.031794 -0.782112 -0.671400 -0.498586 -0.048409 -0.053785 -0.662073 -0.977622 -0.330914 0.321804 -0.687597 0.359232 -0.787546 0.822672 0.506725 0.857502 0.956528 0.291175 -0.348172 -0.602278 0.945735 -0.044889 0.144247 0.409741 0.448559 -0.920177 -0.545188 -0.938552 -0.785949 0.651057 -0.963986 0.146148 0.913041 0.589467 -0.846549 0.934032 0.425546 0.305042 -0.335923 0.907050 -0.672707 0.264317 0.665862 -0.281902 -0.245938 0.820582 -0.400219 0.603111 0.513777 0.257316 -0.440719 0.756245 -0.514012 -0.013446 -0.757792 -0.618248 -0.269178 0.071044 -0.240950 -0.576460 0.746239 0.804622 0.634639 0.291875 -0.188711 -0.509826 0.364630 0.413848 -0.862641 -0.041368 0.130313 0.562707 0.897400 -0.522744 0.916975 -0.249803 -0.492424 -0.524621 -0.093454 -0.768175 -0.135907 -0.888033 0.122113 0.335125 -0.766058 -0.953009 0.061174 -0.245715 -0.433071 -0.216199 -0.212855 0.057686 -0.773574 -0.688199 -0.702631 -0.268002 -0.192600 -0.780540 -0.370395 -0.365810 -0.992831 -0.193283 -0.153170 0.664155 -0.797431 -0.844691 -0.582313 0.678459 0.102878 0.697419 0.708074 -0.771407 -0.253783 -0.457254 -0.020121 -0.380466 0.788714 0.053634 0.962277 0.610416 0.693444 0.586129 0.822660 0.160987 0.381478 0.338224 0.841581 -0.232531 -0.612631 -0.845768 0.513047 0.128131 0.930051 0.282301 -0.123067 0.145641 0.245697 -0.013233 0.997020 0.869120 0.018046 0.429437 -0.460969 0.103148 0.273797 0.079476 0.145684 0.643541 0.817796 0.160309 -0.036461 0.502512 -0.562246 -0.338443 -0.364194 0.265777 -0.967723 0.995257 0.101603 -0.655467 -0.669787 -0.542958 -0.687008 0.750118 0.036753 -0.355285 -0.504144 0.042117 0.306376 0.782585 0.535509 -0.262145 -0.299987 -0.144942 -0.967406 -0.558363 0.022924 0.576621 -0.629954 0.091656 0.596390 -0.347798 -0.646663 0.087912 0.435100 -0.495704 0.410776 -0.409525 -0.376526 0.300326 -0.169869 0.647123 -0.320623 -0.949323 0.162810 0.321105 0.282910 -0.990725 0.198016 -0.132715 -0.911347 0.390574 0.053353 -0.293163 0.276894 0.651393 0.792560 0.290291 0.877509 0.642824 -0.692041 -0.776199 0.062480 0.539674 0.540744 -0.672788 0.682049 0.255859 0.708031 0.710450 0.922613 -0.691635 -0.906092 0.040744 0.389369 -0.947600 -0.172333 -0.872311 0.656435 0.041373 0.868657 -0.752714 0.353576 -0.495784 -0.097820 0.481568 -0.239698 0.321086 0.183275 -0.420163 0.228699 0.048868 -0.853651 0.773275 0.721316 0.650506 -0.686555 0.968339 0.392606 0.121295 -0.634160 0.876170 0.443342 -0.580732 -0.773295 -0.283062 -0.457704 0.816304 -0.004107 0.940017 0.962340 -0.360297 -0.930173 -0.993107 -0.227791 -0.365739 -0.320301 -0.534018 -0.072977 0.466445 -0.278850 0.806444 0.201931 -0.779974 -0.659360 -0.886381 -0.632145 -0.109901 -0.641057 0.584599 -0.743142 -0.162035 0.344483 0.590354 0.845103 0.267403 0.578059 -0.383576 -0.805019 0.760165 0.817144 0.182715 0.733156 0.313715 0.764527 -0.520977 0.858631 0.145462 -0.760625 0.242457 -0.316766 0.778266 0.851094 0.855990 -0.564285 0.365940 0.445619 -0.388922 -0.206484 -0.475439 -0.101113 0.080554 -0.830160 -0.887248 -0.020528 0.058249 -0.539723 -0.286889 0.317600 -0.924722 0.281977 0.945972 -0.337542 -0.235606 0.966378 -0.944088 0.340135 0.252622 -0.907253 0.255459 0.310857 -0.488003 0.307695 -0.288845 0.890000 -0.448543 0.803986 0.166786 0.393274 0.997467 0.938933 -0.840666 -0.459718 -0.968447 0.605502 0.864603 0.078520 0.370216 -0.622791 0.896207 0.978510 -0.517882 0.867357 0.983681 -0.844230 0.045678 0.985162 0.626898 0.066532 -0.127417 -0.778171 0.844218 0.040928 -0.598942 -0.465818 -0.490033 0.874881 -0.519632 -0.538231 0.922906 -0.435179 -0.548214 0.757581 -0.195278 -0.593613 -0.187122 -0.774126 0.339911 0.494157 -0.751834 -0.637046 0.918811 -0.412866 -0.269509 -0.746113 0.257574 -0.764106 -0.950246 -0.139118 -0.817572 0.208327 0.080856 0.442217 0.935816 0.918990 -0.960765 0.157536 0.939569 0.100182 -0.089384 -0.344155 0.352775 0.816957 -0.285717 0.979444 -0.412945 -0.522015 -0.184811 -0.601748 0.696026 -0.198795 0.146134 0.945721 -0.636824 0.448127 0.436189 -0.125982 -0.692233 -0.545212 -0.346672 0.931201 0.902168 -0.959307 0.382125 0.155811 -0.266383 0.080615 0.923809 0.290815 -0.298648 0.226211 0.630622 -0.842203 0.256932 0.290945 -0.501187 -0.706378 0.703268 0.330151 -0.850168 -0.321475 0.705896 -0.296392 -0.567738 -0.251581 -0.529179 0.027678 0.105494 0.672280 -0.442023 -0.138133 0.944815 0.010253 0.491328 -0.892268 -0.776686 0.614451 0.582353 -0.110838 0.913462 0.864228 -0.129135 -0.811559 0.802890 -0.375634 -0.585920 -0.412370 0.356662 0.516775 -0.221377 -0.581736 -0.141119 -0.273061 0.864323 -0.347072 -0.514577 0.282605 -0.379551 -0.464526 0.357928 0.447969 -0.994914 -0.184653 -0.452464 -0.035020 -0.920125 -0.046393 0.470780 0.170280 -0.893506 -0.821218 0.414582 0.677099 -0.895556 -0.162979 -0.717855 -0.055785 -0.335401 0.637537 0.612105 0.158323 0.484374 0.785403 0.672739 0.052979 0.037297 0.430034 -0.133045 0.055961 -0.087234 0.717462 0.683556 -0.163335 -0.164943 -0.995063 -0.959465 -0.651034 0.575596 -0.899145 0.887927 0.067283 -0.732892 -0.865903 -0.184022 0.925369 -0.443526 0.399929 0.264923 0.784123 -0.859452 0.117699 0.350438 0.942196 0.375021 -0.892650 0.994693 0.776084 -0.265495 -0.151173 -0.612573 -0.563329 0.076118 0.129932 0.146871 0.087270 0.335772 -0.236780 0.953869 -0.500495 0.622391 -0.338990 -0.570803 0.942428 -0.495541 0.950825 -0.041063 -0.946714 -0.153385 0.482954 -0.648277 -0.316082 0.687579 0.331295 0.035430 0.214207 0.551700 0.913063 0.812180 -0.675460 0.948255 0.701888 0.333581 0.387261 0.993218 -0.628787 -0.879439 0.275026 0.894328 0.765960 -0.491802 0.905297 -0.962238 0.627389 -0.638072 -0.798370 -0.634960 0.209412 0.715053 -0.654448 0.661243 -0.332732
0.037380 0.721718 -0.540919 0.629323 0.425501 -0.254564 0.841560 0.472084 -0.351480 -0.902036 0.047251 0.694683 0.786253 0.138848 0.314453 0.309715 -0.655108 0.803970 0.749486 0.466812 0.444222 -0.445916 -0.184678 -0.598303 0.569088 0.826732 0.589931 -0.635801 -0.626364 0.257091 -0.972738 -0.813492 0.240776 -0.144369 -0.634749 0.273488 -0.420959 0.725482 0.213260 -0.077346 0.146831 0.616081 0.914538 -0.480736 -0.197310 0.770281 -0.462664 0.345526 -0.244812 -0.735420 -0.844543 0.407605 0.004411 0.675302 0.305846 -0.913672 -0.685664 0.847123 0.270531 0.162575 -0.581186 -0.946606 0.873697 -0.082064 0.817284 -0.993245 0.175183 0.483108 -0.177821 -0.039011 0.458493 -0.783126 0.460769 -0.080769 0.758309 0.348425 -0.884813 -0.687751 0.242533 0.145486 -0.638378 -0.769694 0.729060 -0.438032 0.917639 0.620338 -0.927800 -0.199028 -0.993778 -0.640601 -0.075767 -0.744562 -0.959424 -0.909666 0.803400 0.560344 0.958352 0.483509 -0.168844 0.478675 -0.243574 0.007515 -0.911203 -0.381429 0.956287 -0.571638 -0.968881 0.200056 -0.496572 0.480231 -0.510000 -0.147992 -0.082041 0.685242 0.813180 0.273990 -0.720328 0.097450 0.592517 -0.798046 -0.912020 -0.666850 0.053166 -0.083124 -0.819285 -0.600110 0.642407 -0.543734 0.186450 -0.826746 0.854817 0.402929 -0.174966 0.663232 0.023885 0.930127 0.261933 -0.732367 -0.217132 0.892209 0.997613 -0.699119 -0.419085 -0.809585 0.293189 0.093050 0.777847 0.398007 0.559275 -0.064751 -0.297541 -0.398054 0.084027 0.459199 -0.007950 -0.980012 0.183209 0.634006 0.501642 -0.617302 -0.291021 0.005372 0.100684 0.214842 -0.133960 0.753955 -0.260401 0.743080 -0.487815 0.996366 -0.688744 0.073275 0.128614 -0.571282 -0.602640 0.139570 -0.418757 0.902778 0.853047 -0.595475 -0.083758 0.194062 0.266002 -0.281338 0.666138 -0.051671 -0.117432 -0.763257 0.191562 0.097429 -0.775549 -0.298515 0.795355 0.153109 0.584167 -0.203065 0.984232 -0.880466 -0.737274 -0.982137 0.928136 0.904563 0.374377 0.170809 0.350942 -0.061723 0.355077 0.476613 -0.492388 0.961088 -0.158476 0.327237 -0.392202 -0.443430 0.036948 0.386741 -0.123148 -0.562536 -0.018183 0.977185 0.804669 0.743359 0.756880 -0.003562 -0.912432 -0.729476 0.057741 0.808461 -0.403694 -0.317480 -0.217766 0.205028 -0.514433 0.358717 -0.839040 -0.698102 0.847290 -0.309981 0.551854 -0.536672 0.912014 -0.817022 -0.844955 0.592092 -0.045081 -0.956321 -0.398932 -0.477939 0.642602 0.403960 -0.167024 0.713604 -0.112634 -0.889018 0.719403 -0.961715 -0.206273 0.434180 -0.172941 0.796222 0.499463 0.128648 0.587379 -0.646954 -0.813710 0.814713 0.301163 0.905068 -0.210027 -0.763263 0.382811 -0.879874 -0.265240 -0.118030 0.050189 0.451565 0.026983 0.526506 0.438912 0.198089 0.886196 -0.826913 -0.500444 -0.389597 0.884882 0.237760 0.190200 -0.628721 -0.937486 -0.540825 0.365983 -0.019144 0.088740 0.363094 0.988957 -0.314413 -0.522558 -0.041800 0.937537 0.841025 -0.678337 0.692897 -0.133882 -0.108510 0.218142 -0.509551 0.084849 0.752465 0.018461 0.128827 0.569360 0.285789 0.350480 -0.861342 0.783734 -0.276809 0.502357 -0.147038 -0.758551 0.598062 -0.825118 0.933045 0.650589 0.949219 0.512538 0.040308 0.359082 0.680147 -0.004061 -0.205707 0.223033 -0.710067 -0.062848 -0.865945 -0.281763 -0.519909 -0.636662 0.765324 -0.373571 -0.547559 0.877058 -0.774839 0.711638 0.857416 0.112149 -0.595274 -0.680496 -0.231846 0.950801 0.005979 0.182900 0.017805 -0.454278 0.310678 0.031847 0.241209 -0.534829 0.183439 -0.309715 -0.742506 -0.395653 0.494311 -0.769459 -0.720370 -0.332308 -0.573652 0.598499 -0.230119 0.536916 0.237009 -0.016314 -0.837257 0.963469 -0.513373 0.962032 -0.951415 -0.603571 0.931801 0.399013 -0.520828 -0.431696 0.490476 -0.478963 0.261891 -0.531789 0.957711 -0.765610 -0.005236 0.823935 -0.482495 0.395962 0.365345 0.875096 -0.211742 -0.454854 -0.495262 -0.330200 0.604933 0.256883 -0.202853 -0.597820 0.304944 -0.885663 0.094262 -0.340041 0.201561 0.256678 0.790566 0.796259 0.264629 0.286691 0.752002 0.615194 0.135243 0.543784 -0.083319 -0.415559 0.430317 -0.215195 -0.731405 0.518664 0.392162 -0.108272 -0.886011 0.843283 0.344997 -0.573506 -0.008271 -0.993095 0.743735 0.394125 -0.852415 0.383092 0.965067 -0.716513 -0.811353 0.866790 0.376267 0.688295 0.720417 0.820110 0.960400 0.516185 0.148106 0.126463 -0.260848 -0.280769 0.844617 0.035525 0.041925 -0.017767 -0.054873 0.874429 -0.355913 0.913832 -0.796706 0.814891 -0.771775 -0.967628 0.113225 0.590644 -0.411943 -0.716313 -0.309875 0.960809 0.262657 -0.486208 0.664255 0.843900 -0.273096 -0.297070 0.326134 0.583261 -0.400088 -0.522367 0.540614 -0.734776 -0.562909 -0.066925 -0.016250 0.563122 -0.101153 -0.654954 -0.037418 -0.696648 -0.695397 -0.197169 -0.605609 0.107430 -0.570793 -0.200331 -0.242926 -0.654468 -0.119270 0.189880 -0.287381 0.370271 0.795170 0.124075 0.196995 0.402442 0.856451 -0.942019 0.072235 -0.987834 -0.586817 0.480466 0.879513 -0.871105 -0.225258 0.546565 0.992438 -0.119803 0.484104 -0.250432 -0.340995 -0.670088 -0.364030 -0.350234 -0.258450 0.848556 0.814110 -0.089409 -0.468084 0.453282 -0.628479 0.044234 -0.393677 -0.990428 0.390030 -0.535051 -0.644183 -0.400246 0.687611 -0.090584 -0.183340 -0.749489 -0.509659 -0.285582 0.762331 0.991428 -0.882866 -0.738840 0.899515 -0.119982 0.637007 0.905799 0.473500 0.204451 0.642846 -0.930562 0.690975 0.257064 -0.434153 -0.524811 0.650901 -0.914948 0.967167 -0.247827 0.811621 0.204423 0.824413 -0.671129 0.334820 0.152591 -0.650018 -0.906130 -0.042494 0.670785 -0.783535 -0.626757 0.971076 0.165920 -0.900157 0.905168 -0.895772 0.480462 0.994482 -0.316765 0.927195 -0.356893 0.691589 -0.378237 0.020597 -0.284245 0.897922 -0.767640 -0.706493 0.346705 -0.451916 0.452509 -0.777558 0.790917 0.438461 -0.885597 -0.812439 -0.796207 0.071505 0.578802 -0.616525 -0.336481 0.608303 0.484519 -0.196266 0.529911 0.675177 -0.331438 -0.802968 -0.629042 -0.466748 -0.359698 -0.702263 -0.912643 0.636462 0.520806 0.302719 -0.841075 -0.473923 0.526868 0.647461 -0.511485 -0.919137 0.733593 -0.526126 -0.239271 0.181612 -0.886206 0.193991 0.532399 -0.895925 0.195535 0.498284 -0.958998 -0.154804 -0.488511 -0.311148 -0.148313 0.172879 0.813781 0.406186 0.633438 0.753698 0.404516 0.316913 -0.290587 -0.397677 -0.660961 0.713585 0.550949 -0.852423 -0.034777 0.816869 0.442131 -0.633770 -0.253139 0.553764 -0.760481 -0.643725 -0.401346 0.428176 0.434484 0.774419 -0.805909 0.072851 -0.776373 0.453199 0.393049 -0.493234 0.046909 0.655078 0.485106 -0.196503 0.791803 -0.467801 -0.137632 -0.345282 0.332459 0.998422 0.806744 -0.542359 0.862052 0.919337 0.153982 0.542301 0.912543 -0.573551 -0.387416 0.581234 0.436061 -0.901611 -0.135473 0.738459 0.659519 0.857617 0.668095 0.777358 0.706842 -0.624044 0.061302 -0.168526 0.266042 -0.106625 -0.293604 -0.059832 0.646113 0.125288 0.815677 -0.665790 0.531635 -0.474104 -0.226053 -0.643553 0.735854 0.689744 -0.708971 -0.138226 0.695513 -0.695971 -0.031638 -0.071567 -0.095656 0.810903 0.686392 -0.663418 0.039530 0.361696 0.847619 0.790531 -0.188028 -0.414197 0.115741 -0.332019 0.511652 0.301482 -0.615794 -0.385879 0.052833 0.617753 -0.870827 -0.887342 -0.894548 -0.310725 -0.549708 -0.545909 -0.123100 0.405715 -0.111088 -0.849526 -0.797744 -0.229338 -0.030657 0.184152 0.443524 -0.762591 -0.720935 -0.157347 0.501092 -0.016547 0.704776 -0.951930 -0.819261 -0.718059 0.933696 0.121933 -0.297310 0.561560 -0.018514 0.454897 0.046198 0.483811 0.028250 -0.120903 -0.342162 -0.826367 0.914295 -0.562155 -0.463243 0.999845 0.343325 0.763082 -0.780886 -0.963536 -0.478324 0.556562 -0.433301
-0.002389 0.817103 0.538141 0.785283 -0.658275 0.217307 -0.326044 -0.353195 -0.997760 -0.867322 -0.261384 0.413977 -0.645993 0.775160 0.702532 0.001184 0.597257 -0.248249 0.389261 0.836082 -0.537574 -0.388714 0.061152 0.541080 -0.318748 -0.479425 -0.080017 0.986831 0.153732 0.190805 -0.163440 -0.412568 -0.664716 -0.130515 -0.646907 0.757157 0.896595 -0.246485 -0.656847 0.104162 0.480889 -0.437014 0.161932 -0.947521 -0.271856 -0.074678 0.217285 -0.886269 -0.394640 0.650019 0.659429 -0.681000 0.890311 0.444906 0.112049 0.636138 -0.916544 -0.329643 0.507241 0.843172 0.042326 -0.986382 0.443544 0.845931 0.678681 -0.448966 -0.978861 -0.149258 0.353942 -0.071865 0.671719 0.958136 0.736353 -0.343673 0.021684 -0.271346 -0.209146 0.554081 0.091379 -0.371072 0.808373 -0.190456 0.617725 0.162107 0.991024 -0.116017 0.008425 -0.650327 0.046241 0.203880 0.363582 -0.150827 -0.435288 -0.723864 0.898991 -0.355971 -0.952280 -0.735725 -0.717344 -0.495101 -0.090320 0.910005 -0.004498 -0.857798 -0.520268 -0.081466 0.591975 -0.435401 -0.194481 -0.698252 -0.458816 0.439356 -0.738183 -0.016103 0.698328 0.499131 0.640998 -0.134928 0.970503 -0.245504 0.726799 -0.171104 0.815477 0.762191 -0.465885 0.581105 0.952842 0.776664 -0.392667 0.682736 -0.431350 -0.030869 -0.856985 -0.737521 0.708060 0.479360 -0.149345 0.632663 -0.106731 0.033954 -0.941182 0.474529 0.591634 0.653755 -0.482676 0.766416 -0.009651 0.339751 0.456456 -0.673276 -0.955398 0.287875 -0.498790 0.399377 0.838645 0.561010 -0.203709 -0.538887 -0.035841 -0.593814 -0.964723 -0.456981 0.973315 -0.554903 0.580948 0.795042 -0.759353 0.028450 -0.358202 -0.877354 0.345020 0.666093 0.253029 -0.895406 -0.935895 -0.247876 -0.502952 0.126689 0.624279 -0.321977 -0.150507 -0.092698 -0.371846 -0.605684 0.164180 0.898062 -0.891739 -0.973322 0.469480 -0.424928 -0.224798 0.837370 -0.020895 -0.210424 -0.213785 -0.667824 -0.219913 -0.766260 0.015125 0.078968 0.081720 0.687872 0.241879 0.731124 -0.656598 -0.359714 -0.601128 0.142949 0.682873 -0.747936 0.303586 0.183789 0.987835 -0.997918 0.819195 -0.127035 0.937521 -0.500283 0.999393 -0.704569 0.600292 -0.703469 0.634171 -0.058479 0.717610 0.315365 -0.025537 0.347420 -0.688796 0.525335 -0.871405 -0.660878 0.605961 -0.744914 0.249020 0.627388 0.981058 -0.328680 0.006870 0.051595 0.165019 -0.627789 0.678021 0.821047 -0.345651 -0.096551 -0.657572 -0.044830 0.447327 -0.892828 0.156554 -0.925499 -0.378356 -0.955445 -0.550058 0.665888 0.581035 -0.474626 -0.318975 0.279760 0.243679 -0.637988 -0.901035 -0.145114 -0.233043 -0.518879 0.472632 0.679296 0.108183 -0.803557 -0.925867 -0.904950 -0.717438 -0.272303 0.497616 -0.145354 0.858506 -0.035350 -0.009303 0.386021 0.238026 0.353060 0.089478 0.663694 -0.888058 0.981464 0.327534 -0.244088 -0.578918 0.721358 0.426764 0.492525 0.334266 0.261548 0.163199 0.611807 -0.529436 0.970946 -0.837203 0.473994 -0.591273 0.435662 -0.012957 -0.779739 -0.941271 -0.074763 -0.981802 0.142342 0.186294 -0.807418 0.573698 0.753410 0.599697 -0.088345 0.289179 -0.220127 0.857637 -0.475295 -0.462429 -0.904773 -0.184589 0.705973 -0.479651 -0.431140 -0.648725 0.099120 -0.416250 -0.387835 0.195126 -0.915201 -0.822938 0.860202 0.010730 0.886523 -0.795271 -0.870960 -0.874168 -0.726165 -0.829193 0.202264 0.920061 0.835404 -0.423416 0.884574 0.288617 -0.526009 0.081355 -0.237178 0.645631 0.329097 0.502768 -0.832875 -0.044879 -0.882102 -0.529168 0.282287 -0.461528 -0.702626 0.234277 -0.804676 0.190958 -0.519075 -0.668622 0.694923 -0.823610 0.815549 0.361740 -0.071585 0.768197 0.280072 0.390979 -0.385304 -0.675881 -0.789398 0.803660 0.382246 -0.248984 0.556976 0.550957 -0.190265 0.968739 0.740554 0.106757 -0.445998 -0.658370 -0.650759 0.295557 0.748861 -0.758959 -0.933715 0.339174 0.733004 0.891139 -0.080517 -0.727142 0.942706 0.823597 0.137151 -0.453877 -0.454310 -0.801115 -0.688910 -0.775458 0.425552 0.414916 0.628205 -0.733066 -0.293185 0.119449 0.807255 -0.087966 0.606094 -0.890001 0.847613 0.610763 -0.120153 0.184732 -0.402815 -0.732571 -0.971596 0.506427 -0.031347 0.074327 0.074977 0.462957 0.026893 -0.935177 -0.127128 -0.441041 0.941195 -0.252870 -0.811377 -0.557476 -0.886864 0.696903 -0.673140 -0.993116 0.259768 0.742064 0.111180 0.842261 0.399241 -0.923299 0.254506 0.035386 0.091823 0.620755 0.400419 0.880737 -0.026202 0.091286 -0.934983 0.144649 0.778996 -0.994837 -0.876869 -0.003715 0.144109 -0.369730 0.762790 0.002056 0.654999 0.161895 -0.996706 -0.994089 0.152417 0.476907 -0.069757 0.250767 -0.047702 -0.734258 -0.536789 0.954959 0.996781 0.597647 -0.932541 0.961014 -0.188480 -0.202303 -0.912605 -0.447048 0.011541 -0.502817 -0.575790 0.783391 -0.840502 -0.802967 0.424938 0.608544 -0.977376 -0.079655 0.620330 -0.784536 -0.805988 0.225587 -0.695472 0.493630 -0.953151 0.754936 -0.156215 -0.991353 0.359358 0.192440 0.008228 0.861627 0.166569 -0.160291 0.331659 0.491309 -0.505505 -0.805796 0.977134 0.780368 0.517400 0.626704 0.256361 0.535659 -0.041741 -0.128982 -0.909564 -0.805436 -0.615101 -0.938393 -0.865608 0.461248 0.509480 0.552046 0.336031 -0.692679 0.393797 -0.973248 -0.788957 -0.491037 -0.935766 -0.541930 -0.421171 -0.210122 -0.953050 -0.246315 0.677047 0.066884 0.504816 0.037772 -0.759715 0.782897 -0.451608 -0.464560 0.663403 -0.081145 0.860862 -0.076051 0.216738 0.365163 0.509745 0.570006 -0.876699 -0.119532 -0.090880 0.724034 0.097244 0.129803 -0.956311 -0.640979 -0.486921 -0.437837 0.496006 -0.926045 -0.238271 0.097740 0.252761 -0.063854 -0.081720 0.366134 0.037099 -0.409282 -0.710591 0.791136 0.062982 -0.275817 -0.687280 0.357863 -0.738022 -0.140576 0.368287 0.697174 -0.499945 0.944753 0.965035 -0.956582 -0.874245 0.260343 -0.518078 -0.285491 0.445074 -0.908907 -0.537151 0.888501 0.583918 -0.823560 -0.759407 -0.477820 0.407011 0.509819 -0.030531 0.903143 -0.002574 0.270894 0.290887 0.275171 0.847564 0.020010 -0.408593 -0.334434 -0.221613 -0.652379 -0.102851 -0.677434 0.461591 0.591787 0.222904 0.324695 0.432774 -0.756810 -0.702617 -0.458199 -0.994723 -0.321198 -0.016147 0.726596 -0.075049 -0.948518 -0.298369 0.891020 0.117057 -0.621134 -0.868792 0.969489 -0.764612 0.247941 -0.486851 0.218255 -0.655408 0.852525 -0.436462 -0.604440 -0.524921 -0.080753 -0.497234 -0.144590 0.232996 -0.914623 -0.519514 -0.684226 0.410443 0.593325 0.446707 0.206508 0.296297 -0.804988 0.604038 0.505455 0.406870 -0.305967 0.208178 0.086750 -0.568264 0.864826 -0.816661 -0.051063 0.520761 0.578546 0.493974 -0.202293 -0.957756 0.042879 -0.911338 -0.307709 -0.826261 -0.699196 0.401786 0.191655 0.390094 0.259147 0.496517 0.132443 -0.058559 0.481523 0.154367 0.555537 0.495369 -0.395503 0.024952 -0.651107 0.390470 0.055161 -0.098764 0.055633 -0.801188 0.036115 -0.851966 0.636223 -0.188452 -0.749337 0.214797 -0.042405 0.531248 0.663769 0.497222 -0.091625 0.553285 0.806396 -0.404388 -0.613949 -0.815552 -0.391220 -0.444445 -0.421645 0.660004 -0.309411 -0.244869 0.086034 -0.825022 0.166811 0.030459 -0.567368 -0.905192 -0.065479 -0.601289 -0.821697 -0.039558 0.028593 -0.178867 0.957606 0.110865 0.716077 0.703078 0.581731 -0.685567 -0.727905 -0.844440 -0.077899 -0.431079 0.048185 -0.936115 -0.823053 -0.816666 0.463870 0.386496 0.327661 -0.845772 0.426164 0.767303 -0.527037 0.310708 -0.294121 -0.038975 0.087999 0.627283 -0.481163 0.619334 0.078724 -0.762134 0.698077 0.294749 -0.931381 -0.075513 -0.378036 0.168885 0.448782 -0.225572 -0.314024 -0.278387 -0.535157 -0.363213 0.676382 0.476999 0.415630 0.000647 -0.408302 0.535906 0.774617 0.972817 0.115230 0.038634 0.434525
0.892865 -0.098819 -0.619313 0.027584 -0.797041 -0.212682 -0.005525 -0.113141 0.306170 -0.624818 -0.770874 0.693703 -0.111342 -0.995513 -0.080122 0.737408 -0.716341 0.345588 0.490707 0.193010 0.773589 0.378994 0.440545 -0.034829 0.049763 -0.661827 0.606848 0.427089 0.608997 -0.715690 -0.495346 0.508897 -0.289079 0.855153 -0.812091 0.651424 0.681372 -0.011890 0.308421 -0.440304 0.446415 0.782088 -0.391754 0.916001 0.149119 -0.948048 -0.142164 -0.682759 -0.246119 -0.167856 -0.228386 0.775494 -0.583012 -0.201457 -0.105310 0.479789 0.235380 0.636056 0.835274 -0.646229 -0.511851 0.843737 -0.590980 0.400386 -0.672956 -0.973565 -0.282623 0.836497 -0.685607 0.136882 0.937860 0.013415 0.990621 -0.452290 -0.415753 0.278529 -0.322420 -0.366025 0.025435 0.706847 0.340816 0.132413 0.844090 0.458027 0.453238 0.475440 0.158122 0.010610 0.349303 -0.281215 0.142086 0.142057 -0.847235 -0.880382 -0.385527 0.080762 -0.161605 -0.996807 -0.100782 0.011658 0.179831 0.220085 0.442892 0.600343 -0.482505 0.601055 0.068856 0.535351 -0.582751 -0.537785 0.500559 -0.890641 -0.457610 0.373413 0.907618 0.899003 0.809894 -0.897017 0.518739 -0.860975 0.854285 0.054054 -0.642401 0.095877 -0.816811 0.424940 -0.944326 0.789582 0.918964 0.810166 0.922982 0.356021 0.834158 -0.521135 -0.173962 -0.172967 -0.931655 -0.976181 -0.845440 -0.415541 0.616744 -0.427324 0.867801 -0.922545 0.526857 -0.642674 0.608036 -0.576363 -0.854912 -0.779720 -0.502430 0.137958 -0.039376 -0.056435 0.198653 0.705477 0.789627 0.035662 0.313154 0.817512 0.775984 0.559807 0.822854 -0.397574 -0.064624 0.295367 -0.614051 -0.261688 -0.342937 -0.240321 -0.837149 -0.655346 0.663507 0.726260 -0.788470 -0.440845 -0.903156 -0.431832 0.917605 -0.358447 0.595150 0.160801 0.183106 -0.231536 0.951822 -0.368892 0.103144 0.927982 0.246137 0.574524 -0.162861 0.497257 -0.697689 0.682742 0.432291 0.977586 -0.399870 -0.447700 -0.211079 0.081433 -0.169506 -0.792703 -0.975154 0.801308 -0.509592 0.526665 0.101221 0.053152 0.972811 0.102016 0.018512 -0.633003 0.544463 0.454434 -0.082475 -0.401532 -0.531121 -0.956699 -0.240828 0.323468 0.211899 -0.936164 -0.938814 0.281477 -0.116355 0.373277 -0.275187 -0.448952 -0.671314 -0.764310 -0.268232 -0.603945 0.011379 0.305145 0.632418 0.505783 0.052018 0.480147 -0.093100 -0.276592 0.720965 0.460485 -0.125384 0.860184 -0.971813 -0.018093 0.743754 -0.031912 -0.568363 -0.043648 -0.147396 0.022692 -0.822535 -0.511013 0.196804 0.138791 0.016164 -0.973090 0.458859 -0.268234 -0.387804 -0.924758 -0.725850 -0.346821 0.894999 0.553888 0.934019 0.159290 0.210305 0.188415 0.854218 -0.665781 0.951988 -0.010064 -0.965433 0.559777 0.952597 0.632073 -0.027869 0.946083 -0.387493 -0.838010 0.481455 0.512276 0.883865 0.328686 0.229334 -0.043880 0.871865 -0.320455 0.167967 -0.060095 0.015704 -0.174190 -0.255504 0.523809 -0.213797 -0.599450 -0.263186 -0.870405 -0.765481 -0.831271 0.452687 -0.659725 0.609701 -0.658788 -0.326400 0.281203 -0.238123 -0.292311 -0.306096 0.833528 0.038208 0.359531 -0.427064 0.659709 0.065254 0.798989 -0.642971 -0.996894 -0.261793 -0.747574 -0.905119 0.267005 0.403724 -0.438171 -0.548733 0.040136 0.205628 0.862017 -0.906663 -0.245495 -0.037693 0.280072 -0.595031 0.660243 0.914101 0.158577 0.419029 -0.883381 0.781889 -0.316055 -0.286567 -0.235085 -0.629938 0.986732 0.450377 -0.785860 -0.040517 -0.217377 -0.869763 -0.360629 -0.271617 0.611767 -0.434372 -0.538852 -0.329885 -0.098437 -0.240846 -0.979233 -0.034980 -0.655490 0.133684 -0.105990 0.543104 0.140265 0.099150 0.374241 0.007436 0.467495 0.363602 -0.056594 -0.695393 0.060000 0.343305 0.039937 0.333350 -0.762086 0.399687 0.076993 0.062987 0.197313 0.540455 0.455406 -0.478961 -0.429158 -0.488127 0.543214 -0.002721 -0.007869 -0.836373 -0.957086 -0.515904 -0.887715 -0.858008 -0.402475 -0.334077 -0.213325 0.409500 -0.315069 0.646111 0.356299 -0.010281 -0.336465 0.170281 -0.806697 -0.730918 0.585639 0.896951 0.653626 -0.670120 -0.056106 -0.272673 0.137462 0.536699 0.486461 -0.110532 -0.957949 -0.294261 0.284453 -0.996244 -0.043354 0.455515 -0.386911 -0.386728 0.215518 0.720705 -0.893180 0.267766 -0.369581 0.125616 -0.351304 -0.924811 -0.080548 0.017369 -0.004509 0.926383 0.702179 -0.111126 -0.226542 -0.703514 -0.777578 -0.666617 -0.055669 0.239630 0.343041 -0.086749 -0.909124 -0.297411 -0.670535 -0.412116 0.762144 0.746861 0.548283 0.302388 -0.538667 0.614366 0.355908 -0.870786 0.936552 -0.900531 -0.518706 0.194647 0.702118 -0.339579 -0.660602 0.369090 0.370733 0.262193 0.971643 -0.628891 0.449623 -0.164221 0.075793 -0.152694 0.092881 0.140525 0.411979 -0.054892 -0.793067 -0.028181 0.923053 0.493549 -0.455665 -0.029529 -0.706675 0.813452 -0.194974 0.615633 0.004326 -0.451011 -0.261430 0.290444 -0.280880 -0.721640 0.876115 0.416274 0.629974 -0.073676 0.610478 0.135141 0.457922 0.556722 -0.623944 0.574407 -0.903900 0.648958 -0.546502 -0.006701 -0.248044 -0.952777 0.809913 0.487992 -0.042101 0.493342 0.473483 0.271577 0.200738 0.048712 -0.403044 -0.654135 -0.866102 0.918062 0.046675 -0.925465 0.878717 0.980950 0.868793 0.991503 -0.365053 0.008893 0.558642 0.841876 0.460847 0.819635 -0.873603 -0.175245 -0.742877 -0.180099 -0.503728 -0.847291 0.181694 0.117990 -0.612833 -0.399592 0.051384 0.826464 0.100180 0.918540 0.795827 0.203429 0.573928 0.781321 0.990347 0.567033 -0.414168 -0.801098 0.780917 0.457258 -0.511452 0.793587 -0.163909 0.524249 -0.757132 -0.405856 -0.205466 0.187152 0.443993 -0.673267 0.478784 0.627744 0.733977 -0.772123 0.321332 0.638513 0.083394 -0.045537 -0.326008 0.023822 -0.424906 -0.677651 0.751743 -0.979492 0.622848 0.891314 -0.358634 -0.002742 0.321574 0.604781 0.207691 0.649196 -0.385648 -0.041745 0.355587 0.902228 -0.357636 0.032548 0.866608 0.890346 0.968206 0.447210 0.732808 0.045807 0.036569 0.984212 0.105963 0.298747 0.955787 -0.526165 0.912171 0.061873 0.540691 -0.837520 -0.749237 -0.312332 0.710203 -0.291412 -0.594128 -0.510816 0.818550 0.994942 0.543451 0.798726 -0.375998 0.935753 -0.215143 -0.863137 0.604498 -0.428676 0.700860 0.135725 0.894171 -0.966070 -0.756703 0.847175 -0.571531 -0.240770 -0.929437 0.912185 0.607501 0.525829 -0.546977 -0.276336 0.784233 -0.436452 -0.950337 -0.585435 -0.947732 -0.348138 0.004619 -0.841894 -0.631077 0.527210 0.096919 -0.417680 -0.835533 -0.722454 -0.558171 0.314993 0.299956 0.042335 0.677108 0.190869 -0.240995 -0.726530 -0.470642 0.429639 -0.584017 0.982017 -0.848613 0.539564 -0.604987 0.613853 -0.131641 0.822043 -0.778614 -0.809752 -0.559364 -0.421444 -0.450092 0.705047 -0.416044 -0.579752 0.126356 0.191112 0.411729 -0.059374 -0.691685 -0.636106 0.804306 0.640263 0.387568 0.992953 0.218122 0.881311 -0.436180 -0.945054 0.744554 0.438373 -0.800219 0.905586 -0.807714 -0.687666 -0.149651 -0.031114 -0.759765 -0.135262 -0.301936 -0.886384 0.732433 0.128212 -0.371228 -0.947939 0.830599 0.315195 0.957288 -0.528616 0.489966 0.676605 0.719991 0.781965 -0.173477 0.821153 0.112192 -0.507900 0.858239 -0.086326 -0.607408 -0.944013 0.660215 0.719717 -0.534482 0.435798 0.170528 -0.386567 0.777948 -0.201499 0.625542 0.088275 -0.708022 0.170233 -0.937944 0.014073 0.918664 -0.676048 0.723444 -0.976891 0.485759 0.965124 -0.856019 -0.721342 -0.454761 -0.686828 0.462472 0.956163 0.965729 -0.104801 0.688770 -0.272280 -0.472754 -0.754308 0.943457 -0.898501 0.792091 0.895640 -0.758526 0.050452 -0.094507 0.044659 -0.558998 0.852729 -0.069192 0.720910 0.876054 -0.009035 0.943856 -0.743760 -0.158109 0.149650 0.720971 -0.936450 -0.886490 -0.812469 0.519115 0.062949
-0.271772 0.673803 -0.747604 -0.428187 -0.113166 -0.386031 -0.246251 -0.561787 -0.743594 0.116582 -0.860952 0.388551 0.875851 0.066253 0.810340 -0.085938 -0.463633 0.847805 -0.071728 0.041334 0.571993 0.737375 0.514771 -0.236384 0.614415 0.018391 -0.852930 0.697549 0.068348 -0.129898 -0.700712 -0.990074 0.969303 0.206964 0.122237 0.958096 0.410175 0.219193 -0.190892 0.816610 0.259303 -0.770017 -0.883737 0.945451 -0.535729 0.268049 -0.321508 0.414163 0.096707 -0.437638 -0.659056 -0.121502 -0.028143 0.183570 0.747429 -0.509737 -0.766012 0.708715 -0.813187 -0.137317 -0.768814 -0.293959 -0.145449 -0.290540 -0.253688 0.277828 0.757700 0.514308 -0.936660 0.371966 -0.378728 -0.729497 -0.959371 -0.907876 0.201526 0.736892 -0.118385 -0.620173 -0.714546 0.858973 -0.316640 0.461729 0.462765 -0.884394 -0.074468 0.434199 -0.586589 0.390758 0.327836 0.284177 0.901902 0.070894 -0.629473 -0.849316 -0.181311 -0.137348 0.004019 -0.016093 0.855393 0.638515 0.461025 0.978299 -0.770139 0.575031 -0.603113 -0.507053 0.593300 -0.438269 0.755366 -0.620971 -0.326538 -0.588020 0.667560 0.647876 -0.812090 -0.297604 0.244205 -0.501797 0.320804 0.417707 -0.527363 0.304735 -0.647190 0.734786 0.821983 0.900901 -0.610475 -0.343866 0.450497 0.957903 0.488152 -0.369940 0.184429 0.659784 -0.950509 -0.419051 0.249692 0.793625 0.766075 0.988348 0.236801 -0.386668 -0.183643 0.758722 0.578392 -0.422693 0.808786 0.451525 -0.764600 0.242473 -0.837292 -0.981134 0.678932 -0.319546 -0.572971 -0.747416 0.465203 0.114571 0.697107 -0.019330 0.262668 0.431907 0.263031 -0.054467 0.097795 0.127999 -0.704010 0.095915 0.060385 -0.138594 -0.679223 0.497105 0.112386 0.242151 0.961012 -0.039843 0.825073 -0.872272 -0.505061 -0.045807 -0.119315 0.130028 0.911750 -0.743065 0.156245 0.766151 -0.637276 -0.361608 -0.481718 -0.439879 0.369479 0.703785 -0.934669 0.475745 -0.497770 -0.842037 0.632200 0.641803 0.094282 0.655729 -0.337004 0.531334 -0.234054 0.429588 -0.748595 0.874166 -0.259024 0.494135 0.616779 0.521001 0.817250 -0.731022 -0.355184 -0.915364 -0.603365 -0.325903 -0.273937 -0.698224 -0.865217 0.355722 0.653659 0.219383 -0.096184 0.943559 -0.810325 0.054340 0.394778 -0.343251 0.547754 -0.107975 0.712355 -0.683988 0.155741 0.286845 -0.258075 0.443862 -0.393578 0.991098 0.187368 -0.869770 -0.558537 -0.771235 -0.554610 0.266053 -0.051793 -0.845096 0.647276 0.736086 0.444272 0.106626 0.574275 0.323644 0.992661 -0.269547 -0.784625 0.918106 0.140037 -0.595834 -0.990148 0.584384 0.007646 -0.961054 -0.811245 0.614255 0.733424 -0.420607 0.275656 0.455181 -0.495726 0.703484 -0.861599 0.026379 -0.255142 0.542312 -0.037033 0.216210 -0.694121 -0.870018 0.877411 0.107503 -0.807836 -0.915127 0.218914 0.499255 -0.191818 -0.860883 0.643259 -0.007595 -0.665515 -0.566998 -0.423559 -0.197351 0.552434 -0.539197 0.097900 0.302380 0.529672 0.007953 0.076231 -0.234039 -0.663949 -0.918678 -0.530422 -0.377980 -0.195055 -0.055281 -0.588941 0.813271 -0.369380 0.723068 -0.385137 0.553286 -0.694074 0.105040 -0.414258 0.083013 -0.886090 0.567748 -0.802334 0.450881 0.694412 -0.441684 0.389884 -0.624201 0.128711 -0.426745 -0.485474 -0.009692 -0.150526 0.805594 0.527949 0.862115 0.195428 -0.857636 -0.442502 0.163159 0.105892 -0.970913 -0.937304 -0.961497 0.887763 0.334548 0.942524 0.965254 0.620366 -0.205323 0.953778 0.872294 -0.632898 0.681021 0.960810 -0.370466 -0.964763 0.928956 -0.472444 0.157022 -0.186961 0.245911 0.880806 0.394231 -0.854477 -0.635608 0.430159 -0.406817 0.778793 0.344011 0.905641 -0.627611 0.957217 -0.935876 -0.052770 0.223269 0.444325 -0.945305 0.767759 0.020810 0.734176 0.358053 0.843718 -0.524645 -0.147063 0.328314 -0.427372 0.596959 -0.743858 0.411375 -0.615755 -0.677130 -0.126215 0.175811 -0.376961 0.462494 0.893639 0.880971 -0.478562 -0.100164 0.222442 0.214477 -0.601409 0.721297 0.964475 0.520346 -0.742428 0.248411 0.241506 0.021237 -0.580659 -0.396569 -0.458592 0.313920 -0.853404 -0.884248 0.387498 0.125951 -0.161554 -0.425619 0.027858 -0.268111 -0.313598 0.939579 -0.609416 0.737013 -0.918402 0.524581 0.601601 0.517506 -0.808950 0.017276 -0.578030 -0.643743 -0.864203 0.259532 0.637015 0.508111 -0.745749 0.119387 0.789139 -0.709027 0.431232 0.080859 0.565018 0.265848 -0.510264 -0.256703 0.860693 0.320752 -0.695210 0.571405 0.366766 -0.328181 -0.253665 0.711507 -0.570359 0.040175 -0.601978 -0.243934 0.103715 -0.526671 0.183325 -0.853461 0.257117 -0.180171 -0.902926 0.724827 -0.473616 0.010664 -0.600133 -0.000633 -0.829279 0.787192 -0.151846 -0.679167 0.210808 0.966757 0.317699 0.837433 0.042431 -0.511563 -0.610793 0.546179 0.458543 -0.988364 0.451018 -0.802086 -0.278568 -0.026652 0.570405 0.391213 0.289741 -0.953117 -0.971201 -0.563910 0.555221 -0.742842 0.401750 0.020151 0.820869 -0.073739 0.052914 -0.508253 -0.210904 -0.379385 -0.328662 -0.000048 0.883652 -0.959277 0.167023 -0.606952 0.037314 0.763845 0.021459 -0.738790 -0.755776 -0.275025 0.695640 0.130391 0.663206 -0.747107 0.051701 0.358497 0.980753 0.923599 0.917518 0.362394 0.968148 0.947901 0.181351 -0.372738 -0.777325 0.248335 -0.396313 -0.223238 0.871873 -0.847898 0.010905 -0.504874 -0.430155 0.486066 -0.582966 -0.564318 0.411662 0.418578 -0.880155 0.318013 -0.025536 -0.663976 -0.643777 -0.289062 0.026025 -0.092659 0.451621 -0.003297 0.832681 -0.078905 0.049106 -0.739651 -0.771114 -0.298705 0.562044 -0.180962 0.573096 0.376654 0.580526 -0.514844 -0.211703 0.284501 -0.208768 -0.309795 0.897746 -0.852415 0.191334 0.249034 -0.886450 0.359620 -0.292985 0.039185 -0.043323 0.485730 0.105484 -0.933954 0.336610 0.041922 -0.941309 0.378029 0.983279 0.093414 -0.413457 0.581961 -0.966685 -0.113158 0.042254 0.001898 -0.291175 -0.504462 -0.153485 0.812360 -0.450096 0.240983 -0.182683 -0.775200 -0.378382 -0.668602 0.959121 -0.957980 0.424124 -0.702215 -0.046007 -0.069825 0.386091 -0.082702 0.659722 0.500636 -0.819390 -0.496294 0.380713 -0.364564 0.488925 0.593740 -0.893561 0.369010 -0.303023 -0.546824 -0.906619 0.339057 0.112867 0.333018 0.674079 0.087266 -0.027933 0.397532 -0.475301 -0.543237 0.772115 0.117937 -0.515574 0.993266 -0.675764 0.124504 0.593176 -0.320387 -0.520524 -0.903007 -0.127739 -0.033143 -0.937866 0.261601 0.642822 0.949693 -0.664345 0.381063 -0.841421 0.578366 -0.964642 0.327216 0.732506 -0.851658 -0.412563 -0.670912 0.106322 0.233652 -0.727132 0.876557 -0.916191 0.096990 -0.746434 0.911762 -0.880590 0.476993 -0.128503 0.391340 -0.743054 -0.675524 0.968236 -0.140411 -0.343594 -0.569444 -0.718235 -0.939733 0.147456 -0.570467 0.303167 -0.286816 -0.935079 0.157792 -0.722179 -0.425876 -0.084917 -0.814283 0.445660 -0.133005 -0.835400 0.104990 -0.831750 0.545038 0.501152 -0.515399 -0.383929 0.084812 -0.011746 0.074354 0.736663 0.824180 -0.062561 0.266797 0.909318 0.113800 0.226470 -0.556569 0.392029 0.940623 0.015174 -0.328574 -0.019163 0.136856 -0.484753 0.678937 -0.036212 0.719747 -0.139958 -0.824656 -0.873361 -0.191893 -0.835250 0.230755 0.968929 0.376279 -0.301881 0.635710 0.614290 -0.583750 0.535422 -0.921164 -0.099145 0.934966 0.469052 -0.435661 0.229122 -0.109480 0.488927 -0.353898 -0.179071 -0.775471 -0.272864 -0.279036 -0.387948 -0.625093 -0.004447 -0.718582 0.573160 0.182758 0.663956 0.340452 0.271329 0.652559 0.257094 -0.290572 -0.696452 -0.452204 -0.979238 -0.235959 0.294283 -0.365484 -0.893651 0.481432 -0.704621 -0.378808 0.274342 -0.586356 -0.935515 0.420416 -0.693416 0.305158 0.895446 -0.529568 0.886703 0.940830 0.720386 -0.284275 0.184210 0.034070 -0.836617 0.235000 0.777597 -0.808090 0.804948
-0.621708 0.015606 -0.354404 0.719923 -0.448121 0.036494 0.835555 -0.884374 0.218962 -0.849824 0.399818 0.833826 0.246428 -0.501316 -0.575685 -0.639627 0.055307 0.662705 0.364442 -0.735775 0.532620 0.536921 -0.472503 -0.946965 -0.246254 0.542115 0.988076 0.772551 -0.284034 0.881867 0.027525 -0.052387 -0.726176 -0.097943 -0.716469 -0.695656 0.459853 -0.192546 0.408668 0.260963 0.783886 0.841629 0.718989 0.572861 -0.096715 -0.996480 -0.159663 -0.635434 -0.491529 0.517301 0.487822 0.054786 -0.395941 0.826635 -0.051733 -0.003294 -0.293556 -0.553971 0.438328 0.862076 -0.397168 0.763268 0.896795 0.094206 -0.893321 0.548658 -0.299294 0.265020 -0.960561 -0.353357 0.126917 -0.583056 0.505269 -0.060497 0.914961 -0.232882 0.508772 -0.023942 -0.717432 0.880396 0.336808 0.823735 0.893255 -0.727824 0.849909 -0.208988 0.938332 0.617503 0.471375 -0.503976 -0.315693 0.091445 -0.785178 0.280691 -0.182732 -0.122912 -0.917967 -0.874327 -0.418087 -0.522839 -0.148634 0.104957 0.963756 0.762449 -0.153871 -0.677044 -0.017103 -0.448558 -0.246573 0.588120 -0.452621 0.168743 0.242396 -0.601950 -0.506978 0.275101 0.301323 -0.002890 0.466229 0.703399 -0.096069 -0.921996 0.524166 0.255717 -0.453199 0.164272 0.092867 0.486776 -0.676063 -0.333388 0.702620 -0.537984 -0.710161 -0.611507 0.554032 0.515936 -0.615848 0.527650 0.645071 0.478332 -0.581389 -0.067663 0.357404 0.085381 -0.524854 0.501646 0.704631 -0.372956 0.680932 -0.687889 -0.956417 -0.187125 0.322642 0.327474 -0.330193 -0.582537 0.568590 -0.947651 -0.709817 0.370318 -0.909809 -0.882920 0.005445 -0.303429 0.770151 0.206658 0.153635 -0.560535 -0.296943 -0.255234 0.144225 -0.671285 -0.310713 0.620115 -0.345459 0.668441 -0.958083 0.843367 0.013451 0.265736 0.910740 -0.564966 0.897828 0.467998 0.579383 -0.881878 0.628610 0.793073 -0.083536 -0.191049 -0.277435 -0.554231 -0.495144 0.952834 0.697177 -0.898598 0.568409 -0.789549 0.935066 -0.615206 0.263526 -0.444142 -0.792934 0.982178 0.931639 -0.585369 -0.088266 -0.621483 -0.482058 0.287824 0.241115 0.084081 0.138951 0.343712 -0.606633 -0.703446 0.975582 0.203706 0.247499 0.646212 0.105729 -0.541694 0.284958 -0.030769 0.569784 0.921778 0.727832 -0.307106 -0.275311 -0.622306 0.813396 -0.108749 0.049225 0.885660 -0.308228 0.779046 -0.210846 0.202040 0.525153 0.674394 0.107752 0.097395 -0.501531 -0.345840 -0.382291 -0.152840 0.000686 0.347751 -0.231666 -0.612161 -0.882745 -0.374180 0.813610 0.457843 -0.869760 0.812532 -0.758068 0.700558 -0.267085 0.260034 -0.692818 0.759262 -0.954149 0.517001 0.718987 -0.525871 -0.570379 0.254287 -0.503379 0.284457 -0.673954 0.862575 0.612060 0.745866 -0.097362 0.212780 0.695145 -0.525850 0.872935 0.226043 -0.326884 -0.334290 0.175359 -0.772922 0.762256 0.248602 -0.017228 0.987427 -0.929426 0.631296 0.161475 -0.367585 -0.124898 0.181311 -0.395952 -0.558166 0.728372 -0.138655 0.371082 -0.729969 0.795485 -0.737523 0.275367 0.366375 0.945934 0.818478 0.284791 -0.463004 0.417859 -0.993858 -0.288686 -0.170097 0.754220 0.116268 -0.760652 -0.179406 0.100658 -0.753424 -0.394196 -0.890783 0.659167 0.533634 -0.523681 0.162333 -0.140388 -0.464179 0.640242 -0.768669 -0.135532 0.984609 -0.480756 -0.320914 0.731562 0.648277 0.773746 -0.066187 0.669525 -0.856134 -0.048268 -0.994333 -0.180441 -0.052559 -0.868027 -0.805368 -0.843199 0.941146 -0.753755 0.083508 0.401372 0.195910 0.978973 0.898929 0.821097 -0.928624 0.418626 0.344841 -0.529914 0.301184 -0.475180 -0.712854 0.789349 -0.577183 -0.214032 0.983541 0.426242 -0.593077 0.503076 -0.237418 -0.378618 -0.214953 -0.387746 -0.246954 0.327238 0.828401 -0.465337 0.247553 0.701131 -0.987862 -0.919255 -0.292388 0.831113 0.288174 0.087016 0.804000 0.991000 -0.959780 0.115385 -0.682745 -0.496281 -0.547348 -0.360142 -0.675165 0.947909 0.866654 0.891367 -0.504150 0.364253 0.200742 -0.877972 0.328581 0.164491 0.691690 -0.859652 0.389827 -0.963271 0.897125 0.462242 -0.071427 -0.958822 -0.714588 0.785048 0.693877 -0.097236 0.858724 -0.587082 -0.950298 0.575686 -0.658295 0.270861 0.079405 -0.783673 0.365550 -0.723635 0.260531 0.137110 0.054687 -0.081968 0.555823 -0.260140 -0.261452 -0.953041 0.510981 0.485242 -0.074718 0.219803 -0.958739 -0.759003 -0.856438 0.917793 -0.449330 -0.804493 0.745280 0.637847 -0.911084 -0.217080 -0.519843 -0.258991 0.552896 -0.686410 -0.142239 0.484779 0.929405 -0.184803 -0.101034 0.754594 -0.721705 0.053621 -0.917693 0.410701 -0.832205 -0.778243 -0.604294 0.888284 0.382381 -0.857968 -0.536019 -0.598326 0.350182 -0.502273 0.639782 0.121929 0.387941 0.319197 -0.752212 0.052930 0.357522 -0.507105 0.425664 0.789106 0.748101 0.620125 -0.651038 0.396320 0.645425 0.882447 0.270454 -0.900152 0.316176 0.378952 -0.986571 0.077644 0.089527 -0.088558 0.239284 -0.913381 -0.000803 -0.931135 -0.355466 0.072879 0.382375 0.385895 -0.113262 -0.792640 -0.716933 -0.115231 -0.781740 0.598554 -0.445497 -0.755245 -0.422193 -0.585116 -0.399697 -0.178730 0.005145 -0.814356 -0.341182 0.045370 0.118165 0.000100 -0.681132 -0.417732 0.726256 0.651688 -0.276504 -0.018002 -0.084492 -0.427000 0.295054 0.123400 -0.201452 -0.482512 0.235148 0.416646 0.602418 0.875953 -0.585310 0.727622 0.964111 0.337732 0.547369 -0.203690 0.715563 -0.313291 0.456441 0.307383 0.795282 0.713882 0.469598 0.849567 -0.308837 0.628671 0.437803 -0.485802 0.256507 -0.459966 -0.898361 -0.996081 -0.521396 -0.216662 0.040178 -0.265405 -0.150859 0.286908 0.467422 0.963835 -0.360132 0.301439 0.191086 0.730867 0.404779 0.720232 -0.258789 0.151277 -0.724680 -0.362934 0.018402 -0.798388 0.879484 -0.113246 -0.894856 0.033801 0.009558 0.697431 0.729332 -0.815848 -0.008584 -0.302126 0.106199 0.902312 0.316055 -0.794262 0.438449 -0.669157 0.335784 0.772577 0.294647 -0.078425 0.934523 0.605771 0.121515 -0.604628 -0.711109 -0.627373 0.031494 0.774204 -0.484695 -0.124960 0.337448 -0.505820 0.590351 0.248315 -0.007396 -0.581085 0.438124 0.417428 0.875963 0.457019 0.878331 -0.440077 -0.185771 0.570995 0.254689 0.100893 0.205687 -0.252034 0.817110 0.040639 -0.629233 -0.612539 -0.543229 -0.249733 0.523174 0.583042 0.045269 -0.527693 -0.309746 -0.394055 -0.576983 0.497438 0.220687 -0.486489 0.081777 -0.239892 0.150466 0.191363 0.538484 0.845102 -0.675357 0.690684 0.463579 0.932792 -0.766845 0.137784 0.590427 -0.164657 -0.619336 -0.308967 0.413630 -0.565609 -0.674658 0.443737 0.595515 0.837149 -0.540849 -0.062107 0.386674 -0.138649 0.781631 0.152177 0.816815 -0.684791 0.966141 0.149607 -0.600866 0.919299 0.201354 -0.242918 -0.723279 -0.303852 0.577047 -0.146934 0.730442 -0.255042 -0.417823 0.793963 -0.871035 -0.766543 -0.674607 -0.512783 -0.587333 0.713526 0.010006 0.139565 0.875146 -0.878724 0.268718 0.989612 -0.215136 0.811156 -0.837483 -0.565696 -0.249388 0.221212 0.401990 0.784652 -0.275351 -0.489110 0.948889 0.943254 0.864854 0.625657 -0.181140 0.036172 0.074468 -0.434981 0.108395 -0.078852 0.523070 0.645242 -0.046984 -0.193750 -0.737096 -0.171247 -0.361505 0.743146 0.416895 -0.054819 -0.410728 -0.829231 -0.316257 -0.500759 0.183180 0.562245 -0.224551 0.435526 -0.565994 -0.412930 0.587573 0.648080 0.196582 -0.740519 -0.649385 0.012556 0.724901 -0.282130 0.461700 0.175675 0.292713 -0.076768 -0.972430 -0.789689 0.796823 0.593722 0.212682 0.037936 0.425104 -0.178181 -0.744516 -0.621751 0.164363 0.780380 -0.039986 0.114060 -0.998541 -0.957873 -0.133340 -0.057336 -0.721122 0.131331 0.971243 -0.221736 -0.798795 -0.330165 0.603965 -0.262225 0.057305 0.671397 -0.952265 0.339667 0.451405 0.427359 -0.405414 -0.702958 0.063111 -0.672547
-0.010521 0.467638 0.081888 0.973442 0.416609 -0.746498 0.269915 -0.138024 0.441708 0.239342 0.201316 0.565978 -0.950946 -0.805910 -0.448401 0.044086 -0.892667 0.338727 0.991768 -0.220542 -0.112505 0.659858 0.308435 0.140604 0.677336 -0.971757 0.835696 0.324147 0.579918 -0.160867 -0.111691 -0.827532 0.888752 -0.539388 0.557976 0.321034 -0.944568 -0.352370 -0.567081 -0.112600 0.709976 -0.223214 0.910288 0.382176 0.662958 0.081282 0.483472 -0.031536 -0.569307 -0.890753 0.263641 -0.354820 -0.311728 -0.821125 0.523871 -0.825131 -0.261964 -0.742287 -0.746938 0.110469 -0.339992 0.811169 -0.669021 -0.312998 0.089192 -0.585674 -0.644031 0.067400 -0.224216 -0.556606 -0.099675 -0.485688 0.349557 0.234305 -0.457739 -0.065162 -0.655720 -0.563321 -0.122554 -0.215785 -0.387892 0.267579 0.249423 -0.950550 -0.783242 -0.165908 -0.089956 0.278928 -0.473650 -0.713379 -0.233948 -0.403226 -0.952723 -0.369499 0.768609 0.017851 0.155073 -0.426239 -0.400963 0.064352 0.875822 -0.872548 -0.621408 -0.881645 -0.095286 -0.546914 0.757886 0.484034 -0.201765 0.430460 0.493352 -0.570718 0.317857 0.915716 0.057828 0.125155 -0.866472 0.764438 -0.147591 -0.244703 -0.247067 -0.314186 -0.390178 0.378380 0.768490 0.974535 0.873595 -0.477144 -0.878456 -0.327572 0.505585 0.153274 0.970621 -0.528958 0.864282 -0.312612 -0.325171 -0.706247 -0.910302 -0.515838 0.789456 -0.659836 -0.302971 0.450739 0.315434 0.227749 0.550596 0.538678 0.387793 0.295537 -0.634622 0.934705 0.027114 0.311053 0.136056 -0.688623 -0.996021 0.209713 0.851125 0.958418 0.654313 0.830773 0.233021 -0.869831 0.368743 -0.643252 -0.564881 -0.580612 0.764076 0.788992 0.792743 -0.273923 0.756166 0.686673 0.608470 0.442132 0.859188 -0.858943 -0.864903 0.031776 0.636401 0.923702 0.031098 -0.446864 0.525295 -0.908188 -0.946778 -0.968417 0.332716 -0.310962 -0.915830 -0.250187 0.012099 0.514945 -0.793838 0.723143 -0.146432 0.688555 -0.835400 0.913444 0.315632 -0.548543 0.568788 0.826027 0.341490 0.932182 -0.111019 0.166368 -0.502657 -0.524585 -0.596003 0.830280 -0.171873 -0.006640 0.915975 -0.679567 -0.163062 0.854493 0.140042 -0.233974 0.044043 0.971211 -0.421005 -0.414160 0.199127 0.893416 0.873505 0.324245 -0.124874 -0.266467 0.853880 -0.140819 0.733920 0.727829 -0.377659 0.785770 0.502636 -0.141930 0.077734 0.731128 0.137914 0.300966 -0.123617 -0.330081 0.155795 -0.074350 -0.488014 0.993885 -0.798040 -0.255813 0.829885 0.953973 -0.948094 0.520940 -0.384015 0.357554 0.114903 -0.781770 -0.922642 0.736497 0.796410 0.995507 0.171894 -0.062040 0.400380 0.637767 -0.935245 -0.725604 -0.908408 0.105047 -0.534751 0.007291 -0.396388 0.351597 0.158236 0.777574 -0.962295 0.487737 0.882459 0.120040 0.230301 0.251215 -0.009370 -0.275091 0.770126 -0.276654 0.005156 0.454624 -0.839675 -0.197490 -0.957179 -0.819183 -0.641120 -0.471162 0.679362 0.175177 -0.498656 0.469863 -0.029103 -0.757325 -0.304495 -0.250734 0.741125 0.890588 0.119262 -0.867736 -0.167913 -0.181790 -0.986232 0.224383 0.967721 -0.950088 0.572615 -0.262066 0.132185 0.759209 0.744057 0.108940 0.749136 -0.358779 -0.990099 -0.758234 0.754559 0.733077 0.684890 -0.147782 -0.364459 -0.733853 0.021079 0.469197 -0.101343 -0.040191 -0.003039 0.475025 0.885129 -0.845365 -0.527033 0.159235 -0.963677 0.044080 0.385598 0.911113 -0.117304 0.184171 -0.447465 -0.233192 -0.932828 0.563395 0.655203 0.836239 -0.298395 -0.572597 -0.336527 0.700994 0.744787 -0.107578 -0.474942 0.843360 -0.205431 0.459816 0.110736 0.667692 0.085469 -0.584136 -0.812463 0.958192 0.086884 -0.596894 0.532005 -0.001027 -0.501928 -0.782987 -0.604285 -0.684808 0.700312 -0.774239 -0.609292 -0.406206 -0.512687 0.358651 -0.509752 -0.411743 0.366189 -0.932164 -0.125378 -0.694521 -0.474191 -0.109276 -0.242836 -0.594089 0.806017 0.118626 0.952580 0.126783 0.816206 -0.910836 0.639915 0.168876 0.156714 -0.621275 -0.203168 0.238171 0.907873 -0.496658 -0.547621 -0.794144 -0.504658 -0.403411 -0.941699 0.460219 -0.898660 -0.967765 0.947603 -0.963731 -0.029705 0.711107 0.450220 -0.456276 0.371074 0.411176 0.451093 -0.808161 0.835355 0.365180 -0.305463 -0.352983 0.181628 -0.784364 -0.470966 0.691379 -0.009294 -0.040666 -0.616120 0.814614 -0.192680 0.006158 0.382179 0.329175 0.991952 -0.415151 0.721268 -0.686380 -0.761995 0.471911 0.735993 -0.516327 0.261429 -0.857034 -0.799090 0.717815 0.435464 0.756591 0.360272 0.213623 -0.009818 -0.326614 0.053387 0.324831 -0.690141 -0.878799 -0.279061 -0.972741 0.332255 -0.925895 0.956657 -0.962322 -0.537951 0.078153 -0.889586 -0.630169 -0.146457 -0.209390 0.740025 0.813445 0.629157 0.378628 0.881904 -0.659277 0.180022 0.634067 0.456189 0.150801 0.111348 0.126099 0.926258 -0.559818 -0.773034 0.432035 -0.380055 0.879167 -0.001566 0.396000 -0.559387 0.258046 0.109478 -0.431428 -0.561041 -0.082638 -0.118406 0.042515 0.274551 -0.360811 0.104713 0.372005 0.393662 0.283461 -0.727320 0.009589 -0.397984 -0.794108 -0.411048 -0.412366 0.509400 -0.591632 -0.570774 0.685197 -0.561372 0.093090 -0.176426 -0.734465 -0.835125 0.301711 0.934452 0.613201 0.677577 0.286468 0.512124 -0.751287 -0.954176 -0.293221 -0.179500 0.826662 0.999962 -0.942006 0.407823 -0.728791 0.506635 0.994965 0.782010 0.884856 0.621887 0.716192 0.846964 -0.250022 0.065157 -0.731017 0.076715 0.559094 0.009239 0.535314 0.391699 0.415433 -0.334806 0.872099 -0.248808 0.449703 -0.336278 0.362313 -0.173467 -0.200589 0.240821 -0.679701 -0.374699 0.140645 -0.604507 0.100307 -0.208749 -0.812614 0.667415 -0.799563 0.947321 -0.903364 0.934538 0.757518 -0.301792 0.761406 -0.166738 0.895087 0.763152 -0.114432 0.386846 -0.839731 -0.549760 -0.558990 -0.088753 0.929898 -0.849088 0.378633 -0.970166 0.600072 0.921706 -0.850611 0.605632 -0.030043 -0.355272 0.846430 0.965146 0.942598 0.519571 -0.715259 0.491728 -0.097012 0.130669 0.272236 0.835595 0.043380 0.480707 0.712484 -0.279325 -0.721628 -0.450238 -0.745729 0.646038 0.918365 -0.003168 -0.793436 0.568896 -0.294821 0.859910 0.895452 0.715627 0.193852 0.715400 -0.127747 0.278613 -0.085531 0.956988 -0.178159 0.377449 0.121814 0.591106 -0.682894 -0.723301 -0.222675 0.567284 0.744541 0.322282 -0.726468 0.316173 0.351840 0.585076 0.409976 -0.689186 -0.526619 -0.388325 -0.941769 -0.077674 -0.577103 0.947750 -0.262952 -0.957124 0.069573 0.800893 -0.350190 -0.267830 0.849287 0.763665 -0.552389 -0.491010 -0.095247 -0.369451 0.805127 0.679545 0.789495 -0.017839 -0.560252 -0.074638 -0.366155 0.061250 0.822734 0.635169 -0.614455 -0.777271 0.491846 0.996630 -0.450771 0.486339 0.831057 -0.753667 0.866784 0.530843 0.275367 -0.589333 -0.641194 -0.425502 -0.038847 0.163700 -0.946318 0.320944 0.236980 0.982242 0.109858 -0.685834 -0.696058 -0.582428 0.249754 0.551967 0.978026 -0.484877 -0.364376 0.257719 0.489300 -0.183914 -0.855097 -0.656127 -0.730267 -0.836784 -0.941722 -0.735401 -0.027807 -0.179444 0.569331 0.289820 0.956763 -0.380963 0.598576 -0.190311 -0.180717 -0.740243 -0.802603 0.438975 0.867607 -0.456443 0.704738 -0.954654 0.636226 0.665007 -0.839307 0.806912 -0.786526 -0.443654 -0.656926 0.269277 -0.939851 0.872905 0.658432 0.932603 0.132440 -0.302793 0.647042 -0.745217 -0.343708 0.295920 0.547252 -0.418458 0.363689 -0.805996 0.640854 -0.890002 0.800269 0.458699 0.436497 -0.958569 -0.822177 0.510908 0.513966 0.094766 0.577102 -0.044322 -0.493833 0.532754 0.704217 -0.160554 0.154400 -0.623372 -0.202490 -0.713226 -0.563502 -0.299388 -0.483595 0.052160 -0.350809 0.514608 0.461408 0.108237 0.796027 -0.363443 -0.526456 0.052473 -0.952947 0.423632 -0.215097 0.473572 0.074671 0.633100
-0.979191 -0.973968 0.118449 -0.523186 0.066704 0.710017 0.501097 -0.558171 -0.208113 0.140433 0.761653 0.042958 0.129825 -0.898965 -0.077723 0.764200 -0.077054 -0.796749 0.907181 0.296343 -0.655501 -0.859863 0.159265 -0.241860 -0.258535 -0.712743 0.842922 0.565276 0.929344 -0.897176 -0.971969 -0.468195 0.984765 0.097999 -0.151793 0.727570 -0.752959 0.848647 0.749558 -0.789269 0.853090 -0.009919 0.190849 0.026537 -0.964777 0.395320 0.161863 -0.794645 -0.110985 0.118325 -0.127529 0.025942 0.468523 -0.260305 -0.813207 -0.578490 -0.414395 0.097896 -0.642894 0.444993 -0.608037 -0.890183 -0.780427 0.573294 -0.574596 -0.988248 0.575443 0.227371 -0.287960 -0.208153 -0.185214 -0.887999 0.074337 -0.079293 0.198242 -0.415474 0.709939 -0.561104 0.509517 0.840162 0.471744 0.639250 -0.041980 0.083853 0.252370 0.908154 0.933220 -0.829326 0.622271 -0.786848 0.370244 0.863217 0.433332 -0.967340 -0.268882 0.461700 -0.215636 0.292336 -0.607009 -0.560672 -0.595407 0.282082 -0.234307 -0.977256 0.025030 0.955366 0.685723 -0.280009 -0.977233 -0.592594 0.424358 0.135874 -0.806686 -0.930040 -0.009686 -0.648219 0.784885 -0.143801 -0.995523 0.701094 0.729067 -0.415218 0.836480 0.297792 0.861563 0.507155 0.221985 0.453976 0.163066 -0.675428 -0.847872 -0.859297 0.140962 -0.504411 -0.160619 0.795431 -0.436710 0.209672 0.090716 -0.061372 -0.526578 0.774576 0.907074 0.174498 0.815896 0.099735 -0.697623 0.739916 -0.593165 0.680550 -0.222847 0.287125 0.617259 0.228523 0.659052 -0.145623 -0.114176 -0.318157 0.015689 -0.371887 0.317994 0.404942 0.251085 -0.302181 0.986372 0.895328 -0.276494 -0.091214 -0.325041 0.417240 -0.260268 -0.079249 0.241947 0.135557 -0.054097 0.800551 -0.149805 -0.228183 0.780633 0.489022 -0.191480 0.722669 -0.656937 0.652286 -0.729385 -0.555048 -0.500838 -0.368132 -0.882974 0.607645 -0.576811 0.275540 -0.098363 0.522516 0.620673 -0.523218 0.904965 -0.100654 -0.462936 0.313106 -0.515767 0.922469 0.053454 0.316356 -0.697039 0.738301 -0.418917 -0.478408 -0.621727 0.224727 -0.504124 0.472197 -0.516930 -0.232483 -0.928827 -0.530904 -0.838171 0.695339 0.594681 0.978031 -0.587698 0.624714 -0.966359 -0.922040 -0.186657 -0.563174 0.572689 -0.948110 0.800257 0.905900 -0.163492 0.896387 0.258044 0.528324 -0.779176 0.242213 -0.015395 0.678880 -0.654323 -0.537012 0.065399 0.773660 -0.946912 -0.069112 -0.365044 0.337161 -0.161553 0.416654 0.366411 0.074809 0.657984 0.199620 -0.043566 0.102988 0.201557 -0.076312 0.613027 0.099135 -0.987032 0.731921 0.620690 -0.065808 0.011242 -0.889900 -0.576364 0.910595 -0.842708 -0.382302 0.233745 -0.207605 0.635496 -0.415986 0.576775 0.761332 -0.165221 0.066864 0.810846 -0.135274 -0.154272 -0.722082 -0.964860 -0.131510 0.907095 0.063522 0.262964 -0.221580 -0.534502 -0.801032 0.514047 0.377707 -0.285268 0.880465 0.873204 0.651265 -0.412590 -0.090490 -0.019745 0.238430 0.387079 -0.650266 0.797946 0.000204 -0.499029 0.535359 -0.494726 -0.208327 -0.529805 -0.495748 -0.210566 0.155753 0.164536 -0.187639 -0.599111 -0.524826 -0.408366 0.463681 -0.154185 -0.445470 0.215168 -0.452328 0.453017 -0.384029 0.075350 0.508690 0.095393 0.787804 0.228059 0.808126 0.877225 -0.356624 -0.068594 0.866182 -0.306181 0.905682 -0.820043 0.959066 0.988543 -0.985628 -0.425779 0.281513 0.090640 0.117966 0.920339 0.550073 0.883660 0.837290 0.842752 -0.628112 -0.723323 -0.493156 0.426271 0.032707 0.186340 0.264239 -0.026961 0.700212 0.652505 0.772907 0.137941 0.313907 -0.852160 -0.420311 -0.462274 0.666785 -0.068256 -0.692969 0.166518 -0.856278 -0.263367 -0.256091 -0.487879 0.884432 -0.055889 0.020654 0.016633 -0.259875 -0.561030 0.694151 -0.448013 0.158722 0.110951 0.929286 0.193140 -0.965188 -0.843528 -0.900606 -0.362016 -0.397662 0.230184 -0.817680 0.100554 -0.199198 0.554003 -0.337214 0.595094 0.677619 0.184520 -0.550208 -0.557259 -0.808371 -0.318828 0.462549 -0.570832 0.494779 -0.866232 0.457620 0.458854 0.790583 0.935731 -0.848845 -0.047127 0.778141 -0.579785 0.068324 0.818479 0.833034 0.694915 0.883657 0.663848 -0.297234 -0.835236 -0.228822 0.300871 -0.369058 0.888402 0.130049 -0.250045 0.801198 0.124806 -0.108721 0.866204 -0.413840 0.222103 -0.736294 0.526995 0.836933 -0.591905 -0.727599 -0.244157 -0.829491 -0.826631 -0.942662 -0.423259 0.681572 0.914241 -0.080717 -0.618750 0.676569 -0.455031 -0.993403 0.883299 -0.805421 -0.142527 0.526257 0.242145 0.333668 0.674038 -0.535051 0.022054 0.865991 -0.881112 -0.449192 -0.789252 -0.754927 -0.324408 0.199634 -0.274432 -0.207655 -0.499939 -0.295429 0.671619 -0.209423 -0.204582 -0.229221 -0.519846 -0.041169 0.758427 0.863863 0.103013 -0.459474 -0.333871 -0.535635 0.793772 0.684608 0.112429 0.174404 0.572079 -0.164502 0.266284 0.843974 0.813517 -0.397163 0.051097 -0.597856 -0.309308 0.370751 -0.542304 0.371646 0.708488 0.443483 -0.562831 0.575437 0.205834 -0.852690 0.289381 -0.602977 0.278074 -0.165049 -0.799744 -0.667041 0.324676 0.244200 0.867448 -0.994098 0.799581 0.892443 0.109797 -0.300583 -0.946677 0.763824 0.968423 -0.484610 0.093643 0.641504 0.650182 0.714632 -0.929726 -0.688295 0.210187 0.841808 0.996103 0.286006 0.638995 0.949273 -0.773843 -0.853774 0.075051 -0.723174 0.972264 -0.984061 0.458268 0.685701 -0.951393 -0.439199 -0.569785 0.167620 0.772697 -0.549449 -0.685277 0.574651 0.361302 -0.883423 0.362385 0.616985 -0.536240 0.332143 -0.630096 -0.670682 0.019411 -0.374912 -0.565016 -0.457521 0.250491 0.347922 -0.943639 0.818553 0.502654 -0.769787 -0.931787 -0.945575 0.582092 0.156247 -0.793024 -0.342488 0.341257 0.223532 -0.620994 -0.680240 0.893435 0.791957 -0.568096 0.825498 -0.641425 -0.994218 -0.089428 0.226158 0.033174 -0.200250 -0.032968 -0.277828 -0.076487 0.612837 0.036473 0.599785 0.697886 -0.933153 0.856503 0.917018 0.237756 -0.017855 -0.407020 0.523484 -0.992595 0.810522 0.741411 -0.232722 0.796552 -0.793284 0.410668 -0.288297 0.476820 0.072570 0.594642 -0.426598 -0.116110 0.084425 0.930396 -0.489085 0.353774 0.893505 0.426036 -0.600629 0.818472 0.030284 -0.867728 -0.497393 -0.759900 -0.362686 0.526547 -0.353192 -0.809458 -0.038157 -0.951147 -0.770295 -0.577321 0.738154 -0.891434 0.067609 0.965704 -0.255669 -0.567226 -0.769891 -0.780736 0.236420 -0.090911 0.850762 0.872464 -0.176524 0.349309 -0.723900 0.112808 -0.381892 0.659451 -0.385149 0.979009 0.947464 -0.598872 0.422618 0.765571 0.494527 -0.074547 -0.735694 -0.420445 0.833833 0.477173 0.418547 0.610678 -0.525341 -0.946918 -0.245823 0.504880 0.217906 -0.146748 -0.348113 0.952417 -0.427575 0.300333 0.630159 -0.186604 0.524248 -0.316812 -0.298352 -0.451574 0.584306 -0.250721 -0.365396 0.592337 -0.506622 0.850377 -0.298995 0.475547 0.280087 -0.796196 0.362402 -0.004269 0.386990 0.005218 0.891424 -0.569670 -0.013228 0.437855 0.435744 0.976633 -0.126444 -0.128263 -0.824108 -0.122731 -0.689560 -0.414618 0.214704 -0.254922 -0.201391 -0.858642 0.904997 -0.180474 -0.440277 -0.465129 0.293566 -0.938990 -0.001903 0.744707 -0.677158 0.665641 0.784672 -0.529033 0.665257 -0.588326 -0.432430 -0.600194 0.097623 -0.208156 0.165077 0.279660 -0.181142 -0.096589 0.972083 -0.091545 0.306107 -0.725158 0.489871 0.276954 0.765550 0.663971 -0.954463 -0.889527 0.760143 -0.898086 0.968109 0.049496 -0.110856 0.486075 -0.445484 -0.332311 0.573051 0.505299 -0.544768 -0.893970 0.092353 -0.401618 -0.238281 0.630612 -0.988265 0.082530 -0.070795 -0.923636 0.833312 0.648830 0.891824 -0.737252 0.700070 -0.371088 -0.428799 0.639543 -0.821747 0.132027 -0.296643 0.775046 0.696816 -0.841373 0.663285 0.273573 0.123993 -0.690655 -0.657095 -0.044408
0.227897 0.032258 -0.157086 0.092943 -0.863478 -0.195083 -0.331237 -0.800066 0.015383 0.732683 -0.975259 0.391417 0.987053 -0.656453 0.071665 0.338023 -0.579688 -0.049597 -0.960162 0.939792 -0.750054 -0.675653 0.739421 -0.651381 0.885952 -0.992410 0.678800 0.892803 0.724468 0.162115 -0.895971 -0.553817 -0.669712 0.661663 -0.125909 -0.755864 0.181859 0.331953 -0.113996 -0.998119 -0.263367 0.127879 -0.241096 -0.600521 -0.314594 0.907917 -0.749002 0.637336 -0.558666 0.116638 0.732089 -0.713102 -0.956427 -0.693036 -0.466690 0.980924 -0.939173 0.202740 -0.665420 -0.662290 -0.961172 -0.112466 0.084980 0.365091 -0.603638 -0.657402 -0.352976 0.051794 0.998065 0.107277 0.731754 0.709913 0.210043 -0.206023 0.497095 -0.114662 -0.401802 -0.423733 0.909944 -0.766874 0.026629 -0.170010 0.567951 0.437669 -0.413588 -0.035217 0.580788 -0.872521 0.486802 -0.214045 0.484784 -0.650214 0.629307 0.017290 0.832668 -0.118737 -0.969499 0.813522 -0.815907 0.478210 -0.424475 0.126855 -0.340472 -0.865813 -0.902128 -0.661430 0.230212 -0.535429 0.441753 0.338897 0.697827 0.687591 0.645575 0.838944 0.487506 0.483929 -0.925277 0.850288 -0.584384 0.283025 -0.468152 0.406092 0.829101 0.406585 0.219717 0.540998 -0.847718 0.517797 -0.126967 0.484885 -0.687138 -0.225419 0.098202 0.589839 0.982901 -0.396136 0.544910 0.346007 -0.776259 0.920845 0.821696 0.246554 0.479799 0.829302 0.401788 0.798943 0.769050 -0.192181 -0.304939 0.003111 0.428923 -0.480881 -0.241728 -0.459628 0.276676 -0.561181 0.985358 0.823222 -0.830995 -0.562845 -0.733926 0.265142 0.317962 -0.315693 -0.158917 -0.688208 0.177122 -0.228161 0.300905 -0.457025 0.895818 -0.720884 -0.150336 -0.026125 0.422687 -0.410318 -0.803056 -0.467660 -0.082949 0.972455 0.654786 -0.500404 0.101557 -0.568193 -0.739787 0.567233 0.574854 0.968677 0.334568 -0.157016 -0.581486 0.365560 0.894487 -0.687518 0.573493 0.181505 0.186651 -0.734006 -0.584711 -0.337416 0.648679 -0.522666 0.233397 0.394318 0.702089 0.364739 0.541743 -0.873265 0.040055 -0.671868 0.708113 -0.946880 -0.549274 -0.082616 -0.253398 -0.061253 -0.828636 -0.827482 0.686039 0.176497 0.752308 -0.549209 0.991910 0.591519 -0.435354 -0.345946 0.978183 0.871693 -0.683691 0.553951 -0.080481 -0.632590 -0.808737 0.733625 -0.321892 -0.823163 -0.651526 0.500140 -0.171418 -0.770326 0.197619 -0.353103 -0.506471 0.540962 0.486955 -0.585721 -0.249627 -0.953949 -0.301231 0.509243 0.599749 0.157666 0.169310 -0.180187 0.916095 -0.152000 0.279734 0.142973 0.659426 -0.722364 0.480089 0.616279 0.509383 0.139831 0.798999 0.959026 0.912963 -0.713447 -0.224346 -0.721679 -0.868144 0.909390 -0.595786 -0.362739 0.564024 0.745167 0.894957 0.469698 0.633416 0.947275 -0.874895 -0.905377 -0.815372 -0.811188 -0.185083 -0.764110 -0.314287 0.808171 -0.973227 0.019228 0.076582 -0.159922 -0.695044 -0.207935 -0.792252 -0.164528 -0.831853 -0.060721 -0.681917 -0.889359 0.397472 0.528853 -0.864427 0.604340 0.530085 -0.811544 0.255921 -0.403423 0.037546 -0.594000 -0.355423 0.028713 0.667513 0.731909 -0.706606 0.400720 -0.865293 0.407848 -0.358757 0.916604 -0.740861 0.485148 -0.735331 -0.763976 0.697612 -0.439120 -0.423503 0.502377 -0.175281 0.096655 0.825873 -0.894943 -0.364030 -0.140372 0.609482 0.408670 0.706331 0.785841 -0.219345 0.964588 -0.759411 0.836330 0.469885 0.345810 0.980915 -0.975341 -0.777842 0.517035 0.363248 0.966782 0.106898 -0.795188 0.772629 -0.855986 0.176219 0.799939 0.419179 0.389155 -0.060497 -0.658688 -0.705888 -0.952227 0.883602 0.039646 -0.312799 -0.589748 0.789623 -0.746805 0.768055 -0.201080 0.993421 -0.121334 0.784313 -0.681604 -0.613873 -0.070378 0.050369 -0.841336 -0.069907 0.543210 -0.613278 -0.869967 0.753315 -0.108545 0.989263 -0.879409 -0.113898 0.645594 0.987149 -0.124650 0.240825 -0.767194 -0.188587 0.048343 0.861462 -0.308398 0.099445 0.954875 -0.704685 -0.179209 0.143657 0.811668 0.674857 -0.730656 -0.430981 -0.626225 -0.557966 -0.211168 0.005137 -0.740775 -0.883867 -0.206047 -0.621553 0.856076 0.327456 0.652330 -0.089441 0.692164 -0.895722 -0.153556 -0.786611 -0.709988 0.276403 0.493740 -0.273869 0.669764 0.503718 -0.120048 -0.008645 0.514945 0.813815 0.992164 -0.382350 0.486772 0.950099 0.622244 0.746367 -0.841311 -0.126083 -0.600522 0.380145 0.444383 0.857471 0.144179 -0.942152 -0.146284 -0.818858 -0.164197 0.772298 0.495865 0.929153 -0.716124 -0.911276 0.130092 0.216125 0.509239 0.016336 0.876409 0.300979 0.157795 -0.743111 -0.606388 0.159658 -0.637960 -0.290107 0.659086 -0.948537 -0.707043 -0.302188 -0.005880 -0.459009 0.711776 -0.476873 0.548933 -0.533244 -0.381117 0.132562 -0.049363 0.635535 0.577940 0.140226 0.126987 -0.479215 -0.110409 -0.397074 0.217885 0.141174 0.240664 0.155958 -0.465271 0.739924 0.498621 0.929719 0.245860 0.365622 -0.546646 0.213043 0.733883 -0.925583 -0.947801 -0.183458 0.977836 0.510796 -0.384639 -0.336601 -0.705891 0.431558 0.453612 -0.756907 -0.700100 0.441147 -0.334169 -0.642194 -0.865061 -0.179839 0.444142 0.465630 0.937366 0.655888 -0.115863 -0.142037 -0.776701 0.972237 0.573062 0.212502 -0.854755 -0.701898 0.489148 0.831043 -0.773586 -0.819146 -0.765724 0.955199 -0.296859 -0.638809 -0.819712 0.696258 -0.928335 -0.150113 0.533657 -0.189053 0.414616 0.442393 -0.427309 -0.847361 0.607136 0.865699 -0.792406 -0.862874 0.924376 0.621635 -0.962698 -0.109834 0.765546 -0.162125 0.645286 -0.987027 0.793520 -0.925860 0.910688 0.028107 0.925226 0.116491 0.266543 0.495965 0.697094 -0.914008 -0.047715 0.932720 0.616634 0.386206 -0.441332 0.537707 0.219257 -0.123455 0.717960 0.196642 -0.012698 0.611592 0.530271 -0.905502 0.807978 0.618104 -0.934338 0.112983 -0.516057 0.403591 0.454174 -0.372740 0.327478 0.322355 -0.093887 -0.695082 -0.458911 0.381990 0.002069 0.224468 -0.580985 -0.445666 -0.870723 0.078157 -0.369366 0.673467 0.710741 -0.820101 -0.500897 0.519167 -0.144013 0.996645 0.497837 0.421576 0.353633 0.341826 -0.097613 -0.152188 0.005101 0.912159 -0.169271 -0.723365 -0.374402 -0.878981 -0.951011 -0.670264 0.582716 0.082980 0.257537 -0.837995 0.533567 -0.359681 -0.698051 -0.861778 -0.612904 0.327890 -0.123018 0.808682 -0.262596 0.139325 -0.485199 0.765550 0.036367 0.000603 -0.428409 -0.999658 -0.819972 -0.710214 -0.194292 0.356836 -0.484796 0.021007 0.767741 0.284908 -0.071098 -0.794679 -0.403248 0.065838 -0.128240 0.401700 -0.399575 -0.955913 -0.964845 -0.106150 0.691755 -0.490245 0.165554 0.844265 0.967257 -0.198340 0.442887 0.447921 0.593451 0.198629 -0.670794 0.845744 0.378954 -0.892195 0.177651 0.447568 -0.971328 0.197132 0.271720 -0.418053 -0.378361 -0.766177 0.727693 -0.264590 -0.196253 -0.899774 -0.262641 0.051377 0.731189 -0.485023 -0.908083 0.352019 -0.405012 0.280800 -0.702749 0.348945 -0.314230 0.037105 -0.550356 -0.844421 0.332276 0.631261 0.683217 0.769793 0.788616 -0.256616 0.669466 -0.170503 -0.143020 0.250562 0.927237 0.354025 0.608899 -0.919943 0.406966 -0.294489 -0.292730 0.413003 -0.135173 -0.223970 -0.785153 -0.344552 -0.554203 -0.922695 0.478742 -0.603390 -0.923488 -0.767781 0.052131 0.999529 -0.035131 0.810319 0.724932 -0.790720 -0.172982 0.911625 -0.133709 0.738824 0.011234 -0.042674 0.777935 -0.285000 0.230199 0.672192 -0.586709 0.108732 0.684783 -0.566945 -0.806830 0.432916 0.900380 -0.927031 -0.594870 -0.204472 0.042461 0.105248 0.942496 0.566086 -0.607508 0.334918 0.048916 0.654482 0.870258 -0.906004 -0.298178 0.826429 0.087166 0.771950 0.200800 0.161468 0.508835 -0.434992 0.138009 -0.618023 -0.115422 0.933206 0.482673 0.028919 -0.808678 0.969672 0.192206 -0.386170 -0.647151 -0.204013
-0.949516 0.438881 -0.503231 -0.194737 0.586016 -0.367970 0.991443 -0.376286 -0.509808 0.751215 0.920537 0.485217 0.546808 -0.357136 -0.056452 -0.231274 -0.666261 0.210452 -0.640613 -0.380391 -0.954525 0.538543 -0.291881 -0.875366 0.057654 -0.715595 0.867276 0.186099 -0.344970 -0.132206 0.027887 0.268983 -0.451452 -0.490639 -0.249922 -0.433140 -0.335223 0.212585 -0.796926 0.088277 -0.262427 0.115617 -0.601854 0.664431 -0.937325 -0.207900 0.501034 -0.370024 0.360514 -0.170064 -0.141488 -0.790913 0.222719 0.824790 0.273106 0.752405 -0.660820 -0.581732 -0.867340 -0.257381 0.648310 0.495493 -0.110183 0.781285 0.447271 0.245522 0.346722 -0.059357 -0.521854 -0.085286 -0.402903 0.224332 -0.260591 -0.063075 0.160855 -0.576733 0.961282 0.232897 -0.721947 0.501439 -0.988868 -0.396956 -0.909352 -0.230052 0.015339 0.972409 0.720811 0.621792 0.652234 0.660106 -0.452255 -0.212089 -0.977392 -0.701345 -0.453798 0.742351 -0.251894 -0.705293 -0.505579 -0.403438 0.458618 -0.571638 -0.922414 -0.450026 0.628357 0.791323 0.247465 -0.581003 -0.846718 -0.182598 -0.905186 0.985157 0.496112 0.455138 0.086805 -0.080241 0.971737 -0.846331 -0.776143 0.800960 0.279584 -0.505860 0.268550 -0.103382 0.874080 -0.923068 0.472894 0.510073 -0.328662 0.231281 0.684639 -0.063860 -0.912388 0.517821 -0.288882 -0.129256 0.780496 -0.634061 -0.672918 -0.814259 -0.444422 0.559259 0.941934 0.866693 0.113348 0.587908 0.915199 0.232236 0.179400 0.078230 0.311168 0.776731 0.270661 -0.482898 0.443008 -0.403234 -0.009771 0.141073 0.192926 -0.033454 0.694877 0.711717 -0.952469 -0.792583 0.104994 -0.010405 -0.200709 -0.645323 -0.422663 0.698323 0.615155 -0.303586 -0.177170 0.696081 -0.152254 0.485325 0.719458 -0.569762 -0.585209 0.553787 -0.203507 0.943936 -0.696898 0.058322 0.481479 -0.227093 -0.094913 0.949460 0.008670 -0.170112 -0.284158 -0.337880 0.087555 -0.634956 -0.856675 -0.427117 -0.771607 -0.061150 -0.508675 0.316412 -0.897236 -0.633609 0.373612 -0.235772 0.610652 -0.773636 -0.527689 -0.081184 0.849454 -0.109286 0.962900 -0.324664 0.825417 0.316852 0.056764 0.368822 -0.969210 -0.784092 -0.831890 0.211033 0.783318 0.630372 -0.146412 0.275491 -0.978726 0.148083 -0.800749 -0.765104 -0.975052 -0.709514 0.423238 -0.190689 -0.276333 -0.769365 0.786463 0.081427 -0.494262 0.275416 -0.130325 0.212537 0.157532 0.804030 0.676095 -0.955336 0.103811 -0.846437 -0.784130 -0.324969 0.732099 0.637996 -0.180648 -0.482531 0.428453 0.135363 -0.173318 0.668825 -0.824779 -0.082019 0.638140 -0.333876 0.865006 0.090968 0.263669 -0.798385 -0.786326 -0.072409 -0.801181 -0.097832 -0.233034 -0.954874 0.312991 0.744079 0.776996 0.535570 -0.413270 -0.432477 -0.400895 0.415095 -0.447162 0.058845 -0.129762 0.967100 -0.101155 0.412316 0.104998 -0.647673 -0.965367 0.431052 0.920955 0.843984 0.619992 0.876885 0.856734 0.063784 -0.843792 0.115535 -0.570945 0.604804 0.179581 0.019562 0.034391 0.833533 0.638820 -0.223868 0.317742 -0.996795 -0.678753 0.397117 0.236930 0.650433 -0.057082 0.687511 -0.451556 0.806373 0.814974 0.837822 0.331409 -0.045498 0.019250 -0.918251 0.147369 -0.926644 0.664786 -0.777298 -0.378707 -0.359795 -0.455002 0.684839 0.522172 0.207752 -0.887480 0.364965 -0.395392 -0.596644 0.010108 -0.820525 -0.748208 0.730651 -0.677415 0.369047 -0.083262 0.172881 -0.781831 0.690125 -0.249422 -0.110989 -0.391783 0.320510 0.027196 0.944463 -0.349793 0.536971 0.076410 -0.508099 0.766263 0.025275 -0.742908 -0.959350 0.745084 -0.371030 0.494170 0.298470 0.107938 -0.625246 -0.192748 -0.520156 0.280762 0.218951 -0.174500 -0.451902 0.664098 -0.039750 0.159621 0.114958 0.239090 0.382455 0.471677 -0.735511 0.645467 -0.849930 0.231149 0.884945 -0.343232 -0.412311 0.790579 -0.070217 -0.421020 -0.012574 0.432730 0.147303 -0.221266 -0.539899 -0.451758 -0.184653 0.368405 -0.674257 -0.835957 -0.021397 -0.935314 0.458095 0.099265 -0.298851 -0.055435 -0.219647 0.442742 -0.160623 0.552547 -0.471938 -0.908866 0.638798 0.553396 0.812789 -0.734469 0.788943 -0.051629 0.134170 -0.947770 0.299451 -0.211908 -0.131444 -0.713513 0.214131 -0.084780 0.297392 -0.932954 -0.140076 -0.086310 0.228487 0.261051 0.810371 0.227394 0.943485 -0.234613 -0.610206 -0.110404 0.138229 0.004136 -0.121279 0.316491 0.651060 -0.814708 0.067275 0.570053 -0.635152 -0.806506 -0.922711 0.414155 -0.455082 0.128283 0.460475 0.997221 0.616827 0.300817 0.099691 -0.269418 0.480123 -0.185218 0.072105 -0.568556 -0.630424 0.429901 -0.817178 -0.816639 -0.930903 0.208883 -0.079780 -0.650826 0.619478 -0.653731 0.403306 -0.145003 0.723430 0.869412 -0.660772 -0.288186 -0.730425 0.344168 -0.716128 0.628500 -0.691444 -0.903079 -0.108964 0.621670 -0.917786 -0.113560 -0.499766 -0.939374 0.751597 0.372715 -0.306801 0.231889 -0.307947 0.382438 0.915945 0.525840 -0.847447 0.367187 -0.940144 0.548480 0.477547 -0.098462 -0.317036 -0.777727 0.579699 0.406194 -0.793915 -0.278814 -0.084428 -0.327196 0.712959 0.154963 -0.140150 -0.393978 -0.966545 -0.906999 -0.464521 0.550426 -0.830392 0.487627 -0.402263 -0.254631 -0.796532 -0.289817 0.007591 0.461004 -0.738629 -0.776675 0.345363 0.672930 -0.633114 0.867167 0.639495 -0.469123 0.241656 -0.894004 0.090415 -0.229050 0.033852 0.562615 0.385758 -0.723060 0.852254 0.187844 -0.357316 -0.884583 0.694589 -0.813959 0.853243 0.550166 0.043015 -0.858340 -0.539900 0.373528 0.215084 0.431811 0.014426 0.789974 -0.761140 0.626513 0.190793 0.044232 0.070542 -0.344778 0.566323 0.605976 -0.552484 0.980084 -0.424678 0.054611 -0.636169 0.914579 0.533813 -0.184979 0.578363 -0.365728 -0.248879 0.656091 -0.970179 -0.484881 -0.153515 0.086868 0.372413 0.840954 -0.632812 0.535654 0.039226 -0.968755 -0.556628 -0.183731 0.985376 0.109943 -0.603148 -0.720569 -0.683419 0.566688 -0.218282 -0.547967 -0.297415 -0.037459 0.077921 0.635780 0.706242 0.913813 -0.512890 0.472616 -0.254630 0.330835 0.710814 -0.656402 0.447321 0.683879 0.623213 -0.542839 0.720897 0.856309 -0.018104 0.560216 0.156439 0.001029 0.232212 -0.311897 0.913319 0.347166 -0.788966 0.951734 0.076911 -0.699165 -0.521770 -0.524789 0.163522 0.473184 -0.049939 0.582043 -0.044276 -0.003955 0.167513 -0.647832 -0.208936 0.564121 -0.117711 0.699610 0.862038 0.389821 -0.109301 -0.754563 0.261098 -0.853900 0.776527 0.125091 -0.963971 0.761495 0.933693 -0.062355 -0.959283 -0.091812 0.407410 -0.964953 -0.717829 0.189536 -0.772983 0.128001 0.847700 0.924714 -0.706814 -0.963330 0.225510 0.925543 -0.234703 0.489328 0.249987 -0.345312 0.900454 0.268621 0.667899 0.456483 -0.540049 0.499335 0.395911 -0.015293 -0.600761 0.004108 0.358601 -0.476112 -0.276348 -0.918862 -0.951862 -0.667282 -0.262571 0.583842 0.736310 0.335118 -0.100877 -0.336950 -0.600263 -0.991444 0.927102 0.389904 -0.349527 0.778126 0.588684 0.148929 -0.486598 -0.980152 -0.561150 0.670751 -0.522201 -0.413103 0.099942 0.573409 -0.194049 0.866689 -0.056220 0.579096 -0.990802 0.142754 -0.274803 0.861732 -0.403881 0.522523 0.457047 0.802034 0.715863 -0.892608 0.384450 -0.162096 -0.606584 0.408058 -0.325754 -0.000831 0.554877 -0.612555 -0.500633 -0.181804 0.783997 -0.542311 -0.395528 0.541147 -0.828592 0.455788 0.108471 0.675124 0.863504 0.512530 0.079051 -0.725324 -0.491872 0.689074 -0.196153 0.743620 -0.289225 -0.324477 0.816511 0.012233 -0.925821 0.661121 -0.981267 -0.147668 0.189009 -0.148583 0.442296 -0.748728 0.526996 -0.561811 0.496614 -0.043736 0.190005 0.618535 0.468124 -0.143924 -0.076120 -0.368834 -0.473814 0.466236 0.306857 -0.519118 0.079165 0.423922 -0.815433 -0.458321 0.883177 -0.009694 -0.098518 -0.038385 -0.163810 -0.497037
0.380602 0.276301 -0.788380 -0.277627 0.022649 0.975658 -0.361259 0.047406 0.367833 0.177599 -0.576849 0.658384 -0.558717 0.345312 -0.929730 0.501223 0.266512 0.152661 0.955743 -0.770582 -0.158152 -0.250085 0.048446 -0.718417 0.112963 -0.804958 0.361736 0.971982 -0.759706 0.503665 0.254233 0.673300 0.870874 -0.985043 0.325856 -0.536433 0.150501 -0.811103 -0.829948 -0.927126 0.318452 0.612688 0.018717 -0.341819 0.497619 -0.521410 0.685472 -0.126206 0.664697 -0.026387 0.315764 -0.600216 -0.030351 0.047007 -0.816712 -0.095135 0.766113 -0.183201 0.473293 -0.599371 -0.061101 -0.960242 -0.138017 -0.205764 -0.812430 -0.284686 0.520851 0.965969 0.034023 -0.734401 -0.588474 -0.996752 0.627927 -0.244656 0.463880 -0.954337 0.619257 -0.155147 -0.306923 0.157211 0.414467 0.939303 0.244221 -0.464672 -0.303829 -0.617967 0.000962 -0.708573 0.303166 0.345670 -0.762446 -0.327294 0.970661 0.953709 -0.391567 0.020733 0.003851 0.194953 0.368665 -0.781209 -0.688281 -0.083151 0.948819 -0.283376 -0.006794 -0.408194 -0.613007 0.230077 -0.613281 0.765336 0.364019 0.223563 -0.582897 -0.411482 -0.929062 0.038247 -0.480852 0.008798 -0.331597 0.421634 -0.966416 0.487820 0.086812 -0.759888 0.788226 -0.440039 0.292267 -0.738751 0.334551 0.154772 -0.832232 0.932835 -0.148361 0.212063 0.720593 -0.801193 -0.015307 0.424160 0.836889 -0.172686 -0.344912 -0.107786 0.500096 0.687778 0.214994 -0.203918 0.594896 -0.939611 -0.140586 0.126921 0.964986 0.276912 0.964843 0.110902 -0.748092 -0.265312 0.318090 0.190987 0.049637 0.629829 0.720411 0.281860 -0.274559 -0.600850 -0.568874 -0.134449 0.687918 0.715138 -0.835026 0.824243 0.815623 0.077534 0.220127 -0.731448 -0.803548 -0.960095 0.125900 -0.833382 -0.501754 0.136558 0.465352 0.794607 0.661644 -0.640024 -0.323456 0.945794 -0.897489 -0.979725 0.141026 0.388805 -0.147392 -0.635558 -0.635897 -0.029907 0.242807 -0.591737 -0.352844 -0.169050 0.395415 -0.108817 -0.213552 -0.966274 0.297557 -0.572250 -0.812055 0.995099 0.842638 -0.313090 0.425389 0.761870 0.364206 -0.905554 -0.345529 -0.470321 0.419102 -0.951240 -0.995447 0.924736 -0.050150 -0.242917 0.537877 -0.196004 0.287530 -0.894520 0.512133 -0.632264 0.020281 -0.574226 -0.201728 -0.428613 -0.053099 0.873390 -0.560766 0.299411 -0.463317 0.535136 0.755430 0.306397 0.164315 0.852464 -0.774104 -0.150944 0.650008 -0.279319 0.423214 -0.453793 -0.192291 0.249033 0.131850 0.972379 0.047833 -0.898339 -0.938875 0.008775 0.457296 0.595377 -0.934742 -0.392449 0.533082 0.411613 -0.341875 -0.389353 -0.160275 0.923530 -0.669185 0.913538 -0.177293 0.063167 -0.580186 0.811082 -0.377973 0.817462 -0.587663 -0.301578 0.863974 0.856123 -0.004642 0.064866 0.496643 -0.988185 0.890689 0.646510 -0.982556 -0.575036 -0.745839 -0.311017 0.132027 -0.710643 0.418360 -0.785418 0.061277 0.146188 0.428640 -0.275129 0.917425 -0.942724 0.169218 0.977686 -0.095777 -0.470872 -0.328809 0.226033 -0.425602 -0.602386 -0.839627 -0.362167 0.899889 -0.472952 0.927437 -0.184409 -0.240571 -0.202247 0.926838 -0.178073 0.618461 0.861595 0.793956 -0.215774 -0.074514 0.595049 0.761128 -0.181259 0.437740 0.572450 0.245766 -0.088340 -0.908225 0.507856 0.959430 0.060684 -0.065523 -0.214641 -0.288866 0.535567 -0.029911 -0.200881 0.227781 0.174589 -0.038643 0.067219 0.804906 -0.494904 0.960350 -0.882685 -0.152555 0.443507 0.000957 0.171357 0.031278 -0.619264 0.342666 0.894738 0.074773 -0.899546 -0.642456 0.856077 -0.564893 -0.138455 0.947035 0.104867 -0.898107 0.399750 0.603935 -0.370762 -0.184678 0.989267 -0.615309 0.126237 0.238272 0.769915 -0.509428 0.454324 0.948118 -0.351025 0.646560 0.360432 0.950596 0.593677 -0.469557 -0.871470 0.433885 0.146183 -0.618268 0.234206 -0.994796 0.789074 0.747489 0.128961 -0.038600 0.576441 0.594437 0.245690 0.124015 -0.710992 -0.691203 -0.697625 -0.328220 0.533874 -0.109672 0.448480 0.006410 0.994336 0.705356 -0.569198 0.580705 -0.975943 0.053332 -0.561184 -0.916469 -0.865720 -0.592984 -0.764271 -0.810155 -0.035824 -0.613673 -0.122885 -0.112300 0.517019 0.809203 -0.687588 -0.119987 0.911730 0.271654 -0.306456 0.285455 -0.300803 -0.245883 0.365349 -0.087034 -0.903734 -0.880584 0.810976 -0.322151 -0.109706 0.989709 -0.966072 0.825197 -0.739902 0.976157 0.267952 -0.113589 0.830486 0.680987 0.867577 -0.716369 -0.147559 0.909147 0.182064 0.949072 0.355998 -0.323883 0.246669 -0.396291 0.193181 -0.133308 0.157690 -0.160078 0.703924 0.865610 -0.275226 0.230451 -0.776022 -0.554727 -0.139416 0.645613 -0.161056 -0.022992 0.324520 0.446002 -0.566173 0.998029 0.088868 0.449627 -0.505331 0.556723 0.805263 -0.927848 0.646724 0.988400 -0.550959 0.585668 0.947897 -0.997561 0.141600 -0.839134 0.040248 0.436855 0.834217 0.497825 -0.374313 -0.985232 0.887093 -0.214893 -0.524492 -0.672885 0.234347 0.964126 0.242877 0.687798 0.100938 -0.380967 -0.034758 0.673106 0.293936 -0.256273 -0.707239 0.187098 0.375005 -0.749938 0.231351 0.130778 0.568957 0.152227 -0.395103 -0.304393 -0.784867 0.467123 0.063138 0.081539 -0.521952 0.897240 -0.321124 0.595782 0.229375 0.684943 -0.858818 0.138353 0.316910 -0.721335 0.539300 0.844346 0.415729 -0.792256 0.472842 0.652692 0.950207 0.943253 0.789921 -0.304677 0.263043 -0.552736 0.695287 -0.507465 0.993254 -0.952047 -0.794900 0.330376 0.000785 -0.103488 -0.439265 0.485694 0.283516 -0.452371 -0.924171 0.929588 0.860777 -0.574139 0.491844 0.833049 0.733773 -0.253913 -0.512885 0.309432 -0.471298 0.965687 0.198391 -0.092023 -0.487297 0.571431 -0.772554 -0.422241 -0.381758 0.263015 0.500904 -0.441019 0.977068 -0.561594 -0.157460 -0.468522 -0.847821 0.535621 0.650221 -0.506753 0.296666 -0.325250 0.126899 -0.322415 0.301524 0.958676 0.348228 -0.882013 0.511101 0.433392 0.328586 0.262338 0.637107 -0.007701 0.256009 -0.701772 -0.552997 0.471491 -0.446294 -0.017892 -0.530208 -0.116067 -0.148023 -0.270017 -0.490317 0.862327 -0.143216 -0.847665 -0.143156 -0.820427 0.427442 -0.031930 -0.434294 0.445777 -0.423781 -0.676514 0.706064 -0.559060 0.710177 0.085162 0.033704 -0.918390 -0.348938 -0.316641 0.326577 -0.249921 -0.745270 -0.119785 0.476566 0.392265 -0.439276 0.946442 0.399267 -0.692923 -0.519458 0.308380 0.303123 -0.069415 0.653701 0.258278 -0.111692 -0.345596 0.159917 -0.262076 -0.448037 0.564554 -0.162103 -0.746584 0.741163 0.478467 -0.271017 0.234381 0.557680 0.629952 0.281549 -0.986360 0.189035 0.093847 -0.661013 -0.870548 -0.916095 0.610091 -0.069832 0.090487 0.178823 -0.222605 0.607930 0.530657 -0.747736 0.691799 0.903629 0.312898 0.416638 0.108178 0.031489 -0.486602 0.155328 -0.422632 0.400622 -0.855745 0.324916 0.004235 0.109302 0.205069 0.077879 0.171406 0.941303 0.759011 0.412196 0.015968 -0.243861 0.630848 0.887741 0.031893 -0.937970 -0.538766 -0.464228 -0.818450 -0.966325 -0.250864 -0.116375 0.329385 -0.044458 0.894568 0.410238 0.021179 0.672194 -0.579062 0.858119 0.563711 0.869066 -0.097740 -0.872477 0.425972 0.460551 0.090440 0.411075 -0.599305 -0.415630 0.862000 -0.770750 -0.996501 0.168011 0.868381 -0.208987 0.023962 0.467809 0.414953 -0.520455 0.680058 -0.961566 -0.852404 -0.091213 0.355302 0.954207 -0.416118 0.273963 0.671688 -0.729921 -0.428133 -0.851043 0.565889 -0.774020 0.843500 -0.193303 0.163098 0.191955 -0.819604 0.914033 -0.211312 0.114329 -0.140434 -0.714896 0.079999 0.261047 -0.057340 0.483785 -0.890844 -0.113630 -0.078867 -0.912315 -0.947811 0.467107 0.126150 0.203801 -0.636672 -0.637532 0.280182 0.201629 0.580391 -0.325048 -0.597284 -0.135352 0.074718 -0.162357 -0.813134 -0.147486 -0.303137 -0.169918 0.320332 -0.423200 0.848641
