epochs 108
layer
-6.978133096296 0.439111599162 0.204981062242 -0.537077938542 -0.112824641899 0.286149957934 0.564767958175 0.587524543440 -0.238142257307 -0.184166003123 -0.788681590822 -0.121994598319 0.708461287781 0.941122726904 0.445260696003 -0.179817330232 -0.721646973006 -0.955808371284 -0.555247360815 -0.286508622699 0.565515061051 -0.101197613163 -0.046136471370 0.032571504814 -0.263039469485 -0.475145303724 0.605655940284 0.801541610378 -0.277832449850 0.768129337525 -0.387745407202 -0.432621100420 -0.574211328720 -0.159467008180 -0.748365883934 0.834718043780 -0.666372000677 -0.126498357188 0.900442329272 -0.418773309139 -0.144626733280 -0.362586476459 0.403660933239 0.000453178813 -0.236234498132 -0.996543945024 -1.003716019495 -0.547931210559 -1.086487161141 -0.580210931652 0.787158911550 -0.482844605304 -0.851559607130 -0.451295667943 0.972052701654 -0.154751164569 0.460319076988 0.230378912478 -0.638519342036 0.487658822648 -0.273151793817 0.511752533320 0.586524338557 0.066461208287 -0.030894322234 -0.359741349017 -0.195793031320 -1.851554185921 -0.592286596885 -1.322680025644 -0.119468147427 -1.640112748106 -1.687483253551 -0.968448859677 -0.232324868553 -1.013274142195 -0.164966377539 0.224293847989 -1.175264062147 0.537239098074 0.310225251172 -0.853706231430 0.037218911655 0.688893959734 0.234689252746 0.989040053666 -0.331634056355 0.685663608651 -0.202411419006 0.709228919245 0.572732254368 -1.079755767948 -0.210523463343 -0.329552667215 -0.740159320818 -1.367447306535 -1.728291317808 -1.525810356748 -2.920395056227 -2.533880257768 -0.622433368025 -0.660041937734 -1.845097904320 -0.713853219676 0.302871277554 -0.041983168898 -0.004284905925 0.639952587043 -0.753892457573 -0.088337101352 0.815035687191 0.535987069312 -0.588720895862 -0.536432153700 0.792786531967 0.476179193070 -0.154407094018 0.994997810386 1.210784676778 -1.073090947745 -0.428530206969 0.038948259452 -0.906202538217 -1.370856304142 -2.024685363155 -1.303928169331 -2.933655490032 -3.347881453963 -3.890661826300 -1.872068790769 -0.919636675468 -0.770585498528 0.233554145867 0.077490561113 -0.090513057103 0.649480855270 0.045509933563 0.078089942330 -0.112546018421 -0.764274101792 0.378446660617 -0.100322149372 -0.175137867178 0.931433239459 -0.867806620296 0.486220380062 0.929810696323 0.349831689507 -0.127436670724 0.161362949497 0.216695757472 -1.298478372532 -1.633372688429 -2.220296989774 -5.485756244383 -4.127273026420 -1.970859164079 -0.416255070589 3.119103137320 0.976881079598 -0.349366166630 -1.728644615369 -1.867723465047 -0.182150551534 0.999168801734 0.455158013397 -0.226780493801 -0.951643456150 -0.208523865525 -0.227455412702 -0.323096528116 0.049773268670 0.058630712170 -0.096781703907 2.374533365683 2.022544016309 2.085846129292 1.322075497646 1.476353419487 -0.162228590337 -2.995047623455 -4.644163215230 -8.938205920033 -7.550862783848 -1.331333018765 0.670026857449 2.363137676728 2.389197565526 -0.284048501874 -2.323556166919 -1.244933467466 0.906437459652 0.549192625995 -1.093778288447 0.387208242394 0.789106513325 -0.063962624155 -0.545591123773 0.521020432160 -0.888203887900 -0.674916855013 0.042520557822 0.679014271960 1.673043881287 1.515943505456 1.287330944390 2.374395458555 -0.457538988718 -1.815938512614 -4.154104377951 -10.104169588815 -7.053803772420 -0.651715690594 0.056500408997 3.370223459377 2.250333828164 -2.849214906794 -3.818342805101 -1.607701183363 0.248345944742 -0.648799810092 -1.023365219198 -0.432008776754 0.579735651576 -0.290140374873 0.126213109166 0.746845997658 0.512398079950 -0.165466888225 -0.887471608729 1.436643148489 1.614646800376 0.033675607584 -0.103935028413 2.051925944428 0.206445371518 -0.811033712579 -6.682439189956 -8.344301398121 -5.322040474483 -0.245432758572 -0.208430067082 2.582899332198 -1.947426796699 -4.239031850815 -2.769668724215 -1.078970501891 -2.223769118115 0.046177444498 0.634435710442 1.272659064849 -0.581609794677 -0.162969596970 -0.805391444314 0.718420174375 -0.891295513369 0.369674212833 -0.356142753038 -0.087302758208 0.270714398020 -0.777555842756 0.401682270197 2.384131774864 0.695486842434 -2.217088187362 -5.102962332798 -7.415321151576 -5.841761701983 -0.660108696059 2.577150638110 0.076025993378 -2.250144745838 -1.480136938609 -2.353997772409 -1.825980736809 -2.727343260744 -1.565750372079 -0.016930038136 -0.760189484325 0.582255040696 -0.038527072931 -0.672825556653 -0.538268677139 0.320050145648 -1.098625143137 0.719969195929 -1.179340741228 -1.719550140585 0.384251760150 -0.234750605813 1.608441213330 0.791984193471 -1.427096111655 -1.765581543486 -5.012054209382 -6.774540361772 0.782185772742 2.326334914475 0.592911152485 -3.461730504978 0.141209674699 -2.687148433233 -1.974020252906 -1.193198191095 -2.610370373076 -0.739197366609 -0.340914403098 -0.588390762993 0.770944633058 0.034239314199 -0.097625400911 0.197117897514 0.610822505539 0.046466418142 -1.018009740828 0.248151154009 -1.080166101052 -2.117085018278 0.669070619237 2.418306025399 2.834544451605 -0.055125497372 -5.054711555670 -1.663403363361 0.504263699675 1.252924104731 -1.354858150639 -1.679670701169 0.010910721691 -0.744612812294 -3.030541248021 -1.538097710446 -2.677666228693 -2.000674161069 -0.698256798745 -0.738676315586 -0.745384752040 0.677823270056 0.449239323342 -1.044198025903 -0.097349870817 -1.221474539602 -2.128183852883 0.742727601903 1.237815604605 0.334318181168 1.176661480969 2.516625254160 4.424436184566 2.861819384166 -2.180619566394 -2.683963501362 0.775398983754 2.106498443092 -1.083494697750 -0.541431003228 1.811989706233 -0.290308744084 -0.566045162927 -1.830065212429 -3.160152434872 -2.094838080483 0.199978023043 -0.649535108686 -0.657468890057 -0.518941093102 0.232066536323 0.741906804191 -0.335337400150 0.036166650537 0.181779166986 1.813006262471 3.160065154573 2.381945180232 0.709415891865 1.247670530755 4.997316005402 2.181838666968 -3.465765863289 -1.769140870481 1.424834610957 2.016872662746 0.308683906648 0.897918284577 1.670480667756 1.966087023116 0.549194001347 -0.049691794903 -1.448287315082 0.219155896084 0.083778235793 -1.613312825172 -1.105587194966 -0.547707389765 -0.569888327471 -0.963313313520 0.235528616910 1.374993434304 3.596600674085 1.622699508531 2.699939371415 4.819117353996 2.839991681312 1.464866711226 2.480434369651 1.709953410465 0.467234440217 -1.325091802025 -0.282729263022 0.694244466680 3.555922503177 -0.011499283797 2.190327789617 1.758642409667 1.374969270422 1.384892745899 2.019257422267 1.815375499331 0.283281165236 -0.136447114998 0.328882338404 0.565797417868 0.565018361438 -0.190382718470 -0.222088410212 1.202632157140 1.340644517152 1.974996540277 1.414354190961 1.688784448761 2.454136618499 0.069890872749 0.671657919061 1.134241214756 0.302600011467 0.466240583349 2.402824909918 2.648003515253 2.585918126213 1.561364703289 -0.066843497875 -0.935875936929 -0.492789495368 2.844052464755 1.708429883206 -0.008414376197 0.093649619462 -0.939513233000 0.478018911115 0.636964614370 0.829700025882 -1.275444439282 -0.920965797016 -1.162332021010 -0.108376252981 0.756400073380 1.655621713798 -0.180396347507 -0.164383194961 0.052688853540 -0.537923851004 0.625218192313 0.005476953312 3.913167130466 2.771789405912 2.480295057449 2.445113630097 2.259061861149 -0.164353527727 -0.098707215790 0.258417966897 -0.123355805144 -1.217916622755 -1.386929365846 -0.157807633423 -1.161263198815 0.060315320059 -0.871388256661 -0.787407513471 0.004441017555 -1.504652792863 -0.584992269412 -0.518244012717 -0.877749107397 0.115032466511 0.255578503786 -0.022810199496 -0.884703970881 -1.135159052867 -1.508653332978 -0.857220052795 1.618440168063 1.814769619860 1.042461069349 -0.873149481223 -0.172274342398 -2.423597948250 -0.985681206135 -0.293021560834 -2.902737232901 -0.490298862557 -0.831179949502 -1.943909716401 0.099050741659 0.013511478986 -0.505011850143 0.565669674022 -0.853962705881 -0.335635465121 -0.460402442543 -1.716447202093 -4.026920441925 -3.459073083524 -0.936736591685 -0.461156616826 -0.918567798558 -0.086001524662 0.305477829001 -1.160975868072 -1.450474047117 -0.472608469588 -1.578871600774 -2.660063519471 -2.702109302116 -2.647950207874 -3.025788608002 -3.239560621943 -2.903172979960 -1.433260364482 -1.006434532455 -0.708376028387 0.715679887827 -0.262068841295 -0.355267433611 0.248125531894 0.138760784253 -1.213838022127 -1.397182176468 -2.435434009024 -3.436376176737 -3.191542788197 -3.982411385590 -3.543747323289 -2.362365153786 -2.468322045306 -4.981026881124 -2.163039335000 -1.478310378944 -0.506711163837 -1.603002453477 -3.169344753377 -2.732238222911 -3.754411731542 -3.868353348594 -2.782444238929 -3.430890242340 -2.478833124281 -1.264996781527 0.024105581190 0.889443776424 -0.714935623035 -0.822120695572 -0.681924720936 0.767970257377 -0.939021544744 -1.104165434781 -1.124714575564 -2.549729319013 -3.482702988070 -4.239715931104 -3.257485602277 -2.604469315792 -3.286559200759 -4.100649181625 -3.635359924701 -2.177685657344 -0.517682163482 -2.136103812094 -0.736410521883 -0.104705418633 -2.883123674182 -3.184300712038 -2.307266365600 -0.828081934609 -0.852368137735 -0.822583336823 0.631279487108 -0.957107544257 -0.306795753327 0.988680484810 0.118078506140 0.071451392068 0.306635624347 -0.516774974736 -1.490518234486 -1.277709269659 -2.918825131075 -1.186659149155 -0.782133739877 -1.583401770323 -1.147104867658 -2.118506808352 -1.872807770640 -1.388329647357 -1.318046285301 -0.225068256295 -0.108435932159 -0.636460683477 -2.108358595357 -0.977014412632 -0.778789213425 0.137552039941 0.469744422398 -1.018208278612 0.006558783417 0.467999477689 0.170746536052 -0.320613407237 0.039984561874 0.572152491941 -0.668302306594 -0.545108758633 -0.848135685548 -0.857312607980 -0.701797890981 -0.456683049384 -1.349361762959 -2.402313130672 -1.739984797122 -2.646613475493 -2.049567414855 -3.298836966614 -0.718399097826 -0.212084915815 -0.358337893762 0.465934294192 0.942025461205 -0.743363494590 -0.077751585397 -0.849719475815 -0.747780090685 -0.459485029554 -0.150740379239 0.016851160158 0.793722042705 -0.213366236552 0.924685798585 0.304797718725 -0.703793645510 0.235894930783 -0.268267579382 -0.066171738691 0.663366808339 0.209219960245 -0.829439076518 -2.930780517193 -4.367338693003 -2.351631520501 -2.860107485816 -1.821013381474 -1.783643297056 0.189795684917 0.556860700420 0.095093135010 0.720089325640 0.919789007210 0.456192172452 0.170942246497 -0.143015675240 -1.032010493611 -1.062785287603 0.286363383192 0.221328159218 -0.692816504038 0.604887623574 -0.220980444665 -0.868981903802 -0.471639839047 0.046948501310 1.208938327999 -0.214430060763 -1.364698148847 -1.352689944208 -1.552454384599 -1.939423161790 -2.407212281346 -2.056282690608 -0.304766403326 -1.749148361883 -0.221784469969 1.046501001733 0.713852260638 -0.069805451602 -0.897054336947 -0.438545438134 -0.818789880756 -0.351508132221 -0.777246845130 0.195016929481 0.818342171539 0.088630119180 -0.583344858463 0.409032909878 -0.224684594476 0.445111141579 -0.482993926274 0.128340030073 -0.369981559050 -0.845214476528 -1.028819181076 -2.774003177077 -2.624826617863 -2.737772025068 -3.744430943242 -2.962937958326 -2.782380994363 -2.314217150850 -3.703833027618 -2.202888575733 -1.871755092450 -4.206719695778 -2.285493886062 -1.227873742508 -0.652741580909 0.507395448559 -0.774237950452 0.133765321257 -0.183945770885 0.168270926889 0.238758111337 -0.763555149583 -0.917674625915 0.449789624247 -0.571436161110 -0.836959706279 0.537370795339 -0.994271900651 -0.110923198549 -1.627687284134 -1.701810185466 -2.529461369354 -1.760595922359 -2.606288368506 -4.081935089194 -2.789674911709 -3.262312699949 -3.099588640980 -1.399248862547 -2.637545356626 -0.949195942038 -1.431220966583 -0.726229424389 0.370498341349 0.521729210897 0.766340854305 -0.736924265592 0.241622267209 -0.165611842329 0.433652074566 -0.084787442975 0.764259946740 0.851033014684 -0.916919115308 -0.727548710584 -0.017561719150 -0.714191573387 0.193127960190 -0.486617598595 -0.368057381854 -1.229324765779 0.291248162429 -1.873929172381 -0.600501093159 -0.698037545233 -0.136051703168 -1.503906722561 -0.941903806569 -0.141183860757 0.665862933722 0.210736695462 -0.765358637192 0.643644315832 0.500013711997 0.199944719992 0.400878060253
-2.002284637902 0.214340939556 -0.054107820832 -0.933299716481 0.856968588318 -0.359820555631 -0.955618328538 -0.873638152517 -0.220071509179 0.916615735697 -0.462030327538 -0.723341570753 0.051109515111 -0.734497688963 0.142557338959 -0.495950055355 0.192313963263 -0.028141478958 0.140320495993 0.110095641333 0.875804189682 -0.545639082363 0.371269936431 -0.281666294210 -0.648635706733 -0.343552429667 -0.697630153546 -0.571120152578 0.075896382296 -0.664573581198 0.942013180206 0.765750911141 -0.268995723564 -0.620842521694 -0.385619317953 0.481318641120 -0.563157198916 0.412237521838 -0.604961633640 0.602406177644 -0.907978594883 0.159240023585 -0.508877455883 -0.882801727133 0.699091866590 -0.709837853135 0.423971239413 -0.825352907800 0.266653812480 0.789292858178 -0.906418754685 -0.595735214953 0.543258462939 0.072233634041 0.983531831010 -0.272533151124 -0.121793086448 0.001806079766 -0.734611633821 -0.343553256047 0.041657430144 -0.298827275465 0.851026298483 -0.517725346841 -0.001245214352 0.613000677080 0.474305529088 -0.220132236724 0.289443672074 0.366596866199 -0.482927690116 -1.090631316426 -0.273146973941 -0.054277847393 -0.503410287088 0.531554430984 0.165072213152 0.301853221443 -0.070184721189 -0.217841778581 -0.786506496480 -0.411677356783 -0.251653764365 -0.952333325377 -0.458123035918 0.858213247692 0.061736597985 -0.885804889651 0.895053688330 0.432917412567 -0.658468655649 -0.838873209417 0.691820926934 -0.041576397446 -0.762873847557 -0.884426573912 -0.385991834533 -0.529263641882 0.150055625428 0.149489443980 0.031636743710 -1.029423821885 -1.473429590101 -0.806443151390 -1.536218555185 -0.306841319697 -1.440988889015 -0.135254627744 -0.193882807240 -0.699962116141 -0.792568895750 -0.680242924813 0.147636997888 -0.714267708041 -0.394786158538 -0.762954389341 0.111747367903 0.490175189980 0.138802655972 0.579252362857 0.190287798434 -0.256931600338 -0.710386816075 -0.361346876614 -0.150473098038 -0.928635537908 0.062999033861 0.260242606330 -1.473160005955 -0.614481731847 -2.460412906586 -0.653311176139 0.397542822364 -0.863874541956 -1.204411276121 -0.368422186305 -1.228086244436 0.819220426781 0.345182500615 0.506154670201 -0.401572752678 0.337104502926 0.569028869615 -0.414508213667 0.033356245265 -0.400634464215 -0.373278175630 0.579507840548 -0.730657497066 -0.755864610494 -2.375142473046 -2.116462714920 -1.558806523328 -2.594601365529 -1.130251495256 -3.125221110735 -2.919578408667 -2.661792248459 -2.725991558498 -2.786344150001 -3.114571477327 -1.970806616119 -1.665217811538 -0.878086258388 -0.585689215305 0.409751744650 1.214130571385 0.955507684890 0.856843216038 0.952145548714 0.954891372970 0.391780275009 0.472942078231 0.330216655078 -0.458416186811 0.407140412288 -0.359446412782 -0.323817286721 -0.576750347854 -1.624827525347 -1.640687950229 -1.864071198122 -1.853156498077 -2.642957503278 -4.231859492141 -1.000346706872 -0.664067999525 -0.429499201956 -2.295127527799 -0.434063694018 -0.632270335328 -1.944297472927 -1.874233276657 0.130647506313 -0.047975114445 0.015631142371 0.521555765425 0.065440796917 -0.263675626041 0.497533439373 1.821090944566 0.834597951224 -1.184791422639 0.909868331851 1.148876378603 1.171290678638 0.074472043927 -3.071785682759 -2.398294718840 -1.508337721989 -3.068928790004 -4.026194983453 -5.585708217877 -4.357386011280 -2.679921384856 -1.482050895259 -0.258590134369 -0.963135429836 -1.584481245571 0.663763292752 -0.142398146956 0.311526620846 0.456880700081 0.392828907780 0.292342449461 0.465650021053 0.719269972005 -0.692958679559 0.690176432678 1.460173532593 -0.071777759685 1.445755353807 2.397338871258 2.771809684802 0.230656711412 0.328583379400 -1.329790330318 0.146397869480 -2.411437135043 -3.038948944053 -2.390808189618 -2.418315439529 -0.628957944200 0.291204253615 -1.364778181802 -0.073685524960 -1.809250689673 1.223791622697 0.939232985800 -0.012513501537 -1.661561116912 -0.077321760609 -0.362518306368 -0.216575587147 -0.008406003929 1.192268403597 2.902560172102 3.523776212880 2.788858565304 1.654276287173 2.797500277364 -1.429148577923 1.361506710308 2.373669790313 1.580095697271 1.477813567383 -0.229839771273 1.019724197690 -0.209246593714 1.301258725087 0.570492034567 0.644804686999 3.001401014100 2.632615592775 1.892021945074 0.540487232329 -0.389304137436 -2.137675554181 -0.341855140440 0.010885400007 0.692587992532 -0.524228909934 -0.770799311622 1.290148867314 2.525278086728 4.005719212502 1.040532175246 2.425358879351 3.985283640226 -0.921772230679 0.133048910920 2.675564231991 -0.508776911962 -1.295489700291 -0.143307323076 -0.551846425959 -1.158472622852 1.429606317246 4.948348990860 1.371609417300 3.577628060155 4.165981633967 2.047681015392 2.323420977024 1.915169483701 -0.629844920491 0.545682830114 0.604262041378 -0.512680106869 -0.139588601986 0.858677615333 1.565776897361 2.212124428164 2.789115652710 -0.400364134629 1.949974853988 1.382527500404 -2.013169783075 1.403316921346 3.300581238246 5.232990954789 3.434541896271 -0.337652459044 -5.112648591086 -3.257194171895 -1.067836638404 1.075420488499 0.513777794958 2.862121760799 2.937520847239 2.787690049809 -0.435199832564 -0.329597459718 -1.386604473361 -0.620815782913 -1.040614661214 -0.117035777352 0.276959670497 -0.453822223918 0.948445344950 3.303203359985 2.204216528691 -0.455789578488 0.894592469926 2.986499671922 1.706015446006 0.301169136530 1.206296499360 1.228679672892 -1.177598716355 -4.772969580695 -6.635595046163 -3.503297102175 1.571467451893 5.044538192245 -1.335473370296 -1.957755807355 0.612698614568 1.008833023552 0.876148313946 0.685726177497 -0.982392500734 0.919692900002 0.713918352114 0.582236970286 0.489763589212 0.633858754534 1.308576257235 0.447226263648 0.417051206474 -0.174608517153 -1.727734408383 1.502298246796 -0.309151334354 0.515651962962 -0.751272600296 -2.764054338679 -5.371957118898 -9.846837912568 -8.216254879019 -6.745368101343 0.124805577493 2.035244592956 -0.577371505385 -3.722560296957 0.353964884444 -1.112432945941 0.670260693243 -0.933283484169 -0.701201900162 -0.630370129367 0.718927255592 -0.523010131964 -0.673994857063 -0.697314973639 0.169839068822 0.599956527648 -1.622948620954 -1.459524773023 -1.847824863761 -1.139773560282 -0.359309926335 -2.121035652806 -1.536287659955 -4.875806539863 -9.195008446578 -9.175474013917 -6.097446570895 -3.390634200316 0.126157295740 -0.922090884325 -0.469277888726 -0.312611632489 -0.286380222553 -1.642960666866 -0.975393045220 -0.253252680570 -1.023350674806 0.139472600228 0.199403796440 0.190027047985 0.681320653933 0.758746960069 -0.132069579425 0.019710998569 -1.356288426906 -2.223331163659 0.459406664801 0.753115210902 -1.180787179876 -2.596471465078 -3.292475585737 -8.215276005029 -10.944340121088 -7.017738534319 -3.247295826755 -0.683672400194 -2.200435742938 -1.040652602006 -1.329781713772 0.951861913043 -0.434355645986 -0.686456271174 0.876883360204 -0.636697205372 -1.101655127763 -0.270400081354 0.808458747552 0.869927954925 -0.630076059662 0.587436593543 -0.194170291353 0.389304017731 -1.683664708793 -3.920893413618 -0.277977083772 1.893126153524 -1.525255624641 -3.259964893157 -6.114957091829 -9.061607522071 -8.276056261296 -4.544257732557 -1.670075542781 -1.378906685472 -3.610924493026 -2.159023333405 -0.740356292699 0.771224472264 0.030590039534 2.015165274676 0.822519915323 0.735485948184 -0.817053892029 0.414961820312 0.729295572612 -0.300471917047 -0.421366495814 -0.409663407500 0.858840023827 -0.500084497508 -0.324598767234 -3.067769920153 -2.749598384256 -2.175674298127 -3.420318815285 -6.820817461308 -7.137684438248 -6.466593997663 -4.274809663721 -1.469061001865 -0.378795597952 0.235460280685 -2.958631818178 -1.084167151563 -0.361245111433 0.062725371638 0.880831470271 -0.259789473091 -0.435519636264 0.300307762077 -0.531952817630 0.054692606527 -0.119863947533 -0.288723964036 -0.056031270969 0.480707137699 -0.090061996249 -0.372489757194 -1.610103818781 -1.361652423034 -2.277760093506 -4.506721514524 -5.706947266446 -6.197606591830 -6.206654341448 -3.449608791486 -0.048876286444 -0.532261822177 0.036778470739 -1.237657784731 -2.443330639332 -1.178340585056 -0.566629489723 0.956830759071 -0.085428375290 -1.029942828347 -2.111182151019 -0.957854160561 -1.020070109887 -0.245372108767 -0.388498362945 0.018116459369 -0.868132683713 0.147758022919 0.263550567355 -0.007804654818 0.443052515130 -1.713794631159 -2.226651412830 -2.981638113174 -4.687791982218 -4.874031210388 -5.163770092308 -2.763622822883 -0.848828502798 -2.126112849238 -2.086163554763 -2.465193238299 -1.028659632652 0.466581192814 0.029603854554 2.446647766472 0.838307181829 -2.100702404562 -2.197826459749 -1.250080110693 -0.319759775390 -0.603054499868 -0.574624295184 0.701780309135 0.324706990279 -0.603145799773 -0.570351102446 -0.882535945311 -0.195955252600 -1.666151349300 -2.207734181621 -2.912598098801 -3.354394827984 -3.695280127392 -1.423932183438 0.880312057138 -0.028218309981 -1.998312255006 -1.288389920759 -2.724129962454 -2.383613521741 -0.536126865283 -0.648988907610 -0.045078702078 -0.603183600291 -2.280825254549 -1.941748691659 0.110813794128 0.922170018077 -0.005794440872 -0.369758687670 0.551691730447 -0.995514604952 -0.554878835987 -0.584453238986 0.055878943432 -0.723663913403 -1.937925130388 -2.558579005388 -4.263063335676 -2.419225172215 -1.299569959020 0.181675219467 -0.479608971263 -1.913627631209 -3.059123802506 -2.360419783544 -1.212618787080 -0.366640204667 1.553071125489 -0.334708849032 -1.197330914856 -1.186607292652 -1.302325648883 -2.689782957994 -0.940662823309 -0.221104903254 0.443481049389 -0.405714926609 -0.001466394840 0.437373624951 -0.423759402276 -0.422959475446 -0.124416850606 0.012938195735 -1.043075368903 -1.089430750828 -1.611872553621 -1.246253855001 1.914046413968 -0.028116241515 -1.058873496665 -1.771544644177 -4.081077336126 -1.060650632832 -1.655271810655 -1.229116822612 0.564750272130 0.458119904502 -1.702113221830 -0.962079378979 -1.432576492188 -1.843828336668 -0.421982482049 -0.204826485525 0.394751993548 -0.508894044535 -0.067648409522 -0.143715444751 -0.828596929968 0.923652697164 -0.482236684148 0.233658199066 1.211175782749 0.567134339897 0.339530897097 -0.556993481780 0.931453501747 -0.782570603718 -0.419519180827 -3.222306258565 -1.936832554431 -0.503777216237 -1.674618572867 -2.288310279206 -0.214044580838 -1.592096236836 -1.766437185068 0.478529109055 -0.636461518295 -0.191488129943 0.082292636118 -0.360185471504 0.622997471254 -0.967481460523 -0.646685110850 -0.511658608727 -0.756178278656 -0.247799292757 -0.427607550175 0.582906451037 2.249022482531 1.763589193420 1.694849867651 1.745528075847 -0.268981004318 0.887939012536 -0.607557690065 -1.263584086403 -0.099343229632 1.671520659034 -0.762199116447 0.628693622440 0.630893665066 -0.490413974346 -1.572258263097 0.768319043285 1.030712507919 -1.292349728100 -1.087557989665 -0.514622043243 0.072764880266 0.881402940834 -0.879082739525 0.219791206468 0.856531763138 -0.656149184234 0.495537967924 1.054202542022 1.215903905562 0.534155331919 1.509815560328 0.977749637860 0.554922389956 1.382061084714 1.944114541340 0.967629550485 2.485110770315 3.280672194101 2.303300279122 2.610335259652 2.198828840897 0.801489752578 -1.471101452438 1.088686875430 1.518808430142 -0.716016078770 -1.003878189866 -0.491677500634 0.311474373118 0.559611190199 -0.972337844222 -0.808052013320 -0.135825575414 0.350566616890 0.619822273460 0.133059158898 0.154350193143 -0.469325433109 0.877238402152 0.145009590767 0.324309084476 -0.417425300684 -0.439235292910 0.398516699342 1.504370338364 0.684145204767 -0.383725206267 2.384699172948 1.192709188714 0.375063924978 0.655770998232 -1.201187226866 -0.880076352700 -0.466116510041 -0.953639738989 -0.871704558274 -0.437945028588 -0.546160404893 -0.704358620915 0.915148542468 0.216690886913 0.490245676034 -0.972871940377 0.886244371869 -0.873171408953 -0.021965088184 0.830670284561 -0.015393809975 0.698681137579 0.077997381812 -0.329986510267 0.061218674828 -0.155906827540 0.742154376245 -0.801103409890 0.201863646488 0.140639931359 0.652682634352 0.489134702868 -0.131235970528 0.617560355321 -0.013759582183 -0.700669494906 -0.881956438841 0.472786911316 0.335887521263 -0.615039989457
-1.929051752156 0.864400157146 -0.640005061973 0.506504080592 0.083786029404 -0.960418526700 0.080595344283 -0.723406983773 0.035036201249 -0.579796927110 0.729250189273 -0.311921931546 -0.482888988678 -0.960504545285 -0.884658742313 0.511356296826 0.059207165593 0.656911840893 -0.203553214462 0.773943259189 -0.072578022451 0.447815257434 -0.054130389720 0.486660519346 -0.456552335145 -0.583304999132 0.715261489343 -0.701060865468 0.534641751640 0.266906509675 -0.442030373073 0.561595381964 0.812545301727 -0.696269761914 0.755214648685 0.263686174072 -0.962569178654 0.252392470164 -0.140637308509 0.265339991241 0.479668881360 -0.421769033261 0.254244743841 -0.666850228787 -0.228708998395 -0.872517713471 0.887209672577 0.096297392612 0.167209029781 -0.983253044110 -0.203699843472 -0.711051351130 -0.771766662773 -0.909796012783 0.395991880477 -0.404536800351 0.882386473053 0.850293438873 -0.998331694635 0.362016484221 0.247130891429 0.119994229066 0.145730042156 -0.191985630391 -0.461604103343 -0.187978444370 0.431053477432 -0.893021664674 -0.798489671551 0.599199994053 -1.370329760794 -0.158934892162 0.470755672314 -0.003247665259 0.002161845555 -0.553555884737 -1.849544819277 -0.847916301487 -0.460401091266 0.283715292984 0.192690695639 -0.376969160333 -0.346854826505 0.793668226604 0.861367012206 0.470206043162 0.498658055753 0.953332100980 -0.897879857640 -0.540824204095 -0.692379091752 0.003796999741 -0.122229212061 0.202218415391 -0.640002166369 -0.081930859498 0.720911366537 0.678072875234 0.348205673906 1.465961787951 0.764052078621 -0.488879001565 -1.129375263778 -0.471167760072 -1.092282419420 -0.210579368606 -1.826445023580 -1.950710301585 -1.433872209005 -0.763196585981 -0.964841448151 0.566750946568 -0.256685375778 -0.673274009032 0.016939754681 0.097575742287 0.220334273770 -0.080146415635 1.092187961943 1.216097310701 0.187554916129 2.057044362996 1.553744134359 -0.239391087107 0.062475766941 1.641794186884 1.940874502023 0.382999440342 -0.509217591608 -1.231378968946 -1.375210733042 0.174577131627 -1.311047452976 -1.058980736867 -0.694558337593 -0.652547783944 -1.081691929104 -0.330993886271 -0.256798027454 -0.678811019092 -0.701083170202 0.839002005001 -0.764034525705 -0.285337283510 -0.393581583944 0.361561303753 2.475360557315 0.735609883642 0.414344326205 0.369666971701 -1.715134086880 0.140715759973 0.625255593807 0.735766391594 -0.259188321082 1.062275697615 -0.145377918863 1.309059920416 -1.206714347894 0.773560695930 0.651878676390 0.238944444776 -0.087431909226 0.772058883085 0.587729559562 1.599575552194 1.121313022639 1.172307974724 -0.586989209004 -0.407387947622 -0.395956166570 0.636778911151 0.912293775734 1.275431827088 0.847132014142 1.575251663136 -0.877735141175 -0.111003335229 1.849657456073 0.536694968767 -0.750074830135 -0.562540071453 0.441573628399 -0.944150102210 -1.717356123475 0.055714084943 0.054080902438 -0.011380471995 -0.768944154183 -0.566139245118 0.633954213560 0.887479067314 0.897404000988 1.791031575786 1.673614731462 0.445687728502 0.092376382869 0.250618703534 0.205562363728 -0.964187758570 -0.115838896334 1.705165390865 1.088225125566 0.549063180788 0.852255075112 -0.107270268420 1.054437646431 -0.479600968303 0.431493849645 1.045366635250 -1.500086685023 0.321477426771 -1.717679639815 0.192130022132 0.451064843556 -0.839521002555 -0.234652550198 0.148508190998 -2.093441991358 -1.159074517777 0.301086941786 0.811865707456 0.508412515193 -0.747734608171 0.029686084888 -0.459668135066 -0.019347918965 0.863541916517 0.830151263016 2.488590090055 0.518264743232 0.321921002779 0.842585295825 0.393089173624 0.059121799478 0.762629869207 -1.976969146593 -0.417881611567 0.099278707043 -0.484062311953 -0.448742816678 -3.124074199255 -1.721289364046 -0.690026945004 -0.664387122553 -1.539153668353 -0.525184747285 -0.273572868638 -0.746008293399 0.875140261896 -0.205143129259 0.857992446887 0.988388142295 -0.214440227825 -0.863136183342 -0.893341298923 0.373585168495 1.570287386498 0.184013864570 0.450689448981 1.858101082512 0.535379762192 -0.197579885834 -1.526473350599 -2.203749193370 -1.728095927668 0.255194787005 0.092954376996 -0.945450551524 -0.820396437501 -0.552434512155 -0.958379451445 -1.491004121654 -0.180636394312 1.078316538723 1.443340116218 0.819778073544 0.852929357653 0.259842068542 -0.415945236477 0.008066105315 -0.893535396851 0.753369020670 -0.801921649523 0.930273127399 1.052793540372 -0.339864614696 -1.747396842950 -1.246752736692 -1.432557729695 -2.526477208576 -0.971881013107 -0.856539709121 -1.602681029838 -1.252230150225 0.799132565156 -2.861344430716 -1.930439388742 -0.431169304134 -0.750784256654 -0.045154948042 -0.393237141921 0.277153294497 1.166923539938 0.430645585250 -0.271016108106 1.467496183618 -0.707834366081 -0.366193855259 0.652417165233 0.969684117119 0.684997217983 0.967989969614 1.826500206338 0.362780293789 -0.905388546934 -2.643566071214 -1.772497911306 -1.347591914385 -0.620053301216 0.389536659916 1.547315251636 0.057170156045 1.019690072915 0.312955874627 -0.882068774469 -0.286042489342 0.186640523930 -0.552649430777 -0.797085680400 -2.449148481613 -1.657900937392 0.179326310081 1.602634453605 0.400933094657 -0.233918128407 -0.680566074040 -0.056499423055 -0.631612007251 0.262456274196 -0.656055673463 0.774105874836 1.778266728341 0.699031733026 -0.114186445487 -0.213815421217 1.411157828224 1.417148257303 2.145481450658 -0.437719852470 0.199381735209 1.840324148810 1.672959643909 1.775021687618 1.085245308754 2.257672291243 1.353304073909 0.037953144408 -1.757717371590 -0.218295411570 0.445090329910 0.496849924200 1.594861844060 0.411700389644 -0.804782258393 -0.409296724042 0.429855839281 -0.650773656709 1.029193155977 1.138861228537 2.411837865516 -0.207458860742 0.850137471115 0.696232986370 0.906004397373 -1.357988281300 -1.515442418077 -0.694359486767 0.266865731674 1.617369537764 0.199144369131 0.231329617356 -0.622410290279 0.990286895588 0.546204353400 -0.596953598798 -0.464625628799 -0.965434193890 -1.188680715707 0.399008220672 -0.457842675111 0.465486093131 -0.194585385136 0.533200263334 0.723231930262 0.297025831680 1.075777985043 0.765832212842 1.163153639326 -1.204466723534 -2.195812330472 -0.591796403287 -1.108897285390 -1.665587833664 -0.874753853794 -0.624207731238 0.525830009914 2.193290999414 1.447999192215 -0.684730551096 -0.858350598396 -1.567192707135 0.149495656681 -1.603566951625 -0.908959911773 -1.776045672014 -0.542334939741 -0.988863369157 0.845163554671 0.503866840509 -0.550268418786 0.641952797009 0.789329170016 0.383532979670 -0.133756369201 0.916422504957 -1.756634124960 -2.503518915915 -2.680303540792 -4.302212305864 -3.260204193261 -0.864505688042 -0.392097819845 1.455495374174 1.868813128005 1.020380090094 1.455468311859 1.206476051466 -1.153503017972 -0.837761182788 -0.139934697745 0.101369200161 -0.625887832115 0.488704376197 -0.231775452516 0.188154787030 -0.132724717264 -0.381311853757 0.601993264826 0.275337072167 1.011290789797 -0.347515612006 0.601013110251 0.155159007552 -1.570385603856 -4.918402414441 -4.819941620927 -7.880274986996 -7.149270681979 -4.729510467536 -5.102136414167 -2.391713504399 0.365795070360 0.621198341011 0.237307956799 -0.583579301849 -1.406235938757 0.607284196862 -1.023659314358 0.962904242099 -1.504807873559 2.141383176614 2.037897461472 0.366517299671 0.503718453601 0.267268616263 -0.016264311875 0.673340754371 -0.938677802980 0.756336085881 -0.336468133004 1.855702926323 -1.441432661617 -1.661451140108 -2.910604793963 -4.818120656603 -5.415626312250 -7.318706896522 -8.455999790771 -7.698006324043 -4.757748225359 -2.536397327459 -2.760556294375 -1.284613217877 -0.703865508829 -1.579936641293 -0.893540508132 -0.309051217853 -1.493563985344 0.701886399824 1.498662986564 0.176293707088 -0.631399407066 -0.861047764766 -0.169207190239 -0.498196202715 -0.266710384793 0.802729185331 1.740953129662 0.433379039625 1.326466405830 0.341271119304 0.667708272012 -0.053450122605 0.825257208077 -1.155295389150 -0.071366091840 -1.666050371245 -1.636562554203 -2.054665032492 -1.441711421699 -2.424064458213 -1.958353152015 -2.550964333888 -1.774829779977 -3.239222506962 -0.011716688763 0.345439045876 0.595735802415 -0.516561991430 -1.017741211774 0.686830027273 -0.344288809789 0.561148529190 0.034091962849 0.584418170095 0.607462018366 0.842124774317 2.397758286795 0.448391519216 1.320918530610 1.187401715283 0.699225450593 2.683694793847 1.719311488608 1.060914043547 -1.116772235867 -2.793548168257 -1.726015032832 -1.544291265684 -1.606226658451 -1.421797964866 -1.306172336571 -0.889481382334 -0.737257521340 0.087440564605 0.360975480289 -1.006070399772 -0.707754665762 0.499473994452 -0.912714260568 0.811534468832 0.792563160723 0.064911669779 0.817009469118 0.724684751250 0.773325382102 1.995346193843 0.823137161353 1.301997766721 0.404872152634 -0.213875136839 -0.236226998001 -1.144596476395 1.484696146842 0.001538726637 -0.588402986789 -0.642798069374 0.721453851846 -0.864991992432 -1.411426288022 -0.870378185046 -0.551019178294 -0.172176213449 -0.922087809061 -0.403697717536 -0.470183957205 0.086608883684 -0.087891983544 -0.192456496709 -0.861101840068 0.035813638563 -0.630555265224 -0.375822876499 -0.070334470127 1.566704019442 1.358193860383 -0.051079157032 -2.646383022460 -0.927500710627 -1.069386564002 0.171446527368 0.623160326086 0.349480216128 0.807657419283 0.625863133624 -0.332791630918 0.024860908297 -0.563203607208 -0.947281585178 -1.329874396340 -1.278272781576 -1.062116827188 -1.524695820746 0.206256410341 0.474066252905 0.920047865569 -0.167224577028 0.179497335774 0.303445471831 0.555462154075 -0.077114083606 -1.056200506546 -0.021899555031 -0.544766804877 -1.690209439686 -1.617482322729 0.573675851386 0.322919068620 -0.951817732388 -0.494228721445 -0.511509165098 -0.560948703084 -0.916999018088 -0.357875237986 -0.206556787341 0.691051708447 -0.042364372091 -0.369602643459 -1.482018501070 -0.029925511504 -1.639962195102 -0.013154922232 0.094342910172 0.072974607970 -0.670822130821 -0.955917457255 -0.034023425091 0.945990923335 1.837420506575 0.290637816324 -1.149399944193 -1.386106745370 -0.872121517053 0.964809614140 0.023424001228 -0.520739327910 -0.370903924675 0.367442626922 -0.414513383599 0.623156161112 -0.050418871025 -1.206782223266 -0.065131030308 1.078705683155 0.202981372304 -0.333639736134 -0.579174729218 -1.116678674594 -0.582196703073 -0.716189978321 0.522549137873 -0.688011985161 -0.443245905424 0.999577753613 -0.071162299712 -0.465033125940 1.101294936548 0.481503501910 0.232441600810 0.511770450818 -0.725149022385 0.023351756796 -0.192940189781 1.009025096900 -0.942136738135 0.494011880295 1.476241730275 -0.082647423241 -0.613653474606 -0.573075345473 -0.641364909684 0.246648232830 0.307668723972 0.142346012693 -0.290760859050 0.446269471890 -0.356340907284 -0.396283521598 -0.071603569536 -0.690332314705 0.918553069035 -0.707116036244 0.208391545162 -0.390355641788 0.427087797081 -0.067559816705 -0.050221793301 0.512334451840 0.714741957227 1.264430629821 0.834652177487 -0.133521268417 0.992156076609 1.369857788632 -0.102240939477 0.975015667446 -0.576484759531 0.543004620975 0.264951713836 0.505498373986 -0.516003376945 0.104976903896 0.595058056452 0.097078630403 -0.266229190850 0.488093742679 0.124960616912 -0.807466707660 0.909028054879 0.003964672046 0.340021028754 0.190423817799 -0.742160834481 0.284083952956 -0.407884016161 -0.692076542279 0.087333643757 0.265346921259 -0.043063353963 0.166677519382 0.004897502395 -0.161354758127 0.339717281855 -1.188131192904 -0.726590699750 -0.489629684909 0.440857707569 -0.482360797043 1.041005671458 0.556212083241 -0.510836585677 -0.311786212580 0.633077852436 -0.343979907914 -0.476382682113 0.107674620721 0.144560485752 -0.347458309157 0.144636672520 -0.254984138543 -0.632106317552 0.608968958253 -0.223739206458 -0.475545929895 0.340071315687 0.180513873152 -0.541368484925 -0.572272025958 -0.339408300018 -0.308409408380 0.475071206691 0.005511310082 -0.238862896609 0.509772923788 0.273573491888 -0.065031460365 0.016303543668 -0.508405725234 0.311287815830 0.852021066544 -0.093748555533 -0.524160470940 0.532177055991 0.479030607792
-3.817868130119 -0.056125818319 0.903027334670 0.702522880241 -0.689079750015 0.605149479913 0.880739506341 -0.278569467343 -0.538538722937 -0.744430827659 0.795084265914 0.949734449050 0.000015457896 0.281642066512 -0.542291278564 -0.244354455235 -0.802171604963 -0.827249441386 0.539928996004 0.570850768750 0.646140004203 -0.945003603851 -0.131111222937 0.449182818399 0.688737132465 -0.623107025623 0.515354522176 0.058983018550 0.983728247907 -0.250356875262 0.152341374347 0.380979554223 -0.055314430060 -0.100900726572 -0.365269726679 0.473252035180 0.885708979599 0.888759168151 -0.012037481610 0.056299517232 0.539612686366 -0.365180226613 0.137546461503 0.398137483704 0.445487721229 0.573024893363 -0.467082268586 0.517718804192 -0.219671092800 0.726823718277 -0.440657889768 -0.538540133520 -0.251073794508 0.661318963545 -0.441724713684 0.906250713851 -0.696938581754 0.741886097865 -0.406646017378 0.152296376202 0.382343452124 -0.557177606973 -0.692826820017 -0.400677734765 -0.014255382134 -0.894003486251 -0.045912469367 0.379875947993 0.536603511233 -0.511875544404 0.420551769970 -0.834470439814 -1.415810444811 -1.430523666529 0.397968518705 0.112825935638 0.417211346014 -1.071839423836 -0.748589612155 -0.363900302608 -0.916649508425 -0.353307817153 0.302184915548 0.869045969375 -0.711863450467 0.701982979591 0.914417652567 -0.303958921991 0.348962265145 -0.661137030477 -0.460800771175 -0.042816064997 0.230886074734 -0.407775079900 0.173968182129 -0.598511715215 -0.568024472028 -0.651561145357 -2.614826510097 -2.026047577665 -2.096056031344 -0.691417464279 -0.599125668823 -0.940389081460 -0.495069144931 -0.289235545277 -1.520148471224 -0.250954071234 0.588748249450 0.563008276073 -0.233629032255 -0.856488225173 -0.155813716128 -0.341225078295 0.683407241727 -0.009008791240 -0.654069142238 -0.362329203199 -0.786123769398 0.641804373287 -1.229780545635 -1.020397042329 -1.378675970407 -1.194632964209 0.588734416053 -0.210188610996 -0.877394844601 -0.031426947905 -0.716626638694 -2.107316582445 -2.422363764225 -1.847028215322 -2.208701975704 -1.339812205618 -1.479871386152 0.029150601034 0.749564387346 0.013863180471 -0.804129486081 -0.962672695173 0.544909215025 0.101956366377 0.579665415605 0.325752599651 0.409577263183 -0.174323885808 -0.168309316627 -0.025721244676 -0.270098660696 -0.442823129521 0.023373773292 0.394844842838 0.474917532950 0.826971665015 0.437925687760 -1.206217091135 0.855626487759 -1.040864115792 -1.187794230051 -1.795181020716 -3.216729723122 -2.126680503070 -1.074904039904 0.019297243467 -0.699050961448 -0.939650190440 0.509477591942 0.784321738505 0.744997296863 0.733046696810 -0.080704740618 -0.022853033047 0.340393861615 0.363378605475 -0.514459745631 -1.785246566362 -1.152372246941 -1.306410563129 -0.950707696832 0.241919681186 1.887661958410 2.165705788608 2.744227791134 2.307520504972 2.231297015170 1.738712496804 2.146727883381 1.567552106668 -1.396517467490 -1.973779418113 0.036407656446 -1.101971145471 -1.444560954871 -0.305142992742 -0.384060371413 0.848746605536 -0.046640469064 -0.750687383047 0.009618807980 -0.548925585960 0.779369827579 -1.577401571950 -1.623248767616 -2.016431569285 -1.999422642844 -2.140853871943 -1.339427996649 -0.959510445490 0.743117842504 1.329851414870 1.770841192865 0.555660851992 1.539494946856 1.526920862180 -0.869911661981 -0.368695014471 -2.145753022706 -0.235896762286 -0.296055438694 -0.993184001999 -1.719540698030 -1.168893972233 -0.849224799877 0.096269347086 0.446490351882 0.718583332673 -0.140055963265 -0.807601044888 -0.653590928182 -1.212184359701 -2.020722892570 -1.019253547454 -1.449035914487 -0.145271659220 0.022719798613 -0.419016584072 -0.822542397953 -0.024547608295 0.570050652070 1.954275570037 1.756417840020 0.578297906474 -1.806444499398 -1.731385625737 -0.338788445183 -1.801236557430 -0.673929636865 -0.707740280607 -0.991908175330 -1.130639663456 -0.089051388712 0.363106033684 0.169006197853 0.285180393855 0.189042211579 -0.073953694536 0.294063294017 -0.645310550866 -1.267715918714 0.883762607313 0.109672104605 -0.594831733908 -0.664028677459 0.973518966645 1.355241748652 0.694606304725 1.243971797165 1.699543071329 2.151116543470 -0.299471144756 -0.117712228752 0.596549632378 2.029276078520 -0.439360554259 -0.543813845082 1.172252880808 -0.866220951716 -1.021600877495 0.314314653833 -0.908161873779 -0.122053938509 0.988301215170 0.040150680951 0.671160660769 1.059620949735 -0.769285338747 0.452868852295 0.870105148139 -1.384032391405 -0.490011304597 -1.124816741554 -0.124680809950 -0.102097834643 0.783634676700 -0.931767104119 -0.346427271288 -0.326211559588 -1.916533206436 -1.190733297286 1.449341934601 1.731926915763 0.081770372067 -1.070626548152 0.231365603033 0.476710422621 -2.132086381262 0.265815036851 0.404327279211 0.938264116930 0.020082784839 -0.706214899222 -0.587484029972 0.093149403962 1.415416729509 1.138491606380 0.214451346152 -0.776212962245 1.703864809635 0.303073437861 -1.227826233358 1.150192195660 -1.913015330101 -1.992379322052 -0.350755613306 1.630330845519 0.589717741025 1.635449259302 0.611801844269 -0.630733512857 2.750999403531 1.770313855632 1.233662984153 -0.081628488752 0.099103617887 -0.435542298193 0.747753354436 -0.968172513683 -0.707717125178 0.424332399090 -0.012397079968 0.215799749778 1.596589243925 2.353136041759 0.772093607524 -0.037638365786 -0.673803724069 -0.290264648221 -0.625649015225 -2.626581109866 -4.354718032044 -1.991183853127 0.590071362947 1.524191531679 0.190502232608 2.249240767022 1.240408251330 1.562624164048 1.007649994930 -0.052599240189 0.549359008141 0.140654693665 -0.442500271533 0.784430139272 -0.258416540484 0.841820605726 -0.409516716751 0.707789578079 0.427464039684 0.939949697069 1.477207657489 1.999412511742 2.026278317977 1.558931771097 0.916307902954 0.001123499131 -0.249759632859 -2.123973168317 -1.739087952266 -0.118580771241 1.294121383443 0.226974925149 -0.275258185015 -0.106756610481 -0.528792278532 0.795635972286 0.930410498380 -0.677010829331 -0.556194729756 -2.945274585067 -1.848989070615 -0.018015505293 -0.032351548639 -0.281484673829 -0.164682274656 -1.020491990496 0.688863353707 1.950352015386 1.655812917390 0.610267121120 1.057959165162 0.573270701118 0.410782708706 0.510680356179 -0.921840494723 -1.912666459021 -0.847868559776 1.026296914678 -1.025309934542 -0.484976702395 -0.424063614525 -1.267870351024 -0.405987627292 -0.268887442113 1.498824386396 -0.560074010524 -2.163543905310 -1.659610705651 -1.795161070362 0.631764574840 0.849473353888 -0.425099723893 0.888980674869 0.691006489909 -0.896685251744 0.963300174863 2.660545244106 0.015590448024 -0.076207595749 -0.721425769000 -0.582563578041 -1.160927003681 -1.104849986621 0.178537551454 -1.461910414735 -1.557910825540 -2.010455516779 0.003933532672 -0.608142017530 0.721245042981 -0.446160567411 -0.862988764637 -1.341761780643 -1.366109575333 -3.185893419483 -1.631519942873 -1.276565539985 -0.627545716018 0.597134483519 0.569034709643 0.052746696019 0.300123035308 0.051520814124 0.396644856842 2.455937771130 2.082789678916 -0.520876672152 -0.233054690771 0.082941774992 -1.702588888984 -0.141872316368 0.187410282812 -1.851823487294 -2.144835139602 -2.684560415519 -0.051082987483 -0.429649259363 -0.771125842273 -2.389318786092 -3.209826848271 -3.192984844825 -2.637714141273 -2.488853639096 -1.332769896511 -1.205083724566 -0.342818875230 -0.213874153605 0.032579085650 0.583407201289 0.470567119744 -0.759640006508 0.315231812544 -0.085076896887 0.488566443948 -0.466611679048 1.246779601262 -0.379450663917 0.412913448081 0.396237721702 1.237061558248 1.130774980110 -0.420497396006 -0.607005025334 1.061040292823 -1.809956164770 -2.978799336186 -2.895666247674 -3.470709826711 -2.765336815293 -1.549535237162 -1.249848527682 -2.181529265901 -0.929671988199 -0.124594121707 -0.976759494675 0.726081320843 0.632498289517 -0.620155433617 0.890972790268 -1.495464644664 -1.775937906085 -0.776437808064 -0.568558796916 -1.841455831099 -2.501335004251 0.764548373289 2.655128856706 2.802285994677 -0.740900762261 -0.319744697899 0.662203302724 0.352978770850 -3.627229568512 -0.851347877186 -3.734358558447 -2.437404507347 -1.007995171065 -1.795263922008 -1.387494670179 -3.260630158827 -2.930676484909 -0.656974934613 -0.841229848891 -0.629147698959 0.900514701220 0.950068838035 -0.458245789270 -1.030116406276 -2.031482249483 -1.561106917515 -2.254177554070 -2.964563644222 -2.793293783279 -3.800016175521 -3.598477028364 -3.396608787735 -2.977783023010 -2.653443178407 -2.067407109879 -2.276166914961 -1.882871859253 -0.541013159486 -1.218311937178 -2.207531913776 -1.901472867268 -2.393869466945 -0.839763600906 -2.349515941260 -1.609279076337 0.856323502864 -0.581966270983 0.483372231996 -0.398204291968 0.910153254992 0.661513166455 -1.311625443782 -2.041100778362 -1.875356069836 -2.516483150430 -2.804099459834 -4.705092997986 -5.452044822666 -5.519404272228 -5.344583707352 -6.601579465432 -2.441397599619 -2.810966855290 -1.158800164642 -0.750251259932 -1.474688822886 -1.524218038833 -0.901522885383 -3.310764604202 -2.527598519948 -0.707848594656 -1.576573290652 0.110159020541 0.154786202874 0.626602892801 -0.741615942632 0.407486465541 -0.873771459192 -1.046536890277 0.198266217419 -1.488772367693 -2.953112686983 -2.910076943702 -2.201611917572 -3.736431197648 -3.799876514946 -3.532712834810 -4.723582401344 -4.180775712277 -4.821511590883 -2.547386390175 -2.674535936159 -0.654577110843 -2.924159288680 -2.760887529069 -1.349090065966 -1.291370761786 -1.483305745971 -1.322047115606 -0.210798338184 0.495254191550 -0.539137569603 -0.646113329396 -0.165696731991 0.947336268551 -0.714135274467 0.421221510441 -0.916627730684 0.079117914551 -0.923526740385 0.047745941621 0.021323743545 -0.145363567634 -1.093821762654 -0.621492265606 -0.215067231255 -2.375695655550 -1.804353077970 -1.860000590726 -2.889794739310 -1.139292707841 -2.243548971592 -1.463150555940 -3.333440914833 -1.661528082708 -1.994943888971 -0.018998786843 0.062270205281 -0.356089236290 0.896780080541 0.271577870064 0.809945281647 0.841024742981 0.721786871147 -0.757468912572 -0.854598204489 -0.189338143850 -0.424637268324 -1.711472852134 -0.894354139037 0.478514425990 -1.754028498123 -0.422282816739 -0.697909638173 -1.186209445797 -0.553698274688 -1.394926787627 -3.032787981034 -1.529694706129 -1.656311982866 -2.902014060842 -1.405419012002 -1.410295984946 0.510600817316 2.751751447752 1.847492845658 0.059160902489 0.604943388375 -0.335487205037 0.326650478856 -0.559393225112 -0.718742333033 -1.039071051214 -0.719855354794 -0.587240721599 0.465794557992 0.553602029324 -0.884671192279 0.736433043882 -0.925861051733 -1.064690480260 -3.369696255837 -3.153539182074 -3.004819671675 -4.005896987041 -3.192040558047 -1.244136207550 0.799661504010 -0.225171516398 -0.206206533627 1.176913985425 1.486845634523 1.508240572461 0.823590753459 -0.344947422455 0.309276235388 0.332617596419 -0.812394753591 -0.195544661852 0.747847703714 0.276404217085 0.867206477415 -0.722985038744 0.466539243951 1.513824049897 1.352252031917 1.766132544162 1.501705720738 0.206826547373 -0.122573372978 1.081536283075 0.311391480733 1.479947340681 -1.179746955384 0.579469849256 1.583628702735 2.172661251188 2.447027089992 3.378042803126 2.214752317917 1.076354140013 0.867091083128 -0.662197150225 -0.597406867162 -0.078671451752 0.729981924175 0.656397279805 -0.930900107074 0.103255910702 0.938123589520 -0.190221433304 0.777907381928 0.938778408862 1.332278684594 2.411174842855 2.289790805042 2.375397062788 2.625096948491 2.996545015466 3.383171116216 2.237504236351 1.664379674095 1.281652648512 2.105875900357 1.187096751422 1.573417358891 2.511752576190 0.515810657489 1.149388037818 -0.174816264345 0.240655122069 0.188560296766 0.901551917486 -0.702973560476 -0.996740625321 -0.564938222551 0.466356670561 -0.759395841914 -0.624654395486 -0.574161660165 0.789723731226 -0.551542982474 0.264651518457 0.390099605727 0.116976786734 0.292036100501 1.267970247035 -0.781463103137 0.291082793405 -0.304918581878 0.239221653946 -0.466405823919 -0.212455943828 -0.161944108485 -0.106098615724 0.805502745440 0.298054492738 0.649735495734 -0.734072874120 0.935291693737 0.783244815084 0.074216931608
-5.342482532165 0.736368701509 0.684300978795 -0.855416831894 0.733991556074 0.671066018509 -0.584601299363 -0.531267193816 -0.569211067317 -0.332549638093 0.302146717674 0.142372912888 0.947899427932 0.434270801260 0.123894702748 -0.975505476920 0.171756078696 0.789552662387 -0.994438858194 -0.642880956936 0.288142943026 -0.402333479823 0.401902940416 0.704834927837 -0.511161849375 0.520369969992 0.614457708312 -0.445871598948 -0.091609014311 0.404674427522 -0.929706503793 0.296852411357 0.790117668524 0.754051069563 0.752676134543 0.902972168596 0.471441158839 0.049293534437 -0.191382975739 -0.293721972221 0.622412782097 -0.312934707427 -0.656109004362 0.633096599917 0.263782225162 0.131825439202 -0.960039227615 -0.600465727991 -1.091504329939 0.339196189830 -1.132537861105 -0.879963699506 0.381259041404 -0.517641482641 0.365419017476 0.312003327249 0.272784099508 0.723216161069 -0.712481047198 -0.110227941974 0.449240494275 -0.038428435862 0.424242172817 0.828689966091 -1.214744304108 -0.098680256981 1.048894429011 1.071632899427 1.094953162572 -1.421240494561 0.369024577804 0.436563554334 0.836212582152 -0.261050955009 -0.117800310275 -1.190142865613 -0.973318255747 -1.660752115857 -1.497503710816 -1.595696138451 0.159667586286 -0.851714869612 -0.714474207020 0.624656932486 0.113191913674 0.684504046845 -0.672913796078 0.031321914278 0.080439999379 -0.550962402295 0.357432181677 0.522957634283 0.008811552405 -0.208970151441 -0.181547424944 1.659297517222 1.399222577967 0.933286785098 1.336106557116 1.956843463887 1.021638713973 -0.431912722610 -0.861851122177 -0.492908947517 -1.938036830693 -2.136806923378 -2.108142312909 -2.244690938405 -0.716742397309 -0.101089681000 1.079499492157 -0.177126046796 0.726614201935 -0.720439181819 0.438269576624 0.562195615223 -0.168641964049 0.442808604305 -0.904763105664 -1.093920823214 -0.076610623978 -0.224819386356 0.793572824492 1.503492367362 0.742629173938 0.946753550331 -0.132328529938 1.469272773742 -1.637166570553 -0.644165240265 -0.886983686646 -1.251243389173 -0.801243724233 0.128815483710 -0.545488650496 -0.244233275710 -0.773852099373 -0.682284850023 -0.225663828779 -0.145609686116 0.790168462291 -0.444665545313 -0.191005000729 -0.081854513498 0.103676630753 -0.632022160264 -1.865273939149 -1.209128816876 -0.180154522048 -0.213845071363 0.234385563024 1.408756419213 -1.075844046162 -1.299863039595 -0.763611276863 -1.987751970061 -0.819919242708 0.817534185979 -1.032549540235 -0.685461391811 -1.218955550417 -1.796676939508 -1.164840500991 -0.238056062728 -0.014845703907 0.457269627502 -0.423288955992 0.246506506590 -0.782520169055 0.731334755319 -0.027731983691 -0.544602404103 -0.454996878824 -0.057646555304 -0.285462517260 0.178549888392 -0.435885366721 -0.363230501071 0.688835575114 1.651514446420 0.724951880072 -0.842248830451 -0.860572439969 -3.496112417739 -0.426314447069 1.371929812795 -0.904816217001 -0.202631580613 -0.436719317328 -0.824425332656 -0.397907489935 -2.775048782702 -2.322897358410 -0.861348146691 0.403982954371 -0.012189780464 0.676305508864 0.705478637353 0.904037333222 -0.711050584387 0.486675330294 0.820652081456 -0.908171280479 -0.783484967349 -0.927261686845 -0.676000441015 -0.451852979312 -0.874432280225 -0.923287801141 -2.362386595677 -2.022958151526 -1.103823164819 -3.174764227411 -1.630942376864 -0.860169165925 -1.634809363160 -1.220826917250 -0.938383771027 -1.147804802573 -1.218165875321 -2.932958738090 -1.481747710318 0.207394496798 -0.784233176485 0.439655342108 -0.603216078353 -0.536629381226 -0.426225945926 -0.838117234303 -0.268068169142 0.620871667765 -0.439958384812 -0.922994930915 1.004378990135 -0.268632641380 1.160145320028 1.087986757288 0.579614218114 -0.364088305432 -0.263464939498 -1.494763117924 -2.515165395685 -1.749039587127 -1.294714944045 0.915681429814 0.793098141345 -0.381050164981 -1.909135577200 -2.693311341416 -2.090055771604 0.009842184138 -1.027235024402 -0.521408386515 0.645642770003 -0.634934098314 0.720495449207 -0.237087422028 -0.382196180228 -0.730892990569 -2.192547645938 -0.297402079358 -0.061015701512 -0.894956282825 0.723915144051 2.105040403716 1.760805608360 0.863384411804 1.290113417467 -0.599047563940 -1.178558171351 -1.184774833672 -1.644128592603 -0.686092952740 -0.448417783360 -0.670564121824 -1.884836164434 -4.109096625940 -2.063939492695 -0.375090697334 0.492215406431 0.615189776224 0.693522644526 -0.037461177590 -0.624831370735 0.250211128987 -1.690091312891 -3.103642438992 -1.836308934970 -2.609620828607 -2.564373454641 -2.324222229646 -3.092875355814 -1.957004221378 -2.962745975757 -4.523644965457 -0.795366511568 -0.536333607850 -2.300054733162 -2.094576547601 -2.770699929313 -2.009723996165 -1.050129912800 -2.623918924845 -1.327168862041 -1.882258360126 -1.625981418779 -0.344728620986 0.061694234436 0.549740735471 -0.086941065475 0.800588856409 0.022229757905 -0.656211529182 -0.998029060697 -4.042684444710 -4.259210854654 -5.172387792874 -5.131785312191 -6.185376599873 -7.297775548502 -7.172830909505 -7.436421859582 -7.602538936090 -4.011421297141 -1.098421926891 -0.435647856996 -1.521287728874 -2.479827855265 -2.179829137477 -1.708721831193 -1.286100815121 -2.261682000966 -1.041597946011 -0.118231057520 -0.754518376726 0.224820339986 0.899774880327 -0.395698531875 -0.272825374733 0.728600490199 -1.432662695085 -2.936620511762 -5.774533831309 -6.673629316500 -7.814884017561 -5.195859571486 -7.193698145780 -6.475338173923 -5.694904570910 -5.644980798859 -5.073646569920 -2.447550266000 -1.687555449843 -2.479055985493 -2.949646473173 -3.388549470566 -2.122147110502 -2.561417410782 -1.864986981249 -2.042564984397 -2.539573060832 1.249086828862 1.974848830708 1.616091876394 0.763891856115 -0.010262202616 -0.563939250512 -0.602445191411 0.725239450551 -2.476799537095 -5.303718178467 -4.920189517194 -4.192006770912 -2.226440027008 -2.036612996877 -0.732871795277 -1.765007352502 -0.802259494722 0.904992588285 1.097184692305 -0.477627851907 -0.135398149793 -2.528379428238 -2.069664988511 -2.252557742942 -3.101423075648 -1.663051730366 -2.729921134040 0.603152514674 1.717232114317 3.031966611797 1.100633819138 0.151357676254 0.180662678694 0.312555719961 -0.992006117246 0.029006470726 -0.996245400490 -2.677992904411 -1.715288841307 0.525775529837 -0.900183100898 -0.000706434910 1.479121016614 1.049938191563 0.901636816815 2.001459694843 1.922019820728 0.178583609231 0.441523477016 0.002404195676 -0.064843589851 0.563940408115 -0.975591345694 -2.505073370298 -2.496192920579 -0.637161395361 0.944002128886 1.847315269810 1.930018221687 0.755106840502 -0.323910055471 0.424590961643 0.170727445854 1.054911884893 1.155169627797 1.358672480817 2.469281330193 1.695322359944 1.325894716987 0.339165940720 0.369135010141 -0.376796083400 0.390126122603 1.927700668978 1.948066212233 1.276301478466 0.298868450369 -1.121358833912 -2.047240563083 -0.688472598295 -0.413508874373 -0.740899379201 -0.757616784221 1.301949577241 1.926274648174 2.021165311529 1.461307984538 -0.165788947301 0.135687080629 -0.973966735517 0.731298210869 1.399138197114 2.846857916600 3.185474310559 1.654837048004 -0.007986105669 -2.471813033898 -1.592751561584 -0.902498878829 0.477915439616 0.128706601364 2.395866518492 3.139834921998 3.332402884746 3.395668395212 2.200090638105 0.029378400158 0.441543651825 2.697604088192 1.926657204857 2.321248611294 0.357125243918 1.294361887942 2.658515707020 1.621989282476 0.445377377952 0.443531017707 0.102273728926 0.439699616365 2.562922797534 3.471073946804 2.212406664838 2.324055097223 -0.689135926502 -0.195937204627 -0.138576274792 -2.144278573503 -1.709764696551 -1.596859417354 2.463972807462 2.853919872522 2.925816920074 0.909254136207 0.693104290549 2.252224917496 1.174407358173 0.209260813050 1.629117305819 1.471491001180 2.272583061314 3.355867416921 3.074877495713 0.210788915810 -0.045748478714 -0.244240899366 0.845484813361 0.065506527308 0.802292229184 3.488267832780 2.116572989951 2.555200058954 0.541888293250 0.251679932522 -1.203455330188 -0.946965121164 -1.831006766307 -1.038447071042 -0.104986923437 3.134424549029 1.747313393390 -0.601762471263 0.061024290580 1.366525983530 0.528491118921 0.992610818641 2.739122294088 3.730953922880 3.424913509065 3.419695253047 1.780111098918 0.618255953613 -0.373925299952 0.814335896385 -0.516412114276 -0.335803738475 0.676006335057 1.620708701447 1.445272498691 0.181680986997 -0.003596825807 0.708520070338 0.054159832940 0.311955090418 0.771278923860 -0.966634565058 0.460478268072 -1.334862004528 -1.074016148264 0.042939143970 0.747306390983 -0.338684479033 -0.875067578705 1.096573325695 0.675528430739 1.857732262122 2.145681819679 1.273060803903 1.121688643266 -0.096170530364 0.381170679371 0.268842214061 -0.914648592175 0.734029932226 0.712352102241 0.755796369314 1.049865155059 0.136284805335 -0.512549319529 -0.162179192383 -1.508734169548 -1.525474663625 -1.163560945296 -1.912523950861 -2.752096139090 -5.023471088601 -3.994948482305 -2.507532863635 -3.320019109880 -2.127826945074 -1.111165435327 -1.343622912150 -0.911465800963 -1.244277723554 0.044014879157 0.335140519131 1.169977077725 1.113253303378 -0.111820424178 0.192380782282 0.663532550231 0.622565670633 -0.451026092426 0.764001629360 0.379815731568 0.183740091865 -0.286492880988 -2.192484945196 -1.336716254744 -2.457514157267 -2.770946058021 -2.587983264504 -3.900249020939 -3.250673325767 -4.162798346676 -2.444121258399 -3.899340116026 -2.615211305019 -0.975718752959 -1.131548424542 -2.798891152180 -2.432405452115 -1.071019747398 -0.399951807923 0.807327308807 -0.092997001488 0.644914913521 0.742227552098 0.763562747348 0.078337214286 0.258617090703 1.228252211402 -1.195501085594 -0.679049632206 -0.245074214923 0.446376932991 -1.862599438564 -0.935645442779 -0.767229616311 -2.750918209169 -4.112402546490 -4.690123638099 -4.294861819754 -4.120281018687 -2.565429389397 -2.268431841762 -1.648641375423 -2.076099761929 -0.412587750823 -1.740589319849 -0.556023179379 0.385791610396 0.627491910447 0.280447541332 0.753630266424 -0.765510248095 0.395823399347 0.679518801804 -0.619617054431 0.076625029480 -0.936557295782 -1.841899397630 -1.534176628671 -2.810871605676 -1.666425313287 -0.628027970890 -0.267061511325 -2.633745822655 -3.709462903695 -4.279191771680 -4.484246644060 -3.174334283078 -3.249040289893 -4.251619963358 -1.941694770649 -1.674710377945 -1.587602079132 -0.685728939914 -0.173388152313 0.195475862134 0.228891418210 0.959201452865 0.112549102683 -0.212773128620 -0.311986975677 0.410530806277 -0.429264730055 -0.523314238176 0.237264429512 -1.731336734925 -1.349508842305 -0.550619028892 -1.067964866822 -2.015888590089 -1.565797348531 -2.247270438064 -2.163461125875 -1.783471387081 -2.585510455547 -2.188094450140 -1.866273801248 -1.794706879069 -2.534792640556 -1.016809736202 -1.065384108318 -1.706374837951 -0.545207060122 -0.410418715589 0.205991050858 0.171003513315 0.010429897307 -0.419197984542 0.662290091072 -0.391934551307 -0.502134146439 -0.359791576894 0.910055397183 -0.128519156106 -1.322258976663 0.330501093014 -0.743174707646 0.507130353151 -0.048296127438 0.382348983923 -0.854974736089 -0.818435582935 -1.922219233091 -1.712432260153 -0.242233562791 -1.522635033795 -2.441230988876 -0.655635654451 -0.092930159023 -0.983552553178 -1.086793740754 0.122164419892 -0.909907325200 0.099891718208 -0.754388986258 -0.262410642869 0.320275679449 0.568571220152 -0.396796897694 0.470334376543 0.207370875023 0.305245030254 0.148897036534 -0.750873227364 -0.421230435263 0.846544067421 1.002446840037 -0.685956334233 0.169204888569 -0.145479355931 -1.244583534055 0.598482722731 -0.860370829600 -0.268757676414 -0.041215001163 0.094787408757 0.354678974508 0.406379173420 0.088125524169 0.890880529678 -0.464464379629 -0.074049047982 0.846604677233 0.565109418692 0.818786722742 -0.756116290946 -0.351619286264 -0.270366202549 0.951317358680 0.315936799008 -0.956443952059 0.018904340092 0.371445367809 -0.157246655395 0.925185074507 -0.133552426234 -0.700493367678 0.948978792104 0.187817387790 0.332656102402 -0.299529798489 -0.311667806598 -0.253649080199 0.074152214136 -0.634462767584 -0.380285542679 -0.650007327336 0.038464274424 -0.883274174027 -0.758235140403 -0.734705275074
-0.882938493987 -0.211424557184 0.778438457533 0.329933404495 0.689714797904 0.093181625329 -0.902076879372 -0.329662207201 -0.030293370844 -0.745965028668 -0.510229491110 -0.551824234514 -0.987329027940 -0.203239046915 0.968861798587 0.712981962973 -0.195235150814 0.945900815711 0.535574078894 0.281934908075 0.833518383632 -0.068476518454 0.632179068617 0.448845141441 -0.455631933997 0.827595960289 -0.955984632622 0.032686344654 0.571592577117 0.601792461524 -0.006551640078 -0.511778632595 0.595229577009 0.084358841439 -0.615701603877 -0.326860394958 0.230803776931 -0.374611683490 0.124939359741 0.048488542431 -0.268891142943 0.185949207396 -0.505354315048 -0.514582626637 0.754734292114 0.121255038222 0.258449221578 0.392833468087 -0.405705263208 0.031136540687 -0.414363079646 0.731978386682 -0.125917712835 -0.804290888366 -0.934866671972 0.474762533259 0.138754058428 0.029952760473 -0.350023839086 -0.544793313118 0.778388938094 -0.959104964553 -0.096706041745 -0.656255063692 0.682428455436 -0.171122957329 0.357056205749 0.072384296172 -1.034197643032 -1.061705685169 1.014996315735 0.436858941070 1.081823146329 -0.179839805612 0.518620318528 1.768113511343 0.069496754761 0.619107433954 -0.034923260164 -0.451394109980 0.944239098906 0.070863462729 -0.486533920559 -0.948657127228 0.341626202240 0.786248732739 -0.457763541181 -0.437838585185 -0.164879531705 -0.270540976943 -0.894535963061 0.100371900619 -0.909376931685 -0.915748560994 -0.615285436098 -1.874984833825 -1.450670615208 -1.834968742875 -1.379988643170 -1.717056779892 -1.093829636987 -1.354983730860 -1.518108904697 -0.342153165743 0.965710163765 0.497608972741 2.502298306647 1.713459556737 0.561869939938 0.489585220259 0.149213394616 -0.593523895064 0.437219207268 -0.754079235715 0.669512773798 0.236453499026 0.405325223501 -0.523355759184 0.047440048434 -1.307553413189 -1.025357975253 -2.262060055248 -3.427096731615 -2.495609211126 -1.471822343323 -2.410819369686 -3.385308939160 -2.596675342965 0.451039804962 0.849025060858 0.053777289730 1.010212855351 -0.895968476473 0.452658379284 0.577223100522 1.277518580694 1.417982587611 1.444501631493 -0.439010049492 0.907100887910 -0.645672369534 -0.212494231272 -0.800764264559 -0.932489380805 -0.997757023524 -1.154411322695 -1.780212099432 -2.376364791166 -2.208529595600 -3.242975237480 -0.853071493526 -0.003279320242 1.605185792345 -0.324285521571 -0.677146262462 -1.662444836634 -1.488296138903 1.007751592763 2.791032859058 3.113537482976 0.348069948839 2.588607767518 1.734007659646 4.302615164740 3.647223346433 2.992089744026 1.931597023835 -0.494347888290 -0.465061528851 -0.641980138964 0.971212763997 -0.652831105018 0.022501635280 -2.460353636384 -3.224534990042 -1.858714552086 -1.486008619804 -0.705693353376 -0.293935817637 -0.107532934786 -0.840678825824 -0.028706727002 -0.134504464030 1.242651022227 -0.585414907560 0.144173509727 1.507610532116 1.021972077422 1.771241846084 2.058036112117 1.422567277936 3.303779580316 3.379812486349 5.888113908704 2.642603392343 -0.468737631562 -0.798196151103 0.707217145046 -0.391267351737 0.626991943421 -0.324851187782 -2.696317659890 -2.034401271296 -0.550681885604 -0.314924038188 1.138091145828 0.015839585622 0.497728060318 -0.442378140091 -0.397310115171 -1.965310736480 -1.142425933200 0.893649363441 2.223211388811 1.858876923090 2.292766981316 1.996181866741 4.538321857929 2.832577132754 1.730866877453 3.515172794948 4.163751691119 1.102799467493 0.465061992844 -0.873867992171 -0.000286923304 0.343848029865 -0.558564020241 -0.513084059110 -3.596775368647 -2.095111714068 -0.658437629497 -1.028521201073 -0.414979888983 0.656504044293 1.777746872823 1.564073015678 -0.263890114308 -2.061529686483 -2.768353507125 -1.494000956547 2.530214685794 1.965246139690 1.036769683516 1.461356322070 -0.783258755701 0.624964525445 -2.298862809475 0.641987667408 2.329476022903 0.781378572456 0.326072690250 0.443167252650 -0.853525987278 0.694442742206 -0.629529845532 -1.097355888362 -2.405529121981 -0.915787995125 0.456228565114 1.043718497903 0.917642078899 1.006348065135 0.832877702803 0.991885441338 -0.720897910155 -2.997215705066 -5.784529621751 -6.587889178033 -7.435235953706 -8.046397613439 -7.690343431420 -7.087980587405 -7.338129814287 -7.693575766807 -6.410162297273 -5.032316285644 -0.691092624361 0.508712592047 0.402551902288 0.793116921878 0.977383159506 0.020319072330 0.000219689177 -0.525983884406 0.221914039154 0.167924017578 2.535065286141 3.703228959420 3.370584147214 2.057447533982 1.386654000520 1.335469857461 1.762628294399 -1.388003529888 -3.505467179427 -4.681205060786 -5.907334326573 -7.756630628964 -10.048735230259 -11.377854226120 -11.311387309323 -9.694973482867 -7.232117366391 -5.399988724798 -1.458337536117 0.794888516530 -0.414911881157 0.661364037987 -0.198950778154 -0.307607571094 0.008954888062 -0.495476608403 0.714856930942 0.989390844745 2.734189526877 3.334806846082 -0.325792108348 0.503780783857 2.055304671698 0.404989958690 -0.340611758484 -0.016855061696 0.019616742654 -2.010359736863 -2.150104393757 0.605703369075 1.039057869819 -2.130702611547 -7.179264553409 -8.057566259040 -5.697225991640 -2.903892550082 -2.907250281753 0.991501384390 -0.449726028841 0.215385527237 -0.433116074115 -0.368520416635 0.592615505059 -0.572556177484 1.118957885659 1.182759713233 1.879364474481 1.503936141648 0.689633867779 -0.700353007376 -0.341244553836 -0.660970884612 -0.888737320224 -0.022689765035 -0.378978555885 -1.162634345088 -1.309187475211 -0.165427955732 2.102011723918 2.110826417794 0.282545552019 -4.139190570497 -3.856209171023 -3.109965929508 -2.499710310688 -0.090971536031 -0.276155592105 -0.509774737169 0.596626604947 0.005488397282 0.360721403393 -0.868637169778 1.425728844920 0.210073196942 1.721885306634 0.652332659538 -0.557483592730 -0.163270436866 -0.713765119966 1.023034043769 1.124837203058 -0.142296675680 -2.662479006634 -1.890228880410 -2.985673110103 -2.155241240629 -1.813716579867 -0.559534389253 -0.238791506638 -0.584573677698 -0.408309099550 -2.732308186736 -2.422052906715 -1.467144669534 -0.303428587593 0.362202812041 -0.364092387998 0.574457851571 0.577103670620 -0.274845800171 -1.236503230853 -0.556797295771 -0.512096606552 -1.628106374498 0.158042638904 -1.820162852977 0.420992300086 -1.128742435942 -1.328491419191 -2.541022535946 -0.608005349250 -2.375072364142 -1.918555708328 -1.834088397618 -1.622631487007 -1.986582028735 0.392769015061 0.069120551673 0.358648699759 0.258997875997 -1.513244376437 -0.469878434249 0.624755641846 0.152454985520 0.482722780488 -0.815863432755 0.203046896903 0.422880397836 -0.640593189625 -0.907568961237 -1.857085677711 -2.511496591527 -0.493171689657 -0.434815951618 -1.535483607094 -1.854097587038 -0.587009437242 -1.828580142576 -1.776523961998 -3.593605780114 -3.211188367613 -2.439747733803 -0.661720625117 -2.225473742334 0.004812836639 -0.630233816223 0.425844361177 -1.236176656496 -0.993709490628 -1.770195332715 -0.054189521069 -0.633242526642 -0.179871432542 -0.184408776211 -0.420844071221 0.818432749698 -1.645323950532 -1.188180048785 -1.730221032655 -3.836646736578 -3.159151740774 -3.366573061483 -3.355539959327 -1.380919179035 -1.063186590720 -2.687832195990 -1.706798372322 -0.500051747970 -1.202395414091 -0.920582452880 -2.473033535700 -0.251813387531 -1.840874103618 -0.774200430228 0.447686544251 -0.034596736634 -1.064365711532 0.052645225392 -0.035588964431 0.172675164600 0.391329229420 -0.816493855884 -0.268371040524 -0.452213392078 0.263069915392 -0.031729949943 -0.916014002322 -1.546339937918 -2.528444456707 -2.138978456288 -2.423822279798 -2.058979107918 -2.407484953545 -2.922746959713 -2.345015076918 -1.306411736642 -2.925705002598 -1.546134486309 -0.584524138243 -0.240713082283 0.365823220814 -0.777663856458 0.175600820126 -0.108564319673 0.293214304313 -1.183036232121 -0.461562821256 0.665084726698 0.848959222099 0.302942909354 -0.691394569615 -0.222912918373 1.928009355047 1.863989078762 0.137603248603 -2.165948332875 -2.694025616681 -3.054925811421 -4.252569221901 -3.691225797273 -5.314712760984 -3.508887829823 -0.731692751677 -0.346783134578 -0.998137200106 0.207199710775 -0.842500282103 -1.295075971272 -0.048307444894 0.333862426472 0.480014956775 0.574804760419 0.687356535464 0.341380411182 -0.411535790519 -0.157433322276 0.397282568489 0.264826736873 0.272241071162 -1.457851145094 1.202283168360 1.378175811281 1.220670599460 -0.726936945316 -0.380456952297 -1.574925891876 -3.348029751338 -3.028039585717 -2.299655037802 -2.482832227796 -1.134057892660 0.571387725756 -0.876253321215 -1.309650160773 -0.918479368361 -0.125433217388 -0.563767833076 -0.588228923303 0.376942304576 1.150143518320 0.901561678781 -0.263498173477 -0.789612027600 0.240856063914 0.506799233192 -0.699611820442 -1.052059137658 0.464623246501 -0.264823401692 2.617882784917 0.480127838790 -1.219780167566 -0.068631526272 -1.277403203389 -0.534445682413 1.434610878121 -0.279133535674 -0.144516606603 -2.432211587514 -0.191362441068 -0.794168324987 0.695942653873 -0.066045797466 1.277361656381 0.661447195211 -0.938908055909 2.697514965137 1.471452408723 1.093047515147 -0.055198752799 -0.519556278041 0.049313128253 -0.834201302068 0.318712954703 -0.388163500578 0.269917654470 0.954421069107 0.514179705004 1.162735384684 1.501761215675 0.735639574794 0.105254136445 1.470841520569 1.761435234276 1.460229960911 -0.005874797696 0.872386586182 -0.474424690168 1.463826361908 1.048323543869 1.500502139202 1.064830586040 2.750536854114 2.735932514542 2.741820755089 1.299636019905 0.861888191317 -0.737760990961 -0.762900650510 0.871949301192 -0.772655621138 0.622818707374 -0.445257863821 -0.632320433642 0.254127974653 0.574074346696 -1.956931955989 -1.685122362652 -0.000279012365 0.638459783429 0.096704140919 0.831797180332 -0.545172146073 -1.081373891487 1.548159485820 0.377342148478 1.143897299006 0.826007052905 0.220157585210 0.678942739822 0.525147441552 1.230666961918 0.905271801278 0.282517613500 0.439820849407 0.829244523078 0.522769042103 0.221999345748 0.522884193555 0.346887286359 -0.395470717180 0.292635795666 0.051259064644 1.804821211797 -0.175133617739 0.220366320476 1.963195880803 0.374865380269 0.842969698218 -0.167332275758 1.056965721734 -0.202087893197 0.810184936189 0.080490410651 1.729277412692 -0.620189020263 -0.575712703218 -0.950140892845 1.336912431456 0.861186656596 1.974269646277 0.581602118302 -0.254855311824 -0.383077809487 0.824347660743 0.416131401940 -0.416647579016 0.016584125080 0.322904384627 -0.172390310894 -0.903095478589 0.566108727323 0.518953814354 0.812970298916 0.399473531952 0.448367276958 -0.922482161673 -0.646276734572 0.595146180766 -0.165973538985 -0.774604582491 0.143161019753 0.410146970344 1.676140464564 1.205956645548 0.731716040921 1.776175707762 0.092344484588 0.791166844782 0.218066940511 -0.685041112352 0.912143007002 -0.482897853716 0.511451345140 -0.167621395941 0.542555501237 0.703102227785 0.473371398731 0.004767081608 -0.903503597381 -0.564155233000 0.002079515186 0.424854247889 2.659968648419 1.148221440034 -0.471698550710 0.669029564871 0.766791203038 2.075540678852 3.034670888302 2.237580918326 1.443487562075 2.919806679071 1.934444849433 0.083459208147 0.297932199914 1.237035193207 0.967383578166 0.076084924612 -0.798291050245 -0.077445253307 0.878222597263 0.411889066385 -0.893983913312 -0.355215739685 0.227018375724 -0.103863770173 0.663589007353 0.225323832866 -0.697328235510 0.629406752746 -0.032607841272 0.425131118189 0.048931888080 -0.047828246575 0.265886899647 -0.243152380414 -0.174262990492 -0.227481156791 -0.727919421833 0.601611180770 0.049914585383 1.412239475169 0.901796819886 0.830443601196 -0.332252450255 -0.037922149152 0.430288717654 -0.562910759245 0.693835895498 -0.729649215087 -0.014978918568 0.451215553413 0.282262187979 -0.996453792943 0.700509512827 0.389382878241 1.010893947267 0.817181446128 0.373344986033 0.085418318760 -0.931184368573 0.997209930296 0.782161133921 -0.626624444038 -0.608731188049 -0.735449973038 0.579875172581 -0.599896897547 0.652694306927 -0.767706675152 -0.176886413635 0.718840958770 0.869706686117 0.068645293502 0.469468500751 0.949169171209 0.100678281789
-2.464936749413 -0.273193587504 0.019158600218 0.609806960488 0.020198694141 -0.787661557048 -0.987632774331 0.560833206064 -0.517324760273 -0.518245143996 0.438565921178 0.250626770847 0.538498220313 -0.442074217505 -0.848520474299 0.776825226938 -0.011200430571 -0.691338406223 -0.389393096819 -0.013562670744 0.177504572324 -0.980331464969 0.578193733652 0.703773070314 0.462891108382 -0.760211011657 -0.349200758934 0.120631024633 -0.637207184844 0.797710488385 0.585339954138 0.580101262015 -0.472114742459 -0.864639909786 -0.282394873612 0.549049976057 -0.803850593166 0.497029996935 -0.982657883322 -0.518940314850 -0.050867738096 0.068855604513 0.521420885333 0.282069416352 -0.190183780927 -0.225206168096 -0.116816172617 -0.288059700916 -0.925484621901 0.541280129366 -0.413567805919 0.298442852049 -0.838728275557 0.718670573236 -0.932854109691 -0.415421238657 0.327895860436 0.773098276591 -0.725768983283 -0.642503383778 0.186420349227 0.000744371649 -0.118708708267 -0.973688022230 -0.314221303312 -0.014350554258 0.729133691599 -0.382023543162 0.732145986003 0.817560620517 -0.314015327037 0.487326734291 0.149271941672 -0.631099923340 -0.815098306532 -0.137033297608 -0.090580880314 0.776858223441 -0.651334960499 0.752831273758 0.895242708444 0.434750576739 0.059967650240 -0.459089317409 -0.194734809329 0.875246698435 0.477653408989 -0.801405564329 0.728778914101 -0.630247200962 -0.436997653138 -0.834833659757 0.085391952168 -0.182522751645 1.037227603592 0.315727385356 1.478884982377 1.036250287454 1.178658007157 0.826991757029 0.941313033599 -0.319375520988 0.439648323520 0.823101128067 -0.561984349702 1.358260652242 0.281279176939 0.452469019880 0.377539149111 0.454007590970 0.713128301054 0.599144671907 -0.317696479117 -0.311485440373 0.126035196176 0.645834259110 0.848342451925 -0.282795019509 0.659817497604 0.936681208230 -0.361599447880 0.129718347242 -0.040300450623 -0.563643487236 -0.391679995691 -0.186199855015 -1.520326563324 -2.023070756245 -1.129428187176 -0.945631116849 -0.697219565898 -0.135968529521 -0.491630407424 -0.526161271623 0.409460793065 0.494172240980 0.024108055132 1.097609213527 0.082474903547 0.094847834291 0.107141130523 0.787607248568 0.421483242865 0.973452888932 -0.675664543877 0.691134334734 0.702588683099 0.483307623952 -1.015268157060 0.619329249041 -0.951528735629 -0.617478391184 -0.452700202793 -1.470510032044 -1.750481002416 -1.238997862701 -1.369824605376 0.615497298352 -0.618885897052 -0.238777141011 0.476543523563 -0.343347590138 -1.633859943655 0.720556504308 0.965629029968 -0.465186126003 0.106783285822 0.349700999651 -0.295714361731 0.444381257611 -0.420152207758 0.940684210005 -0.114517973652 0.070724983938 1.062075887077 0.933039450802 0.341093508208 -0.248456894195 0.934426065478 -1.548654053472 -0.882562801025 -0.160914347073 -0.336111232360 -0.031408050986 1.156051712159 0.592644490981 -0.222987396513 0.658572094517 -0.484156513731 0.367364372193 -0.480411487408 -0.651498685156 -2.260801657579 0.104388329551 0.622305338661 -0.699521522966 0.347829813595 -0.523477387182 -0.453399077558 -0.145031372804 0.412728237015 0.659326598515 -0.242872960453 -0.330109870784 -2.136688677268 -1.831476315661 -1.349263795601 -0.360844782868 -1.279424469568 -0.583138558396 -0.173324021048 2.088425827539 -0.133110573044 -0.236212419259 -0.222062938327 -0.287397960410 -0.329924586131 0.387752893535 0.504875129955 0.017131343944 -0.411554013088 -0.797932162999 -0.609847046045 0.142053082501 0.564381779223 -0.234734439844 0.523818489641 -0.555273258970 0.652125692709 0.909188753133 -1.485249621173 -0.966642498421 -2.076035517738 -1.633605535826 -2.628633602379 -1.773518864542 -2.290288503319 -2.332734386795 -2.451626644854 0.282971533911 1.089486762781 -0.355164517704 0.397368206551 1.744539112051 1.290223630029 1.283977296920 -0.396590730617 0.145309915721 -0.104571493872 -2.935204160169 -0.232227046012 -1.029584596492 0.486706185159 -0.376175318047 -0.094720274025 0.097151134067 1.011760781864 1.165238527095 -0.587674738322 -1.499120718905 -0.397695086193 -1.657960691748 -1.852807276449 -2.808935218125 -3.734386736013 -1.742155064963 -1.972528328064 0.520311509482 2.025877911032 0.760758744326 -0.242552314615 1.046520832502 -0.111141932662 0.129384072110 -1.291974582394 -0.228097910691 -3.215900086709 -1.927974225865 -2.572818698098 -0.335206608304 0.703492660148 -0.234141254063 0.978607786020 -0.601500575067 -0.449517218241 -0.754344431851 -0.198956579209 -1.777036324643 -1.748639619163 -1.874206992853 -1.578115772681 -1.030352847146 -2.686896694338 -1.642505937747 -0.891804155728 -1.222075763694 0.864759324246 1.601890336446 1.936459908802 -1.222766484378 -1.371539519639 -2.185799066127 -2.795127271131 -1.690466978506 -4.014186936449 -3.874963473797 -0.564332031421 0.437810110011 0.707374463417 0.204157101440 -0.766465882463 0.788374462923 0.823893498192 -0.199008192762 -1.247637504273 -0.146909945102 -3.260395635806 -1.117570296880 -1.063608287412 -1.065983695253 -0.339152664283 0.092491115716 -1.709249940852 -1.483863757105 2.066069322138 2.447174328245 1.753390474076 0.172243678960 -0.883283401425 -1.983622358509 -0.487107905656 -3.998098401954 -3.656495336698 -3.055360198104 -1.298692309500 -0.954314615196 0.521590484131 0.423194204021 -0.209343656702 -0.730951887755 -0.425828677690 -0.272368636985 -0.974164363083 -0.335328057094 -0.425921240858 0.249873414550 -0.241481175623 0.613977483500 -0.553853159605 0.382275944719 -1.542167155087 -1.806811023617 0.304894105769 1.276729352826 -0.177384395496 0.641834667593 -1.865552138912 -2.089039819148 -3.976624009542 -3.111035612282 -3.185237082436 -2.685606253709 -0.916195451761 -0.767997582079 -0.342463341985 -0.196025665802 -0.978452547845 0.796896934218 0.048218353255 0.157112278277 0.600809318112 0.621411592085 0.187274399815 -1.069476992276 -0.747310960191 0.403967461281 -3.343552511455 0.355988760684 -0.794932816731 -1.177355686904 -0.547795616465 0.381196995308 1.372853300056 -2.004521265280 -0.352206404939 -3.044960347438 -1.758351375127 -2.656383043352 -1.960769386887 -1.123908681525 -0.714121524355 0.221154940016 -0.930904025457 0.158139062385 -0.072353185495 -0.478438892330 0.591374821179 1.750681071561 0.592557118052 0.585203091672 1.999242090144 0.680863741203 1.323684688490 -0.272406891835 -1.613546462410 -0.433143443627 -2.653584473244 -2.479946159257 -1.448045729468 -0.712798857158 0.093947354277 0.399413557294 -0.720296584596 -0.760442499189 0.707738703677 -0.016454637074 0.022805879527 0.686669702772 -0.825549605507 0.744160896959 0.501138700272 0.193556569272 -0.168894102648 0.438133222444 0.725106684192 0.734002009850 0.524921486280 0.534462360847 0.333056292571 -0.901420461958 -0.484434842862 -0.456749753973 -0.687375296061 0.062235115445 -1.700176360902 -2.648832240179 -0.862929659008 1.067556397453 1.113874893167 -0.379900059817 0.734294624409 0.853263687109 1.054049300758 0.634603079138 0.370943080047 -0.270261269292 0.737053610138 -0.523746435575 -0.006952235498 0.863708610355 0.804014491157 0.991641896544 -0.544378311519 0.172883726624 1.389855570142 0.779237779598 -0.312958196166 -1.507817414790 -2.379399025724 -1.431324584890 -0.866758872821 -2.066680356753 -1.920019189526 -1.796157191811 -1.975318809987 -1.000253271333 -0.802684951077 1.308457938573 1.118893634597 2.575332254222 1.145290452837 -0.116489751915 0.242187814065 -0.552563779817 0.454333267454 -0.208354207905 -0.382001071274 0.350514246889 -0.235473759848 -0.047410982364 1.257638043576 0.277449384147 -0.178755344705 -0.160153393197 0.552462019511 -0.950975584420 -1.495836403579 -1.292579903458 -2.024559968443 -1.771015929444 -3.205306750954 -2.308007663574 -0.966655949765 -0.916767769133 1.033819808374 -0.034135961764 0.875818331522 0.814794763396 0.209912389894 -0.448429929760 0.677699899915 0.239531069590 0.156906322625 0.902674680524 -0.863827506114 0.194904596958 0.684564249879 0.069820732822 0.594838142152 0.205395870158 -0.401502664071 -1.386887897550 0.907575308164 0.266221044057 1.216275430554 1.184450943195 0.564165592522 -1.064718059322 -1.325976241902 -0.244391056642 0.427007902897 0.980547061699 0.833401813602 0.443301388730 1.192933258639 -0.226263178147 1.175277254437 -0.755844172920 1.031572252717 0.269645781476 -0.898788622779 -0.356761397950 0.677890014952 0.586378511969 0.324964098743 0.318952368308 0.404718727111 1.527252095575 -0.654975085540 -1.188006047078 -1.403227831931 -0.802640212791 -0.404598915984 -0.023506525719 1.868742273891 2.177849177753 -0.654852520974 -0.913217882064 -2.094064379887 0.045150751129 -0.266156549273 -0.626490017768 0.974359702222 -0.614581615196 0.280732201517 -1.154102247523 -1.191526613680 0.091203967201 -0.403278788688 0.319539053651 0.465707792832 -0.073503817419 0.549845871767 -0.429727301438 1.047283125104 0.375631901667 -0.592637649187 0.072076579947 -0.768336442364 -0.229037250713 -1.335165010241 -0.548078385518 1.036878326253 0.973098417952 0.340162359513 -1.138428003984 -2.124989415421 -0.080703676864 0.630330689295 -0.088428854058 0.282522746377 -0.119062863029 -2.061312236872 -1.515932421435 -0.864931880369 -0.651807842053 -0.903702337431 0.724775504600 -0.108417940597 -0.014821635014 0.044491414734 -0.069069414252 0.450725681200 -0.309917840083 -0.202146475301 -1.482654884413 -1.350099601259 -0.494745740288 -1.134439992611 -0.730019150058 -1.046039650094 0.046886973241 -2.295896374080 -1.346339932957 -2.166591776247 -0.683550708060 -1.221618501601 -0.896160598617 -0.638172526144 0.090449893612 -1.538488656970 -0.880526282864 0.293472005142 -0.601000832821 -0.542721625439 0.809318166377 0.661926596804 0.922865869773 0.086345877154 0.646709870376 -0.303153468538 -1.137501776194 0.805732240157 -0.406474233252 0.062311319158 -0.667070054767 0.243715038018 -0.101581714564 -0.692527780299 -0.492574091775 -1.833519398082 -0.657604324201 -0.693622754057 -1.087628280113 -1.096914994722 -0.624319926937 -0.368408937772 -0.618379504970 0.331833262322 -1.271227220567 -0.238975133238 -1.216922842150 -0.530373752565 1.005531134416 -0.039113026926 -0.822038691425 0.920220292385 0.626364744431 0.784787660910 0.693436704364 1.384986976090 1.663718684013 0.984780570226 -0.347549093467 -0.235849639305 0.956788425476 0.122226590063 -1.177200942057 -1.862795029265 -1.346947661135 -1.421730496867 -2.145502363040 -2.068336115234 -0.434018980795 -0.616374589224 -0.365852362185 0.112635660601 -0.448267780263 0.258854782554 0.683009972136 -0.866540456291 0.743995405662 -0.482654004475 -0.714441579774 0.680626378261 -0.341807131057 -0.405387315301 1.222069542921 2.740797371180 1.765458362811 1.646934909653 0.922063592613 0.421896410605 -0.945400025713 -0.658553717576 -0.676345026628 -1.062649600656 -1.381796014198 -0.605004428627 -1.205828862287 0.196287470017 -0.955968299462 -1.469678617173 0.451689785478 0.958923370840 0.936667997727 0.803088380236 -0.383440039693 -0.522069364080 -0.461269968134 -0.236210541317 -0.644891685651 -0.710807073113 -0.928271527054 0.666763105171 1.491352710972 0.743350336985 1.296672120782 0.766026730814 -0.317544241611 -1.431030865275 -0.665923256025 0.407329837334 -0.830849810809 -0.140489866285 -0.705920863905 -0.659867090355 -0.216682668119 -2.129516656625 -0.966726528034 -0.893842105582 0.897684611565 0.301203885879 -0.636910451596 0.767066845379 0.061862071193 0.777353740318 0.076354423278 -0.913248576412 -0.340989917555 0.112395531978 0.143222281108 -0.841273039962 0.521136323447 0.337987037359 -0.089547763672 0.554929385973 0.062256186043 0.320321011363 -1.087972223397 -0.140463572839 -1.466184624599 -0.720010060973 -0.590802779694 -0.527866617089 0.740329933466 -0.706988521854 0.918820935535 0.530058927938 0.455751548696 0.179968356322 0.520743430025 -0.590296533379 -0.026546731083 -0.799968757228 0.061639615839 -0.052611579786 0.521425990035 -0.135805870482 0.647031983712 -0.524442189661 0.381088455053 0.381951675601 -0.167466781386 0.759779972637 -0.651840374395 -0.098274882972 0.358929701246 0.460866290206 -0.373510709786 0.050908755318 -1.088956524016 -0.049263915504 0.436253181789 0.313220411141 0.245504412368 -0.125511688675 -0.962362892065 0.120107245674 -0.023088637393 -0.044433100696 -0.711238398201 -0.452479760566 0.323753231437 -0.406201805587
-5.508584988144 -0.586161635082 0.390272262272 -0.243282369513 -0.325313412463 0.217112666436 0.151820607385 0.887684882630 -0.867593485372 0.683537504055 0.676402548501 0.182920653357 -0.889176853325 -0.568290027248 -0.082044337210 -0.464119118829 -0.742654300192 0.223124728905 0.822306345648 0.354413180677 0.848883355212 0.337219415211 0.453777434815 -0.484717943251 0.539295900227 -0.268382977582 0.465979777655 0.546804060568 -0.100795171064 -0.134794622826 0.412897930683 -0.009435586156 -0.009133475612 0.414032346014 0.902864981283 -0.786874438354 0.763301547506 -0.277960537743 0.606181080306 0.095813967564 -0.061664575942 -0.126085286581 1.084498725502 -0.572253538685 0.040359181411 1.472561024114 -0.024441299190 0.395628109597 0.091947473061 1.171745093712 0.399624786561 0.650990672965 0.918112812853 -0.051723393367 0.489678663910 -0.857845105966 -0.688756557257 -0.491244389813 0.270526043693 0.756288823103 0.537707493865 0.835968181099 0.401776584474 1.078665025749 2.171847107673 2.256436835989 1.167096554222 1.616165767058 2.017817063603 1.937828840745 3.769546862858 3.416853467879 1.934574533681 2.231939417275 1.543037718958 1.798689703925 1.010672590774 1.308086106921 0.230047993363 1.186512867805 -0.062939529707 0.035800293349 -0.256764323582 0.827350252868 -0.224615351212 0.366785549501 0.827590818337 -0.331936697588 -0.579934672129 -0.299794247506 0.219444675135 -0.066202882498 0.155409460902 0.711073471335 1.532383445937 1.359862568926 2.830426923176 2.024447265988 3.681517553127 3.728110863015 2.319516222225 2.074968638385 1.304621443633 1.091830386089 1.610170795670 0.368646436563 1.148358724595 0.791176596503 0.036338718926 -0.495573472877 -0.798122006066 -0.615130826730 -0.869555041898 -0.093734056415 -0.121415104301 0.697968041745 0.848891455104 -0.157236175774 0.662704707059 0.981462100398 0.628535116491 0.796265027709 1.121361794163 0.947134003494 1.651077115995 0.836074659464 0.834745521445 -0.906838507508 -1.817899429920 -0.429303194881 -0.118473654683 -1.069202556604 -0.953037168707 0.168041932771 -0.679578101410 -0.516343849625 -0.057203582187 -0.525373738801 0.657170524318 -0.709865674620 -0.212212958873 -0.334328142425 0.888291554390 0.368426226808 0.017134435418 -0.605291574505 -1.562555440375 -1.098814570088 -1.088706580456 -0.397923099518 -1.553321067253 0.143550744323 -0.677125888906 -0.576784631314 -1.057543270837 -2.093017265061 -2.839576612684 -2.348854507528 -1.418636699884 -0.569799682546 -0.004988316698 0.355695526884 -1.298452932668 -1.707462869492 -1.397998400569 -1.372370163067 -0.096618591403 -0.560265267451 -0.786215550746 -0.091663364855 -0.671451356102 0.521667127590 -0.167927028871 -1.226721829075 -1.405989121848 -1.964396298378 -1.543283655804 -2.643362507831 -3.619983991951 -2.222849691539 -1.866237252398 -1.707886341453 -2.506015989345 -1.943277212456 -0.495803509068 -1.573751020947 -0.449433427376 -2.751361452318 -2.755697953035 -3.244846933270 -3.529776982806 -3.336035536491 -2.380764399164 -3.062702027533 -0.808624031907 0.196748165650 -0.866229678849 0.856868585242 0.068554092775 -0.384644725671 -0.289454087792 -2.016332329058 -1.572940393251 -3.178397854311 -2.260926666185 -2.614638195790 -1.222699671882 -0.442205505452 -1.739404980174 -2.815673633618 -3.153519971832 -1.290826375919 -0.542354903414 -2.810691087481 -2.234265030376 -3.546683937047 -5.236890347469 -4.217728494611 -5.546206111294 -4.850256077650 -4.361187500677 -2.694649990756 -1.509560002307 0.227022157796 0.196076453357 0.702680999378 0.666367772993 0.229669274308 -0.324311731680 -1.139584055184 -1.410308775042 -1.143598534193 -2.714373637023 -0.635758020544 -0.103590529158 -2.130092230726 -2.425169285644 -2.696349350963 -2.407189382251 -5.652072562206 -4.539812903954 -5.284817225770 -5.659110058344 -7.635991916545 -5.782500842107 -6.257914454733 -6.495184119680 -4.181393821219 -4.685824468319 -4.305887241297 -1.569072478740 -1.162272110101 0.670033242315 0.744765551450 -0.082091965903 -0.680201564136 -0.272399129186 -0.322457468414 -1.445174183627 -1.675043762442 -1.153801338614 1.315259212883 -1.133632774872 -1.295793954237 -2.536630932855 0.175830151036 -3.871598005991 -3.975986275796 -5.765808532596 -6.089900797859 -8.769042985268 -6.194939657837 -6.221122631864 -5.275059978557 -5.886581732250 -5.688105006925 -2.891432391266 -2.325458409704 -3.185111752856 -1.092890232614 -0.166666810713 0.891836202345 0.194950958178 -1.066388225880 -0.979297893134 -0.399612273508 -1.306910939744 -1.709601341972 0.786995628608 2.158718883759 -0.339614437695 -0.680034171575 -1.490164735176 -1.056895207867 -1.083353087105 -1.120245863189 -2.393387449305 -1.218682737978 -2.210349740870 -2.512601099292 -3.552839694025 -2.160438568313 -3.635550890109 -3.142880169874 -1.049243619932 -1.791951639872 -1.602966179056 -1.448877888703 0.353357746543 -0.430286095363 -0.883442161287 0.463665670286 -0.335507588761 -0.651110512907 -1.851004010623 -0.627869420913 0.140985967258 -1.267713461383 -2.483790731837 -2.377952106673 -2.420930527325 -1.392516893708 0.345597768053 -2.623130882426 -3.766244881864 -0.212112313280 -0.492562075702 1.179781330012 -0.640787295402 0.547404380154 0.371441037308 -0.568106368885 1.307472788591 0.465315116944 -2.179378838073 -0.922819192997 -0.787605690662 0.147667316475 -0.618548999786 0.733812397967 -1.211481731023 -2.514156347241 -0.855062801646 1.339165175842 0.127571839429 -0.783239138128 -2.455468090224 -1.155897434228 -0.429426768908 -1.895450430811 -1.951160922609 -3.502001926091 -2.293747054883 2.265497048195 1.352263403832 0.274177533105 1.390732670361 0.777159565977 0.958555593078 0.520253071228 3.255332975302 2.022773827167 -2.393517225929 -1.955534448899 -0.428078974512 -0.036455109858 -0.362589083685 0.353556509386 0.327393436102 -2.506300372575 1.268122102709 0.556363196376 -0.083228763568 -0.985014824581 -0.485633885030 -0.564201235332 0.766978208995 -1.024912333465 -1.805993065573 -4.151796851636 -2.192526284775 -0.341569101102 -4.407957114905 -0.236193942910 0.833219393796 -0.386276234145 0.555505607375 2.803086905932 7.700162655256 4.567510100717 -0.161394553761 0.023477227271 -0.539509582648 0.427634710392 0.446340823079 0.287331545084 -0.696731744096 -1.982646078512 1.257206184179 2.510251435313 -0.007367295219 0.953880115616 -0.591674375691 -1.080932534750 2.466555805375 -1.773506537465 -2.619786610231 -2.110281423505 -1.258495108080 -0.741907298465 -2.529585833545 -0.154175282251 -0.151921506674 1.386711602893 1.765978258254 4.165025327868 6.193233765293 4.491382857584 -0.483111669058 -0.499105654431 -0.512780475530 -0.344246562274 -0.614154894340 0.445711355067 0.227046851490 -1.164701701835 0.759041496756 3.688106031015 0.105473558823 -0.758208540827 -0.217399698987 1.881430052144 1.269857379755 -2.397692888098 -2.152550870749 -0.574163498263 0.100300084574 -1.301464198662 -1.127120562092 0.424763068510 1.192552973488 2.226424224200 1.250609349325 1.915819727608 1.377706533352 0.901972984667 0.123019288397 -0.164111668498 0.499779554511 -0.933713074572 0.732725058685 -0.295576630758 0.175227040682 -0.342205664314 0.809169187958 1.937026704385 1.440529743982 -0.808876733613 2.271392259819 1.358906781650 1.913155707061 -1.728435732598 -1.477837779175 -1.164681800777 0.004804128852 0.073001992090 -0.639287433782 0.276094745270 1.445630645389 1.213795908757 0.269970890279 0.513309243302 0.701929751199 1.519248239982 -0.107271213624 0.144331970088 -0.175802778284 -0.799166892524 -0.654969866106 0.717828221091 -1.293683658394 -1.837751751038 -0.587735089512 1.749637265865 -0.155652013155 -1.004046021484 0.127884529851 3.369025205115 4.275911168189 2.198829563183 1.876706390165 -0.060248803314 -0.877920342185 -1.674348251342 0.810020203095 2.219505256987 -0.690483651403 0.019413849343 -1.050420906843 0.438347702349 0.939954493318 1.030134224092 0.606919906169 -0.144552865433 0.511827110801 -0.446660008500 0.901611404247 -0.588215355019 -0.723441229457 -1.506899914239 0.197760439160 -1.052551918615 -0.318501383775 0.957916073010 0.489716640807 1.188885001165 1.565237792476 3.057815199637 1.213852852607 0.449156557543 -0.314693183406 1.029382624685 0.780265810212 1.429638022448 -1.486287155927 -0.265285706507 0.731825231244 0.807842582487 0.822707468232 -0.825847314819 0.107319407480 0.331842648755 0.179876858757 0.788966110744 0.278082951480 0.204542287906 -1.515446535129 -1.356715190126 -1.538561740124 -3.137772650645 -0.831730678511 0.049665086970 -0.085467996097 1.426208566170 2.536529526845 2.489570780827 0.348733416498 1.586805020297 1.126563271508 0.947219531468 0.879847844162 0.163216564189 -0.999907095816 0.095963901407 0.387632340292 -0.035851285793 0.964059145213 0.403379333376 -0.038843438034 0.272040745041 0.426408174061 -0.112604157883 0.314331662615 0.754366734457 0.203154241115 -0.939766466557 -2.969072443873 -1.617296261457 -1.738176367913 -3.503689917018 -1.402584648464 -0.121246893247 0.134084346249 1.637631344673 -0.296045839009 1.128903223811 1.906090771817 0.792128974830 0.481110901500 0.476074890863 0.476409850458 -0.895795016544 0.910134186635 -0.387257119819 -1.575370921121 -0.666025157974 -1.425727620544 0.159899683061 0.795561566971 -0.062278172531 0.800880725263 0.223538630185 -0.965519520650 -0.458305979937 -1.397276936148 -2.303984645003 -2.547440537824 -2.573575109484 -1.707052286523 -0.623354330741 -0.298824179412 1.530852294636 1.964806873936 1.697271440205 0.684504308111 0.195389114250 1.076713219170 0.277623311986 -0.484531484287 -0.123524107859 -1.175712532458 -3.152853244640 -1.854747020663 -2.046140284601 -0.770340508750 0.483288797590 -0.347017376148 0.605027836931 -0.133656028617 0.693972036025 0.775815320441 -0.033616253902 -1.432230557789 -1.274727517984 -0.312272614779 -2.550588451608 -1.905924932265 -0.037948573244 -1.856936235304 -0.771515467760 -0.257541537107 -1.583288366358 -0.116840324412 -1.694817880213 -3.508164347060 -4.682884912817 -3.312437872788 -2.812475471081 -1.641047666221 -1.845186677124 -1.082491287870 -1.946624179372 0.020121687651 -0.454748039491 0.862749933244 0.125456318028 -0.083694124719 0.186161709743 -0.862119294355 -0.106405588696 -1.258333999847 -0.165860799189 -0.355230383867 -1.142026766764 -1.501219969806 -0.984598690577 -3.484372942346 -2.503114924977 -3.107721414368 -2.775843264283 -2.954604292816 -3.628644540034 -4.046863676179 -5.204655011689 -3.613953096687 -2.170792501228 -1.565049220512 -0.611549677614 -1.445329573487 -0.876690060255 -0.312991447821 -0.019459342713 0.508525114844 -0.533316184650 -0.620026189694 -0.114443566334 0.909178401513 -0.653537642882 -0.522481667177 -0.316110351059 0.328790704144 0.007337544856 0.654105668022 0.057677031640 -0.069056921880 0.980367618954 -0.788797031963 -0.606505875319 -0.761930066106 1.173448302393 -1.441082591432 -1.408945914879 -0.383754089764 -0.184376401961 -0.663478278159 -0.585786914512 -0.785276332402 0.117787023417 -0.524965498581 -0.202837249504 0.497899396788 0.508698098248 0.769365710536 -0.338703766716 -0.217200388013 0.671903159578 0.315534779140 0.521301053789 -0.104721369674 0.013788260356 -1.181041642045 -0.516906191831 0.712490356114 -0.593044830758 -0.227000247481 -0.621261435571 0.797479894739 -0.085681411313 -0.082836971429 -1.789044309183 0.349724880836 -0.782434978817 0.818146678174 -0.814942786426 -0.030029511843 0.803783109182 -0.991718413315 0.013967049753 -0.033836939989 0.543154556425 -0.080840117041 0.109670877372 0.774999876728 -0.829216058846 -0.767458076107 0.555962785336 0.780144275139 0.140217711633 -0.172499125726 0.180293943048 0.499109636308 0.487917527964 -1.120320823644 -1.051507567329 -1.343610372679 -0.989393238691 -0.758948476352 -0.404933036510 -0.334857035544 -0.745072215483 0.056184379296 0.389795257313 0.525115438833 -0.525986997725 0.904662018217 0.737745061284 0.088496428092 0.668764529846 0.949830711805 -0.706746038083 0.019976205867 -0.854225213403 -0.668982210214 -0.346204456535 0.140749727041 0.224445372929 -0.775989490340 0.089480582444 0.730473981905 0.600575567026 0.663554675106 -0.862761891026 0.222898197841 -0.505512768548 -0.500660509660 -0.626427617937 -0.384759398253 0.467500201529 0.424694273110 -0.070145201862 0.360253712819 0.462467666385 0.006654568232 0.723092122685 0.120276672865
